SVM-light Version V6.02
0 # kernel type
3 # kernel parameter -d 
1 # kernel parameter -g 
1 # kernel parameter -s 
1 # kernel parameter -r 
empty# kernel parameter -u 
10746 # highest feature index 
5134 # number of training documents 
1174 # number of support vectors plus 1 
1.3519689 # threshold b, each following line is a SV (starting with alpha*y)
0.0020125847716720790883671021731516 2:1 6:1 7:1 9:1 11:1 15:1 16:1 17:1 18:1 19:1 20:1 21:1 22:1 24:1 25:1 26:1 27:1 28:1 29:1 30:1 31:1 32:1 36:1 38:1 45:1 47:1 49:1 62:1 66:1 73:1 75:1 76:1 78:1 84:1 85:1 89:1 91:1 94:1 95:1 102:1 106:1 108:1 110:1 114:1 116:1 120:1 123:1 124:1 126:1 129:1 130:1 131:1 133:1 149:1 152:1 153:1 158:1 159:1 169:1 170:1 175:1 176:1 185:1 187:1 196:1 208:1 210:1 213:1 214:1 223:1 232:1 244:1 281:1 285:1 293:1 312:1 314:1 322:1 332:1 333:1 351:1 368:1 378:1 385:1 387:1 393:1 403:1 408:1 409:1 411:1 416:1 425:1 428:1 429:1 431:1 443:1 462:1 464:1 472:1 477:1 490:1 491:1 510:1 529:1 533:1 569:1 601:1 607:1 609:1 620:1 628:1 632:1 635:1 636:1 640:1 649:1 654:1 663:1 675:1 719:1 725:1 758:1 763:1 767:1 810:1 815:1 817:1 842:1 843:1 913:1 925:1 963:1 970:1 1008:1 1013:1 1044:1 1093:1 1107:1 1123:1 1372:1 1374:1 1407:1 1408:1 1426:1 1437:1 1478:1 1570:1 1591:1 1603:1 1624:1 1674:1 1695:1 1760:1 1827:1 1842:1 1888:1 1906:1 1917:1 1986:1 2097:1 2168:1 2193:1 2298:1 2347:1 2406:1 2416:1 2418:1 2457:1 2600:1 2912:1 2962:1 2970:1 3085:1 3127:1 3152:1 3187:1 3207:1 3420:1 3474:1 3562:1 3607:1 3621:1 3883:1 3920:1 3955:1 3964:1 4029:1 4055:1 4181:1 4201:1 4482:1 4498:1 4692:1 4873:1 4963:1 4967:1 5084:1 5362:1 5495:1 5576:1 5710:1 5773:1 5896:1 6130:1 6483:1 6509:1 6557:1 6579:1 6621:1 6702:1 6743:1 7304:1 7433:1 7475:1 7605:1 7611:1 7619:1 7803:1 8179:1 8484:1 8551:1 8634:1 8743:1 9423:1 9456:1 10564:1 #
-0.0054351224799169062587567147204481 1:1 2:1 3:1 6:1 8:1 10:1 11:1 14:1 15:1 16:1 17:1 18:1 21:1 23:1 24:1 25:1 29:1 30:1 31:1 35:1 36:1 48:1 49:1 63:1 66:1 67:1 73:1 88:1 98:1 101:1 106:1 116:1 125:1 130:1 135:1 138:1 150:1 158:1 170:1 172:1 174:1 187:1 195:1 209:1 217:1 218:1 229:1 236:1 240:1 243:1 248:1 254:1 265:1 289:1 308:1 316:1 319:1 322:1 329:1 332:1 364:1 368:1 376:1 382:1 436:1 461:1 463:1 465:1 470:1 515:1 560:1 620:1 625:1 646:1 666:1 667:1 669:1 674:1 700:1 709:1 786:1 832:1 840:1 849:1 859:1 904:1 905:1 933:1 941:1 950:1 971:1 980:1 994:1 999:1 1036:1 1049:1 1064:1 1065:1 1112:1 1219:1 1228:1 1234:1 1273:1 1365:1 1380:1 1452:1 1531:1 1551:1 1593:1 1630:1 1685:1 1748:1 1757:1 1827:1 1888:1 1987:1 2063:1 2066:1 2090:1 2094:1 2130:1 2133:1 2169:1 2360:1 2409:1 2415:1 2442:1 2537:1 2568:1 2621:1 2635:1 2739:1 2811:1 2815:1 2852:1 3188:1 3359:1 3433:1 3571:1 3743:1 3762:1 3940:1 3969:1 4156:1 4346:1 4498:1 4576:1 4658:1 4727:1 4730:1 5147:1 5180:1 5284:1 5314:1 5464:1 5836:1 5921:1 6274:1 6312:1 6356:1 7119:1 7272:1 7430:1 7510:1 7846:1 8855:1 8986:1 9002:1 10342:1 10635:1 #
0.0054351224799169062587567147204481 2:1 4:1 5:1 6:1 7:1 8:1 11:1 12:1 13:1 15:1 16:1 17:1 18:1 19:1 20:1 22:1 24:1 25:1 26:1 28:1 29:1 30:1 31:1 34:1 35:1 36:1 39:1 44:1 51:1 52:1 56:1 59:1 61:1 62:1 67:1 68:1 69:1 73:1 78:1 79:1 86:1 90:1 94:1 95:1 96:1 99:1 101:1 102:1 103:1 107:1 114:1 117:1 130:1 135:1 154:1 158:1 164:1 170:1 186:1 187:1 188:1 190:1 195:1 202:1 205:1 212:1 213:1 218:1 221:1 231:1 243:1 244:1 250:1 255:1 258:1 265:1 276:1 277:1 278:1 285:1 295:1 304:1 308:1 319:1 322:1 331:1 333:1 341:1 343:1 347:1 356:1 357:1 382:1 391:1 392:1 396:1 404:1 407:1 414:1 416:1 423:1 426:1 452:1 463:1 470:1 515:1 543:1 561:1 581:1 599:1 600:1 618:1 620:1 630:1 640:1 648:1 660:1 666:1 691:1 708:1 714:1 719:1 745:1 758:1 772:1 800:1 806:1 815:1 819:1 838:1 844:1 849:1 897:1 905:1 947:1 994:1 996:1 1005:1 1021:1 1035:1 1048:1 1060:1 1067:1 1075:1 1087:1 1092:1 1093:1 1176:1 1196:1 1275:1 1305:1 1397:1 1441:1 1465:1 1480:1 1534:1 1620:1 1637:1 1639:1 1646:1 1704:1 1749:1 1784:1 1788:1 1845:1 1855:1 1927:1 2027:1 2106:1 2167:1 2177:1 2347:1 2415:1 2428:1 2623:1 2681:1 2718:1 2739:1 2790:1 2809:1 2968:1 3021:1 3066:1 3098:1 3100:1 3359:1 3487:1 3681:1 3775:1 3801:1 3869:1 4142:1 4161:1 4236:1 4271:1 4291:1 4406:1 4747:1 4814:1 5176:1 5215:1 5345:1 5399:1 5402:1 5464:1 5663:1 5737:1 5770:1 5813:1 5961:1 6099:1 6111:1 6145:1 6178:1 6192:1 7257:1 7590:1 7606:1 7636:1 7694:1 7737:1 7746:1 7797:1 7851:1 7922:1 8236:1 8324:1 8551:1 8687:1 8739:1 8856:1 9079:1 10278:1 #
0.0030612503352797524810990914545528 1:1 7:1 8:1 10:1 11:1 12:1 13:1 15:1 16:1 17:1 18:1 19:1 20:1 21:1 22:1 23:1 24:1 25:1 27:1 29:1 30:1 31:1 34:1 35:1 39:1 42:1 45:1 48:1 51:1 52:1 54:1 57:1 62:1 65:1 67:1 68:1 69:1 71:1 78:1 80:1 81:1 86:1 89:1 91:1 93:1 94:1 95:1 96:1 98:1 99:1 102:1 104:1 108:1 112:1 114:1 117:1 120:1 123:1 126:1 131:1 133:1 135:1 147:1 153:1 155:1 158:1 159:1 160:1 163:1 168:1 172:1 175:1 182:1 185:1 186:1 195:1 202:1 204:1 206:1 210:1 213:1 227:1 232:1 234:1 244:1 245:1 251:1 257:1 265:1 277:1 279:1 308:1 320:1 322:1 323:1 333:1 357:1 364:1 365:1 369:1 381:1 387:1 394:1 397:1 399:1 404:1 406:1 408:1 411:1 428:1 440:1 457:1 458:1 475:1 478:1 481:1 490:1 491:1 500:1 502:1 510:1 529:1 541:1 548:1 566:1 569:1 575:1 618:1 630:1 649:1 674:1 698:1 746:1 755:1 758:1 772:1 783:1 789:1 802:1 811:1 815:1 820:1 857:1 862:1 894:1 905:1 912:1 978:1 988:1 1008:1 1047:1 1057:1 1061:1 1067:1 1070:1 1094:1 1122:1 1142:1 1161:1 1188:1 1189:1 1257:1 1374:1 1388:1 1407:1 1408:1 1419:1 1437:1 1458:1 1478:1 1480:1 1487:1 1512:1 1524:1 1534:1 1567:1 1580:1 1605:1 1733:1 1796:1 1827:1 1837:1 1917:1 1933:1 1964:1 1986:1 2030:1 2077:1 2104:1 2117:1 2120:1 2160:1 2168:1 2193:1 2208:1 2233:1 2238:1 2309:1 2394:1 2416:1 2443:1 2588:1 2613:1 2660:1 2709:1 2743:1 2771:1 2833:1 2860:1 2974:1 3043:1 3089:1 3114:1 3206:1 3207:1 3272:1 3365:1 3474:1 3487:1 3619:1 3802:1 3804:1 3965:1 3974:1 4050:1 4075:1 4080:1 4110:1 4134:1 4199:1 4224:1 4236:1 4289:1 4296:1 4498:1 4559:1 4692:1 4751:1 4912:1 4925:1 4938:1 4995:1 5118:1 5342:1 5466:1 5479:1 5747:1 6026:1 6173:1 6509:1 6542:1 6585:1 6617:1 6681:1 6817:1 6861:1 6951:1 6990:1 7015:1 7025:1 7044:1 7128:1 7436:1 7438:1 7510:1 7652:1 7770:1 7870:1 7878:1 7890:1 8004:1 8132:1 8158:1 8165:1 8585:1 8772:1 8859:1 8869:1 8948:1 9129:1 9241:1 9323:1 9339:1 9369:1 9508:1 9685:1 9940:1 10102:1 10147:1 10356:1 #
-0.0017252533184184952897571863061899 2:1 5:1 7:1 11:1 12:1 15:1 16:1 17:1 18:1 21:1 22:1 23:1 25:1 27:1 29:1 30:1 34:1 36:1 40:1 41:1 43:1 51:1 52:1 53:1 59:1 61:1 62:1 67:1 69:1 72:1 73:1 77:1 84:1 89:1 90:1 91:1 98:1 99:1 102:1 103:1 104:1 113:1 114:1 120:1 122:1 133:1 134:1 141:1 146:1 156:1 170:1 174:1 185:1 187:1 199:1 205:1 209:1 212:1 213:1 222:1 231:1 238:1 243:1 250:1 270:1 277:1 308:1 319:1 322:1 331:1 333:1 345:1 357:1 368:1 379:1 390:1 406:1 407:1 430:1 436:1 449:1 482:1 491:1 553:1 566:1 620:1 632:1 762:1 806:1 811:1 831:1 849:1 867:1 874:1 880:1 891:1 925:1 1008:1 1012:1 1015:1 1092:1 1155:1 1183:1 1229:1 1369:1 1476:1 1502:1 1627:1 1692:1 1698:1 1741:1 1827:1 1929:1 1938:1 1972:1 1979:1 2000:1 2038:1 2076:1 2137:1 2172:1 2184:1 2274:1 2408:1 2415:1 2725:1 2778:1 2780:1 3001:1 3042:1 3073:1 3341:1 3487:1 3515:1 3690:1 3727:1 3801:1 3826:1 3863:1 3866:1 3885:1 3905:1 4062:1 4071:1 4110:1 4128:1 4144:1 4249:1 4373:1 4642:1 4643:1 4862:1 4886:1 4973:1 4977:1 5107:1 5123:1 5234:1 5389:1 5417:1 5819:1 5911:1 6363:1 6446:1 6661:1 6792:1 6863:1 7084:1 7267:1 7513:1 7959:1 8113:1 8826:1 8935:1 9821:1 9846:1 10345:1 10377:1 10455:1 #
-0.001271576181386912174006709186358 1:1 6:1 7:1 10:1 11:1 15:1 16:1 17:1 18:1 20:1 21:1 22:1 24:1 30:1 34:1 36:1 47:1 52:1 56:1 62:1 68:1 75:1 84:1 94:1 95:1 98:1 102:1 103:1 104:1 105:1 113:1 114:1 123:1 131:1 136:1 147:1 163:1 168:1 172:1 187:1 198:1 202:1 210:1 213:1 216:1 221:1 226:1 245:1 279:1 301:1 322:1 333:1 339:1 345:1 350:1 351:1 357:1 387:1 404:1 407:1 435:1 452:1 475:1 495:1 509:1 521:1 569:1 575:1 581:1 583:1 608:1 614:1 618:1 640:1 642:1 649:1 653:1 688:1 746:1 750:1 758:1 809:1 882:1 909:1 912:1 988:1 1005:1 1008:1 1009:1 1029:1 1042:1 1090:1 1111:1 1173:1 1189:1 1200:1 1282:1 1374:1 1434:1 1441:1 1476:1 1554:1 1568:1 1602:1 1643:1 1845:1 1849:1 1854:1 1922:1 1933:1 1951:1 2097:1 2171:1 2198:1 2292:1 2308:1 2417:1 2585:1 2682:1 2733:1 2813:1 3073:1 3097:1 3108:1 3283:1 3308:1 3449:1 3457:1 3668:1 3761:1 3932:1 4234:1 4790:1 4939:1 4967:1 5118:1 5147:1 5206:1 5251:1 5457:1 5955:1 6289:1 6574:1 6968:1 6990:1 7094:1 7302:1 7403:1 7437:1 7754:1 7833:1 8038:1 8078:1 8128:1 8775:1 9241:1 9471:1 10212:1 10323:1 #
0.0034207231003375374034369826858892 7:1 11:1 12:1 16:1 18:1 21:1 25:1 29:1 30:1 31:1 45:1 47:1 51:1 52:1 62:1 65:1 67:1 74:1 88:1 90:1 93:1 98:1 99:1 106:1 108:1 113:1 116:1 131:1 135:1 141:1 158:1 162:1 172:1 175:1 185:1 204:1 209:1 214:1 222:1 223:1 248:1 287:1 292:1 308:1 322:1 325:1 329:1 333:1 339:1 394:1 405:1 429:1 472:1 491:1 522:1 529:1 564:1 635:1 649:1 659:1 715:1 746:1 758:1 766:1 826:1 876:1 950:1 990:1 994:1 995:1 1008:1 1023:1 1025:1 1047:1 1073:1 1078:1 1086:1 1098:1 1138:1 1250:1 1374:1 1472:1 1687:1 1827:1 1850:1 1986:1 2169:1 2193:1 2278:1 2406:1 2409:1 2442:1 2620:1 2739:1 2748:1 3211:1 3345:1 3708:1 3973:1 4498:1 4610:1 4617:1 4692:1 4967:1 5087:1 5278:1 5510:1 5912:1 5955:1 6070:1 6709:1 7175:1 8516:1 8986:1 9358:1 9612:1 #
0.0014170483765899861538367643376546 10:1 12:1 16:1 18:1 21:1 22:1 24:1 25:1 26:1 30:1 34:1 42:1 60:1 67:1 68:1 71:1 76:1 77:1 82:1 83:1 90:1 93:1 98:1 99:1 102:1 104:1 108:1 110:1 129:1 130:1 131:1 136:1 137:1 146:1 175:1 185:1 202:1 213:1 214:1 252:1 289:1 318:1 333:1 352:1 355:1 381:1 406:1 407:1 408:1 411:1 428:1 438:1 457:1 472:1 475:1 491:1 508:1 529:1 575:1 628:1 649:1 694:1 758:1 800:1 816:1 843:1 895:1 909:1 912:1 937:1 1008:1 1094:1 1138:1 1184:1 1374:1 1424:1 1497:1 1631:1 1806:1 1827:1 1854:1 1986:1 2097:1 2193:1 2344:1 2369:1 2382:1 2471:1 2613:1 2790:1 3055:1 3161:1 3438:1 4059:1 4366:1 4482:1 4498:1 4572:1 4692:1 4752:1 4823:1 4956:1 5133:1 5315:1 5386:1 5779:1 5984:1 6083:1 6478:1 6618:1 7079:1 7243:1 7436:1 7475:1 7619:1 8029:1 8142:1 8182:1 8659:1 8836:1 8857:1 9338:1 9456:1 9695:1 10169:1 10310:1 10561:1 #
0.0051614438980989571156832163012496 5:1 7:1 8:1 11:1 14:1 16:1 17:1 21:1 24:1 25:1 30:1 82:1 88:1 92:1 97:1 109:1 110:1 113:1 116:1 124:1 131:1 135:1 138:1 150:1 159:1 166:1 175:1 185:1 214:1 227:1 238:1 267:1 287:1 323:1 326:1 333:1 352:1 364:1 395:1 411:1 417:1 491:1 492:1 521:1 529:1 533:1 560:1 575:1 649:1 758:1 774:1 852:1 963:1 1008:1 1044:1 1112:1 1178:1 1373:1 1503:1 1549:1 1744:1 1827:1 1900:1 1986:1 2030:1 2139:1 2193:1 2242:1 2331:1 2366:1 2422:1 3055:1 3475:1 3618:1 3701:1 3766:1 3784:1 4498:1 4508:1 4666:1 4692:1 5246:1 6366:1 6942:1 6972:1 7175:1 7328:1 7661:1 8713:1 9864:1 9937:1 10359:1 #
-0.0017626540099892863081715299600205 1:1 2:1 3:1 4:1 8:1 9:1 11:1 12:1 13:1 15:1 17:1 18:1 19:1 20:1 23:1 24:1 25:1 26:1 28:1 29:1 30:1 31:1 32:1 34:1 36:1 37:1 38:1 39:1 41:1 44:1 45:1 47:1 48:1 53:1 55:1 56:1 59:1 61:1 62:1 63:1 65:1 66:1 67:1 68:1 71:1 73:1 74:1 78:1 79:1 81:1 83:1 85:1 86:1 87:1 89:1 90:1 95:1 96:1 103:1 112:1 126:1 129:1 136:1 144:1 149:1 150:1 152:1 153:1 159:1 161:1 162:1 163:1 170:1 174:1 175:1 181:1 185:1 186:1 187:1 188:1 189:1 195:1 196:1 197:1 200:1 210:1 211:1 213:1 215:1 221:1 225:1 226:1 227:1 228:1 231:1 235:1 236:1 237:1 238:1 239:1 244:1 245:1 252:1 295:1 297:1 304:1 314:1 337:1 351:1 355:1 357:1 364:1 372:1 378:1 381:1 382:1 386:1 392:1 396:1 404:1 405:1 408:1 416:1 425:1 431:1 436:1 456:1 475:1 477:1 481:1 485:1 486:1 495:1 496:1 511:1 526:1 551:1 581:1 606:1 617:1 651:1 659:1 660:1 663:1 668:1 703:1 725:1 742:1 770:1 775:1 777:1 805:1 814:1 815:1 816:1 820:1 827:1 830:1 853:1 857:1 873:1 878:1 887:1 911:1 922:1 936:1 953:1 1008:1 1026:1 1046:1 1057:1 1091:1 1135:1 1137:1 1165:1 1166:1 1176:1 1184:1 1204:1 1376:1 1398:1 1445:1 1498:1 1500:1 1514:1 1525:1 1527:1 1557:1 1620:1 1675:1 1690:1 1704:1 1796:1 1813:1 1827:1 1845:1 1914:1 1919:1 2053:1 2100:1 2129:1 2160:1 2222:1 2224:1 2225:1 2228:1 2248:1 2280:1 2312:1 2382:1 2394:1 2475:1 2503:1 2609:1 2628:1 2671:1 2702:1 2706:1 2753:1 2778:1 2797:1 2846:1 2849:1 2850:1 2909:1 2942:1 3071:1 3181:1 3200:1 3245:1 3274:1 3346:1 3406:1 3440:1 3472:1 3542:1 3690:1 3818:1 4089:1 4305:1 4431:1 4891:1 5161:1 5211:1 5260:1 5274:1 5396:1 5399:1 5533:1 5877:1 5903:1 5964:1 6044:1 6239:1 6267:1 6273:1 6288:1 6444:1 6502:1 7077:1 7189:1 7238:1 7414:1 7553:1 7805:1 7871:1 8017:1 8021:1 8029:1 8208:1 8874:1 9643:1 9873:1 9963:1 10110:1 #
-0.0054351224799169062587567147204481 1:1 10:1 11:1 16:1 17:1 18:1 22:1 25:1 27:1 28:1 30:1 31:1 32:1 36:1 44:1 52:1 63:1 66:1 67:1 69:1 71:1 73:1 86:1 93:1 95:1 98:1 102:1 103:1 104:1 110:1 111:1 112:1 129:1 131:1 135:1 137:1 163:1 170:1 175:1 177:1 185:1 187:1 213:1 214:1 252:1 265:1 308:1 325:1 333:1 352:1 366:1 387:1 408:1 410:1 453:1 458:1 491:1 500:1 521:1 529:1 575:1 581:1 629:1 649:1 653:1 694:1 701:1 872:1 909:1 923:1 988:1 1008:1 1010:1 1022:1 1057:1 1067:1 1255:1 1280:1 1374:1 1383:1 1426:1 1647:1 1733:1 1825:1 1827:1 1986:1 2051:1 2077:1 2193:1 2233:1 2278:1 3460:1 3472:1 3506:1 3804:1 3919:1 3944:1 3974:1 4498:1 4692:1 4908:1 4995:1 5587:1 5597:1 5814:1 5937:1 6173:1 6460:1 6618:1 6817:1 7128:1 7238:1 7254:1 7293:1 7436:1 7438:1 7475:1 7770:1 7807:1 8051:1 8316:1 8365:1 8424:1 8567:1 9003:1 9032:1 9038:1 9129:1 9212:1 9404:1 9480:1 9549:1 9829:1 9832:1 9877:1 9940:1 10706:1 #
-0.0054351224799169062587567147204481 7:1 8:1 11:1 12:1 13:1 15:1 16:1 17:1 18:1 20:1 21:1 25:1 29:1 30:1 31:1 32:1 34:1 44:1 49:1 67:1 69:1 73:1 84:1 86:1 101:1 102:1 110:1 113:1 131:1 141:1 168:1 170:1 175:1 185:1 209:1 229:1 232:1 253:1 276:1 287:1 308:1 318:1 325:1 333:1 352:1 364:1 408:1 411:1 491:1 502:1 521:1 522:1 529:1 575:1 581:1 609:1 649:1 659:1 695:1 740:1 769:1 814:1 897:1 923:1 940:1 952:1 1008:1 1028:1 1374:1 1596:1 1638:1 1827:1 1964:1 1986:1 2066:1 2077:1 2169:1 2193:1 2220:1 2233:1 2350:1 2930:1 2990:1 3120:1 3153:1 3472:1 3614:1 4269:1 4498:1 4692:1 4708:1 4795:1 4852:1 5285:1 5400:1 5662:1 5703:1 5785:1 5814:1 6141:1 6166:1 6173:1 6919:1 7128:1 7175:1 7254:1 7436:1 7619:1 7807:1 8316:1 8365:1 8532:1 8666:1 9038:1 9129:1 9186:1 9212:1 9244:1 9299:1 9315:1 9367:1 9396:1 9479:1 9549:1 9757:1 9829:1 9832:1 9909:1 9940:1 10706:1 #
-0.0054351224799169062587567147204481 15:1 16:1 19:1 29:1 32:1 36:1 39:1 44:1 48:1 51:1 67:1 69:1 78:1 102:1 126:1 131:1 135:1 136:1 175:1 185:1 189:1 192:1 195:1 202:1 236:1 238:1 268:1 270:1 308:1 323:1 333:1 352:1 408:1 411:1 458:1 491:1 500:1 508:1 529:1 575:1 581:1 649:1 740:1 746:1 758:1 798:1 909:1 1008:1 1374:1 1487:1 1672:1 1789:1 1827:1 1969:1 1986:1 2077:1 2193:1 2233:1 2681:1 2852:1 2990:1 3119:1 3177:1 3242:1 3614:1 3801:1 3804:1 3919:1 4225:1 4256:1 4296:1 4360:1 4482:1 4498:1 4617:1 4690:1 4692:1 5069:1 5444:1 5668:1 5814:1 6938:1 7438:1 7619:1 7678:1 7807:1 7837:1 8532:1 8760:1 8869:1 9003:1 9032:1 9782:1 10306:1 10706:1 #
-0.0054351224799169062587567147204481 1:1 2:1 3:1 9:1 10:1 11:1 12:1 15:1 16:1 17:1 18:1 20:1 21:1 25:1 29:1 30:1 31:1 32:1 34:1 36:1 39:1 51:1 57:1 66:1 72:1 73:1 78:1 81:1 95:1 103:1 125:1 128:1 131:1 136:1 137:1 150:1 160:1 165:1 166:1 168:1 175:1 185:1 189:1 191:1 202:1 204:1 209:1 213:1 237:1 238:1 251:1 308:1 318:1 326:1 332:1 333:1 352:1 370:1 377:1 392:1 396:1 400:1 408:1 457:1 460:1 467:1 480:1 491:1 502:1 521:1 529:1 549:1 553:1 606:1 640:1 641:1 649:1 680:1 695:1 740:1 746:1 758:1 787:1 806:1 843:1 894:1 905:1 963:1 1008:1 1044:1 1205:1 1226:1 1374:1 1377:1 1450:1 1500:1 1503:1 1530:1 1567:1 1604:1 1827:1 1846:1 1904:1 1986:1 2039:1 2052:1 2062:1 2077:1 2113:1 2193:1 2233:1 2446:1 2654:1 2966:1 3472:1 3784:1 3804:1 3919:1 4062:1 4092:1 4256:1 4375:1 4440:1 4617:1 5710:1 5785:1 5814:1 5877:1 5981:1 6141:1 7229:1 7606:1 8135:1 8365:1 8409:1 8496:1 8532:1 8760:1 8861:1 9003:1 9297:1 9311:1 9796:1 10536:1 #
-0.0054351224799169062587567147204481 1:1 5:1 6:1 11:1 12:1 13:1 14:1 15:1 16:1 17:1 18:1 19:1 21:1 24:1 25:1 29:1 30:1 31:1 32:1 35:1 36:1 41:1 44:1 48:1 51:1 54:1 56:1 60:1 62:1 63:1 74:1 81:1 92:1 97:1 102:1 110:1 117:1 122:1 124:1 130:1 131:1 135:1 138:1 157:1 172:1 177:1 185:1 187:1 205:1 227:1 236:1 238:1 245:1 280:1 287:1 289:1 295:1 301:1 322:1 329:1 332:1 333:1 339:1 352:1 355:1 364:1 387:1 399:1 406:1 407:1 408:1 411:1 416:1 427:1 433:1 440:1 465:1 471:1 472:1 473:1 475:1 500:1 521:1 522:1 529:1 560:1 575:1 607:1 613:1 618:1 641:1 649:1 651:1 653:1 667:1 725:1 740:1 743:1 759:1 794:1 812:1 842:1 848:1 849:1 891:1 905:1 911:1 952:1 963:1 988:1 1033:1 1041:1 1044:1 1078:1 1098:1 1109:1 1205:1 1254:1 1269:1 1280:1 1374:1 1378:1 1387:1 1421:1 1428:1 1463:1 1491:1 1494:1 1503:1 1530:1 1580:1 1607:1 1669:1 1744:1 1754:1 1789:1 1888:1 1961:1 1969:1 2030:1 2052:1 2056:1 2077:1 2095:1 2097:1 2135:1 2151:1 2193:1 2233:1 2350:1 2429:1 2471:1 2588:1 2681:1 2769:1 2829:1 2852:1 2959:1 3055:1 3065:1 3068:1 3102:1 3308:1 3420:1 3437:1 3495:1 3611:1 3761:1 3804:1 3919:1 3931:1 3958:1 4245:1 4420:1 4482:1 4498:1 4513:1 4617:1 4684:1 4690:1 4692:1 4708:1 4812:1 5252:1 5494:1 5671:1 5686:1 5710:1 5785:1 5814:1 5911:1 6004:1 6164:1 6192:1 6509:1 6700:1 6919:1 6942:1 6972:1 7175:1 7224:1 7438:1 7475:1 7678:1 7679:1 7842:1 7890:1 8051:1 8316:1 8377:1 8496:1 8532:1 8543:1 8666:1 8760:1 8787:1 8869:1 9044:1 9129:1 9755:1 9898:1 10297:1 10303:1 10306:1 10340:1 10523:1 10526:1 #
0.0054351224799169062587567147204481 2:1 4:1 5:1 6:1 7:1 8:1 10:1 11:1 13:1 14:1 15:1 16:1 17:1 18:1 19:1 20:1 21:1 22:1 23:1 24:1 25:1 26:1 27:1 28:1 29:1 30:1 31:1 32:1 38:1 39:1 41:1 43:1 45:1 46:1 47:1 51:1 55:1 56:1 58:1 61:1 62:1 70:1 71:1 73:1 78:1 79:1 81:1 85:1 86:1 89:1 94:1 96:1 98:1 99:1 102:1 103:1 107:1 108:1 110:1 114:1 116:1 118:1 119:1 120:1 123:1 130:1 135:1 139:1 141:1 147:1 152:1 153:1 154:1 158:1 159:1 162:1 167:1 168:1 170:1 171:1 172:1 176:1 179:1 181:1 183:1 186:1 190:1 193:1 201:1 203:1 205:1 210:1 222:1 227:1 230:1 231:1 232:1 234:1 236:1 255:1 258:1 264:1 270:1 272:1 279:1 282:1 293:1 297:1 302:1 305:1 306:1 315:1 317:1 320:1 322:1 327:1 331:1 333:1 341:1 354:1 361:1 373:1 374:1 377:1 380:1 384:1 387:1 390:1 392:1 399:1 404:1 413:1 428:1 434:1 442:1 451:1 490:1 498:1 506:1 522:1 536:1 544:1 548:1 554:1 561:1 564:1 566:1 585:1 595:1 599:1 601:1 608:1 615:1 641:1 653:1 667:1 719:1 726:1 746:1 751:1 755:1 756:1 758:1 833:1 835:1 840:1 849:1 852:1 888:1 889:1 893:1 900:1 905:1 907:1 908:1 913:1 918:1 919:1 921:1 962:1 1012:1 1018:1 1037:1 1043:1 1053:1 1054:1 1065:1 1066:1 1069:1 1085:1 1089:1 1112:1 1119:1 1128:1 1147:1 1150:1 1241:1 1275:1 1310:1 1375:1 1380:1 1396:1 1400:1 1402:1 1440:1 1458:1 1505:1 1509:1 1514:1 1516:1 1546:1 1555:1 1620:1 1662:1 1737:1 1755:1 1761:1 1790:1 1824:1 1840:1 1880:1 1891:1 1948:1 2023:1 2075:1 2107:1 2150:1 2155:1 2176:1 2257:1 2310:1 2344:1 2364:1 2368:1 2415:1 2447:1 2462:1 2674:1 2683:1 2791:1 2959:1 2964:1 3128:1 3135:1 3247:1 3294:1 3298:1 3484:1 4082:1 4151:1 4202:1 4338:1 4406:1 4589:1 4815:1 4859:1 4908:1 4961:1 4973:1 5020:1 5030:1 5031:1 5195:1 5228:1 5507:1 5538:1 5596:1 5631:1 5727:1 5963:1 6169:1 6285:1 6378:1 6450:1 6683:1 6874:1 7084:1 7088:1 7091:1 7212:1 7218:1 7257:1 7465:1 7716:1 7775:1 8153:1 8754:1 9132:1 9308:1 9482:1 9486:1 9756:1 9954:1 10229:1 10373:1 10389:1 10540:1 #
-0.00046768125074094304711308511812717 1:1 3:1 6:1 7:1 10:1 11:1 12:1 14:1 15:1 16:1 18:1 19:1 20:1 21:1 23:1 24:1 25:1 27:1 29:1 30:1 31:1 32:1 33:1 35:1 36:1 44:1 45:1 48:1 50:1 51:1 52:1 54:1 56:1 58:1 62:1 66:1 69:1 75:1 80:1 81:1 82:1 92:1 98:1 101:1 102:1 104:1 110:1 115:1 117:1 124:1 126:1 130:1 150:1 159:1 174:1 179:1 184:1 187:1 189:1 195:1 199:1 204:1 205:1 214:1 219:1 226:1 230:1 233:1 242:1 243:1 245:1 246:1 266:1 270:1 280:1 287:1 289:1 290:1 296:1 302:1 308:1 318:1 323:1 332:1 349:1 352:1 355:1 382:1 387:1 390:1 406:1 407:1 416:1 426:1 435:1 467:1 475:1 480:1 485:1 498:1 500:1 502:1 554:1 575:1 594:1 640:1 642:1 645:1 657:1 658:1 662:1 667:1 684:1 745:1 758:1 768:1 805:1 806:1 813:1 819:1 833:1 834:1 846:1 856:1 880:1 904:1 958:1 965:1 967:1 989:1 1023:1 1028:1 1037:1 1082:1 1142:1 1209:1 1226:1 1275:1 1412:1 1425:1 1485:1 1499:1 1501:1 1502:1 1516:1 1590:1 1604:1 1726:1 1739:1 1745:1 1804:1 1808:1 1826:1 1858:1 1955:1 1958:1 1969:1 2012:1 2036:1 2188:1 2366:1 2426:1 2611:1 2715:1 2745:1 3070:1 3098:1 3240:1 3449:1 3557:1 3598:1 3865:1 3893:1 3899:1 3900:1 3907:1 4058:1 4125:1 4326:1 4327:1 4330:1 4424:1 4467:1 4615:1 4716:1 4811:1 4829:1 4922:1 4935:1 5013:1 5094:1 5104:1 5106:1 5147:1 5209:1 5393:1 5456:1 5489:1 5554:1 5617:1 5894:1 5905:1 5921:1 5958:1 6068:1 6116:1 6411:1 6584:1 6739:1 6842:1 6887:1 7145:1 7742:1 7910:1 7961:1 8017:1 8055:1 8136:1 8190:1 8293:1 8503:1 8788:1 8789:1 9232:1 9271:1 9698:1 10316:1 10341:1 10627:1 #
0.0027811550244885570142006070426532 1:1 3:1 8:1 11:1 15:1 18:1 20:1 21:1 22:1 23:1 24:1 25:1 27:1 29:1 30:1 31:1 32:1 34:1 36:1 38:1 41:1 44:1 48:1 51:1 52:1 53:1 54:1 56:1 59:1 62:1 63:1 66:1 67:1 71:1 73:1 75:1 77:1 80:1 81:1 84:1 86:1 89:1 90:1 94:1 98:1 99:1 101:1 102:1 103:1 104:1 106:1 107:1 113:1 114:1 122:1 130:1 135:1 147:1 148:1 149:1 156:1 158:1 159:1 163:1 168:1 170:1 174:1 179:1 187:1 199:1 200:1 202:1 205:1 209:1 213:1 217:1 218:1 221:1 230:1 231:1 232:1 235:1 244:1 245:1 251:1 270:1 272:1 273:1 275:1 277:1 279:1 289:1 295:1 316:1 322:1 326:1 328:1 332:1 339:1 345:1 357:1 360:1 381:1 382:1 385:1 386:1 387:1 388:1 394:1 395:1 406:1 410:1 425:1 435:1 436:1 438:1 440:1 442:1 443:1 445:1 450:1 452:1 460:1 465:1 471:1 475:1 478:1 486:1 495:1 500:1 502:1 503:1 544:1 558:1 564:1 566:1 598:1 608:1 628:1 635:1 641:1 645:1 646:1 649:1 651:1 653:1 671:1 673:1 690:1 702:1 719:1 725:1 750:1 755:1 762:1 764:1 777:1 780:1 793:1 799:1 802:1 806:1 813:1 815:1 850:1 851:1 870:1 872:1 874:1 885:1 891:1 905:1 945:1 951:1 962:1 964:1 989:1 991:1 994:1 996:1 1005:1 1008:1 1009:1 1027:1 1042:1 1087:1 1105:1 1111:1 1118:1 1127:1 1135:1 1155:1 1173:1 1182:1 1185:1 1200:1 1226:1 1232:1 1280:1 1282:1 1374:1 1393:1 1396:1 1414:1 1426:1 1432:1 1441:1 1476:1 1485:1 1502:1 1514:1 1527:1 1534:1 1536:1 1551:1 1556:1 1568:1 1583:1 1593:1 1636:1 1646:1 1649:1 1720:1 1742:1 1750:1 1827:1 1840:1 1854:1 1897:1 1915:1 1983:1 1999:1 2003:1 2024:1 2044:1 2053:1 2069:1 2079:1 2134:1 2150:1 2157:1 2171:1 2178:1 2184:1 2190:1 2210:1 2219:1 2295:1 2304:1 2418:1 2440:1 2442:1 2455:1 2462:1 2488:1 2548:1 2551:1 2573:1 2588:1 2599:1 2664:1 2679:1 2681:1 2706:1 2762:1 2771:1 2797:1 2811:1 2813:1 2821:1 2826:1 2852:1 2912:1 3004:1 3029:1 3050:1 3098:1 3100:1 3126:1 3134:1 3152:1 3211:1 3221:1 3245:1 3363:1 3370:1 3389:1 3410:1 3445:1 3461:1 3463:1 3615:1 3669:1 3680:1 3681:1 3690:1 3696:1 3750:1 3904:1 3911:1 3926:1 3950:1 4007:1 4015:1 4091:1 4104:1 4191:1 4194:1 4305:1 4325:1 4470:1 4516:1 4537:1 4576:1 4629:1 4642:1 4679:1 4682:1 4730:1 4847:1 4860:1 4862:1 4973:1 5026:1 5033:1 5079:1 5092:1 5342:1 5353:1 5439:1 5464:1 5487:1 5490:1 5491:1 5500:1 5554:1 5565:1 5576:1 5596:1 5612:1 5625:1 5640:1 5791:1 5875:1 5886:1 5921:1 6089:1 6188:1 6371:1 6507:1 6530:1 6553:1 6568:1 6580:1 6644:1 6658:1 6693:1 6783:1 6919:1 6923:1 6926:1 6935:1 6966:1 6968:1 7121:1 7206:1 7555:1 7630:1 7663:1 7691:1 7820:1 7855:1 7880:1 7891:1 8165:1 8436:1 8448:1 8467:1 8588:1 8632:1 8687:1 8703:1 8799:1 8847:1 8979:1 9374:1 9442:1 9579:1 9580:1 9657:1 9691:1 9781:1 9821:1 10095:1 10267:1 10405:1 10507:1 10510:1 10641:1 10700:1 10743:1 #
0.0036783505515304792087005747447392 1:1 4:1 5:1 6:1 7:1 8:1 9:1 11:1 13:1 15:1 16:1 17:1 20:1 21:1 22:1 23:1 24:1 25:1 27:1 28:1 29:1 30:1 31:1 34:1 35:1 36:1 37:1 41:1 44:1 45:1 50:1 51:1 56:1 59:1 62:1 63:1 64:1 66:1 67:1 75:1 77:1 79:1 84:1 86:1 90:1 94:1 95:1 98:1 99:1 102:1 103:1 104:1 105:1 106:1 111:1 113:1 114:1 119:1 120:1 122:1 125:1 126:1 127:1 130:1 135:1 148:1 159:1 161:1 169:1 170:1 171:1 174:1 176:1 177:1 179:1 183:1 187:1 190:1 194:1 195:1 202:1 205:1 207:1 209:1 214:1 221:1 228:1 231:1 232:1 236:1 238:1 241:1 250:1 251:1 261:1 264:1 265:1 266:1 268:1 270:1 272:1 275:1 277:1 279:1 285:1 288:1 289:1 295:1 300:1 310:1 312:1 319:1 322:1 332:1 340:1 346:1 347:1 355:1 360:1 364:1 367:1 375:1 379:1 382:1 386:1 387:1 388:1 390:1 392:1 394:1 416:1 419:1 425:1 427:1 434:1 436:1 440:1 442:1 443:1 444:1 445:1 461:1 462:1 465:1 486:1 498:1 504:1 510:1 526:1 533:1 552:1 553:1 569:1 601:1 612:1 620:1 630:1 632:1 641:1 644:1 645:1 667:1 673:1 690:1 702:1 709:1 723:1 724:1 727:1 777:1 798:1 823:1 828:1 842:1 843:1 849:1 869:1 874:1 882:1 891:1 894:1 905:1 962:1 976:1 1008:1 1021:1 1025:1 1046:1 1058:1 1103:1 1123:1 1131:1 1138:1 1150:1 1155:1 1185:1 1258:1 1310:1 1383:1 1385:1 1422:1 1426:1 1435:1 1438:1 1444:1 1449:1 1458:1 1551:1 1568:1 1580:1 1583:1 1621:1 1624:1 1626:1 1644:1 1666:1 1688:1 1698:1 1804:1 1827:1 1842:1 1890:1 1901:1 2011:1 2163:1 2169:1 2195:1 2210:1 2257:1 2274:1 2396:1 2415:1 2418:1 2471:1 2549:1 2588:1 2655:1 2665:1 2679:1 2706:1 2715:1 2726:1 2793:1 2819:1 2912:1 2958:1 2959:1 3098:1 3100:1 3122:1 3126:1 3172:1 3183:1 3221:1 3234:1 3261:1 3321:1 3331:1 3389:1 3450:1 3474:1 3475:1 3597:1 3618:1 3646:1 3654:1 3668:1 3719:1 3834:1 3867:1 3893:1 3936:1 4035:1 4055:1 4134:1 4212:1 4300:1 4620:1 4781:1 4832:1 4886:1 4888:1 4944:1 4977:1 5108:1 5138:1 5189:1 5220:1 5234:1 5395:1 5431:1 5500:1 5692:1 5754:1 5899:1 5924:1 6006:1 6236:1 6262:1 6708:1 6779:1 6848:1 6967:1 7415:1 7437:1 7652:1 8328:1 8404:1 8543:1 8646:1 9178:1 9357:1 9667:1 10126:1 10535:1 #
0.0054351224799169062587567147204481 1:1 2:1 4:1 5:1 7:1 9:1 10:1 11:1 12:1 13:1 14:1 16:1 17:1 18:1 19:1 20:1 21:1 22:1 23:1 24:1 25:1 26:1 27:1 29:1 30:1 31:1 36:1 37:1 40:1 43:1 44:1 45:1 46:1 49:1 50:1 52:1 56:1 58:1 59:1 61:1 62:1 63:1 66:1 67:1 71:1 73:1 74:1 75:1 77:1 78:1 81:1 82:1 83:1 84:1 86:1 92:1 96:1 97:1 98:1 99:1 102:1 103:1 106:1 111:1 113:1 114:1 119:1 120:1 122:1 126:1 127:1 130:1 134:1 135:1 137:1 138:1 139:1 146:1 147:1 149:1 150:1 156:1 157:1 158:1 160:1 161:1 167:1 170:1 172:1 174:1 176:1 182:1 184:1 186:1 187:1 190:1 203:1 211:1 216:1 218:1 219:1 225:1 228:1 230:1 231:1 235:1 239:1 241:1 244:1 245:1 253:1 258:1 262:1 268:1 270:1 273:1 276:1 282:1 283:1 289:1 293:1 295:1 297:1 304:1 319:1 322:1 323:1 330:1 341:1 357:1 373:1 374:1 376:1 385:1 393:1 402:1 422:1 434:1 438:1 443:1 465:1 469:1 473:1 476:1 480:1 488:1 490:1 491:1 496:1 500:1 503:1 512:1 529:1 551:1 554:1 564:1 608:1 618:1 628:1 630:1 642:1 646:1 653:1 666:1 667:1 688:1 710:1 719:1 746:1 758:1 777:1 787:1 788:1 800:1 802:1 805:1 812:1 842:1 849:1 866:1 874:1 876:1 881:1 899:1 905:1 941:1 944:1 962:1 964:1 983:1 991:1 994:1 1012:1 1015:1 1035:1 1048:1 1078:1 1105:1 1111:1 1127:1 1129:1 1149:1 1172:1 1193:1 1204:1 1258:1 1264:1 1366:1 1397:1 1421:1 1433:1 1491:1 1523:1 1527:1 1554:1 1572:1 1580:1 1583:1 1585:1 1609:1 1645:1 1699:1 1708:1 1719:1 1745:1 1755:1 1790:1 1807:1 1827:1 1840:1 1842:1 1879:1 1881:1 1884:1 1901:1 1913:1 1954:1 1955:1 1969:1 1986:1 2140:1 2163:1 2164:1 2217:1 2261:1 2294:1 2304:1 2370:1 2442:1 2576:1 2599:1 2664:1 2698:1 2705:1 2706:1 2716:1 2739:1 2778:1 2868:1 2959:1 2971:1 3021:1 3098:1 3102:1 3171:1 3221:1 3294:1 3295:1 3297:1 3304:1 3321:1 3325:1 3433:1 3463:1 3485:1 3515:1 3557:1 3607:1 3661:1 3707:1 3718:1 3743:1 3745:1 3793:1 3801:1 3872:1 3922:1 4200:1 4321:1 4576:1 4986:1 5041:1 5092:1 5093:1 5107:1 5222:1 5314:1 5390:1 5412:1 5458:1 5464:1 5487:1 5494:1 5735:1 5754:1 5822:1 5917:1 6120:1 6122:1 6549:1 6599:1 6767:1 6830:1 6919:1 6942:1 7147:1 7184:1 7282:1 7506:1 7610:1 7728:1 7906:1 7982:1 8105:1 8234:1 8516:1 9054:1 9291:1 9311:1 9616:1 9620:1 9634:1 9703:1 9739:1 9747:1 10112:1 10423:1 10458:1 #
0.0031019130180530841804642516734702 1:1 5:1 8:1 10:1 11:1 14:1 16:1 20:1 22:1 24:1 29:1 30:1 31:1 32:1 34:1 36:1 37:1 39:1 44:1 45:1 48:1 52:1 55:1 56:1 59:1 61:1 62:1 66:1 78:1 82:1 84:1 85:1 91:1 98:1 102:1 103:1 113:1 120:1 122:1 126:1 128:1 148:1 149:1 157:1 161:1 166:1 170:1 174:1 177:1 204:1 211:1 213:1 218:1 221:1 231:1 244:1 252:1 260:1 275:1 278:1 301:1 307:1 315:1 322:1 332:1 343:1 346:1 350:1 357:1 382:1 388:1 396:1 426:1 448:1 451:1 453:1 471:1 475:1 483:1 486:1 490:1 526:1 529:1 557:1 583:1 607:1 617:1 630:1 642:1 646:1 653:1 656:1 667:1 674:1 724:1 762:1 769:1 777:1 868:1 905:1 953:1 994:1 1083:1 1105:1 1111:1 1155:1 1466:1 1485:1 1514:1 1556:1 1591:1 1620:1 1724:1 1793:1 1824:1 1827:1 1874:1 1881:1 1922:1 1939:1 1969:1 2037:1 2219:1 2304:1 2415:1 2420:1 2681:1 2684:1 2739:1 2813:1 2898:1 3068:1 3162:1 3463:1 3474:1 4296:1 4513:1 4576:1 4682:1 5135:1 5192:1 5195:1 5211:1 5260:1 5464:1 5703:1 6004:1 6236:1 6315:1 6402:1 6535:1 6580:1 7330:1 7786:1 7906:1 8021:1 8234:1 8872:1 10062:1 10743:1 #
0.00030471606973078783605138331047613 6:1 10:1 11:1 14:1 15:1 16:1 17:1 18:1 19:1 21:1 25:1 29:1 30:1 31:1 54:1 58:1 62:1 82:1 84:1 92:1 97:1 98:1 102:1 103:1 106:1 110:1 113:1 116:1 120:1 124:1 125:1 135:1 143:1 164:1 172:1 175:1 177:1 185:1 214:1 216:1 238:1 242:1 243:1 266:1 308:1 318:1 322:1 331:1 333:1 364:1 370:1 387:1 394:1 395:1 419:1 425:1 443:1 461:1 465:1 491:1 529:1 564:1 570:1 598:1 607:1 609:1 618:1 646:1 649:1 740:1 758:1 786:1 842:1 843:1 883:1 962:1 999:1 1008:1 1014:1 1019:1 1052:1 1062:1 1109:1 1131:1 1148:1 1161:1 1282:1 1333:1 1372:1 1374:1 1403:1 1427:1 1493:1 1494:1 1503:1 1563:1 1584:1 1593:1 1656:1 1827:1 1954:1 1986:1 2016:1 2023:1 2130:1 2171:1 2193:1 2350:1 2360:1 2429:1 2442:1 2470:1 2600:1 2621:1 2859:1 2992:1 3073:1 3128:1 3174:1 3207:1 3264:1 3282:1 3308:1 3611:1 3761:1 3762:1 3776:1 3783:1 3933:1 4417:1 4457:1 4498:1 4537:1 4692:1 4796:1 4842:1 4870:1 5088:1 5233:1 5378:1 5563:1 5723:1 5805:1 6574:1 6740:1 6859:1 6927:1 7060:1 7545:1 7698:1 7892:1 8698:1 8814:1 8869:1 9003:1 9176:1 9256:1 9571:1 10212:1 10497:1 10653:1 #
-0.0050829837163445011974372000906897 2:1 5:1 6:1 7:1 8:1 10:1 11:1 12:1 13:1 15:1 16:1 20:1 21:1 22:1 23:1 24:1 25:1 28:1 29:1 30:1 31:1 32:1 33:1 34:1 36:1 38:1 40:1 41:1 45:1 46:1 52:1 53:1 54:1 55:1 56:1 59:1 62:1 63:1 67:1 70:1 72:1 73:1 76:1 77:1 79:1 82:1 83:1 85:1 89:1 90:1 92:1 94:1 96:1 98:1 99:1 102:1 103:1 104:1 106:1 108:1 113:1 114:1 116:1 118:1 120:1 125:1 126:1 130:1 131:1 132:1 139:1 141:1 143:1 144:1 147:1 148:1 155:1 158:1 161:1 162:1 163:1 167:1 168:1 170:1 172:1 174:1 178:1 186:1 187:1 191:1 194:1 200:1 202:1 214:1 215:1 221:1 223:1 227:1 228:1 231:1 233:1 239:1 242:1 243:1 244:1 255:1 260:1 264:1 265:1 266:1 267:1 270:1 272:1 273:1 276:1 279:1 281:1 282:1 283:1 295:1 296:1 300:1 302:1 303:1 307:1 308:1 313:1 316:1 319:1 322:1 329:1 333:1 344:1 351:1 374:1 375:1 387:1 390:1 392:1 396:1 398:1 400:1 416:1 417:1 425:1 426:1 429:1 432:1 443:1 448:1 451:1 452:1 454:1 457:1 463:1 465:1 475:1 476:1 479:1 490:1 491:1 500:1 504:1 516:1 533:1 551:1 595:1 608:1 611:1 618:1 622:1 628:1 634:1 644:1 651:1 653:1 656:1 659:1 666:1 667:1 690:1 693:1 700:1 702:1 703:1 709:1 715:1 723:1 727:1 744:1 750:1 752:1 755:1 756:1 758:1 785:1 795:1 796:1 803:1 807:1 815:1 825:1 833:1 849:1 852:1 872:1 891:1 945:1 958:1 961:1 964:1 968:1 1001:1 1002:1 1003:1 1037:1 1047:1 1053:1 1065:1 1066:1 1082:1 1085:1 1086:1 1089:1 1093:1 1119:1 1123:1 1127:1 1138:1 1142:1 1148:1 1157:1 1161:1 1162:1 1185:1 1215:1 1229:1 1231:1 1258:1 1310:1 1333:1 1385:1 1396:1 1402:1 1408:1 1410:1 1414:1 1416:1 1428:1 1470:1 1477:1 1487:1 1493:1 1502:1 1509:1 1514:1 1521:1 1544:1 1545:1 1569:1 1579:1 1624:1 1699:1 1703:1 1718:1 1741:1 1752:1 1755:1 1790:1 1832:1 1836:1 1840:1 1841:1 1854:1 1888:1 1891:1 1915:1 1922:1 2008:1 2037:1 2038:1 2056:1 2067:1 2085:1 2089:1 2109:1 2127:1 2135:1 2151:1 2152:1 2246:1 2269:1 2363:1 2364:1 2368:1 2370:1 2378:1 2415:1 2442:1 2462:1 2471:1 2586:1 2617:1 2637:1 2679:1 2681:1 2706:1 2708:1 2714:1 2819:1 2901:1 3059:1 3089:1 3142:1 3151:1 3183:1 3205:1 3262:1 3271:1 3321:1 3335:1 3408:1 3582:1 3784:1 3983:1 4007:1 4071:1 4202:1 4210:1 4290:1 4303:1 4361:1 4483:1 4501:1 4530:1 4531:1 4640:1 4730:1 4921:1 5013:1 5030:1 5110:1 5147:1 5265:1 5414:1 5478:1 5524:1 5538:1 5544:1 5598:1 5624:1 5847:1 5921:1 5959:1 6029:1 6095:1 6277:1 6280:1 6416:1 6478:1 6525:1 6572:1 6765:1 6856:1 6883:1 6888:1 7017:1 7211:1 7231:1 7373:1 7491:1 7583:1 7716:1 7995:1 8328:1 8333:1 8351:1 8467:1 8540:1 8615:1 8642:1 8754:1 8821:1 8958:1 8979:1 9171:1 9257:1 9465:1 9496:1 9821:1 9956:1 9983:1 10010:1 10116:1 10229:1 10261:1 10338:1 10442:1 10452:1 10486:1 10500:1 10508:1 #
0.0054351224799169062587567147204481 4:1 5:1 8:1 9:1 11:1 12:1 15:1 16:1 17:1 18:1 19:1 20:1 22:1 24:1 25:1 26:1 27:1 28:1 29:1 30:1 31:1 34:1 36:1 37:1 38:1 44:1 48:1 51:1 56:1 59:1 61:1 62:1 63:1 64:1 66:1 67:1 76:1 79:1 94:1 98:1 102:1 103:1 104:1 106:1 108:1 113:1 114:1 117:1 119:1 120:1 122:1 123:1 130:1 135:1 138:1 142:1 148:1 149:1 154:1 161:1 166:1 170:1 179:1 187:1 193:1 195:1 196:1 198:1 208:1 210:1 213:1 217:1 218:1 221:1 230:1 231:1 232:1 235:1 236:1 237:1 244:1 252:1 270:1 275:1 279:1 285:1 295:1 296:1 311:1 321:1 322:1 329:1 331:1 332:1 341:1 343:1 357:1 367:1 369:1 374:1 375:1 377:1 385:1 386:1 395:1 406:1 416:1 420:1 434:1 436:1 443:1 444:1 472:1 486:1 502:1 544:1 569:1 575:1 581:1 601:1 605:1 613:1 617:1 618:1 630:1 640:1 646:1 651:1 664:1 667:1 674:1 702:1 709:1 717:1 723:1 727:1 755:1 760:1 779:1 794:1 797:1 806:1 819:1 828:1 836:1 844:1 849:1 850:1 922:1 943:1 994:1 1015:1 1021:1 1047:1 1049:1 1058:1 1105:1 1128:1 1131:1 1160:1 1172:1 1173:1 1226:1 1228:1 1234:1 1274:1 1276:1 1371:1 1391:1 1432:1 1484:1 1514:1 1537:1 1570:1 1587:1 1591:1 1599:1 1637:1 1698:1 1705:1 1744:1 1746:1 1805:1 1850:1 1894:1 1959:1 2044:1 2062:1 2151:1 2169:1 2183:1 2193:1 2257:1 2304:1 2368:1 2415:1 2439:1 2442:1 2462:1 2610:1 2614:1 2789:1 2801:1 2908:1 3014:1 3078:1 3146:1 3172:1 3189:1 3331:1 3412:1 3495:1 3584:1 3742:1 3816:1 3829:1 3842:1 3877:1 3905:1 3917:1 4016:1 4035:1 4122:1 4367:1 4495:1 4636:1 4659:1 4663:1 4921:1 4973:1 5108:1 5114:1 5189:1 5428:1 5515:1 5692:1 6006:1 6165:1 6192:1 6306:1 6332:1 6594:1 6638:1 6750:1 6768:1 6779:1 6911:1 6978:1 7039:1 7211:1 7230:1 7284:1 7433:1 7645:1 7810:1 8127:1 8158:1 8304:1 8337:1 8380:1 8454:1 8516:1 8602:1 8979:1 9067:1 9171:1 9179:1 9954:1 9975:1 10266:1 10412:1 10716:1 #
-0.00027226823171940081787234522181507 1:1 2:1 3:1 4:1 5:1 6:1 7:1 9:1 11:1 12:1 13:1 15:1 16:1 17:1 20:1 21:1 22:1 23:1 26:1 27:1 29:1 30:1 31:1 32:1 38:1 39:1 40:1 41:1 42:1 43:1 45:1 46:1 47:1 50:1 51:1 52:1 53:1 55:1 58:1 59:1 61:1 62:1 67:1 71:1 72:1 77:1 78:1 82:1 84:1 86:1 88:1 89:1 90:1 91:1 96:1 97:1 98:1 99:1 102:1 103:1 104:1 106:1 107:1 110:1 111:1 114:1 120:1 122:1 127:1 132:1 133:1 134:1 135:1 136:1 139:1 143:1 146:1 150:1 154:1 157:1 158:1 159:1 167:1 170:1 171:1 172:1 175:1 178:1 183:1 184:1 185:1 186:1 190:1 195:1 199:1 200:1 202:1 203:1 210:1 217:1 218:1 220:1 228:1 231:1 238:1 239:1 241:1 244:1 255:1 258:1 262:1 263:1 265:1 269:1 276:1 283:1 285:1 288:1 297:1 300:1 304:1 312:1 317:1 319:1 322:1 323:1 329:1 331:1 336:1 339:1 341:1 357:1 368:1 375:1 376:1 392:1 393:1 403:1 404:1 406:1 407:1 416:1 418:1 422:1 423:1 425:1 434:1 443:1 448:1 452:1 454:1 462:1 464:1 465:1 467:1 469:1 478:1 491:1 496:1 515:1 523:1 529:1 530:1 531:1 533:1 536:1 548:1 569:1 611:1 615:1 616:1 620:1 628:1 642:1 646:1 653:1 665:1 666:1 667:1 669:1 670:1 674:1 688:1 715:1 719:1 741:1 744:1 748:1 751:1 752:1 755:1 758:1 762:1 776:1 777:1 795:1 804:1 817:1 828:1 835:1 841:1 844:1 856:1 862:1 865:1 868:1 876:1 895:1 899:1 900:1 923:1 925:1 933:1 941:1 952:1 956:1 957:1 972:1 1012:1 1019:1 1021:1 1033:1 1035:1 1037:1 1048:1 1055:1 1070:1 1078:1 1092:1 1105:1 1110:1 1111:1 1129:1 1138:1 1142:1 1146:1 1161:1 1180:1 1192:1 1194:1 1215:1 1375:1 1384:1 1390:1 1422:1 1431:1 1436:1 1455:1 1462:1 1483:1 1514:1 1565:1 1615:1 1620:1 1634:1 1641:1 1644:1 1708:1 1820:1 1827:1 1836:1 1838:1 1850:1 1863:1 1874:1 1880:1 1881:1 1891:1 1926:1 1947:1 1986:1 2007:1 2058:1 2063:1 2075:1 2091:1 2107:1 2133:1 2140:1 2149:1 2156:1 2172:1 2183:1 2190:1 2240:1 2283:1 2296:1 2304:1 2333:1 2368:1 2386:1 2415:1 2448:1 2462:1 2612:1 2680:1 2739:1 2778:1 2790:1 2807:1 2849:1 3040:1 3114:1 3134:1 3152:1 3167:1 3190:1 3221:1 3295:1 3325:1 3335:1 3352:1 3375:1 3415:1 3642:1 3707:1 3725:1 3750:1 3759:1 3783:1 3872:1 3879:1 3892:1 3940:1 3955:1 3974:1 4092:1 4154:1 4156:1 4222:1 4246:1 4254:1 4321:1 4333:1 4356:1 4409:1 4481:1 4507:1 4513:1 4576:1 4580:1 4614:1 4642:1 4679:1 4872:1 4878:1 4905:1 5009:1 5062:1 5080:1 5135:1 5136:1 5178:1 5263:1 5418:1 5464:1 5522:1 5642:1 5646:1 5675:1 5715:1 5731:1 5843:1 5852:1 6088:1 6163:1 6261:1 6315:1 6694:1 6708:1 6777:1 6818:1 6966:1 7041:1 7066:1 7182:1 7505:1 7510:1 7574:1 7696:1 7803:1 7823:1 7906:1 7975:1 8105:1 8139:1 8150:1 8380:1 8539:1 8597:1 8655:1 8703:1 8718:1 9000:1 9133:1 9146:1 9247:1 9407:1 9411:1 9423:1 9560:1 9913:1 10131:1 10456:1 10460:1 10656:1 10709:1 #
0.0036386580887893421078216338315769 16:1 62:1 79:1 104:1 137:1 175:1 185:1 202:1 308:1 325:1 333:1 352:1 366:1 408:1 491:1 529:1 575:1 581:1 649:1 694:1 758:1 909:1 1008:1 1099:1 1374:1 1725:1 1789:1 1827:1 1986:1 2193:1 2280:1 2538:1 3919:1 4498:1 4692:1 5814:1 7128:1 7377:1 7438:1 7619:1 7678:1 7807:1 7842:1 8051:1 8532:1 9032:1 #
-2.983694097838293421269019456421e-05 1:1 2:1 4:1 7:1 9:1 10:1 11:1 12:1 13:1 14:1 15:1 16:1 17:1 18:1 19:1 20:1 21:1 22:1 23:1 24:1 25:1 26:1 27:1 29:1 30:1 31:1 32:1 34:1 35:1 36:1 37:1 39:1 40:1 44:1 45:1 46:1 51:1 52:1 54:1 56:1 58:1 59:1 60:1 62:1 64:1 67:1 69:1 71:1 72:1 73:1 75:1 76:1 80:1 82:1 84:1 88:1 89:1 90:1 91:1 94:1 102:1 103:1 104:1 109:1 111:1 112:1 113:1 114:1 115:1 116:1 117:1 118:1 122:1 124:1 130:1 131:1 137:1 141:1 146:1 147:1 148:1 151:1 152:1 154:1 156:1 159:1 163:1 165:1 167:1 168:1 169:1 170:1 171:1 172:1 174:1 179:1 181:1 186:1 187:1 188:1 190:1 193:1 194:1 195:1 196:1 197:1 199:1 202:1 207:1 211:1 213:1 220:1 221:1 225:1 232:1 239:1 241:1 243:1 245:1 251:1 255:1 262:1 264:1 266:1 269:1 270:1 277:1 278:1 279:1 282:1 283:1 289:1 293:1 295:1 297:1 306:1 308:1 318:1 323:1 324:1 325:1 329:1 346:1 350:1 355:1 360:1 364:1 382:1 385:1 386:1 387:1 390:1 400:1 403:1 404:1 407:1 408:1 411:1 420:1 421:1 432:1 452:1 472:1 478:1 479:1 480:1 481:1 486:1 488:1 498:1 529:1 530:1 543:1 551:1 554:1 557:1 558:1 561:1 564:1 566:1 575:1 581:1 599:1 601:1 608:1 615:1 618:1 628:1 630:1 671:1 683:1 700:1 701:1 703:1 709:1 723:1 724:1 725:1 728:1 744:1 755:1 761:1 767:1 777:1 785:1 789:1 797:1 805:1 829:1 833:1 835:1 836:1 850:1 865:1 866:1 874:1 918:1 921:1 943:1 951:1 978:1 982:1 992:1 997:1 1005:1 1008:1 1028:1 1037:1 1075:1 1104:1 1119:1 1131:1 1138:1 1177:1 1194:1 1200:1 1215:1 1226:1 1232:1 1258:1 1268:1 1280:1 1363:1 1372:1 1374:1 1380:1 1395:1 1398:1 1416:1 1430:1 1432:1 1438:1 1439:1 1441:1 1455:1 1480:1 1481:1 1513:1 1534:1 1552:1 1556:1 1566:1 1580:1 1602:1 1670:1 1675:1 1784:1 1789:1 1797:1 1819:1 1827:1 1837:1 1840:1 1842:1 1859:1 1890:1 1921:1 2014:1 2064:1 2124:1 2150:1 2152:1 2168:1 2208:1 2210:1 2300:1 2368:1 2455:1 2482:1 2548:1 2606:1 2661:1 2727:1 2793:1 2806:1 2813:1 2832:1 2951:1 2976:1 3004:1 3023:1 3098:1 3099:1 3100:1 3126:1 3183:1 3185:1 3196:1 3256:1 3271:1 3295:1 3467:1 3557:1 3563:1 3578:1 3654:1 3745:1 3781:1 3853:1 3908:1 3914:1 3947:1 4007:1 4029:1 4039:1 4041:1 4138:1 4161:1 4168:1 4200:1 4285:1 4288:1 4291:1 4300:1 4341:1 4373:1 4472:1 4477:1 4555:1 4597:1 4760:1 4838:1 4885:1 4891:1 4928:1 4961:1 5031:1 5036:1 5108:1 5160:1 5257:1 5406:1 5407:1 5469:1 5499:1 5669:1 5755:1 5813:1 5963:1 6172:1 6447:1 6448:1 6451:1 6779:1 6920:1 6923:1 7005:1 7209:1 7352:1 7652:1 7769:1 7815:1 7854:1 7931:1 8445:1 8467:1 8551:1 8613:1 8853:1 9223:1 9544:1 9667:1 9747:1 9791:1 9798:1 9871:1 9916:1 9927:1 10052:1 10065:1 10192:1 10341:1 10488:1 10725:1 #
0.0054351224799169062587567147204481 22:1 62:1 1067:1 2239:1 #
0.0047029487262974260450287822266091 1:1 10:1 12:1 16:1 20:1 21:1 22:1 25:1 29:1 30:1 32:1 36:1 48:1 52:1 54:1 66:1 67:1 68:1 71:1 73:1 76:1 79:1 86:1 93:1 94:1 101:1 102:1 104:1 106:1 113:1 124:1 131:1 133:1 137:1 160:1 163:1 182:1 187:1 202:1 209:1 214:1 232:1 251:1 265:1 277:1 279:1 289:1 293:1 295:1 308:1 325:1 333:1 335:1 347:1 352:1 369:1 381:1 387:1 408:1 411:1 436:1 440:1 445:1 452:1 456:1 463:1 472:1 475:1 478:1 480:1 497:1 500:1 566:1 575:1 581:1 649:1 694:1 716:1 758:1 806:1 808:1 1008:1 1057:1 1067:1 1228:1 1280:1 1388:1 1424:1 1495:1 1503:1 1512:1 1527:1 1647:1 1854:1 1858:1 1873:1 2052:1 2097:1 2160:1 2199:1 2350:1 2441:1 2538:1 2709:1 2727:1 2826:1 3020:1 3150:1 3804:1 3919:1 3974:1 4134:1 4312:1 4498:1 4500:1 4692:1 4694:1 5145:1 5473:1 5814:1 6141:1 6173:1 6534:1 6693:1 7228:1 7254:1 7310:1 7438:1 7890:1 8051:1 8115:1 8316:1 8424:1 8532:1 8666:1 8730:1 8760:1 9032:1 9038:1 9129:1 9212:1 9244:1 9369:1 9480:1 9838:1 9843:1 9922:1 10026:1 10035:1 10195:1 #
0.0042015933186647447597494853255284 6:1 7:1 11:1 12:1 13:1 15:1 16:1 17:1 18:1 20:1 21:1 24:1 25:1 26:1 30:1 31:1 32:1 35:1 39:1 50:1 51:1 54:1 68:1 74:1 80:1 81:1 86:1 97:1 98:1 102:1 107:1 114:1 120:1 124:1 130:1 132:1 135:1 158:1 159:1 160:1 172:1 175:1 177:1 185:1 187:1 209:1 214:1 217:1 222:1 226:1 232:1 237:1 240:1 248:1 264:1 279:1 319:1 322:1 329:1 333:1 339:1 341:1 357:1 364:1 382:1 387:1 399:1 404:1 411:1 420:1 429:1 434:1 448:1 464:1 468:1 476:1 490:1 491:1 522:1 529:1 545:1 570:1 575:1 649:1 674:1 758:1 786:1 802:1 832:1 842:1 843:1 991:1 1008:1 1019:1 1025:1 1075:1 1275:1 1383:1 1428:1 1517:1 1539:1 1582:1 1636:1 1827:1 1934:1 1949:1 1976:1 1986:1 2046:1 2193:1 2369:1 2592:1 2747:1 3001:1 3116:1 3152:1 3207:1 3257:1 3651:1 3912:1 4001:1 4191:1 4236:1 4426:1 4498:1 4692:1 4967:1 4993:1 5021:1 5101:1 5215:1 5423:1 5438:1 5790:1 5807:1 6004:1 6070:1 6145:1 6585:1 6735:1 6848:1 6914:1 6968:1 7006:1 7302:1 7327:1 7328:1 7602:1 7651:1 7839:1 8013:1 8244:1 8325:1 8593:1 8619:1 8718:1 8738:1 8856:1 9057:1 9630:1 9781:1 10109:1 10538:1 10638:1 #
-0.0054351224799169062587567147204481 175:1 222:1 333:1 649:1 963:1 1008:1 1044:1 1188:1 2033:1 3266:1 #
-0.0054351224799169062587567147204481 16:1 74:1 175:1 185:1 214:1 266:1 471:1 491:1 529:1 649:1 802:1 891:1 1026:1 1422:1 1827:1 1986:1 2193:1 3086:1 #
-0.0054351224799169062587567147204481 1:1 3:1 4:1 6:1 7:1 9:1 13:1 16:1 17:1 19:1 24:1 30:1 31:1 47:1 49:1 55:1 59:1 61:1 68:1 89:1 91:1 98:1 102:1 103:1 115:1 116:1 131:1 133:1 135:1 146:1 153:1 159:1 172:1 175:1 177:1 179:1 181:1 185:1 187:1 204:1 214:1 223:1 230:1 232:1 237:1 252:1 259:1 265:1 285:1 304:1 312:1 319:1 322:1 333:1 339:1 351:1 379:1 392:1 416:1 417:1 434:1 491:1 500:1 503:1 510:1 529:1 533:1 575:1 585:1 649:1 758:1 802:1 806:1 843:1 855:1 988:1 1008:1 1250:1 1254:1 1374:1 1407:1 1603:1 1620:1 1748:1 1789:1 1827:1 1986:1 2052:1 2095:1 2104:1 2193:1 2429:1 2551:1 2809:1 2930:1 3019:1 3055:1 3286:1 3588:1 3618:1 4178:1 4245:1 4274:1 4482:1 4498:1 4690:1 4692:1 4864:1 5215:1 5591:1 5955:1 6534:1 6668:1 6792:1 7243:1 7770:1 8383:1 8384:1 8496:1 8663:1 8666:1 8856:1 10130:1 10188:1 #
-0.0012295855655931641533390452636354 1:1 22:1 30:1 69:1 131:1 148:1 377:1 387:1 503:1 758:1 905:1 962:1 981:1 1151:1 1173:1 1254:1 1282:1 1785:1 2106:1 2171:1 2211:1 2369:1 3310:1 4808:1 4814:1 5118:1 5578:1 5645:1 8111:1 #
-0.00066342974900927636182357272076615 16:1 56:1 113:1 209:1 307:1 333:1 583:1 607:1 758:1 777:1 904:1 1008:1 1942:1 3175:1 3334:1 3607:1 4278:1 6126:1 #
0.00072148788156904122229745590644256 1:1 5:1 7:1 8:1 9:1 10:1 11:1 12:1 15:1 16:1 17:1 18:1 19:1 20:1 22:1 23:1 24:1 25:1 29:1 30:1 31:1 34:1 35:1 36:1 39:1 41:1 44:1 45:1 48:1 50:1 51:1 52:1 54:1 55:1 56:1 57:1 59:1 62:1 63:1 65:1 66:1 67:1 68:1 71:1 72:1 73:1 75:1 78:1 79:1 80:1 81:1 82:1 84:1 86:1 87:1 89:1 90:1 94:1 96:1 98:1 101:1 102:1 103:1 104:1 109:1 110:1 112:1 113:1 114:1 116:1 117:1 119:1 122:1 124:1 128:1 131:1 135:1 136:1 137:1 138:1 143:1 147:1 148:1 149:1 150:1 156:1 157:1 159:1 161:1 163:1 165:1 166:1 168:1 169:1 170:1 172:1 174:1 175:1 181:1 184:1 185:1 187:1 195:1 199:1 204:1 205:1 213:1 219:1 221:1 222:1 224:1 227:1 231:1 232:1 235:1 236:1 237:1 238:1 243:1 244:1 245:1 251:1 252:1 253:1 259:1 262:1 264:1 266:1 270:1 272:1 273:1 274:1 277:1 280:1 283:1 289:1 293:1 302:1 310:1 312:1 316:1 320:1 322:1 326:1 328:1 329:1 331:1 332:1 340:1 344:1 347:1 350:1 357:1 365:1 370:1 372:1 374:1 382:1 385:1 386:1 387:1 410:1 411:1 413:1 416:1 417:1 432:1 434:1 435:1 440:1 452:1 457:1 460:1 462:1 466:1 467:1 471:1 472:1 475:1 478:1 483:1 486:1 488:1 502:1 522:1 529:1 553:1 554:1 557:1 558:1 564:1 566:1 569:1 570:1 598:1 601:1 603:1 607:1 628:1 629:1 630:1 632:1 635:1 636:1 642:1 645:1 646:1 653:1 659:1 667:1 674:1 690:1 702:1 708:1 716:1 724:1 725:1 726:1 743:1 747:1 758:1 759:1 798:1 799:1 809:1 814:1 815:1 839:1 842:1 849:1 879:1 881:1 882:1 892:1 894:1 897:1 898:1 900:1 906:1 909:1 912:1 914:1 950:1 952:1 953:1 955:1 962:1 966:1 987:1 989:1 996:1 1000:1 1002:1 1008:1 1028:1 1042:1 1060:1 1071:1 1083:1 1090:1 1096:1 1111:1 1118:1 1133:1 1147:1 1157:1 1161:1 1173:1 1178:1 1182:1 1204:1 1226:1 1250:1 1258:1 1273:1 1280:1 1385:1 1386:1 1414:1 1425:1 1426:1 1432:1 1438:1 1439:1 1445:1 1447:1 1452:1 1475:1 1489:1 1514:1 1536:1 1553:1 1560:1 1591:1 1602:1 1611:1 1620:1 1649:1 1660:1 1675:1 1685:1 1697:1 1720:1 1741:1 1745:1 1748:1 1750:1 1790:1 1794:1 1805:1 1825:1 1831:1 1843:1 1846:1 1853:1 1888:1 1915:1 1962:1 1985:1 2027:1 2044:1 2056:1 2101:1 2104:1 2118:1 2163:1 2172:1 2190:1 2213:1 2238:1 2249:1 2281:1 2296:1 2297:1 2300:1 2304:1 2344:1 2348:1 2350:1 2360:1 2370:1 2390:1 2396:1 2415:1 2420:1 2442:1 2455:1 2548:1 2561:1 2634:1 2649:1 2664:1 2674:1 2681:1 2705:1 2714:1 2739:1 2747:1 2755:1 2807:1 2811:1 2898:1 2957:1 2959:1 3006:1 3029:1 3031:1 3040:1 3081:1 3082:1 3084:1 3085:1 3100:1 3118:1 3119:1 3121:1 3127:1 3129:1 3154:1 3183:1 3184:1 3221:1 3450:1 3452:1 3463:1 3495:1 3515:1 3533:1 3553:1 3555:1 3578:1 3582:1 3588:1 3607:1 3629:1 3669:1 3685:1 3695:1 3748:1 3780:1 3795:1 3801:1 3813:1 3853:1 3863:1 3896:1 3899:1 3904:1 3911:1 3913:1 3931:1 3932:1 3974:1 4015:1 4029:1 4035:1 4059:1 4107:1 4111:1 4117:1 4176:1 4185:1 4274:1 4275:1 4291:1 4296:1 4300:1 4321:1 4337:1 4364:1 4366:1 4410:1 4495:1 4498:1 4546:1 4576:1 4589:1 4632:1 4661:1 4692:1 4697:1 4716:1 4832:1 4909:1 5002:1 5011:1 5056:1 5062:1 5073:1 5138:1 5237:1 5260:1 5297:1 5306:1 5347:1 5355:1 5370:1 5438:1 5458:1 5478:1 5494:1 5638:1 5662:1 5704:1 5707:1 5759:1 5768:1 5816:1 5819:1 5830:1 5864:1 5986:1 5989:1 6027:1 6032:1 6141:1 6210:1 6221:1 6247:1 6278:1 6410:1 6412:1 6426:1 6478:1 6553:1 6556:1 6571:1 6605:1 6651:1 6708:1 6716:1 6774:1 6783:1 6888:1 6919:1 6942:1 7013:1 7067:1 7144:1 7194:1 7229:1 7361:1 7453:1 7456:1 7482:1 7506:1 7568:1 7582:1 7584:1 7652:1 7769:1 7822:1 7837:1 7872:1 7876:1 7951:1 8127:1 8142:1 8162:1 8274:1 8292:1 8350:1 8385:1 8401:1 8477:1 8517:1 8518:1 8732:1 8934:1 9049:1 9080:1 9251:1 9322:1 9350:1 9556:1 9589:1 9680:1 9792:1 9821:1 9859:1 9940:1 9990:1 10062:1 10175:1 10268:1 10315:1 10423:1 10486:1 10505:1 10683:1 10738:1 #
0.0054351224799169062587567147204481 2:1 5:1 6:1 7:1 8:1 9:1 10:1 11:1 15:1 16:1 17:1 18:1 19:1 21:1 22:1 23:1 24:1 25:1 26:1 27:1 28:1 29:1 30:1 31:1 32:1 33:1 34:1 35:1 36:1 38:1 40:1 41:1 52:1 53:1 54:1 55:1 58:1 59:1 60:1 61:1 62:1 66:1 67:1 72:1 77:1 79:1 84:1 86:1 89:1 90:1 92:1 98:1 102:1 103:1 106:1 107:1 113:1 114:1 117:1 120:1 122:1 132:1 144:1 146:1 148:1 156:1 160:1 163:1 170:1 172:1 174:1 178:1 180:1 188:1 190:1 193:1 198:1 199:1 200:1 205:1 211:1 218:1 227:1 231:1 235:1 238:1 240:1 243:1 244:1 247:1 249:1 266:1 270:1 277:1 278:1 281:1 288:1 295:1 300:1 308:1 312:1 320:1 322:1 327:1 329:1 332:1 333:1 341:1 343:1 356:1 364:1 380:1 382:1 404:1 406:1 407:1 410:1 416:1 432:1 442:1 443:1 452:1 456:1 464:1 469:1 475:1 481:1 491:1 498:1 501:1 531:1 566:1 581:1 601:1 609:1 620:1 622:1 632:1 633:1 634:1 658:1 667:1 669:1 688:1 702:1 758:1 763:1 776:1 789:1 812:1 815:1 817:1 831:1 839:1 849:1 873:1 884:1 887:1 899:1 900:1 909:1 916:1 920:1 937:1 956:1 962:1 971:1 1032:1 1049:1 1068:1 1076:1 1093:1 1099:1 1105:1 1123:1 1131:1 1156:1 1190:1 1229:1 1263:1 1372:1 1432:1 1433:1 1434:1 1484:1 1488:1 1496:1 1519:1 1538:1 1544:1 1624:1 1662:1 1692:1 1808:1 1897:1 1901:1 1905:1 1922:1 1929:1 1962:1 1970:1 1979:1 1999:1 2008:1 2053:1 2056:1 2061:1 2063:1 2075:1 2172:1 2195:1 2247:1 2249:1 2257:1 2270:1 2273:1 2280:1 2355:1 2415:1 2471:1 2474:1 2492:1 2535:1 2569:1 2571:1 2586:1 2610:1 2619:1 2634:1 2679:1 2681:1 2692:1 2706:1 2714:1 2778:1 2786:1 2955:1 2988:1 3040:1 3078:1 3114:1 3120:1 3128:1 3144:1 3222:1 3306:1 3325:1 3360:1 3369:1 3487:1 3582:1 3621:1 3717:1 3844:1 4059:1 4173:1 4258:1 4312:1 4356:1 4406:1 4441:1 4457:1 4504:1 4507:1 4542:1 4675:1 4706:1 4713:1 4730:1 4739:1 4908:1 5107:1 5211:1 5477:1 5576:1 5640:1 5770:1 5896:1 5921:1 5984:1 6013:1 6148:1 6189:1 6294:1 6315:1 6490:1 6676:1 6678:1 7267:1 7326:1 7364:1 7700:1 7834:1 7842:1 7952:1 8015:1 8144:1 8335:1 8582:1 8621:1 8887:1 8926:1 9020:1 9275:1 9411:1 9471:1 9958:1 10037:1 10226:1 10267:1 10440:1 10666:1 #
0.0041991515733908520852102341791579 1:1 2:1 3:1 5:1 7:1 8:1 9:1 11:1 12:1 16:1 17:1 18:1 19:1 20:1 21:1 23:1 24:1 25:1 27:1 28:1 29:1 30:1 31:1 32:1 33:1 38:1 39:1 40:1 44:1 45:1 46:1 47:1 51:1 52:1 57:1 58:1 59:1 61:1 62:1 63:1 67:1 72:1 73:1 75:1 76:1 77:1 80:1 83:1 84:1 85:1 86:1 89:1 90:1 91:1 94:1 95:1 96:1 97:1 98:1 99:1 102:1 106:1 108:1 110:1 111:1 113:1 114:1 117:1 118:1 120:1 123:1 126:1 127:1 129:1 130:1 131:1 132:1 133:1 135:1 136:1 144:1 147:1 150:1 153:1 158:1 159:1 167:1 171:1 172:1 175:1 176:1 178:1 184:1 185:1 193:1 197:1 198:1 199:1 207:1 208:1 211:1 214:1 218:1 220:1 221:1 223:1 224:1 225:1 228:1 240:1 244:1 259:1 260:1 261:1 263:1 265:1 281:1 282:1 286:1 287:1 291:1 294:1 300:1 304:1 305:1 308:1 315:1 316:1 319:1 320:1 321:1 322:1 329:1 333:1 338:1 339:1 341:1 345:1 351:1 352:1 354:1 355:1 364:1 369:1 384:1 387:1 391:1 392:1 393:1 394:1 403:1 404:1 409:1 411:1 416:1 417:1 422:1 429:1 434:1 443:1 448:1 450:1 463:1 464:1 467:1 468:1 475:1 480:1 490:1 491:1 497:1 502:1 510:1 523:1 529:1 530:1 533:1 545:1 548:1 566:1 575:1 581:1 585:1 602:1 618:1 620:1 622:1 628:1 632:1 633:1 634:1 642:1 647:1 649:1 655:1 669:1 674:1 693:1 719:1 740:1 746:1 758:1 763:1 772:1 792:1 812:1 815:1 824:1 835:1 842:1 843:1 855:1 865:1 898:1 905:1 912:1 913:1 921:1 946:1 964:1 976:1 980:1 988:1 993:1 994:1 1008:1 1009:1 1017:1 1019:1 1022:1 1024:1 1025:1 1070:1 1092:1 1162:1 1167:1 1188:1 1205:1 1212:1 1241:1 1259:1 1279:1 1284:1 1361:1 1374:1 1375:1 1377:1 1407:1 1411:1 1414:1 1419:1 1450:1 1452:1 1472:1 1478:1 1539:1 1565:1 1580:1 1582:1 1591:1 1626:1 1634:1 1672:1 1692:1 1748:1 1789:1 1827:1 1917:1 1932:1 1937:1 1940:1 1948:1 1979:1 1986:1 2052:1 2053:1 2059:1 2070:1 2077:1 2088:1 2150:1 2152:1 2155:1 2168:1 2193:1 2195:1 2208:1 2223:1 2233:1 2347:1 2399:1 2415:1 2436:1 2443:1 2613:1 2619:1 2714:1 2716:1 2868:1 2907:1 2963:1 2970:1 3020:1 3040:1 3055:1 3078:1 3098:1 3114:1 3119:1 3207:1 3296:1 3335:1 3338:1 3365:1 3446:1 3450:1 3554:1 3574:1 3621:1 3666:1 3690:1 3738:1 3944:1 4035:1 4059:1 4075:1 4186:1 4210:1 4234:1 4296:1 4359:1 4406:1 4459:1 4466:1 4498:1 4519:1 4538:1 4575:1 4580:1 4608:1 4617:1 4679:1 4692:1 5047:1 5118:1 5148:1 5464:1 5465:1 5488:1 5598:1 5659:1 5671:1 5773:1 5831:1 5845:1 5865:1 5899:1 6011:1 6073:1 6077:1 6194:1 6478:1 6509:1 6553:1 6593:1 6702:1 6774:1 6949:1 6988:1 7175:1 7224:1 7228:1 7265:1 7293:1 7316:1 7491:1 7545:1 7547:1 7619:1 7655:1 7663:1 7733:1 7839:1 7915:1 8040:1 8141:1 8383:1 8663:1 8828:1 8986:1 9003:1 9073:1 9165:1 9170:1 9171:1 9456:1 9472:1 9918:1 10310:1 10442:1 10564:1 10723:1 #
0.002648187929281132710346291503356 1:1 4:1 5:1 6:1 7:1 8:1 9:1 10:1 11:1 12:1 13:1 14:1 15:1 16:1 17:1 18:1 19:1 20:1 21:1 22:1 23:1 24:1 25:1 27:1 28:1 29:1 30:1 31:1 32:1 34:1 35:1 36:1 38:1 39:1 40:1 41:1 42:1 45:1 46:1 47:1 51:1 52:1 57:1 59:1 61:1 62:1 63:1 66:1 67:1 68:1 69:1 71:1 75:1 77:1 79:1 80:1 81:1 82:1 84:1 90:1 91:1 94:1 95:1 98:1 99:1 101:1 102:1 103:1 104:1 106:1 107:1 110:1 111:1 112:1 113:1 114:1 115:1 117:1 118:1 119:1 120:1 127:1 129:1 130:1 132:1 134:1 135:1 137:1 144:1 146:1 149:1 152:1 153:1 155:1 158:1 159:1 161:1 163:1 166:1 167:1 172:1 173:1 176:1 178:1 182:1 183:1 185:1 186:1 187:1 194:1 198:1 199:1 204:1 209:1 213:1 215:1 220:1 222:1 224:1 228:1 230:1 232:1 234:1 236:1 242:1 244:1 245:1 253:1 261:1 270:1 273:1 275:1 278:1 279:1 281:1 285:1 286:1 295:1 300:1 303:1 315:1 317:1 318:1 322:1 328:1 333:1 335:1 341:1 343:1 346:1 347:1 351:1 352:1 357:1 360:1 364:1 365:1 374:1 378:1 386:1 401:1 405:1 416:1 419:1 425:1 427:1 434:1 436:1 442:1 446:1 447:1 448:1 450:1 451:1 456:1 462:1 465:1 466:1 475:1 478:1 479:1 490:1 493:1 497:1 502:1 504:1 519:1 601:1 618:1 622:1 630:1 634:1 635:1 644:1 645:1 646:1 647:1 649:1 652:1 653:1 660:1 674:1 717:1 751:1 753:1 755:1 757:1 758:1 773:1 793:1 796:1 798:1 800:1 803:1 809:1 810:1 813:1 814:1 816:1 839:1 843:1 863:1 866:1 867:1 871:1 900:1 905:1 921:1 928:1 940:1 945:1 985:1 995:1 1008:1 1015:1 1022:1 1024:1 1026:1 1042:1 1047:1 1060:1 1070:1 1089:1 1123:1 1131:1 1133:1 1147:1 1165:1 1209:1 1216:1 1279:1 1287:1 1333:1 1374:1 1377:1 1385:1 1408:1 1439:1 1462:1 1474:1 1492:1 1493:1 1500:1 1534:1 1539:1 1553:1 1568:1 1597:1 1624:1 1626:1 1634:1 1637:1 1646:1 1687:1 1761:1 1790:1 1798:1 1845:1 1849:1 1891:1 1910:1 1922:1 1926:1 1949:1 1969:1 1976:1 2014:1 2030:1 2035:1 2037:1 2044:1 2049:1 2107:1 2147:1 2168:1 2213:1 2350:1 2369:1 2382:1 2396:1 2418:1 2429:1 2471:1 2486:1 2492:1 2589:1 2681:1 2705:1 2718:1 2726:1 2775:1 2908:1 2912:1 2959:1 3068:1 3078:1 3085:1 3086:1 3098:1 3242:1 3256:1 3292:1 3328:1 3377:1 3410:1 3493:1 3584:1 3721:1 3782:1 3783:1 3816:1 3837:1 3912:1 3947:1 3964:1 4069:1 4252:1 4317:1 4371:1 4397:1 4428:1 4444:1 4498:1 4568:1 4692:1 4730:1 4755:1 4895:1 4930:1 5026:1 5073:1 5592:1 5640:1 5720:1 5836:1 5856:1 6027:1 6068:1 6181:1 6189:1 6461:1 6502:1 6596:1 6856:1 6896:1 6934:1 6950:1 7017:1 7171:1 7176:1 7212:1 7239:1 7310:1 7437:1 7504:1 7512:1 7788:1 7966:1 8379:1 8518:1 8658:1 8726:1 8999:1 9118:1 9145:1 9306:1 9319:1 9350:1 9357:1 9365:1 9504:1 9773:1 9914:1 10373:1 #
0.0054351224799169062587567147204481 2:1 4:1 6:1 7:1 9:1 10:1 11:1 12:1 13:1 15:1 16:1 17:1 18:1 19:1 20:1 21:1 22:1 23:1 25:1 26:1 27:1 28:1 29:1 30:1 31:1 32:1 33:1 36:1 37:1 38:1 39:1 40:1 45:1 46:1 47:1 51:1 52:1 53:1 56:1 59:1 61:1 62:1 63:1 64:1 66:1 67:1 70:1 75:1 77:1 78:1 81:1 83:1 84:1 85:1 86:1 90:1 91:1 94:1 98:1 102:1 106:1 108:1 113:1 114:1 116:1 118:1 122:1 125:1 127:1 130:1 132:1 138:1 139:1 144:1 146:1 147:1 152:1 156:1 157:1 161:1 163:1 169:1 170:1 171:1 172:1 174:1 176:1 178:1 179:1 180:1 182:1 183:1 184:1 185:1 187:1 198:1 199:1 200:1 203:1 205:1 208:1 211:1 212:1 217:1 220:1 227:1 228:1 230:1 231:1 238:1 240:1 243:1 244:1 250:1 258:1 261:1 264:1 267:1 269:1 277:1 279:1 293:1 294:1 308:1 314:1 319:1 322:1 329:1 333:1 337:1 342:1 343:1 345:1 351:1 354:1 365:1 373:1 382:1 384:1 396:1 397:1 401:1 409:1 419:1 425:1 429:1 432:1 438:1 442:1 443:1 448:1 450:1 463:1 464:1 465:1 469:1 472:1 476:1 486:1 519:1 523:1 549:1 552:1 554:1 564:1 585:1 600:1 615:1 627:1 628:1 632:1 636:1 642:1 646:1 663:1 667:1 669:1 702:1 715:1 750:1 763:1 766:1 771:1 776:1 777:1 781:1 788:1 797:1 800:1 807:1 813:1 822:1 825:1 849:1 1001:1 1003:1 1016:1 1060:1 1093:1 1095:1 1097:1 1111:1 1120:1 1123:1 1128:1 1147:1 1150:1 1155:1 1160:1 1190:1 1191:1 1241:1 1280:1 1308:1 1324:1 1333:1 1387:1 1402:1 1411:1 1464:1 1484:1 1514:1 1644:1 1652:1 1658:1 1659:1 1675:1 1688:1 1698:1 1699:1 1750:1 1794:1 1819:1 1827:1 1843:1 1928:1 1941:1 1948:1 1960:1 2096:1 2135:1 2152:1 2158:1 2257:1 2298:1 2416:1 2462:1 2508:1 2578:1 2589:1 2619:1 2706:1 3005:1 3016:1 3038:1 3154:1 3183:1 3231:1 3321:1 3389:1 3408:1 3470:1 3506:1 3544:1 3581:1 3582:1 3609:1 3621:1 3801:1 3932:1 4016:1 4055:1 4091:1 4123:1 4125:1 4140:1 4170:1 4332:1 4356:1 4443:1 4524:1 4558:1 4616:1 4682:1 4713:1 4797:1 4865:1 4929:1 5026:1 5027:1 5036:1 5055:1 5092:1 5145:1 5171:1 5193:1 5279:1 5333:1 5415:1 5519:1 5571:1 5657:1 5773:1 6032:1 6128:1 6162:1 6402:1 6419:1 6478:1 6629:1 6634:1 6758:1 7506:1 7582:1 7971:1 8053:1 8447:1 9190:1 9448:1 9944:1 9956:1 10193:1 10412:1 #
-0.0016706375434205375084956157749616 1:1 2:1 3:1 5:1 6:1 8:1 9:1 11:1 12:1 14:1 15:1 16:1 17:1 18:1 20:1 21:1 22:1 23:1 24:1 25:1 27:1 28:1 29:1 30:1 31:1 32:1 34:1 36:1 39:1 40:1 44:1 47:1 48:1 51:1 52:1 54:1 59:1 60:1 62:1 66:1 67:1 68:1 69:1 72:1 73:1 74:1 75:1 77:1 78:1 79:1 82:1 83:1 84:1 86:1 89:1 90:1 92:1 94:1 95:1 98:1 101:1 102:1 103:1 104:1 105:1 106:1 112:1 114:1 117:1 126:1 127:1 130:1 131:1 134:1 137:1 147:1 149:1 152:1 155:1 160:1 161:1 163:1 168:1 170:1 171:1 174:1 175:1 179:1 184:1 185:1 186:1 187:1 197:1 204:1 208:1 212:1 213:1 214:1 215:1 220:1 224:1 225:1 226:1 228:1 231:1 232:1 234:1 236:1 238:1 244:1 245:1 247:1 249:1 250:1 253:1 257:1 262:1 263:1 265:1 266:1 268:1 273:1 276:1 277:1 278:1 281:1 283:1 287:1 295:1 308:1 315:1 325:1 328:1 329:1 333:1 336:1 337:1 338:1 346:1 347:1 349:1 355:1 364:1 377:1 388:1 390:1 396:1 400:1 403:1 405:1 408:1 410:1 426:1 430:1 432:1 440:1 442:1 445:1 446:1 451:1 452:1 453:1 456:1 468:1 469:1 470:1 473:1 475:1 478:1 483:1 491:1 494:1 496:1 497:1 502:1 503:1 510:1 519:1 526:1 529:1 537:1 564:1 581:1 594:1 601:1 608:1 614:1 620:1 626:1 628:1 637:1 640:1 641:1 649:1 651:1 653:1 655:1 660:1 668:1 674:1 686:1 694:1 702:1 719:1 725:1 750:1 758:1 760:1 768:1 780:1 789:1 793:1 805:1 807:1 816:1 817:1 827:1 843:1 847:1 851:1 860:1 862:1 868:1 872:1 889:1 891:1 899:1 905:1 912:1 928:1 930:1 945:1 964:1 982:1 985:1 987:1 989:1 996:1 1008:1 1009:1 1012:1 1020:1 1021:1 1024:1 1026:1 1027:1 1046:1 1072:1 1086:1 1091:1 1092:1 1093:1 1111:1 1118:1 1133:1 1135:1 1149:1 1155:1 1161:1 1162:1 1164:1 1173:1 1176:1 1193:1 1195:1 1200:1 1226:1 1234:1 1258:1 1279:1 1287:1 1310:1 1333:1 1374:1 1387:1 1394:1 1398:1 1405:1 1426:1 1429:1 1432:1 1439:1 1446:1 1456:1 1462:1 1464:1 1484:1 1485:1 1493:1 1495:1 1496:1 1500:1 1506:1 1514:1 1534:1 1551:1 1568:1 1595:1 1603:1 1637:1 1645:1 1657:1 1668:1 1687:1 1705:1 1719:1 1724:1 1750:1 1790:1 1796:1 1797:1 1817:1 1819:1 1825:1 1827:1 1840:1 1845:1 1861:1 1879:1 1897:1 1920:1 1924:1 1961:1 1964:1 1975:1 1981:1 1986:1 1999:1 2043:1 2053:1 2057:1 2061:1 2109:1 2124:1 2150:1 2178:1 2187:1 2193:1 2210:1 2253:1 2271:1 2291:1 2322:1 2363:1 2370:1 2396:1 2418:1 2436:1 2445:1 2462:1 2474:1 2488:1 2541:1 2561:1 2602:1 2606:1 2610:1 2611:1 2628:1 2674:1 2679:1 2705:1 2724:1 2730:1 2767:1 2771:1 2826:1 2893:1 2904:1 2912:1 2985:1 3029:1 3044:1 3067:1 3086:1 3100:1 3119:1 3126:1 3222:1 3245:1 3261:1 3282:1 3370:1 3394:1 3431:1 3440:1 3446:1 3449:1 3487:1 3506:1 3591:1 3597:1 3646:1 3654:1 3709:1 3712:1 3775:1 3782:1 3783:1 3866:1 3869:1 3872:1 3965:1 3983:1 4007:1 4020:1 4055:1 4108:1 4183:1 4194:1 4196:1 4224:1 4232:1 4271:1 4325:1 4330:1 4332:1 4351:1 4366:1 4444:1 4518:1 4536:1 4542:1 4564:1 4584:1 4700:1 4717:1 4751:1 5009:1 5088:1 5107:1 5144:1 5215:1 5223:1 5233:1 5399:1 5411:1 5420:1 5439:1 5482:1 5576:1 5703:1 5859:1 5900:1 6029:1 6032:1 6035:1 6184:1 6204:1 6206:1 6214:1 6216:1 6259:1 6315:1 6322:1 6439:1 6451:1 6471:1 6478:1 6502:1 6530:1 6699:1 6783:1 6808:1 6896:1 6935:1 7036:1 7058:1 7068:1 7228:1 7265:1 7278:1 7283:1 7345:1 7433:1 7549:1 7664:1 7895:1 7968:1 8055:1 8090:1 8338:1 8436:1 8486:1 8662:1 8706:1 8748:1 8843:1 8922:1 9079:1 9202:1 9457:1 9489:1 9513:1 9571:1 9614:1 9629:1 9636:1 9646:1 9728:1 9754:1 9791:1 9868:1 10072:1 10176:1 10374:1 10480:1 10549:1 10584:1 #
-0.0054351224799169062587567147204481 4:1 5:1 7:1 8:1 11:1 12:1 13:1 14:1 16:1 17:1 18:1 19:1 20:1 21:1 22:1 24:1 27:1 29:1 30:1 31:1 33:1 38:1 40:1 44:1 45:1 51:1 55:1 56:1 61:1 62:1 66:1 70:1 71:1 73:1 74:1 75:1 78:1 80:1 81:1 82:1 83:1 84:1 85:1 86:1 89:1 91:1 92:1 93:1 94:1 97:1 98:1 99:1 102:1 103:1 106:1 108:1 113:1 114:1 120:1 123:1 124:1 127:1 130:1 131:1 132:1 135:1 136:1 144:1 146:1 147:1 153:1 158:1 159:1 164:1 165:1 167:1 172:1 178:1 179:1 181:1 184:1 185:1 187:1 198:1 202:1 206:1 207:1 208:1 209:1 227:1 230:1 238:1 249:1 254:1 257:1 264:1 265:1 269:1 272:1 279:1 282:1 285:1 289:1 293:1 302:1 305:1 316:1 320:1 322:1 326:1 329:1 333:1 339:1 340:1 341:1 350:1 352:1 355:1 364:1 373:1 374:1 380:1 382:1 389:1 394:1 404:1 416:1 419:1 434:1 443:1 456:1 464:1 465:1 476:1 482:1 490:1 501:1 521:1 523:1 530:1 544:1 554:1 561:1 564:1 569:1 575:1 601:1 608:1 618:1 620:1 621:1 632:1 635:1 642:1 651:1 669:1 692:1 695:1 709:1 714:1 715:1 719:1 751:1 755:1 758:1 763:1 797:1 802:1 810:1 812:1 814:1 815:1 822:1 829:1 842:1 843:1 845:1 866:1 890:1 891:1 908:1 913:1 925:1 943:1 946:1 964:1 988:1 993:1 1033:1 1049:1 1053:1 1071:1 1127:1 1147:1 1156:1 1263:1 1284:1 1361:1 1372:1 1374:1 1380:1 1388:1 1421:1 1422:1 1427:1 1437:1 1443:1 1448:1 1475:1 1478:1 1484:1 1492:1 1512:1 1536:1 1539:1 1549:1 1580:1 1582:1 1593:1 1598:1 1643:1 1657:1 1664:1 1684:1 1687:1 1735:1 1788:1 1808:1 1827:1 1882:1 1895:1 1939:1 2007:1 2038:1 2052:1 2066:1 2072:1 2077:1 2104:1 2136:1 2155:1 2168:1 2195:1 2226:1 2233:1 2257:1 2304:1 2331:1 2344:1 2350:1 2401:1 2406:1 2439:1 2443:1 2470:1 2585:1 2600:1 2613:1 2705:1 3040:1 3055:1 3068:1 3139:1 3141:1 3143:1 3154:1 3204:1 3207:1 3235:1 3321:1 3349:1 3365:1 3437:1 3446:1 3452:1 3554:1 3562:1 3621:1 3625:1 3636:1 3637:1 3666:1 3695:1 3698:1 3804:1 3893:1 3899:1 3913:1 3949:1 3958:1 4024:1 4084:1 4186:1 4262:1 4339:1 4369:1 4411:1 4414:1 4417:1 4459:1 4482:1 4498:1 4530:1 4566:1 4576:1 4617:1 4626:1 4692:1 4739:1 4781:1 4978:1 5105:1 5118:1 5256:1 5276:1 5356:1 5365:1 5388:1 5412:1 5477:1 5494:1 5503:1 5512:1 5671:1 5742:1 5962:1 5988:1 6004:1 6141:1 6145:1 6163:1 6364:1 6509:1 6532:1 6553:1 6693:1 6942:1 7005:1 7084:1 7146:1 7194:1 7251:1 7261:1 7349:1 7371:1 7645:1 7672:1 7839:1 7897:1 7967:1 7986:1 8097:1 8100:1 8141:1 8234:1 8282:1 8384:1 8552:1 8727:1 8772:1 9080:1 9116:1 9192:1 9934:1 9963:1 10135:1 10158:1 10261:1 10266:1 10338:1 10345:1 10564:1 10649:1 #
-0.00068645134829122412666729813324196 1:1 2:1 4:1 5:1 7:1 8:1 9:1 11:1 12:1 13:1 15:1 16:1 17:1 18:1 20:1 22:1 23:1 24:1 25:1 26:1 27:1 28:1 29:1 30:1 31:1 32:1 34:1 35:1 36:1 37:1 39:1 40:1 42:1 45:1 47:1 49:1 51:1 52:1 53:1 54:1 56:1 58:1 59:1 61:1 64:1 67:1 68:1 70:1 71:1 73:1 76:1 78:1 79:1 82:1 83:1 84:1 85:1 86:1 89:1 90:1 91:1 93:1 94:1 95:1 98:1 99:1 102:1 103:1 104:1 105:1 106:1 107:1 108:1 110:1 113:1 114:1 119:1 120:1 123:1 124:1 126:1 127:1 129:1 130:1 132:1 144:1 147:1 156:1 158:1 161:1 163:1 165:1 170:1 172:1 173:1 176:1 178:1 184:1 186:1 188:1 198:1 201:1 203:1 206:1 207:1 208:1 212:1 216:1 217:1 221:1 225:1 232:1 234:1 240:1 241:1 245:1 253:1 255:1 258:1 260:1 263:1 264:1 270:1 272:1 273:1 276:1 281:1 282:1 291:1 295:1 299:1 300:1 304:1 306:1 315:1 318:1 319:1 320:1 321:1 328:1 329:1 331:1 333:1 341:1 343:1 346:1 350:1 357:1 382:1 384:1 386:1 387:1 388:1 390:1 391:1 393:1 402:1 403:1 409:1 410:1 414:1 423:1 429:1 431:1 443:1 452:1 456:1 473:1 477:1 503:1 504:1 519:1 534:1 545:1 551:1 557:1 562:1 566:1 569:1 585:1 595:1 599:1 601:1 602:1 608:1 615:1 616:1 622:1 631:1 632:1 633:1 634:1 644:1 653:1 657:1 659:1 661:1 680:1 690:1 693:1 702:1 703:1 708:1 719:1 741:1 755:1 757:1 758:1 770:1 772:1 789:1 797:1 809:1 814:1 818:1 828:1 835:1 839:1 840:1 849:1 851:1 874:1 882:1 899:1 905:1 908:1 922:1 928:1 947:1 957:1 964:1 993:1 1003:1 1008:1 1012:1 1024:1 1030:1 1033:1 1060:1 1065:1 1095:1 1117:1 1132:1 1135:1 1136:1 1160:1 1167:1 1173:1 1185:1 1186:1 1200:1 1206:1 1258:1 1264:1 1268:1 1310:1 1370:1 1383:1 1388:1 1396:1 1414:1 1432:1 1444:1 1446:1 1452:1 1464:1 1484:1 1496:1 1514:1 1519:1 1525:1 1534:1 1535:1 1557:1 1565:1 1572:1 1596:1 1598:1 1691:1 1837:1 1842:1 1843:1 1909:1 1951:1 1960:1 1997:1 2015:1 2038:1 2104:1 2135:1 2150:1 2185:1 2194:1 2210:1 2230:1 2253:1 2300:1 2344:1 2360:1 2396:1 2418:1 2422:1 2427:1 2462:1 2538:1 2599:1 2713:1 2809:1 2819:1 2898:1 2912:1 2921:1 3004:1 3071:1 3075:1 3086:1 3089:1 3096:1 3120:1 3128:1 3289:1 3301:1 3321:1 3490:1 3532:1 3616:1 3620:1 3646:1 3709:1 3801:1 4035:1 4091:1 4180:1 4194:1 4224:1 4225:1 4288:1 4468:1 4513:1 4530:1 4679:1 4731:1 4747:1 4929:1 4961:1 4969:1 5010:1 5082:1 5107:1 5220:1 5355:1 5834:1 5933:1 6099:1 6118:1 6128:1 6138:1 6309:1 6361:1 6421:1 6496:1 6735:1 6746:1 6827:1 6920:1 6964:1 7008:1 7019:1 7062:1 7286:1 7492:1 7558:1 7566:1 7651:1 7943:1 8300:1 8446:1 8659:1 8668:1 8753:1 8856:1 8873:1 8877:1 8961:1 9008:1 9404:1 9509:1 9730:1 9906:1 10169:1 10170:1 10199:1 10299:1 #
0.0014320275298898717773743438641532 1:1 8:1 11:1 12:1 15:1 16:1 17:1 20:1 21:1 28:1 29:1 30:1 31:1 32:1 34:1 39:1 50:1 54:1 67:1 69:1 71:1 72:1 73:1 74:1 76:1 77:1 78:1 84:1 86:1 93:1 94:1 103:1 104:1 110:1 111:1 114:1 118:1 124:1 131:1 137:1 163:1 167:1 170:1 175:1 185:1 187:1 197:1 202:1 209:1 214:1 221:1 232:1 257:1 265:1 277:1 286:1 308:1 325:1 326:1 333:1 352:1 355:1 381:1 387:1 394:1 400:1 405:1 408:1 411:1 420:1 435:1 452:1 453:1 456:1 457:1 458:1 475:1 478:1 491:1 508:1 521:1 529:1 557:1 566:1 575:1 581:1 601:1 608:1 649:1 651:1 750:1 758:1 843:1 845:1 851:1 857:1 878:1 930:1 988:1 1008:1 1009:1 1010:1 1022:1 1057:1 1067:1 1131:1 1155:1 1280:1 1374:1 1423:1 1475:1 1495:1 1503:1 1513:1 1534:1 1557:1 1580:1 1591:1 1602:1 1616:1 1631:1 1736:1 1794:1 1827:1 1901:1 1986:1 2021:1 2030:1 2055:1 2077:1 2106:1 2117:1 2169:1 2193:1 2233:1 2291:1 2368:1 2446:1 2471:1 2538:1 2613:1 3038:1 3043:1 3120:1 3162:1 3185:1 3460:1 3472:1 3804:1 3919:1 3953:1 4026:1 4178:1 4360:1 4498:1 4500:1 4682:1 4692:1 4814:1 5054:1 5145:1 5578:1 5597:1 5598:1 5683:1 5785:1 5814:1 5870:1 6099:1 6166:1 6173:1 6460:1 6512:1 6580:1 6695:1 6728:1 6941:1 6943:1 7128:1 7436:1 7438:1 7619:1 7631:1 7678:1 7737:1 7752:1 7770:1 7948:1 8051:1 8153:1 8316:1 8365:1 8384:1 8424:1 8485:1 8532:1 8567:1 8669:1 8706:1 8730:1 8751:1 8760:1 8853:1 9032:1 9038:1 9129:1 9212:1 9290:1 9546:1 9685:1 9730:1 9829:1 9940:1 9972:1 10247:1 10706:1 #
-0.0024192515897906671264172562274553 2:1 9:1 11:1 15:1 16:1 19:1 20:1 22:1 25:1 27:1 28:1 30:1 34:1 42:1 50:1 62:1 71:1 75:1 78:1 79:1 83:1 84:1 86:1 89:1 95:1 101:1 109:1 129:1 131:1 137:1 138:1 150:1 153:1 175:1 185:1 202:1 213:1 214:1 223:1 301:1 307:1 325:1 333:1 350:1 387:1 430:1 451:1 453:1 457:1 491:1 529:1 649:1 689:1 695:1 758:1 789:1 797:1 840:1 930:1 1008:1 1082:1 1374:1 1451:1 1503:1 1523:1 1534:1 1728:1 1736:1 1810:1 1827:1 1828:1 1986:1 2021:1 2193:1 2256:1 2350:1 2613:1 2904:1 2957:1 3020:1 3043:1 3148:1 3475:1 3578:1 3606:1 3648:1 3775:1 3985:1 4096:1 4820:1 6271:1 6480:1 6681:1 7074:1 7085:1 7891:1 7925:1 7942:1 8424:1 9023:1 9278:1 9331:1 9458:1 10677:1 #
0.0054351224799169062587567147204481 22:1 29:1 36:1 37:1 56:1 59:1 94:1 209:1 320:1 322:1 1161:1 1596:1 2630:1 3266:1 5400:1 7490:1 9319:1 #
0.0054351224799169062587567147204481 16:1 54:1 175:1 185:1 308:1 491:1 529:1 963:1 1044:1 1827:1 1986:1 2193:1 4498:1 4692:1 6618:1 #
0.0054351224799169062587567147204481 5:1 15:1 21:1 35:1 51:1 113:1 150:1 179:1 217:1 315:1 333:1 350:1 357:1 360:1 471:1 503:1 564:1 606:1 717:1 794:1 1135:1 1166:1 2143:1 2908:1 2963:1 3175:1 3661:1 3906:1 4235:1 4368:1 7504:1 7995:1 9150:1 #
0.0054351224799169062587567147204481 18:1 20:1 21:1 25:1 39:1 88:1 135:1 141:1 150:1 159:1 174:1 191:1 217:1 252:1 270:1 275:1 320:1 438:1 439:1 498:1 657:1 764:1 778:1 821:1 848:1 1023:1 1131:1 1408:1 2748:1 4711:1 7348:1 #
0.0054351224799169062587567147204481 1:1 22:1 36:1 56:1 59:1 69:1 102:1 177:1 308:1 323:1 486:1 789:1 1008:1 1138:1 1882:1 2681:1 3380:1 5921:1 6740:1 7770:1 10215:1 #
-0.00047400482331777987537665963735378 20:1 110:1 160:1 267:1 333:1 1008:1 1259:1 2344:1 2714:1 3266:1 4059:1 4706:1 6415:1 6594:1 7357:1 9338:1 #
0.0024212774896534036521422716958796 1:1 3:1 4:1 5:1 6:1 7:1 8:1 9:1 10:1 11:1 14:1 15:1 16:1 17:1 18:1 20:1 21:1 22:1 23:1 24:1 25:1 26:1 27:1 28:1 29:1 30:1 31:1 32:1 34:1 38:1 40:1 41:1 44:1 45:1 46:1 47:1 48:1 49:1 51:1 55:1 58:1 59:1 62:1 65:1 66:1 67:1 68:1 69:1 72:1 75:1 76:1 77:1 79:1 81:1 82:1 85:1 87:1 90:1 93:1 94:1 96:1 97:1 98:1 99:1 102:1 106:1 107:1 108:1 119:1 124:1 130:1 133:1 135:1 136:1 141:1 142:1 144:1 146:1 152:1 154:1 159:1 161:1 164:1 168:1 172:1 174:1 182:1 184:1 187:1 188:1 189:1 191:1 192:1 193:1 194:1 196:1 202:1 204:1 213:1 215:1 223:1 224:1 227:1 232:1 233:1 237:1 238:1 239:1 240:1 243:1 244:1 245:1 255:1 258:1 259:1 272:1 273:1 279:1 280:1 285:1 288:1 293:1 297:1 301:1 303:1 308:1 309:1 315:1 316:1 321:1 322:1 324:1 327:1 332:1 333:1 339:1 341:1 351:1 357:1 366:1 368:1 370:1 375:1 379:1 382:1 387:1 400:1 414:1 416:1 417:1 423:1 434:1 442:1 443:1 446:1 457:1 464:1 472:1 477:1 501:1 533:1 551:1 575:1 594:1 599:1 606:1 618:1 620:1 622:1 630:1 633:1 634:1 640:1 642:1 648:1 649:1 651:1 653:1 654:1 692:1 694:1 703:1 714:1 723:1 758:1 772:1 793:1 797:1 800:1 802:1 809:1 810:1 815:1 817:1 824:1 838:1 843:1 845:1 847:1 849:1 858:1 867:1 891:1 913:1 921:1 925:1 935:1 945:1 956:1 958:1 964:1 974:1 1008:1 1015:1 1025:1 1026:1 1077:1 1093:1 1107:1 1144:1 1226:1 1258:1 1287:1 1377:1 1393:1 1403:1 1404:1 1408:1 1428:1 1442:1 1446:1 1447:1 1466:1 1472:1 1485:1 1487:1 1503:1 1508:1 1527:1 1536:1 1620:1 1636:1 1643:1 1691:1 1717:1 1744:1 1748:1 1784:1 1798:1 1842:1 1884:1 1926:1 1928:1 1942:1 1977:1 2002:1 2023:1 2027:1 2032:1 2033:1 2059:1 2063:1 2104:1 2150:1 2253:1 2259:1 2278:1 2310:1 2371:1 2406:1 2442:1 2529:1 2600:1 2681:1 2778:1 2950:1 3070:1 3085:1 3086:1 3114:1 3174:1 3184:1 3335:1 3399:1 3576:1 3632:1 3696:1 3704:1 3723:1 3735:1 3744:1 3782:1 3866:1 3926:1 3957:1 3958:1 3985:1 4062:1 4205:1 4207:1 4303:1 4357:1 4420:1 4446:1 4457:1 4498:1 4501:1 4544:1 4574:1 4576:1 4658:1 4692:1 4718:1 4784:1 4801:1 4815:1 4823:1 4852:1 5030:1 5062:1 5173:1 5482:1 5494:1 5506:1 5721:1 5860:1 6051:1 6189:1 6358:1 6526:1 6644:1 6657:1 6693:1 6898:1 7116:1 7158:1 7319:1 7391:1 7476:1 7525:1 7591:1 7628:1 7788:1 7803:1 7846:1 7871:1 8024:1 8109:1 8211:1 8412:1 8483:1 8643:1 8702:1 8840:1 8992:1 9349:1 9624:1 9735:1 9824:1 10123:1 10255:1 10332:1 #
-0.0054351224799169062587567147204481 1:1 2:1 3:1 5:1 8:1 9:1 11:1 12:1 13:1 16:1 17:1 19:1 20:1 22:1 23:1 25:1 29:1 30:1 31:1 32:1 35:1 36:1 41:1 44:1 45:1 52:1 54:1 57:1 58:1 59:1 71:1 72:1 75:1 80:1 87:1 90:1 98:1 99:1 102:1 103:1 112:1 114:1 126:1 132:1 137:1 170:1 174:1 175:1 185:1 187:1 221:1 244:1 245:1 273:1 283:1 308:1 322:1 328:1 332:1 337:1 352:1 354:1 358:1 371:1 387:1 391:1 472:1 491:1 529:1 575:1 601:1 630:1 636:1 642:1 646:1 667:1 725:1 747:1 758:1 776:1 811:1 849:1 891:1 894:1 958:1 1028:1 1070:1 1123:1 1149:1 1250:1 1282:1 1559:1 1568:1 1591:1 1624:1 1636:1 1750:1 1785:1 1827:1 1845:1 1889:1 1986:1 2059:1 2171:1 2193:1 2194:1 2202:1 2220:1 2228:1 2300:1 2360:1 2415:1 2471:1 2486:1 2643:1 2681:1 2821:1 3090:1 3116:1 3167:1 3248:1 3583:1 3607:1 3720:1 3766:1 3842:1 3974:1 4191:1 4212:1 4271:1 4390:1 4406:1 4457:1 4460:1 4498:1 4537:1 4559:1 4692:1 4731:1 4909:1 4994:1 4997:1 5111:1 5138:1 5438:1 5527:1 5662:1 5729:1 5855:1 6502:1 6600:1 6670:1 7267:1 7397:1 7433:1 7606:1 7619:1 7810:1 8051:1 8741:1 8958:1 9354:1 9833:1 9928:1 9950:1 10536:1 #
-0.0054351224799169062587567147204481 1:1 4:1 7:1 8:1 11:1 13:1 15:1 16:1 17:1 18:1 20:1 22:1 23:1 25:1 27:1 29:1 30:1 32:1 33:1 36:1 39:1 41:1 47:1 51:1 52:1 54:1 56:1 59:1 60:1 61:1 62:1 63:1 67:1 72:1 73:1 75:1 78:1 81:1 82:1 84:1 85:1 86:1 87:1 89:1 98:1 102:1 112:1 113:1 114:1 115:1 119:1 120:1 130:1 132:1 141:1 144:1 147:1 148:1 149:1 150:1 163:1 169:1 170:1 173:1 174:1 179:1 185:1 187:1 191:1 193:1 212:1 214:1 227:1 228:1 232:1 233:1 244:1 249:1 253:1 270:1 273:1 275:1 276:1 277:1 278:1 289:1 302:1 305:1 310:1 318:1 322:1 327:1 332:1 360:1 372:1 382:1 387:1 390:1 400:1 402:1 406:1 419:1 425:1 434:1 436:1 443:1 472:1 476:1 480:1 481:1 493:1 500:1 534:1 575:1 585:1 618:1 623:1 628:1 630:1 632:1 636:1 641:1 642:1 646:1 648:1 651:1 700:1 712:1 725:1 758:1 764:1 776:1 814:1 815:1 825:1 833:1 834:1 849:1 851:1 867:1 884:1 894:1 936:1 961:1 962:1 987:1 999:1 1002:1 1007:1 1015:1 1028:1 1037:1 1053:1 1062:1 1066:1 1068:1 1082:1 1085:1 1086:1 1093:1 1097:1 1104:1 1116:1 1118:1 1123:1 1131:1 1147:1 1173:1 1199:1 1280:1 1396:1 1430:1 1432:1 1433:1 1509:1 1536:1 1556:1 1602:1 1624:1 1698:1 1718:1 1737:1 1742:1 1752:1 1809:1 1819:1 1826:1 1840:1 1888:1 1925:1 2044:1 2067:1 2078:1 2104:1 2151:1 2189:1 2243:1 2246:1 2355:1 2364:1 2368:1 2415:1 2442:1 2454:1 2549:1 2617:1 2662:1 2681:1 2683:1 2715:1 2732:1 2769:1 2816:1 2897:1 2912:1 3012:1 3079:1 3114:1 3127:1 3298:1 3309:1 3321:1 3323:1 3341:1 3381:1 3471:1 3562:1 3572:1 3615:1 3814:1 3835:1 3973:1 4091:1 4092:1 4111:1 4134:1 4185:1 4224:1 4338:1 4357:1 4368:1 4378:1 4410:1 4730:1 4754:1 4772:1 4831:1 4908:1 4929:1 5002:1 5031:1 5079:1 5265:1 5339:1 5398:1 5445:1 5467:1 5573:1 5580:1 5617:1 5656:1 5658:1 5729:1 5875:1 5896:1 5963:1 6194:1 6209:1 6232:1 6487:1 6596:1 6654:1 6693:1 6888:1 7067:1 7135:1 7230:1 7534:1 7582:1 7611:1 7618:1 7625:1 7643:1 7716:1 7831:1 7952:1 8021:1 8189:1 8467:1 8754:1 8911:1 8938:1 8966:1 8985:1 9124:1 9188:1 9308:1 9548:1 9715:1 9864:1 10099:1 10227:1 10586:1 10650:1 #
-0.0054351224799169062587567147204481 1:1 5:1 6:1 7:1 8:1 10:1 11:1 15:1 16:1 17:1 18:1 19:1 21:1 23:1 24:1 27:1 29:1 30:1 36:1 40:1 45:1 47:1 51:1 57:1 59:1 62:1 66:1 68:1 72:1 88:1 91:1 98:1 99:1 103:1 116:1 117:1 120:1 124:1 132:1 135:1 138:1 146:1 147:1 158:1 159:1 161:1 168:1 175:1 177:1 182:1 185:1 214:1 217:1 243:1 244:1 276:1 285:1 288:1 294:1 302:1 315:1 319:1 321:1 323:1 333:1 341:1 351:1 357:1 400:1 434:1 457:1 473:1 491:1 529:1 564:1 575:1 581:1 613:1 622:1 630:1 634:1 646:1 649:1 659:1 663:1 700:1 758:1 771:1 793:1 809:1 815:1 824:1 905:1 913:1 921:1 923:1 934:1 962:1 981:1 1002:1 1008:1 1112:1 1123:1 1133:1 1258:1 1492:1 1519:1 1624:1 1687:1 1741:1 1827:1 1854:1 1913:1 1939:1 1986:1 2106:1 2151:1 2169:1 2193:1 2360:1 2442:1 2532:1 2681:1 2791:1 3085:1 3086:1 3174:1 3209:1 3493:1 3679:1 3726:1 3776:1 3869:1 3905:1 4361:1 4498:1 4692:1 5163:1 5215:1 5494:1 5834:1 5879:1 6004:1 6070:1 6141:1 6536:1 6767:1 6792:1 7583:1 8132:1 8257:1 8326:1 8483:1 8518:1 8947:1 9044:1 9251:1 9624:1 10114:1 #
-0.0054351224799169062587567147204481 3:1 5:1 7:1 8:1 9:1 12:1 13:1 16:1 17:1 19:1 20:1 22:1 23:1 24:1 25:1 27:1 29:1 30:1 32:1 33:1 34:1 35:1 36:1 41:1 51:1 59:1 62:1 63:1 66:1 80:1 89:1 90:1 94:1 102:1 103:1 114:1 120:1 126:1 132:1 146:1 156:1 169:1 187:1 199:1 209:1 218:1 238:1 243:1 308:1 322:1 333:1 368:1 390:1 396:1 407:1 416:1 432:1 434:1 436:1 443:1 452:1 469:1 491:1 509:1 575:1 598:1 620:1 632:1 635:1 656:1 667:1 783:1 849:1 909:1 1015:1 1025:1 1089:1 1092:1 1123:1 1147:1 1183:1 1229:1 1455:1 1516:1 1519:1 1624:1 1827:1 1854:1 1856:1 1929:1 1979:1 2039:1 2117:1 2415:1 2592:1 2681:1 2695:1 2988:1 3360:1 3408:1 3445:1 3576:1 4497:1 4822:1 4856:1 4861:1 4908:1 5389:1 5494:1 6122:1 6219:1 6238:1 6363:1 6450:1 6632:1 6985:1 7267:1 7403:1 7573:1 7614:1 9011:1 9185:1 9377:1 9420:1 10281:1 10425:1 10613:1 #
-0.00045693285309530680751710640663532 1:1 2:1 4:1 5:1 7:1 8:1 9:1 11:1 12:1 15:1 16:1 17:1 18:1 19:1 20:1 21:1 22:1 24:1 25:1 26:1 28:1 29:1 30:1 34:1 36:1 37:1 41:1 51:1 52:1 54:1 56:1 61:1 62:1 66:1 69:1 72:1 73:1 74:1 78:1 84:1 85:1 86:1 94:1 98:1 102:1 103:1 107:1 111:1 114:1 117:1 119:1 122:1 124:1 130:1 131:1 132:1 141:1 148:1 157:1 158:1 161:1 163:1 164:1 165:1 170:1 176:1 181:1 183:1 186:1 198:1 202:1 215:1 216:1 218:1 222:1 230:1 231:1 232:1 235:1 238:1 244:1 255:1 261:1 264:1 277:1 279:1 283:1 292:1 294:1 295:1 306:1 312:1 315:1 322:1 323:1 337:1 340:1 341:1 364:1 372:1 382:1 383:1 387:1 389:1 404:1 407:1 417:1 425:1 430:1 431:1 434:1 436:1 439:1 447:1 452:1 454:1 481:1 483:1 491:1 502:1 515:1 529:1 531:1 541:1 566:1 569:1 601:1 608:1 628:1 642:1 656:1 667:1 690:1 716:1 719:1 725:1 727:1 746:1 755:1 758:1 777:1 812:1 815:1 829:1 845:1 850:1 851:1 859:1 872:1 882:1 935:1 944:1 964:1 982:1 994:1 1005:1 1021:1 1028:1 1042:1 1058:1 1059:1 1092:1 1104:1 1105:1 1157:1 1173:1 1185:1 1200:1 1210:1 1226:1 1228:1 1230:1 1232:1 1310:1 1397:1 1421:1 1441:1 1471:1 1513:1 1514:1 1583:1 1591:1 1626:1 1666:1 1672:1 1698:1 1814:1 1827:1 1855:1 1894:1 1986:1 2011:1 2069:1 2102:1 2140:1 2148:1 2168:1 2183:1 2360:1 2462:1 2478:1 2585:1 2679:1 2681:1 2714:1 2722:1 2771:1 2793:1 2960:1 3015:1 3152:1 3171:1 3221:1 3240:1 3270:1 3476:1 3519:1 3652:1 3668:1 3695:1 3911:1 4029:1 4031:1 4056:1 4161:1 4263:1 4299:1 4458:1 4511:1 4605:1 4679:1 4852:1 5009:1 5092:1 5111:1 5202:1 5439:1 5479:1 5645:1 5745:1 5887:1 5890:1 6006:1 6051:1 6116:1 6126:1 6187:1 6302:1 6315:1 6770:1 6778:1 6848:1 6854:1 7230:1 7629:1 7763:1 8105:1 8451:1 8672:1 8720:1 8853:1 9178:1 9551:1 9580:1 9791:1 9839:1 10062:1 10133:1 10266:1 10399:1 10535:1 #
0.0046222915815987749427184994033269 1:1 2:1 5:1 7:1 8:1 9:1 11:1 12:1 15:1 17:1 18:1 19:1 20:1 21:1 22:1 24:1 25:1 27:1 29:1 30:1 31:1 32:1 34:1 36:1 39:1 45:1 52:1 55:1 56:1 59:1 62:1 63:1 66:1 67:1 73:1 75:1 78:1 81:1 82:1 84:1 86:1 89:1 90:1 94:1 95:1 96:1 98:1 99:1 102:1 103:1 104:1 106:1 109:1 114:1 119:1 120:1 126:1 127:1 128:1 130:1 131:1 146:1 148:1 155:1 156:1 158:1 159:1 163:1 169:1 170:1 172:1 176:1 177:1 179:1 183:1 185:1 195:1 199:1 200:1 202:1 205:1 211:1 213:1 215:1 219:1 225:1 227:1 229:1 230:1 231:1 236:1 241:1 245:1 253:1 261:1 264:1 266:1 273:1 275:1 277:1 278:1 285:1 293:1 295:1 302:1 307:1 312:1 328:1 329:1 332:1 337:1 346:1 350:1 352:1 357:1 379:1 381:1 385:1 386:1 387:1 390:1 416:1 425:1 426:1 432:1 434:1 435:1 440:1 447:1 452:1 455:1 460:1 470:1 475:1 481:1 494:1 498:1 544:1 558:1 566:1 569:1 575:1 608:1 612:1 618:1 626:1 630:1 632:1 636:1 653:1 656:1 657:1 670:1 671:1 700:1 702:1 716:1 717:1 727:1 750:1 755:1 756:1 760:1 762:1 764:1 767:1 773:1 777:1 780:1 799:1 800:1 803:1 805:1 809:1 828:1 831:1 833:1 849:1 850:1 870:1 874:1 887:1 894:1 905:1 918:1 928:1 945:1 953:1 962:1 964:1 985:1 996:1 999:1 1009:1 1021:1 1066:1 1085:1 1092:1 1096:1 1100:1 1111:1 1118:1 1119:1 1135:1 1138:1 1142:1 1150:1 1155:1 1173:1 1185:1 1213:1 1230:1 1270:1 1303:1 1372:1 1395:1 1439:1 1473:1 1483:1 1484:1 1487:1 1502:1 1514:1 1520:1 1525:1 1536:1 1555:1 1556:1 1583:1 1603:1 1626:1 1644:1 1646:1 1649:1 1666:1 1720:1 1760:1 1796:1 1827:1 1845:1 1874:1 1882:1 1888:1 1915:1 1957:1 1961:1 1975:1 1999:1 2044:1 2067:1 2150:1 2151:1 2167:1 2210:1 2236:1 2277:1 2311:1 2379:1 2418:1 2440:1 2442:1 2455:1 2462:1 2482:1 2488:1 2584:1 2588:1 2610:1 2617:1 2630:1 2668:1 2674:1 2679:1 2793:1 2898:1 2908:1 2912:1 2936:1 2942:1 2962:1 2965:1 3006:1 3077:1 3100:1 3120:1 3172:1 3225:1 3235:1 3240:1 3261:1 3274:1 3283:1 3389:1 3394:1 3444:1 3446:1 3458:1 3552:1 3584:1 3680:1 3681:1 3685:1 3904:1 3955:1 3982:1 4014:1 4032:1 4202:1 4253:1 4263:1 4356:1 4431:1 4461:1 4598:1 4685:1 4961:1 4973:1 5002:1 5010:1 5045:1 5066:1 5168:1 5192:1 5297:1 5389:1 5420:1 5439:1 5445:1 5497:1 5500:1 5527:1 5707:1 5833:1 5881:1 5959:1 6006:1 6019:1 6167:1 6206:1 6289:1 6315:1 6450:1 6469:1 6507:1 6526:1 6693:1 6778:1 6888:1 6998:1 7014:1 7043:1 7062:1 7201:1 7387:1 7496:1 7534:1 7705:1 7880:1 8000:1 8157:1 8161:1 8173:1 8438:1 8587:1 8598:1 8629:1 8938:1 9045:1 9067:1 9188:1 9462:1 9854:1 9963:1 10156:1 10173:1 10270:1 10330:1 10455:1 10488:1 10662:1 #
0.0047982630181634747246199879100459 3:1 5:1 7:1 8:1 9:1 11:1 12:1 16:1 17:1 18:1 20:1 21:1 22:1 23:1 24:1 25:1 26:1 27:1 29:1 30:1 32:1 34:1 35:1 38:1 41:1 44:1 45:1 47:1 50:1 51:1 59:1 62:1 65:1 67:1 69:1 71:1 76:1 78:1 79:1 83:1 88:1 89:1 91:1 93:1 94:1 96:1 98:1 99:1 102:1 103:1 104:1 105:1 106:1 107:1 108:1 113:1 114:1 116:1 118:1 126:1 130:1 131:1 133:1 134:1 144:1 146:1 147:1 149:1 154:1 158:1 161:1 164:1 169:1 170:1 172:1 174:1 175:1 179:1 185:1 188:1 197:1 204:1 206:1 210:1 214:1 218:1 220:1 223:1 226:1 227:1 230:1 231:1 236:1 244:1 245:1 253:1 257:1 264:1 269:1 270:1 285:1 289:1 295:1 297:1 299:1 304:1 307:1 308:1 319:1 324:1 328:1 333:1 336:1 337:1 339:1 340:1 341:1 345:1 346:1 350:1 351:1 355:1 357:1 387:1 388:1 389:1 403:1 404:1 405:1 411:1 414:1 425:1 428:1 430:1 434:1 436:1 442:1 452:1 457:1 481:1 488:1 490:1 491:1 497:1 510:1 521:1 529:1 553:1 554:1 566:1 569:1 601:1 608:1 626:1 635:1 641:1 649:1 653:1 666:1 668:1 669:1 698:1 719:1 724:1 755:1 758:1 762:1 770:1 802:1 811:1 828:1 838:1 850:1 874:1 882:1 903:1 905:1 912:1 941:1 1001:1 1004:1 1005:1 1008:1 1009:1 1012:1 1023:1 1029:1 1030:1 1033:1 1046:1 1060:1 1070:1 1077:1 1078:1 1093:1 1122:1 1135:1 1148:1 1174:1 1189:1 1205:1 1268:1 1374:1 1416:1 1434:1 1441:1 1462:1 1480:1 1484:1 1489:1 1514:1 1549:1 1564:1 1576:1 1580:1 1583:1 1591:1 1638:1 1646:1 1672:1 1673:1 1698:1 1708:1 1748:1 1750:1 1760:1 1789:1 1790:1 1796:1 1827:1 1837:1 1909:1 1949:1 1986:1 1997:1 1999:1 2011:1 2130:1 2150:1 2168:1 2193:1 2194:1 2199:1 2257:1 2363:1 2375:1 2440:1 2442:1 2538:1 2587:1 2620:1 2762:1 2846:1 2898:1 2908:1 2933:1 2989:1 3040:1 3042:1 3043:1 3044:1 3098:1 3134:1 3152:1 3238:1 3308:1 3422:1 3435:1 3461:1 3474:1 3649:1 3660:1 3708:1 3725:1 3761:1 3801:1 3869:1 3872:1 3896:1 4040:1 4224:1 4262:1 4269:1 4441:1 4472:1 4498:1 4500:1 4536:1 4566:1 4580:1 4601:1 4626:1 4672:1 4692:1 4786:1 4795:1 4815:1 4823:1 4859:1 4870:1 4967:1 5033:1 5118:1 5221:1 5267:1 5439:1 5457:1 5627:1 5737:1 5785:1 5791:1 5852:1 5875:1 5913:1 5939:1 6027:1 6112:1 6136:1 6314:1 6356:1 6537:1 6721:1 6759:1 6782:1 6817:1 6853:1 6966:1 6992:1 7330:1 7519:1 7545:1 7547:1 7903:1 7912:1 7934:1 8038:1 8053:1 8118:1 8380:1 8452:1 8461:1 8563:1 8564:1 8663:1 9338:1 9445:1 9560:1 9580:1 10031:1 10212:1 10491:1 10495:1 10558:1 #
0.0054351224799169062587567147204481 1:1 2:1 3:1 5:1 6:1 7:1 8:1 10:1 11:1 12:1 14:1 16:1 17:1 18:1 19:1 25:1 30:1 31:1 34:1 36:1 41:1 44:1 48:1 50:1 54:1 57:1 67:1 68:1 69:1 71:1 72:1 73:1 79:1 81:1 82:1 84:1 86:1 89:1 101:1 102:1 104:1 110:1 131:1 137:1 138:1 143:1 144:1 153:1 159:1 167:1 175:1 177:1 185:1 186:1 195:1 202:1 209:1 213:1 214:1 223:1 232:1 237:1 249:1 251:1 263:1 265:1 318:1 322:1 323:1 325:1 326:1 333:1 339:1 352:1 355:1 377:1 387:1 388:1 392:1 400:1 406:1 410:1 411:1 420:1 427:1 432:1 452:1 453:1 457:1 465:1 475:1 478:1 491:1 500:1 508:1 521:1 529:1 564:1 575:1 628:1 630:1 649:1 689:1 740:1 746:1 758:1 762:1 786:1 789:1 807:1 810:1 811:1 831:1 840:1 843:1 905:1 923:1 943:1 946:1 988:1 1008:1 1112:1 1194:1 1254:1 1374:1 1378:1 1403:1 1438:1 1450:1 1503:1 1513:1 1534:1 1567:1 1603:1 1636:1 1672:1 1827:1 1936:1 1961:1 1986:1 2021:1 2039:1 2052:1 2055:1 2056:1 2087:1 2140:1 2193:1 2235:1 2350:1 2714:1 2809:1 2852:1 2968:1 2990:1 3055:1 3086:1 3140:1 3143:1 3162:1 3257:1 3315:1 3460:1 3578:1 3723:1 3738:1 3748:1 3899:1 3904:1 3972:1 3974:1 4001:1 4119:1 4134:1 4190:1 4199:1 4256:1 4482:1 4498:1 4572:1 4617:1 4692:1 4824:1 4870:1 4941:1 4956:1 4970:1 4995:1 5047:1 5101:1 5182:1 5285:1 5436:1 5635:1 5790:1 5813:1 5814:1 5983:1 6099:1 6202:1 6212:1 6534:1 6585:1 6618:1 6700:1 6740:1 6797:1 6856:1 7001:1 7025:1 7068:1 7175:1 7224:1 7229:1 7293:1 7349:1 7436:1 7533:1 7545:1 7651:1 7795:1 7952:1 8198:1 8282:1 8738:1 8861:1 8928:1 9003:1 9032:1 9384:1 9630:1 9733:1 9877:1 10265:1 10375:1 #
0.00011101666310162635155963511968125 1:1 8:1 11:1 12:1 16:1 17:1 18:1 21:1 24:1 25:1 27:1 30:1 31:1 34:1 36:1 51:1 52:1 66:1 67:1 68:1 69:1 71:1 81:1 82:1 83:1 84:1 88:1 90:1 93:1 94:1 96:1 98:1 102:1 104:1 108:1 112:1 114:1 115:1 116:1 123:1 124:1 131:1 135:1 136:1 143:1 149:1 153:1 161:1 163:1 166:1 170:1 172:1 175:1 185:1 186:1 187:1 198:1 202:1 204:1 206:1 209:1 232:1 238:1 265:1 276:1 277:1 287:1 308:1 333:1 350:1 352:1 355:1 364:1 366:1 370:1 377:1 381:1 408:1 440:1 446:1 472:1 473:1 478:1 491:1 521:1 529:1 560:1 566:1 569:1 575:1 623:1 649:1 668:1 673:1 716:1 755:1 758:1 797:1 802:1 822:1 923:1 963:1 1008:1 1028:1 1044:1 1099:1 1103:1 1138:1 1183:1 1205:1 1228:1 1301:1 1374:1 1388:1 1438:1 1448:1 1450:1 1462:1 1476:1 1487:1 1503:1 1506:1 1512:1 1589:1 1641:1 1646:1 1676:1 1693:1 1700:1 1731:1 1789:1 1827:1 1851:1 1969:1 1986:1 2051:1 2080:1 2107:1 2113:1 2193:1 2222:1 2771:1 2785:1 2930:1 2974:1 2990:1 3043:1 3206:1 3242:1 3282:1 3554:1 3801:1 3804:1 3974:1 4074:1 4129:1 4256:1 4477:1 4498:1 4597:1 4692:1 4708:1 4786:1 4879:1 4956:1 5557:1 5785:1 5934:1 6141:1 6173:1 6239:1 6413:1 6817:1 7128:1 7293:1 7436:1 7583:1 7631:1 7770:1 7807:1 8062:1 8316:1 8365:1 9038:1 9129:1 9165:1 9212:1 9241:1 9479:1 9549:1 9571:1 9829:1 10153:1 10536:1 10701:1 10706:1 #
0.0052151512263594315341186380408089 1:1 3:1 4:1 5:1 8:1 11:1 12:1 13:1 14:1 15:1 16:1 17:1 18:1 19:1 20:1 22:1 23:1 24:1 25:1 27:1 28:1 29:1 30:1 31:1 32:1 34:1 36:1 40:1 45:1 51:1 56:1 57:1 59:1 62:1 67:1 68:1 69:1 71:1 74:1 75:1 76:1 78:1 83:1 84:1 85:1 89:1 93:1 96:1 98:1 99:1 102:1 103:1 104:1 105:1 108:1 114:1 123:1 124:1 127:1 129:1 130:1 131:1 136:1 143:1 144:1 149:1 153:1 158:1 159:1 164:1 169:1 170:1 172:1 175:1 177:1 185:1 193:1 195:1 197:1 198:1 199:1 210:1 212:1 220:1 222:1 230:1 236:1 243:1 253:1 257:1 262:1 264:1 265:1 270:1 276:1 277:1 286:1 289:1 295:1 304:1 308:1 318:1 322:1 331:1 333:1 336:1 337:1 346:1 355:1 368:1 372:1 378:1 398:1 405:1 409:1 411:1 457:1 464:1 472:1 475:1 477:1 481:1 490:1 491:1 496:1 529:1 566:1 575:1 602:1 612:1 614:1 628:1 630:1 637:1 649:1 651:1 657:1 695:1 702:1 758:1 773:1 789:1 793:1 807:1 828:1 934:1 953:1 985:1 988:1 1005:1 1008:1 1009:1 1014:1 1022:1 1027:1 1131:1 1135:1 1150:1 1175:1 1207:1 1228:1 1268:1 1273:1 1366:1 1374:1 1432:1 1434:1 1441:1 1450:1 1476:1 1487:1 1551:1 1565:1 1573:1 1580:1 1603:1 1626:1 1660:1 1674:1 1680:1 1755:1 1789:1 1827:1 1986:1 1991:1 1995:1 2057:1 2160:1 2168:1 2187:1 2193:1 2258:1 2292:1 2311:1 2320:1 2396:1 2427:1 2440:1 2503:1 2551:1 2620:1 2760:1 2905:1 3004:1 3043:1 3052:1 3143:1 3206:1 3207:1 3222:1 3292:1 3308:1 3329:1 3457:1 3461:1 3472:1 3761:1 4181:1 4405:1 4441:1 4498:1 4658:1 4692:1 4701:1 4707:1 4967:1 5001:1 5127:1 5221:1 5342:1 5420:1 5439:1 5563:1 5913:1 5967:1 6112:1 6530:1 6603:1 6931:1 7555:1 7804:1 7873:1 7921:1 8260:1 8701:1 8752:1 8758:1 8924:1 8992:1 9044:1 9222:1 9241:1 9782:1 9978:1 10212:1 10495:1 10572:1 #
-0.0054351224799169062587567147204481 1:1 2:1 4:1 6:1 7:1 8:1 11:1 12:1 14:1 16:1 17:1 18:1 19:1 20:1 21:1 22:1 23:1 24:1 25:1 27:1 28:1 30:1 31:1 32:1 34:1 41:1 44:1 45:1 48:1 50:1 51:1 52:1 58:1 62:1 65:1 66:1 67:1 68:1 69:1 73:1 75:1 78:1 81:1 83:1 84:1 86:1 93:1 94:1 95:1 96:1 98:1 101:1 102:1 104:1 105:1 107:1 110:1 114:1 117:1 125:1 127:1 130:1 152:1 153:1 158:1 168:1 170:1 172:1 175:1 185:1 186:1 195:1 196:1 202:1 204:1 209:1 212:1 214:1 215:1 220:1 221:1 236:1 237:1 244:1 250:1 251:1 264:1 265:1 277:1 278:1 279:1 295:1 308:1 333:1 346:1 377:1 381:1 387:1 388:1 392:1 399:1 404:1 405:1 406:1 407:1 410:1 425:1 435:1 440:1 452:1 465:1 476:1 478:1 481:1 491:1 495:1 499:1 529:1 533:1 566:1 575:1 581:1 649:1 701:1 750:1 755:1 758:1 762:1 770:1 820:1 828:1 831:1 840:1 850:1 857:1 891:1 899:1 945:1 947:1 954:1 963:1 988:1 1003:1 1008:1 1010:1 1044:1 1057:1 1067:1 1090:1 1094:1 1131:1 1137:1 1147:1 1159:1 1175:1 1190:1 1284:1 1374:1 1402:1 1407:1 1451:1 1487:1 1507:1 1512:1 1514:1 1530:1 1549:1 1567:1 1579:1 1587:1 1600:1 1626:1 1666:1 1671:1 1680:1 1709:1 1733:1 1736:1 1790:1 1827:1 1840:1 1851:1 1888:1 1898:1 1906:1 1986:1 2030:1 2038:1 2069:1 2123:1 2150:1 2193:1 2199:1 2224:1 2300:1 2370:1 2394:1 2548:1 2599:1 2615:1 2709:1 2716:1 2771:1 2785:1 2793:1 2898:1 2990:1 3004:1 3020:1 3043:1 3055:1 3098:1 3100:1 3104:1 3172:1 3204:1 3242:1 3249:1 3306:1 3315:1 3335:1 3420:1 3460:1 3612:1 3782:1 3795:1 3936:1 3944:1 3974:1 4055:1 4145:1 4199:1 4210:1 4224:1 4253:1 4375:1 4411:1 4498:1 4568:1 4617:1 4692:1 4708:1 4958:1 5307:1 5343:1 5362:1 5387:1 5423:1 5452:1 5625:1 5663:1 5710:1 5742:1 5938:1 5984:1 6095:1 6103:1 6111:1 6116:1 6117:1 6130:1 6181:1 6413:1 6556:1 6609:1 6851:1 6861:1 6972:1 7091:1 7175:1 7189:1 7212:1 7293:1 7309:1 7403:1 7433:1 7472:1 7491:1 7573:1 7684:1 7733:1 8333:1 8377:1 8496:1 8612:1 8615:1 8639:1 8751:1 8775:1 8860:1 9013:1 9290:1 9754:1 10190:1 10299:1 10493:1 #
-0.0026828034278057128272920728306872 4:1 5:1 6:1 7:1 8:1 9:1 10:1 11:1 12:1 16:1 17:1 18:1 21:1 22:1 24:1 25:1 26:1 28:1 29:1 30:1 31:1 32:1 33:1 34:1 35:1 36:1 38:1 40:1 41:1 44:1 45:1 47:1 51:1 68:1 70:1 71:1 72:1 73:1 75:1 77:1 86:1 94:1 95:1 96:1 102:1 104:1 105:1 106:1 107:1 110:1 113:1 114:1 126:1 127:1 131:1 133:1 136:1 144:1 154:1 158:1 159:1 171:1 172:1 174:1 175:1 178:1 182:1 185:1 188:1 193:1 195:1 198:1 202:1 204:1 214:1 222:1 223:1 226:1 230:1 233:1 247:1 255:1 258:1 259:1 265:1 267:1 269:1 277:1 278:1 279:1 297:1 301:1 304:1 307:1 308:1 323:1 326:1 327:1 329:1 333:1 334:1 339:1 341:1 347:1 350:1 351:1 352:1 355:1 356:1 357:1 368:1 373:1 381:1 386:1 398:1 400:1 401:1 404:1 408:1 414:1 416:1 420:1 423:1 429:1 436:1 442:1 445:1 452:1 462:1 481:1 490:1 491:1 500:1 502:1 510:1 521:1 529:1 551:1 564:1 569:1 575:1 606:1 618:1 620:1 622:1 628:1 634:1 635:1 649:1 688:1 699:1 703:1 766:1 806:1 820:1 824:1 828:1 890:1 903:1 913:1 922:1 928:1 951:1 988:1 1001:1 1008:1 1009:1 1010:1 1011:1 1057:1 1061:1 1092:1 1104:1 1131:1 1142:1 1205:1 1250:1 1362:1 1374:1 1382:1 1427:1 1440:1 1442:1 1497:1 1512:1 1539:1 1549:1 1587:1 1636:1 1673:1 1681:1 1687:1 1717:1 1729:1 1733:1 1760:1 1789:1 1819:1 1827:1 1947:1 1962:1 1986:1 1992:1 2095:1 2113:1 2139:1 2168:1 2172:1 2193:1 2202:1 2314:1 2350:1 2369:1 2429:1 2470:1 2484:1 2503:1 2613:1 2615:1 2808:1 2903:1 3043:1 3068:1 3099:1 3143:1 3460:1 3482:1 3621:1 3653:1 3707:1 3804:1 3835:1 4062:1 4176:1 4203:1 4457:1 4459:1 4535:1 4559:1 4603:1 4699:1 4864:1 5017:1 5118:1 5253:1 5420:1 5591:1 5871:1 5899:1 6030:1 6105:1 6214:1 6289:1 6296:1 6375:1 6443:1 6464:1 6509:1 6530:1 6534:1 6705:1 7212:1 7329:1 7432:1 7483:1 7581:1 7616:1 7968:1 8034:1 8118:1 8227:1 8328:1 8775:1 8824:1 8853:1 8992:1 9241:1 9304:1 9787:1 10327:1 10543:1 #
-0.00074226161267533649016497898642797 1:1 2:1 4:1 5:1 6:1 9:1 11:1 12:1 13:1 15:1 16:1 17:1 18:1 21:1 22:1 23:1 24:1 25:1 26:1 27:1 28:1 30:1 32:1 34:1 36:1 38:1 40:1 42:1 44:1 45:1 51:1 52:1 55:1 59:1 61:1 62:1 65:1 66:1 67:1 68:1 69:1 71:1 74:1 75:1 76:1 77:1 78:1 79:1 80:1 83:1 84:1 85:1 86:1 89:1 90:1 91:1 93:1 94:1 95:1 96:1 98:1 102:1 103:1 104:1 107:1 108:1 110:1 112:1 113:1 114:1 116:1 118:1 120:1 123:1 124:1 127:1 129:1 130:1 131:1 136:1 144:1 146:1 149:1 155:1 158:1 159:1 168:1 170:1 175:1 176:1 180:1 183:1 185:1 187:1 193:1 196:1 197:1 198:1 202:1 207:1 209:1 210:1 214:1 215:1 220:1 223:1 225:1 226:1 227:1 228:1 231:1 232:1 233:1 234:1 236:1 238:1 240:1 244:1 245:1 249:1 250:1 251:1 253:1 257:1 260:1 267:1 268:1 270:1 276:1 277:1 279:1 281:1 283:1 284:1 295:1 300:1 314:1 321:1 327:1 333:1 335:1 338:1 345:1 347:1 356:1 357:1 365:1 379:1 381:1 382:1 387:1 388:1 400:1 401:1 404:1 408:1 410:1 420:1 424:1 426:1 428:1 432:1 440:1 444:1 448:1 450:1 451:1 452:1 453:1 456:1 463:1 475:1 478:1 491:1 493:1 496:1 497:1 499:1 506:1 526:1 529:1 541:1 557:1 566:1 569:1 581:1 583:1 595:1 601:1 618:1 626:1 642:1 645:1 649:1 668:1 674:1 676:1 688:1 693:1 698:1 746:1 749:1 751:1 758:1 762:1 773:1 787:1 792:1 793:1 794:1 802:1 808:1 811:1 820:1 839:1 855:1 862:1 869:1 871:1 873:1 878:1 900:1 907:1 910:1 945:1 947:1 987:1 988:1 1006:1 1008:1 1010:1 1044:1 1047:1 1057:1 1067:1 1070:1 1083:1 1099:1 1107:1 1112:1 1131:1 1161:1 1164:1 1173:1 1185:1 1189:1 1205:1 1212:1 1226:1 1228:1 1374:1 1384:1 1398:1 1411:1 1414:1 1428:1 1438:1 1456:1 1472:1 1514:1 1534:1 1567:1 1568:1 1587:1 1597:1 1626:1 1638:1 1646:1 1655:1 1663:1 1664:1 1719:1 1725:1 1733:1 1736:1 1827:1 1842:1 1851:1 1906:1 1922:1 1937:1 1949:1 1981:1 1986:1 2011:1 2030:1 2040:1 2045:1 2057:1 2064:1 2077:1 2097:1 2107:1 2123:1 2169:1 2193:1 2197:1 2199:1 2208:1 2225:1 2229:1 2233:1 2237:1 2257:1 2273:1 2280:1 2291:1 2338:1 2344:1 2372:1 2447:1 2457:1 2484:1 2610:1 2613:1 2684:1 2709:1 2764:1 2785:1 2833:1 2898:1 2904:1 2928:1 2974:1 2984:1 3020:1 3043:1 3089:1 3101:1 3104:1 3167:1 3261:1 3275:1 3282:1 3287:1 3315:1 3341:1 3345:1 3350:1 3467:1 3482:1 3493:1 3709:1 3756:1 3775:1 3804:1 3868:1 3993:1 4012:1 4021:1 4050:1 4074:1 4134:1 4269:1 4349:1 4350:1 4444:1 4469:1 4482:1 4500:1 4610:1 4795:1 4859:1 4949:1 5017:1 5030:1 5206:1 5220:1 5233:1 5270:1 5591:1 5598:1 5617:1 5630:1 5638:1 5814:1 5903:1 6019:1 6042:1 6103:1 6139:1 6419:1 6537:1 6585:1 6771:1 6808:1 6923:1 6971:1 6972:1 7005:1 7047:1 7100:1 7133:1 7198:1 7212:1 7315:1 7468:1 7631:1 7684:1 7841:1 7842:1 7868:1 7903:1 7970:1 8207:1 8262:1 8281:1 8329:1 8660:1 8694:1 8775:1 8788:1 8911:1 9469:1 9605:1 9668:1 9736:1 9925:1 10054:1 10119:1 10356:1 #
-0.0013916633188141966284007144949442 1:1 4:1 7:1 8:1 9:1 10:1 11:1 12:1 16:1 17:1 18:1 20:1 21:1 22:1 23:1 24:1 25:1 27:1 29:1 30:1 31:1 32:1 34:1 35:1 36:1 40:1 47:1 48:1 51:1 52:1 57:1 62:1 67:1 68:1 69:1 73:1 75:1 78:1 81:1 82:1 83:1 84:1 90:1 91:1 94:1 96:1 99:1 101:1 102:1 104:1 112:1 114:1 117:1 124:1 126:1 127:1 131:1 133:1 135:1 136:1 153:1 159:1 170:1 172:1 175:1 181:1 184:1 185:1 186:1 197:1 199:1 202:1 209:1 213:1 214:1 221:1 223:1 228:1 230:1 237:1 238:1 245:1 247:1 252:1 253:1 257:1 262:1 270:1 272:1 279:1 289:1 316:1 322:1 329:1 332:1 333:1 341:1 350:1 351:1 352:1 357:1 364:1 387:1 392:1 406:1 407:1 408:1 411:1 451:1 475:1 476:1 491:1 500:1 502:1 508:1 529:1 540:1 541:1 553:1 575:1 601:1 606:1 614:1 626:1 628:1 649:1 668:1 709:1 725:1 758:1 800:1 803:1 805:1 813:1 831:1 847:1 853:1 899:1 928:1 964:1 989:1 990:1 1008:1 1010:1 1015:1 1026:1 1047:1 1079:1 1087:1 1089:1 1131:1 1165:1 1173:1 1210:1 1226:1 1254:1 1287:1 1374:1 1407:1 1408:1 1424:1 1425:1 1455:1 1461:1 1473:1 1497:1 1500:1 1527:1 1534:1 1556:1 1567:1 1583:1 1587:1 1733:1 1789:1 1827:1 1882:1 1910:1 1929:1 1986:1 2044:1 2049:1 2052:1 2123:1 2193:1 2222:1 2291:1 2340:1 2369:1 2416:1 2442:1 2462:1 2598:1 2606:1 2654:1 2684:1 2724:1 3019:1 3020:1 3038:1 3043:1 3086:1 3089:1 3098:1 3104:1 3143:1 3198:1 3289:1 3315:1 3380:1 3386:1 3482:1 3574:1 3654:1 3723:1 3738:1 3774:1 3804:1 3839:1 3868:1 3965:1 4234:1 4459:1 4460:1 4568:1 4603:1 5054:1 5118:1 5138:1 5178:1 6030:1 6129:1 6262:1 6289:1 6376:1 6407:1 6530:1 6856:1 7044:1 7167:1 7171:1 7232:1 7293:1 7329:1 7606:1 7968:1 8173:1 8827:1 8831:1 8913:1 9145:1 9241:1 9290:1 9309:1 9402:1 9787:1 #
-0.0020449620225249506497156026796347 1:1 3:1 4:1 6:1 11:1 12:1 13:1 15:1 16:1 17:1 18:1 19:1 22:1 23:1 24:1 25:1 27:1 28:1 29:1 30:1 31:1 32:1 33:1 34:1 36:1 45:1 51:1 52:1 54:1 59:1 60:1 62:1 63:1 67:1 68:1 69:1 71:1 73:1 74:1 75:1 78:1 79:1 82:1 84:1 86:1 89:1 90:1 91:1 93:1 94:1 95:1 96:1 98:1 99:1 102:1 103:1 104:1 105:1 106:1 112:1 114:1 118:1 123:1 124:1 125:1 126:1 129:1 130:1 131:1 138:1 144:1 146:1 148:1 149:1 153:1 158:1 159:1 169:1 170:1 171:1 172:1 175:1 185:1 187:1 198:1 199:1 202:1 212:1 230:1 231:1 236:1 257:1 270:1 277:1 279:1 281:1 284:1 285:1 289:1 293:1 304:1 308:1 318:1 321:1 333:1 336:1 337:1 339:1 346:1 379:1 381:1 382:1 383:1 384:1 392:1 403:1 404:1 408:1 424:1 432:1 435:1 444:1 450:1 452:1 458:1 465:1 472:1 475:1 476:1 488:1 491:1 497:1 499:1 526:1 529:1 566:1 569:1 575:1 583:1 595:1 602:1 632:1 636:1 640:1 649:1 653:1 670:1 688:1 725:1 749:1 758:1 761:1 762:1 769:1 789:1 793:1 809:1 813:1 816:1 828:1 829:1 836:1 850:1 900:1 912:1 922:1 932:1 974:1 988:1 990:1 1008:1 1018:1 1046:1 1096:1 1205:1 1226:1 1232:1 1258:1 1268:1 1280:1 1374:1 1407:1 1416:1 1439:1 1446:1 1455:1 1484:1 1485:1 1489:1 1525:1 1534:1 1556:1 1559:1 1567:1 1583:1 1626:1 1698:1 1704:1 1733:1 1736:1 1789:1 1827:1 1851:1 1873:1 1897:1 1951:1 1986:1 2000:1 2006:1 2038:1 2061:1 2068:1 2095:1 2120:1 2123:1 2130:1 2150:1 2168:1 2193:1 2300:1 2311:1 2348:1 2360:1 2455:1 2503:1 2588:1 2613:1 2615:1 2675:1 2813:1 2969:1 2974:1 3020:1 3029:1 3043:1 3055:1 3095:1 3098:1 3104:1 3126:1 3146:1 3172:1 3245:1 3309:1 3375:1 3420:1 3422:1 3614:1 3775:1 3795:1 3944:1 3974:1 4012:1 4055:1 4200:1 4224:1 4290:1 4305:1 4481:1 4617:1 4631:1 4701:1 4956:1 4964:1 4969:1 4982:1 5024:1 5033:1 5068:1 5144:1 5168:1 5221:1 5232:1 5312:1 5343:1 5399:1 5420:1 5423:1 5439:1 5473:1 5545:1 5560:1 5655:1 5673:1 5710:1 5742:1 5791:1 5840:1 6006:1 6030:1 6118:1 6239:1 6248:1 6413:1 6427:1 6561:1 6700:1 6920:1 7329:1 7345:1 7506:1 7631:1 7712:1 7769:1 7798:1 8069:1 9165:1 9273:1 9440:1 9877:1 10010:1 10130:1 10189:1 10267:1 10452:1 10459:1 10467:1 10521:1 10586:1 #
0.0054351224799169062587567147204481 3:1 6:1 9:1 10:1 11:1 14:1 15:1 16:1 17:1 19:1 20:1 25:1 29:1 30:1 31:1 33:1 36:1 49:1 52:1 56:1 58:1 62:1 66:1 70:1 72:1 73:1 79:1 82:1 84:1 97:1 98:1 102:1 103:1 116:1 117:1 125:1 131:1 138:1 158:1 161:1 165:1 175:1 205:1 214:1 216:1 222:1 232:1 233:1 243:1 254:1 270:1 301:1 309:1 357:1 360:1 370:1 402:1 407:1 410:1 426:1 427:1 434:1 460:1 461:1 473:1 482:1 486:1 491:1 553:1 638:1 640:1 657:1 673:1 712:1 717:1 758:1 775:1 777:1 790:1 794:1 799:1 867:1 967:1 981:1 1002:1 1008:1 1040:1 1045:1 1149:1 1151:1 1200:1 1254:1 1378:1 1475:1 1511:1 1542:1 1657:1 1827:1 1862:1 1896:1 2140:1 2193:1 2211:1 2271:1 2392:1 2459:1 2503:1 2585:1 2702:1 2705:1 2761:1 3062:1 3098:1 3119:1 3168:1 3357:1 3388:1 3448:1 3453:1 3607:1 4594:1 4750:1 4760:1 4941:1 5129:1 5188:1 5345:1 5351:1 5567:1 5686:1 6116:1 6536:1 6865:1 6950:1 7231:1 7486:1 8102:1 8111:1 8586:1 8708:1 8736:1 8949:1 9039:1 9369:1 9887:1 10687:1 #
0.0054351224799169062587567147204481 1:1 5:1 7:1 9:1 12:1 14:1 15:1 16:1 17:1 18:1 20:1 21:1 22:1 23:1 25:1 29:1 30:1 31:1 36:1 39:1 46:1 49:1 51:1 52:1 58:1 59:1 61:1 62:1 71:1 73:1 80:1 84:1 85:1 89:1 94:1 97:1 98:1 102:1 106:1 110:1 113:1 114:1 120:1 132:1 133:1 135:1 149:1 158:1 172:1 174:1 175:1 186:1 191:1 214:1 218:1 223:1 227:1 237:1 278:1 304:1 308:1 319:1 322:1 323:1 341:1 376:1 382:1 387:1 417:1 420:1 434:1 436:1 443:1 461:1 493:1 585:1 598:1 635:1 642:1 666:1 671:1 674:1 755:1 758:1 802:1 815:1 835:1 839:1 868:1 944:1 996:1 1012:1 1035:1 1093:1 1170:1 1172:1 1187:1 1250:1 1275:1 1397:1 1413:1 1452:1 1490:1 1493:1 1565:1 1620:1 1640:1 1652:1 1698:1 1734:1 1803:1 1855:1 1895:1 2002:1 2127:1 2152:1 2169:1 2240:1 2612:1 2739:1 3018:1 3068:1 3134:1 3144:1 3152:1 3171:1 3221:1 3264:1 3410:1 3415:1 3642:1 3679:1 3707:1 3870:1 3911:1 3958:1 4148:1 4161:1 4278:1 4293:1 4327:1 4409:1 4569:1 4843:1 4929:1 4998:1 5030:1 5314:1 5401:1 5441:1 5464:1 5580:1 6027:1 6339:1 6402:1 6446:1 6529:1 6630:1 7842:1 7949:1 8128:1 8260:1 8646:1 9019:1 9059:1 9374:1 9423:1 9635:1 #
0.0054351224799169062587567147204481 4:1 8:1 9:1 11:1 12:1 15:1 16:1 17:1 18:1 20:1 22:1 30:1 31:1 36:1 37:1 54:1 56:1 59:1 62:1 66:1 69:1 78:1 79:1 98:1 102:1 113:1 130:1 131:1 143:1 149:1 160:1 170:1 187:1 195:1 204:1 214:1 244:1 252:1 254:1 265:1 295:1 382:1 407:1 410:1 419:1 425:1 429:1 436:1 458:1 490:1 493:1 530:1 553:1 557:1 606:1 640:1 708:1 777:1 806:1 878:1 1008:1 1142:1 1165:1 1205:1 1369:1 1426:1 1656:1 1719:1 1827:1 2000:1 2151:1 2167:1 2202:1 2402:1 2414:1 2429:1 2643:1 2664:1 2716:1 3025:1 3204:1 3501:1 3842:1 4044:1 4117:1 4138:1 4192:1 4296:1 4330:1 4482:1 4620:1 5117:1 5169:1 5478:1 5805:1 6605:1 6652:1 6966:1 7426:1 8072:1 8901:1 10726:1 #
0.0025883353201013336621072458143544 1:1 7:1 8:1 9:1 11:1 12:1 13:1 15:1 16:1 17:1 18:1 20:1 21:1 22:1 24:1 25:1 29:1 30:1 31:1 34:1 35:1 36:1 44:1 49:1 51:1 52:1 53:1 56:1 58:1 59:1 62:1 66:1 67:1 68:1 71:1 74:1 75:1 77:1 84:1 85:1 86:1 90:1 91:1 94:1 97:1 98:1 106:1 112:1 113:1 114:1 117:1 120:1 124:1 127:1 128:1 135:1 137:1 148:1 158:1 159:1 164:1 166:1 170:1 172:1 177:1 187:1 202:1 203:1 207:1 210:1 214:1 218:1 227:1 230:1 231:1 233:1 235:1 237:1 238:1 242:1 244:1 268:1 270:1 275:1 277:1 278:1 283:1 284:1 292:1 304:1 322:1 323:1 329:1 331:1 340:1 341:1 347:1 348:1 357:1 369:1 372:1 374:1 387:1 389:1 426:1 428:1 443:1 451:1 461:1 465:1 475:1 481:1 500:1 530:1 548:1 554:1 606:1 620:1 621:1 632:1 642:1 645:1 647:1 651:1 653:1 664:1 666:1 667:1 710:1 714:1 727:1 746:1 755:1 758:1 762:1 780:1 798:1 800:1 802:1 806:1 815:1 845:1 849:1 872:1 899:1 905:1 952:1 991:1 994:1 1015:1 1028:1 1030:1 1035:1 1042:1 1093:1 1105:1 1111:1 1144:1 1165:1 1180:1 1200:1 1275:1 1432:1 1455:1 1473:1 1476:1 1491:1 1536:1 1549:1 1565:1 1569:1 1576:1 1604:1 1637:1 1676:1 1689:1 1750:1 1788:1 1854:1 1976:1 2027:1 2033:1 2069:1 2078:1 2104:1 2107:1 2117:1 2135:1 2151:1 2420:1 2422:1 2439:1 2471:1 2619:1 2681:1 2706:1 2715:1 2961:1 3040:1 3068:1 3120:1 3128:1 3202:1 3205:1 3221:1 3222:1 3271:1 3315:1 3321:1 3446:1 3572:1 3597:1 3618:1 3642:1 3669:1 3681:1 3881:1 3927:1 3972:1 3994:1 4205:1 4303:1 4313:1 4361:1 4397:1 4417:1 4481:1 4505:1 4594:1 4707:1 4994:1 5107:1 5135:1 5483:1 5494:1 5557:1 5571:1 5663:1 5855:1 5931:1 6113:1 6206:1 6347:1 6392:1 6497:1 6535:1 6919:1 6990:1 7166:1 7332:1 7506:1 8164:1 8190:1 8304:1 8328:1 8384:1 8399:1 8835:1 8935:1 9448:1 9577:1 10156:1 10548:1 10640:1 #
