SVM-light Version V6.02
0 # kernel type
3 # kernel parameter -d 
1 # kernel parameter -g 
1 # kernel parameter -s 
1 # kernel parameter -r 
empty# kernel parameter -u 
10746 # highest feature index 
994 # number of training documents 
291 # number of support vectors plus 1 
0.79662276 # threshold b, each following line is a SV (starting with alpha*y)
-7.0247960227672474322821449810306e-05 1:1 4:1 5:1 7:1 8:1 9:1 11:1 12:1 13:1 15:1 16:1 18:1 20:1 22:1 24:1 25:1 29:1 30:1 31:1 32:1 35:1 36:1 39:1 51:1 54:1 56:1 59:1 60:1 61:1 66:1 67:1 71:1 72:1 75:1 84:1 86:1 90:1 98:1 102:1 106:1 124:1 125:1 130:1 131:1 136:1 138:1 143:1 148:1 149:1 150:1 159:1 160:1 163:1 170:1 172:1 177:1 185:1 186:1 189:1 199:1 216:1 224:1 232:1 237:1 238:1 244:1 247:1 252:1 253:1 262:1 264:1 273:1 275:1 280:1 283:1 293:1 295:1 296:1 316:1 323:1 328:1 338:1 350:1 379:1 387:1 425:1 436:1 470:1 488:1 490:1 493:1 495:1 601:1 606:1 618:1 626:1 635:1 640:1 758:1 772:1 775:1 800:1 806:1 817:1 884:1 905:1 978:1 1002:1 1097:1 1101:1 1117:1 1122:1 1204:1 1250:1 1280:1 1377:1 1445:1 1462:1 1536:1 1551:1 1576:1 1624:1 1668:1 1698:1 1917:1 1980:1 2082:1 2178:1 2213:1 2408:1 2440:1 2462:1 2534:1 2594:1 2643:1 2664:1 2724:1 2952:1 3040:1 3084:1 3248:1 3309:1 3410:1 3414:1 3459:1 3508:1 3552:1 3588:1 3607:1 3617:1 3618:1 3628:1 3641:1 3795:1 3801:1 3986:1 4014:1 4040:1 4062:1 4069:1 4075:1 4296:1 4672:1 4685:1 4856:1 4908:1 4997:1 5478:1 5662:1 5668:1 5823:1 6247:1 6300:1 6859:1 7206:1 7230:1 7390:1 7404:1 7420:1 8008:1 8231:1 8380:1 8385:1 8477:1 8585:1 9004:1 9124:1 9414:1 9536:1 10052:1 10175:1 10328:1 10367:1 10549:1 10731:1 #
-0.0049031117488299346199309702853952 1:1 4:1 5:1 6:1 7:1 8:1 9:1 10:1 11:1 12:1 14:1 15:1 16:1 17:1 18:1 20:1 21:1 22:1 24:1 25:1 27:1 28:1 29:1 30:1 31:1 32:1 34:1 36:1 38:1 39:1 41:1 42:1 43:1 44:1 45:1 50:1 51:1 52:1 53:1 55:1 57:1 58:1 60:1 63:1 66:1 68:1 69:1 71:1 73:1 74:1 75:1 76:1 77:1 78:1 84:1 85:1 88:1 89:1 90:1 91:1 93:1 94:1 95:1 98:1 100:1 101:1 102:1 103:1 104:1 105:1 106:1 108:1 113:1 114:1 120:1 122:1 123:1 124:1 126:1 128:1 129:1 130:1 135:1 138:1 139:1 140:1 147:1 148:1 149:1 153:1 157:1 158:1 162:1 163:1 166:1 170:1 172:1 179:1 187:1 193:1 196:1 199:1 202:1 206:1 208:1 209:1 216:1 218:1 221:1 222:1 225:1 227:1 229:1 230:1 231:1 232:1 236:1 244:1 263:1 264:1 268:1 270:1 275:1 277:1 278:1 283:1 292:1 301:1 303:1 307:1 310:1 312:1 321:1 322:1 324:1 325:1 327:1 329:1 333:1 335:1 339:1 341:1 346:1 347:1 349:1 354:1 357:1 361:1 364:1 367:1 370:1 376:1 382:1 383:1 385:1 387:1 388:1 394:1 395:1 399:1 401:1 410:1 425:1 430:1 432:1 434:1 444:1 452:1 465:1 468:1 471:1 472:1 480:1 482:1 486:1 488:1 514:1 530:1 531:1 545:1 554:1 556:1 562:1 566:1 581:1 596:1 598:1 618:1 625:1 633:1 641:1 642:1 653:1 665:1 669:1 671:1 674:1 686:1 688:1 702:1 710:1 717:1 719:1 724:1 742:1 755:1 758:1 762:1 767:1 768:1 779:1 789:1 797:1 828:1 831:1 868:1 875:1 881:1 882:1 899:1 944:1 945:1 985:1 994:1 1001:1 1004:1 1009:1 1012:1 1015:1 1019:1 1021:1 1058:1 1089:1 1090:1 1092:1 1096:1 1097:1 1104:1 1105:1 1111:1 1122:1 1128:1 1155:1 1161:1 1184:1 1193:1 1226:1 1239:1 1258:1 1284:1 1361:1 1378:1 1385:1 1405:1 1418:1 1422:1 1432:1 1439:1 1452:1 1466:1 1476:1 1485:1 1489:1 1514:1 1522:1 1524:1 1534:1 1565:1 1626:1 1644:1 1649:1 1656:1 1659:1 1666:1 1676:1 1689:1 1704:1 1713:1 1755:1 1850:1 1881:1 1884:1 1901:1 1951:1 1977:1 1985:1 1987:1 2069:1 2078:1 2091:1 2109:1 2163:1 2183:1 2190:1 2213:1 2274:1 2290:1 2300:1 2386:1 2455:1 2462:1 2499:1 2571:1 2645:1 2692:1 2739:1 2775:1 2780:1 2810:1 2813:1 2819:1 2936:1 2962:1 3006:1 3022:1 3068:1 3102:1 3105:1 3126:1 3144:1 3194:1 3205:1 3239:1 3262:1 3269:1 3282:1 3292:1 3316:1 3422:1 3461:1 3487:1 3534:1 3541:1 3569:1 3578:1 3584:1 3668:1 3725:1 3833:1 3892:1 3958:1 3967:1 3985:1 4062:1 4280:1 4302:1 4305:1 4369:1 4409:1 4422:1 4457:1 4458:1 4472:1 4505:1 4510:1 4513:1 4530:1 4642:1 4659:1 4732:1 4810:1 4811:1 4838:1 4885:1 4897:1 4929:1 4986:1 5079:1 5111:1 5123:1 5147:1 5221:1 5400:1 5433:1 5470:1 5472:1 5504:1 5580:1 5642:1 5653:1 5655:1 5840:1 5883:1 6006:1 6019:1 6070:1 6120:1 6132:1 6195:1 6197:1 6213:1 6315:1 6346:1 6378:1 6382:1 6419:1 6705:1 6727:1 6910:1 6975:1 7076:1 7212:1 7525:1 7585:1 7741:1 7765:1 7996:1 8014:1 8054:1 8632:1 8799:1 8821:1 8935:1 9001:1 9303:1 9359:1 9423:1 9560:1 9616:1 9727:1 9733:1 9916:1 10238:1 10254:1 10301:1 10350:1 10442:1 10507:1 10556:1 10662:1 10681:1 10743:1 #
-0.00092548441023016783310572996867904 10:1 14:1 17:1 18:1 19:1 20:1 21:1 23:1 24:1 30:1 31:1 32:1 39:1 49:1 53:1 54:1 56:1 58:1 62:1 69:1 75:1 82:1 84:1 88:1 97:1 101:1 103:1 106:1 109:1 113:1 116:1 136:1 150:1 151:1 155:1 157:1 159:1 166:1 172:1 179:1 187:1 192:1 200:1 217:1 230:1 236:1 248:1 262:1 289:1 307:1 357:1 387:1 421:1 434:1 450:1 482:1 496:1 607:1 667:1 747:1 758:1 803:1 840:1 849:1 891:1 927:1 1002:1 1036:1 1062:1 1138:1 1182:1 1250:1 1378:1 1413:1 1446:1 1475:1 1560:1 1646:1 1661:1 1834:1 1892:1 2053:1 2227:1 2302:1 2334:1 2504:1 2585:1 2624:1 2625:1 2634:1 3607:1 3685:1 3750:1 3922:1 3964:1 4360:1 5197:1 5653:1 5800:1 5810:1 5905:1 6345:1 6552:1 6568:1 6639:1 6740:1 7108:1 7165:1 7231:1 7251:1 7504:1 7672:1 8009:1 8197:1 8201:1 8303:1 8623:1 8639:1 9233:1 9279:1 9824:1 10710:1 #
-0.00040504212534099890774888508282459 1:1 5:1 7:1 8:1 9:1 11:1 12:1 13:1 14:1 15:1 16:1 17:1 18:1 20:1 23:1 24:1 25:1 28:1 29:1 30:1 32:1 34:1 36:1 45:1 47:1 48:1 50:1 52:1 54:1 59:1 60:1 62:1 63:1 65:1 71:1 72:1 77:1 84:1 85:1 86:1 89:1 90:1 95:1 101:1 102:1 103:1 104:1 112:1 114:1 117:1 119:1 120:1 125:1 126:1 127:1 131:1 137:1 146:1 148:1 153:1 155:1 159:1 163:1 165:1 169:1 170:1 187:1 189:1 196:1 199:1 204:1 213:1 216:1 224:1 227:1 228:1 231:1 233:1 234:1 236:1 238:1 242:1 244:1 246:1 264:1 266:1 268:1 270:1 275:1 277:1 281:1 286:1 293:1 302:1 304:1 305:1 307:1 309:1 323:1 325:1 328:1 331:1 333:1 335:1 347:1 351:1 353:1 356:1 369:1 370:1 372:1 373:1 379:1 381:1 382:1 385:1 390:1 400:1 401:1 411:1 425:1 431:1 440:1 447:1 448:1 451:1 452:1 453:1 463:1 472:1 478:1 481:1 483:1 496:1 497:1 543:1 566:1 581:1 583:1 632:1 635:1 642:1 671:1 689:1 708:1 716:1 725:1 746:1 758:1 767:1 768:1 808:1 835:1 838:1 849:1 850:1 853:1 854:1 855:1 880:1 889:1 891:1 899:1 910:1 922:1 928:1 956:1 1009:1 1015:1 1037:1 1056:1 1058:1 1066:1 1071:1 1080:1 1082:1 1085:1 1092:1 1094:1 1099:1 1138:1 1155:1 1171:1 1200:1 1211:1 1258:1 1279:1 1308:1 1369:1 1371:1 1372:1 1376:1 1406:1 1416:1 1444:1 1476:1 1491:1 1513:1 1516:1 1591:1 1599:1 1727:1 1750:1 1771:1 1790:1 1819:1 1827:1 1895:1 1919:1 1927:1 1957:1 1959:1 1985:1 2027:1 2098:1 2107:1 2110:1 2188:1 2190:1 2218:1 2280:1 2299:1 2415:1 2417:1 2455:1 2548:1 2551:1 2581:1 2664:1 2674:1 2682:1 2737:1 2793:1 2813:1 3005:1 3015:1 3071:1 3084:1 3087:1 3099:1 3114:1 3119:1 3162:1 3185:1 3234:1 3236:1 3238:1 3256:1 3269:1 3275:1 3282:1 3370:1 3641:1 3844:1 3914:1 3955:1 4071:1 4125:1 4215:1 4290:1 4329:1 4359:1 4442:1 4521:1 4564:1 4601:1 4782:1 4845:1 4851:1 4886:1 4908:1 4973:1 4975:1 5043:1 5045:1 5068:1 5234:1 5253:1 5359:1 5431:1 5463:1 5500:1 5576:1 5606:1 5669:1 5678:1 5706:1 5911:1 6008:1 6066:1 6197:1 6257:1 6262:1 6401:1 6699:1 6896:1 7239:1 7321:1 7390:1 7392:1 7516:1 7683:1 7716:1 7800:1 7842:1 7911:1 7918:1 7937:1 8083:1 8273:1 8379:1 8413:1 8510:1 8560:1 8716:1 8747:1 8772:1 8813:1 8935:1 9335:1 9384:1 9589:1 9598:1 9635:1 10131:1 10213:1 10251:1 10341:1 10343:1 10377:1 10644:1 #
-0.00023956200567127537400316517057774 1:1 6:1 12:1 14:1 15:1 18:1 19:1 20:1 22:1 23:1 24:1 25:1 26:1 27:1 29:1 30:1 31:1 32:1 36:1 37:1 39:1 46:1 48:1 50:1 52:1 53:1 54:1 56:1 57:1 62:1 66:1 67:1 72:1 73:1 77:1 79:1 80:1 82:1 89:1 101:1 102:1 103:1 106:1 107:1 120:1 125:1 130:1 138:1 149:1 158:1 163:1 170:1 205:1 207:1 213:1 217:1 227:1 232:1 233:1 243:1 244:1 245:1 252:1 268:1 278:1 295:1 304:1 308:1 310:1 332:1 364:1 382:1 387:1 390:1 392:1 410:1 416:1 426:1 432:1 442:1 452:1 490:1 500:1 566:1 600:1 608:1 645:1 651:1 688:1 702:1 758:1 771:1 780:1 789:1 799:1 801:1 819:1 849:1 865:1 866:1 874:1 891:1 960:1 996:1 1009:1 1066:1 1118:1 1150:1 1181:1 1185:1 1189:1 1230:1 1310:1 1372:1 1432:1 1484:1 1502:1 1514:1 1568:1 1649:1 1719:1 1813:1 1879:1 1929:1 1949:1 1999:1 2003:1 2038:1 2074:1 2194:1 2210:1 2213:1 2222:1 2396:1 2408:1 2418:1 2455:1 2561:1 2597:1 2614:1 2628:1 2699:1 2730:1 2819:1 2898:1 2912:1 2918:1 2964:1 3100:1 3128:1 3235:1 3630:1 3646:1 3744:1 3750:1 3814:1 3934:1 4041:1 4145:1 4224:1 4258:1 4271:1 4293:1 4406:1 4441:1 4768:1 4781:1 4973:1 5104:1 5306:1 5341:1 5588:1 5711:1 5813:1 5881:1 6206:1 6303:1 6716:1 6982:1 7035:1 7380:1 7490:1 7496:1 7721:1 7727:1 7921:1 7976:1 8077:1 8178:1 8502:1 8832:1 8970:1 9588:1 9669:1 10176:1 10267:1 10330:1 #
0.0031263920839476946889057273892831 14:1 15:1 16:1 17:1 20:1 22:1 23:1 25:1 28:1 30:1 31:1 34:1 36:1 44:1 47:1 52:1 56:1 62:1 66:1 73:1 77:1 78:1 84:1 102:1 103:1 104:1 106:1 113:1 114:1 119:1 120:1 127:1 137:1 149:1 153:1 167:1 170:1 202:1 207:1 209:1 216:1 228:1 230:1 231:1 241:1 242:1 244:1 270:1 275:1 281:1 305:1 308:1 341:1 347:1 357:1 381:1 425:1 432:1 446:1 472:1 478:1 480:1 497:1 515:1 641:1 653:1 659:1 666:1 746:1 750:1 752:1 758:1 762:1 831:1 837:1 843:1 844:1 868:1 891:1 899:1 904:1 908:1 945:1 1008:1 1012:1 1105:1 1111:1 1128:1 1139:1 1161:1 1279:1 1432:1 1449:1 1457:1 1473:1 1514:1 1536:1 1550:1 1576:1 1711:1 1790:1 1805:1 1836:1 1874:1 1897:1 1983:1 2042:1 2051:1 2078:1 2104:1 2156:1 2372:1 2417:1 2439:1 2462:1 2584:1 2616:1 2652:1 2682:1 2716:1 3087:1 3098:1 3112:1 3114:1 3144:1 3431:1 3729:1 3872:1 4128:1 4210:1 4341:1 4361:1 4410:1 4470:1 4481:1 4505:1 4642:1 4679:1 4878:1 5655:1 5731:1 5865:1 5895:1 7091:1 7836:1 8097:1 8335:1 8632:1 8835:1 9560:1 9605:1 10389:1 #
0.002778538695079260743142635092795 4:1 6:1 7:1 11:1 12:1 15:1 16:1 17:1 18:1 20:1 21:1 22:1 23:1 24:1 25:1 27:1 28:1 29:1 30:1 31:1 34:1 36:1 44:1 51:1 52:1 61:1 66:1 73:1 77:1 82:1 84:1 86:1 94:1 98:1 99:1 101:1 102:1 103:1 113:1 114:1 119:1 120:1 127:1 130:1 137:1 146:1 148:1 156:1 159:1 163:1 167:1 170:1 172:1 181:1 196:1 202:1 204:1 209:1 210:1 216:1 218:1 220:1 231:1 251:1 264:1 266:1 276:1 279:1 304:1 314:1 315:1 318:1 322:1 325:1 333:1 341:1 353:1 357:1 364:1 382:1 385:1 399:1 410:1 420:1 425:1 432:1 434:1 451:1 452:1 465:1 472:1 475:1 502:1 536:1 566:1 581:1 605:1 628:1 630:1 653:1 660:1 664:1 671:1 702:1 750:1 755:1 757:1 758:1 763:1 773:1 775:1 779:1 806:1 807:1 820:1 843:1 845:1 873:1 889:1 892:1 899:1 905:1 945:1 946:1 994:1 1008:1 1009:1 1015:1 1035:1 1058:1 1067:1 1091:1 1092:1 1105:1 1150:1 1173:1 1430:1 1432:1 1514:1 1553:1 1565:1 1570:1 1599:1 1626:1 1633:1 1639:1 1657:1 1690:1 1733:1 1746:1 1849:1 1859:1 1894:1 1956:1 1976:1 1991:1 2053:1 2198:1 2225:1 2255:1 2372:1 2415:1 2599:1 2630:1 2764:1 2774:1 2898:1 3114:1 3134:1 3172:1 3177:1 3294:1 3408:1 3630:1 3705:1 4367:1 4409:1 4440:1 4448:1 4564:1 4715:1 4717:1 5010:1 5144:1 5148:1 5168:1 5170:1 5220:1 5370:1 5383:1 5428:1 6178:1 6630:1 6708:1 7076:1 7237:1 7283:1 7658:1 7826:1 7995:1 8335:1 8510:1 8516:1 8548:1 8632:1 8674:1 9399:1 9700:1 9912:1 10031:1 10327:1 10742:1 #
0.00062647062046684246633398984727137 1:1 5:1 7:1 8:1 11:1 12:1 16:1 17:1 19:1 22:1 24:1 25:1 29:1 30:1 36:1 38:1 45:1 50:1 52:1 53:1 54:1 57:1 62:1 67:1 72:1 76:1 84:1 86:1 89:1 93:1 94:1 96:1 104:1 106:1 113:1 114:1 117:1 119:1 124:1 126:1 127:1 129:1 130:1 131:1 146:1 150:1 153:1 163:1 164:1 167:1 170:1 172:1 175:1 195:1 199:1 200:1 202:1 207:1 210:1 212:1 213:1 216:1 218:1 220:1 231:1 236:1 238:1 240:1 243:1 264:1 265:1 275:1 277:1 302:1 314:1 318:1 325:1 328:1 329:1 333:1 335:1 340:1 353:1 365:1 369:1 374:1 389:1 408:1 410:1 416:1 440:1 451:1 464:1 465:1 467:1 471:1 472:1 488:1 544:1 569:1 670:1 676:1 694:1 724:1 742:1 753:1 755:1 760:1 789:1 798:1 819:1 829:1 850:1 856:1 865:1 869:1 914:1 954:1 976:1 987:1 994:1 996:1 1008:1 1070:1 1088:1 1105:1 1138:1 1147:1 1155:1 1161:1 1262:1 1384:1 1397:1 1432:1 1439:1 1457:1 1471:1 1473:1 1492:1 1567:1 1587:1 1643:1 1656:1 1660:1 1689:1 1695:1 1855:1 1857:1 1888:1 1890:1 1919:1 1949:1 1956:1 1975:1 2005:1 2053:1 2064:1 2091:1 2505:1 2588:1 2682:1 2774:1 3004:1 3066:1 3071:1 3100:1 3222:1 3474:1 3731:1 3877:1 3905:1 4033:1 4066:1 4096:1 4126:1 4302:1 4367:1 4457:1 4586:1 4770:1 4921:1 5005:1 5082:1 5402:1 6047:1 6419:1 6560:1 6771:1 6923:1 7666:1 7717:1 8077:1 8221:1 8632:1 9510:1 9626:1 10537:1 10641:1 #
0.00032094263972659884754171089049635 1:1 5:1 6:1 7:1 8:1 9:1 11:1 12:1 15:1 16:1 17:1 18:1 19:1 20:1 22:1 24:1 25:1 28:1 29:1 30:1 31:1 32:1 34:1 35:1 37:1 39:1 40:1 41:1 42:1 45:1 46:1 50:1 51:1 53:1 55:1 57:1 60:1 62:1 65:1 66:1 67:1 69:1 71:1 73:1 76:1 78:1 79:1 81:1 82:1 84:1 93:1 94:1 95:1 102:1 103:1 104:1 106:1 108:1 113:1 120:1 123:1 124:1 126:1 128:1 129:1 130:1 132:1 140:1 148:1 149:1 153:1 155:1 166:1 168:1 172:1 175:1 186:1 194:1 196:1 198:1 199:1 200:1 202:1 206:1 208:1 209:1 212:1 218:1 219:1 227:1 231:1 232:1 236:1 238:1 244:1 263:1 265:1 268:1 275:1 278:1 281:1 289:1 301:1 311:1 322:1 325:1 333:1 334:1 335:1 350:1 352:1 357:1 381:1 395:1 398:1 401:1 425:1 432:1 436:1 444:1 445:1 446:1 447:1 452:1 465:1 467:1 471:1 473:1 478:1 491:1 495:1 499:1 551:1 566:1 581:1 583:1 598:1 602:1 607:1 630:1 633:1 640:1 645:1 667:1 668:1 671:1 680:1 683:1 695:1 702:1 710:1 728:1 742:1 755:1 758:1 775:1 779:1 789:1 797:1 830:1 854:1 868:1 887:1 894:1 900:1 944:1 984:1 994:1 1000:1 1035:1 1046:1 1058:1 1080:1 1090:1 1096:1 1099:1 1103:1 1105:1 1122:1 1157:1 1172:1 1173:1 1186:1 1198:1 1229:1 1382:1 1425:1 1430:1 1432:1 1438:1 1450:1 1457:1 1466:1 1473:1 1474:1 1483:1 1489:1 1525:1 1534:1 1577:1 1593:1 1631:1 1637:1 1697:1 1716:1 1736:1 1742:1 1827:1 1991:1 2032:1 2035:1 2044:1 2099:1 2134:1 2168:1 2169:1 2204:1 2225:1 2277:1 2304:1 2326:1 2356:1 2394:1 2420:1 2504:1 2546:1 2571:1 2609:1 2692:1 2722:1 2953:1 2990:1 3009:1 3038:1 3102:1 3121:1 3134:1 3150:1 3194:1 3204:1 3316:1 3345:1 3440:1 3545:1 3581:1 3756:1 3898:1 4012:1 4035:1 4285:1 4383:1 4411:1 4608:1 4702:1 4714:1 4732:1 4810:1 4877:1 4878:1 4885:1 4917:1 5175:1 5240:1 5314:1 5519:1 6118:1 6245:1 6630:1 6693:1 6965:1 7149:1 7465:1 8125:1 8217:1 8516:1 8774:1 9026:1 9361:1 9428:1 10062:1 #
-0.0049031117488299346199309702853952 1:1 4:1 5:1 6:1 8:1 11:1 12:1 15:1 16:1 18:1 20:1 22:1 24:1 25:1 27:1 28:1 29:1 30:1 32:1 34:1 35:1 36:1 41:1 42:1 43:1 48:1 53:1 55:1 57:1 60:1 62:1 65:1 66:1 73:1 74:1 78:1 79:1 81:1 84:1 86:1 88:1 90:1 93:1 94:1 95:1 98:1 102:1 104:1 105:1 106:1 114:1 122:1 123:1 124:1 126:1 129:1 131:1 135:1 137:1 139:1 141:1 142:1 143:1 148:1 157:1 158:1 159:1 161:1 174:1 179:1 181:1 187:1 200:1 202:1 203:1 204:1 208:1 213:1 218:1 219:1 227:1 231:1 232:1 238:1 263:1 266:1 275:1 277:1 279:1 286:1 289:1 292:1 301:1 312:1 314:1 315:1 318:1 321:1 322:1 326:1 332:1 339:1 350:1 352:1 364:1 374:1 376:1 378:1 381:1 383:1 385:1 387:1 388:1 395:1 404:1 416:1 425:1 427:1 431:1 432:1 434:1 436:1 445:1 452:1 471:1 473:1 477:1 480:1 482:1 495:1 499:1 510:1 526:1 527:1 530:1 533:1 544:1 553:1 566:1 569:1 570:1 575:1 583:1 602:1 615:1 628:1 660:1 666:1 670:1 671:1 683:1 688:1 695:1 702:1 724:1 725:1 728:1 742:1 755:1 768:1 779:1 789:1 806:1 814:1 821:1 843:1 854:1 868:1 875:1 894:1 895:1 899:1 927:1 944:1 966:1 968:1 986:1 994:1 1015:1 1048:1 1088:1 1105:1 1138:1 1170:1 1172:1 1173:1 1184:1 1198:1 1204:1 1229:1 1378:1 1432:1 1452:1 1457:1 1473:1 1480:1 1481:1 1483:1 1485:1 1536:1 1557:1 1602:1 1676:1 1838:1 1882:1 1890:1 1933:1 2015:1 2032:1 2034:1 2044:1 2085:1 2099:1 2106:1 2107:1 2134:1 2183:1 2267:1 2277:1 2396:1 2484:1 2609:1 2739:1 2990:1 3068:1 3102:1 3295:1 3335:1 3367:1 3369:1 3549:1 3648:1 3834:1 3872:1 3898:1 3967:1 4004:1 4161:1 4239:1 4302:1 4327:1 4391:1 4477:1 4658:1 4659:1 4679:1 4768:1 4873:1 4898:1 4920:1 5010:1 5017:1 5135:1 5138:1 5215:1 5312:1 5314:1 5420:1 5449:1 5662:1 5869:1 6118:1 6195:1 6235:1 6520:1 6525:1 6579:1 6811:1 6866:1 6867:1 7049:1 7230:1 7236:1 7251:1 7278:1 7283:1 7465:1 7541:1 7982:1 7983:1 8028:1 8332:1 8492:1 8516:1 8571:1 8717:1 8804:1 9055:1 9263:1 9376:1 9438:1 9541:1 9551:1 9700:1 9839:1 9882:1 10190:1 10195:1 10245:1 10638:1 10701:1 10746:1 #
-0.0017803487131918969890026493985147 1:1 5:1 7:1 8:1 11:1 12:1 13:1 15:1 16:1 17:1 18:1 20:1 21:1 22:1 23:1 24:1 25:1 27:1 29:1 30:1 31:1 32:1 34:1 36:1 42:1 44:1 51:1 52:1 53:1 54:1 59:1 62:1 63:1 65:1 66:1 67:1 69:1 73:1 75:1 77:1 78:1 79:1 82:1 84:1 86:1 89:1 90:1 92:1 94:1 95:1 96:1 98:1 102:1 104:1 106:1 113:1 114:1 116:1 117:1 120:1 124:1 130:1 131:1 135:1 146:1 148:1 149:1 153:1 156:1 158:1 159:1 160:1 166:1 169:1 170:1 174:1 179:1 186:1 187:1 194:1 195:1 196:1 205:1 216:1 217:1 218:1 221:1 230:1 231:1 232:1 235:1 238:1 243:1 244:1 246:1 249:1 252:1 261:1 264:1 265:1 266:1 270:1 273:1 277:1 278:1 279:1 280:1 292:1 293:1 295:1 304:1 312:1 320:1 322:1 329:1 332:1 337:1 341:1 344:1 357:1 364:1 374:1 377:1 381:1 382:1 385:1 404:1 406:1 410:1 416:1 432:1 434:1 464:1 467:1 475:1 476:1 482:1 490:1 495:1 510:1 521:1 529:1 533:1 544:1 550:1 558:1 564:1 566:1 569:1 575:1 598:1 601:1 609:1 612:1 625:1 628:1 632:1 636:1 642:1 653:1 669:1 671:1 688:1 690:1 702:1 717:1 719:1 740:1 755:1 758:1 760:1 762:1 763:1 771:1 777:1 803:1 809:1 815:1 821:1 828:1 831:1 833:1 843:1 903:1 905:1 913:1 916:1 920:1 938:1 946:1 962:1 971:1 976:1 981:1 989:1 994:1 998:1 1012:1 1021:1 1025:1 1030:1 1033:1 1042:1 1052:1 1059:1 1093:1 1105:1 1111:1 1112:1 1122:1 1131:1 1139:1 1147:1 1150:1 1155:1 1160:1 1162:1 1173:1 1194:1 1200:1 1232:1 1244:1 1258:1 1268:1 1275:1 1372:1 1380:1 1383:1 1385:1 1418:1 1426:1 1428:1 1432:1 1439:1 1458:1 1462:1 1466:1 1470:1 1476:1 1484:1 1489:1 1514:1 1534:1 1549:1 1551:1 1565:1 1568:1 1596:1 1607:1 1609:1 1652:1 1660:1 1676:1 1682:1 1698:1 1704:1 1755:1 1760:1 1767:1 1796:1 1803:1 1837:1 1890:1 1909:1 2023:1 2057:1 2072:1 2079:1 2091:1 2101:1 2158:1 2163:1 2166:1 2168:1 2169:1 2172:1 2183:1 2213:1 2217:1 2257:1 2285:1 2304:1 2314:1 2350:1 2366:1 2372:1 2400:1 2415:1 2416:1 2439:1 2442:1 2453:1 2455:1 2462:1 2599:1 2637:1 2705:1 2706:1 2714:1 2716:1 2747:1 2774:1 2778:1 2936:1 2955:1 2958:1 2959:1 3001:1 3003:1 3005:1 3027:1 3068:1 3078:1 3101:1 3114:1 3120:1 3144:1 3172:1 3194:1 3245:1 3365:1 3446:1 3449:1 3451:1 3461:1 3468:1 3506:1 3582:1 3584:1 3620:1 3641:1 3666:1 3690:1 3719:1 3774:1 3782:1 3795:1 3805:1 3845:1 3853:1 3883:1 3904:1 4007:1 4016:1 4027:1 4040:1 4061:1 4065:1 4079:1 4091:1 4170:1 4201:1 4252:1 4267:1 4280:1 4287:1 4293:1 4296:1 4313:1 4323:1 4327:1 4332:1 4356:1 4359:1 4441:1 4473:1 4511:1 4553:1 4558:1 4629:1 4713:1 4719:1 4731:1 4737:1 4739:1 4754:1 4758:1 4908:1 4919:1 4921:1 4926:1 4929:1 4944:1 5002:1 5017:1 5030:1 5071:1 5073:1 5146:1 5160:1 5168:1 5188:1 5333:1 5343:1 5370:1 5387:1 5405:1 5412:1 5428:1 5434:1 5478:1 5486:1 5494:1 5500:1 5515:1 5576:1 5596:1 5692:1 5717:1 5725:1 5742:1 5747:1 5766:1 5818:1 5845:1 5912:1 6095:1 6112:1 6191:1 6194:1 6360:1 6415:1 6490:1 6502:1 6545:1 6564:1 6595:1 6676:1 6693:1 6702:1 6783:1 6900:1 6914:1 7005:1 7008:1 7062:1 7091:1 7204:1 7217:1 7292:1 7455:1 7468:1 7705:1 7876:1 7995:1 8097:1 8103:1 8158:1 8179:1 8303:1 8304:1 8362:1 8388:1 8464:1 8470:1 8514:1 8551:1 8717:1 8772:1 8947:1 9080:1 9179:1 9397:1 9423:1 9432:1 9489:1 9560:1 9754:1 9804:1 9811:1 9958:1 10037:1 10150:1 10156:1 10193:1 10226:1 10260:1 10345:1 10405:1 10504:1 10564:1 10644:1 #
-0.0031653141568057418034354277835973 1:1 2:1 4:1 5:1 7:1 8:1 11:1 12:1 15:1 16:1 17:1 18:1 21:1 22:1 24:1 25:1 27:1 28:1 29:1 30:1 31:1 32:1 34:1 35:1 40:1 45:1 46:1 51:1 62:1 68:1 69:1 73:1 75:1 76:1 79:1 81:1 86:1 89:1 94:1 95:1 98:1 102:1 106:1 110:1 113:1 114:1 124:1 136:1 137:1 146:1 159:1 164:1 177:1 178:1 193:1 195:1 196:1 198:1 204:1 210:1 221:1 225:1 226:1 243:1 265:1 273:1 276:1 283:1 294:1 315:1 321:1 325:1 330:1 331:1 357:1 382:1 399:1 400:1 416:1 419:1 434:1 447:1 464:1 472:1 478:1 490:1 564:1 607:1 652:1 670:1 700:1 714:1 751:1 758:1 763:1 772:1 793:1 800:1 802:1 809:1 810:1 813:1 839:1 847:1 934:1 981:1 988:1 999:1 1026:1 1049:1 1050:1 1067:1 1148:1 1151:1 1155:1 1194:1 1232:1 1259:1 1275:1 1283:1 1380:1 1403:1 1413:1 1438:1 1442:1 1455:1 1457:1 1461:1 1481:1 1513:1 1570:1 1574:1 1592:1 1606:1 1647:1 1658:1 1676:1 1717:1 1748:1 1816:1 1874:1 1928:1 1939:1 1951:1 1976:1 2010:1 2023:1 2123:1 2149:1 2314:1 2344:1 2422:1 2470:1 2950:1 3040:1 3070:1 3077:1 3085:1 3098:1 3111:1 3114:1 3474:1 3552:1 3562:1 3589:1 3735:1 3832:1 3835:1 4059:1 4108:1 4313:1 4317:1 4439:1 4457:1 4574:1 4666:1 4674:1 4718:1 4754:1 4851:1 5110:1 5148:1 5232:1 5640:1 5770:1 5795:1 5797:1 5862:1 6163:1 6189:1 6759:1 6873:1 7181:1 7185:1 7194:1 7311:1 7400:1 7762:1 7892:1 8078:1 8126:1 8141:1 8142:1 8326:1 8927:1 8939:1 9134:1 9545:1 9677:1 9824:1 10650:1 10713:1 #
-0.0049031117488299346199309702853952 1:1 2:1 5:1 11:1 15:1 16:1 18:1 19:1 21:1 24:1 25:1 29:1 30:1 31:1 32:1 49:1 51:1 54:1 62:1 69:1 82:1 88:1 94:1 96:1 106:1 113:1 135:1 158:1 166:1 167:1 168:1 186:1 205:1 209:1 214:1 216:1 229:1 230:1 237:1 242:1 243:1 259:1 302:1 315:1 318:1 319:1 322:1 323:1 333:1 341:1 355:1 364:1 382:1 387:1 392:1 395:1 407:1 411:1 434:1 465:1 472:1 476:1 557:1 564:1 575:1 612:1 618:1 621:1 640:1 666:1 786:1 787:1 802:1 814:1 843:1 905:1 943:1 980:1 991:1 994:1 1064:1 1084:1 1096:1 1112:1 1145:1 1234:1 1259:1 1273:1 1364:1 1408:1 1413:1 1427:1 1461:1 1549:1 1554:1 1570:1 1593:1 1697:1 1784:1 1927:1 1973:1 1987:1 2066:1 2093:1 2193:1 2246:1 2277:1 2304:1 2406:1 2435:1 2439:1 2454:1 2716:1 2726:1 2739:1 2743:1 2760:1 2956:1 3098:1 3213:1 3449:1 3493:1 3555:1 3614:1 3642:1 4065:1 4410:1 4631:1 4860:1 5117:1 5428:1 5436:1 5508:1 5668:1 5773:1 5836:1 5865:1 5946:1 6438:1 6463:1 6605:1 6690:1 6702:1 6730:1 7500:1 7611:1 7653:1 7718:1 8244:1 8304:1 8516:1 8787:1 9551:1 9677:1 10210:1 10233:1 #
-0.0029851667426610533490061172301466 6:1 11:1 12:1 15:1 16:1 17:1 18:1 19:1 21:1 22:1 24:1 25:1 27:1 29:1 30:1 31:1 32:1 37:1 38:1 40:1 41:1 48:1 51:1 52:1 56:1 61:1 62:1 66:1 69:1 73:1 75:1 82:1 84:1 85:1 86:1 94:1 98:1 102:1 103:1 108:1 113:1 114:1 120:1 124:1 141:1 150:1 158:1 162:1 164:1 168:1 172:1 177:1 186:1 213:1 214:1 218:1 221:1 243:1 244:1 265:1 270:1 279:1 302:1 312:1 329:1 330:1 333:1 341:1 345:1 350:1 364:1 377:1 382:1 387:1 391:1 401:1 406:1 415:1 422:1 450:1 472:1 480:1 490:1 491:1 515:1 551:1 566:1 582:1 601:1 628:1 630:1 645:1 651:1 653:1 714:1 758:1 762:1 772:1 777:1 802:1 813:1 814:1 817:1 830:1 831:1 839:1 843:1 868:1 873:1 891:1 898:1 935:1 937:1 942:1 943:1 997:1 998:1 1008:1 1089:1 1131:1 1141:1 1156:1 1200:1 1226:1 1249:1 1372:1 1390:1 1421:1 1457:1 1462:1 1487:1 1548:1 1568:1 1574:1 1587:1 1642:1 1643:1 1689:1 1697:1 1788:1 1827:1 1930:1 1931:1 1949:1 1963:1 1976:1 1986:1 2140:1 2157:1 2193:1 2257:1 2368:1 2439:1 2487:1 2564:1 2665:1 2714:1 2794:1 3040:1 3578:1 3581:1 3596:1 3723:1 3987:1 4059:1 4138:1 4145:1 4161:1 4263:1 4291:1 4339:1 4387:1 4406:1 4580:1 4674:1 4706:1 5477:1 5519:1 5865:1 5905:1 6068:1 6192:1 6322:1 6416:1 6461:1 6702:1 6900:1 7026:1 7163:1 7583:1 7995:1 8188:1 8437:1 8482:1 8561:1 9284:1 9399:1 9484:1 9560:1 9562:1 9657:1 9739:1 10130:1 10440:1 10514:1 10558:1 10743:1 #
0.0049031117488299346199309702853952 3:1 7:1 8:1 12:1 15:1 17:1 18:1 20:1 21:1 24:1 25:1 29:1 30:1 34:1 35:1 39:1 43:1 48:1 49:1 50:1 51:1 52:1 54:1 56:1 57:1 58:1 63:1 75:1 79:1 84:1 88:1 97:1 98:1 103:1 106:1 109:1 110:1 114:1 116:1 117:1 122:1 136:1 146:1 151:1 159:1 165:1 166:1 168:1 172:1 175:1 179:1 195:1 202:1 205:1 214:1 215:1 231:1 232:1 233:1 238:1 243:1 246:1 251:1 268:1 270:1 323:1 387:1 411:1 432:1 434:1 439:1 445:1 451:1 457:1 478:1 486:1 495:1 498:1 500:1 502:1 564:1 597:1 606:1 618:1 628:1 640:1 646:1 651:1 671:1 674:1 717:1 728:1 758:1 759:1 805:1 817:1 819:1 832:1 833:1 848:1 850:1 854:1 866:1 899:1 905:1 945:1 991:1 1037:1 1059:1 1165:1 1170:1 1174:1 1185:1 1383:1 1395:1 1438:1 1458:1 1534:1 1557:1 1653:1 1701:1 1739:1 2023:1 2039:1 2053:1 2069:1 2073:1 2106:1 2188:1 2339:1 2414:1 2417:1 2682:1 2825:1 2901:1 2959:1 2976:1 2999:1 3098:1 3218:1 3348:1 3355:1 3385:1 3553:1 3607:1 3679:1 3886:1 3910:1 4313:1 4477:1 4511:1 4516:1 4717:1 4780:1 4796:1 4876:1 4882:1 4998:1 5030:1 5031:1 5045:1 5283:1 5420:1 5433:1 5571:1 5595:1 5597:1 5614:1 5758:1 5874:1 6155:1 6195:1 6315:1 6456:1 6491:1 6683:1 7103:1 7506:1 7540:1 7554:1 7658:1 7821:1 7998:1 8167:1 8172:1 8203:1 8252:1 8413:1 8592:1 8598:1 8696:1 8849:1 9275:1 9305:1 9426:1 9544:1 9591:1 9691:1 9728:1 9805:1 10247:1 #
0.0041964640221013177479036926342815 1:1 5:1 7:1 10:1 12:1 15:1 16:1 18:1 20:1 21:1 22:1 24:1 25:1 26:1 30:1 31:1 34:1 36:1 37:1 42:1 44:1 48:1 52:1 56:1 57:1 65:1 75:1 79:1 80:1 84:1 90:1 94:1 95:1 99:1 101:1 104:1 105:1 106:1 107:1 114:1 122:1 124:1 142:1 150:1 152:1 156:1 172:1 179:1 189:1 202:1 210:1 220:1 222:1 226:1 230:1 232:1 236:1 237:1 244:1 245:1 249:1 251:1 277:1 286:1 302:1 307:1 312:1 318:1 325:1 329:1 332:1 355:1 369:1 382:1 383:1 385:1 394:1 395:1 400:1 411:1 420:1 432:1 435:1 444:1 445:1 446:1 451:1 460:1 478:1 486:1 496:1 502:1 553:1 557:1 558:1 564:1 601:1 609:1 653:1 670:1 671:1 702:1 728:1 747:1 767:1 777:1 783:1 791:1 797:1 815:1 819:1 827:1 850:1 866:1 899:1 945:1 951:1 961:1 1005:1 1056:1 1058:1 1087:1 1089:1 1090:1 1092:1 1100:1 1137:1 1199:1 1215:1 1229:1 1305:1 1385:1 1416:1 1432:1 1438:1 1441:1 1451:1 1458:1 1485:1 1520:1 1561:1 1568:1 1574:1 1591:1 1602:1 1620:1 1626:1 1646:1 1650:1 1666:1 1672:1 1711:1 1825:1 1832:1 1949:1 1979:1 2035:1 2041:1 2053:1 2187:1 2198:1 2228:1 2232:1 2249:1 2267:1 2277:1 2353:1 2373:1 2422:1 2423:1 2428:1 2503:1 2516:1 2561:1 2614:1 2649:1 2716:1 2755:1 2793:1 2901:1 2940:1 2990:1 3002:1 3022:1 3097:1 3106:1 3132:1 3145:1 3167:1 3172:1 3236:1 3256:1 3271:1 3294:1 3528:1 3569:1 3680:1 3826:1 3907:1 3914:1 3922:1 3963:1 3972:1 4027:1 4096:1 4118:1 4200:1 4338:1 4351:1 4359:1 4477:1 4494:1 4742:1 4770:1 4996:1 5013:1 5045:1 5110:1 5267:1 5344:1 5402:1 5607:1 5737:1 6001:1 6068:1 6195:1 6258:1 6378:1 6408:1 6598:1 6632:1 6674:1 6711:1 6726:1 6784:1 7630:1 7756:1 7788:1 7929:1 7943:1 8144:1 8205:1 8298:1 8372:1 8525:1 8578:1 8596:1 8696:1 8947:1 9197:1 9224:1 9514:1 9689:1 9907:1 10200:1 10617:1 #
0.0049031117488299346199309702853952 1:1 2:1 3:1 5:1 6:1 7:1 8:1 9:1 10:1 11:1 12:1 16:1 18:1 19:1 20:1 21:1 22:1 24:1 25:1 26:1 28:1 29:1 30:1 31:1 34:1 35:1 36:1 38:1 44:1 48:1 50:1 51:1 58:1 60:1 62:1 63:1 68:1 76:1 79:1 82:1 84:1 86:1 88:1 90:1 94:1 100:1 102:1 104:1 105:1 106:1 113:1 116:1 123:1 126:1 135:1 137:1 141:1 143:1 151:1 158:1 166:1 168:1 177:1 184:1 192:1 196:1 202:1 205:1 213:1 214:1 216:1 218:1 222:1 227:1 233:1 236:1 238:1 243:1 249:1 251:1 268:1 283:1 292:1 297:1 307:1 308:1 310:1 324:1 350:1 357:1 382:1 385:1 387:1 388:1 395:1 416:1 432:1 433:1 457:1 465:1 471:1 475:1 478:1 482:1 499:1 510:1 515:1 521:1 529:1 554:1 575:1 618:1 620:1 625:1 630:1 653:1 671:1 702:1 740:1 754:1 755:1 759:1 774:1 804:1 839:1 841:1 848:1 858:1 866:1 875:1 895:1 899:1 905:1 944:1 957:1 1015:1 1019:1 1046:1 1064:1 1105:1 1110:1 1122:1 1173:1 1193:1 1203:1 1363:1 1378:1 1393:1 1432:1 1467:1 1473:1 1481:1 1565:1 1676:1 1681:1 1805:1 1850:1 1903:1 1911:1 1936:1 2134:1 2135:1 2193:1 2370:1 2396:1 2580:1 2654:1 2692:1 2739:1 2848:1 2954:1 2990:1 3005:1 3047:1 3097:1 3098:1 3102:1 3134:1 3194:1 3204:1 3316:1 3459:1 3538:1 3668:1 3690:1 3886:1 3927:1 4010:1 4067:1 4142:1 4285:1 4301:1 4318:1 4491:1 4510:1 4586:1 4659:1 4732:1 4852:1 4912:1 4947:1 5147:1 5510:1 5640:1 5946:1 6103:1 6118:1 6331:1 6770:1 7039:1 7251:1 7439:1 7457:1 7529:1 7849:1 7896:1 8218:1 8646:1 8738:1 8860:1 9053:1 9442:1 9795:1 #
0.0049031117488299346199309702853952 5:1 7:1 12:1 15:1 17:1 20:1 24:1 27:1 30:1 36:1 49:1 51:1 56:1 84:1 87:1 88:1 103:1 115:1 125:1 135:1 141:1 151:1 156:1 158:1 159:1 166:1 177:1 184:1 189:1 191:1 194:1 202:1 215:1 218:1 221:1 227:1 229:1 230:1 238:1 302:1 304:1 339:1 350:1 359:1 385:1 387:1 394:1 395:1 397:1 421:1 438:1 442:1 459:1 460:1 472:1 485:1 530:1 609:1 615:1 618:1 625:1 628:1 640:1 648:1 665:1 758:1 784:1 806:1 840:1 852:1 891:1 915:1 941:1 944:1 1036:1 1079:1 1088:1 1122:1 1166:1 1170:1 1187:1 1363:1 1385:1 1432:1 1574:1 1850:1 1855:1 2277:1 2363:1 2508:1 2537:1 2733:1 2739:1 2961:1 3014:1 3110:1 3119:1 3149:1 3367:1 3576:1 3607:1 3630:1 3731:1 3928:1 4145:1 5163:1 5451:1 5704:1 5757:1 5879:1 5902:1 6488:1 6494:1 6959:1 7243:1 7526:1 7611:1 7636:1 7887:1 8153:1 8260:1 8787:1 9003:1 9216:1 9741:1 9937:1 10118:1 10255:1 10439:1 #
-0.0049031117488299346199309702853952 3:1 9:1 15:1 16:1 18:1 27:1 28:1 30:1 34:1 38:1 42:1 44:1 46:1 48:1 51:1 66:1 72:1 73:1 81:1 84:1 93:1 95:1 103:1 104:1 123:1 126:1 130:1 167:1 177:1 185:1 202:1 216:1 232:1 251:1 266:1 277:1 281:1 293:1 325:1 360:1 375:1 384:1 387:1 410:1 432:1 460:1 490:1 557:1 602:1 644:1 758:1 815:1 817:1 839:1 866:1 891:1 894:1 970:1 1002:1 1178:1 1364:1 1430:1 1461:1 1604:1 1827:1 2034:1 2039:1 2052:1 2278:1 2310:1 2445:1 2674:1 2760:1 3197:1 3548:1 3738:1 3781:1 3831:1 4477:1 5178:1 5579:1 5951:1 6539:1 6786:1 6853:1 7211:1 9054:1 9811:1 10394:1 #
-0.0049031117488299346199309702853952 1:1 12:1 14:1 15:1 19:1 21:1 23:1 25:1 30:1 31:1 34:1 51:1 73:1 79:1 84:1 88:1 95:1 102:1 112:1 137:1 146:1 202:1 214:1 222:1 243:1 251:1 279:1 318:1 322:1 350:1 375:1 395:1 400:1 411:1 450:1 472:1 478:1 534:1 600:1 645:1 723:1 742:1 758:1 891:1 1089:1 1102:1 1226:1 1448:1 1453:1 1458:1 1646:1 1800:1 2045:1 2134:1 2363:1 2382:1 2585:1 2624:1 2730:1 2990:1 3781:1 3829:1 4366:1 4529:1 4811:1 5045:1 5524:1 6582:1 6741:1 6772:1 7528:1 7901:1 8684:1 10554:1 #
-0.0020495985705266187015816115035705 1:1 10:1 11:1 12:1 13:1 17:1 18:1 21:1 25:1 29:1 30:1 31:1 45:1 54:1 67:1 71:1 75:1 79:1 84:1 102:1 103:1 116:1 120:1 128:1 130:1 136:1 138:1 151:1 156:1 159:1 179:1 230:1 231:1 235:1 238:1 246:1 270:1 322:1 333:1 360:1 406:1 417:1 460:1 496:1 498:1 500:1 502:1 510:1 555:1 560:1 564:1 609:1 630:1 647:1 648:1 658:1 665:1 695:1 764:1 801:1 813:1 834:1 840:1 854:1 880:1 1027:1 1037:1 1098:1 1166:1 1365:1 1379:1 1386:1 1401:1 1501:1 1536:1 1555:1 1623:1 1646:1 1656:1 1683:1 1818:1 1827:1 1872:1 2165:1 2222:1 2329:1 2660:1 2699:1 3326:1 3391:1 3424:1 3625:1 3886:1 3995:1 4005:1 4150:1 4255:1 4729:1 5020:1 5056:1 5359:1 5608:1 5801:1 6284:1 6548:1 6607:1 6673:1 6977:1 7108:1 7227:1 7466:1 7731:1 8197:1 8561:1 8733:1 8854:1 9135:1 9377:1 9624:1 9762:1 10003:1 10725:1 #
-0.0049031117488299346199309702853952 1:1 4:1 5:1 7:1 12:1 16:1 18:1 19:1 21:1 22:1 24:1 25:1 27:1 29:1 30:1 31:1 32:1 34:1 36:1 38:1 41:1 48:1 50:1 51:1 52:1 62:1 65:1 67:1 72:1 79:1 83:1 84:1 91:1 94:1 102:1 104:1 106:1 113:1 114:1 129:1 137:1 143:1 152:1 155:1 163:1 165:1 184:1 197:1 202:1 210:1 214:1 216:1 218:1 221:1 229:1 232:1 245:1 251:1 265:1 268:1 275:1 293:1 304:1 308:1 314:1 315:1 322:1 325:1 332:1 333:1 339:1 366:1 375:1 378:1 411:1 434:1 445:1 447:1 452:1 457:1 477:1 478:1 482:1 495:1 530:1 564:1 575:1 648:1 653:1 666:1 668:1 671:1 702:1 728:1 882:1 936:1 941:1 951:1 955:1 964:1 987:1 1008:1 1048:1 1075:1 1097:1 1105:1 1184:1 1380:1 1453:1 1504:1 1528:1 1534:1 1602:1 1644:1 1838:1 1942:1 1977:1 1982:1 2034:1 2064:1 2183:1 2249:1 2307:1 2335:1 2373:1 2616:1 2622:1 2739:1 2743:1 2789:1 2990:1 3078:1 3200:1 3433:1 3475:1 3618:1 3668:1 3788:1 3971:1 4057:1 4173:1 4330:1 4363:1 4586:1 4679:1 4754:1 4798:1 4998:1 5351:1 5427:1 5487:1 5615:1 5856:1 5974:1 6365:1 6686:1 6854:1 6989:1 7133:1 7243:1 7296:1 7471:1 7727:1 7757:1 7791:1 8447:1 8648:1 8756:1 9811:1 10005:1 10296:1 10589:1 #
-0.0017845473694798141914980016409231 7:1 12:1 14:1 18:1 20:1 21:1 24:1 25:1 27:1 31:1 54:1 88:1 96:1 102:1 116:1 136:1 156:1 166:1 169:1 179:1 221:1 238:1 242:1 246:1 268:1 320:1 333:1 339:1 387:1 464:1 498:1 500:1 560:1 564:1 581:1 640:1 648:1 652:1 674:1 783:1 791:1 805:1 810:1 902:1 904:1 1037:1 1259:1 1380:1 1395:1 1455:1 1461:1 1555:1 1653:1 1726:1 1827:1 2073:1 2090:1 2116:1 2246:1 2255:1 2632:1 2790:1 2976:1 3328:1 3424:1 3585:1 4225:1 4255:1 4400:1 4511:1 4513:1 4573:1 5342:1 6045:1 6238:1 6548:1 7393:1 7480:1 7761:1 8153:1 8589:1 9097:1 #
0.0049031117488299346199309702853952 1:1 2:1 4:1 5:1 6:1 7:1 8:1 9:1 11:1 12:1 13:1 15:1 16:1 17:1 18:1 19:1 20:1 21:1 22:1 23:1 24:1 25:1 26:1 28:1 29:1 30:1 32:1 34:1 35:1 36:1 39:1 40:1 41:1 42:1 46:1 50:1 51:1 52:1 54:1 56:1 58:1 59:1 61:1 62:1 63:1 66:1 67:1 68:1 69:1 73:1 75:1 77:1 83:1 86:1 89:1 90:1 91:1 94:1 95:1 96:1 97:1 98:1 99:1 102:1 103:1 104:1 106:1 107:1 110:1 113:1 114:1 117:1 119:1 120:1 124:1 126:1 127:1 129:1 130:1 133:1 135:1 138:1 142:1 158:1 164:1 166:1 171:1 172:1 186:1 187:1 195:1 198:1 200:1 205:1 211:1 213:1 214:1 216:1 217:1 218:1 227:1 228:1 231:1 234:1 237:1 252:1 263:1 265:1 272:1 281:1 283:1 285:1 302:1 304:1 315:1 316:1 319:1 322:1 323:1 324:1 329:1 330:1 333:1 352:1 359:1 365:1 376:1 382:1 385:1 387:1 389:1 391:1 392:1 408:1 422:1 428:1 430:1 451:1 462:1 465:1 466:1 471:1 475:1 481:1 485:1 491:1 500:1 515:1 516:1 529:1 561:1 564:1 581:1 600:1 605:1 613:1 620:1 630:1 632:1 634:1 636:1 649:1 652:1 653:1 663:1 666:1 667:1 674:1 687:1 694:1 757:1 758:1 762:1 772:1 775:1 776:1 777:1 779:1 793:1 802:1 803:1 809:1 810:1 813:1 831:1 839:1 843:1 847:1 859:1 860:1 873:1 905:1 913:1 934:1 946:1 955:1 973:1 978:1 994:1 1012:1 1020:1 1026:1 1035:1 1037:1 1087:1 1092:1 1147:1 1164:1 1172:1 1180:1 1215:1 1383:1 1422:1 1428:1 1452:1 1464:1 1465:1 1476:1 1484:1 1487:1 1492:1 1539:1 1548:1 1553:1 1568:1 1570:1 1584:1 1672:1 1687:1 1689:1 1722:1 1724:1 1827:1 1839:1 1850:1 1909:1 1917:1 1934:1 1949:1 1951:1 1967:1 1976:1 1986:1 2104:1 2140:1 2164:1 2168:1 2208:1 2219:1 2294:1 2360:1 2368:1 2375:1 2396:1 2440:1 2442:1 2478:1 2674:1 2705:1 2743:1 2771:1 2797:1 2850:1 2936:1 2961:1 3029:1 3068:1 3078:1 3085:1 3086:1 3101:1 3152:1 3179:1 3221:1 3295:1 3328:1 3341:1 3422:1 3446:1 3450:1 3463:1 3543:1 3571:1 3662:1 3666:1 3707:1 3725:1 3842:1 3868:1 4159:1 4236:1 4317:1 4513:1 4580:1 4682:1 4704:1 4725:1 4755:1 4793:1 4811:1 4860:1 4897:1 4967:1 5138:1 5262:1 5316:1 5352:1 5464:1 5542:1 5593:1 5642:1 5660:1 5718:1 5726:1 5847:1 5979:1 6011:1 6037:1 6120:1 6540:1 6576:1 6581:1 6745:1 6946:1 6980:1 7147:1 7171:1 7217:1 7295:1 7316:1 7574:1 7735:1 7782:1 7791:1 7839:1 8105:1 8109:1 8110:1 8126:1 8139:1 8141:1 8304:1 8326:1 8383:1 8801:1 8896:1 8934:1 9134:1 9188:1 9404:1 9882:1 9928:1 10145:1 10442:1 10731:1 10743:1 #
-0.0010364446209243003381439418575383 2:1 4:1 5:1 7:1 11:1 12:1 15:1 16:1 17:1 18:1 21:1 22:1 23:1 24:1 25:1 26:1 30:1 31:1 32:1 34:1 36:1 44:1 52:1 54:1 59:1 62:1 66:1 67:1 79:1 81:1 84:1 86:1 89:1 90:1 94:1 98:1 102:1 103:1 104:1 114:1 115:1 130:1 131:1 143:1 146:1 149:1 155:1 159:1 170:1 172:1 179:1 184:1 194:1 204:1 221:1 231:1 232:1 233:1 236:1 244:1 270:1 273:1 277:1 279:1 289:1 316:1 319:1 324:1 333:1 337:1 345:1 374:1 385:1 402:1 414:1 425:1 436:1 438:1 440:1 448:1 495:1 566:1 575:1 600:1 601:1 620:1 630:1 642:1 646:1 647:1 648:1 651:1 653:1 671:1 702:1 709:1 725:1 727:1 750:1 755:1 767:1 771:1 779:1 815:1 874:1 897:1 945:1 946:1 950:1 989:1 999:1 1009:1 1058:1 1067:1 1074:1 1092:1 1096:1 1118:1 1131:1 1147:1 1155:1 1275:1 1284:1 1397:1 1432:1 1446:1 1465:1 1484:1 1514:1 1548:1 1556:1 1565:1 1567:1 1622:1 1626:1 1750:1 1771:1 1796:1 1819:1 1843:1 1874:1 1939:1 1977:1 2027:1 2184:1 2194:1 2210:1 2291:1 2344:1 2396:1 2418:1 2436:1 2440:1 2488:1 2561:1 2588:1 2616:1 2664:1 2674:1 2701:1 2771:1 2801:1 2819:1 2821:1 2898:1 2901:1 2912:1 3029:1 3031:1 3067:1 3078:1 3100:1 3120:1 3126:1 3283:1 3625:1 3629:1 3641:1 3649:1 3714:1 3842:1 3911:1 3932:1 3950:1 3972:1 4007:1 4014:1 4015:1 4040:1 4059:1 4079:1 4200:1 4422:1 4574:1 4588:1 4619:1 4620:1 4642:1 4658:1 4681:1 4847:1 5011:1 5092:1 5138:1 5188:1 5273:1 5417:1 5582:1 5705:1 5754:1 5822:1 5859:1 5865:1 5925:1 6069:1 6112:1 6136:1 6191:1 6206:1 6212:1 6266:1 6303:1 6442:1 6485:1 6716:1 6731:1 6856:1 6935:1 7206:1 7238:1 7268:1 7282:1 7326:1 7433:1 7765:1 7769:1 7925:1 7994:1 7995:1 8014:1 8150:1 8221:1 8288:1 8716:1 8732:1 8798:1 9088:1 9196:1 9514:1 9556:1 9579:1 9580:1 9630:1 9983:1 10192:1 10310:1 10343:1 10368:1 10402:1 10611:1 10615:1 10742:1 #
0.0025979427795632002370918023359536 1:1 2:1 4:1 6:1 8:1 9:1 10:1 11:1 12:1 13:1 14:1 15:1 16:1 17:1 18:1 19:1 20:1 24:1 25:1 27:1 28:1 29:1 30:1 31:1 32:1 33:1 34:1 36:1 38:1 40:1 41:1 42:1 43:1 45:1 46:1 51:1 52:1 53:1 56:1 66:1 69:1 71:1 73:1 75:1 77:1 78:1 81:1 83:1 84:1 85:1 86:1 89:1 91:1 93:1 94:1 95:1 98:1 99:1 103:1 104:1 108:1 109:1 112:1 114:1 119:1 120:1 123:1 126:1 127:1 130:1 139:1 149:1 152:1 155:1 157:1 163:1 167:1 170:1 178:1 183:1 187:1 195:1 196:1 198:1 200:1 202:1 205:1 206:1 207:1 208:1 210:1 216:1 218:1 221:1 225:1 226:1 231:1 235:1 238:1 241:1 244:1 264:1 265:1 273:1 275:1 283:1 295:1 315:1 322:1 323:1 329:1 331:1 342:1 349:1 350:1 365:1 369:1 383:1 385:1 401:1 403:1 407:1 408:1 426:1 428:1 440:1 446:1 451:1 463:1 465:1 471:1 477:1 480:1 488:1 490:1 491:1 495:1 529:1 562:1 570:1 605:1 608:1 611:1 633:1 644:1 647:1 656:1 664:1 666:1 671:1 688:1 694:1 695:1 709:1 725:1 746:1 752:1 758:1 766:1 777:1 780:1 788:1 792:1 795:1 800:1 811:1 817:1 836:1 843:1 845:1 865:1 870:1 878:1 899:1 928:1 937:1 962:1 994:1 997:1 1009:1 1022:1 1030:1 1070:1 1083:1 1087:1 1092:1 1093:1 1095:1 1105:1 1111:1 1131:1 1132:1 1138:1 1200:1 1274:1 1385:1 1391:1 1432:1 1446:1 1448:1 1457:1 1473:1 1476:1 1492:1 1508:1 1513:1 1514:1 1551:1 1567:1 1583:1 1586:1 1626:1 1792:1 1819:1 1827:1 1836:1 1855:1 1949:1 1986:1 1991:1 2018:1 2058:1 2079:1 2134:1 2140:1 2183:1 2213:1 2318:1 2368:1 2372:1 2442:1 2462:1 2726:1 2774:1 2785:1 2953:1 2966:1 3068:1 3071:1 3100:1 3181:1 3270:1 3286:1 3410:1 3449:1 3584:1 3666:1 3809:1 3947:1 4138:1 4234:1 4295:1 4332:1 4366:1 4407:1 4457:1 4586:1 4658:1 4672:1 4725:1 4737:1 4885:1 4994:1 5101:1 5235:1 5270:1 5275:1 5400:1 5439:1 5604:1 5624:1 5797:1 6051:1 6497:1 6693:1 6784:1 6808:1 7062:1 8105:1 8482:1 8632:1 8928:1 9880:1 10116:1 10745:1 #
0.0043191236935497707982722914721307 2:1 3:1 6:1 8:1 11:1 12:1 15:1 16:1 17:1 18:1 20:1 21:1 22:1 23:1 24:1 25:1 27:1 29:1 30:1 31:1 32:1 36:1 39:1 45:1 51:1 54:1 57:1 60:1 62:1 63:1 67:1 73:1 81:1 82:1 86:1 89:1 90:1 91:1 94:1 95:1 98:1 102:1 103:1 104:1 106:1 112:1 114:1 120:1 124:1 129:1 138:1 146:1 149:1 155:1 159:1 161:1 165:1 167:1 172:1 174:1 175:1 185:1 187:1 195:1 197:1 198:1 202:1 213:1 215:1 224:1 225:1 228:1 230:1 232:1 233:1 234:1 236:1 238:1 242:1 244:1 245:1 246:1 257:1 264:1 266:1 270:1 276:1 278:1 279:1 308:1 315:1 329:1 333:1 353:1 357:1 374:1 382:1 387:1 392:1 402:1 434:1 444:1 447:1 451:1 471:1 480:1 491:1 495:1 497:1 510:1 529:1 541:1 566:1 575:1 598:1 608:1 614:1 630:1 636:1 640:1 642:1 649:1 660:1 666:1 674:1 709:1 725:1 755:1 758:1 773:1 798:1 815:1 823:1 849:1 866:1 882:1 891:1 894:1 987:1 989:1 994:1 1008:1 1021:1 1022:1 1062:1 1094:1 1105:1 1131:1 1135:1 1142:1 1147:1 1150:1 1161:1 1226:1 1228:1 1274:1 1279:1 1371:1 1386:1 1428:1 1432:1 1438:1 1444:1 1457:1 1462:1 1476:1 1534:1 1587:1 1595:1 1597:1 1620:1 1626:1 1634:1 1649:1 1697:1 1698:1 1720:1 1819:1 1827:1 1949:1 1964:1 1975:1 1986:1 1987:1 2004:1 2045:1 2069:1 2125:1 2193:1 2304:1 2368:1 2439:1 2455:1 2488:1 2547:1 2599:1 2628:1 2764:1 3006:1 3068:1 3100:1 3114:1 3172:1 3245:1 3259:1 3316:1 3331:1 3410:1 3449:1 3584:1 3680:1 3720:1 3782:1 3801:1 3883:1 4194:1 4234:1 4280:1 4288:1 4291:1 4302:1 4305:1 4483:1 4575:1 4680:1 4695:1 4929:1 4994:1 5143:1 5168:1 5220:1 5340:1 5420:1 5532:1 5616:1 5833:1 5903:1 6006:1 6083:1 6147:1 6170:1 6259:1 6266:1 6401:1 6439:1 6442:1 6686:1 6854:1 7062:1 7071:1 7286:1 7548:1 7576:1 7691:1 7769:1 7952:1 8115:1 8200:1 8351:1 8483:1 8510:1 8632:1 8915:1 9178:1 9303:1 9552:1 9739:1 10030:1 10054:1 10237:1 10426:1 10581:1 10601:1 #
0.00095320016766721211293189597313358 1:1 4:1 5:1 7:1 8:1 10:1 11:1 13:1 14:1 15:1 16:1 17:1 18:1 19:1 20:1 21:1 22:1 24:1 25:1 27:1 28:1 29:1 30:1 31:1 32:1 34:1 36:1 37:1 38:1 40:1 41:1 44:1 45:1 46:1 52:1 54:1 56:1 60:1 62:1 65:1 69:1 71:1 72:1 75:1 77:1 78:1 82:1 83:1 86:1 88:1 89:1 90:1 91:1 94:1 95:1 99:1 102:1 103:1 104:1 111:1 113:1 114:1 119:1 120:1 123:1 124:1 127:1 129:1 131:1 135:1 144:1 147:1 150:1 152:1 155:1 161:1 164:1 165:1 170:1 171:1 175:1 182:1 194:1 195:1 197:1 198:1 202:1 210:1 216:1 218:1 221:1 223:1 225:1 226:1 227:1 236:1 237:1 243:1 244:1 257:1 265:1 266:1 267:1 278:1 286:1 294:1 302:1 304:1 308:1 319:1 321:1 322:1 323:1 332:1 335:1 336:1 340:1 342:1 347:1 357:1 374:1 378:1 383:1 387:1 389:1 406:1 407:1 415:1 428:1 444:1 451:1 475:1 476:1 477:1 478:1 480:1 485:1 490:1 496:1 502:1 503:1 510:1 522:1 533:1 583:1 602:1 607:1 608:1 618:1 620:1 630:1 642:1 657:1 664:1 671:1 674:1 688:1 702:1 714:1 717:1 747:1 758:1 763:1 776:1 783:1 789:1 793:1 798:1 802:1 810:1 815:1 820:1 829:1 843:1 892:1 894:1 898:1 918:1 923:1 935:1 943:1 987:1 991:1 994:1 1009:1 1018:1 1067:1 1077:1 1092:1 1105:1 1152:1 1206:1 1209:1 1228:1 1324:1 1364:1 1372:1 1394:1 1404:1 1416:1 1432:1 1439:1 1473:1 1476:1 1481:1 1492:1 1524:1 1548:1 1569:1 1570:1 1593:1 1647:1 1675:1 1676:1 1755:1 1880:1 1894:1 1970:1 1983:1 1987:1 2023:1 2069:1 2072:1 2093:1 2179:1 2183:1 2274:1 2304:1 2314:1 2382:1 2439:1 2478:1 2585:1 2649:1 2665:1 2677:1 2720:1 2750:1 2846:1 2990:1 2997:1 3005:1 3052:1 3119:1 3144:1 3152:1 3154:1 3163:1 3179:1 3197:1 3213:1 3315:1 3434:1 3463:1 3648:1 3771:1 3848:1 3883:1 3965:1 4097:1 4205:1 4221:1 4234:1 4252:1 4253:1 4261:1 4293:1 4327:1 4428:1 4477:1 4577:1 4631:1 4639:1 4739:1 4935:1 4975:1 5110:1 5127:1 5377:1 5428:1 5555:1 5640:1 5826:1 5871:1 5921:1 6111:1 6148:1 6214:1 6238:1 6461:1 6778:1 6872:1 7006:1 7203:1 7573:1 7735:1 7863:1 7871:1 8200:1 8259:1 8260:1 8380:1 8384:1 8516:1 8714:1 8800:1 9231:1 9451:1 9488:1 9500:1 9754:1 10071:1 10581:1 #
-0.0049031117488299346199309702853952 1:1 4:1 7:1 8:1 11:1 12:1 13:1 15:1 16:1 17:1 18:1 20:1 22:1 23:1 24:1 25:1 27:1 28:1 29:1 30:1 31:1 34:1 36:1 38:1 41:1 42:1 46:1 47:1 51:1 52:1 56:1 59:1 62:1 63:1 66:1 73:1 75:1 77:1 81:1 84:1 89:1 90:1 93:1 94:1 95:1 96:1 98:1 99:1 102:1 104:1 106:1 107:1 114:1 119:1 120:1 125:1 126:1 127:1 131:1 137:1 138:1 146:1 154:1 155:1 156:1 163:1 169:1 170:1 171:1 175:1 177:1 185:1 187:1 195:1 196:1 199:1 210:1 214:1 217:1 218:1 227:1 231:1 232:1 236:1 243:1 244:1 249:1 251:1 252:1 264:1 275:1 276:1 277:1 278:1 283:1 295:1 308:1 315:1 316:1 325:1 329:1 332:1 333:1 335:1 345:1 351:1 353:1 356:1 357:1 381:1 383:1 387:1 403:1 414:1 416:1 422:1 430:1 434:1 438:1 443:1 446:1 451:1 452:1 472:1 478:1 480:1 481:1 482:1 491:1 493:1 495:1 510:1 527:1 529:1 553:1 558:1 561:1 566:1 569:1 581:1 598:1 600:1 606:1 628:1 642:1 644:1 649:1 653:1 664:1 668:1 671:1 702:1 709:1 750:1 758:1 762:1 767:1 768:1 775:1 777:1 798:1 806:1 808:1 815:1 857:1 882:1 891:1 899:1 912:1 945:1 1005:1 1008:1 1009:1 1012:1 1021:1 1058:1 1067:1 1087:1 1089:1 1096:1 1111:1 1131:1 1147:1 1150:1 1155:1 1179:1 1181:1 1185:1 1189:1 1228:1 1283:1 1284:1 1375:1 1385:1 1386:1 1422:1 1432:1 1441:1 1452:1 1457:1 1462:1 1476:1 1508:1 1514:1 1574:1 1576:1 1580:1 1591:1 1617:1 1626:1 1650:1 1652:1 1666:1 1697:1 1797:1 1827:1 1849:1 1855:1 1897:1 1906:1 1941:1 1961:1 1964:1 1986:1 1997:1 2027:1 2084:1 2085:1 2091:1 2109:1 2130:1 2170:1 2183:1 2193:1 2208:1 2222:1 2249:1 2257:1 2368:1 2372:1 2394:1 2455:1 2462:1 2548:1 2589:1 2599:1 2616:1 2674:1 2681:1 2716:1 2726:1 2771:1 2793:1 2850:1 3015:1 3050:1 3098:1 3100:1 3114:1 3120:1 3126:1 3245:1 3287:1 3316:1 3390:1 3452:1 3467:1 3493:1 3533:1 3649:1 3695:1 3719:1 3782:1 3783:1 3801:1 3853:1 3863:1 4016:1 4029:1 4055:1 4125:1 4131:1 4200:1 4280:1 4288:1 4361:1 4574:1 4631:1 4658:1 4717:1 4796:1 4912:1 4929:1 4998:1 5002:1 5009:1 5168:1 5362:1 5431:1 5484:1 5576:1 5720:1 5833:1 5856:1 6006:1 6009:1 6194:1 6214:1 6220:1 6294:1 6448:1 6612:1 6658:1 6702:1 6806:1 6808:1 6968:1 7062:1 7078:1 7212:1 7286:1 7443:1 7721:1 7803:1 7833:1 7948:1 8115:1 8254:1 8351:1 8632:1 8738:1 8894:1 9161:1 9196:1 9279:1 9361:1 10173:1 10237:1 10412:1 10586:1 #
-0.0049031117488299346199309702853952 1:1 5:1 6:1 7:1 8:1 11:1 12:1 13:1 14:1 15:1 16:1 17:1 18:1 20:1 21:1 22:1 24:1 25:1 27:1 28:1 29:1 30:1 31:1 32:1 34:1 35:1 37:1 38:1 39:1 40:1 42:1 43:1 44:1 45:1 52:1 56:1 62:1 63:1 72:1 73:1 74:1 77:1 78:1 84:1 88:1 90:1 93:1 94:1 98:1 101:1 102:1 103:1 104:1 105:1 106:1 108:1 110:1 113:1 114:1 115:1 116:1 117:1 119:1 122:1 123:1 124:1 127:1 130:1 135:1 137:1 142:1 147:1 157:1 158:1 159:1 163:1 170:1 172:1 183:1 193:1 194:1 195:1 196:1 202:1 203:1 206:1 210:1 211:1 213:1 216:1 218:1 219:1 221:1 227:1 231:1 233:1 235:1 236:1 242:1 249:1 258:1 261:1 263:1 264:1 270:1 273:1 276:1 281:1 283:1 286:1 300:1 302:1 303:1 316:1 319:1 322:1 323:1 329:1 334:1 335:1 341:1 347:1 349:1 383:1 384:1 385:1 387:1 418:1 426:1 428:1 443:1 478:1 480:1 484:1 490:1 491:1 500:1 502:1 529:1 548:1 553:1 581:1 583:1 602:1 605:1 611:1 615:1 620:1 644:1 649:1 652:1 664:1 666:1 674:1 698:1 717:1 727:1 741:1 755:1 758:1 768:1 777:1 787:1 796:1 798:1 799:1 821:1 828:1 831:1 835:1 843:1 887:1 888:1 889:1 900:1 926:1 944:1 953:1 962:1 990:1 994:1 1012:1 1035:1 1090:1 1105:1 1110:1 1111:1 1137:1 1154:1 1160:1 1161:1 1173:1 1186:1 1192:1 1194:1 1231:1 1310:1 1391:1 1399:1 1414:1 1432:1 1448:1 1449:1 1452:1 1462:1 1476:1 1506:1 1508:1 1569:1 1593:1 1626:1 1633:1 1643:1 1705:1 1746:1 1755:1 1798:1 1807:1 1827:1 1836:1 1881:1 1933:1 1986:1 1991:1 2042:1 2091:1 2096:1 2140:1 2150:1 2208:1 2219:1 2308:1 2368:1 2482:1 2566:1 2622:1 2739:1 2774:1 2785:1 2986:1 3270:1 3297:1 3319:1 3346:1 3464:1 3571:1 3583:1 3768:1 3932:1 4308:1 4356:1 4548:1 4586:1 4853:1 5046:1 5136:1 5405:1 5624:1 5715:1 5803:1 5879:1 5955:1 6088:1 6126:1 6181:1 6184:1 6577:1 6630:1 6702:1 6881:1 6979:1 6980:1 7762:1 7876:1 7880:1 8105:1 8128:1 8164:1 8370:1 8516:1 8632:1 8647:1 8668:1 9107:1 10569:1 10606:1 10742:1 #
-0.0035486801232237786402068380198216 1:1 4:1 5:1 8:1 9:1 11:1 12:1 13:1 14:1 16:1 17:1 18:1 20:1 22:1 23:1 24:1 26:1 28:1 30:1 35:1 36:1 40:1 41:1 42:1 43:1 46:1 51:1 52:1 54:1 61:1 62:1 63:1 65:1 66:1 68:1 69:1 71:1 73:1 80:1 82:1 84:1 91:1 94:1 101:1 103:1 104:1 114:1 117:1 119:1 120:1 127:1 130:1 131:1 137:1 138:1 146:1 149:1 153:1 154:1 155:1 167:1 170:1 172:1 177:1 181:1 186:1 187:1 190:1 194:1 196:1 199:1 210:1 223:1 228:1 232:1 235:1 236:1 238:1 239:1 240:1 241:1 258:1 264:1 266:1 268:1 277:1 278:1 285:1 297:1 319:1 324:1 329:1 335:1 353:1 356:1 370:1 381:1 387:1 414:1 430:1 434:1 436:1 440:1 446:1 451:1 452:1 465:1 478:1 482:1 495:1 500:1 504:1 510:1 512:1 531:1 541:1 553:1 566:1 605:1 608:1 613:1 647:1 653:1 671:1 673:1 690:1 716:1 725:1 750:1 752:1 755:1 758:1 767:1 780:1 789:1 795:1 798:1 815:1 837:1 840:1 843:1 857:1 866:1 875:1 891:1 897:1 899:1 914:1 936:1 945:1 955:1 1005:1 1009:1 1021:1 1026:1 1042:1 1056:1 1067:1 1089:1 1090:1 1117:1 1138:1 1150:1 1160:1 1161:1 1173:1 1185:1 1205:1 1226:1 1231:1 1279:1 1283:1 1374:1 1376:1 1378:1 1385:1 1428:1 1432:1 1438:1 1440:1 1441:1 1462:1 1464:1 1481:1 1508:1 1514:1 1534:1 1550:1 1587:1 1591:1 1599:1 1602:1 1646:1 1660:1 1666:1 1720:1 1845:1 1861:1 1912:1 1951:1 2038:1 2042:1 2109:1 2224:1 2295:1 2300:1 2318:1 2368:1 2370:1 2372:1 2417:1 2442:1 2462:1 2488:1 2548:1 2584:1 2599:1 2616:1 2652:1 2674:1 2682:1 2726:1 2734:1 2771:1 2793:1 2799:1 2860:1 2908:1 3005:1 3015:1 3071:1 3078:1 3086:1 3098:1 3100:1 3120:1 3126:1 3171:1 3328:1 3368:1 3584:1 3618:1 3666:1 3725:1 3774:1 4029:1 4063:1 4131:1 4264:1 4288:1 4290:1 4336:1 4562:1 4574:1 4588:1 4975:1 5118:1 5138:1 5168:1 5267:1 5270:1 5399:1 5420:1 5445:1 5576:1 5612:1 5632:1 5653:1 5659:1 5737:1 5810:1 5911:1 6029:1 6051:1 6083:1 6127:1 6259:1 6371:1 6416:1 6448:1 6808:1 7001:1 7110:1 7229:1 7510:1 7525:1 7547:1 7691:1 7769:1 8115:1 8126:1 8141:1 8338:1 8755:1 9079:1 9174:1 9181:1 9339:1 9589:1 9712:1 9881:1 9906:1 10025:1 10389:1 10426:1 10669:1 #
-0.0026720683664981032326424248424246 1:1 2:1 5:1 7:1 9:1 11:1 12:1 14:1 15:1 16:1 17:1 19:1 20:1 21:1 23:1 24:1 25:1 26:1 27:1 28:1 29:1 30:1 31:1 32:1 33:1 34:1 36:1 38:1 39:1 40:1 41:1 45:1 49:1 51:1 59:1 61:1 62:1 66:1 67:1 68:1 74:1 76:1 77:1 79:1 80:1 81:1 83:1 85:1 86:1 89:1 91:1 93:1 94:1 95:1 96:1 98:1 99:1 101:1 102:1 103:1 104:1 107:1 108:1 112:1 113:1 114:1 115:1 117:1 120:1 123:1 127:1 129:1 130:1 131:1 135:1 137:1 138:1 146:1 147:1 148:1 149:1 158:1 159:1 163:1 170:1 178:1 181:1 195:1 199:1 201:1 202:1 206:1 208:1 210:1 218:1 221:1 223:1 226:1 231:1 236:1 245:1 257:1 265:1 268:1 270:1 275:1 277:1 285:1 286:1 295:1 297:1 304:1 315:1 321:1 322:1 325:1 326:1 329:1 335:1 347:1 350:1 365:1 369:1 373:1 378:1 381:1 383:1 385:1 387:1 404:1 408:1 425:1 428:1 432:1 436:1 446:1 451:1 463:1 464:1 471:1 477:1 478:1 481:1 495:1 523:1 533:1 545:1 566:1 585:1 598:1 600:1 602:1 608:1 612:1 620:1 621:1 629:1 644:1 646:1 653:1 660:1 664:1 690:1 694:1 725:1 728:1 758:1 762:1 767:1 789:1 806:1 807:1 823:1 835:1 843:1 873:1 876:1 878:1 882:1 900:1 913:1 918:1 922:1 934:1 945:1 946:1 955:1 956:1 964:1 984:1 993:1 994:1 995:1 996:1 1009:1 1015:1 1018:1 1021:1 1026:1 1038:1 1039:1 1047:1 1058:1 1066:1 1067:1 1068:1 1092:1 1105:1 1205:1 1279:1 1300:1 1372:1 1390:1 1397:1 1420:1 1430:1 1478:1 1483:1 1490:1 1496:1 1502:1 1512:1 1514:1 1525:1 1564:1 1567:1 1574:1 1597:1 1652:1 1698:1 1734:1 1796:1 1803:1 1819:1 1913:1 1932:1 1939:1 1949:1 1951:1 1970:1 1976:1 2064:1 2084:1 2149:1 2227:1 2236:1 2369:1 2373:1 2396:1 2407:1 2414:1 2415:1 2416:1 2443:1 2462:1 2474:1 2621:1 2697:1 2705:1 2739:1 2747:1 2819:1 2824:1 2898:1 2959:1 2970:1 3005:1 3043:1 3084:1 3153:1 3206:1 3236:1 3243:1 3506:1 3530:1 3592:1 3621:1 3649:1 3668:1 3759:1 3842:1 3872:1 3873:1 3952:1 4029:1 4084:1 4201:1 4215:1 4254:1 4262:1 4264:1 4280:1 4296:1 4503:1 4518:1 4530:1 4566:1 4586:1 4739:1 4747:1 4871:1 4963:1 4975:1 4988:1 5030:1 5251:1 5308:1 5500:1 5506:1 5574:1 5628:1 5656:1 5695:1 5738:1 5887:1 5936:1 6025:1 6104:1 6110:1 6147:1 6361:1 6419:1 6786:1 6847:1 7085:1 7212:1 7364:1 7380:1 7418:1 7724:1 7876:1 7922:1 8050:1 8080:1 8163:1 8265:1 8295:1 8686:1 8766:1 8806:1 8839:1 8853:1 8887:1 9278:1 9304:1 9372:1 9419:1 9622:1 9690:1 9958:1 10271:1 10287:1 10365:1 10554:1 10564:1 #
-0.0047283946690152237751769703777427 4:1 6:1 8:1 10:1 11:1 12:1 15:1 16:1 17:1 18:1 20:1 22:1 23:1 24:1 25:1 27:1 30:1 31:1 32:1 34:1 36:1 42:1 44:1 45:1 51:1 52:1 53:1 55:1 57:1 60:1 62:1 65:1 67:1 68:1 73:1 79:1 80:1 81:1 82:1 86:1 90:1 94:1 95:1 98:1 99:1 101:1 102:1 104:1 106:1 112:1 113:1 114:1 116:1 117:1 119:1 125:1 129:1 130:1 137:1 142:1 149:1 152:1 155:1 159:1 170:1 172:1 174:1 175:1 181:1 185:1 187:1 210:1 213:1 214:1 220:1 221:1 231:1 233:1 237:1 244:1 245:1 246:1 250:1 251:1 252:1 257:1 266:1 277:1 278:1 279:1 286:1 289:1 295:1 304:1 321:1 329:1 333:1 335:1 345:1 350:1 353:1 378:1 379:1 382:1 408:1 432:1 434:1 440:1 451:1 452:1 456:1 467:1 475:1 477:1 478:1 480:1 483:1 491:1 493:1 495:1 529:1 566:1 581:1 601:1 608:1 630:1 645:1 649:1 660:1 717:1 725:1 748:1 761:1 773:1 798:1 803:1 808:1 809:1 813:1 815:1 816:1 847:1 849:1 857:1 889:1 891:1 898:1 994:1 996:1 1002:1 1009:1 1026:1 1067:1 1087:1 1091:1 1092:1 1099:1 1123:1 1398:1 1422:1 1439:1 1442:1 1506:1 1508:1 1539:1 1595:1 1597:1 1624:1 1626:1 1646:1 1661:1 1742:1 1819:1 1827:1 1906:1 1919:1 1986:1 2049:1 2193:1 2224:1 2372:1 2394:1 2674:1 2713:1 2786:1 3038:1 3086:1 3100:1 3114:1 3172:1 3328:1 3338:1 3445:1 3469:1 3557:1 3584:1 3691:1 3801:1 3869:1 3936:1 3940:1 4065:1 4081:1 4192:1 4372:1 4501:1 4574:1 4703:1 4815:1 4944:1 5022:1 5045:1 5136:1 5699:1 5917:1 6368:1 6577:1 7062:1 7380:1 7403:1 7563:1 7925:1 8197:1 8356:1 8372:1 8510:1 8712:1 9349:1 9397:1 9468:1 9703:1 9755:1 9772:1 9813:1 9839:1 10030:1 10451:1 10523:1 10741:1 #
0.0049031117488299346199309702853952 6:1 8:1 12:1 14:1 16:1 17:1 19:1 21:1 22:1 25:1 27:1 30:1 39:1 41:1 44:1 48:1 50:1 52:1 54:1 60:1 62:1 88:1 90:1 95:1 123:1 135:1 136:1 151:1 158:1 166:1 209:1 243:1 259:1 377:1 387:1 434:1 472:1 553:1 601:1 620:1 625:1 649:1 651:1 802:1 812:1 891:1 905:1 991:1 994:1 1008:1 1014:1 1023:1 1046:1 1096:1 1284:1 1462:1 1473:1 1533:1 1536:1 1593:1 1646:1 1676:1 1751:1 1784:1 1973:1 1987:1 2086:1 2208:1 2365:1 2442:1 2739:1 2825:1 2936:1 2956:1 3213:1 3855:1 3871:1 3968:1 4004:1 4062:1 4417:1 4541:1 5845:1 6249:1 6284:1 6595:1 6609:1 6926:1 7072:1 8738:1 9355:1 9605:1 10521:1 10548:1 10652:1 #
0.0049031117488299346199309702853952 7:1 10:1 11:1 13:1 14:1 15:1 18:1 20:1 21:1 41:1 82:1 84:1 87:1 88:1 106:1 107:1 115:1 125:1 136:1 141:1 151:1 166:1 202:1 218:1 238:1 243:1 252:1 266:1 304:1 308:1 333:1 341:1 344:1 387:1 395:1 396:1 409:1 421:1 432:1 434:1 460:1 502:1 530:1 606:1 615:1 628:1 639:1 645:1 651:1 758:1 803:1 868:1 1016:1 1098:1 1170:1 1365:1 1372:1 1383:1 1432:1 1491:1 1523:1 1589:1 1623:1 1820:1 1884:1 2106:1 2277:1 2349:1 2363:1 2365:1 2428:1 2624:1 2736:1 2748:1 2825:1 3365:1 3463:1 3628:1 3630:1 3703:1 4106:1 4493:1 4497:1 4808:1 4814:1 5762:1 5902:1 6311:1 6635:1 6673:1 6683:1 7951:1 7975:1 8082:1 8091:1 8140:1 8167:1 8478:1 9358:1 9733:1 #
0.0049031117488299346199309702853952 5:1 12:1 20:1 25:1 27:1 30:1 34:1 51:1 67:1 86:1 95:1 102:1 103:1 123:1 202:1 236:1 325:1 411:1 452:1 566:1 702:1 728:1 808:1 857:1 899:1 955:1 994:1 1094:1 1105:1 1432:1 1454:1 1473:1 1933:1 1973:1 2064:1 2113:1 2134:1 2219:1 2249:1 2585:1 2990:1 3097:1 3286:1 3910:1 4302:1 4793:1 5615:1 5845:1 6713:1 7352:1 7392:1 7995:1 9688:1 9892:1 10049:1 10640:1 #
0.0049031117488299346199309702853952 12:1 17:1 22:1 49:1 56:1 113:1 202:1 243:1 307:1 308:1 350:1 377:1 583:1 607:1 647:1 758:1 777:1 780:1 899:1 991:1 1008:1 1084:1 1432:1 1473:1 1570:1 1593:1 1650:1 1894:1 1973:1 2072:1 2277:1 2363:1 2428:1 2825:1 2936:1 3175:1 3334:1 3607:1 4210:1 4410:1 5465:1 5692:1 6167:1 6872:1 8179:1 10596:1 #
0.00033922072285777677726203993557874 14:1 15:1 16:1 18:1 19:1 20:1 21:1 26:1 29:1 34:1 41:1 56:1 62:1 71:1 72:1 88:1 90:1 102:1 103:1 106:1 110:1 125:1 126:1 136:1 177:1 179:1 185:1 202:1 216:1 218:1 229:1 243:1 277:1 297:1 312:1 324:1 365:1 366:1 380:1 383:1 395:1 401:1 421:1 434:1 564:1 641:1 670:1 748:1 758:1 839:1 922:1 946:1 991:1 994:1 1138:1 1140:1 1305:1 1375:1 1393:1 1430:1 1432:1 1576:1 1593:1 1662:1 1842:1 1951:1 1976:1 1977:1 1987:1 2034:1 2069:1 2093:1 2104:1 2183:1 2236:1 2240:1 2277:1 2304:1 2373:1 2428:1 2439:1 2482:1 2503:1 2667:1 2674:1 2718:1 2859:1 2967:1 2990:1 3097:1 3114:1 3153:1 3213:1 3282:1 3506:1 3607:1 4010:1 4070:1 4348:1 4417:1 4888:1 4956:1 5087:1 5428:1 5469:1 5615:1 5678:1 5804:1 6497:1 6713:1 6871:1 7163:1 7251:1 7485:1 7553:1 8188:1 8190:1 8300:1 8859:1 9012:1 9163:1 9220:1 10065:1 10323:1 10450:1 #
-0.0049031117488299346199309702853952 8:1 11:1 15:1 18:1 19:1 20:1 21:1 25:1 26:1 29:1 30:1 41:1 45:1 58:1 62:1 66:1 72:1 79:1 82:1 98:1 141:1 158:1 177:1 191:1 195:1 218:1 221:1 229:1 230:1 243:1 266:1 302:1 315:1 323:1 326:1 339:1 350:1 367:1 387:1 395:1 502:1 530:1 553:1 618:1 625:1 628:1 665:1 746:1 758:1 784:1 848:1 904:1 909:1 912:1 988:1 1015:1 1071:1 1079:1 1122:1 1127:1 1144:1 1208:1 1363:1 1380:1 1491:1 1568:1 1630:1 1676:1 1729:1 1795:1 1850:1 1934:1 1943:1 2111:1 2240:1 2361:1 2692:1 2739:1 3068:1 3119:1 3128:1 3271:1 3299:1 3463:1 4211:1 4313:1 4493:1 4807:1 5879:1 7485:1 8143:1 8646:1 9003:1 9170:1 #
-0.00063226259682781706539939081679336 1:1 5:1 10:1 11:1 13:1 15:1 16:1 18:1 19:1 21:1 24:1 25:1 31:1 39:1 41:1 46:1 60:1 72:1 75:1 92:1 97:1 98:1 100:1 106:1 113:1 133:1 135:1 141:1 150:1 151:1 158:1 159:1 166:1 172:1 191:1 192:1 209:1 213:1 229:1 252:1 323:1 341:1 357:1 387:1 411:1 416:1 417:1 421:1 502:1 522:1 529:1 609:1 618:1 669:1 740:1 758:1 784:1 814:1 817:1 832:1 839:1 842:1 909:1 911:1 915:1 1079:1 1092:1 1096:1 1137:1 1461:1 1491:1 1816:1 1848:1 2016:1 2111:1 2285:1 2301:1 2320:1 2382:1 2429:1 2471:1 2484:1 2585:1 2600:1 2692:1 2726:1 2750:1 2782:1 2809:1 2817:1 2852:1 2859:1 2955:1 2959:1 3031:1 3068:1 3195:1 3743:1 3985:1 4541:1 4632:1 4807:1 4987:1 5288:1 5425:1 5436:1 5650:1 5931:1 6483:1 6523:1 6736:1 7242:1 7520:1 7550:1 7738:1 7892:1 8131:1 8474:1 8798:1 9576:1 10212:1 10342:1 10533:1 #
-0.00370684668031971654642009461611 2:1 10:1 12:1 14:1 17:1 18:1 19:1 21:1 30:1 32:1 41:1 42:1 66:1 71:1 75:1 79:1 88:1 90:1 95:1 97:1 98:1 106:1 115:1 116:1 135:1 159:1 178:1 179:1 207:1 214:1 230:1 238:1 243:1 339:1 344:1 409:1 411:1 416:1 421:1 432:1 434:1 438:1 457:1 487:1 498:1 503:1 521:1 530:1 534:1 564:1 622:1 628:1 634:1 805:1 816:1 817:1 841:1 868:1 923:1 951:1 1015:1 1016:1 1142:1 1461:1 1535:1 1582:1 1872:1 1901:1 1908:1 2030:1 2097:1 2220:1 2301:1 2624:1 2736:1 2782:1 2825:1 3011:1 3053:1 3175:1 4014:1 4040:1 4106:1 5226:1 5412:1 5414:1 5600:1 6040:1 6191:1 6356:1 6552:1 6673:1 8003:1 8028:1 8140:1 8153:1 8359:1 8478:1 8666:1 8762:1 10094:1 #
-0.0049031117488299346199309702853952 3:1 6:1 7:1 15:1 17:1 18:1 20:1 21:1 24:1 25:1 29:1 30:1 35:1 36:1 39:1 44:1 54:1 59:1 60:1 63:1 66:1 71:1 75:1 82:1 88:1 102:1 108:1 114:1 120:1 124:1 135:1 187:1 221:1 238:1 254:1 322:1 326:1 331:1 357:1 360:1 421:1 464:1 500:1 510:1 529:1 564:1 609:1 630:1 666:1 695:1 743:1 848:1 866:1 904:1 943:1 1002:1 1023:1 1112:1 1208:1 1420:1 1476:1 1570:1 1630:1 1872:1 1886:1 1967:1 1973:1 2086:1 2281:1 2825:1 3005:1 3021:1 3082:1 3213:1 3261:1 3335:1 3434:1 3456:1 3607:1 3906:1 4252:1 4944:1 5262:1 5291:1 5826:1 6062:1 6322:1 6461:1 8179:1 #
-0.0049031117488299346199309702853952 15:1 22:1 30:1 36:1 219:1 289:1 1008:1 1028:1 1556:1 1589:1 2453:1 9830:1 #
0.002630674516651584308318811977756 1:1 4:1 5:1 6:1 8:1 9:1 11:1 12:1 13:1 15:1 16:1 17:1 18:1 20:1 21:1 23:1 24:1 25:1 26:1 27:1 28:1 29:1 30:1 31:1 32:1 34:1 36:1 38:1 42:1 44:1 45:1 46:1 47:1 51:1 52:1 55:1 61:1 62:1 63:1 64:1 66:1 68:1 69:1 73:1 76:1 79:1 80:1 81:1 82:1 84:1 85:1 86:1 89:1 91:1 94:1 95:1 96:1 98:1 99:1 102:1 103:1 104:1 106:1 107:1 108:1 109:1 111:1 114:1 116:1 119:1 120:1 122:1 123:1 125:1 126:1 127:1 130:1 138:1 139:1 141:1 142:1 146:1 147:1 148:1 152:1 154:1 155:1 158:1 163:1 165:1 166:1 167:1 170:1 171:1 172:1 176:1 180:1 181:1 183:1 187:1 188:1 190:1 193:1 194:1 195:1 196:1 198:1 199:1 202:1 205:1 207:1 208:1 213:1 218:1 221:1 227:1 236:1 238:1 241:1 242:1 244:1 245:1 255:1 258:1 261:1 264:1 267:1 270:1 276:1 281:1 286:1 289:1 293:1 295:1 297:1 312:1 317:1 321:1 323:1 324:1 329:1 350:1 354:1 355:1 356:1 369:1 381:1 382:1 383:1 384:1 387:1 395:1 404:1 410:1 416:1 423:1 426:1 444:1 452:1 462:1 463:1 471:1 472:1 475:1 478:1 480:1 482:1 490:1 500:1 510:1 551:1 566:1 575:1 581:1 601:1 613:1 628:1 629:1 630:1 631:1 640:1 641:1 644:1 645:1 652:1 653:1 670:1 671:1 674:1 690:1 702:1 703:1 719:1 724:1 728:1 755:1 758:1 771:1 777:1 789:1 790:1 796:1 797:1 798:1 799:1 802:1 803:1 809:1 811:1 813:1 820:1 823:1 829:1 837:1 847:1 853:1 858:1 875:1 883:1 905:1 936:1 945:1 994:1 1026:1 1039:1 1046:1 1105:1 1135:1 1140:1 1160:1 1167:1 1173:1 1204:1 1229:1 1274:1 1287:1 1378:1 1422:1 1425:1 1428:1 1430:1 1432:1 1447:1 1450:1 1455:1 1465:1 1473:1 1476:1 1480:1 1508:1 1534:1 1550:1 1599:1 1615:1 1616:1 1626:1 1643:1 1672:1 1687:1 1705:1 1744:1 1840:1 1915:1 1961:1 2028:1 2091:1 2117:1 2147:1 2151:1 2168:1 2177:1 2183:1 2308:1 2368:1 2370:1 2410:1 2591:1 2599:1 2674:1 2705:1 2716:1 2720:1 2726:1 2771:1 2869:1 2987:1 3085:1 3086:1 3128:1 3153:1 3194:1 3221:1 3328:1 3400:1 3584:1 3620:1 3709:1 3783:1 3784:1 3868:1 3869:1 3883:1 3934:1 3965:1 4123:1 4160:1 4169:1 4225:1 4236:1 4253:1 4288:1 4341:1 4353:1 4441:1 4483:1 4703:1 4768:1 5005:1 5070:1 5082:1 5103:1 5108:1 5179:1 5394:1 5416:1 5576:1 5588:1 5653:1 5829:1 5830:1 5833:1 6087:1 6188:1 6238:1 6265:1 6266:1 6322:1 6644:1 6798:1 6812:1 6934:1 7017:1 7035:1 7685:1 7724:1 7932:1 7994:1 8099:1 8126:1 8200:1 8632:1 8755:1 8873:1 9202:1 9231:1 9261:1 9305:1 9442:1 9595:1 9646:1 9735:1 10320:1 10460:1 10692:1 #
0.0022110241566763336011625096233502 1:1 5:1 6:1 7:1 8:1 9:1 11:1 12:1 15:1 16:1 17:1 18:1 19:1 20:1 24:1 25:1 28:1 29:1 30:1 31:1 32:1 34:1 35:1 37:1 39:1 40:1 41:1 42:1 45:1 46:1 50:1 51:1 53:1 55:1 56:1 57:1 60:1 62:1 65:1 66:1 67:1 69:1 73:1 76:1 78:1 79:1 81:1 82:1 84:1 93:1 94:1 95:1 102:1 103:1 104:1 106:1 108:1 113:1 120:1 123:1 124:1 126:1 128:1 129:1 130:1 132:1 148:1 149:1 153:1 155:1 166:1 168:1 170:1 172:1 175:1 177:1 194:1 196:1 198:1 199:1 200:1 202:1 206:1 208:1 212:1 218:1 219:1 227:1 231:1 232:1 236:1 238:1 244:1 263:1 265:1 267:1 268:1 275:1 278:1 289:1 301:1 308:1 322:1 325:1 333:1 334:1 335:1 350:1 352:1 357:1 381:1 388:1 395:1 401:1 408:1 425:1 432:1 444:1 445:1 446:1 452:1 457:1 465:1 467:1 471:1 473:1 491:1 495:1 499:1 551:1 566:1 583:1 598:1 602:1 607:1 630:1 633:1 640:1 645:1 646:1 667:1 668:1 671:1 683:1 695:1 702:1 710:1 728:1 742:1 755:1 777:1 779:1 789:1 797:1 818:1 830:1 854:1 868:1 887:1 894:1 944:1 984:1 994:1 1000:1 1008:1 1018:1 1035:1 1046:1 1058:1 1080:1 1090:1 1091:1 1096:1 1099:1 1105:1 1122:1 1157:1 1172:1 1173:1 1198:1 1229:1 1382:1 1391:1 1425:1 1430:1 1432:1 1438:1 1450:1 1466:1 1473:1 1474:1 1483:1 1525:1 1534:1 1577:1 1631:1 1637:1 1644:1 1716:1 1719:1 1736:1 1742:1 1827:1 1973:1 1991:1 2032:1 2035:1 2044:1 2062:1 2085:1 2099:1 2134:1 2168:1 2169:1 2204:1 2225:1 2266:1 2277:1 2304:1 2326:1 2338:1 2356:1 2394:1 2420:1 2504:1 2546:1 2571:1 2609:1 2611:1 2615:1 2622:1 2692:1 2722:1 2953:1 2990:1 3009:1 3038:1 3102:1 3121:1 3134:1 3204:1 3316:1 3433:1 3440:1 3545:1 3581:1 3756:1 3898:1 4035:1 4285:1 4411:1 4702:1 4714:1 4732:1 4810:1 4877:1 4878:1 4885:1 4917:1 5240:1 5314:1 6118:1 6245:1 6433:1 6589:1 6630:1 6693:1 6965:1 7149:1 7174:1 7283:1 7414:1 7465:1 7783:1 8217:1 8516:1 8774:1 8990:1 9026:1 9361:1 9428:1 9937:1 10062:1 #
0.0031582586554239583213898878710779 1:1 4:1 7:1 8:1 10:1 11:1 12:1 14:1 15:1 16:1 17:1 18:1 20:1 22:1 23:1 24:1 25:1 29:1 30:1 32:1 36:1 40:1 41:1 45:1 46:1 47:1 51:1 52:1 62:1 72:1 77:1 81:1 84:1 89:1 91:1 93:1 94:1 96:1 98:1 102:1 103:1 104:1 114:1 116:1 119:1 125:1 126:1 127:1 131:1 138:1 147:1 155:1 156:1 159:1 161:1 167:1 170:1 171:1 172:1 196:1 199:1 202:1 210:1 211:1 214:1 216:1 218:1 220:1 230:1 231:1 232:1 236:1 241:1 242:1 245:1 260:1 264:1 268:1 275:1 277:1 279:1 289:1 295:1 300:1 305:1 318:1 324:1 329:1 353:1 365:1 383:1 387:1 408:1 420:1 425:1 451:1 452:1 463:1 475:1 488:1 495:1 510:1 558:1 566:1 575:1 581:1 598:1 601:1 640:1 644:1 645:1 653:1 671:1 725:1 746:1 750:1 752:1 755:1 757:1 758:1 773:1 792:1 793:1 795:1 803:1 807:1 808:1 815:1 817:1 818:1 847:1 854:1 873:1 874:1 881:1 887:1 891:1 894:1 936:1 945:1 981:1 987:1 990:1 993:1 996:1 1005:1 1021:1 1029:1 1071:1 1083:1 1092:1 1105:1 1386:1 1432:1 1439:1 1441:1 1481:1 1514:1 1568:1 1579:1 1583:1 1591:1 1597:1 1599:1 1612:1 1626:1 1698:1 1708:1 1733:1 1750:1 1836:1 1840:1 1921:1 1926:1 1928:1 2014:1 2027:1 2042:1 2078:1 2109:1 2305:1 2368:1 2372:1 2373:1 2417:1 2462:1 2563:1 2616:1 2630:1 2682:1 2771:1 2801:1 2869:1 2997:1 3087:1 3100:1 3120:1 3134:1 3172:1 3196:1 3205:1 3244:1 3290:1 3330:1 3331:1 3467:1 3524:1 3584:1 3607:1 3709:1 3875:1 3915:1 4044:1 4065:1 4302:1 4341:1 4361:1 4588:1 4994:1 5170:1 5394:1 5431:1 5439:1 5500:1 5529:1 5683:1 5833:1 5917:1 5929:1 5963:1 6006:1 6047:1 6207:1 6286:1 6291:1 6371:1 6497:1 6806:1 7044:1 7076:1 7137:1 7237:1 7390:1 7932:1 7994:1 8318:1 8438:1 8632:1 8864:1 9007:1 9095:1 9703:1 9722:1 10133:1 10178:1 #
0.0019361382047704876838839505026613 2:1 3:1 5:1 7:1 8:1 11:1 12:1 13:1 15:1 16:1 17:1 18:1 20:1 21:1 22:1 23:1 24:1 26:1 27:1 28:1 29:1 30:1 31:1 32:1 34:1 38:1 39:1 42:1 44:1 45:1 47:1 49:1 50:1 51:1 53:1 54:1 57:1 58:1 59:1 62:1 63:1 65:1 66:1 67:1 68:1 69:1 77:1 78:1 79:1 82:1 84:1 86:1 87:1 89:1 90:1 94:1 98:1 101:1 102:1 103:1 104:1 105:1 106:1 107:1 111:1 112:1 114:1 115:1 116:1 117:1 119:1 122:1 123:1 127:1 130:1 131:1 142:1 146:1 149:1 153:1 154:1 156:1 158:1 167:1 169:1 170:1 171:1 172:1 174:1 182:1 187:1 188:1 190:1 195:1 196:1 202:1 205:1 207:1 210:1 211:1 212:1 213:1 218:1 221:1 223:1 227:1 230:1 236:1 241:1 246:1 251:1 252:1 258:1 264:1 277:1 279:1 283:1 285:1 302:1 314:1 323:1 329:1 331:1 333:1 340:1 356:1 365:1 369:1 378:1 381:1 382:1 383:1 384:1 389:1 401:1 414:1 417:1 419:1 425:1 434:1 446:1 452:1 477:1 478:1 480:1 481:1 491:1 502:1 507:1 516:1 523:1 529:1 530:1 533:1 534:1 553:1 554:1 564:1 566:1 581:1 598:1 599:1 605:1 616:1 621:1 628:1 631:1 640:1 642:1 644:1 649:1 651:1 656:1 664:1 674:1 688:1 710:1 719:1 755:1 758:1 761:1 766:1 777:1 802:1 807:1 808:1 828:1 829:1 857:1 873:1 882:1 937:1 955:1 964:1 987:1 993:1 996:1 1009:1 1039:1 1071:1 1094:1 1096:1 1105:1 1108:1 1129:1 1150:1 1161:1 1180:1 1182:1 1185:1 1310:1 1383:1 1391:1 1416:1 1432:1 1448:1 1450:1 1457:1 1460:1 1480:1 1481:1 1506:1 1511:1 1565:1 1577:1 1584:1 1595:1 1620:1 1626:1 1697:1 1705:1 1708:1 1755:1 1788:1 1827:1 1840:1 1873:1 1881:1 1887:1 1959:1 1986:1 2053:1 2104:1 2107:1 2137:1 2140:1 2177:1 2183:1 2213:1 2224:1 2296:1 2356:1 2372:1 2471:1 2484:1 2488:1 2547:1 2548:1 2589:1 2774:1 2775:1 2936:1 2953:1 2996:1 3040:1 3089:1 3123:1 3144:1 3172:1 3221:1 3250:1 3287:1 3439:1 3904:1 3958:1 4044:1 4081:1 4093:1 4234:1 4279:1 4302:1 4313:1 4403:1 4406:1 4409:1 4583:1 4586:1 4679:1 4699:1 4853:1 4921:1 4939:1 4958:1 4975:1 5170:1 5405:1 5431:1 5439:1 5444:1 5558:1 5624:1 5735:1 5800:1 5880:1 5882:1 6047:1 6368:1 6371:1 6513:1 6625:1 7390:1 7703:1 7833:1 7906:1 7994:1 8062:1 8105:1 8616:1 8632:1 9165:1 9281:1 9442:1 9560:1 9580:1 9626:1 10133:1 10301:1 10442:1 10527:1 10640:1 10677:1 10697:1 #
0.0026139363672670582090795665664018 3:1 8:1 11:1 12:1 13:1 15:1 16:1 18:1 20:1 22:1 24:1 25:1 26:1 27:1 29:1 30:1 32:1 34:1 36:1 38:1 41:1 43:1 50:1 51:1 52:1 53:1 55:1 56:1 62:1 63:1 66:1 68:1 71:1 73:1 84:1 86:1 94:1 98:1 102:1 103:1 104:1 106:1 107:1 112:1 114:1 116:1 117:1 119:1 124:1 125:1 127:1 130:1 131:1 137:1 148:1 154:1 155:1 159:1 167:1 170:1 171:1 181:1 188:1 190:1 199:1 202:1 205:1 210:1 215:1 218:1 222:1 225:1 231:1 235:1 236:1 241:1 244:1 245:1 249:1 264:1 270:1 273:1 275:1 277:1 283:1 295:1 299:1 318:1 322:1 323:1 325:1 329:1 335:1 356:1 365:1 382:1 383:1 414:1 416:1 432:1 446:1 447:1 451:1 452:1 472:1 480:1 488:1 490:1 495:1 496:1 500:1 599:1 603:1 630:1 640:1 642:1 656:1 670:1 671:1 702:1 709:1 725:1 748:1 750:1 755:1 758:1 767:1 788:1 792:1 800:1 816:1 818:1 823:1 840:1 843:1 865:1 881:1 882:1 893:1 899:1 945:1 981:1 987:1 994:1 996:1 1002:1 1105:1 1131:1 1161:1 1226:1 1228:1 1275:1 1279:1 1432:1 1438:1 1442:1 1462:1 1471:1 1476:1 1480:1 1481:1 1500:1 1513:1 1557:1 1597:1 1626:1 1647:1 1733:1 1819:1 1827:1 1840:1 1897:1 1951:1 2014:1 2026:1 2027:1 2053:1 2078:1 2106:1 2267:1 2306:1 2372:1 2373:1 2478:1 2584:1 2616:1 2674:1 2771:1 2785:1 3100:1 3134:1 3172:1 3196:1 3197:1 3234:1 3242:1 3245:1 3287:1 3519:1 3607:1 3615:1 3883:1 3915:1 4194:1 4327:1 4431:1 4497:1 4588:1 4597:1 4814:1 4939:1 4944:1 5082:1 5144:1 5168:1 5189:1 5387:1 5475:1 5588:1 5789:1 5800:1 5887:1 5917:1 6008:1 6111:1 6407:1 6693:1 6989:1 7035:1 7797:1 7826:1 8200:1 8208:1 8826:1 8924:1 9279:1 9703:1 #
-0.0049031117488299346199309702853952 4:1 5:1 6:1 11:1 13:1 15:1 17:1 18:1 20:1 21:1 22:1 24:1 25:1 26:1 29:1 34:1 36:1 41:1 44:1 45:1 46:1 53:1 56:1 57:1 62:1 71:1 73:1 83:1 91:1 93:1 94:1 98:1 102:1 103:1 104:1 114:1 119:1 125:1 127:1 133:1 147:1 153:1 156:1 159:1 161:1 167:1 170:1 171:1 174:1 187:1 190:1 194:1 198:1 209:1 210:1 211:1 218:1 220:1 226:1 232:1 235:1 236:1 240:1 242:1 255:1 264:1 275:1 277:1 282:1 283:1 291:1 331:1 341:1 347:1 354:1 365:1 382:1 387:1 414:1 434:1 446:1 451:1 480:1 488:1 495:1 500:1 502:1 503:1 510:1 523:1 531:1 566:1 581:1 598:1 599:1 605:1 611:1 612:1 642:1 653:1 664:1 728:1 750:1 755:1 758:1 767:1 788:1 800:1 808:1 815:1 817:1 843:1 882:1 887:1 891:1 893:1 922:1 945:1 987:1 994:1 1021:1 1047:1 1058:1 1093:1 1105:1 1160:1 1275:1 1333:1 1386:1 1432:1 1434:1 1493:1 1508:1 1514:1 1626:1 1697:1 1761:1 1827:1 1840:1 2078:1 2106:1 2109:1 2203:1 2224:1 2265:1 2292:1 2368:1 2372:1 2462:1 2548:1 2564:1 2584:1 2599:1 2616:1 2797:1 2959:1 3128:1 3172:1 3196:1 3245:1 3275:1 3287:1 3556:1 3584:1 3883:1 3920:1 4200:1 4279:1 4302:1 4431:1 4483:1 4497:1 4588:1 4814:1 4929:1 5009:1 5076:1 5148:1 5267:1 5431:1 5640:1 5758:1 5782:1 5789:1 5826:1 5856:1 5935:1 6006:1 6106:1 6111:1 6139:1 6144:1 6324:1 6371:1 7286:1 7295:1 7365:1 7691:1 7797:1 7813:1 8115:1 8190:1 8200:1 8208:1 8632:1 9174:1 9178:1 9703:1 10178:1 10237:1 #
-0.0024227335701978826645874853795704 5:1 6:1 7:1 8:1 9:1 11:1 12:1 13:1 14:1 15:1 16:1 17:1 18:1 21:1 22:1 23:1 24:1 25:1 26:1 29:1 30:1 31:1 36:1 41:1 50:1 51:1 56:1 62:1 64:1 66:1 70:1 73:1 75:1 77:1 78:1 84:1 85:1 86:1 89:1 90:1 94:1 98:1 99:1 102:1 103:1 104:1 106:1 107:1 110:1 113:1 114:1 118:1 119:1 120:1 125:1 127:1 130:1 144:1 146:1 147:1 154:1 155:1 158:1 159:1 163:1 168:1 169:1 171:1 172:1 176:1 183:1 186:1 188:1 194:1 201:1 203:1 207:1 214:1 218:1 226:1 230:1 231:1 232:1 234:1 236:1 241:1 245:1 246:1 251:1 255:1 264:1 270:1 279:1 288:1 293:1 297:1 300:1 302:1 308:1 312:1 316:1 320:1 332:1 333:1 336:1 341:1 356:1 357:1 364:1 373:1 374:1 375:1 382:1 385:1 387:1 390:1 397:1 404:1 414:1 430:1 434:1 442:1 456:1 472:1 544:1 554:1 566:1 569:1 575:1 601:1 608:1 616:1 643:1 644:1 684:1 690:1 702:1 709:1 719:1 723:1 727:1 755:1 756:1 758:1 760:1 798:1 800:1 814:1 828:1 837:1 842:1 867:1 874:1 894:1 918:1 919:1 921:1 943:1 946:1 964:1 977:1 1007:1 1008:1 1009:1 1012:1 1092:1 1105:1 1118:1 1119:1 1131:1 1137:1 1149:1 1195:1 1206:1 1308:1 1324:1 1381:1 1395:1 1400:1 1422:1 1432:1 1438:1 1484:1 1525:1 1546:1 1579:1 1591:1 1611:1 1622:1 1688:1 1737:1 1741:1 1792:1 1807:1 1840:1 1842:1 1845:1 1880:1 1909:1 1936:1 1969:1 2004:1 2014:1 2038:1 2107:1 2119:1 2122:1 2151:1 2183:1 2190:1 2194:1 2257:1 2304:1 2311:1 2375:1 2382:1 2418:1 2439:1 2440:1 2576:1 2588:1 2599:1 2610:1 2718:1 2778:1 2819:1 2912:1 2944:1 2956:1 3052:1 3078:1 3100:1 3112:1 3114:1 3122:1 3126:1 3372:1 3452:1 3465:1 3544:1 3585:1 3609:1 3744:1 3834:1 4059:1 4202:1 4285:1 4302:1 4333:1 4338:1 4410:1 4411:1 4483:1 4609:1 4624:1 4642:1 4679:1 4701:1 4730:1 4821:1 4901:1 4961:1 5073:1 5079:1 5163:1 5220:1 5405:1 5913:1 6019:1 6112:1 6163:1 6181:1 6265:1 6357:1 6363:1 6497:1 6596:1 6795:1 6930:1 6966:1 7326:1 7359:1 7469:1 7521:1 7785:1 7932:1 8127:1 8139:1 8267:1 8295:1 8382:1 8748:1 8965:1 8980:1 9007:1 9165:1 9278:1 9455:1 9486:1 9560:1 9580:1 10140:1 10261:1 10301:1 10576:1 #
-0.0017392688377274646317760531388785 1:1 2:1 4:1 8:1 10:1 11:1 12:1 13:1 14:1 15:1 16:1 18:1 19:1 20:1 22:1 24:1 25:1 26:1 27:1 30:1 34:1 35:1 36:1 37:1 39:1 40:1 44:1 45:1 48:1 51:1 52:1 56:1 57:1 59:1 62:1 65:1 66:1 67:1 68:1 69:1 72:1 73:1 76:1 79:1 80:1 84:1 89:1 90:1 91:1 94:1 101:1 102:1 103:1 104:1 106:1 107:1 114:1 115:1 116:1 124:1 126:1 130:1 134:1 147:1 154:1 155:1 160:1 163:1 168:1 170:1 171:1 174:1 175:1 178:1 186:1 188:1 195:1 197:1 199:1 202:1 204:1 215:1 217:1 220:1 225:1 227:1 230:1 231:1 232:1 233:1 241:1 242:1 245:1 246:1 247:1 251:1 253:1 255:1 257:1 264:1 265:1 268:1 273:1 277:1 278:1 279:1 285:1 291:1 295:1 297:1 309:1 315:1 342:1 346:1 350:1 356:1 357:1 364:1 386:1 396:1 399:1 400:1 402:1 410:1 414:1 423:1 434:1 435:1 436:1 440:1 441:1 452:1 469:1 471:1 472:1 495:1 496:1 500:1 501:1 503:1 510:1 541:1 554:1 566:1 608:1 618:1 626:1 630:1 631:1 646:1 653:1 670:1 674:1 701:1 709:1 740:1 758:1 771:1 777:1 793:1 794:1 795:1 806:1 811:1 817:1 819:1 828:1 854:1 866:1 885:1 891:1 932:1 946:1 952:1 954:1 960:1 1005:1 1008:1 1009:1 1012:1 1021:1 1032:1 1058:1 1075:1 1131:1 1150:1 1165:1 1167:1 1170:1 1230:1 1231:1 1284:1 1305:1 1310:1 1375:1 1385:1 1397:1 1398:1 1402:1 1425:1 1441:1 1458:1 1462:1 1471:1 1480:1 1527:1 1534:1 1550:1 1591:1 1638:1 1649:1 1719:1 1756:1 1796:1 1840:1 1842:1 1964:1 1999:1 2014:1 2051:1 2053:1 2091:1 2120:1 2183:1 2199:1 2252:1 2272:1 2300:1 2455:1 2563:1 2588:1 2714:1 2722:1 2818:1 2999:1 3066:1 3097:1 3100:1 3153:1 3180:1 3235:1 3400:1 3461:1 3487:1 3616:1 3625:1 3709:1 3801:1 3869:1 3907:1 3922:1 3936:1 4087:1 4096:1 4138:1 4161:1 4228:1 4264:1 4280:1 4312:1 4313:1 4327:1 4381:1 4441:1 4472:1 4513:1 4534:1 4611:1 4624:1 4747:1 4770:1 4862:1 4948:1 4956:1 5036:1 5096:1 5102:1 5104:1 5114:1 5138:1 5255:1 5402:1 5423:1 5557:1 5571:1 5655:1 5705:1 5908:1 5961:1 6054:1 6099:1 6185:1 6269:1 6315:1 6329:1 6354:1 6515:1 6537:1 6923:1 6930:1 7256:1 7326:1 7508:1 7548:1 7590:1 7684:1 7826:1 7871:1 7876:1 7932:1 8151:1 8218:1 8389:1 8738:1 8821:1 8850:1 8942:1 8964:1 9085:1 9190:1 9202:1 9730:1 10099:1 10131:1 10170:1 10206:1 10267:1 10338:1 #
-0.0014406817542191936894202530794473 2:1 3:1 5:1 7:1 10:1 11:1 12:1 13:1 14:1 15:1 16:1 17:1 18:1 19:1 21:1 22:1 25:1 30:1 32:1 35:1 36:1 41:1 45:1 46:1 48:1 49:1 51:1 54:1 62:1 72:1 74:1 79:1 81:1 88:1 90:1 92:1 98:1 99:1 103:1 108:1 110:1 113:1 116:1 120:1 124:1 125:1 135:1 136:1 151:1 166:1 172:1 179:1 186:1 189:1 214:1 216:1 222:1 226:1 232:1 245:1 248:1 252:1 259:1 270:1 276:1 289:1 292:1 312:1 315:1 319:1 355:1 387:1 404:1 421:1 434:1 436:1 465:1 468:1 476:1 496:1 515:1 522:1 530:1 564:1 610:1 640:1 652:1 695:1 726:1 783:1 801:1 802:1 805:1 823:1 866:1 904:1 905:1 920:1 965:1 1127:1 1142:1 1163:1 1200:1 1378:1 1380:1 1386:1 1425:1 1433:1 1457:1 1859:1 1946:1 2004:1 2069:1 2074:1 2111:1 2193:1 2236:1 2301:1 2325:1 2331:1 2396:1 2442:1 2551:1 2936:1 3305:1 3386:1 3576:1 3698:1 3731:1 3899:1 3900:1 3929:1 4051:1 4068:1 4468:1 4684:1 4814:1 4818:1 5534:1 5593:1 5702:1 5704:1 5836:1 6111:1 6776:1 7224:1 7718:1 8155:1 8188:1 8341:1 8418:1 8547:1 8927:1 9177:1 9288:1 9459:1 9534:1 10327:1 10641:1 #
-0.0030374548171339856711403726308163 1:1 2:1 3:1 5:1 7:1 8:1 9:1 11:1 12:1 13:1 14:1 15:1 16:1 17:1 18:1 20:1 21:1 22:1 23:1 24:1 25:1 26:1 27:1 29:1 30:1 31:1 32:1 36:1 46:1 47:1 49:1 51:1 52:1 61:1 62:1 71:1 73:1 75:1 77:1 79:1 80:1 83:1 84:1 86:1 90:1 94:1 96:1 98:1 99:1 102:1 103:1 104:1 106:1 107:1 109:1 114:1 116:1 119:1 120:1 126:1 130:1 132:1 133:1 158:1 163:1 164:1 167:1 170:1 174:1 175:1 178:1 182:1 185:1 187:1 202:1 207:1 218:1 221:1 223:1 227:1 234:1 243:1 244:1 249:1 255:1 260:1 264:1 273:1 277:1 288:1 289:1 294:1 308:1 322:1 323:1 329:1 333:1 340:1 341:1 344:1 351:1 365:1 389:1 399:1 400:1 408:1 416:1 419:1 425:1 429:1 434:1 448:1 451:1 456:1 459:1 463:1 464:1 465:1 475:1 490:1 491:1 497:1 526:1 529:1 533:1 575:1 615:1 622:1 628:1 634:1 636:1 640:1 644:1 647:1 649:1 659:1 663:1 669:1 679:1 717:1 749:1 764:1 776:1 793:1 802:1 810:1 812:1 815:1 840:1 843:1 862:1 878:1 892:1 894:1 899:1 947:1 949:1 962:1 983:1 988:1 1028:1 1032:1 1070:1 1071:1 1132:1 1147:1 1160:1 1180:1 1205:1 1257:1 1284:1 1369:1 1373:1 1374:1 1376:1 1385:1 1418:1 1427:1 1428:1 1438:1 1455:1 1462:1 1476:1 1492:1 1518:1 1548:1 1570:1 1687:1 1689:1 1729:1 1735:1 1748:1 1750:1 1827:1 1852:1 1888:1 1894:1 1927:1 1931:1 1937:1 1976:1 1986:1 2037:1 2052:1 2093:1 2097:1 2113:1 2168:1 2193:1 2282:1 2294:1 2320:1 2322:1 2363:1 2382:1 2442:1 2470:1 2484:1 2613:1 2679:1 2754:1 2833:1 2936:1 3086:1 3114:1 3149:1 3207:1 3262:1 3575:1 3607:1 3624:1 3633:1 3690:1 3707:1 3750:1 3845:1 3869:1 3964:1 4024:1 4055:1 4092:1 4191:1 4210:1 4234:1 4252:1 4293:1 4414:1 4500:1 4559:1 4726:1 4864:1 4873:1 4978:1 5011:1 5118:1 5189:1 5226:1 5276:1 5343:1 5369:1 5480:1 5483:1 5576:1 5591:1 5742:1 5936:1 6196:1 6382:1 6851:1 6946:1 7196:1 7251:1 7293:1 7372:1 7390:1 7583:1 7726:1 7735:1 7838:1 8076:1 8100:1 8115:1 8153:1 8395:1 9032:1 9337:1 9342:1 9635:1 9804:1 #
0.0019644571845641471338761441245424 1:1 5:1 7:1 12:1 15:1 16:1 18:1 22:1 23:1 26:1 27:1 30:1 32:1 36:1 62:1 73:1 75:1 88:1 95:1 103:1 113:1 115:1 123:1 129:1 136:1 141:1 151:1 156:1 170:1 177:1 184:1 191:1 196:1 202:1 218:1 229:1 243:1 266:1 308:1 341:1 360:1 387:1 393:1 395:1 409:1 421:1 430:1 442:1 450:1 464:1 490:1 502:1 523:1 530:1 560:1 606:1 615:1 620:1 635:1 640:1 665:1 669:1 670:1 675:1 698:1 779:1 783:1 784:1 835:1 862:1 879:1 918:1 941:1 949:1 1200:1 1242:1 1259:1 1363:1 1380:1 1397:1 1432:1 1457:1 1473:1 1510:1 1523:1 1643:1 1729:1 1748:1 1855:1 1870:1 2039:1 2133:1 2240:1 2277:1 2344:1 2349:1 2363:1 2401:1 2403:1 2428:1 2448:1 2541:1 2585:1 2751:1 2825:1 3001:1 3040:1 3119:1 3202:1 3204:1 3588:1 3607:1 3630:1 3691:1 3826:1 3871:1 3873:1 4124:1 4281:1 4329:1 4493:1 4882:1 5102:1 5213:1 5492:1 5659:1 5757:1 5800:1 6034:1 6343:1 6351:1 6374:1 6450:1 6528:1 6595:1 7116:1 7513:1 7692:1 8075:1 8762:1 8939:1 9912:1 10371:1 10447:1 #
0.0049031117488299346199309702853952 1:1 5:1 11:1 13:1 15:1 16:1 18:1 22:1 23:1 24:1 25:1 28:1 29:1 30:1 31:1 32:1 34:1 36:1 37:1 38:1 46:1 48:1 52:1 56:1 62:1 64:1 76:1 78:1 81:1 88:1 102:1 104:1 105:1 112:1 114:1 117:1 119:1 126:1 129:1 137:1 141:1 147:1 151:1 153:1 158:1 159:1 163:1 167:1 170:1 177:1 198:1 202:1 213:1 216:1 218:1 231:1 238:1 245:1 264:1 277:1 279:1 282:1 283:1 289:1 292:1 302:1 307:1 322:1 331:1 341:1 359:1 360:1 367:1 390:1 395:1 413:1 416:1 432:1 440:1 442:1 444:1 452:1 472:1 475:1 478:1 495:1 498:1 518:1 530:1 553:1 557:1 564:1 566:1 641:1 653:1 669:1 750:1 754:1 758:1 762:1 798:1 806:1 823:1 831:1 899:1 908:1 929:1 935:1 951:1 1008:1 1037:1 1061:1 1067:1 1105:1 1111:1 1167:1 1180:1 1185:1 1215:1 1230:1 1363:1 1386:1 1395:1 1408:1 1473:1 1481:1 1483:1 1502:1 1522:1 1566:1 1587:1 1676:1 1689:1 1790:1 1806:1 1861:1 1874:1 1928:1 1970:1 1977:1 1999:1 2014:1 2034:1 2053:1 2360:1 2361:1 2401:1 2471:1 2654:1 2987:1 3134:1 3154:1 3295:1 3696:1 3774:1 3872:1 3896:1 4194:1 4210:1 4312:1 4529:1 4630:1 4679:1 5110:1 5160:1 5585:1 5589:1 5596:1 5959:1 7072:1 7108:1 7209:1 7390:1 7478:1 7516:1 8494:1 8703:1 8787:1 8912:1 9626:1 9690:1 10707:1 #
0.0046972925932772932253178588268838 1:1 5:1 7:1 8:1 10:1 11:1 16:1 17:1 18:1 21:1 24:1 25:1 26:1 30:1 36:1 56:1 69:1 73:1 79:1 82:1 84:1 88:1 97:1 98:1 102:1 107:1 116:1 125:1 135:1 147:1 151:1 158:1 160:1 165:1 167:1 174:1 177:1 179:1 184:1 191:1 202:1 203:1 214:1 218:1 230:1 238:1 263:1 270:1 294:1 320:1 359:1 416:1 421:1 423:1 438:1 459:1 530:1 533:1 558:1 620:1 643:1 666:1 758:1 764:1 854:1 900:1 904:1 949:1 961:1 1033:1 1098:1 1105:1 1138:1 1234:1 1305:1 1397:1 1432:1 1436:1 1473:1 1491:1 1510:1 1536:1 1549:1 1562:1 1574:1 1593:1 1646:1 1676:1 1697:1 1798:1 1816:1 1850:1 1855:1 1929:1 1943:1 1987:1 2083:1 2093:1 2133:1 2277:1 2363:1 2403:1 2434:1 2454:1 2471:1 2632:1 2660:1 2722:1 2739:1 2807:1 2859:1 3031:1 3059:1 3170:1 3197:1 3663:1 3743:1 3807:1 3870:1 3968:1 4041:1 4329:1 4417:1 4486:1 4548:1 4704:1 4727:1 4917:1 5102:1 5656:1 6438:1 6488:1 6668:1 6959:1 7058:1 7065:1 7132:1 7430:1 7629:1 7777:1 8140:1 8390:1 9003:1 9741:1 #
0.0030721338547535612280292571796281 3:1 7:1 8:1 11:1 16:1 18:1 20:1 21:1 22:1 23:1 24:1 29:1 30:1 40:1 44:1 45:1 52:1 57:1 62:1 68:1 73:1 82:1 84:1 88:1 92:1 102:1 106:1 114:1 118:1 147:1 149:1 158:1 170:1 187:1 196:1 202:1 216:1 228:1 231:1 237:1 277:1 278:1 289:1 333:1 341:1 369:1 475:1 553:1 566:1 666:1 749:1 758:1 815:1 829:1 830:1 891:1 1008:1 1024:1 1105:1 1111:1 1172:1 1385:1 1432:1 1457:1 1471:1 1557:1 1634:1 1643:1 1676:1 1850:1 1855:1 1871:1 1894:1 1969:1 2091:1 2277:1 2417:1 2564:1 2683:1 2714:1 2716:1 2739:1 2781:1 3073:1 3100:1 3114:1 3149:1 3172:1 3394:1 3723:1 4181:1 4302:1 4312:1 4406:1 4757:1 4841:1 4912:1 5220:1 5342:1 5608:1 5640:1 5977:1 6029:1 6035:1 6315:1 6379:1 6579:1 6703:1 6989:1 7072:1 7336:1 7497:1 7836:1 8164:1 8272:1 8552:1 8570:1 8879:1 10000:1 10389:1 10640:1 #
-0.0049031117488299346199309702853952 1:1 7:1 11:1 12:1 17:1 20:1 22:1 23:1 24:1 25:1 29:1 30:1 31:1 32:1 34:1 39:1 48:1 49:1 50:1 51:1 54:1 66:1 71:1 72:1 81:1 86:1 87:1 95:1 102:1 103:1 106:1 114:1 125:1 129:1 150:1 152:1 156:1 158:1 161:1 165:1 168:1 187:1 191:1 196:1 202:1 221:1 228:1 229:1 230:1 238:1 242:1 245:1 251:1 258:1 265:1 277:1 279:1 299:1 312:1 329:1 332:1 345:1 364:1 374:1 375:1 385:1 391:1 393:1 398:1 399:1 403:1 409:1 432:1 435:1 448:1 450:1 457:1 459:1 477:1 533:1 558:1 564:1 614:1 630:1 641:1 670:1 709:1 723:1 817:1 821:1 863:1 881:1 892:1 926:1 994:1 1013:1 1024:1 1102:1 1105:1 1150:1 1279:1 1402:1 1432:1 1536:1 1591:1 1597:1 1626:1 1697:1 1701:1 1761:1 1800:1 1853:1 1936:1 1949:1 1985:1 2051:1 2053:1 2061:1 2240:1 2249:1 2360:1 2439:1 2448:1 2454:1 2631:1 2702:1 2734:1 2819:1 2957:1 2990:1 3086:1 3095:1 3120:1 3256:1 3300:1 3416:1 3485:1 3528:1 3552:1 3680:1 3709:1 3905:1 4059:1 4081:1 4238:1 4265:1 4268:1 4285:1 4366:1 4409:1 4466:1 4470:1 4754:1 4963:1 5261:1 5778:1 6167:1 6368:1 6540:1 6560:1 6885:1 7433:1 7487:1 7604:1 7741:1 7791:1 7910:1 7916:1 7935:1 8264:1 8338:1 8593:1 8910:1 9000:1 9351:1 9426:1 9813:1 10106:1 #
-0.0049031117488299346199309702853952 5:1 7:1 9:1 10:1 11:1 12:1 13:1 16:1 17:1 20:1 22:1 23:1 28:1 29:1 30:1 31:1 32:1 33:1 34:1 36:1 41:1 44:1 49:1 50:1 51:1 61:1 63:1 65:1 66:1 68:1 70:1 77:1 78:1 84:1 85:1 90:1 94:1 95:1 98:1 102:1 104:1 114:1 118:1 119:1 124:1 129:1 132:1 135:1 144:1 147:1 151:1 153:1 158:1 164:1 167:1 168:1 170:1 172:1 182:1 202:1 213:1 218:1 220:1 223:1 226:1 228:1 231:1 233:1 281:1 288:1 292:1 301:1 319:1 336:1 339:1 341:1 345:1 357:1 387:1 406:1 419:1 425:1 471:1 472:1 493:1 515:1 529:1 545:1 564:1 566:1 569:1 598:1 605:1 632:1 653:1 663:1 700:1 702:1 755:1 758:1 762:1 776:1 779:1 831:1 881:1 890:1 973:1 982:1 986:1 990:1 994:1 998:1 1012:1 1034:1 1049:1 1093:1 1096:1 1105:1 1111:1 1114:1 1186:1 1361:1 1424:1 1432:1 1452:1 1459:1 1462:1 1471:1 1473:1 1476:1 1512:1 1514:1 1534:1 1549:1 1565:1 1617:1 1643:1 1650:1 1838:1 1843:1 1850:1 1874:1 1894:1 1949:1 1997:1 2091:1 2158:1 2163:1 2170:1 2183:1 2304:1 2360:1 2428:1 2462:1 2537:1 2568:1 2654:1 2723:1 2739:1 2778:1 3050:1 3102:1 3134:1 3144:1 3194:1 3342:1 3357:1 3454:1 3474:1 3536:1 3584:1 3594:1 3668:1 3706:1 3833:1 3893:1 3955:1 4065:1 4123:1 4161:1 4225:1 4264:1 4293:1 4405:1 4518:1 4545:1 4679:1 4866:1 5028:1 5030:1 5138:1 5345:1 5660:1 5911:1 6315:1 6560:1 6609:1 6630:1 7110:1 7377:1 7485:1 7741:1 8265:1 8718:1 9044:1 9335:1 9351:1 9361:1 9397:1 9423:1 9551:1 9722:1 10215:1 #
-0.0049031117488299346199309702853952 4:1 5:1 7:1 8:1 9:1 11:1 12:1 13:1 16:1 17:1 18:1 20:1 21:1 23:1 24:1 27:1 29:1 30:1 36:1 38:1 40:1 42:1 45:1 51:1 56:1 59:1 61:1 62:1 64:1 66:1 68:1 71:1 77:1 78:1 79:1 82:1 84:1 85:1 89:1 93:1 94:1 98:1 99:1 102:1 103:1 104:1 105:1 106:1 114:1 119:1 123:1 127:1 129:1 149:1 152:1 155:1 158:1 167:1 169:1 170:1 171:1 176:1 183:1 196:1 198:1 206:1 207:1 208:1 210:1 211:1 212:1 213:1 216:1 218:1 222:1 224:1 228:1 231:1 241:1 242:1 243:1 258:1 260:1 261:1 263:1 264:1 265:1 270:1 277:1 282:1 299:1 300:1 314:1 330:1 335:1 336:1 340:1 341:1 343:1 347:1 356:1 364:1 369:1 372:1 376:1 378:1 391:1 393:1 404:1 422:1 423:1 424:1 425:1 428:1 432:1 434:1 436:1 443:1 448:1 452:1 477:1 480:1 493:1 497:1 533:1 569:1 595:1 598:1 601:1 608:1 630:1 631:1 642:1 653:1 669:1 693:1 719:1 727:1 749:1 750:1 752:1 755:1 761:1 772:1 795:1 797:1 844:1 849:1 874:1 882:1 885:1 888:1 908:1 944:1 945:1 947:1 962:1 964:1 973:1 994:1 1048:1 1096:1 1105:1 1114:1 1121:1 1142:1 1161:1 1206:1 1424:1 1432:1 1435:1 1438:1 1454:1 1514:1 1549:1 1652:1 1660:1 1803:1 1836:1 1868:1 1909:1 1952:1 2011:1 2020:1 2059:1 2135:1 2170:1 2197:1 2206:1 2244:1 2304:1 2372:1 2415:1 2418:1 2454:1 2455:1 2462:1 2471:1 2634:1 2705:1 2813:1 2912:1 2938:1 3084:1 3102:1 3221:1 3316:1 3457:1 3584:1 3643:1 3707:1 3719:1 3759:1 3801:1 3807:1 3814:1 4012:1 4016:1 4055:1 4335:1 4356:1 4357:1 4359:1 4470:1 4631:1 4636:1 4661:1 4810:1 5150:1 5177:1 5478:1 5661:1 5715:1 6088:1 6249:1 6315:1 6382:1 6895:1 7062:1 7143:1 7286:1 7288:1 7491:1 7538:1 7579:1 7614:1 7768:1 7788:1 7856:1 7922:1 8767:1 8873:1 9143:1 9323:1 9361:1 9580:1 9692:1 10130:1 10412:1 10564:1 #
-0.0049031117488299346199309702853952 1:1 5:1 6:1 7:1 8:1 10:1 11:1 12:1 16:1 17:1 20:1 21:1 22:1 23:1 24:1 25:1 29:1 30:1 32:1 35:1 39:1 43:1 44:1 45:1 46:1 47:1 48:1 50:1 51:1 54:1 58:1 72:1 82:1 88:1 97:1 102:1 103:1 106:1 107:1 109:1 114:1 116:1 117:1 125:1 126:1 128:1 135:1 139:1 141:1 158:1 161:1 163:1 164:1 166:1 170:1 174:1 183:1 184:1 185:1 189:1 190:1 191:1 205:1 211:1 216:1 218:1 229:1 237:1 238:1 248:1 249:1 255:1 261:1 274:1 297:1 310:1 315:1 318:1 322:1 339:1 341:1 351:1 359:1 362:1 364:1 382:1 387:1 395:1 407:1 409:1 423:1 426:1 434:1 452:1 463:1 467:1 480:1 500:1 503:1 510:1 523:1 527:1 562:1 567:1 570:1 598:1 603:1 615:1 618:1 625:1 628:1 629:1 640:1 642:1 666:1 698:1 746:1 755:1 784:1 786:1 809:1 839:1 840:1 843:1 861:1 868:1 874:1 888:1 889:1 896:1 904:1 935:1 991:1 992:1 996:1 1016:1 1096:1 1105:1 1112:1 1122:1 1143:1 1180:1 1188:1 1258:1 1377:1 1397:1 1412:1 1439:1 1452:1 1501:1 1537:1 1549:1 1584:1 1606:1 1627:1 1676:1 1795:1 1803:1 1850:1 1872:1 1881:1 1894:1 1911:1 1997:1 2086:1 2132:1 2174:1 2250:1 2409:1 2413:1 2442:1 2454:1 2542:1 2588:1 2739:1 2811:1 2971:1 3048:1 3050:1 3102:1 3134:1 3221:1 3295:1 3297:1 3562:1 3566:1 3589:1 3814:1 3836:1 3843:1 3882:1 4092:1 4181:1 4236:1 4313:1 4409:1 4652:1 4683:1 4747:1 4790:1 5102:1 5196:1 5655:1 5761:1 5836:1 5877:1 6040:1 6349:1 6446:1 6821:1 7182:1 7236:1 7352:1 7471:1 7620:1 7643:1 7666:1 7757:1 7758:1 8045:1 8287:1 8632:1 8644:1 9063:1 9103:1 9423:1 9551:1 9688:1 9704:1 10049:1 10184:1 10264:1 10346:1 10379:1 #
0.0049031117488299346199309702853952 1:1 2:1 6:1 7:1 8:1 9:1 11:1 12:1 13:1 14:1 15:1 17:1 18:1 19:1 20:1 22:1 24:1 25:1 29:1 30:1 31:1 32:1 36:1 52:1 53:1 59:1 60:1 62:1 66:1 73:1 74:1 75:1 81:1 82:1 84:1 85:1 86:1 91:1 94:1 98:1 101:1 102:1 103:1 104:1 110:1 112:1 113:1 114:1 115:1 117:1 119:1 122:1 124:1 125:1 127:1 128:1 131:1 138:1 142:1 148:1 149:1 161:1 170:1 172:1 181:1 185:1 187:1 199:1 200:1 202:1 215:1 222:1 232:1 242:1 243:1 244:1 266:1 276:1 277:1 283:1 287:1 296:1 318:1 325:1 326:1 333:1 335:1 341:1 343:1 352:1 358:1 365:1 382:1 388:1 396:1 401:1 408:1 410:1 432:1 436:1 440:1 447:1 451:1 452:1 480:1 481:1 484:1 488:1 495:1 544:1 553:1 598:1 611:1 626:1 628:1 653:1 664:1 702:1 716:1 725:1 745:1 750:1 758:1 767:1 788:1 799:1 800:1 805:1 806:1 814:1 818:1 827:1 843:1 847:1 873:1 878:1 882:1 899:1 943:1 945:1 964:1 987:1 989:1 994:1 1006:1 1009:1 1021:1 1105:1 1160:1 1161:1 1165:1 1180:1 1226:1 1232:1 1275:1 1369:1 1383:1 1386:1 1408:1 1432:1 1439:1 1445:1 1457:1 1527:1 1529:1 1556:1 1583:1 1609:1 1620:1 1621:1 1626:1 1646:1 1698:1 1750:1 1761:1 1808:1 1907:1 2027:1 2058:1 2062:1 2078:1 2109:1 2131:1 2192:1 2304:1 2372:1 2425:1 2439:1 2441:1 2599:1 2679:1 2698:1 2715:1 2753:1 2833:1 2906:1 3038:1 3098:1 3180:1 3237:1 3245:1 3394:1 3463:1 3476:1 3584:1 3614:1 3782:1 4102:1 4183:1 4196:1 4203:1 4231:1 4234:1 4451:1 4529:1 4815:1 4976:1 5339:1 5387:1 5420:1 5692:1 5700:1 5789:1 6006:1 6343:1 6358:1 6720:1 6856:1 7062:1 7206:1 7255:1 7286:1 7433:1 8142:1 8225:1 8510:1 8543:1 8634:1 8727:1 9727:1 9881:1 9983:1 10230:1 10237:1 10266:1 10520:1 10526:1 10617:1 #
0.0049031117488299346199309702853952 5:1 8:1 9:1 11:1 12:1 14:1 15:1 16:1 17:1 18:1 19:1 20:1 22:1 23:1 25:1 29:1 30:1 31:1 38:1 40:1 44:1 46:1 48:1 56:1 59:1 61:1 62:1 64:1 66:1 79:1 82:1 84:1 89:1 90:1 91:1 94:1 96:1 98:1 99:1 102:1 103:1 104:1 106:1 114:1 118:1 124:1 127:1 129:1 135:1 138:1 149:1 152:1 153:1 155:1 163:1 164:1 165:1 172:1 179:1 187:1 195:1 197:1 198:1 207:1 213:1 216:1 218:1 222:1 227:1 228:1 231:1 240:1 241:1 242:1 244:1 264:1 265:1 268:1 273:1 275:1 278:1 285:1 295:1 300:1 319:1 322:1 323:1 340:1 341:1 357:1 368:1 378:1 389:1 401:1 404:1 405:1 434:1 436:1 450:1 456:1 464:1 502:1 510:1 527:1 533:1 544:1 553:1 595:1 630:1 646:1 651:1 653:1 666:1 700:1 719:1 724:1 746:1 750:1 752:1 755:1 758:1 762:1 792:1 795:1 828:1 840:1 843:1 849:1 851:1 874:1 877:1 894:1 897:1 932:1 934:1 935:1 943:1 945:1 952:1 964:1 972:1 985:1 991:1 994:1 1008:1 1033:1 1060:1 1072:1 1078:1 1092:1 1105:1 1111:1 1120:1 1160:1 1161:1 1275:1 1280:1 1375:1 1414:1 1446:1 1462:1 1466:1 1593:1 1784:1 1788:1 1909:1 2053:1 2156:1 2415:1 2420:1 2439:1 2442:1 2546:1 2718:1 2944:1 3152:1 3221:1 3441:1 3552:1 3706:1 3762:1 3799:1 3801:1 3912:1 4014:1 4055:1 4092:1 4194:1 4341:1 4498:1 4692:1 4921:1 4929:1 5107:1 5131:1 5189:1 5220:1 5428:1 5596:1 5834:1 6112:1 6526:1 7276:1 7506:1 7932:1 8109:1 8244:1 8304:1 8397:1 8405:1 8516:1 8840:1 9007:1 9124:1 9180:1 9448:1 9560:1 9940:1 #
0.0017474375555251121447386530860513 6:1 7:1 13:1 15:1 16:1 20:1 22:1 23:1 24:1 25:1 28:1 29:1 30:1 31:1 33:1 34:1 36:1 39:1 41:1 46:1 50:1 52:1 54:1 57:1 62:1 71:1 78:1 79:1 81:1 84:1 90:1 94:1 101:1 102:1 103:1 104:1 113:1 119:1 124:1 137:1 153:1 167:1 177:1 199:1 202:1 207:1 210:1 215:1 216:1 218:1 222:1 232:1 236:1 244:1 277:1 279:1 283:1 295:1 300:1 301:1 425:1 436:1 451:1 452:1 480:1 495:1 628:1 630:1 645:1 664:1 666:1 670:1 728:1 750:1 802:1 830:1 891:1 899:1 926:1 945:1 955:1 1002:1 1008:1 1105:1 1111:1 1161:1 1180:1 1228:1 1232:1 1283:1 1385:1 1386:1 1432:1 1480:1 1481:1 1527:1 1599:1 1626:1 1633:1 1805:1 1819:1 1855:1 1897:1 1985:1 2027:1 2042:1 2078:1 2277:1 2357:1 2372:1 2417:1 2484:1 2488:1 2616:1 2652:1 2682:1 2813:1 2904:1 2990:1 3068:1 3120:1 3134:1 3149:1 3172:1 3205:1 3474:1 3519:1 3528:1 3552:1 3584:1 3612:1 3723:1 3775:1 4062:1 4588:1 4679:1 4717:1 5632:1 5833:1 6029:1 6103:1 6416:1 6585:1 6758:1 6935:1 10261:1 10343:1 10389:1 10640:1 #
0.0049031117488299346199309702853952 1:1 2:1 4:1 7:1 8:1 9:1 16:1 17:1 18:1 21:1 23:1 24:1 25:1 26:1 29:1 30:1 31:1 34:1 36:1 39:1 40:1 41:1 44:1 47:1 49:1 52:1 62:1 67:1 68:1 73:1 75:1 79:1 84:1 88:1 89:1 90:1 94:1 95:1 98:1 102:1 105:1 106:1 113:1 114:1 117:1 127:1 130:1 135:1 143:1 147:1 156:1 159:1 167:1 168:1 170:1 174:1 176:1 178:1 184:1 195:1 197:1 202:1 203:1 207:1 211:1 218:1 222:1 225:1 231:1 236:1 238:1 244:1 261:1 264:1 266:1 274:1 277:1 282:1 295:1 299:1 315:1 320:1 323:1 337:1 341:1 374:1 421:1 423:1 448:1 463:1 467:1 479:1 497:1 502:1 530:1 558:1 569:1 615:1 634:1 647:1 668:1 698:1 719:1 728:1 751:1 755:1 758:1 780:1 789:1 816:1 835:1 888:1 945:1 946:1 955:1 957:1 986:1 995:1 999:1 1000:1 1002:1 1009:1 1016:1 1018:1 1026:1 1030:1 1090:1 1101:1 1105:1 1117:1 1138:1 1148:1 1155:1 1172:1 1186:1 1259:1 1279:1 1280:1 1411:1 1432:1 1439:1 1461:1 1514:1 1523:1 1528:1 1553:1 1583:1 1591:1 1649:1 1658:1 1672:1 1720:1 1761:1 1949:1 1950:1 2003:1 2052:1 2064:1 2150:1 2197:1 2213:1 2360:1 2455:1 2462:1 2482:1 2541:1 2558:1 2585:1 2616:1 2716:1 2774:1 2936:1 2990:1 3005:1 3014:1 3086:1 3087:1 3092:1 3098:1 3102:1 3114:1 3123:1 3245:1 3490:1 3620:1 3633:1 3702:1 3872:1 4059:1 4302:1 4329:1 4796:1 4842:1 5070:1 5073:1 5288:1 5399:1 5598:1 5774:1 5834:1 5865:1 5934:1 6163:1 6332:1 6369:1 6374:1 6593:1 6835:1 6917:1 7018:1 7060:1 7377:1 8141:1 8163:1 8335:1 9079:1 9442:1 9536:1 9598:1 9827:1 9868:1 10131:1 10500:1 #
0.00095362663105450135893337293424565 1:1 5:1 8:1 11:1 12:1 13:1 15:1 16:1 17:1 18:1 19:1 20:1 21:1 22:1 23:1 24:1 25:1 29:1 30:1 31:1 32:1 36:1 40:1 44:1 48:1 50:1 54:1 61:1 62:1 66:1 73:1 74:1 75:1 78:1 79:1 85:1 86:1 94:1 98:1 101:1 102:1 103:1 104:1 106:1 113:1 114:1 115:1 119:1 126:1 127:1 131:1 138:1 143:1 153:1 155:1 157:1 159:1 164:1 172:1 176:1 194:1 198:1 202:1 211:1 214:1 215:1 227:1 230:1 232:1 238:1 244:1 261:1 264:1 268:1 277:1 282:1 329:1 333:1 341:1 345:1 352:1 374:1 377:1 407:1 411:1 416:1 436:1 451:1 471:1 480:1 509:1 544:1 628:1 632:1 641:1 653:1 656:1 758:1 762:1 777:1 785:1 789:1 808:1 814:1 815:1 823:1 831:1 843:1 845:1 855:1 890:1 895:1 943:1 964:1 994:1 1021:1 1049:1 1050:1 1084:1 1105:1 1107:1 1128:1 1259:1 1275:1 1310:1 1377:1 1404:1 1413:1 1420:1 1432:1 1438:1 1457:1 1466:1 1487:1 1550:1 1568:1 1587:1 1637:1 1689:1 1744:1 1784:1 1800:1 1842:1 1928:1 1930:1 1951:1 1973:1 1976:1 2136:1 2262:1 2277:1 2294:1 2304:1 2314:1 2347:1 2439:1 2484:1 2664:1 2674:1 2778:1 2936:1 2950:1 2993:1 3128:1 3172:1 3268:1 3319:1 3441:1 3702:1 3706:1 3784:1 3801:1 3877:1 3912:1 4054:1 4070:1 4125:1 4302:1 4367:1 4417:1 4725:1 4912:1 5135:1 5477:1 5531:1 5663:1 5692:1 5720:1 5734:1 5802:1 6006:1 6021:1 6068:1 6237:1 6297:1 6442:1 6594:1 6778:1 6873:1 6926:1 7147:1 7194:1 7600:1 7843:1 8190:1 8200:1 8232:1 8531:1 8748:1 8850:1 8964:1 9001:1 9145:1 9173:1 9212:1 9279:1 9284:1 9441:1 9577:1 9693:1 9954:1 10548:1 10596:1 #
-0.001836016222799218737884996421883 1:1 4:1 6:1 7:1 8:1 11:1 12:1 13:1 16:1 17:1 18:1 20:1 22:1 23:1 24:1 27:1 28:1 29:1 30:1 31:1 32:1 34:1 36:1 38:1 44:1 46:1 50:1 51:1 52:1 53:1 55:1 56:1 58:1 62:1 63:1 66:1 67:1 69:1 70:1 73:1 75:1 79:1 81:1 82:1 86:1 89:1 98:1 102:1 103:1 104:1 111:1 114:1 115:1 125:1 127:1 131:1 137:1 152:1 159:1 161:1 170:1 172:1 176:1 177:1 179:1 183:1 196:1 197:1 202:1 204:1 205:1 213:1 214:1 219:1 232:1 235:1 238:1 244:1 245:1 260:1 270:1 277:1 278:1 279:1 283:1 289:1 291:1 295:1 299:1 300:1 308:1 309:1 312:1 325:1 361:1 379:1 387:1 388:1 394:1 403:1 408:1 432:1 436:1 438:1 443:1 451:1 456:1 471:1 481:1 510:1 631:1 640:1 649:1 656:1 658:1 676:1 688:1 707:1 745:1 750:1 751:1 755:1 758:1 763:1 780:1 792:1 796:1 799:1 802:1 811:1 817:1 847:1 859:1 860:1 891:1 894:1 899:1 945:1 959:1 967:1 987:1 988:1 999:1 1021:1 1027:1 1028:1 1042:1 1046:1 1104:1 1131:1 1137:1 1138:1 1147:1 1148:1 1157:1 1161:1 1180:1 1182:1 1205:1 1232:1 1268:1 1280:1 1374:1 1385:1 1416:1 1432:1 1514:1 1540:1 1556:1 1568:1 1587:1 1591:1 1639:1 1797:1 1923:1 2027:1 2077:1 2233:1 2253:1 2300:1 2344:1 2453:1 2613:1 2664:1 2698:1 2715:1 3043:1 3060:1 3098:1 3126:1 3184:1 3245:1 3266:1 3370:1 3389:1 3552:1 3572:1 3669:1 3700:1 3819:1 3923:1 3932:1 4092:1 4231:1 4271:1 4350:1 4472:1 4521:1 4628:1 4637:1 4641:1 4772:1 4891:1 4949:1 5002:1 5054:1 5092:1 5110:1 5206:1 5232:1 5315:1 5479:1 5960:1 6032:1 6116:1 6127:1 6277:1 6380:1 6629:1 6656:1 6659:1 6793:1 6830:1 6951:1 7044:1 7506:1 7555:1 7652:1 8429:1 8686:1 8775:1 9008:1 9156:1 9551:1 10127:1 10330:1 10641:1 10701:1 #
-0.0046439128901851209688111943307831 1:1 5:1 6:1 8:1 11:1 12:1 15:1 16:1 17:1 20:1 21:1 24:1 25:1 29:1 40:1 51:1 52:1 55:1 59:1 62:1 67:1 75:1 77:1 83:1 84:1 86:1 89:1 90:1 91:1 94:1 95:1 96:1 99:1 101:1 102:1 111:1 114:1 120:1 127:1 137:1 138:1 146:1 147:1 148:1 158:1 159:1 163:1 171:1 176:1 183:1 196:1 207:1 218:1 220:1 221:1 231:1 232:1 242:1 243:1 244:1 250:1 260:1 264:1 270:1 273:1 276:1 277:1 279:1 282:1 283:1 285:1 295:1 300:1 302:1 319:1 322:1 323:1 328:1 329:1 331:1 333:1 341:1 342:1 347:1 374:1 381:1 451:1 452:1 472:1 491:1 495:1 522:1 529:1 575:1 608:1 611:1 616:1 620:1 630:1 642:1 653:1 659:1 663:1 669:1 693:1 719:1 725:1 751:1 752:1 758:1 762:1 777:1 795:1 802:1 807:1 814:1 831:1 843:1 845:1 849:1 873:1 874:1 899:1 921:1 926:1 934:1 945:1 964:1 1012:1 1022:1 1024:1 1025:1 1099:1 1105:1 1131:1 1155:1 1200:1 1231:1 1370:1 1439:1 1476:1 1492:1 1565:1 1570:1 1593:1 1626:1 1642:1 1698:1 1827:1 1836:1 1854:1 1909:1 1928:1 1937:1 1966:1 1986:1 2079:1 2140:1 2150:1 2225:1 2257:1 2375:1 2455:1 2630:1 2681:1 2739:1 2764:1 3004:1 3112:1 3139:1 3172:1 3274:1 3309:1 3681:1 3690:1 3714:1 3904:1 3936:1 4029:1 4110:1 4173:1 4252:1 4288:1 4740:1 5079:1 5147:1 5283:1 5705:1 6068:1 6653:1 7008:1 7118:1 7304:1 7547:1 7576:1 7691:1 7735:1 8105:1 8151:1 8193:1 8318:1 8339:1 8482:1 8510:1 8632:1 8766:1 8821:1 10286:1 #
-0.0049031117488299346199309702853952 1:1 6:1 11:1 12:1 15:1 16:1 17:1 19:1 22:1 24:1 25:1 27:1 28:1 29:1 30:1 31:1 36:1 37:1 38:1 52:1 53:1 54:1 55:1 56:1 62:1 66:1 67:1 73:1 86:1 94:1 102:1 103:1 106:1 112:1 113:1 114:1 125:1 129:1 131:1 139:1 146:1 147:1 155:1 159:1 162:1 167:1 170:1 172:1 177:1 186:1 190:1 195:1 196:1 200:1 202:1 209:1 221:1 222:1 236:1 241:1 242:1 245:1 264:1 277:1 278:1 279:1 308:1 317:1 321:1 323:1 333:1 364:1 396:1 397:1 404:1 408:1 423:1 451:1 452:1 486:1 488:1 515:1 553:1 566:1 630:1 643:1 663:1 676:1 690:1 725:1 727:1 742:1 750:1 755:1 777:1 780:1 798:1 800:1 807:1 816:1 831:1 899:1 943:1 947:1 962:1 964:1 987:1 996:1 1005:1 1009:1 1028:1 1058:1 1067:1 1160:1 1161:1 1164:1 1176:1 1228:1 1383:1 1441:1 1459:1 1462:1 1549:1 1556:1 1568:1 1583:1 1591:1 1632:1 1689:1 1827:1 2014:1 2042:1 2085:1 2122:1 2168:1 2318:1 2370:1 2372:1 3097:1 3196:1 3325:1 3346:1 3370:1 3569:1 3607:1 3709:1 3833:1 4029:1 4161:1 4194:1 4232:1 4288:1 4313:1 4952:1 5170:1 5275:1 5536:1 5612:1 5645:1 5928:1 6362:1 6371:1 6621:1 7021:1 7283:1 7950:1 8338:1 8772:1 9200:1 10532:1 #
-0.0042487869692110916478022808462356 1:1 4:1 5:1 6:1 7:1 8:1 9:1 10:1 11:1 13:1 15:1 16:1 17:1 18:1 20:1 22:1 23:1 24:1 25:1 26:1 27:1 28:1 29:1 30:1 32:1 33:1 34:1 36:1 39:1 41:1 45:1 48:1 50:1 51:1 52:1 54:1 56:1 57:1 62:1 66:1 67:1 68:1 72:1 73:1 75:1 77:1 79:1 80:1 82:1 84:1 85:1 86:1 93:1 94:1 96:1 102:1 103:1 104:1 106:1 112:1 114:1 115:1 117:1 126:1 129:1 131:1 136:1 137:1 138:1 140:1 144:1 146:1 148:1 154:1 156:1 163:1 165:1 170:1 187:1 195:1 202:1 204:1 213:1 218:1 221:1 222:1 230:1 231:1 234:1 236:1 242:1 243:1 244:1 251:1 263:1 268:1 270:1 275:1 277:1 279:1 281:1 286:1 292:1 304:1 318:1 326:1 328:1 341:1 347:1 350:1 356:1 357:1 361:1 377:1 383:1 407:1 415:1 427:1 428:1 430:1 432:1 435:1 445:1 449:1 451:1 452:1 453:1 457:1 463:1 467:1 471:1 481:1 502:1 543:1 544:1 554:1 594:1 598:1 614:1 628:1 629:1 630:1 640:1 647:1 649:1 663:1 671:1 688:1 689:1 725:1 750:1 758:1 762:1 769:1 777:1 780:1 793:1 802:1 806:1 808:1 817:1 843:1 850:1 857:1 892:1 902:1 912:1 928:1 930:1 943:1 962:1 981:1 985:1 989:1 996:1 1008:1 1058:1 1080:1 1092:1 1094:1 1101:1 1112:1 1161:1 1173:1 1199:1 1211:1 1226:1 1258:1 1259:1 1308:1 1372:1 1374:1 1375:1 1386:1 1394:1 1406:1 1421:1 1424:1 1432:1 1438:1 1447:1 1451:1 1457:1 1473:1 1480:1 1483:1 1496:1 1507:1 1514:1 1534:1 1568:1 1570:1 1574:1 1583:1 1644:1 1646:1 1649:1 1697:1 1698:1 1725:1 1748:1 1792:1 1808:1 1819:1 1827:1 1833:1 1882:1 1963:1 1971:1 1976:1 2005:1 2019:1 2021:1 2055:1 2062:1 2085:1 2134:1 2157:1 2168:1 2344:1 2352:1 2396:1 2454:1 2455:1 2462:1 2471:1 2584:1 2586:1 2665:1 2705:1 2713:1 2813:1 2893:1 2936:1 3025:1 3068:1 3089:1 3119:1 3128:1 3148:1 3161:1 3162:1 3204:1 3250:1 3261:1 3394:1 3410:1 3435:1 3449:1 3458:1 3459:1 3465:1 3481:1 3578:1 3668:1 3783:1 3801:1 3807:1 3873:1 3958:1 3964:1 3972:1 3976:1 4026:1 4029:1 4032:1 4161:1 4215:1 4252:1 4262:1 4330:1 4367:1 4373:1 4441:1 4456:1 4457:1 4466:1 4624:1 4630:1 4817:1 4970:1 5024:1 5030:1 5039:1 5121:1 5598:1 5779:1 5791:1 5852:1 5936:1 6147:1 6181:1 6262:1 6657:1 6757:1 6758:1 6818:1 6836:1 7043:1 7181:1 7504:1 7691:1 8021:1 8153:1 8195:1 8379:1 8436:1 8483:1 8546:1 8611:1 8960:1 8972:1 9054:1 9126:1 9152:1 9304:1 9349:1 9358:1 9450:1 9598:1 9649:1 9708:1 10052:1 10088:1 10234:1 10279:1 10321:1 10640:1 10669:1 10677:1 10736:1 #
-0.00085361000900391489042140502618849 1:1 2:1 4:1 5:1 7:1 8:1 11:1 12:1 14:1 15:1 16:1 20:1 22:1 23:1 24:1 25:1 26:1 30:1 31:1 36:1 38:1 40:1 43:1 44:1 52:1 53:1 59:1 61:1 62:1 66:1 71:1 75:1 77:1 81:1 84:1 89:1 90:1 91:1 98:1 102:1 103:1 106:1 107:1 111:1 114:1 116:1 118:1 122:1 130:1 131:1 134:1 136:1 146:1 150:1 153:1 156:1 157:1 159:1 161:1 167:1 170:1 171:1 172:1 177:1 182:1 184:1 186:1 190:1 195:1 197:1 199:1 200:1 207:1 209:1 213:1 220:1 221:1 224:1 230:1 234:1 242:1 243:1 244:1 246:1 255:1 266:1 270:1 273:1 276:1 277:1 278:1 282:1 289:1 293:1 295:1 297:1 299:1 300:1 317:1 342:1 356:1 365:1 391:1 399:1 412:1 414:1 423:1 433:1 435:1 445:1 452:1 462:1 475:1 490:1 502:1 510:1 515:1 516:1 531:1 554:1 601:1 608:1 628:1 630:1 640:1 643:1 644:1 657:1 676:1 688:1 698:1 702:1 708:1 749:1 750:1 751:1 753:1 761:1 767:1 788:1 793:1 795:1 800:1 802:1 803:1 804:1 807:1 809:1 829:1 835:1 859:1 866:1 868:1 874:1 878:1 900:1 910:1 939:1 949:1 965:1 972:1 992:1 997:1 1008:1 1028:1 1032:1 1058:1 1121:1 1131:1 1133:1 1135:1 1231:1 1258:1 1371:1 1425:1 1439:1 1444:1 1446:1 1492:1 1505:1 1506:1 1517:1 1562:1 1679:1 1785:1 1808:1 1861:1 1884:1 1891:1 1955:1 1963:1 1977:1 1999:1 2126:1 2151:1 2192:1 2210:1 2213:1 2214:1 2222:1 2339:1 2382:1 2386:1 2410:1 2542:1 2552:1 2603:1 2664:1 2747:1 2786:1 3072:1 3098:1 3101:1 3128:1 3184:1 3235:1 3244:1 3261:1 3315:1 3367:1 3376:1 3402:1 3604:1 3607:1 3615:1 3620:1 3630:1 3663:1 3709:1 3750:1 3774:1 3840:1 3853:1 3939:1 4014:1 4017:1 4035:1 4104:1 4106:1 4160:1 4217:1 4439:1 4441:1 4472:1 4624:1 4717:1 4759:1 4914:1 5017:1 5044:1 5070:1 5347:1 5505:1 5531:1 5542:1 5802:1 5808:1 5841:1 6019:1 6035:1 6041:1 6127:1 6177:1 6211:1 6268:1 6300:1 6454:1 6778:1 6782:1 6793:1 6877:1 7065:1 7232:1 7354:1 7802:1 7843:1 7858:1 8191:1 8208:1 8420:1 8660:1 8826:1 8835:1 8846:1 9008:1 9117:1 9140:1 9146:1 9321:1 9504:1 9607:1 9650:1 9760:1 9820:1 10343:1 10398:1 10549:1 #
