SVM-light Version V6.02
0 # kernel type
3 # kernel parameter -d 
1 # kernel parameter -g 
1 # kernel parameter -s 
1 # kernel parameter -r 
empty# kernel parameter -u 
10746 # highest feature index 
3553 # number of training documents 
610 # number of support vectors plus 1 
0.70500211 # threshold b, each following line is a SV (starting with alpha*y)
-0.0053720701490375189282588941352969 15:1 16:1 18:1 20:1 21:1 24:1 27:1 29:1 31:1 32:1 71:1 97:1 102:1 130:1 135:1 166:1 172:1 179:1 207:1 322:1 404:1 465:1 466:1 522:1 667:1 1178:1 1882:1 1973:1 2242:1 2624:1 3625:1 3679:1 3743:1 3762:1 4360:1 4462:1 4541:1 4631:1 4632:1 5517:1 7111:1 8478:1 10342:1 #
-0.001859928578080741971151335079071 1:1 2:1 5:1 6:1 7:1 8:1 9:1 11:1 12:1 13:1 14:1 15:1 16:1 17:1 18:1 19:1 20:1 21:1 24:1 25:1 29:1 30:1 31:1 32:1 36:1 38:1 39:1 45:1 46:1 50:1 52:1 54:1 57:1 62:1 66:1 67:1 68:1 69:1 73:1 79:1 84:1 89:1 94:1 96:1 99:1 101:1 102:1 103:1 104:1 106:1 111:1 113:1 114:1 118:1 119:1 120:1 126:1 130:1 131:1 134:1 137:1 138:1 146:1 149:1 156:1 158:1 159:1 163:1 165:1 167:1 170:1 176:1 183:1 184:1 189:1 194:1 195:1 202:1 207:1 213:1 214:1 215:1 217:1 218:1 220:1 221:1 231:1 238:1 240:1 241:1 245:1 252:1 261:1 277:1 295:1 300:1 304:1 308:1 320:1 329:1 341:1 362:1 385:1 387:1 390:1 392:1 407:1 408:1 412:1 418:1 422:1 423:1 425:1 440:1 462:1 466:1 472:1 475:1 490:1 500:1 502:1 509:1 510:1 512:1 523:1 530:1 553:1 581:1 615:1 618:1 620:1 628:1 630:1 632:1 644:1 651:1 669:1 700:1 716:1 725:1 746:1 755:1 758:1 767:1 773:1 792:1 802:1 817:1 819:1 828:1 835:1 843:1 852:1 866:1 868:1 873:1 891:1 895:1 935:1 941:1 944:1 945:1 959:1 962:1 993:1 997:1 1005:1 1009:1 1018:1 1024:1 1042:1 1105:1 1121:1 1131:1 1172:1 1185:1 1188:1 1230:1 1284:1 1310:1 1361:1 1370:1 1385:1 1397:1 1416:1 1422:1 1428:1 1438:1 1441:1 1452:1 1455:1 1457:1 1465:1 1471:1 1473:1 1483:1 1491:1 1514:1 1532:1 1568:1 1574:1 1580:1 1584:1 1591:1 1597:1 1626:1 1649:1 1650:1 1672:1 1676:1 1705:1 1720:1 1748:1 1755:1 1820:1 1894:1 1936:1 1949:1 1976:1 1985:1 2002:1 2038:1 2091:1 2104:1 2151:1 2159:1 2240:1 2311:1 2340:1 2368:1 2462:1 2503:1 2542:1 2585:1 2739:1 2774:1 3066:1 3068:1 3114:1 3144:1 3190:1 3194:1 3238:1 3490:1 3632:1 3813:1 3833:1 3883:1 3928:1 3936:1 4035:1 4160:1 4264:1 4302:1 4312:1 4409:1 4470:1 4507:1 4630:1 4747:1 4768:1 4792:1 4991:1 5005:1 5036:1 5188:1 5232:1 5663:1 5737:1 5758:1 5774:1 5789:1 5800:1 5830:1 5882:1 6019:1 6024:1 6040:1 6116:1 6194:1 6303:1 6315:1 6378:1 6499:1 6841:1 6874:1 6936:1 7076:1 7795:1 8091:1 8597:1 8684:1 9045:1 9133:1 9165:1 9266:1 9411:1 9633:1 9975:1 10099:1 10237:1 10500:1 10690:1 10711:1 #
-0.0053720701490375189282588941352969 1:1 5:1 7:1 8:1 13:1 14:1 16:1 17:1 21:1 22:1 24:1 27:1 29:1 31:1 32:1 36:1 41:1 42:1 45:1 48:1 53:1 57:1 71:1 84:1 88:1 89:1 93:1 95:1 98:1 106:1 112:1 114:1 126:1 129:1 130:1 146:1 166:1 170:1 172:1 179:1 196:1 216:1 232:1 268:1 273:1 286:1 289:1 354:1 390:1 395:1 457:1 498:1 530:1 606:1 636:1 671:1 700:1 764:1 816:1 843:1 919:1 951:1 1015:1 1025:1 1037:1 1065:1 1085:1 1122:1 1179:1 1180:1 1213:1 1283:1 1398:1 1455:1 1461:1 1554:1 1582:1 1595:1 1614:1 1623:1 1741:1 1946:1 1957:1 2034:1 2246:1 2550:1 3181:1 3240:1 3357:1 3589:1 3684:1 3691:1 3924:1 3947:1 3960:1 3964:1 4014:1 4021:1 4145:1 4276:1 4469:1 4845:1 4973:1 4991:1 5213:1 5492:1 5800:1 6027:1 6284:1 6351:1 6402:1 6807:1 7398:1 7689:1 7760:1 7822:1 8655:1 9064:1 9099:1 9129:1 9319:1 9465:1 10347:1 10423:1 10488:1 #
-0.0039037477569651506635606263984073 1:1 5:1 8:1 12:1 13:1 16:1 22:1 24:1 27:1 29:1 31:1 32:1 34:1 36:1 51:1 56:1 59:1 60:1 62:1 79:1 81:1 84:1 94:1 95:1 102:1 103:1 106:1 113:1 114:1 123:1 124:1 137:1 153:1 158:1 177:1 181:1 214:1 230:1 231:1 233:1 238:1 244:1 252:1 264:1 270:1 272:1 275:1 278:1 308:1 316:1 322:1 331:1 332:1 347:1 362:1 374:1 377:1 385:1 396:1 399:1 416:1 423:1 425:1 434:1 457:1 463:1 482:1 490:1 492:1 502:1 526:1 529:1 533:1 544:1 551:1 618:1 632:1 653:1 724:1 758:1 762:1 785:1 798:1 831:1 840:1 882:1 897:1 944:1 1014:1 1021:1 1046:1 1123:1 1147:1 1152:1 1194:1 1275:1 1283:1 1310:1 1371:1 1421:1 1432:1 1457:1 1483:1 1484:1 1510:1 1518:1 1536:1 1689:1 1697:1 1928:1 1933:1 1951:1 2134:1 2232:1 2440:1 2599:1 2610:1 2716:1 2736:1 2774:1 3028:1 3239:1 3501:1 3597:1 3668:1 3788:1 3872:1 4305:1 4399:1 4725:1 4888:1 5500:1 5583:1 5824:1 6006:1 6033:1 6167:1 6593:1 6854:1 7039:1 7284:1 7404:1 7745:1 7929:1 8062:1 8095:1 8161:1 8263:1 8657:1 8873:1 9928:1 10215:1 10320:1 #
-0.0010671382250578387122785795071422 1:1 3:1 5:1 7:1 8:1 9:1 11:1 12:1 13:1 16:1 17:1 20:1 21:1 22:1 23:1 24:1 25:1 26:1 28:1 29:1 30:1 31:1 34:1 35:1 38:1 40:1 43:1 45:1 55:1 58:1 59:1 62:1 63:1 64:1 67:1 72:1 77:1 78:1 82:1 84:1 85:1 88:1 90:1 94:1 95:1 98:1 102:1 103:1 107:1 108:1 114:1 119:1 120:1 123:1 130:1 132:1 135:1 136:1 139:1 147:1 150:1 156:1 159:1 163:1 172:1 174:1 176:1 188:1 190:1 191:1 195:1 198:1 199:1 207:1 208:1 212:1 222:1 225:1 230:1 231:1 264:1 266:1 282:1 285:1 319:1 323:1 332:1 339:1 341:1 345:1 361:1 365:1 385:1 395:1 434:1 435:1 442:1 467:1 475:1 480:1 533:1 536:1 551:1 569:1 599:1 605:1 632:1 690:1 702:1 703:1 755:1 762:1 780:1 797:1 810:1 828:1 843:1 925:1 943:1 955:1 976:1 978:1 990:1 1012:1 1024:1 1026:1 1093:1 1105:1 1160:1 1197:1 1273:1 1279:1 1280:1 1361:1 1424:1 1435:1 1440:1 1457:1 1565:1 1591:1 1640:1 1729:1 1793:1 1872:1 1879:1 1962:1 1999:1 2011:1 2086:1 2091:1 2180:1 2183:1 2349:1 2350:1 2460:1 2674:1 2680:1 2790:1 2959:1 3086:1 3098:1 3194:1 3408:1 3584:1 3872:1 4134:1 4252:1 4288:1 4356:1 4359:1 4441:1 4700:1 4908:1 5070:1 5136:1 5279:1 5506:1 5817:1 5834:1 5925:1 5933:1 6140:1 6217:1 6347:1 6470:1 6990:1 7187:1 7485:1 7906:1 8112:1 8250:1 8260:1 8381:1 8404:1 8515:1 8632:1 9007:1 9224:1 9629:1 9739:1 10095:1 10131:1 10296:1 10383:1 10645:1 #
0.0028124727665472725943174303608885 2:1 4:1 5:1 7:1 8:1 9:1 10:1 11:1 12:1 13:1 15:1 16:1 17:1 18:1 20:1 21:1 22:1 24:1 25:1 29:1 30:1 31:1 34:1 46:1 48:1 56:1 60:1 62:1 71:1 72:1 75:1 76:1 85:1 87:1 88:1 94:1 95:1 100:1 101:1 102:1 103:1 104:1 109:1 113:1 114:1 117:1 129:1 138:1 141:1 144:1 146:1 147:1 151:1 159:1 166:1 172:1 179:1 187:1 189:1 191:1 202:1 209:1 215:1 218:1 221:1 230:1 237:1 244:1 258:1 261:1 263:1 264:1 266:1 267:1 269:1 275:1 277:1 295:1 301:1 309:1 325:1 339:1 341:1 352:1 357:1 387:1 393:1 404:1 423:1 434:1 468:1 481:1 490:1 500:1 502:1 530:1 606:1 615:1 654:1 688:1 751:1 755:1 758:1 784:1 809:1 835:1 882:1 891:1 915:1 944:1 946:1 951:1 957:1 1035:1 1121:1 1128:1 1155:1 1161:1 1188:1 1363:1 1365:1 1386:1 1448:1 1483:1 1523:1 1676:1 1729:1 1803:1 1881:1 1895:1 1906:1 2088:1 2183:1 2240:1 2361:1 2370:1 2423:1 2448:1 2541:1 2542:1 2564:1 2735:1 2769:1 2984:1 3014:1 3056:1 3061:1 3110:1 3114:1 3134:1 3151:1 3160:1 3221:1 3578:1 3607:1 3681:1 3733:1 3855:1 3873:1 4290:1 4355:1 4459:1 4505:1 4642:1 4838:1 4929:1 4943:1 5598:1 5852:1 6382:1 6746:1 6949:1 7217:1 7316:1 7392:1 7478:1 7758:1 7822:1 8055:1 8177:1 8206:1 8482:1 8634:1 8755:1 8939:1 8966:1 9003:1 9807:1 #
0.0040770494672786863551983138620471 1:1 4:1 5:1 8:1 11:1 16:1 17:1 22:1 23:1 24:1 26:1 27:1 29:1 31:1 39:1 42:1 43:1 47:1 48:1 51:1 57:1 62:1 63:1 68:1 69:1 74:1 78:1 79:1 82:1 83:1 86:1 90:1 94:1 96:1 101:1 102:1 106:1 111:1 112:1 123:1 127:1 129:1 130:1 133:1 136:1 137:1 146:1 149:1 152:1 153:1 158:1 170:1 182:1 186:1 193:1 199:1 210:1 216:1 218:1 223:1 230:1 231:1 236:1 238:1 279:1 308:1 314:1 321:1 329:1 351:1 356:1 357:1 359:1 365:1 369:1 375:1 384:1 385:1 404:1 407:1 428:1 438:1 462:1 467:1 478:1 493:1 497:1 509:1 515:1 575:1 582:1 602:1 631:1 648:1 660:1 664:1 719:1 762:1 779:1 836:1 855:1 899:1 937:1 941:1 1018:1 1097:1 1105:1 1122:1 1132:1 1140:1 1144:1 1385:1 1394:1 1397:1 1471:1 1481:1 1483:1 1519:1 1832:1 1855:1 1967:1 1977:1 2063:1 2100:1 2101:1 2277:1 2358:1 2584:1 2664:1 2739:1 2750:1 2790:1 2825:1 3023:1 3144:1 3197:1 3295:1 3338:1 3459:1 3489:1 3607:1 3680:1 3706:1 3731:1 4161:1 5013:1 5456:1 5579:1 5586:1 6011:1 6249:1 6351:1 6568:1 6856:1 7084:1 7574:1 7620:1 8219:1 8597:1 8879:1 9406:1 9798:1 10209:1 #
0.0011162084453887773354691104188419 1:1 4:1 5:1 7:1 11:1 13:1 15:1 16:1 17:1 18:1 21:1 22:1 24:1 25:1 26:1 29:1 30:1 31:1 32:1 36:1 42:1 46:1 47:1 48:1 49:1 50:1 59:1 62:1 63:1 66:1 67:1 73:1 75:1 77:1 84:1 94:1 95:1 96:1 99:1 101:1 103:1 104:1 106:1 112:1 113:1 122:1 126:1 131:1 141:1 152:1 163:1 167:1 168:1 170:1 174:1 184:1 192:1 197:1 202:1 203:1 205:1 211:1 216:1 218:1 222:1 232:1 238:1 244:1 251:1 255:1 264:1 270:1 279:1 282:1 293:1 314:1 318:1 320:1 341:1 351:1 364:1 379:1 394:1 404:1 410:1 437:1 445:1 448:1 452:1 457:1 472:1 475:1 478:1 482:1 488:1 490:1 530:1 553:1 575:1 614:1 615:1 625:1 647:1 698:1 702:1 728:1 755:1 783:1 807:1 815:1 816:1 817:1 835:1 841:1 861:1 865:1 871:1 892:1 922:1 951:1 957:1 1008:1 1048:1 1074:1 1080:1 1105:1 1147:1 1172:1 1178:1 1473:1 1490:1 1549:1 1605:1 1676:1 1681:1 1801:1 2073:1 2087:1 2117:1 2160:1 2183:1 2239:1 2277:1 2356:1 2371:1 2378:1 2390:1 2415:1 2442:1 2462:1 2503:1 2588:1 2595:1 2733:1 2789:1 2846:1 2847:1 2915:1 3031:1 3102:1 3196:1 3327:1 3587:1 3592:1 3625:1 3971:1 4355:1 4368:1 4396:1 4477:1 4505:1 4511:1 4555:1 4581:1 4845:1 5014:1 5164:1 5211:1 5228:1 5351:1 5402:1 5589:1 5643:1 5851:1 6023:1 6153:1 6365:1 6556:1 6568:1 6581:1 6711:1 6936:1 6994:1 7146:1 7468:1 7984:1 8586:1 8755:1 9056:1 9252:1 9414:1 9727:1 #
0.0053720701490375189282588941352969 5:1 7:1 11:1 12:1 14:1 17:1 18:1 19:1 20:1 22:1 23:1 24:1 25:1 30:1 31:1 32:1 36:1 37:1 46:1 48:1 50:1 54:1 56:1 57:1 62:1 63:1 71:1 73:1 82:1 84:1 96:1 98:1 103:1 114:1 130:1 138:1 142:1 168:1 170:1 209:1 218:1 231:1 268:1 280:1 345:1 360:1 374:1 375:1 400:1 404:1 457:1 472:1 478:1 515:1 521:1 581:1 621:1 642:1 688:1 691:1 723:1 758:1 768:1 779:1 783:1 800:1 802:1 816:1 843:1 849:1 868:1 918:1 932:1 951:1 1015:1 1025:1 1071:1 1105:1 1138:1 1178:1 1268:1 1308:1 1376:1 1389:1 1467:1 1483:1 1549:1 1672:1 1740:1 1872:1 1923:1 2086:1 2134:1 2177:1 2349:1 2401:1 2624:1 3053:1 3438:1 3625:1 3872:1 4154:1 4291:1 4458:1 4642:1 5110:1 5179:1 5598:1 5810:1 6025:1 6528:1 6596:1 6818:1 6902:1 7228:1 7314:1 7982:1 8075:1 8659:1 #
-0.00085507540062857107041743853770299 1:1 8:1 9:1 11:1 12:1 13:1 15:1 16:1 17:1 18:1 20:1 22:1 23:1 25:1 27:1 29:1 30:1 31:1 32:1 34:1 36:1 38:1 42:1 45:1 47:1 51:1 52:1 54:1 56:1 58:1 62:1 66:1 71:1 73:1 81:1 86:1 90:1 96:1 98:1 102:1 103:1 113:1 120:1 122:1 125:1 137:1 174:1 175:1 177:1 179:1 186:1 187:1 196:1 205:1 212:1 227:1 232:1 235:1 245:1 247:1 279:1 283:1 308:1 322:1 324:1 328:1 333:1 337:1 369:1 387:1 390:1 396:1 399:1 440:1 452:1 482:1 491:1 495:1 498:1 606:1 628:1 632:1 656:1 716:1 717:1 749:1 758:1 802:1 816:1 817:1 833:1 849:1 856:1 899:1 965:1 989:1 999:1 1008:1 1015:1 1028:1 1029:1 1067:1 1071:1 1089:1 1111:1 1131:1 1150:1 1158:1 1209:1 1226:1 1229:1 1258:1 1265:1 1416:1 1444:1 1473:1 1501:1 1502:1 1514:1 1567:1 1568:1 1587:1 1596:1 1671:1 1720:1 1727:1 1741:1 1821:1 1827:1 2004:1 2078:1 2094:1 2404:1 2415:1 2503:1 2584:1 2681:1 2698:1 2778:1 3098:1 3154:1 3164:1 3183:1 3184:1 3274:1 3361:1 3755:1 3863:1 3972:1 4183:1 4293:1 4325:1 4338:1 4410:1 4469:1 4571:1 5002:1 5172:1 5232:1 5728:1 5865:1 6007:1 6021:1 6185:1 6287:1 6332:1 6535:1 6584:1 6703:1 6877:1 6964:1 7041:1 7073:1 7228:1 7267:1 7284:1 7939:1 8362:1 8850:1 9012:1 9165:1 9335:1 9406:1 9737:1 9750:1 10114:1 10310:1 10621:1 #
-0.0053720701490375189282588941352969 1:1 5:1 7:1 9:1 10:1 11:1 12:1 15:1 16:1 18:1 20:1 21:1 22:1 24:1 27:1 29:1 30:1 31:1 34:1 42:1 48:1 49:1 50:1 51:1 58:1 62:1 69:1 72:1 82:1 84:1 88:1 89:1 90:1 91:1 95:1 102:1 103:1 104:1 106:1 113:1 114:1 122:1 123:1 135:1 141:1 150:1 151:1 152:1 153:1 155:1 157:1 159:1 165:1 166:1 172:1 184:1 187:1 191:1 195:1 202:1 213:1 218:1 224:1 227:1 228:1 232:1 237:1 238:1 245:1 251:1 259:1 265:1 283:1 294:1 323:1 357:1 375:1 395:1 421:1 435:1 448:1 452:1 472:1 475:1 491:1 529:1 530:1 548:1 601:1 606:1 612:1 614:1 618:1 625:1 666:1 669:1 673:1 746:1 748:1 755:1 758:1 761:1 777:1 779:1 799:1 809:1 826:1 841:1 895:1 951:1 957:1 1024:1 1080:1 1105:1 1146:1 1172:1 1262:1 1363:1 1377:1 1382:1 1439:1 1450:1 1453:1 1483:1 1496:1 1536:1 1552:1 1553:1 1644:1 1659:1 1676:1 1790:1 1792:1 1827:1 1850:1 1939:1 1949:1 1959:1 1986:1 1993:1 2045:1 2134:1 2140:1 2151:1 2172:1 2183:1 2371:1 2435:1 2442:1 2504:1 2739:1 2760:1 2785:1 2984:1 3005:1 3014:1 3056:1 3078:1 3119:1 3282:1 3558:1 3562:1 3607:1 3870:1 3960:1 3994:1 4080:1 4234:1 4361:1 4463:1 4614:1 4658:1 4666:1 4679:1 4714:1 4905:1 4938:1 5014:1 5263:1 5962:1 6199:1 6315:1 6350:1 6702:1 6731:1 6770:1 7076:1 7163:1 7316:1 7553:1 7718:1 7795:1 7841:1 7975:1 8045:1 8105:1 8348:1 8551:1 8632:1 8703:1 9234:1 9266:1 9278:1 9294:1 9442:1 10099:1 #
-0.0053720701490375189282588941352969 3:1 4:1 5:1 7:1 8:1 12:1 13:1 16:1 17:1 18:1 19:1 21:1 22:1 24:1 25:1 27:1 28:1 29:1 30:1 31:1 32:1 33:1 34:1 37:1 38:1 42:1 43:1 44:1 45:1 46:1 49:1 51:1 54:1 56:1 57:1 60:1 62:1 64:1 68:1 71:1 73:1 75:1 77:1 78:1 84:1 87:1 88:1 90:1 93:1 100:1 103:1 104:1 105:1 106:1 108:1 112:1 113:1 114:1 115:1 116:1 122:1 126:1 128:1 129:1 130:1 135:1 139:1 141:1 148:1 151:1 156:1 158:1 159:1 161:1 163:1 177:1 185:1 187:1 189:1 191:1 195:1 196:1 202:1 203:1 211:1 213:1 216:1 218:1 225:1 227:1 230:1 231:1 233:1 236:1 244:1 251:1 258:1 261:1 263:1 264:1 277:1 292:1 301:1 308:1 309:1 315:1 322:1 332:1 334:1 339:1 341:1 349:1 368:1 370:1 387:1 399:1 423:1 426:1 433:1 435:1 448:1 500:1 510:1 515:1 530:1 531:1 536:1 552:1 557:1 564:1 569:1 598:1 615:1 625:1 641:1 653:1 666:1 680:1 687:1 688:1 741:1 755:1 758:1 762:1 768:1 779:1 781:1 789:1 814:1 828:1 836:1 887:1 907:1 916:1 926:1 927:1 976:1 986:1 1007:1 1008:1 1015:1 1016:1 1038:1 1048:1 1061:1 1074:1 1081:1 1105:1 1121:1 1138:1 1154:1 1161:1 1173:1 1244:1 1258:1 1389:1 1418:1 1439:1 1444:1 1466:1 1473:1 1480:1 1483:1 1484:1 1491:1 1510:1 1512:1 1526:1 1531:1 1543:1 1547:1 1593:1 1613:1 1729:1 1788:1 1820:1 1850:1 1855:1 1881:1 1884:1 1936:1 1942:1 1951:1 1953:1 2106:1 2183:1 2274:1 2277:1 2300:1 2346:1 2361:1 2362:1 2369:1 2376:1 2382:1 2439:1 2442:1 2455:1 2468:1 2499:1 2620:1 2654:1 2703:1 2730:1 2733:1 2739:1 2813:1 2908:1 2936:1 3041:1 3134:1 3153:1 3243:1 3265:1 3327:1 3369:1 3459:1 3464:1 3598:1 3648:1 3663:1 3834:1 3863:1 3926:1 3927:1 3967:1 3971:1 4035:1 4239:1 4302:1 4383:1 4409:1 4419:1 4586:1 4886:1 5009:1 5123:1 5136:1 5160:1 5234:1 5261:1 5414:1 5630:1 5715:1 5781:1 5806:1 5831:1 5859:1 5869:1 5946:1 6189:1 6195:1 6309:1 6344:1 6365:1 6433:1 6443:1 6759:1 6782:1 6850:1 6874:1 6926:1 6966:1 7023:1 7062:1 7380:1 7413:1 7542:1 7618:1 7648:1 7975:1 8167:1 8241:1 8265:1 8346:1 8964:1 8969:1 9003:1 9045:1 9081:1 10338:1 10521:1 10606:1 #
-0.0053720701490375189282588941352969 5:1 7:1 10:1 11:1 12:1 14:1 15:1 16:1 17:1 19:1 21:1 25:1 26:1 29:1 30:1 34:1 37:1 48:1 49:1 56:1 57:1 58:1 60:1 62:1 63:1 66:1 78:1 82:1 84:1 88:1 90:1 96:1 99:1 100:1 102:1 103:1 104:1 109:1 117:1 145:1 157:1 168:1 181:1 192:1 216:1 217:1 218:1 231:1 251:1 277:1 279:1 308:1 323:1 329:1 333:1 382:1 387:1 393:1 404:1 427:1 433:1 434:1 457:1 471:1 472:1 478:1 521:1 530:1 575:1 581:1 630:1 666:1 691:1 725:1 758:1 779:1 839:1 858:1 951:1 1105:1 1178:1 1466:1 1467:1 1470:1 1483:1 1707:1 1742:1 1855:1 1874:1 1905:1 1975:1 2134:1 2350:1 2624:1 2654:1 2848:1 3056:1 3102:1 3814:1 4067:1 4101:1 4263:1 4291:1 4513:1 4848:1 5397:1 6528:1 6818:1 7133:1 7505:1 7799:1 8462:1 8659:1 #
-0.0053720701490375189282588941352969 1:1 2:1 5:1 6:1 7:1 8:1 10:1 11:1 14:1 15:1 16:1 17:1 18:1 21:1 22:1 25:1 26:1 28:1 29:1 30:1 33:1 34:1 35:1 43:1 44:1 49:1 50:1 51:1 56:1 58:1 60:1 63:1 64:1 66:1 69:1 71:1 72:1 78:1 82:1 88:1 90:1 93:1 103:1 105:1 110:1 126:1 128:1 136:1 143:1 147:1 151:1 159:1 166:1 177:1 180:1 189:1 196:1 202:1 204:1 216:1 218:1 230:1 233:1 238:1 249:1 251:1 254:1 258:1 277:1 289:1 296:1 297:1 304:1 315:1 333:1 339:1 364:1 382:1 387:1 393:1 395:1 409:1 416:1 456:1 530:1 567:1 601:1 618:1 630:1 665:1 666:1 742:1 746:1 758:1 768:1 779:1 815:1 839:1 841:1 894:1 905:1 910:1 923:1 966:1 991:1 1008:1 1015:1 1071:1 1089:1 1090:1 1105:1 1138:1 1146:1 1377:1 1383:1 1388:1 1425:1 1450:1 1536:1 1547:1 1593:1 1622:1 1676:1 1694:1 1744:1 1850:1 1872:1 1890:1 1915:1 1959:1 2091:1 2277:1 2278:1 2309:1 2349:1 2350:1 2371:1 2373:1 2560:1 2624:1 2638:1 2789:1 2852:1 3056:1 3335:1 3395:1 3446:1 3772:1 3926:1 4051:1 4154:1 4234:1 4333:1 4493:1 4620:1 4646:1 4714:1 5013:1 5067:1 5095:1 5877:1 5990:1 6272:1 6452:1 6528:1 6740:1 6929:1 7236:1 8838:1 8841:1 8860:1 10451:1 #
0.0053720701490375189282588941352969 1:1 2:1 4:1 5:1 6:1 9:1 10:1 11:1 12:1 13:1 15:1 16:1 17:1 18:1 19:1 23:1 24:1 27:1 30:1 31:1 32:1 34:1 36:1 42:1 44:1 45:1 47:1 48:1 49:1 51:1 53:1 57:1 59:1 61:1 62:1 69:1 72:1 77:1 81:1 83:1 89:1 90:1 91:1 94:1 102:1 104:1 106:1 114:1 117:1 119:1 120:1 124:1 126:1 129:1 131:1 133:1 134:1 146:1 153:1 155:1 158:1 159:1 160:1 161:1 163:1 169:1 181:1 182:1 185:1 186:1 187:1 202:1 213:1 214:1 218:1 223:1 233:1 235:1 244:1 270:1 274:1 277:1 300:1 329:1 332:1 341:1 344:1 345:1 351:1 354:1 364:1 392:1 399:1 406:1 407:1 425:1 436:1 459:1 472:1 480:1 510:1 523:1 531:1 536:1 562:1 581:1 598:1 606:1 618:1 630:1 632:1 645:1 669:1 679:1 682:1 772:1 811:1 814:1 835:1 844:1 845:1 860:1 868:1 881:1 889:1 894:1 911:1 986:1 987:1 995:1 1026:1 1057:1 1071:1 1080:1 1099:1 1105:1 1147:1 1258:1 1369:1 1386:1 1393:1 1405:1 1408:1 1422:1 1450:1 1483:1 1487:1 1508:1 1549:1 1591:1 1646:1 1650:1 1819:1 1855:1 1894:1 1907:1 1938:1 1956:1 1998:1 2035:1 2085:1 2114:1 2159:1 2163:1 2195:1 2243:1 2280:1 2294:1 2369:1 2439:1 2478:1 2530:1 2552:1 2723:1 2905:1 2938:1 3144:1 3167:1 3341:1 3398:1 3402:1 3552:1 3695:1 3707:1 3719:1 3833:1 3853:1 3994:1 4212:1 4234:1 4293:1 4421:1 4506:1 4586:1 4738:1 4914:1 4930:1 5005:1 5016:1 5192:1 5207:1 5241:1 5417:1 5623:1 5808:1 6161:1 6845:1 7770:1 7858:1 7908:1 8126:1 8209:1 8388:1 8589:1 8787:1 9342:1 9411:1 9423:1 9696:1 9722:1 10115:1 10438:1 10551:1 10701:1 #
0.0053720701490375189282588941352969 1:1 2:1 5:1 6:1 7:1 8:1 9:1 12:1 16:1 17:1 18:1 20:1 22:1 23:1 24:1 25:1 26:1 27:1 28:1 29:1 30:1 31:1 32:1 35:1 36:1 38:1 39:1 42:1 46:1 47:1 51:1 52:1 61:1 67:1 73:1 77:1 79:1 80:1 81:1 84:1 86:1 94:1 95:1 97:1 98:1 99:1 102:1 103:1 104:1 106:1 107:1 113:1 114:1 116:1 117:1 118:1 119:1 124:1 131:1 134:1 137:1 143:1 146:1 147:1 153:1 159:1 160:1 163:1 170:1 171:1 172:1 175:1 176:1 177:1 183:1 185:1 188:1 195:1 197:1 202:1 211:1 213:1 215:1 218:1 220:1 221:1 224:1 229:1 230:1 231:1 232:1 234:1 236:1 238:1 241:1 244:1 245:1 255:1 264:1 276:1 278:1 279:1 286:1 300:1 308:1 321:1 329:1 333:1 335:1 339:1 341:1 343:1 344:1 353:1 356:1 357:1 365:1 381:1 383:1 384:1 385:1 387:1 408:1 435:1 442:1 445:1 446:1 451:1 467:1 475:1 478:1 488:1 491:1 497:1 500:1 503:1 529:1 561:1 566:1 581:1 602:1 605:1 615:1 622:1 625:1 628:1 644:1 647:1 649:1 653:1 671:1 674:1 688:1 750:1 751:1 752:1 755:1 758:1 762:1 775:1 789:1 807:1 808:1 809:1 811:1 813:1 815:1 817:1 829:1 831:1 836:1 867:1 871:1 887:1 898:1 899:1 941:1 943:1 944:1 945:1 946:1 990:1 996:1 997:1 1002:1 1003:1 1009:1 1024:1 1048:1 1089:1 1105:1 1111:1 1131:1 1150:1 1258:1 1363:1 1416:1 1422:1 1455:1 1458:1 1476:1 1481:1 1494:1 1514:1 1552:1 1584:1 1591:1 1626:1 1761:1 1814:1 1827:1 1836:1 1838:1 1854:1 1888:1 1894:1 1919:1 1941:1 1949:1 1986:1 1999:1 2040:1 2053:1 2109:1 2172:1 2183:1 2193:1 2197:1 2216:1 2308:1 2340:1 2386:1 2394:1 2462:1 2532:1 2533:1 2714:1 2739:1 2968:1 2996:1 3073:1 3087:1 3101:1 3153:1 3154:1 3196:1 3205:1 3330:1 3338:1 3368:1 3467:1 3490:1 3578:1 3719:1 3826:1 3899:1 4457:1 4574:1 4586:1 4612:1 4714:1 4845:1 4975:1 5017:1 5251:1 5387:1 5431:1 5439:1 5505:1 5600:1 5624:1 5733:1 5921:1 5961:1 6004:1 6051:1 6266:1 6268:1 6361:1 7326:1 7354:1 7437:1 7551:1 7579:1 7703:1 7777:1 7961:1 8804:1 9754:1 10296:1 #
0.0026565724352538250090105531597828 1:1 2:1 4:1 5:1 6:1 7:1 8:1 10:1 11:1 12:1 14:1 15:1 16:1 17:1 18:1 19:1 22:1 23:1 24:1 25:1 26:1 28:1 29:1 30:1 31:1 34:1 35:1 38:1 41:1 44:1 45:1 50:1 51:1 56:1 57:1 62:1 65:1 66:1 69:1 71:1 72:1 73:1 76:1 81:1 82:1 85:1 88:1 89:1 90:1 93:1 98:1 99:1 101:1 103:1 105:1 106:1 107:1 110:1 111:1 114:1 115:1 116:1 120:1 126:1 127:1 135:1 136:1 143:1 146:1 156:1 158:1 159:1 165:1 176:1 184:1 185:1 186:1 189:1 191:1 194:1 195:1 198:1 203:1 215:1 218:1 222:1 231:1 233:1 236:1 238:1 245:1 258:1 262:1 263:1 276:1 279:1 285:1 292:1 295:1 301:1 304:1 306:1 309:1 322:1 326:1 330:1 331:1 333:1 339:1 341:1 344:1 346:1 357:1 366:1 376:1 387:1 421:1 430:1 439:1 452:1 459:1 464:1 471:1 483:1 523:1 527:1 569:1 599:1 615:1 622:1 628:1 630:1 641:1 653:1 665:1 668:1 700:1 755:1 758:1 779:1 811:1 835:1 841:1 868:1 874:1 888:1 891:1 894:1 895:1 1012:1 1060:1 1071:1 1078:1 1092:1 1105:1 1111:1 1142:1 1146:1 1172:1 1176:1 1182:1 1185:1 1188:1 1200:1 1375:1 1388:1 1414:1 1448:1 1466:1 1476:1 1487:1 1514:1 1534:1 1536:1 1570:1 1626:1 1643:1 1676:1 1682:1 1730:1 1790:1 1796:1 1804:1 1855:1 1884:1 1947:1 1954:1 1983:1 2097:1 2263:1 2278:1 2296:1 2355:1 2382:1 2448:1 2504:1 2576:1 2734:1 2739:1 2772:1 2778:1 2898:1 2936:1 2959:1 2981:1 2987:1 3048:1 3050:1 3075:1 3092:1 3114:1 3119:1 3128:1 3372:1 3530:1 3578:1 3614:1 3845:1 3859:1 3861:1 3872:1 3994:1 4234:1 4312:1 4576:1 4679:1 5010:1 5013:1 5047:1 5259:1 5314:1 5596:1 5610:1 5699:1 5889:1 5936:1 6083:1 6152:1 6630:1 6919:1 6926:1 7203:1 7224:1 7321:1 7482:1 7978:1 8055:1 8153:1 8647:1 8746:1 8887:1 8983:1 10151:1 #
0.0041084132969364424436964355891178 1:1 2:1 3:1 5:1 7:1 8:1 11:1 12:1 14:1 15:1 16:1 18:1 19:1 21:1 29:1 30:1 32:1 34:1 36:1 44:1 45:1 48:1 49:1 50:1 52:1 54:1 55:1 56:1 58:1 59:1 62:1 66:1 69:1 72:1 73:1 78:1 80:1 81:1 82:1 84:1 88:1 90:1 94:1 96:1 99:1 101:1 102:1 113:1 122:1 126:1 130:1 131:1 133:1 135:1 137:1 138:1 143:1 150:1 151:1 158:1 166:1 172:1 187:1 192:1 199:1 214:1 217:1 218:1 232:1 236:1 253:1 286:1 292:1 293:1 295:1 301:1 304:1 323:1 331:1 339:1 352:1 357:1 364:1 387:1 388:1 404:1 419:1 425:1 427:1 432:1 433:1 434:1 440:1 448:1 478:1 485:1 502:1 508:1 521:1 523:1 530:1 564:1 581:1 618:1 628:1 630:1 637:1 671:1 725:1 728:1 740:1 745:1 754:1 758:1 759:1 768:1 783:1 799:1 814:1 815:1 849:1 879:1 891:1 897:1 906:1 909:1 911:1 951:1 1031:1 1040:1 1089:1 1092:1 1105:1 1200:1 1250:1 1377:1 1393:1 1467:1 1503:1 1560:1 1605:1 1621:1 1646:1 1681:1 1845:1 1943:1 1951:1 1954:1 1960:1 1961:1 2062:1 2120:1 2160:1 2167:1 2187:1 2220:1 2227:1 2228:1 2240:1 2309:1 2350:1 2390:1 2561:1 2654:1 2684:1 2692:1 2724:1 2821:1 3031:1 3102:1 3438:1 3475:1 3561:1 3586:1 3650:1 3723:1 3814:1 3910:1 4031:1 4266:1 4300:1 4460:1 4477:1 4529:1 4679:1 4867:1 5045:1 5288:1 5366:1 5425:1 5478:1 5836:1 6212:1 6282:1 6377:1 6382:1 6693:1 6779:1 7034:1 7076:1 7231:1 7238:1 7247:1 7377:1 7535:1 8054:1 8055:1 8066:1 8193:1 8295:1 8411:1 8624:1 8751:1 8960:1 9014:1 10156:1 10159:1 10263:1 10420:1 10610:1 10708:1 #
0.0026732084413569950562261645643503 1:1 5:1 7:1 10:1 11:1 12:1 15:1 16:1 20:1 22:1 23:1 26:1 27:1 29:1 30:1 32:1 36:1 51:1 57:1 60:1 62:1 75:1 76:1 79:1 84:1 88:1 95:1 103:1 113:1 115:1 117:1 123:1 125:1 129:1 136:1 141:1 156:1 158:1 159:1 184:1 202:1 208:1 210:1 213:1 218:1 222:1 228:1 230:1 233:1 238:1 243:1 261:1 262:1 286:1 304:1 308:1 317:1 321:1 333:1 355:1 372:1 378:1 387:1 394:1 402:1 421:1 423:1 428:1 438:1 442:1 444:1 475:1 477:1 490:1 523:1 530:1 541:1 581:1 601:1 606:1 615:1 628:1 665:1 669:1 670:1 675:1 725:1 742:1 764:1 806:1 835:1 848:1 904:1 905:1 950:1 957:1 984:1 993:1 1018:1 1098:1 1127:1 1170:1 1200:1 1259:1 1363:1 1397:1 1432:1 1457:1 1466:1 1471:1 1523:1 1535:1 1557:1 1589:1 1646:1 1855:1 1884:1 1963:1 2193:1 2240:1 2349:1 2361:1 2363:1 2401:1 2486:1 2537:1 2568:1 2585:1 2621:1 2660:1 2739:1 2998:1 3001:1 3022:1 3029:1 3109:1 3119:1 3252:1 3367:1 3574:1 3630:1 3877:1 3927:1 3940:1 4034:1 4059:1 4235:1 4345:1 4493:1 5070:1 5101:1 5121:1 5160:1 5223:1 5882:1 5901:1 5967:1 6278:1 6379:1 6494:1 6575:1 6707:1 6924:1 6959:1 7058:1 7108:1 7478:1 7648:1 7671:1 8062:1 8210:1 8804:1 9108:1 9150:1 9170:1 9937:1 9965:1 10000:1 10447:1 #
-0.0053720701490375189282588941352969 1:1 5:1 6:1 7:1 9:1 10:1 11:1 12:1 13:1 15:1 17:1 18:1 20:1 21:1 22:1 23:1 24:1 25:1 27:1 28:1 29:1 30:1 32:1 34:1 36:1 37:1 38:1 39:1 41:1 42:1 44:1 45:1 46:1 51:1 52:1 53:1 59:1 61:1 62:1 63:1 64:1 76:1 77:1 78:1 81:1 82:1 84:1 85:1 86:1 89:1 92:1 93:1 94:1 98:1 102:1 103:1 104:1 105:1 107:1 108:1 112:1 113:1 114:1 115:1 116:1 119:1 120:1 124:1 125:1 130:1 135:1 136:1 149:1 155:1 158:1 163:1 167:1 170:1 176:1 183:1 187:1 190:1 193:1 194:1 200:1 202:1 203:1 206:1 210:1 214:1 218:1 224:1 227:1 231:1 236:1 237:1 238:1 241:1 244:1 261:1 264:1 277:1 279:1 281:1 283:1 285:1 306:1 311:1 318:1 321:1 322:1 326:1 327:1 333:1 335:1 341:1 357:1 359:1 361:1 364:1 383:1 385:1 397:1 403:1 416:1 428:1 434:1 440:1 450:1 457:1 465:1 467:1 468:1 475:1 486:1 488:1 492:1 495:1 500:1 515:1 521:1 554:1 566:1 569:1 575:1 598:1 602:1 615:1 616:1 625:1 628:1 633:1 642:1 652:1 653:1 664:1 666:1 690:1 691:1 709:1 716:1 724:1 746:1 749:1 750:1 753:1 755:1 760:1 762:1 786:1 809:1 831:1 841:1 843:1 849:1 866:1 882:1 894:1 905:1 910:1 929:1 941:1 946:1 966:1 973:1 991:1 994:1 1021:1 1035:1 1058:1 1067:1 1093:1 1105:1 1111:1 1138:1 1150:1 1160:1 1173:1 1174:1 1258:1 1283:1 1284:1 1372:1 1393:1 1426:1 1435:1 1438:1 1466:1 1514:1 1525:1 1593:1 1599:1 1602:1 1626:1 1672:1 1676:1 1698:1 1746:1 1750:1 1755:1 1784:1 1846:1 1850:1 1868:1 1874:1 1884:1 1906:1 1941:1 1987:1 2069:1 2091:1 2102:1 2109:1 2120:1 2147:1 2203:1 2219:1 2240:1 2250:1 2274:1 2304:1 2314:1 2319:1 2347:1 2406:1 2409:1 2415:1 2435:1 2441:1 2455:1 2462:1 2471:1 2537:1 2564:1 2568:1 2576:1 2622:1 2739:1 2743:1 2807:1 2811:1 2869:1 2898:1 2908:1 2936:1 2959:1 3073:1 3102:1 3109:1 3112:1 3152:1 3181:1 3183:1 3194:1 3221:1 3372:1 3446:1 3450:1 3462:1 3487:1 3495:1 3614:1 3681:1 3743:1 3756:1 3774:1 3801:1 3867:1 3911:1 3968:1 3974:1 4138:1 4293:1 4308:1 4383:1 4448:1 4505:1 4513:1 4566:1 4658:1 4707:1 4921:1 5030:1 5097:1 5160:1 5314:1 5358:1 5405:1 5428:1 5439:1 5478:1 5593:1 5596:1 5790:1 5810:1 5826:1 5850:1 6011:1 6147:1 6178:1 6210:1 6313:1 6472:1 6473:1 6516:1 6629:1 7024:1 7133:1 7178:1 7184:1 7224:1 7228:1 7274:1 7282:1 7389:1 7464:1 7506:1 7581:1 7721:1 7769:1 7876:1 8019:1 8078:1 8165:1 8304:1 8615:1 8665:1 8732:1 8772:1 8787:1 9335:1 9423:1 9560:1 10175:1 10301:1 10310:1 10486:1 10535:1 10652:1 #
-0.0053720701490375189282588941352969 1:1 2:1 3:1 7:1 8:1 10:1 11:1 12:1 14:1 15:1 16:1 17:1 18:1 20:1 21:1 22:1 24:1 25:1 27:1 29:1 30:1 31:1 32:1 34:1 36:1 40:1 42:1 44:1 45:1 53:1 54:1 55:1 57:1 59:1 61:1 62:1 66:1 67:1 73:1 75:1 76:1 78:1 83:1 84:1 86:1 89:1 91:1 94:1 95:1 98:1 102:1 104:1 106:1 112:1 113:1 114:1 117:1 118:1 119:1 120:1 123:1 129:1 130:1 131:1 133:1 135:1 136:1 137:1 142:1 143:1 149:1 152:1 153:1 156:1 157:1 159:1 163:1 170:1 172:1 177:1 182:1 195:1 196:1 202:1 208:1 209:1 210:1 213:1 215:1 218:1 221:1 231:1 232:1 235:1 236:1 237:1 242:1 244:1 251:1 252:1 255:1 260:1 275:1 279:1 281:1 283:1 293:1 295:1 314:1 321:1 329:1 332:1 335:1 353:1 369:1 374:1 378:1 381:1 383:1 387:1 403:1 407:1 415:1 428:1 430:1 435:1 446:1 453:1 457:1 462:1 463:1 464:1 465:1 472:1 477:1 478:1 566:1 575:1 581:1 618:1 640:1 663:1 664:1 669:1 693:1 728:1 742:1 763:1 780:1 802:1 820:1 843:1 857:1 888:1 892:1 937:1 943:1 994:1 1009:1 1013:1 1094:1 1097:1 1105:1 1108:1 1128:1 1184:1 1274:1 1432:1 1442:1 1453:1 1478:1 1514:1 1549:1 1565:1 1568:1 1604:1 1649:1 1680:1 1692:1 1720:1 1733:1 1796:1 1827:1 1865:1 1919:1 1933:1 1941:1 1956:1 1977:1 1981:1 1991:1 2061:1 2064:1 2072:1 2202:1 2243:1 2290:1 2304:1 2372:1 2394:1 2454:1 2533:1 2564:1 2665:1 2667:1 2674:1 2702:1 2778:1 2990:1 3089:1 3119:1 3139:1 3275:1 3365:1 3414:1 3460:1 3482:1 3592:1 3668:1 3869:1 3920:1 3963:1 4252:1 4503:1 4613:1 4697:1 4845:1 4885:1 4944:1 5059:1 5084:1 5168:1 5220:1 5443:1 5811:1 5851:1 5979:1 6021:1 6063:1 6199:1 6316:1 6419:1 6454:1 6568:1 7008:1 7237:1 7290:1 8197:1 8295:1 8305:1 8351:1 8396:1 8432:1 8441:1 8926:1 9054:1 9242:1 9317:1 9460:1 9588:1 9939:1 10266:1 10469:1 10638:1 10640:1 #
-0.002917906211983194945253083929515 1:1 11:1 14:1 15:1 16:1 17:1 20:1 21:1 22:1 23:1 24:1 25:1 27:1 30:1 38:1 46:1 47:1 48:1 53:1 54:1 62:1 73:1 75:1 78:1 81:1 84:1 90:1 94:1 103:1 113:1 114:1 119:1 120:1 123:1 126:1 127:1 155:1 158:1 163:1 170:1 177:1 187:1 198:1 199:1 209:1 210:1 218:1 222:1 228:1 231:1 238:1 264:1 277:1 279:1 288:1 294:1 329:1 330:1 341:1 353:1 365:1 381:1 383:1 385:1 396:1 428:1 432:1 442:1 446:1 451:1 452:1 460:1 464:1 481:1 488:1 553:1 564:1 566:1 613:1 628:1 642:1 647:1 656:1 664:1 669:1 702:1 750:1 755:1 758:1 759:1 762:1 788:1 802:1 809:1 818:1 828:1 831:1 843:1 868:1 874:1 899:1 939:1 946:1 947:1 955:1 1012:1 1087:1 1092:1 1093:1 1105:1 1111:1 1132:1 1147:1 1175:1 1179:1 1200:1 1259:1 1280:1 1284:1 1372:1 1432:1 1459:1 1460:1 1476:1 1496:1 1508:1 1570:1 1790:1 1796:1 1842:1 1865:1 1931:1 1951:1 2027:1 2079:1 2168:1 2192:1 2216:1 2236:1 2344:1 2368:1 2370:1 2372:1 2455:1 2564:1 2774:1 2813:1 2901:1 3005:1 3028:1 3040:1 3114:1 3180:1 3205:1 3287:1 3357:1 3584:1 3648:1 3666:1 3807:1 3872:1 3928:1 4074:1 4081:1 4128:1 4168:1 4194:1 4201:1 4225:1 4300:1 4312:1 4356:1 4534:1 4642:1 4681:1 4754:1 4921:1 5011:1 5062:1 5109:1 5164:1 5270:1 5433:1 5659:1 5856:1 5905:1 5955:1 5984:1 6553:1 6595:1 6609:1 6806:1 7228:1 7274:1 7491:1 7611:1 7655:1 7762:1 7795:1 8427:1 8464:1 8836:1 8887:1 8910:1 9551:1 10071:1 10215:1 10444:1 10617:1 #
0.0013503018977574035054678436296172 7:1 10:1 11:1 12:1 16:1 17:1 18:1 20:1 21:1 22:1 25:1 27:1 29:1 30:1 41:1 46:1 51:1 52:1 56:1 72:1 75:1 79:1 88:1 92:1 100:1 102:1 103:1 106:1 109:1 114:1 123:1 135:1 151:1 161:1 168:1 170:1 179:1 186:1 187:1 202:1 216:1 221:1 230:1 238:1 243:1 244:1 254:1 268:1 289:1 312:1 341:1 352:1 394:1 404:1 411:1 564:1 625:1 642:1 651:1 666:1 688:1 702:1 755:1 758:1 781:1 832:1 848:1 905:1 938:1 950:1 980:1 991:1 994:1 1008:1 1015:1 1059:1 1138:1 1166:1 1459:1 1593:1 1596:1 1825:1 1883:1 1931:1 1973:1 1987:1 2107:1 2111:1 2164:1 2301:1 2304:1 2355:1 2371:1 2406:1 2600:1 2716:1 2801:1 2955:1 2959:1 2990:1 3057:1 3120:1 3128:1 3209:1 3403:1 3691:1 3801:1 3856:1 3883:1 3901:1 3960:1 3985:1 4346:1 4417:1 4580:1 4730:1 4783:1 4912:1 5062:1 5213:1 5428:1 5492:1 5497:1 5593:1 5598:1 5659:1 5719:1 6249:1 6274:1 6351:1 6990:1 7503:1 7822:1 8200:1 8303:1 8304:1 8355:1 8754:1 9432:1 9462:1 9488:1 9503:1 10041:1 10049:1 10071:1 10266:1 #
-0.0053720701490375189282588941352969 1:1 2:1 4:1 5:1 6:1 7:1 8:1 9:1 11:1 13:1 14:1 15:1 16:1 18:1 20:1 21:1 23:1 24:1 25:1 26:1 27:1 28:1 29:1 30:1 31:1 33:1 36:1 38:1 41:1 47:1 55:1 59:1 61:1 62:1 63:1 64:1 70:1 72:1 73:1 75:1 76:1 77:1 78:1 79:1 82:1 90:1 91:1 94:1 98:1 102:1 106:1 107:1 113:1 114:1 117:1 118:1 119:1 120:1 123:1 129:1 130:1 132:1 134:1 135:1 141:1 149:1 154:1 158:1 159:1 163:1 167:1 171:1 179:1 187:1 188:1 191:1 203:1 208:1 214:1 218:1 227:1 228:1 229:1 230:1 231:1 232:1 238:1 239:1 242:1 244:1 245:1 270:1 281:1 282:1 285:1 294:1 297:1 300:1 304:1 312:1 322:1 332:1 333:1 339:1 341:1 354:1 369:1 378:1 384:1 392:1 393:1 394:1 395:1 403:1 414:1 442:1 443:1 444:1 551:1 553:1 558:1 566:1 598:1 605:1 615:1 616:1 642:1 653:1 664:1 665:1 688:1 690:1 703:1 719:1 727:1 746:1 755:1 758:1 762:1 828:1 829:1 831:1 849:1 868:1 888:1 898:1 915:1 941:1 944:1 946:1 955:1 956:1 1012:1 1048:1 1077:1 1096:1 1111:1 1161:1 1186:1 1259:1 1386:1 1391:1 1418:1 1433:1 1452:1 1460:1 1553:1 1584:1 1640:1 1729:1 1755:1 1803:1 1842:1 1868:1 1933:1 1962:1 1997:1 1999:1 2038:1 2096:1 2135:1 2172:1 2183:1 2240:1 2244:1 2415:1 2442:1 2455:1 2460:1 2526:1 2585:1 2588:1 2716:1 2739:1 2771:1 2778:1 2905:1 3002:1 3050:1 3087:1 3102:1 3235:1 3321:1 3439:1 3457:1 3460:1 3562:1 3702:1 3872:1 3994:1 4016:1 4209:1 4288:1 4511:1 4528:1 4642:1 4679:1 4929:1 5054:1 5107:1 5201:1 5464:1 5542:1 5587:1 5970:1 6024:1 6499:1 6605:1 6702:1 6806:1 7491:1 7610:1 7655:1 8141:1 8328:1 8420:1 8712:1 9063:1 9339:1 9423:1 9460:1 9914:1 10134:1 10412:1 #
0.00064678820205899196279369922635283 5:1 7:1 10:1 11:1 12:1 14:1 15:1 16:1 17:1 19:1 21:1 25:1 26:1 29:1 30:1 34:1 37:1 48:1 49:1 56:1 57:1 58:1 60:1 62:1 63:1 66:1 78:1 82:1 84:1 88:1 90:1 96:1 99:1 100:1 102:1 103:1 104:1 109:1 117:1 145:1 157:1 168:1 181:1 192:1 216:1 217:1 218:1 231:1 251:1 277:1 279:1 308:1 323:1 329:1 333:1 382:1 387:1 393:1 404:1 427:1 433:1 434:1 457:1 471:1 472:1 478:1 521:1 530:1 575:1 581:1 630:1 666:1 691:1 725:1 758:1 779:1 839:1 858:1 951:1 1105:1 1178:1 1466:1 1467:1 1470:1 1483:1 1707:1 1742:1 1855:1 1874:1 1905:1 1975:1 2134:1 2350:1 2624:1 2654:1 2848:1 3056:1 3102:1 3814:1 4067:1 4101:1 4263:1 4291:1 4513:1 4848:1 5397:1 6528:1 6818:1 7133:1 7505:1 7799:1 8462:1 8659:1 #
2.6547939600624998547672220294835e-05 1:1 2:1 3:1 5:1 6:1 7:1 10:1 11:1 12:1 14:1 15:1 16:1 18:1 19:1 20:1 22:1 24:1 25:1 29:1 30:1 31:1 36:1 37:1 43:1 44:1 45:1 48:1 49:1 50:1 56:1 57:1 58:1 60:1 62:1 64:1 65:1 66:1 68:1 71:1 74:1 75:1 82:1 88:1 90:1 93:1 96:1 98:1 99:1 100:1 101:1 103:1 104:1 106:1 122:1 124:1 128:1 129:1 136:1 138:1 139:1 145:1 151:1 159:1 165:1 168:1 177:1 202:1 214:1 215:1 216:1 217:1 218:1 219:1 227:1 231:1 232:1 235:1 251:1 252:1 279:1 292:1 293:1 301:1 308:1 310:1 333:1 339:1 341:1 352:1 360:1 366:1 382:1 387:1 393:1 404:1 419:1 423:1 427:1 435:1 442:1 457:1 472:1 475:1 502:1 515:1 521:1 552:1 575:1 581:1 614:1 615:1 638:1 640:1 673:1 691:1 754:1 758:1 770:1 779:1 817:1 841:1 866:1 867:1 895:1 896:1 941:1 955:1 957:1 994:1 1015:1 1090:1 1105:1 1110:1 1138:1 1142:1 1146:1 1178:1 1208:1 1274:1 1361:1 1466:1 1467:1 1483:1 1519:1 1573:1 1578:1 1600:1 1872:1 1873:1 1955:1 1969:1 2035:1 2044:1 2134:1 2163:1 2349:1 2360:1 2371:1 2459:1 2624:1 2654:1 2674:1 2677:1 2714:1 2736:1 2739:1 2978:1 3011:1 3089:1 3097:1 3098:1 3270:1 3446:1 3833:1 3922:1 4101:1 4154:1 4291:1 4365:1 4449:1 4485:1 4512:1 4620:1 4934:1 5006:1 5067:1 5502:1 5586:1 5666:1 5693:1 5905:1 6068:1 6414:1 6528:1 6818:1 7410:1 7799:1 7974:1 8029:1 8659:1 9048:1 9346:1 9772:1 10451:1 #
0.0039457647232108324086841122380065 5:1 6:1 7:1 8:1 12:1 14:1 15:1 16:1 19:1 20:1 22:1 32:1 42:1 48:1 49:1 59:1 62:1 67:1 96:1 99:1 102:1 103:1 113:1 126:1 137:1 139:1 141:1 152:1 157:1 165:1 168:1 184:1 185:1 209:1 213:1 218:1 242:1 264:1 270:1 279:1 283:1 292:1 293:1 323:1 329:1 333:1 366:1 372:1 375:1 404:1 440:1 472:1 478:1 481:1 491:1 521:1 529:1 601:1 639:1 641:1 653:1 723:1 758:1 759:1 768:1 777:1 783:1 787:1 817:1 839:1 872:1 877:1 897:1 1133:1 1138:1 1147:1 1150:1 1275:1 1463:1 1484:1 1549:1 1676:1 1681:1 1715:1 1827:1 1986:1 2140:1 2160:1 2167:1 2235:1 2390:1 2419:1 2529:1 2654:1 2717:1 2852:1 2998:1 3102:1 3221:1 3487:1 3660:1 4145:1 4366:1 4529:1 4580:1 4586:1 4814:1 5138:1 5237:1 5283:1 5478:1 5782:1 5921:1 6111:1 6346:1 6818:1 6986:1 7377:1 7681:1 7922:1 8105:1 8703:1 8717:1 9605:1 9664:1 10068:1 10345:1 10405:1 #
-0.0022663616234563084377018338244625 1:1 5:1 7:1 8:1 11:1 12:1 15:1 16:1 17:1 18:1 20:1 21:1 22:1 23:1 24:1 25:1 28:1 30:1 31:1 32:1 36:1 37:1 38:1 44:1 51:1 56:1 58:1 62:1 64:1 73:1 75:1 77:1 78:1 84:1 85:1 86:1 89:1 90:1 96:1 97:1 98:1 99:1 102:1 103:1 104:1 106:1 107:1 111:1 113:1 114:1 116:1 120:1 123:1 127:1 131:1 135:1 136:1 149:1 156:1 158:1 161:1 167:1 175:1 179:1 184:1 185:1 186:1 192:1 193:1 194:1 199:1 203:1 207:1 210:1 218:1 221:1 230:1 231:1 237:1 238:1 243:1 254:1 257:1 259:1 262:1 264:1 265:1 266:1 268:1 270:1 272:1 273:1 279:1 294:1 295:1 308:1 312:1 316:1 317:1 320:1 322:1 326:1 327:1 329:1 331:1 332:1 340:1 350:1 355:1 364:1 367:1 368:1 369:1 374:1 384:1 389:1 392:1 393:1 394:1 404:1 409:1 416:1 425:1 427:1 429:1 443:1 464:1 465:1 490:1 498:1 523:1 530:1 557:1 564:1 615:1 627:1 632:1 634:1 642:1 669:1 670:1 690:1 702:1 709:1 712:1 714:1 755:1 777:1 785:1 792:1 800:1 822:1 833:1 842:1 843:1 882:1 899:1 912:1 924:1 938:1 944:1 971:1 993:1 1012:1 1025:1 1033:1 1035:1 1111:1 1127:1 1129:1 1176:1 1183:1 1200:1 1216:1 1279:1 1362:1 1363:1 1386:1 1433:1 1435:1 1437:1 1458:1 1476:1 1478:1 1534:1 1546:1 1560:1 1574:1 1580:1 1587:1 1660:1 1708:1 1788:1 1827:1 1856:1 1860:1 1879:1 1881:1 1883:1 1909:1 1979:1 1981:1 2090:1 2117:1 2170:1 2415:1 2443:1 2576:1 2598:1 2599:1 2637:1 2714:1 2778:1 2967:1 2995:1 3081:1 3100:1 3221:1 3295:1 3316:1 3321:1 3343:1 3377:1 3393:1 3450:1 3463:1 3581:1 3601:1 3709:1 3743:1 3842:1 4161:1 4186:1 4259:1 4265:1 4290:1 4369:1 4594:1 4730:1 4864:1 4908:1 5193:1 5210:1 5220:1 5519:1 5576:1 6192:1 6261:1 6279:1 6361:1 6694:1 7263:1 7326:1 7387:1 7637:1 7692:1 7795:1 8210:1 8623:1 10131:1 #
0.0049310772199517346331409939352852 1:1 5:1 6:1 7:1 8:1 10:1 11:1 12:1 14:1 15:1 16:1 17:1 18:1 19:1 20:1 21:1 22:1 25:1 29:1 30:1 31:1 34:1 41:1 42:1 48:1 49:1 50:1 51:1 57:1 58:1 62:1 67:1 69:1 80:1 82:1 84:1 87:1 88:1 92:1 93:1 94:1 96:1 97:1 101:1 102:1 103:1 108:1 113:1 117:1 125:1 138:1 143:1 145:1 150:1 151:1 166:1 177:1 187:1 192:1 195:1 199:1 202:1 204:1 209:1 214:1 216:1 218:1 222:1 226:1 227:1 232:1 234:1 238:1 249:1 254:1 263:1 279:1 283:1 292:1 293:1 301:1 307:1 323:1 333:1 337:1 350:1 352:1 387:1 393:1 409:1 419:1 427:1 432:1 435:1 452:1 471:1 472:1 491:1 521:1 529:1 548:1 594:1 601:1 609:1 618:1 637:1 638:1 666:1 712:1 740:1 754:1 758:1 759:1 777:1 780:1 783:1 787:1 794:1 812:1 866:1 875:1 895:1 951:1 959:1 974:1 975:1 1015:1 1059:1 1064:1 1138:1 1147:1 1172:1 1178:1 1274:1 1363:1 1416:1 1421:1 1448:1 1453:1 1467:1 1470:1 1483:1 1607:1 1672:1 1682:1 1811:1 1827:1 1931:1 1986:1 2023:1 2063:1 2105:1 2117:1 2140:1 2158:1 2172:1 2232:1 2278:1 2293:1 2309:1 2350:1 2390:1 2413:1 2654:1 2739:1 2846:1 2852:1 3032:1 3102:1 3134:1 3371:1 3373:1 3561:1 3668:1 3849:1 4004:1 4092:1 4132:1 4134:1 4181:1 4199:1 4661:1 4679:1 4703:1 4727:1 4762:1 4771:1 5178:1 5503:1 5584:1 5982:1 6083:1 6568:1 6854:1 7580:1 7910:1 8105:1 8462:1 8780:1 9782:1 10291:1 10451:1 10666:1 10668:1 10741:1 #
-0.0053720701490375189282588941352969 5:1 6:1 10:1 11:1 12:1 14:1 15:1 16:1 17:1 18:1 19:1 20:1 21:1 22:1 25:1 29:1 30:1 35:1 44:1 49:1 50:1 54:1 58:1 62:1 65:1 69:1 82:1 88:1 98:1 101:1 106:1 125:1 135:1 141:1 151:1 155:1 158:1 162:1 166:1 175:1 177:1 185:1 191:1 194:1 213:1 214:1 217:1 218:1 222:1 240:1 248:1 266:1 292:1 293:1 322:1 333:1 339:1 352:1 359:1 382:1 387:1 395:1 427:1 433:1 438:1 475:1 482:1 486:1 508:1 515:1 521:1 527:1 530:1 598:1 625:1 628:1 640:1 666:1 677:1 726:1 740:1 754:1 774:1 790:1 848:1 875:1 891:1 904:1 905:1 933:1 951:1 954:1 991:1 1002:1 1015:1 1019:1 1040:1 1041:1 1045:1 1105:1 1161:1 1178:1 1204:1 1214:1 1363:1 1378:1 1444:1 1467:1 1557:1 1606:1 1630:1 1676:1 1850:1 1890:1 1900:1 2039:1 2250:1 2388:1 2435:1 2503:1 2937:1 3021:1 3048:1 3050:1 3098:1 3177:1 3193:1 3636:1 3695:1 3823:1 3967:1 4107:1 4178:1 4216:1 4291:1 4502:1 4804:1 4924:1 5089:1 5687:1 5902:1 5970:1 6539:1 7743:1 8045:1 8361:1 9019:1 9102:1 9374:1 9671:1 10657:1 #
-0.0053720701490375189282588941352969 1:1 7:1 8:1 12:1 14:1 16:1 18:1 19:1 20:1 22:1 23:1 29:1 30:1 36:1 43:1 45:1 49:1 50:1 51:1 63:1 73:1 75:1 82:1 84:1 88:1 92:1 102:1 113:1 125:1 145:1 151:1 166:1 205:1 213:1 214:1 216:1 251:1 273:1 292:1 310:1 323:1 352:1 387:1 457:1 491:1 521:1 529:1 583:1 638:1 666:1 688:1 740:1 758:1 777:1 812:1 897:1 1059:1 1090:1 1161:1 1172:1 1363:1 1377:1 1421:1 1461:1 1480:1 1514:1 1521:1 1681:1 1717:1 1827:1 1986:1 2052:1 2140:1 2172:1 2215:1 2468:1 2654:1 2727:1 2898:1 3014:1 3101:1 3129:1 3134:1 3139:1 3371:1 3561:1 3832:1 4083:1 4548:1 4559:1 4595:1 4679:1 4727:1 5959:1 6430:1 7762:1 8105:1 8153:1 8355:1 8462:1 8545:1 9039:1 9350:1 #
-0.0053720701490375189282588941352969 1:1 3:1 5:1 6:1 7:1 8:1 10:1 11:1 14:1 15:1 16:1 17:1 18:1 20:1 21:1 22:1 24:1 25:1 29:1 30:1 32:1 39:1 48:1 49:1 50:1 54:1 56:1 58:1 60:1 63:1 66:1 67:1 68:1 71:1 81:1 82:1 84:1 93:1 94:1 95:1 96:1 98:1 103:1 104:1 106:1 113:1 117:1 121:1 135:1 137:1 142:1 145:1 151:1 168:1 174:1 193:1 202:1 204:1 205:1 215:1 216:1 223:1 235:1 236:1 238:1 243:1 251:1 264:1 266:1 271:1 279:1 292:1 301:1 302:1 310:1 313:1 352:1 357:1 364:1 375:1 387:1 419:1 427:1 433:1 434:1 440:1 452:1 457:1 467:1 471:1 472:1 478:1 482:1 521:1 527:1 552:1 564:1 575:1 598:1 608:1 628:1 630:1 653:1 717:1 754:1 755:1 846:1 854:1 858:1 872:1 875:1 892:1 897:1 946:1 951:1 1048:1 1074:1 1096:1 1105:1 1137:1 1147:1 1161:1 1178:1 1228:1 1259:1 1377:1 1378:1 1383:1 1388:1 1467:1 1568:1 1607:1 1620:1 1681:1 1832:1 1850:1 1951:1 1997:1 2134:1 2139:1 2174:1 2200:1 2378:1 2413:1 2654:1 2662:1 2737:1 3005:1 3021:1 3121:1 3316:1 3397:1 3474:1 3559:1 3566:1 3657:1 3690:1 4004:1 4181:1 4225:1 4301:1 4483:1 4579:1 4581:1 4673:1 4754:1 4929:1 5339:1 5401:1 5779:1 6083:1 6126:1 6194:1 6594:1 6731:1 6758:1 6843:1 6868:1 7816:1 8028:1 8206:1 8634:1 8687:1 9279:1 9377:1 9544:1 9998:1 10666:1 #
-0.0053720701490375189282588941352969 2:1 4:1 5:1 10:1 11:1 12:1 14:1 15:1 16:1 18:1 19:1 21:1 24:1 25:1 29:1 30:1 44:1 48:1 50:1 51:1 80:1 81:1 82:1 88:1 90:1 92:1 94:1 100:1 101:1 110:1 113:1 135:1 136:1 138:1 151:1 160:1 166:1 175:1 189:1 192:1 227:1 238:1 248:1 250:1 283:1 292:1 301:1 309:1 315:1 333:1 344:1 355:1 364:1 367:1 370:1 382:1 387:1 394:1 427:1 432:1 433:1 434:1 472:1 473:1 510:1 521:1 534:1 560:1 597:1 606:1 607:1 617:1 625:1 630:1 758:1 794:1 799:1 800:1 842:1 848:1 854:1 896:1 904:1 920:1 922:1 923:1 924:1 950:1 1025:1 1036:1 1040:1 1041:1 1098:1 1166:1 1180:1 1491:1 1537:1 1578:1 1580:1 1605:1 1607:1 1637:1 1676:1 1744:1 1767:1 1961:1 1998:1 2027:1 2043:1 2111:1 2143:1 2196:1 2242:1 2334:1 2585:1 2660:1 2739:1 2769:1 2848:1 2852:1 2894:1 2955:1 3409:1 3790:1 4004:1 4211:1 4659:1 4743:1 4816:1 4848:1 4975:1 5104:1 5236:1 5548:1 5704:1 7202:1 7310:1 7579:1 7644:1 8028:1 8071:1 8167:1 8236:1 8646:1 9231:1 10097:1 10361:1 #
-0.0053720701490375189282588941352969 2:1 4:1 5:1 6:1 7:1 14:1 15:1 16:1 17:1 18:1 19:1 20:1 21:1 22:1 25:1 26:1 30:1 42:1 48:1 49:1 50:1 51:1 57:1 59:1 62:1 66:1 69:1 72:1 78:1 81:1 82:1 84:1 90:1 95:1 102:1 103:1 106:1 107:1 122:1 131:1 137:1 141:1 143:1 149:1 152:1 167:1 172:1 186:1 196:1 213:1 216:1 218:1 222:1 238:1 245:1 251:1 258:1 261:1 264:1 265:1 269:1 276:1 278:1 279:1 283:1 292:1 310:1 323:1 324:1 352:1 360:1 365:1 387:1 393:1 411:1 418:1 421:1 423:1 440:1 457:1 471:1 478:1 491:1 508:1 515:1 521:1 529:1 575:1 615:1 641:1 665:1 728:1 754:1 755:1 758:1 777:1 783:1 812:1 816:1 835:1 841:1 868:1 872:1 877:1 887:1 895:1 897:1 941:1 953:1 957:1 996:1 1002:1 1014:1 1092:1 1098:1 1105:1 1109:1 1110:1 1138:1 1146:1 1147:1 1161:1 1178:1 1214:1 1275:1 1377:1 1398:1 1448:1 1483:1 1534:1 1549:1 1553:1 1605:1 1661:1 1792:1 1827:1 1886:1 1915:1 1986:1 2140:1 2172:1 2183:1 2344:1 2350:1 2370:1 2390:1 2419:1 2482:1 2541:1 2654:1 2716:1 2718:1 2739:1 3005:1 3032:1 3073:1 3102:1 3262:1 3397:1 3466:1 3487:1 3578:1 3702:1 3703:1 3718:1 3784:1 3826:1 3927:1 3965:1 3994:1 4059:1 4477:1 4491:1 4619:1 4714:1 4898:1 5014:1 5045:1 5066:1 5956:1 6415:1 6543:1 6737:1 7094:1 7251:1 7284:1 7511:1 7655:1 7840:1 7889:1 7975:1 8105:1 8148:1 8667:1 9442:1 9764:1 10345:1 10610:1 10697:1 #
0.0041950333485211146675175619691345 1:1 3:1 4:1 5:1 7:1 8:1 9:1 11:1 12:1 13:1 15:1 16:1 17:1 18:1 19:1 20:1 21:1 22:1 23:1 24:1 25:1 26:1 27:1 28:1 29:1 30:1 31:1 34:1 37:1 38:1 44:1 45:1 53:1 55:1 56:1 57:1 59:1 61:1 62:1 66:1 73:1 75:1 76:1 77:1 78:1 79:1 84:1 85:1 86:1 90:1 93:1 94:1 95:1 98:1 99:1 102:1 103:1 106:1 107:1 108:1 114:1 116:1 117:1 118:1 119:1 120:1 122:1 123:1 127:1 129:1 147:1 149:1 156:1 158:1 159:1 167:1 176:1 183:1 185:1 187:1 189:1 190:1 193:1 196:1 198:1 199:1 203:1 206:1 207:1 208:1 210:1 213:1 216:1 217:1 218:1 231:1 235:1 244:1 257:1 258:1 261:1 264:1 266:1 267:1 277:1 279:1 281:1 282:1 283:1 295:1 300:1 306:1 310:1 315:1 316:1 317:1 319:1 320:1 322:1 323:1 329:1 331:1 335:1 339:1 341:1 347:1 357:1 369:1 374:1 376:1 377:1 385:1 386:1 393:1 398:1 403:1 404:1 405:1 422:1 428:1 434:1 438:1 448:1 457:1 460:1 483:1 491:1 502:1 529:1 533:1 544:1 548:1 558:1 564:1 566:1 581:1 601:1 605:1 608:1 615:1 628:1 630:1 633:1 642:1 646:1 653:1 656:1 664:1 667:1 687:1 690:1 694:1 698:1 702:1 719:1 724:1 727:1 741:1 742:1 755:1 758:1 760:1 762:1 767:1 768:1 777:1 807:1 816:1 828:1 835:1 894:1 900:1 910:1 937:1 940:1 944:1 951:1 957:1 964:1 973:1 996:1 1022:1 1030:1 1042:1 1072:1 1092:1 1105:1 1110:1 1128:1 1146:1 1160:1 1161:1 1172:1 1430:1 1438:1 1457:1 1485:1 1508:1 1514:1 1523:1 1525:1 1534:1 1553:1 1565:1 1579:1 1626:1 1637:1 1652:1 1723:1 1746:1 1755:1 1790:1 1819:1 1827:1 1865:1 1868:1 1891:1 1926:1 1933:1 1949:1 1956:1 1986:1 2004:1 2091:1 2104:1 2129:1 2133:1 2140:1 2147:1 2151:1 2156:1 2183:1 2208:1 2213:1 2225:1 2230:1 2386:1 2478:1 2484:1 2558:1 2573:1 2716:1 2774:1 2778:1 2785:1 2898:1 2908:1 2959:1 2967:1 3053:1 3089:1 3096:1 3102:1 3134:1 3169:1 3172:1 3270:1 3479:1 3584:1 3588:1 3614:1 3668:1 3787:1 3848:1 3947:1 4065:1 4308:1 4340:1 4366:1 4411:1 4458:1 4474:1 4544:1 4561:1 4586:1 4679:1 4817:1 5073:1 5107:1 5405:1 5487:1 5527:1 5571:1 5624:1 5670:1 5810:1 5933:1 5953:1 5956:1 6071:1 6165:1 6167:1 6315:1 6430:1 6508:1 6994:1 7084:1 7284:1 7309:1 7389:1 8029:1 8105:1 8544:1 8645:1 8718:1 8808:1 8900:1 9026:1 9044:1 9306:1 9560:1 9580:1 9605:1 9798:1 10471:1 #
0.0053720701490375189282588941352969 1:1 4:1 9:1 11:1 12:1 13:1 14:1 15:1 16:1 17:1 18:1 20:1 21:1 22:1 23:1 24:1 25:1 26:1 28:1 29:1 30:1 32:1 34:1 36:1 38:1 41:1 46:1 47:1 51:1 52:1 55:1 59:1 61:1 62:1 73:1 75:1 77:1 78:1 81:1 84:1 86:1 90:1 94:1 95:1 98:1 99:1 102:1 103:1 104:1 107:1 112:1 113:1 114:1 115:1 117:1 119:1 120:1 127:1 132:1 133:1 136:1 137:1 143:1 149:1 154:1 155:1 158:1 163:1 167:1 170:1 171:1 176:1 178:1 179:1 193:1 195:1 196:1 207:1 209:1 216:1 218:1 228:1 230:1 231:1 232:1 237:1 239:1 241:1 242:1 244:1 249:1 264:1 265:1 275:1 277:1 295:1 304:1 318:1 319:1 325:1 328:1 333:1 335:1 339:1 341:1 347:1 348:1 353:1 357:1 365:1 383:1 401:1 406:1 408:1 438:1 440:1 442:1 449:1 450:1 472:1 475:1 536:1 548:1 566:1 569:1 600:1 608:1 619:1 620:1 642:1 645:1 649:1 653:1 663:1 668:1 716:1 750:1 751:1 755:1 758:1 761:1 762:1 775:1 796:1 800:1 802:1 803:1 808:1 828:1 844:1 849:1 854:1 891:1 921:1 945:1 951:1 970:1 1004:1 1008:1 1012:1 1048:1 1105:1 1111:1 1123:1 1128:1 1132:1 1138:1 1155:1 1161:1 1180:1 1186:1 1258:1 1259:1 1385:1 1462:1 1473:1 1483:1 1514:1 1553:1 1567:1 1624:1 1711:1 1750:1 1761:1 1803:1 1808:1 1882:1 1919:1 1926:1 1959:1 1962:1 2005:1 2039:1 2109:1 2120:1 2134:1 2147:1 2150:1 2156:1 2199:1 2213:1 2236:1 2344:1 2441:1 2462:1 2692:1 2716:1 2739:1 2743:1 2813:1 2898:1 3040:1 3078:1 3098:1 3119:1 3128:1 3134:1 3144:1 3398:1 3434:1 3487:1 3589:1 3618:1 3629:1 3845:1 4059:1 4065:1 4128:1 4134:1 4312:1 4340:1 4356:1 4366:1 4441:1 4477:1 4481:1 4486:1 4507:1 4580:1 4642:1 4748:1 4754:1 4878:1 5109:1 5135:1 5166:1 5203:1 5220:1 5293:1 5306:1 5308:1 5358:1 5414:1 5483:1 5646:1 5731:1 5865:1 6068:1 6191:1 6192:1 6269:1 6358:1 6470:1 6835:1 6874:1 7001:1 7005:1 7084:1 7194:1 7228:1 7316:1 7547:1 7691:1 7822:1 7906:1 7982:1 8396:1 8784:1 9107:1 9149:1 9423:1 9824:1 9913:1 10120:1 10249:1 10296:1 10345:1 10456:1 10493:1 10520:1 10532:1 10600:1 10640:1 #
0.00080944435290473764309238102754307 5:1 6:1 7:1 8:1 9:1 11:1 12:1 13:1 15:1 16:1 17:1 18:1 19:1 21:1 22:1 23:1 24:1 25:1 26:1 27:1 28:1 29:1 30:1 31:1 32:1 34:1 39:1 41:1 44:1 45:1 47:1 50:1 51:1 54:1 56:1 62:1 64:1 66:1 67:1 71:1 73:1 76:1 77:1 78:1 86:1 89:1 93:1 94:1 98:1 102:1 103:1 104:1 106:1 108:1 112:1 113:1 114:1 115:1 116:1 119:1 120:1 123:1 125:1 126:1 127:1 128:1 130:1 135:1 136:1 141:1 146:1 149:1 153:1 155:1 156:1 158:1 161:1 163:1 164:1 165:1 167:1 170:1 179:1 181:1 182:1 186:1 191:1 193:1 195:1 196:1 198:1 199:1 202:1 203:1 207:1 208:1 209:1 210:1 214:1 216:1 218:1 227:1 228:1 229:1 231:1 232:1 240:1 241:1 242:1 244:1 249:1 255:1 258:1 264:1 265:1 266:1 270:1 279:1 281:1 282:1 285:1 293:1 306:1 314:1 319:1 322:1 331:1 335:1 340:1 341:1 345:1 347:1 350:1 351:1 369:1 377:1 381:1 383:1 385:1 389:1 395:1 403:1 404:1 407:1 413:1 420:1 425:1 428:1 434:1 442:1 445:1 446:1 452:1 454:1 467:1 471:1 472:1 475:1 497:1 498:1 500:1 502:1 513:1 515:1 530:1 533:1 541:1 543:1 551:1 553:1 554:1 581:1 625:1 628:1 630:1 644:1 651:1 653:1 664:1 665:1 668:1 672:1 690:1 694:1 719:1 728:1 742:1 746:1 755:1 758:1 773:1 788:1 789:1 798:1 816:1 819:1 828:1 830:1 837:1 844:1 851:1 870:1 882:1 919:1 937:1 941:1 944:1 946:1 947:1 955:1 956:1 987:1 1006:1 1008:1 1022:1 1035:1 1037:1 1047:1 1048:1 1050:1 1060:1 1084:1 1087:1 1090:1 1105:1 1128:1 1131:1 1145:1 1147:1 1170:1 1185:1 1186:1 1192:1 1199:1 1215:1 1259:1 1305:1 1310:1 1371:1 1381:1 1388:1 1397:1 1404:1 1422:1 1438:1 1459:1 1467:1 1471:1 1481:1 1507:1 1514:1 1543:1 1550:1 1587:1 1599:1 1615:1 1676:1 1761:1 1792:1 1796:1 1805:1 1842:1 1850:1 1851:1 1854:1 1894:1 1915:1 1951:1 2042:1 2044:1 2065:1 2091:1 2159:1 2183:1 2199:1 2216:1 2219:1 2240:1 2276:1 2277:1 2308:1 2318:1 2368:1 2371:1 2442:1 2462:1 2542:1 2548:1 2566:1 2652:1 2716:1 2722:1 3040:1 3073:1 3078:1 3102:1 3112:1 3134:1 3202:1 3221:1 3222:1 3295:1 3335:1 3368:1 3441:1 3452:1 3474:1 3668:1 3766:1 3846:1 3927:1 3934:1 4161:1 4264:1 4308:1 4312:1 4330:1 4420:1 4481:1 4505:1 4574:1 4679:1 4714:1 4747:1 4768:1 4770:1 4801:1 4804:1 4879:1 4897:1 4948:1 5083:1 5160:1 5314:1 5325:1 5394:1 5402:1 5431:1 5500:1 5515:1 5579:1 5589:1 5598:1 5643:1 5726:1 5730:1 5791:1 5865:1 5984:1 6004:1 6163:1 6188:1 6189:1 6315:1 6334:1 6415:1 6605:1 6630:1 6693:1 6841:1 6873:1 7163:1 7316:1 7324:1 7365:1 7485:1 7583:1 7611:1 7768:1 8122:1 8272:1 8551:1 9044:1 9050:1 9085:1 9095:1 9161:1 9836:1 9896:1 10099:1 10158:1 10217:1 10502:1 10532:1 #
0.0010482558377332864933684231090183 7:1 10:1 12:1 17:1 20:1 22:1 23:1 25:1 26:1 27:1 28:1 30:1 35:1 36:1 49:1 60:1 62:1 73:1 78:1 88:1 93:1 102:1 104:1 108:1 113:1 123:1 136:1 151:1 156:1 197:1 202:1 213:1 218:1 222:1 227:1 230:1 243:1 277:1 281:1 286:1 339:1 350:1 394:1 403:1 472:1 478:1 482:1 495:1 500:1 529:1 530:1 602:1 615:1 653:1 665:1 669:1 728:1 755:1 779:1 797:1 827:1 909:1 924:1 941:1 950:1 1015:1 1236:1 1385:1 1397:1 1403:1 1432:1 1451:1 1466:1 1536:1 1570:1 1591:1 1850:1 1855:1 1871:1 1881:1 1898:1 2240:1 2277:1 2361:1 2585:1 2588:1 2625:1 2710:1 2733:1 2990:1 3098:1 3109:1 3149:1 3177:1 3367:1 3562:1 3703:1 3723:1 3813:1 3871:1 4059:1 4547:1 5217:1 5257:1 5549:1 5956:1 6035:1 6249:1 6261:1 6607:1 6750:1 7021:1 7474:1 7795:1 8335:1 8490:1 8570:1 9003:1 10255:1 10306:1 #
0.0053720701490375189282588941352969 3:1 5:1 10:1 12:1 15:1 16:1 17:1 18:1 20:1 21:1 25:1 27:1 36:1 49:1 56:1 58:1 66:1 82:1 87:1 88:1 90:1 113:1 116:1 125:1 135:1 151:1 158:1 166:1 172:1 209:1 218:1 229:1 231:1 232:1 242:1 249:1 254:1 292:1 310:1 315:1 350:1 357:1 359:1 387:1 394:1 395:1 413:1 421:1 438:1 472:1 500:1 502:1 560:1 601:1 667:1 758:1 817:1 868:1 875:1 894:1 1098:1 1111:1 1375:1 1380:1 1566:1 1635:1 1676:1 1987:1 2090:1 2116:1 2168:1 2240:1 2257:1 2453:1 2537:1 2568:1 2717:1 2729:1 2739:1 3152:1 3433:1 3470:1 3642:1 3666:1 4031:1 4312:1 4621:1 4860:1 5047:1 5121:1 5314:1 5598:1 6358:1 6411:1 6549:1 6684:1 7163:1 7228:1 7554:1 7655:1 7993:1 8172:1 8470:1 8647:1 9165:1 10062:1 10159:1 #
-0.0053720701490375189282588941352969 2:1 4:1 5:1 6:1 7:1 9:1 10:1 11:1 12:1 13:1 15:1 16:1 17:1 18:1 19:1 22:1 23:1 24:1 26:1 27:1 28:1 30:1 31:1 34:1 35:1 37:1 38:1 40:1 41:1 45:1 46:1 47:1 48:1 49:1 51:1 56:1 61:1 62:1 64:1 66:1 68:1 73:1 75:1 76:1 77:1 84:1 85:1 86:1 90:1 92:1 94:1 102:1 103:1 104:1 105:1 107:1 113:1 114:1 119:1 120:1 127:1 134:1 142:1 143:1 149:1 153:1 154:1 156:1 163:1 167:1 170:1 172:1 181:1 187:1 193:1 195:1 196:1 198:1 202:1 203:1 211:1 216:1 218:1 227:1 230:1 232:1 233:1 234:1 237:1 241:1 244:1 251:1 252:1 255:1 261:1 263:1 264:1 269:1 270:1 279:1 281:1 295:1 304:1 308:1 312:1 321:1 325:1 329:1 334:1 339:1 341:1 344:1 351:1 353:1 367:1 369:1 374:1 376:1 377:1 381:1 382:1 384:1 385:1 387:1 393:1 409:1 418:1 423:1 434:1 446:1 452:1 475:1 482:1 495:1 548:1 551:1 557:1 566:1 569:1 581:1 614:1 615:1 630:1 632:1 639:1 642:1 645:1 647:1 648:1 653:1 666:1 687:1 698:1 703:1 727:1 728:1 741:1 755:1 758:1 762:1 798:1 799:1 800:1 812:1 828:1 831:1 844:1 868:1 872:1 888:1 900:1 937:1 941:1 944:1 946:1 957:1 962:1 997:1 1004:1 1008:1 1022:1 1038:1 1048:1 1058:1 1074:1 1089:1 1105:1 1128:1 1147:1 1159:1 1161:1 1172:1 1186:1 1188:1 1226:1 1258:1 1259:1 1284:1 1363:1 1425:1 1428:1 1430:1 1432:1 1438:1 1440:1 1449:1 1450:1 1452:1 1453:1 1476:1 1483:1 1484:1 1514:1 1519:1 1543:1 1568:1 1591:1 1611:1 1620:1 1625:1 1632:1 1640:1 1643:1 1689:1 1729:1 1755:1 1798:1 1814:1 1849:1 1850:1 1884:1 1928:1 1940:1 1951:1 1953:1 2035:1 2085:1 2091:1 2096:1 2117:1 2180:1 2183:1 2258:1 2344:1 2382:1 2386:1 2417:1 2423:1 2432:1 2462:1 2467:1 2548:1 2573:1 2599:1 2603:1 2610:1 2668:1 2705:1 2714:1 2716:1 2730:1 2774:1 2934:1 2944:1 2954:1 3022:1 3087:1 3102:1 3119:1 3134:1 3172:1 3194:1 3297:1 3468:1 3507:1 3609:1 3621:1 3630:1 3666:1 3904:1 4302:1 4528:1 4586:1 4603:1 4679:1 4905:1 4921:1 5215:1 5416:1 5571:1 5574:1 5640:1 5715:1 5778:1 6088:1 6195:1 6254:1 6365:1 6874:1 7005:1 7059:1 7547:1 7929:1 8328:1 8335:1 8551:1 8638:1 8703:1 9279:1 9421:1 9626:1 9760:1 9912:1 10217:1 10442:1 10532:1 10558:1 #
-0.0053720701490375189282588941352969 1:1 4:1 5:1 7:1 8:1 11:1 12:1 13:1 15:1 16:1 17:1 18:1 19:1 20:1 21:1 22:1 23:1 24:1 25:1 26:1 27:1 28:1 29:1 30:1 32:1 34:1 35:1 36:1 38:1 39:1 40:1 45:1 46:1 50:1 56:1 61:1 62:1 64:1 65:1 66:1 70:1 75:1 77:1 86:1 87:1 90:1 94:1 98:1 100:1 101:1 102:1 107:1 108:1 110:1 112:1 114:1 115:1 120:1 123:1 124:1 127:1 133:1 134:1 135:1 138:1 152:1 153:1 154:1 158:1 164:1 170:1 171:1 176:1 180:1 183:1 184:1 187:1 188:1 190:1 201:1 208:1 209:1 218:1 221:1 223:1 230:1 232:1 237:1 238:1 255:1 258:1 266:1 275:1 281:1 282:1 285:1 292:1 294:1 295:1 300:1 307:1 320:1 322:1 329:1 339:1 341:1 344:1 350:1 354:1 356:1 365:1 372:1 376:1 377:1 378:1 384:1 385:1 387:1 395:1 399:1 400:1 401:1 412:1 423:1 428:1 434:1 452:1 467:1 472:1 502:1 513:1 533:1 536:1 539:1 544:1 553:1 569:1 606:1 616:1 630:1 653:1 663:1 675:1 702:1 714:1 715:1 751:1 755:1 758:1 768:1 797:1 802:1 806:1 811:1 813:1 838:1 863:1 868:1 872:1 877:1 902:1 922:1 932:1 934:1 937:1 943:1 944:1 946:1 970:1 994:1 1004:1 1015:1 1018:1 1028:1 1035:1 1048:1 1062:1 1105:1 1117:1 1138:1 1172:1 1180:1 1194:1 1220:1 1230:1 1275:1 1397:1 1421:1 1438:1 1450:1 1452:1 1458:1 1471:1 1487:1 1534:1 1536:1 1549:1 1565:1 1640:1 1744:1 1755:1 1836:1 1843:1 1850:1 1881:1 1894:1 1915:1 1951:1 2010:1 2044:1 2117:1 2133:1 2145:1 2172:1 2177:1 2183:1 2194:1 2257:1 2293:1 2304:1 2370:1 2386:1 2410:1 2442:1 2533:1 2603:1 2718:1 2733:1 2739:1 2801:1 3022:1 3078:1 3102:1 3135:1 3152:1 3221:1 3262:1 3412:1 3533:1 3607:1 3630:1 3742:1 3833:1 3869:1 3911:1 3926:1 3957:1 3968:1 3974:1 3994:1 4173:1 4468:1 4528:1 4586:1 4679:1 4717:1 4772:1 4804:1 5062:1 5080:1 5100:1 5179:1 5556:1 5624:1 5630:1 5656:1 5813:1 5856:1 5887:1 5919:1 6004:1 6027:1 6054:1 6163:1 6167:1 6195:1 6313:1 6362:1 6415:1 6808:1 7221:1 7230:1 8382:1 8454:1 9019:1 9323:1 9507:1 9728:1 9756:1 9839:1 10377:1 10423:1 10517:1 #
-0.0053720701490375189282588941352969 4:1 5:1 6:1 7:1 8:1 9:1 10:1 11:1 12:1 16:1 18:1 19:1 20:1 21:1 22:1 23:1 25:1 26:1 27:1 28:1 29:1 30:1 32:1 33:1 34:1 35:1 37:1 38:1 42:1 45:1 48:1 49:1 50:1 52:1 56:1 62:1 64:1 68:1 73:1 76:1 77:1 78:1 82:1 85:1 88:1 90:1 94:1 95:1 100:1 101:1 102:1 103:1 104:1 105:1 106:1 108:1 113:1 114:1 119:1 120:1 124:1 130:1 131:1 133:1 135:1 137:1 141:1 143:1 146:1 149:1 158:1 159:1 161:1 172:1 186:1 189:1 192:1 194:1 195:1 196:1 198:1 202:1 216:1 218:1 224:1 226:1 227:1 231:1 236:1 244:1 248:1 257:1 262:1 264:1 266:1 270:1 275:1 278:1 281:1 291:1 292:1 307:1 309:1 322:1 323:1 331:1 334:1 339:1 341:1 350:1 352:1 353:1 355:1 357:1 359:1 360:1 379:1 395:1 402:1 404:1 426:1 434:1 448:1 457:1 471:1 472:1 490:1 500:1 507:1 521:1 536:1 566:1 575:1 581:1 628:1 630:1 632:1 633:1 642:1 666:1 688:1 723:1 728:1 741:1 742:1 755:1 758:1 762:1 768:1 783:1 815:1 821:1 831:1 868:1 872:1 900:1 905:1 910:1 941:1 944:1 945:1 1012:1 1015:1 1021:1 1035:1 1096:1 1098:1 1111:1 1122:1 1147:1 1154:1 1160:1 1176:1 1178:1 1268:1 1283:1 1383:1 1432:1 1438:1 1462:1 1483:1 1549:1 1550:1 1568:1 1580:1 1583:1 1640:1 1643:1 1729:1 1742:1 1748:1 1760:1 1797:1 1806:1 1854:1 1855:1 1939:1 1999:1 2044:1 2078:1 2120:1 2147:1 2181:1 2195:1 2207:1 2344:1 2350:1 2382:1 2386:1 2390:1 2432:1 2443:1 2714:1 2716:1 2726:1 2739:1 2775:1 2826:1 2921:1 2928:1 2934:1 2946:1 2954:1 2998:1 3056:1 3059:1 3135:1 3250:1 3286:1 3316:1 3398:1 3438:1 3461:1 3475:1 3607:1 3618:1 3678:1 3773:1 3907:1 3927:1 3960:1 4101:1 4173:1 4211:1 4263:1 4302:1 4303:1 4312:1 4383:1 4477:1 4481:1 4494:1 4567:1 4642:1 4679:1 4714:1 4878:1 5030:1 5101:1 5113:1 5163:1 5822:1 6147:1 6184:1 6407:1 6806:1 6867:1 6889:1 7251:1 7377:1 7675:1 8190:1 8634:1 8821:1 9003:1 9323:1 9338:1 9664:1 9754:1 9839:1 10429:1 10641:1 #
-0.0022947474838814845531087538432757 1:1 2:1 5:1 6:1 7:1 9:1 10:1 11:1 12:1 13:1 14:1 15:1 16:1 17:1 18:1 19:1 20:1 21:1 22:1 23:1 24:1 25:1 27:1 29:1 30:1 31:1 32:1 33:1 34:1 35:1 36:1 39:1 41:1 42:1 44:1 45:1 48:1 49:1 51:1 52:1 53:1 54:1 55:1 56:1 57:1 58:1 60:1 61:1 62:1 63:1 66:1 67:1 68:1 69:1 71:1 72:1 75:1 79:1 80:1 81:1 82:1 83:1 84:1 86:1 88:1 90:1 92:1 94:1 95:1 96:1 97:1 98:1 101:1 102:1 103:1 104:1 106:1 109:1 110:1 113:1 114:1 116:1 117:1 120:1 122:1 124:1 125:1 126:1 128:1 129:1 131:1 135:1 136:1 137:1 138:1 141:1 143:1 146:1 148:1 149:1 151:1 152:1 156:1 158:1 159:1 162:1 163:1 166:1 168:1 169:1 170:1 171:1 172:1 174:1 179:1 181:1 184:1 185:1 186:1 189:1 190:1 191:1 192:1 198:1 200:1 202:1 205:1 209:1 213:1 214:1 215:1 216:1 219:1 221:1 222:1 229:1 230:1 231:1 232:1 233:1 235:1 238:1 240:1 243:1 244:1 245:1 246:1 250:1 251:1 252:1 253:1 254:1 256:1 259:1 262:1 265:1 268:1 275:1 276:1 277:1 279:1 280:1 289:1 295:1 296:1 299:1 301:1 304:1 313:1 316:1 318:1 319:1 320:1 323:1 324:1 331:1 336:1 337:1 341:1 350:1 352:1 355:1 358:1 364:1 372:1 375:1 377:1 378:1 379:1 382:1 386:1 387:1 390:1 392:1 394:1 395:1 396:1 400:1 403:1 404:1 406:1 407:1 410:1 411:1 416:1 417:1 421:1 423:1 426:1 427:1 430:1 432:1 435:1 447:1 452:1 457:1 459:1 460:1 463:1 467:1 472:1 475:1 477:1 478:1 480:1 483:1 484:1 491:1 495:1 496:1 498:1 500:1 502:1 503:1 516:1 522:1 529:1 530:1 545:1 548:1 549:1 555:1 558:1 564:1 566:1 569:1 575:1 581:1 597:1 601:1 606:1 612:1 615:1 618:1 624:1 628:1 629:1 630:1 640:1 645:1 646:1 647:1 648:1 651:1 652:1 653:1 656:1 658:1 666:1 671:1 674:1 678:1 695:1 696:1 700:1 702:1 717:1 723:1 725:1 728:1 749:1 757:1 758:1 760:1 764:1 775:1 778:1 783:1 789:1 802:1 805:1 806:1 808:1 812:1 815:1 816:1 817:1 822:1 832:1 833:1 835:1 839:1 843:1 866:1 880:1 888:1 891:1 904:1 905:1 909:1 917:1 920:1 923:1 924:1 929:1 932:1 936:1 937:1 943:1 948:1 950:1 951:1 968:1 974:1 978:1 992:1 1002:1 1015:1 1025:1 1028:1 1037:1 1043:1 1046:1 1053:1 1067:1 1068:1 1071:1 1085:1 1087:1 1089:1 1092:1 1097:1 1098:1 1101:1 1109:1 1111:1 1119:1 1138:1 1148:1 1164:1 1172:1 1176:1 1178:1 1180:1 1200:1 1215:1 1248:1 1258:1 1259:1 1268:1 1284:1 1363:1 1376:1 1379:1 1380:1 1386:1 1395:1 1396:1 1401:1 1408:1 1413:1 1414:1 1416:1 1425:1 1432:1 1439:1 1450:1 1461:1 1469:1 1473:1 1476:1 1483:1 1484:1 1485:1 1489:1 1491:1 1492:1 1499:1 1502:1 1514:1 1516:1 1523:1 1525:1 1551:1 1552:1 1555:1 1561:1 1566:1 1567:1 1574:1 1586:1 1596:1 1604:1 1605:1 1637:1 1653:1 1656:1 1676:1 1683:1 1702:1 1726:1 1737:1 1739:1 1750:1 1784:1 1795:1 1818:1 1825:1 1832:1 1848:1 1854:1 1859:1 1872:1 1879:1 1887:1 1892:1 1901:1 1904:1 1905:1 1906:1 1915:1 1917:1 1949:1 1957:1 1993:1 2000:1 2009:1 2011:1 2023:1 2025:1 2027:1 2033:1 2053:1 2069:1 2070:1 2078:1 2087:1 2090:1 2110:1 2120:1 2143:1 2165:1 2169:1 2177:1 2179:1 2183:1 2184:1 2188:1 2195:1 2219:1 2240:1 2246:1 2247:1 2249:1 2255:1 2267:1 2272:1 2274:1 2293:1 2325:1 2363:1 2368:1 2374:1 2385:1 2399:1 2414:1 2418:1 2432:1 2442:1 2445:1 2462:1 2484:1 2486:1 2562:1 2599:1 2610:1 2630:1 2662:1 2702:1 2716:1 2730:1 2734:1 2788:1 2817:1 2819:1 2898:1 2900:1 2901:1 2912:1 2946:1 2976:1 2990:1 2999:1 3002:1 3003:1 3013:1 3027:1 3068:1 3084:1 3094:1 3097:1 3098:1 3099:1 3110:1 3118:1 3130:1 3182:1 3218:1 3245:1 3254:1 3271:1 3288:1 3298:1 3310:1 3320:1 3326:1 3348:1 3380:1 3394:1 3406:1 3409:1 3431:1 3450:1 3463:1 3481:1 3563:1 3569:1 3585:1 3589:1 3592:1 3600:1 3607:1 3611:1 3614:1 3625:1 3629:1 3649:1 3654:1 3666:1 3684:1 3724:1 3777:1 3781:1 3826:1 3831:1 3832:1 3853:1 3869:1 3886:1 3899:1 3900:1 3922:1 3933:1 3940:1 3960:1 4029:1 4044:1 4058:1 4071:1 4075:1 4193:1 4215:1 4252:1 4255:1 4259:1 4263:1 4278:1 4301:1 4311:1 4318:1 4330:1 4400:1 4441:1 4477:1 4483:1 4581:1 4601:1 4629:1 4636:1 4639:1 4696:1 4697:1 4701:1 4714:1 4731:1 4766:1 4831:1 4934:1 4961:1 5002:1 5013:1 5023:1 5030:1 5031:1 5066:1 5077:1 5146:1 5173:1 5177:1 5188:1 5221:1 5228:1 5278:1 5312:1 5339:1 5358:1 5400:1 5412:1 5433:1 5476:1 5489:1 5503:1 5553:1 5558:1 5570:1 5624:1 5640:1 5651:1 5668:1 5679:1 5680:1 5695:1 5736:1 5746:1 5791:1 5813:1 5845:1 5851:1 5906:1 5972:1 5989:1 6001:1 6045:1 6095:1 6112:1 6116:1 6168:1 6179:1 6230:1 6277:1 6278:1 6307:1 6332:1 6381:1 6447:1 6481:1 6491:1 6498:1 6535:1 6548:1 6549:1 6575:1 6584:1 6630:1 6647:1 6654:1 6665:1 6669:1 6671:1 6698:1 6795:1 6807:1 6920:1 6940:1 7047:1 7094:1 7103:1 7206:1 7233:1 7236:1 7348:1 7369:1 7550:1 7592:1 7594:1 7616:1 7625:1 7660:1 7667:1 7761:1 7815:1 7821:1 7831:1 7872:1 7876:1 7966:1 7992:1 7993:1 8015:1 8075:1 8122:1 8153:1 8199:1 8282:1 8309:1 8369:1 8383:1 8412:1 8508:1 8592:1 8699:1 8722:1 8842:1 9092:1 9122:1 9135:1 9172:1 9214:1 9247:1 9266:1 9301:1 9305:1 9369:1 9405:1 9425:1 9544:1 9617:1 9635:1 9721:1 9791:1 9805:1 9963:1 10138:1 10261:1 10328:1 10471:1 10488:1 10492:1 10493:1 10500:1 10624:1 10682:1 #
0.0030563766012000866470477156155994 1:1 3:1 5:1 7:1 19:1 20:1 21:1 22:1 24:1 25:1 27:1 29:1 30:1 31:1 32:1 34:1 37:1 38:1 40:1 45:1 48:1 56:1 62:1 69:1 72:1 73:1 75:1 82:1 84:1 86:1 87:1 88:1 101:1 102:1 104:1 105:1 108:1 113:1 114:1 122:1 126:1 131:1 135:1 136:1 140:1 141:1 151:1 158:1 165:1 168:1 190:1 191:1 195:1 202:1 203:1 212:1 214:1 215:1 218:1 229:1 230:1 238:1 239:1 244:1 251:1 268:1 272:1 278:1 279:1 311:1 321:1 324:1 332:1 341:1 359:1 374:1 375:1 377:1 385:1 388:1 390:1 393:1 395:1 409:1 416:1 423:1 468:1 491:1 498:1 499:1 544:1 575:1 581:1 618:1 628:1 651:1 658:1 660:1 666:1 709:1 723:1 740:1 768:1 776:1 785:1 805:1 817:1 820:1 833:1 835:1 849:1 850:1 904:1 905:1 918:1 919:1 922:1 926:1 1002:1 1015:1 1053:1 1082:1 1105:1 1138:1 1161:1 1363:1 1377:1 1395:1 1476:1 1509:1 1534:1 1561:1 1566:1 1584:1 1630:1 1650:1 1708:1 1729:1 1887:1 1955:1 2183:1 2226:1 2353:1 2360:1 2704:1 2739:1 3282:1 3464:1 3743:1 4211:1 4255:1 5261:1 5366:1 5571:1 5645:1 5734:1 5754:1 5939:1 5963:1 6194:1 6497:1 6779:1 6978:1 7163:1 7429:1 7479:1 7983:1 9608:1 9798:1 10056:1 10275:1 #
0.0053720701490375189282588941352969 5:1 29:1 32:1 57:1 60:1 61:1 69:1 72:1 78:1 90:1 92:1 141:1 151:1 158:1 175:1 191:1 204:1 217:1 266:1 272:1 278:1 304:1 307:1 315:1 316:1 357:1 359:1 395:1 419:1 603:1 645:1 666:1 787:1 848:1 866:1 891:1 904:1 1048:1 1172:1 1182:1 1189:1 1552:1 1568:1 1669:1 1809:1 1890:1 1915:1 2086:1 2635:1 2706:1 2825:1 3118:1 3300:1 3547:1 3695:1 3839:1 3843:1 3898:1 4158:1 4641:1 4841:1 4959:1 8794:1 9173:1 9470:1 9492:1 9700:1 10290:1 #
0.0053720701490375189282588941352969 5:1 11:1 13:1 20:1 24:1 33:1 39:1 45:1 51:1 70:1 76:1 88:1 102:1 151:1 164:1 165:1 175:1 179:1 204:1 251:1 318:1 387:1 610:1 633:1 758:1 994:1 1049:1 1973:1 2106:1 2117:1 2585:1 3801:1 5597:1 6008:1 6349:1 6460:1 8798:1 8853:1 9571:1 #
0.0053720701490375189282588941352969 20:1 24:1 25:1 37:1 48:1 51:1 56:1 72:1 88:1 90:1 95:1 102:1 103:1 113:1 151:1 179:1 189:1 213:1 214:1 222:1 230:1 243:1 245:1 251:1 252:1 411:1 425:1 472:1 502:1 521:1 557:1 653:1 758:1 994:1 1149:1 1450:1 1570:1 2069:1 2101:1 2240:1 2304:1 2420:1 3242:1 3254:1 3650:1 3896:1 4211:1 4351:1 4904:1 5067:1 5692:1 6872:1 7146:1 7295:1 7727:1 8376:1 8669:1 8722:1 9003:1 9314:1 #
0.0053720701490375189282588941352969 1:1 14:1 15:1 16:1 18:1 21:1 25:1 26:1 30:1 32:1 49:1 51:1 54:1 79:1 84:1 88:1 98:1 103:1 113:1 135:1 141:1 150:1 151:1 156:1 158:1 160:1 166:1 177:1 191:1 202:1 214:1 216:1 218:1 221:1 222:1 233:1 304:1 308:1 350:1 394:1 395:1 403:1 411:1 421:1 438:1 459:1 486:1 500:1 554:1 564:1 598:1 600:1 609:1 648:1 665:1 669:1 758:1 918:1 950:1 1149:1 1150:1 1170:1 1363:1 1466:1 1676:1 1803:1 1850:1 1855:1 1998:1 2009:1 2069:1 2116:1 2134:1 2240:1 2350:1 2403:1 2409:1 2541:1 2690:1 2765:1 2782:1 3084:1 3129:1 3134:1 3630:1 3886:1 3968:1 4490:1 4592:1 4929:1 4937:1 5071:1 5121:1 5135:1 5371:1 5390:1 5477:1 5695:1 5757:1 5934:1 5965:1 6039:1 7337:1 7513:1 7648:1 7747:1 7906:1 8667:1 10447:1 #
0.0053720701490375189282588941352969 2:1 7:1 12:1 18:1 19:1 20:1 21:1 29:1 30:1 31:1 38:1 48:1 50:1 51:1 53:1 62:1 69:1 72:1 73:1 88:1 90:1 95:1 103:1 106:1 113:1 136:1 152:1 166:1 218:1 243:1 273:1 292:1 382:1 459:1 460:1 475:1 478:1 618:1 630:1 666:1 724:1 749:1 800:1 816:1 1105:1 1138:1 1148:1 1172:1 1275:1 1283:1 1365:1 1483:1 1644:1 1838:1 1886:1 2172:1 2361:1 2393:1 2654:1 2733:1 2918:1 3040:1 3589:1 3666:1 3899:1 4080:1 4286:1 4361:1 4514:1 4938:1 5358:1 5640:1 5679:1 5774:1 5938:1 6163:1 6415:1 7836:1 8471:1 8703:1 8787:1 9305:1 10338:1 #
-0.0053720701490375189282588941352969 5:1 8:1 11:1 12:1 20:1 48:1 62:1 72:1 88:1 151:1 169:1 758:1 778:1 909:1 928:1 1200:1 1842:1 1973:1 2468:1 2585:1 4105:1 #
-0.0053720701490375189282588941352969 5:1 13:1 15:1 21:1 73:1 75:1 82:1 88:1 98:1 116:1 141:1 151:1 214:1 226:1 254:1 323:1 339:1 364:1 421:1 432:1 475:1 530:1 533:1 597:1 609:1 665:1 669:1 674:1 688:1 783:1 784:1 854:1 940:1 950:1 1016:1 1023:1 1030:1 1033:1 1043:1 1059:1 1216:1 1259:1 1553:1 1644:1 1729:1 1748:1 2111:1 2185:1 2196:1 2216:1 2349:1 2382:1 2393:1 2434:1 2612:1 2621:1 2894:1 3040:1 3114:1 3359:1 3391:1 3403:1 3777:1 3886:1 3891:1 3910:1 3999:1 4059:1 4124:1 4514:1 4643:1 4756:1 4882:1 5073:1 5598:1 6261:1 6360:1 6650:1 7429:1 7513:1 7521:1 7554:1 8528:1 8609:1 9226:1 9350:1 10393:1 10725:1 #
-0.0053720701490375189282588941352969 1:1 2:1 7:1 11:1 18:1 19:1 20:1 24:1 25:1 27:1 29:1 30:1 41:1 48:1 51:1 56:1 71:1 73:1 88:1 102:1 104:1 112:1 113:1 114:1 119:1 126:1 135:1 137:1 151:1 153:1 170:1 177:1 181:1 195:1 207:1 214:1 230:1 231:1 244:1 250:1 279:1 283:1 293:1 322:1 329:1 333:1 335:1 347:1 352:1 411:1 440:1 457:1 472:1 478:1 510:1 544:1 569:1 644:1 651:1 666:1 716:1 755:1 758:1 779:1 798:1 814:1 830:1 951:1 955:1 991:1 994:1 1105:1 1247:1 1258:1 1259:1 1272:1 1364:1 1386:1 1457:1 1487:1 1593:1 1643:1 1652:1 1676:1 1784:1 1803:1 1854:1 1987:1 2091:1 2117:1 2213:1 2222:1 2304:1 2311:1 2361:1 2439:1 2661:1 2714:1 2734:1 2774:1 3022:1 3040:1 3112:1 3150:1 3204:1 3213:1 3441:1 3614:1 4367:1 4477:1 4507:1 4594:1 4679:1 4929:1 5959:1 6167:1 7658:1 8304:1 8912:1 9827:1 10190:1 #
-0.0053720701490375189282588941352969 8:1 10:1 18:1 21:1 25:1 57:1 73:1 88:1 106:1 213:1 230:1 280:1 332:1 333:1 341:1 421:1 530:1 564:1 609:1 637:1 665:1 669:1 674:1 803:1 806:1 848:1 859:1 868:1 917:1 940:1 1096:1 1118:1 1200:1 1363:1 1644:1 1872:1 2069:1 2361:1 2401:1 2403:1 2423:1 2486:1 2662:1 2736:1 3053:1 3060:1 3335:1 3571:1 4106:1 5412:1 6072:1 6490:1 6639:1 7180:1 7623:1 7668:1 7852:1 8478:1 9319:1 9432:1 9790:1 10375:1 #
-0.0053720701490375189282588941352969 1972:1 6205:1 8872:1 9221:1 9607:1 9687:1 #
0.0021788471129409459070558341409196 4:1 5:1 6:1 7:1 8:1 9:1 10:1 11:1 12:1 16:1 18:1 19:1 20:1 21:1 22:1 23:1 25:1 26:1 27:1 28:1 29:1 30:1 32:1 33:1 34:1 35:1 37:1 38:1 42:1 45:1 48:1 49:1 50:1 52:1 56:1 62:1 64:1 68:1 73:1 76:1 77:1 78:1 82:1 85:1 88:1 90:1 94:1 95:1 100:1 101:1 102:1 103:1 104:1 105:1 106:1 108:1 113:1 114:1 119:1 120:1 124:1 130:1 131:1 133:1 135:1 137:1 141:1 143:1 146:1 149:1 158:1 159:1 161:1 172:1 186:1 189:1 192:1 194:1 195:1 196:1 198:1 202:1 216:1 218:1 224:1 226:1 227:1 231:1 236:1 244:1 248:1 257:1 262:1 264:1 266:1 270:1 275:1 278:1 281:1 291:1 292:1 307:1 309:1 322:1 323:1 331:1 334:1 339:1 341:1 350:1 352:1 353:1 355:1 357:1 359:1 360:1 379:1 395:1 402:1 404:1 426:1 434:1 448:1 457:1 471:1 472:1 490:1 500:1 507:1 521:1 536:1 566:1 575:1 581:1 628:1 630:1 632:1 633:1 642:1 666:1 688:1 723:1 728:1 741:1 742:1 755:1 758:1 762:1 768:1 783:1 815:1 821:1 831:1 868:1 872:1 900:1 905:1 910:1 941:1 944:1 945:1 1012:1 1015:1 1021:1 1035:1 1096:1 1098:1 1111:1 1122:1 1147:1 1154:1 1160:1 1176:1 1178:1 1268:1 1283:1 1383:1 1432:1 1438:1 1462:1 1483:1 1549:1 1550:1 1568:1 1580:1 1583:1 1640:1 1643:1 1729:1 1742:1 1748:1 1760:1 1797:1 1806:1 1854:1 1855:1 1939:1 1999:1 2044:1 2078:1 2120:1 2147:1 2181:1 2195:1 2207:1 2344:1 2350:1 2382:1 2386:1 2390:1 2432:1 2443:1 2714:1 2716:1 2726:1 2739:1 2775:1 2826:1 2921:1 2928:1 2934:1 2946:1 2954:1 2998:1 3056:1 3059:1 3135:1 3250:1 3286:1 3316:1 3398:1 3438:1 3461:1 3475:1 3607:1 3618:1 3678:1 3773:1 3907:1 3927:1 3960:1 4101:1 4173:1 4211:1 4263:1 4302:1 4303:1 4312:1 4383:1 4477:1 4481:1 4494:1 4567:1 4642:1 4679:1 4714:1 4878:1 5030:1 5101:1 5113:1 5163:1 5822:1 6147:1 6184:1 6407:1 6806:1 6867:1 6889:1 7251:1 7377:1 7675:1 8190:1 8634:1 8821:1 9003:1 9323:1 9338:1 9664:1 9754:1 9839:1 10429:1 10641:1 #
0.0024374034433743353884882498761044 1:1 2:1 3:1 4:1 5:1 6:1 7:1 8:1 9:1 10:1 11:1 12:1 13:1 14:1 15:1 16:1 17:1 18:1 19:1 20:1 21:1 22:1 23:1 24:1 25:1 27:1 28:1 29:1 30:1 31:1 32:1 33:1 34:1 35:1 36:1 38:1 39:1 41:1 43:1 44:1 45:1 46:1 47:1 48:1 49:1 50:1 51:1 52:1 53:1 54:1 55:1 56:1 57:1 58:1 59:1 60:1 62:1 63:1 64:1 65:1 66:1 67:1 69:1 70:1 71:1 73:1 75:1 76:1 77:1 78:1 79:1 81:1 82:1 84:1 85:1 86:1 88:1 89:1 90:1 91:1 92:1 93:1 94:1 96:1 97:1 98:1 100:1 101:1 102:1 103:1 104:1 106:1 109:1 110:1 113:1 114:1 115:1 116:1 117:1 120:1 121:1 122:1 123:1 124:1 125:1 126:1 127:1 128:1 130:1 135:1 136:1 138:1 139:1 141:1 142:1 143:1 146:1 148:1 149:1 150:1 151:1 155:1 157:1 158:1 159:1 161:1 162:1 163:1 164:1 165:1 166:1 167:1 168:1 170:1 172:1 174:1 175:1 177:1 178:1 179:1 181:1 184:1 185:1 186:1 187:1 189:1 191:1 192:1 193:1 198:1 199:1 202:1 203:1 205:1 214:1 215:1 216:1 217:1 218:1 219:1 222:1 225:1 226:1 227:1 228:1 229:1 230:1 231:1 233:1 235:1 236:1 237:1 238:1 240:1 243:1 244:1 246:1 248:1 249:1 251:1 252:1 254:1 255:1 259:1 263:1 265:1 266:1 267:1 270:1 273:1 275:1 276:1 278:1 281:1 282:1 292:1 293:1 295:1 302:1 308:1 312:1 316:1 318:1 322:1 327:1 329:1 331:1 332:1 339:1 344:1 345:1 347:1 349:1 350:1 352:1 355:1 359:1 364:1 368:1 370:1 375:1 377:1 382:1 385:1 387:1 390:1 391:1 392:1 393:1 394:1 395:1 396:1 399:1 402:1 403:1 404:1 407:1 410:1 411:1 414:1 415:1 416:1 417:1 418:1 421:1 426:1 427:1 430:1 432:1 433:1 434:1 436:1 448:1 457:1 460:1 461:1 463:1 465:1 467:1 468:1 470:1 471:1 472:1 475:1 476:1 483:1 488:1 490:1 491:1 496:1 498:1 500:1 502:1 510:1 520:1 521:1 522:1 529:1 533:1 544:1 548:1 549:1 553:1 560:1 564:1 567:1 581:1 594:1 595:1 597:1 600:1 601:1 603:1 607:1 608:1 609:1 613:1 615:1 617:1 618:1 621:1 625:1 628:1 631:1 634:1 640:1 642:1 645:1 647:1 650:1 651:1 653:1 665:1 667:1 669:1 673:1 674:1 683:1 687:1 688:1 691:1 700:1 712:1 714:1 719:1 723:1 724:1 728:1 741:1 746:1 754:1 756:1 758:1 759:1 760:1 763:1 765:1 772:1 774:1 777:1 780:1 784:1 786:1 787:1 788:1 791:1 794:1 802:1 806:1 811:1 814:1 826:1 830:1 832:1 833:1 840:1 842:1 843:1 846:1 858:1 874:1 879:1 888:1 892:1 893:1 894:1 895:1 901:1 905:1 906:1 908:1 910:1 911:1 912:1 918:1 919:1 921:1 927:1 929:1 932:1 933:1 937:1 938:1 948:1 951:1 955:1 957:1 967:1 971:1 972:1 973:1 985:1 991:1 993:1 994:1 995:1 998:1 1015:1 1019:1 1025:1 1033:1 1037:1 1040:1 1041:1 1049:1 1060:1 1064:1 1083:1 1090:1 1096:1 1099:1 1105:1 1110:1 1111:1 1112:1 1118:1 1119:1 1127:1 1131:1 1132:1 1133:1 1138:1 1146:1 1150:1 1161:1 1162:1 1171:1 1173:1 1178:1 1187:1 1200:1 1214:1 1215:1 1218:1 1228:1 1234:1 1268:1 1273:1 1363:1 1364:1 1365:1 1372:1 1380:1 1383:1 1385:1 1388:1 1389:1 1393:1 1399:1 1408:1 1409:1 1411:1 1414:1 1425:1 1430:1 1432:1 1447:1 1450:1 1457:1 1460:1 1461:1 1463:1 1467:1 1468:1 1473:1 1476:1 1487:1 1491:1 1496:1 1501:1 1502:1 1514:1 1531:1 1545:1 1548:1 1549:1 1551:1 1552:1 1554:1 1565:1 1568:1 1570:1 1571:1 1583:1 1584:1 1585:1 1593:1 1605:1 1607:1 1626:1 1637:1 1643:1 1646:1 1664:1 1676:1 1681:1 1685:1 1719:1 1742:1 1755:1 1757:1 1767:1 1784:1 1792:1 1798:1 1811:1 1837:1 1861:1 1873:1 1883:1 1890:1 1894:1 1901:1 1911:1 1915:1 1925:1 1934:1 1941:1 1946:1 1951:1 1966:1 1976:1 1987:1 2000:1 2005:1 2007:1 2016:1 2018:1 2059:1 2066:1 2069:1 2071:1 2072:1 2075:1 2088:1 2093:1 2104:1 2106:1 2135:1 2163:1 2164:1 2169:1 2179:1 2187:1 2194:1 2219:1 2227:1 2240:1 2250:1 2277:1 2293:1 2294:1 2304:1 2313:1 2322:1 2334:1 2355:1 2360:1 2382:1 2401:1 2406:1 2409:1 2420:1 2428:1 2439:1 2442:1 2455:1 2462:1 2471:1 2486:1 2503:1 2504:1 2529:1 2535:1 2549:1 2561:1 2570:1 2594:1 2600:1 2611:1 2630:1 2631:1 2634:1 2668:1 2674:1 2706:1 2716:1 2726:1 2739:1 2743:1 2761:1 2776:1 2778:1 2807:1 2811:1 2821:1 2852:1 2859:1 2894:1 2898:1 2935:1 2936:1 2950:1 2955:1 2956:1 3004:1 3012:1 3021:1 3031:1 3059:1 3067:1 3068:1 3073:1 3077:1 3081:1 3084:1 3097:1 3100:1 3101:1 3119:1 3139:1 3152:1 3194:1 3195:1 3197:1 3202:1 3204:1 3213:1 3220:1 3250:1 3261:1 3262:1 3283:1 3323:1 3335:1 3362:1 3371:1 3403:1 3446:1 3450:1 3463:1 3474:1 3475:1 3487:1 3544:1 3559:1 3572:1 3576:1 3595:1 3596:1 3607:1 3618:1 3666:1 3708:1 3719:1 3733:1 3736:1 3743:1 3750:1 3762:1 3804:1 3805:1 3837:1 3858:1 3877:1 3883:1 3901:1 3945:1 3968:1 4042:1 4055:1 4067:1 4074:1 4079:1 4107:1 4142:1 4167:1 4185:1 4202:1 4210:1 4211:1 4216:1 4254:1 4259:1 4267:1 4276:1 4278:1 4285:1 4288:1 4291:1 4296:1 4318:1 4345:1 4346:1 4367:1 4370:1 4387:1 4417:1 4428:1 4469:1 4472:1 4482:1 4497:1 4498:1 4541:1 4617:1 4632:1 4658:1 4695:1 4706:1 4708:1 4709:1 4717:1 4719:1 4739:1 4757:1 4804:1 4884:1 4885:1 4922:1 4924:1 4944:1 4967:1 4973:1 4992:1 5016:1 5029:1 5062:1 5066:1 5089:1 5119:1 5123:1 5140:1 5181:1 5193:1 5230:1 5283:1 5353:1 5360:1 5366:1 5383:1 5417:1 5423:1 5428:1 5450:1 5465:1 5491:1 5494:1 5535:1 5578:1 5581:1 5595:1 5597:1 5598:1 5614:1 5677:1 5679:1 5692:1 5719:1 5826:1 5836:1 5859:1 5898:1 5912:1 5931:1 5936:1 5990:1 6010:1 6011:1 6024:1 6063:1 6097:1 6116:1 6147:1 6194:1 6238:1 6352:1 6364:1 6377:1 6400:1 6406:1 6442:1 6471:1 6473:1 6481:1 6488:1 6497:1 6523:1 6532:1 6535:1 6576:1 6613:1 6623:1 6693:1 6702:1 6743:1 6747:1 6795:1 6801:1 6871:1 6911:1 6974:1 6989:1 7008:1 7024:1 7040:1 7091:1 7166:1 7175:1 7189:1 7236:1 7248:1 7280:1 7295:1 7403:1 7418:1 7451:1 7500:1 7509:1 7516:1 7550:1 7566:1 7667:1 7702:1 7705:1 7721:1 7737:1 7738:1 7758:1 7780:1 7808:1 7822:1 7978:1 7993:1 8014:1 8043:1 8127:1 8150:1 8185:1 8191:1 8200:1 8221:1 8224:1 8264:1 8279:1 8304:1 8355:1 8376:1 8380:1 8396:1 8408:1 8438:1 8475:1 8502:1 8514:1 8516:1 8530:1 8598:1 8633:1 8735:1 8746:1 8832:1 8872:1 8986:1 9004:1 9008:1 9238:1 9245:1 9297:1 9304:1 9308:1 9330:1 9350:1 9365:1 9379:1 9411:1 9423:1 9432:1 9445:1 9476:1 9488:1 9544:1 9622:1 9722:1 9733:1 9754:1 9772:1 9798:1 9941:1 10095:1 10097:1 10119:1 10210:1 10237:1 10255:1 10266:1 10301:1 10327:1 10342:1 10420:1 10421:1 10533:1 10564:1 #
0.0013677413461945034118399933120713 1:1 2:1 4:1 5:1 7:1 8:1 10:1 11:1 12:1 14:1 16:1 17:1 18:1 21:1 23:1 27:1 28:1 30:1 31:1 38:1 39:1 45:1 46:1 49:1 50:1 51:1 52:1 54:1 58:1 62:1 69:1 76:1 78:1 83:1 88:1 90:1 94:1 95:1 98:1 100:1 105:1 108:1 109:1 110:1 113:1 123:1 135:1 141:1 143:1 151:1 152:1 158:1 166:1 167:1 168:1 174:1 175:1 177:1 191:1 192:1 198:1 203:1 208:1 214:1 216:1 218:1 221:1 222:1 227:1 229:1 238:1 251:1 257:1 258:1 261:1 263:1 264:1 278:1 279:1 281:1 283:1 301:1 309:1 317:1 319:1 322:1 323:1 339:1 340:1 362:1 384:1 387:1 395:1 403:1 407:1 411:1 423:1 426:1 434:1 438:1 502:1 515:1 521:1 529:1 530:1 570:1 600:1 602:1 615:1 618:1 625:1 628:1 636:1 645:1 666:1 689:1 725:1 741:1 755:1 758:1 761:1 784:1 786:1 809:1 835:1 912:1 915:1 933:1 937:1 950:1 1016:1 1105:1 1118:1 1185:1 1188:1 1200:1 1214:1 1235:1 1363:1 1386:1 1408:1 1444:1 1467:1 1473:1 1497:1 1523:1 1536:1 1626:1 1630:1 1652:1 1676:1 1704:1 1719:1 1803:1 1850:1 1891:1 1915:1 1960:1 1998:1 2015:1 2104:1 2111:1 2132:1 2190:1 2221:1 2240:1 2349:1 2361:1 2417:1 2423:1 2435:1 2564:1 2585:1 2952:1 2961:1 2963:1 3005:1 3014:1 3061:1 3105:1 3470:1 3668:1 3723:1 3886:1 3984:1 4073:1 4079:1 4176:1 4383:1 4620:1 5956:1 6084:1 6191:1 6326:1 6350:1 6374:1 6419:1 6672:1 6758:1 7044:1 7212:1 7474:1 7849:1 8247:1 8298:1 8687:1 8746:1 8798:1 9282:1 9550:1 9630:1 9685:1 9847:1 10556:1 #
0.0011022374288471867634364720345275 5:1 6:1 7:1 8:1 10:1 11:1 12:1 14:1 16:1 17:1 18:1 20:1 21:1 22:1 24:1 25:1 27:1 28:1 29:1 30:1 34:1 35:1 36:1 38:1 45:1 46:1 48:1 51:1 52:1 54:1 55:1 56:1 57:1 60:1 62:1 65:1 68:1 71:1 73:1 78:1 82:1 84:1 86:1 88:1 89:1 90:1 94:1 95:1 98:1 102:1 103:1 104:1 105:1 109:1 114:1 119:1 122:1 123:1 126:1 127:1 130:1 132:1 135:1 141:1 146:1 149:1 156:1 157:1 158:1 159:1 163:1 165:1 167:1 168:1 170:1 172:1 173:1 181:1 186:1 189:1 198:1 200:1 202:1 207:1 209:1 213:1 215:1 218:1 227:1 231:1 233:1 236:1 237:1 244:1 245:1 253:1 268:1 277:1 280:1 281:1 283:1 285:1 292:1 304:1 315:1 319:1 321:1 322:1 325:1 329:1 336:1 341:1 343:1 344:1 354:1 361:1 364:1 384:1 385:1 387:1 395:1 398:1 404:1 407:1 417:1 434:1 443:1 461:1 470:1 472:1 475:1 482:1 485:1 487:1 496:1 502:1 507:1 526:1 528:1 530:1 544:1 548:1 552:1 557:1 569:1 575:1 595:1 600:1 602:1 607:1 608:1 618:1 620:1 625:1 628:1 629:1 631:1 641:1 642:1 648:1 660:1 663:1 667:1 670:1 688:1 700:1 716:1 725:1 742:1 745:1 755:1 762:1 771:1 782:1 789:1 807:1 815:1 843:1 844:1 864:1 868:1 875:1 910:1 913:1 937:1 994:1 1015:1 1035:1 1060:1 1097:1 1104:1 1105:1 1111:1 1142:1 1148:1 1155:1 1161:1 1172:1 1186:1 1275:1 1363:1 1378:1 1385:1 1418:1 1428:1 1432:1 1439:1 1446:1 1457:1 1462:1 1470:1 1473:1 1476:1 1484:1 1496:1 1498:1 1514:1 1557:1 1558:1 1560:1 1595:1 1620:1 1626:1 1639:1 1676:1 1697:1 1791:1 1807:1 1845:1 1850:1 1855:1 1874:1 1881:1 1884:1 1909:1 1926:1 1933:1 1951:1 1977:1 2078:1 2117:1 2158:1 2167:1 2240:1 2277:1 2306:1 2311:1 2333:1 2360:1 2363:1 2380:1 2382:1 2415:1 2417:1 2420:1 2428:1 2436:1 2442:1 2462:1 2526:1 2610:1 2623:1 2630:1 2695:1 2706:1 2739:1 2771:1 2898:1 2936:1 3021:1 3022:1 3040:1 3100:1 3152:1 3222:1 3487:1 3493:1 3534:1 3542:1 3614:1 3618:1 3679:1 3681:1 3756:1 3774:1 3872:1 3883:1 3905:1 3926:1 3927:1 4016:1 4059:1 4066:1 4074:1 4091:1 4156:1 4161:1 4170:1 4253:1 4302:1 4312:1 4359:1 4505:1 4507:1 4548:1 4672:1 4679:1 4682:1 4706:1 4899:1 4912:1 4951:1 5160:1 5345:1 5464:1 5640:1 5663:1 5705:1 6029:1 6111:1 6189:1 6315:1 6424:1 6504:1 6553:1 6571:1 6580:1 6714:1 6808:1 6926:1 6930:1 7062:1 7178:1 7179:1 7243:1 7321:1 7430:1 7510:1 7655:1 7691:1 7906:1 8015:1 8028:1 8320:1 8333:1 8335:1 8548:1 8632:1 8728:1 8887:1 8935:1 9044:1 9176:1 9442:1 9741:1 9937:1 9944:1 10000:1 10076:1 10307:1 10412:1 10455:1 10493:1 10622:1 10678:1 10682:1 #
0.0022763346213987437419157267015635 1:1 5:1 7:1 13:1 15:1 16:1 17:1 20:1 21:1 22:1 24:1 25:1 28:1 29:1 30:1 31:1 34:1 44:1 46:1 47:1 56:1 57:1 61:1 62:1 66:1 69:1 75:1 77:1 78:1 84:1 88:1 91:1 93:1 98:1 102:1 103:1 106:1 110:1 113:1 116:1 124:1 130:1 135:1 136:1 137:1 149:1 152:1 168:1 169:1 172:1 175:1 177:1 203:1 218:1 221:1 223:1 227:1 230:1 231:1 232:1 237:1 255:1 292:1 294:1 315:1 322:1 323:1 329:1 330:1 339:1 341:1 343:1 344:1 351:1 364:1 372:1 375:1 376:1 378:1 387:1 391:1 419:1 434:1 452:1 460:1 471:1 477:1 482:1 502:1 523:1 551:1 554:1 581:1 607:1 615:1 617:1 618:1 636:1 666:1 674:1 692:1 702:1 703:1 758:1 772:1 799:1 805:1 812:1 856:1 866:1 875:1 894:1 950:1 965:1 1067:1 1105:1 1111:1 1112:1 1138:1 1161:1 1466:1 1565:1 1593:1 1630:1 1745:1 1852:1 1855:1 1880:1 1917:1 2054:1 2059:1 2120:1 2420:1 2442:1 2546:1 2739:1 2759:1 2900:1 3021:1 3087:1 3134:1 3154:1 3203:1 3204:1 3221:1 3405:1 3495:1 3707:1 3774:1 3946:1 4034:1 4291:1 4406:1 4576:1 4586:1 4684:1 4992:1 5135:1 5278:1 5469:1 5557:1 5580:1 5593:1 5598:1 5746:1 5747:1 6278:1 6386:1 6529:1 7194:1 7380:1 7403:1 7430:1 7751:1 7775:1 7906:1 7979:1 8370:1 8464:1 8486:1 8718:1 9224:1 9416:1 9605:1 9949:1 10065:1 #
-0.0053720701490375189282588941352969 1:1 5:1 6:1 7:1 8:1 10:1 14:1 15:1 17:1 18:1 19:1 20:1 21:1 22:1 24:1 25:1 29:1 30:1 31:1 32:1 34:1 35:1 36:1 41:1 42:1 44:1 45:1 48:1 50:1 51:1 53:1 54:1 55:1 56:1 57:1 60:1 62:1 66:1 68:1 69:1 72:1 73:1 74:1 78:1 79:1 82:1 84:1 88:1 89:1 90:1 94:1 95:1 98:1 102:1 103:1 104:1 105:1 106:1 112:1 113:1 115:1 116:1 122:1 123:1 125:1 130:1 131:1 135:1 137:1 140:1 148:1 150:1 151:1 152:1 157:1 158:1 159:1 163:1 165:1 174:1 181:1 189:1 196:1 202:1 213:1 217:1 218:1 219:1 225:1 227:1 231:1 236:1 237:1 243:1 244:1 251:1 253:1 262:1 270:1 275:1 279:1 286:1 293:1 301:1 307:1 315:1 322:1 325:1 329:1 331:1 332:1 334:1 339:1 341:1 346:1 350:1 357:1 360:1 382:1 383:1 416:1 417:1 419:1 426:1 434:1 435:1 451:1 452:1 457:1 471:1 473:1 480:1 482:1 483:1 485:1 499:1 500:1 503:1 512:1 521:1 557:1 569:1 570:1 575:1 583:1 606:1 607:1 628:1 630:1 650:1 651:1 653:1 660:1 671:1 695:1 724:1 728:1 745:1 755:1 758:1 761:1 762:1 768:1 779:1 794:1 810:1 813:1 815:1 827:1 828:1 839:1 840:1 843:1 854:1 898:1 899:1 927:1 944:1 991:1 994:1 1002:1 1009:1 1027:1 1048:1 1061:1 1090:1 1092:1 1105:1 1111:1 1172:1 1173:1 1199:1 1229:1 1279:1 1385:1 1391:1 1394:1 1425:1 1432:1 1450:1 1466:1 1473:1 1483:1 1485:1 1522:1 1528:1 1534:1 1536:1 1568:1 1591:1 1602:1 1606:1 1633:1 1704:1 1713:1 1809:1 1881:1 1924:1 1967:1 1975:1 1977:1 1985:1 1987:1 2032:1 2034:1 2035:1 2044:1 2062:1 2064:1 2069:1 2086:1 2101:1 2125:1 2134:1 2163:1 2169:1 2183:1 2267:1 2277:1 2304:1 2309:1 2350:1 2360:1 2420:1 2428:1 2437:1 2442:1 2452:1 2499:1 2546:1 2576:1 2606:1 2615:1 2700:1 2739:1 2759:1 2817:1 2824:1 2936:1 2983:1 2990:1 3068:1 3100:1 3102:1 3118:1 3210:1 3369:1 3463:1 3696:1 3853:1 3907:1 3927:1 3994:1 4101:1 4205:1 4234:1 4236:1 4269:1 4296:1 4337:1 4411:1 4428:1 4448:1 4460:1 4714:1 5009:1 5016:1 5065:1 5135:1 5151:1 5166:1 5245:1 5260:1 5420:1 5483:1 5630:1 5703:1 5729:1 5817:1 5919:1 5930:1 6068:1 6194:1 6407:1 6416:1 6492:1 6568:1 6589:1 6630:1 6684:1 6718:1 6867:1 6914:1 7033:1 7094:1 7409:1 7610:1 7688:1 7906:1 8028:1 8304:1 8513:1 8934:1 9050:1 9280:1 9722:1 10217:1 10250:1 10647:1 #
-0.00077391821834484097238776589833265 1:1 5:1 7:1 8:1 10:1 11:1 12:1 15:1 16:1 17:1 18:1 19:1 20:1 21:1 22:1 23:1 24:1 25:1 27:1 29:1 30:1 31:1 32:1 33:1 34:1 35:1 36:1 39:1 43:1 44:1 45:1 48:1 49:1 50:1 51:1 52:1 53:1 54:1 56:1 57:1 58:1 60:1 62:1 63:1 66:1 67:1 68:1 72:1 73:1 79:1 81:1 82:1 84:1 86:1 88:1 89:1 90:1 94:1 95:1 96:1 98:1 101:1 102:1 104:1 105:1 106:1 107:1 112:1 113:1 114:1 116:1 117:1 120:1 122:1 125:1 126:1 130:1 131:1 135:1 138:1 146:1 147:1 149:1 156:1 157:1 158:1 159:1 163:1 165:1 166:1 168:1 170:1 172:1 174:1 179:1 186:1 188:1 192:1 195:1 196:1 202:1 205:1 213:1 215:1 216:1 217:1 226:1 227:1 230:1 231:1 232:1 235:1 236:1 242:1 243:1 244:1 245:1 251:1 252:1 264:1 270:1 272:1 273:1 277:1 278:1 279:1 285:1 289:1 292:1 293:1 295:1 304:1 310:1 312:1 314:1 315:1 320:1 322:1 326:1 328:1 329:1 333:1 341:1 344:1 345:1 350:1 357:1 360:1 364:1 374:1 375:1 381:1 385:1 387:1 392:1 395:1 396:1 397:1 404:1 410:1 413:1 416:1 421:1 433:1 434:1 435:1 436:1 442:1 452:1 457:1 460:1 465:1 467:1 470:1 471:1 472:1 475:1 480:1 482:1 486:1 490:1 498:1 502:1 503:1 515:1 533:1 541:1 553:1 564:1 566:1 569:1 570:1 575:1 601:1 608:1 609:1 613:1 618:1 628:1 630:1 632:1 642:1 645:1 651:1 653:1 657:1 660:1 667:1 669:1 671:1 683:1 695:1 698:1 700:1 708:1 709:1 723:1 725:1 727:1 740:1 747:1 754:1 758:1 762:1 764:1 767:1 771:1 789:1 793:1 800:1 811:1 816:1 817:1 831:1 861:1 872:1 874:1 875:1 882:1 891:1 894:1 899:1 919:1 932:1 938:1 945:1 946:1 952:1 962:1 964:1 967:1 971:1 976:1 981:1 987:1 1005:1 1009:1 1021:1 1022:1 1037:1 1056:1 1092:1 1100:1 1105:1 1131:1 1134:1 1137:1 1138:1 1147:1 1161:1 1170:1 1173:1 1178:1 1181:1 1185:1 1187:1 1250:1 1259:1 1273:1 1284:1 1361:1 1371:1 1375:1 1397:1 1408:1 1417:1 1432:1 1441:1 1450:1 1458:1 1462:1 1471:1 1473:1 1476:1 1483:1 1485:1 1514:1 1520:1 1525:1 1527:1 1532:1 1534:1 1536:1 1549:1 1551:1 1556:1 1568:1 1583:1 1585:1 1591:1 1611:1 1626:1 1646:1 1649:1 1650:1 1660:1 1666:1 1672:1 1704:1 1712:1 1750:1 1792:1 1805:1 1809:1 1822:1 1824:1 1832:1 1838:1 1853:1 1861:1 1894:1 1909:1 1936:1 1939:1 1951:1 1961:1 1964:1 1967:1 1975:1 1977:1 1983:1 1999:1 2003:1 2004:1 2038:1 2039:1 2053:1 2117:1 2124:1 2148:1 2150:1 2158:1 2163:1 2177:1 2183:1 2190:1 2240:1 2257:1 2277:1 2285:1 2291:1 2300:1 2320:1 2344:1 2350:1 2370:1 2371:1 2396:1 2400:1 2418:1 2440:1 2442:1 2448:1 2462:1 2488:1 2542:1 2553:1 2623:1 2625:1 2654:1 2674:1 2702:1 2709:1 2714:1 2716:1 2732:1 2736:1 2793:1 2821:1 2912:1 2959:1 2960:1 2963:1 3001:1 3015:1 3022:1 3023:1 3040:1 3097:1 3102:1 3128:1 3129:1 3134:1 3153:1 3199:1 3204:1 3227:1 3239:1 3261:1 3287:1 3295:1 3310:1 3331:1 3337:1 3346:1 3493:1 3495:1 3552:1 3553:1 3562:1 3582:1 3615:1 3620:1 3665:1 3666:1 3668:1 3706:1 3709:1 3712:1 3720:1 3750:1 3774:1 3801:1 3833:1 3853:1 3864:1 3872:1 3922:1 3994:1 4007:1 4029:1 4040:1 4059:1 4063:1 4079:1 4091:1 4096:1 4100:1 4133:1 4161:1 4168:1 4193:1 4194:1 4202:1 4291:1 4313:1 4330:1 4335:1 4342:1 4358:1 4365:1 4399:1 4472:1 4477:1 4510:1 4575:1 4580:1 4601:1 4619:1 4629:1 4679:1 4714:1 4728:1 4730:1 4747:1 4754:1 4779:1 4811:1 4885:1 4908:1 4909:1 4921:1 4948:1 4951:1 4956:1 5009:1 5050:1 5054:1 5102:1 5147:1 5227:1 5267:1 5307:1 5333:1 5341:1 5360:1 5399:1 5402:1 5423:1 5444:1 5536:1 5541:1 5571:1 5588:1 5593:1 5596:1 5598:1 5612:1 5645:1 5655:1 5700:1 5790:1 5800:1 5874:1 5887:1 5905:1 6006:1 6054:1 6087:1 6095:1 6118:1 6194:1 6238:1 6266:1 6306:1 6315:1 6382:1 6419:1 6430:1 6438:1 6442:1 6478:1 6609:1 6683:1 6693:1 6746:1 6779:1 6883:1 6902:1 6923:1 6951:1 6988:1 6989:1 7005:1 7085:1 7162:1 7206:1 7209:1 7212:1 7316:1 7375:1 7404:1 7410:1 7416:1 7418:1 7433:1 7453:1 7474:1 7555:1 7645:1 7652:1 7765:1 7775:1 7784:1 7795:1 7822:1 7826:1 7860:1 7878:1 7880:1 7895:1 7952:1 7976:1 8062:1 8166:1 8225:1 8252:1 8320:1 8335:1 8337:1 8369:1 8382:1 8412:1 8448:1 8467:1 8604:1 8642:1 8703:1 8755:1 8798:1 8828:1 8836:1 8931:1 9062:1 9075:1 9079:1 9125:1 9181:1 9284:1 9314:1 9407:1 9442:1 9470:1 9507:1 9571:1 9605:1 9691:1 9712:1 9795:1 9895:1 9921:1 9967:1 10099:1 10131:1 10138:1 10140:1 10153:1 10156:1 10206:1 10343:1 10681:1 10688:1 10699:1 10707:1 10712:1 #
-0.0053720701490375189282588941352969 4:1 5:1 7:1 9:1 10:1 11:1 14:1 16:1 17:1 19:1 21:1 22:1 23:1 24:1 25:1 27:1 28:1 29:1 30:1 31:1 34:1 35:1 38:1 43:1 45:1 49:1 55:1 62:1 66:1 68:1 69:1 73:1 76:1 77:1 78:1 84:1 94:1 98:1 99:1 100:1 102:1 103:1 104:1 105:1 106:1 108:1 112:1 113:1 114:1 119:1 120:1 122:1 123:1 125:1 126:1 127:1 128:1 129:1 144:1 147:1 153:1 157:1 158:1 164:1 170:1 176:1 177:1 181:1 191:1 195:1 198:1 202:1 208:1 210:1 218:1 225:1 231:1 232:1 238:1 239:1 241:1 242:1 248:1 266:1 276:1 277:1 285:1 286:1 292:1 294:1 306:1 314:1 322:1 323:1 324:1 325:1 334:1 340:1 341:1 357:1 370:1 377:1 378:1 384:1 385:1 389:1 390:1 401:1 404:1 428:1 443:1 447:1 451:1 471:1 472:1 477:1 482:1 496:1 502:1 533:1 551:1 553:1 554:1 569:1 605:1 608:1 610:1 625:1 628:1 632:1 653:1 665:1 688:1 703:1 719:1 725:1 750:1 755:1 758:1 760:1 761:1 762:1 779:1 798:1 828:1 831:1 849:1 875:1 877:1 882:1 897:1 907:1 918:1 946:1 961:1 1012:1 1021:1 1024:1 1058:1 1085:1 1090:1 1103:1 1105:1 1111:1 1114:1 1123:1 1129:1 1131:1 1138:1 1147:1 1155:1 1172:1 1209:1 1221:1 1232:1 1268:1 1363:1 1370:1 1377:1 1378:1 1395:1 1409:1 1438:1 1476:1 1514:1 1549:1 1553:1 1565:1 1566:1 1615:1 1626:1 1643:1 1676:1 1788:1 1850:1 1852:1 1874:1 1881:1 1933:1 2011:1 2091:1 2172:1 2183:1 2232:1 2240:1 2250:1 2350:1 2462:1 2599:1 2614:1 2685:1 2699:1 2730:1 3022:1 3073:1 3102:1 3127:1 3144:1 3172:1 3269:1 3632:1 3663:1 3668:1 3742:1 3756:1 3788:1 3825:1 3872:1 3883:1 3957:1 4057:1 4059:1 4096:1 4224:1 4264:1 4280:1 4303:1 4305:1 4338:1 4356:1 4409:1 4411:1 4431:1 4483:1 4679:1 5010:1 5030:1 5054:1 5073:1 5405:1 5598:1 5653:1 5659:1 5913:1 5953:1 5955:1 6092:1 6378:1 6539:1 6680:1 6782:1 6795:1 6854:1 6862:1 6930:1 6951:1 7404:1 7525:1 7558:1 7828:1 7922:1 8181:1 8265:1 8333:1 8436:1 9448:1 9464:1 9551:1 9626:1 9798:1 10477:1 10507:1 10521:1 #
-0.0053720701490375189282588941352969 1:1 2:1 5:1 10:1 11:1 13:1 15:1 16:1 17:1 18:1 20:1 21:1 22:1 24:1 25:1 27:1 28:1 29:1 30:1 34:1 36:1 37:1 41:1 42:1 44:1 45:1 48:1 52:1 54:1 56:1 60:1 62:1 66:1 71:1 72:1 73:1 78:1 79:1 82:1 86:1 88:1 90:1 100:1 102:1 103:1 113:1 117:1 123:1 135:1 137:1 138:1 151:1 165:1 179:1 187:1 202:1 209:1 213:1 215:1 216:1 221:1 222:1 227:1 231:1 236:1 238:1 243:1 264:1 268:1 277:1 280:1 286:1 308:1 310:1 322:1 332:1 349:1 352:1 357:1 381:1 387:1 395:1 403:1 404:1 432:1 434:1 445:1 472:1 475:1 478:1 490:1 515:1 521:1 557:1 564:1 570:1 607:1 617:1 628:1 629:1 630:1 645:1 651:1 653:1 660:1 666:1 670:1 671:1 695:1 728:1 755:1 758:1 811:1 817:1 827:1 829:1 836:1 899:1 905:1 916:1 946:1 994:1 1008:1 1071:1 1092:1 1105:1 1111:1 1147:1 1279:1 1283:1 1363:1 1432:1 1457:1 1462:1 1473:1 1481:1 1570:1 1593:1 1602:1 1637:1 1641:1 1646:1 1693:1 1700:1 1784:1 1840:1 1878:1 1888:1 1973:1 1987:1 2012:1 2228:1 2232:1 2240:1 2277:1 2304:1 2401:1 2420:1 2445:1 2468:1 2546:1 2584:1 2623:1 2785:1 2852:1 2990:1 3100:1 3446:1 3450:1 3459:1 3465:1 3519:1 3591:1 3750:1 3782:1 4211:1 4513:1 4956:1 5262:1 5358:1 5428:1 5449:1 5557:1 5578:1 5597:1 5836:1 5894:1 6147:1 6187:1 6514:1 7146:1 8079:1 8200:1 8571:1 8632:1 8804:1 9635:1 9685:1 10347:1 10682:1 #
-0.0053720701490375189282588941352969 1:1 3:1 5:1 7:1 8:1 11:1 17:1 18:1 20:1 21:1 22:1 23:1 24:1 25:1 29:1 30:1 31:1 34:1 36:1 38:1 44:1 45:1 46:1 48:1 52:1 62:1 65:1 66:1 67:1 72:1 75:1 82:1 84:1 86:1 88:1 90:1 94:1 98:1 102:1 103:1 104:1 105:1 106:1 113:1 114:1 117:1 120:1 122:1 125:1 130:1 135:1 143:1 158:1 159:1 170:1 172:1 179:1 185:1 187:1 201:1 202:1 212:1 215:1 218:1 227:1 231:1 233:1 236:1 238:1 243:1 244:1 251:1 264:1 266:1 270:1 273:1 279:1 292:1 322:1 329:1 339:1 341:1 357:1 370:1 375:1 382:1 383:1 385:1 387:1 390:1 406:1 407:1 416:1 434:1 452:1 475:1 498:1 500:1 503:1 554:1 564:1 566:1 569:1 575:1 615:1 625:1 630:1 642:1 647:1 651:1 653:1 655:1 667:1 669:1 670:1 671:1 688:1 702:1 710:1 717:1 719:1 724:1 755:1 760:1 762:1 767:1 779:1 809:1 813:1 815:1 828:1 831:1 850:1 868:1 872:1 874:1 882:1 894:1 899:1 912:1 919:1 941:1 944:1 945:1 951:1 985:1 1004:1 1012:1 1035:1 1048:1 1093:1 1105:1 1111:1 1112:1 1119:1 1139:1 1160:1 1161:1 1162:1 1185:1 1192:1 1195:1 1215:1 1223:1 1258:1 1275:1 1279:1 1284:1 1361:1 1425:1 1430:1 1432:1 1462:1 1473:1 1483:1 1487:1 1491:1 1514:1 1525:1 1536:1 1553:1 1565:1 1570:1 1591:1 1626:1 1653:1 1676:1 1678:1 1723:1 1730:1 1790:1 1796:1 1845:1 1850:1 1890:1 1942:1 1951:1 1977:1 2018:1 2038:1 2053:1 2091:1 2117:1 2134:1 2170:1 2172:1 2183:1 2193:1 2213:1 2344:1 2371:1 2386:1 2418:1 2455:1 2462:1 2683:1 2684:1 2716:1 2739:1 2819:1 2912:1 2964:1 3078:1 3089:1 3100:1 3102:1 3134:1 3144:1 3172:1 3204:1 3283:1 3295:1 3449:1 3461:1 3562:1 3578:1 3607:1 3646:1 3668:1 3709:1 3872:1 3880:1 3893:1 3927:1 4029:1 4059:1 4079:1 4125:1 4134:1 4158:1 4173:1 4200:1 4210:1 4263:1 4302:1 4337:1 4351:1 4366:1 4406:1 4409:1 4411:1 4458:1 4481:1 4501:1 4503:1 4510:1 4568:1 4642:1 4757:1 4772:1 4781:1 4878:1 5010:1 5017:1 5069:1 5076:1 5123:1 5342:1 5389:1 5464:1 5500:1 5571:1 5589:1 5640:1 5663:1 5700:1 5921:1 6068:1 6087:1 6138:1 6217:1 6528:1 6664:1 6693:1 6731:1 6806:1 6874:1 6988:1 7547:1 7600:1 7906:1 7964:1 8055:1 8427:1 8659:1 8693:1 8696:1 8714:1 8718:1 8894:1 9019:1 9441:1 9608:1 9655:1 9685:1 9881:1 10214:1 10396:1 10526:1 10681:1 #
0.0053720701490375189282588941352969 15:1 16:1 20:1 25:1 31:1 37:1 44:1 48:1 56:1 62:1 80:1 113:1 138:1 141:1 172:1 181:1 203:1 214:1 218:1 231:1 279:1 312:1 323:1 423:1 434:1 491:1 529:1 598:1 666:1 758:1 777:1 849:1 858:1 1122:1 1172:1 1591:1 1827:1 1986:1 2140:1 2440:1 2733:1 3102:1 4302:1 5469:1 5956:1 7352:1 8105:1 8703:1 9223:1 9688:1 10049:1 10065:1 #
0.0053720701490375189282588941352969 5:1 6:1 10:1 11:1 12:1 16:1 21:1 24:1 25:1 27:1 28:1 29:1 32:1 33:1 36:1 48:1 51:1 62:1 72:1 78:1 88:1 94:1 106:1 110:1 125:1 141:1 143:1 177:1 216:1 227:1 229:1 244:1 251:1 254:1 263:1 270:1 281:1 352:1 381:1 434:1 452:1 548:1 651:1 694:1 743:1 746:1 758:1 802:1 817:1 840:1 856:1 891:1 895:1 899:1 955:1 971:1 1053:1 1105:1 1200:1 1279:1 1377:1 1386:1 1473:1 1481:1 1490:1 1652:1 1842:1 1901:1 1929:1 2250:1 2361:1 2564:1 2585:1 2714:1 2968:1 3003:1 3014:1 3056:1 3471:1 3589:1 3910:1 4004:1 4044:1 4080:1 4119:1 4629:1 4938:1 5045:1 5635:1 6867:1 7652:1 7728:1 7746:1 7952:1 8244:1 9315:1 9630:1 #
0.0053720701490375189282588941352969 15:1 21:1 30:1 48:1 56:1 62:1 76:1 78:1 84:1 113:1 146:1 295:1 323:1 472:1 502:1 625:1 653:1 758:1 762:1 905:1 955:1 994:1 1084:1 1259:1 1413:1 1676:1 1806:1 2277:1 2304:1 2344:1 2428:1 5117:1 5593:1 5865:1 6415:1 6883:1 7611:1 8396:1 8516:1 9677:1 10713:1 #
0.0053720701490375189282588941352969 3:1 5:1 15:1 18:1 20:1 26:1 30:1 31:1 56:1 73:1 79:1 88:1 101:1 116:1 135:1 141:1 151:1 158:1 213:1 214:1 218:1 227:1 229:1 355:1 372:1 434:1 560:1 614:1 615:1 636:1 665:1 758:1 769:1 833:1 868:1 875:1 950:1 980:1 1148:1 1259:1 1375:1 1386:1 1395:1 1452:1 1644:1 1676:1 1838:1 1861:1 1942:1 2133:1 2172:1 2295:1 2361:1 2706:1 2729:1 2739:1 3203:1 3221:1 3262:1 4039:1 4105:1 4181:1 5080:1 6278:1 6548:1 6655:1 6850:1 7013:1 7547:1 8927:1 10062:1 10521:1 #
0.0043573756662212154849855849647611 5:1 6:1 7:1 10:1 11:1 15:1 16:1 17:1 19:1 20:1 21:1 25:1 29:1 30:1 31:1 39:1 48:1 49:1 54:1 56:1 58:1 62:1 63:1 67:1 68:1 82:1 84:1 88:1 96:1 98:1 99:1 100:1 103:1 113:1 122:1 124:1 125:1 128:1 129:1 145:1 168:1 170:1 177:1 181:1 186:1 195:1 205:1 214:1 216:1 218:1 221:1 248:1 251:1 264:1 266:1 268:1 292:1 310:1 323:1 378:1 387:1 397:1 404:1 427:1 433:1 457:1 460:1 467:1 477:1 478:1 480:1 488:1 521:1 564:1 575:1 598:1 618:1 633:1 638:1 641:1 650:1 656:1 740:1 754:1 758:1 783:1 839:1 841:1 857:1 872:1 897:1 951:1 975:1 1015:1 1105:1 1122:1 1138:1 1172:1 1216:1 1259:1 1363:1 1453:1 1463:1 1467:1 1483:1 1549:1 1568:1 1583:1 1672:1 1681:1 1698:1 1900:1 1905:1 1972:1 2134:1 2172:1 2183:1 2390:1 2634:1 2654:1 2717:1 2737:1 3014:1 3102:1 3196:1 3354:1 3557:1 3595:1 3607:1 3648:1 3668:1 3690:1 3779:1 3842:1 3896:1 3960:1 4057:1 4083:1 4107:1 4483:1 4529:1 4614:1 4661:1 4671:1 4703:1 4942:1 5073:1 5117:1 5217:1 5263:1 5340:1 5441:1 5759:1 6063:1 6083:1 6331:1 6344:1 6377:1 6526:1 6543:1 6667:1 6680:1 6750:1 6936:1 6938:1 7075:1 7152:1 7202:1 7580:1 7681:1 8014:1 8148:1 8335:1 8543:1 8703:1 9003:1 9350:1 9665:1 9935:1 9967:1 10089:1 10261:1 10451:1 10741:1 #
-0.0052705556997864264068276440866612 11:1 17:1 18:1 21:1 30:1 62:1 71:1 79:1 82:1 88:1 136:1 156:1 158:1 160:1 166:1 262:1 333:1 364:1 434:1 598:1 618:1 758:1 840:1 866:1 891:1 911:1 938:1 962:1 1041:1 1138:1 1518:1 1537:1 1578:1 1898:1 1987:1 3310:1 3409:1 3896:1 4924:1 4987:1 5706:1 5912:1 8572:1 9197:1 9656:1 9713:1 #
-0.0053720701490375189282588941352969 16:1 21:1 62:1 170:1 175:1 185:1 230:1 308:1 449:1 491:1 529:1 759:1 849:1 988:1 1424:1 1827:1 1986:1 2106:1 2193:1 3055:1 5578:1 5797:1 8121:1 8853:1 9677:1 #
-0.0053720701490375189282588941352969 16:1 22:1 51:1 52:1 62:1 95:1 175:1 185:1 214:1 216:1 325:1 408:1 478:1 491:1 529:1 649:1 812:1 999:1 1008:1 1228:1 1438:1 1827:1 1986:1 2193:1 2503:1 2715:1 3043:1 3350:1 4381:1 #
-0.0053720701490375189282588941352969 5:1 7:1 8:1 11:1 12:1 13:1 15:1 20:1 30:1 56:1 60:1 62:1 73:1 78:1 79:1 80:1 88:1 94:1 106:1 113:1 116:1 135:1 157:1 191:1 218:1 243:1 326:1 333:1 393:1 409:1 420:1 500:1 530:1 607:1 666:1 802:1 805:1 817:1 849:1 893:1 905:1 950:1 951:1 1033:1 1059:1 1127:1 1174:1 1378:1 1421:1 1463:1 1646:1 1676:1 1729:1 1795:1 1842:1 1859:1 1879:1 2093:1 2193:1 2196:1 2325:1 2344:1 2699:1 2829:1 3065:1 3376:1 3666:1 3741:1 3777:1 4345:1 4493:1 4684:1 4850:1 5376:1 5568:1 5818:1 5819:1 6281:1 6647:1 6873:1 6963:1 7076:1 7392:1 7655:1 8331:1 8547:1 8618:1 8665:1 8862:1 9346:1 9768:1 10233:1 #
-0.0053720701490375189282588941352969 16:1 21:1 49:1 113:1 175:1 326:1 333:1 411:1 419:1 597:1 717:1 758:1 780:1 950:1 1589:1 1636:1 2113:1 3463:1 3588:1 5836:1 6548:1 6736:1 8751:1 10594:1 10697:1 #
0.0024288326980162829211995489941955 1:1 2:1 3:1 5:1 6:1 7:1 8:1 9:1 11:1 12:1 13:1 15:1 16:1 17:1 18:1 20:1 21:1 22:1 23:1 24:1 25:1 27:1 29:1 30:1 31:1 32:1 34:1 35:1 36:1 37:1 38:1 42:1 45:1 51:1 56:1 62:1 73:1 75:1 76:1 77:1 84:1 86:1 94:1 98:1 102:1 103:1 104:1 105:1 106:1 107:1 108:1 113:1 114:1 119:1 122:1 123:1 135:1 138:1 142:1 153:1 158:1 174:1 181:1 187:1 190:1 195:1 198:1 202:1 203:1 205:1 207:1 216:1 218:1 227:1 230:1 231:1 232:1 233:1 235:1 241:1 244:1 245:1 249:1 251:1 264:1 277:1 279:1 283:1 286:1 293:1 299:1 319:1 322:1 323:1 329:1 334:1 339:1 341:1 345:1 352:1 356:1 367:1 370:1 374:1 377:1 378:1 382:1 385:1 390:1 423:1 432:1 434:1 451:1 462:1 491:1 510:1 521:1 529:1 533:1 566:1 581:1 615:1 633:1 648:1 653:1 688:1 719:1 724:1 725:1 727:1 755:1 758:1 767:1 777:1 779:1 785:1 800:1 807:1 809:1 828:1 836:1 837:1 841:1 844:1 849:1 860:1 866:1 868:1 870:1 894:1 899:1 905:1 928:1 934:1 944:1 955:1 994:1 1011:1 1012:1 1018:1 1026:1 1039:1 1059:1 1089:1 1092:1 1093:1 1105:1 1128:1 1131:1 1146:1 1159:1 1160:1 1161:1 1186:1 1273:1 1361:1 1372:1 1418:1 1421:1 1422:1 1428:1 1432:1 1448:1 1450:1 1452:1 1475:1 1476:1 1536:1 1539:1 1565:1 1568:1 1570:1 1611:1 1640:1 1687:1 1755:1 1784:1 1827:1 1840:1 1850:1 1855:1 1894:1 1962:1 1986:1 2069:1 2091:1 2140:1 2169:1 2213:1 2240:1 2358:1 2386:1 2471:1 2645:1 2674:1 2736:1 2785:1 2921:1 3053:1 3056:1 3101:1 3118:1 3142:1 3204:1 3235:1 3434:1 3441:1 3452:1 3584:1 3609:1 3801:1 3872:1 3960:1 3992:1 4029:1 4302:1 4477:1 4505:1 4560:1 4586:1 4679:1 4921:1 5051:1 5138:1 5147:1 5387:1 5536:1 5571:1 5598:1 6268:1 6402:1 6516:1 6528:1 6693:1 6856:1 7062:1 7073:1 7187:1 7691:1 7995:1 8045:1 8075:1 8105:1 8616:1 8632:1 8638:1 9388:1 9423:1 9551:1 9626:1 9700:1 9722:1 9791:1 10054:1 10500:1 #
0.0034736171318345940468852450777604 2:1 5:1 6:1 7:1 9:1 11:1 13:1 17:1 20:1 21:1 22:1 25:1 27:1 28:1 29:1 30:1 31:1 34:1 37:1 38:1 42:1 46:1 48:1 51:1 54:1 55:1 56:1 58:1 60:1 61:1 69:1 76:1 84:1 90:1 94:1 98:1 102:1 105:1 106:1 112:1 114:1 122:1 130:1 135:1 139:1 144:1 146:1 147:1 148:1 149:1 152:1 158:1 162:1 165:1 170:1 182:1 193:1 198:1 205:1 208:1 210:1 211:1 218:1 222:1 227:1 231:1 238:1 243:1 244:1 285:1 286:1 319:1 322:1 327:1 331:1 333:1 334:1 341:1 347:1 357:1 366:1 384:1 385:1 387:1 390:1 396:1 431:1 467:1 482:1 486:1 502:1 553:1 567:1 608:1 625:1 628:1 642:1 644:1 653:1 680:1 700:1 702:1 746:1 754:1 755:1 758:1 826:1 828:1 870:1 872:1 875:1 882:1 888:1 899:1 951:1 955:1 991:1 1001:1 1105:1 1107:1 1111:1 1133:1 1174:1 1389:1 1392:1 1432:1 1471:1 1483:1 1577:1 1607:1 1676:1 1790:1 1806:1 1850:1 1906:1 1947:1 1951:1 2104:1 2134:1 2294:1 2333:1 2442:1 2623:1 2739:1 2964:1 3052:1 3114:1 3128:1 3129:1 3221:1 3312:1 3335:1 3822:1 3922:1 4206:1 4210:1 4298:1 4355:1 4481:1 4505:1 4545:1 4578:1 4672:1 4684:1 4704:1 5178:1 5472:1 5503:1 5533:1 5655:1 5739:1 5770:1 5910:1 6407:1 6568:1 6593:1 6594:1 6652:1 6714:1 7097:1 8738:1 9294:1 9428:1 9604:1 9605:1 10024:1 10377:1 #
0.003729034689678383841793252173602 1:1 4:1 7:1 8:1 11:1 12:1 13:1 14:1 16:1 17:1 18:1 20:1 23:1 24:1 25:1 27:1 28:1 29:1 30:1 31:1 32:1 34:1 36:1 38:1 47:1 48:1 50:1 51:1 54:1 62:1 73:1 76:1 77:1 78:1 81:1 82:1 86:1 93:1 94:1 95:1 96:1 98:1 102:1 104:1 112:1 113:1 116:1 118:1 119:1 120:1 127:1 129:1 131:1 141:1 149:1 153:1 159:1 161:1 163:1 169:1 170:1 171:1 172:1 176:1 182:1 194:1 195:1 197:1 198:1 206:1 209:1 213:1 214:1 216:1 218:1 221:1 227:1 228:1 231:1 241:1 242:1 244:1 260:1 268:1 277:1 288:1 304:1 308:1 321:1 329:1 335:1 336:1 339:1 341:1 342:1 344:1 354:1 365:1 382:1 401:1 410:1 411:1 413:1 421:1 424:1 432:1 434:1 440:1 445:1 451:1 463:1 480:1 510:1 554:1 566:1 575:1 600:1 630:1 642:1 644:1 653:1 654:1 716:1 719:1 728:1 742:1 750:1 752:1 753:1 757:1 795:1 796:1 817:1 828:1 831:1 851:1 857:1 868:1 873:1 899:1 919:1 965:1 986:1 990:1 1008:1 1012:1 1035:1 1094:1 1097:1 1105:1 1111:1 1147:1 1160:1 1161:1 1231:1 1258:1 1450:1 1454:1 1455:1 1457:1 1473:1 1481:1 1523:1 1551:1 1559:1 1568:1 1631:1 1676:1 1819:1 1937:1 1976:1 1977:1 2016:1 2085:1 2103:1 2151:1 2311:1 2328:1 2368:1 2369:1 2380:1 2484:1 2492:1 2588:1 2786:1 2801:1 2996:1 3100:1 3128:1 3144:1 3256:1 3295:1 3358:1 3460:1 3607:1 4279:1 4349:1 4481:1 4679:1 4714:1 4793:1 4879:1 5062:1 5304:1 5464:1 5646:1 5682:1 5731:1 5753:1 5892:1 5976:1 6339:1 6548:1 6711:1 6806:1 6907:1 7094:1 7201:1 7833:1 8221:1 8459:1 8615:1 9037:1 9073:1 9161:1 9394:1 9450:1 9714:1 9913:1 10237:1 #
