SVM-light Version V6.02
0 # kernel type
3 # kernel parameter -d 
1 # kernel parameter -g 
1 # kernel parameter -s 
1 # kernel parameter -r 
empty# kernel parameter -u 
10746 # highest feature index 
874 # number of training documents 
172 # number of support vectors plus 1 
0.86288245 # threshold b, each following line is a SV (starting with alpha*y)
-0.00067317381239818030371629964392355 2:1 6:1 7:1 11:1 12:1 13:1 15:1 16:1 17:1 19:1 20:1 23:1 24:1 25:1 30:1 31:1 32:1 38:1 40:1 42:1 44:1 48:1 51:1 53:1 55:1 56:1 65:1 69:1 72:1 75:1 83:1 89:1 90:1 99:1 102:1 103:1 113:1 114:1 120:1 124:1 126:1 131:1 142:1 144:1 146:1 158:1 163:1 164:1 174:1 178:1 194:1 198:1 209:1 235:1 239:1 243:1 244:1 273:1 279:1 283:1 293:1 302:1 308:1 329:1 332:1 377:1 382:1 385:1 415:1 416:1 426:1 434:1 437:1 486:1 491:1 566:1 581:1 642:1 647:1 653:1 656:1 701:1 758:1 777:1 780:1 802:1 809:1 815:1 830:1 839:1 843:1 875:1 894:1 922:1 937:1 943:1 953:1 962:1 1008:1 1092:1 1226:1 1372:1 1390:1 1394:1 1402:1 1421:1 1424:1 1433:1 1443:1 1473:1 1476:1 1500:1 1534:1 1539:1 1549:1 1565:1 1755:1 1827:1 1916:1 1949:1 1976:1 1986:1 2068:1 2104:1 2140:1 2168:1 2193:1 2236:1 2328:1 2401:1 2619:1 2826:1 3015:1 3089:1 3179:1 3463:1 3467:1 3625:1 3725:1 3784:1 4029:1 4200:1 4205:1 4359:1 4367:1 4385:1 4699:1 4826:1 4912:1 5433:1 5477:1 5820:1 6339:1 7194:1 7250:1 7327:1 7474:1 7700:1 7791:1 7919:1 8030:1 8179:1 8619:1 9279:1 9335:1 9577:1 9580:1 9931:1 10499:1 10538:1 10548:1 #
0.0012026047215380119767558220189585 1:1 2:1 6:1 8:1 10:1 11:1 14:1 15:1 16:1 17:1 18:1 19:1 20:1 21:1 22:1 24:1 25:1 27:1 28:1 30:1 31:1 32:1 33:1 34:1 38:1 45:1 48:1 56:1 57:1 58:1 60:1 62:1 63:1 66:1 68:1 69:1 70:1 76:1 80:1 82:1 84:1 90:1 95:1 96:1 103:1 105:1 106:1 116:1 117:1 138:1 140:1 145:1 150:1 165:1 168:1 175:1 179:1 189:1 198:1 202:1 212:1 227:1 233:1 237:1 238:1 242:1 249:1 251:1 262:1 266:1 274:1 276:1 295:1 298:1 301:1 303:1 307:1 310:1 312:1 323:1 334:1 364:1 366:1 387:1 388:1 402:1 434:1 435:1 436:1 439:1 447:1 452:1 457:1 480:1 482:1 491:1 502:1 510:1 534:1 553:1 575:1 601:1 612:1 617:1 618:1 629:1 630:1 638:1 641:1 702:1 717:1 724:1 728:1 758:1 791:1 794:1 830:1 875:1 891:1 892:1 905:1 917:1 967:1 968:1 981:1 1023:1 1045:1 1058:1 1061:1 1090:1 1138:1 1142:1 1154:1 1171:1 1174:1 1199:1 1228:1 1258:1 1368:1 1377:1 1392:1 1425:1 1453:1 1485:1 1555:1 1575:1 1589:1 1672:1 1736:1 1744:1 1791:1 1819:1 1832:1 1848:1 1965:1 2121:1 2218:1 2234:1 2322:1 2359:1 2378:1 2454:1 2615:1 2679:1 2702:1 2828:1 2957:1 3025:1 3084:1 3089:1 3120:1 3177:1 3199:1 3210:1 3271:1 3303:1 3310:1 3440:1 3551:1 3718:1 3813:1 3861:1 4004:1 4047:1 4149:1 4206:1 4337:1 4365:1 4467:1 4551:1 4684:1 4740:1 5081:1 5239:1 5373:1 5796:1 5889:1 5959:1 6065:1 6187:1 6266:1 6272:1 6693:1 6892:1 6999:1 7033:1 7280:1 7855:1 7972:1 8280:1 8654:1 9864:1 9961:1 10031:1 10164:1 10195:1 10217:1 #
-0.0036390649843697641004081066995468 3:1 9:1 11:1 15:1 18:1 25:1 29:1 44:1 56:1 60:1 62:1 69:1 78:1 80:1 120:1 141:1 150:1 177:1 209:1 267:1 307:1 333:1 350:1 357:1 387:1 404:1 450:1 482:1 486:1 640:1 724:1 758:1 875:1 923:1 968:1 1040:1 1568:1 1573:1 1871:1 2908:1 3789:1 4319:1 4357:1 4684:1 4832:1 5231:1 8720:1 #
-0.00052773880398100300997271672187594 1:1 2:1 5:1 11:1 14:1 17:1 18:1 20:1 21:1 24:1 25:1 29:1 30:1 31:1 36:1 39:1 44:1 60:1 62:1 66:1 69:1 72:1 78:1 82:1 84:1 88:1 90:1 94:1 103:1 106:1 108:1 109:1 110:1 113:1 116:1 117:1 125:1 135:1 136:1 138:1 141:1 143:1 145:1 150:1 165:1 166:1 175:1 179:1 186:1 187:1 199:1 217:1 222:1 227:1 232:1 233:1 238:1 260:1 287:1 289:1 293:1 296:1 301:1 315:1 316:1 322:1 332:1 333:1 350:1 352:1 357:1 360:1 364:1 370:1 387:1 406:1 407:1 460:1 471:1 498:1 502:1 521:1 570:1 597:1 601:1 629:1 657:1 666:1 692:1 700:1 725:1 758:1 778:1 784:1 791:1 815:1 840:1 847:1 848:1 860:1 866:1 879:1 895:1 905:1 917:1 955:1 967:1 1002:1 1023:1 1113:1 1143:1 1200:1 1214:1 1255:1 1302:1 1421:1 1468:1 1491:1 1542:1 1555:1 1557:1 1581:1 1607:1 1742:1 1744:1 1809:1 1811:1 1887:1 2016:1 2039:1 2121:1 2179:1 2313:1 2334:1 2442:1 2585:1 2623:1 2674:1 2761:1 2767:1 2769:1 2852:1 3119:1 3335:1 3348:1 3363:1 3589:1 3820:1 3871:1 4060:1 4361:1 4385:1 4568:1 4832:1 5130:1 5132:1 5163:1 5188:1 5847:1 5877:1 6116:1 6856:1 6977:1 7243:1 7298:1 7505:1 7521:1 8001:1 8257:1 8859:1 8883:1 8979:1 9358:1 9773:1 10350:1 10644:1 #
-0.0040417561662170562591933631324537 1:1 5:1 6:1 7:1 8:1 10:1 11:1 14:1 15:1 16:1 17:1 18:1 19:1 20:1 21:1 22:1 28:1 30:1 31:1 33:1 34:1 35:1 36:1 42:1 44:1 45:1 46:1 48:1 53:1 54:1 56:1 58:1 60:1 62:1 66:1 68:1 71:1 73:1 74:1 82:1 84:1 88:1 90:1 94:1 100:1 102:1 103:1 104:1 105:1 106:1 110:1 112:1 114:1 116:1 120:1 121:1 122:1 124:1 126:1 127:1 128:1 130:1 135:1 139:1 141:1 144:1 148:1 151:1 158:1 167:1 172:1 174:1 196:1 202:1 205:1 207:1 209:1 213:1 216:1 218:1 232:1 235:1 241:1 256:1 264:1 266:1 270:1 274:1 281:1 295:1 322:1 341:1 349:1 353:1 374:1 377:1 382:1 387:1 388:1 390:1 406:1 436:1 445:1 452:1 467:1 468:1 471:1 480:1 482:1 499:1 529:1 544:1 566:1 567:1 569:1 596:1 610:1 625:1 628:1 641:1 645:1 653:1 665:1 666:1 688:1 700:1 719:1 725:1 742:1 755:1 768:1 775:1 789:1 798:1 806:1 827:1 840:1 843:1 854:1 870:1 875:1 905:1 916:1 923:1 991:1 1009:1 1015:1 1071:1 1075:1 1092:1 1104:1 1105:1 1159:1 1161:1 1172:1 1214:1 1274:1 1374:1 1378:1 1389:1 1395:1 1467:1 1476:1 1477:1 1602:1 1626:1 1639:1 1676:1 1694:1 1713:1 1790:1 1804:1 1850:1 1881:1 1915:1 1951:1 2030:1 2044:1 2051:1 2078:1 2193:1 2375:1 2449:1 2536:1 2588:1 2615:1 2691:1 2739:1 2774:1 2801:1 2808:1 2953:1 2957:1 3038:1 3078:1 3098:1 3119:1 3126:1 3144:1 3181:1 3245:1 3312:1 3562:1 3584:1 3614:1 3653:1 3666:1 3725:1 3728:1 3814:1 3851:1 3904:1 3920:1 3985:1 4134:1 4211:1 4258:1 4288:1 4302:1 4406:1 4411:1 4423:1 4531:1 4588:1 4597:1 4715:1 4747:1 4790:1 4848:1 4973:1 5221:1 5342:1 5363:1 5483:1 5485:1 5514:1 5641:1 5794:1 5938:1 6007:1 6027:1 6478:1 6539:1 6593:1 6595:1 6923:1 7179:1 7228:1 7413:1 7516:1 7625:1 7714:1 7788:1 7910:1 8078:1 8251:1 8280:1 8489:1 9266:1 9267:1 9294:1 9428:1 9580:1 9699:1 10217:1 10377:1 #
0.0021396909872170217538356329356475 1:1 2:1 5:1 7:1 9:1 11:1 13:1 14:1 15:1 16:1 18:1 19:1 20:1 21:1 25:1 27:1 28:1 30:1 34:1 36:1 37:1 45:1 48:1 56:1 57:1 62:1 69:1 71:1 76:1 78:1 82:1 84:1 88:1 92:1 93:1 94:1 100:1 104:1 105:1 108:1 110:1 112:1 113:1 123:1 126:1 129:1 130:1 137:1 138:1 144:1 146:1 151:1 156:1 159:1 162:1 165:1 168:1 174:1 184:1 194:1 198:1 202:1 206:1 208:1 209:1 210:1 218:1 242:1 243:1 251:1 258:1 279:1 281:1 286:1 293:1 308:1 321:1 329:1 333:1 350:1 352:1 353:1 366:1 378:1 383:1 394:1 395:1 396:1 406:1 420:1 428:1 429:1 435:1 438:1 446:1 452:1 457:1 477:1 478:1 496:1 498:1 502:1 521:1 529:1 544:1 557:1 564:1 569:1 575:1 581:1 602:1 633:1 649:1 683:1 723:1 742:1 760:1 785:1 802:1 806:1 833:1 854:1 891:1 892:1 944:1 946:1 980:1 1008:1 1015:1 1037:1 1067:1 1074:1 1089:1 1090:1 1128:1 1129:1 1141:1 1178:1 1198:1 1217:1 1259:1 1263:1 1284:1 1377:1 1388:1 1413:1 1416:1 1419:1 1433:1 1453:1 1489:1 1525:1 1534:1 1554:1 1556:1 1574:1 1596:1 1644:1 1646:1 1795:1 1806:1 1831:1 1832:1 1842:1 1881:1 1883:1 1931:1 1985:1 1993:1 2185:1 2196:1 2198:1 2249:1 2267:1 2285:1 2300:1 2344:1 2355:1 2378:1 2423:1 2637:1 2665:1 2801:1 2960:1 2963:1 3047:1 3078:1 3097:1 3112:1 3120:1 3133:1 3199:1 3343:1 3347:1 3468:1 3495:1 3601:1 3781:1 3914:1 3928:1 3938:1 3985:1 4095:1 4162:1 4210:1 4215:1 4312:1 4359:1 4365:1 4366:1 4410:1 4477:1 4860:1 4879:1 5397:1 5512:1 5541:1 5590:1 5598:1 5668:1 5988:1 6194:1 6548:1 6641:1 6777:1 7026:1 7535:1 8179:1 8191:1 9712:1 10493:1 10677:1 #
-0.0020589882154944411790653546745489 1:1 4:1 6:1 7:1 8:1 11:1 12:1 13:1 14:1 15:1 16:1 17:1 18:1 19:1 20:1 22:1 23:1 24:1 27:1 28:1 29:1 30:1 31:1 34:1 38:1 41:1 42:1 44:1 45:1 51:1 54:1 57:1 62:1 64:1 65:1 67:1 68:1 69:1 73:1 78:1 80:1 81:1 84:1 85:1 86:1 90:1 91:1 93:1 94:1 96:1 98:1 99:1 100:1 105:1 106:1 113:1 114:1 116:1 117:1 119:1 120:1 122:1 123:1 126:1 127:1 134:1 140:1 147:1 148:1 152:1 158:1 164:1 167:1 172:1 177:1 198:1 202:1 210:1 213:1 218:1 219:1 232:1 235:1 236:1 238:1 239:1 245:1 257:1 264:1 270:1 277:1 279:1 285:1 286:1 295:1 304:1 318:1 322:1 324:1 329:1 331:1 337:1 339:1 341:1 350:1 370:1 384:1 385:1 387:1 388:1 399:1 404:1 427:1 440:1 442:1 444:1 452:1 465:1 468:1 482:1 491:1 515:1 541:1 554:1 557:1 566:1 569:1 575:1 594:1 602:1 605:1 608:1 610:1 616:1 628:1 630:1 645:1 664:1 674:1 690:1 709:1 719:1 727:1 742:1 755:1 758:1 762:1 767:1 768:1 802:1 815:1 828:1 836:1 875:1 882:1 918:1 964:1 990:1 1004:1 1046:1 1058:1 1090:1 1105:1 1131:1 1142:1 1147:1 1167:1 1190:1 1200:1 1279:1 1378:1 1386:1 1393:1 1450:1 1473:1 1529:1 1556:1 1557:1 1565:1 1568:1 1616:1 1626:1 1666:1 1678:1 1720:1 1746:1 1755:1 1788:1 1802:1 1850:1 1865:1 1909:1 2018:1 2183:1 2232:1 2309:1 2370:1 2373:1 2418:1 2471:1 2484:1 2779:1 2807:1 2912:1 3005:1 3014:1 3073:1 3097:1 3098:1 3152:1 3172:1 3221:1 3300:1 3410:1 3452:1 3454:1 3459:1 3465:1 3555:1 3709:1 3848:1 3858:1 4043:1 4064:1 4066:1 4074:1 4200:1 4236:1 4305:1 4330:1 4552:1 4630:1 4665:1 4706:1 4956:1 5138:1 5172:1 5210:1 5220:1 5554:1 5640:1 5643:1 5653:1 5729:1 5824:1 6167:1 6198:1 6254:1 6419:1 6593:1 6629:1 6779:1 6914:1 7039:1 7133:1 7200:1 7525:1 7683:1 8161:1 8415:1 8701:1 8726:1 8763:1 9173:1 9298:1 9407:1 9433:1 9580:1 9602:1 9675:1 10071:1 10301:1 10355:1 #
-0.0018120730634055631173146005963304 1:1 4:1 6:1 7:1 8:1 11:1 14:1 15:1 16:1 17:1 18:1 21:1 29:1 30:1 31:1 35:1 36:1 39:1 45:1 49:1 50:1 57:1 62:1 69:1 70:1 97:1 98:1 103:1 106:1 113:1 114:1 117:1 138:1 150:1 158:1 163:1 170:1 172:1 179:1 185:1 201:1 214:1 226:1 227:1 233:1 270:1 272:1 285:1 312:1 337:1 387:1 434:1 482:1 483:1 502:1 534:1 558:1 585:1 598:1 602:1 618:1 674:1 785:1 875:1 891:1 968:1 1002:1 1131:1 1234:1 1378:1 1379:1 1424:1 1490:1 1560:1 1593:1 1652:1 1664:1 1767:1 1800:1 1803:1 1877:1 1953:1 1990:1 2053:1 2113:1 2158:1 2211:1 2249:1 2258:1 2454:1 3001:1 3589:1 4040:1 4061:1 4249:1 4534:1 4568:1 4569:1 4728:1 4813:1 5210:1 5283:1 5308:1 6209:1 6496:1 6760:1 6941:1 7145:1 7504:1 8745:1 9230:1 9281:1 9335:1 9338:1 9476:1 9511:1 #
-0.0046255311958552612627837419267962 5:1 7:1 11:1 12:1 13:1 16:1 17:1 18:1 19:1 20:1 21:1 24:1 25:1 27:1 29:1 30:1 31:1 34:1 36:1 48:1 49:1 50:1 54:1 56:1 57:1 59:1 60:1 61:1 62:1 64:1 66:1 67:1 68:1 69:1 76:1 77:1 78:1 79:1 81:1 82:1 84:1 88:1 90:1 94:1 95:1 96:1 98:1 99:1 102:1 103:1 104:1 106:1 113:1 125:1 131:1 132:1 133:1 136:1 137:1 138:1 146:1 155:1 163:1 172:1 173:1 177:1 179:1 182:1 193:1 198:1 212:1 216:1 227:1 231:1 238:1 243:1 249:1 252:1 264:1 279:1 286:1 304:1 310:1 318:1 323:1 325:1 331:1 341:1 355:1 372:1 375:1 403:1 404:1 424:1 450:1 457:1 472:1 490:1 502:1 515:1 564:1 575:1 601:1 626:1 630:1 651:1 653:1 691:1 723:1 758:1 762:1 767:1 783:1 789:1 799:1 832:1 895:1 937:1 951:1 957:1 968:1 973:1 1008:1 1012:1 1028:1 1037:1 1077:1 1105:1 1111:1 1119:1 1122:1 1141:1 1147:1 1150:1 1151:1 1178:1 1219:1 1228:1 1386:1 1414:1 1462:1 1483:1 1484:1 1549:1 1555:1 1652:1 1803:1 1806:1 1846:1 1850:1 2009:1 2023:1 2033:1 2134:1 2177:1 2183:1 2194:1 2267:1 2300:1 2361:1 2415:1 2564:1 2576:1 2600:1 2702:1 2716:1 2928:1 2946:1 3100:1 3102:1 3112:1 3134:1 3148:1 3209:1 3275:1 3288:1 3314:1 3438:1 3487:1 3723:1 3872:1 3873:1 4173:1 4356:1 4406:1 4505:1 4513:1 4631:1 4908:1 4929:1 4961:1 5136:1 5222:1 5262:1 5478:1 5598:1 5895:1 5984:1 6034:1 6179:1 6339:1 6548:1 6568:1 6596:1 6630:1 6806:1 7008:1 7084:1 7228:1 7229:1 7453:1 7782:1 7836:1 7866:1 7984:1 8002:1 8134:1 8257:1 8689:1 8732:1 9369:1 9442:1 9847:1 10031:1 10138:1 10310:1 10712:1 #
0.0019379966415391596760292580725604 1:1 6:1 8:1 9:1 10:1 14:1 16:1 18:1 19:1 21:1 23:1 29:1 30:1 31:1 33:1 34:1 36:1 41:1 45:1 48:1 49:1 51:1 57:1 58:1 60:1 62:1 66:1 67:1 68:1 69:1 70:1 74:1 78:1 79:1 83:1 84:1 86:1 94:1 100:1 102:1 103:1 106:1 109:1 116:1 120:1 121:1 135:1 136:1 139:1 140:1 142:1 157:1 158:1 166:1 168:1 175:1 193:1 199:1 201:1 202:1 205:1 216:1 217:1 226:1 231:1 251:1 268:1 275:1 277:1 296:1 303:1 319:1 323:1 324:1 327:1 341:1 352:1 364:1 370:1 375:1 387:1 388:1 400:1 434:1 435:1 457:1 482:1 486:1 521:1 526:1 554:1 575:1 613:1 618:1 625:1 649:1 653:1 670:1 700:1 724:1 728:1 740:1 758:1 774:1 802:1 843:1 846:1 869:1 875:1 907:1 913:1 922:1 923:1 995:1 1002:1 1012:1 1026:1 1036:1 1090:1 1138:1 1178:1 1180:1 1198:1 1378:1 1383:1 1389:1 1466:1 1475:1 1570:1 1607:1 1676:1 1681:1 1736:1 1740:1 1831:1 1904:1 2106:1 2162:1 2389:1 2590:1 2611:1 2654:1 3031:1 3085:1 3111:1 3129:1 3174:1 3397:1 3679:1 3685:1 3718:1 3735:1 3776:1 3784:1 3797:1 3832:1 3940:1 3994:1 4211:1 4256:1 4337:1 5425:1 5653:1 5703:1 5862:1 6164:1 6638:1 7474:1 7510:1 7525:1 7566:1 7915:1 8483:1 8880:1 8951:1 9061:1 9251:1 9442:1 9840:1 9994:1 #
-0.00035458065957232742923185830896671 1:1 2:1 3:1 4:1 5:1 6:1 7:1 8:1 9:1 10:1 11:1 12:1 13:1 14:1 15:1 16:1 17:1 18:1 19:1 20:1 21:1 22:1 23:1 24:1 25:1 27:1 29:1 30:1 31:1 32:1 33:1 35:1 36:1 38:1 39:1 41:1 42:1 43:1 44:1 45:1 46:1 47:1 48:1 49:1 50:1 51:1 52:1 53:1 55:1 56:1 57:1 58:1 60:1 62:1 63:1 64:1 65:1 66:1 68:1 69:1 71:1 72:1 73:1 75:1 76:1 79:1 80:1 81:1 82:1 83:1 84:1 86:1 88:1 89:1 90:1 92:1 94:1 95:1 96:1 97:1 98:1 99:1 100:1 101:1 102:1 103:1 104:1 106:1 108:1 109:1 110:1 113:1 114:1 115:1 116:1 117:1 120:1 121:1 122:1 124:1 125:1 130:1 131:1 133:1 135:1 136:1 137:1 138:1 140:1 141:1 142:1 143:1 146:1 148:1 150:1 151:1 153:1 155:1 156:1 158:1 159:1 160:1 161:1 162:1 164:1 166:1 168:1 169:1 172:1 173:1 174:1 175:1 176:1 177:1 178:1 179:1 185:1 186:1 187:1 191:1 192:1 194:1 195:1 202:1 205:1 209:1 212:1 213:1 214:1 216:1 218:1 219:1 221:1 222:1 226:1 227:1 229:1 231:1 232:1 234:1 235:1 236:1 238:1 239:1 240:1 242:1 243:1 244:1 246:1 248:1 249:1 250:1 252:1 254:1 261:1 265:1 266:1 267:1 268:1 270:1 271:1 273:1 275:1 276:1 277:1 280:1 283:1 287:1 289:1 291:1 292:1 294:1 295:1 300:1 301:1 304:1 307:1 310:1 312:1 315:1 316:1 318:1 319:1 320:1 322:1 323:1 326:1 329:1 333:1 341:1 344:1 345:1 352:1 355:1 357:1 360:1 364:1 366:1 370:1 372:1 374:1 382:1 387:1 392:1 394:1 395:1 396:1 400:1 402:1 403:1 404:1 406:1 411:1 415:1 416:1 419:1 421:1 427:1 430:1 432:1 433:1 434:1 447:1 450:1 456:1 457:1 461:1 464:1 465:1 467:1 470:1 471:1 472:1 473:1 475:1 476:1 478:1 486:1 490:1 500:1 502:1 510:1 521:1 522:1 529:1 534:1 536:1 544:1 548:1 552:1 558:1 560:1 562:1 564:1 566:1 581:1 594:1 597:1 598:1 601:1 607:1 608:1 609:1 610:1 613:1 618:1 621:1 625:1 628:1 630:1 634:1 635:1 636:1 637:1 640:1 642:1 645:1 647:1 651:1 652:1 653:1 656:1 666:1 667:1 669:1 671:1 674:1 683:1 692:1 700:1 709:1 717:1 725:1 726:1 740:1 746:1 747:1 750:1 756:1 758:1 759:1 762:1 774:1 778:1 780:1 785:1 787:1 791:1 800:1 802:1 810:1 812:1 814:1 815:1 817:1 821:1 822:1 832:1 839:1 843:1 848:1 849:1 854:1 858:1 860:1 879:1 894:1 895:1 899:1 902:1 904:1 905:1 906:1 909:1 911:1 912:1 914:1 920:1 923:1 924:1 935:1 937:1 943:1 944:1 945:1 950:1 962:1 968:1 971:1 980:1 981:1 985:1 986:1 991:1 994:1 995:1 999:1 1002:1 1015:1 1019:1 1025:1 1026:1 1028:1 1033:1 1036:1 1037:1 1040:1 1042:1 1048:1 1049:1 1052:1 1073:1 1078:1 1079:1 1089:1 1093:1 1096:1 1098:1 1105:1 1109:1 1111:1 1112:1 1123:1 1128:1 1129:1 1131:1 1135:1 1147:1 1148:1 1155:1 1160:1 1172:1 1178:1 1181:1 1188:1 1205:1 1214:1 1228:1 1234:1 1250:1 1259:1 1273:1 1275:1 1305:1 1361:1 1364:1 1369:1 1372:1 1380:1 1382:1 1383:1 1389:1 1394:1 1408:1 1419:1 1421:1 1428:1 1430:1 1434:1 1438:1 1450:1 1457:1 1458:1 1461:1 1462:1 1467:1 1468:1 1470:1 1473:1 1477:1 1483:1 1486:1 1491:1 1494:1 1496:1 1498:1 1499:1 1531:1 1534:1 1537:1 1538:1 1545:1 1554:1 1558:1 1565:1 1567:1 1568:1 1570:1 1574:1 1584:1 1585:1 1593:1 1607:1 1609:1 1636:1 1637:1 1646:1 1657:1 1660:1 1669:1 1676:1 1681:1 1685:1 1691:1 1695:1 1699:1 1701:1 1717:1 1748:1 1757:1 1767:1 1784:1 1790:1 1803:1 1806:1 1840:1 1845:1 1854:1 1855:1 1860:1 1861:1 1883:1 1890:1 1892:1 1894:1 1898:1 1900:1 1904:1 1905:1 1911:1 1928:1 1931:1 1939:1 1941:1 1942:1 1949:1 1951:1 1953:1 1954:1 1968:1 1976:1 1987:1 2005:1 2033:1 2066:1 2069:1 2072:1 2085:1 2086:1 2090:1 2093:1 2111:1 2116:1 2117:1 2127:1 2130:1 2134:1 2143:1 2150:1 2169:1 2170:1 2172:1 2184:1 2187:1 2190:1 2218:1 2219:1 2235:1 2240:1 2253:1 2257:1 2274:1 2277:1 2281:1 2289:1 2294:1 2298:1 2302:1 2304:1 2331:1 2378:1 2401:1 2406:1 2409:1 2416:1 2417:1 2429:1 2435:1 2439:1 2442:1 2457:1 2468:1 2471:1 2503:1 2529:1 2537:1 2568:1 2570:1 2576:1 2588:1 2600:1 2607:1 2611:1 2634:1 2681:1 2722:1 2737:1 2739:1 2769:1 2778:1 2810:1 2811:1 2815:1 2821:1 2825:1 2847:1 2852:1 2859:1 2894:1 2918:1 2928:1 2931:1 2936:1 2955:1 2958:1 2959:1 3021:1 3022:1 3046:1 3068:1 3070:1 3077:1 3081:1 3128:1 3139:1 3150:1 3193:1 3213:1 3218:1 3242:1 3316:1 3332:1 3341:1 3354:1 3387:1 3409:1 3410:1 3434:1 3446:1 3449:1 3450:1 3451:1 3471:1 3532:1 3557:1 3559:1 3586:1 3592:1 3593:1 3607:1 3618:1 3625:1 3631:1 3632:1 3695:1 3709:1 3711:1 3736:1 3743:1 3762:1 3776:1 3779:1 3790:1 3804:1 3805:1 3807:1 3832:1 3839:1 3889:1 3899:1 3916:1 3933:1 3940:1 3965:1 3968:1 4004:1 4005:1 4042:1 4058:1 4059:1 4067:1 4079:1 4092:1 4098:1 4105:1 4107:1 4118:1 4119:1 4142:1 4145:1 4149:1 4180:1 4185:1 4216:1 4218:1 4235:1 4267:1 4293:1 4296:1 4346:1 4348:1 4361:1 4366:1 4401:1 4409:1 4410:1 4417:1 4427:1 4477:1 4484:1 4487:1 4490:1 4501:1 4519:1 4541:1 4543:1 4576:1 4614:1 4619:1 4623:1 4642:1 4690:1 4695:1 4703:1 4706:1 4719:1 4737:1 4739:1 4814:1 4816:1 4830:1 4839:1 4847:1 4870:1 4924:1 4926:1 4929:1 4934:1 4954:1 4957:1 4965:1 4990:1 5011:1 5016:1 5029:1 5045:1 5054:1 5066:1 5073:1 5089:1 5105:1 5119:1 5123:1 5179:1 5236:1 5283:1 5304:1 5360:1 5391:1 5434:1 5464:1 5477:1 5483:1 5491:1 5508:1 5548:1 5557:1 5578:1 5593:1 5596:1 5614:1 5645:1 5663:1 5679:1 5702:1 5705:1 5723:1 5725:1 5766:1 5770:1 5793:1 5796:1 5826:1 5836:1 5851:1 5912:1 5994:1 6000:1 6027:1 6063:1 6110:1 6189:1 6227:1 6237:1 6238:1 6247:1 6267:1 6274:1 6278:1 6317:1 6331:1 6332:1 6339:1 6356:1 6400:1 6404:1 6444:1 6488:1 6539:1 6552:1 6583:1 6598:1 6664:1 6668:1 6673:1 6691:1 6746:1 6776:1 6838:1 6866:1 6871:1 6893:1 6900:1 6907:1 6927:1 6942:1 6989:1 7002:1 7005:1 7008:1 7027:1 7078:1 7091:1 7100:1 7130:1 7151:1 7166:1 7180:1 7195:1 7229:1 7321:1 7328:1 7332:1 7393:1 7435:1 7475:1 7491:1 7503:1 7509:1 7550:1 7565:1 7605:1 7660:1 7702:1 7721:1 7727:1 7758:1 7767:1 7780:1 7782:1 7796:1 7820:1 7843:1 7858:1 7892:1 7908:1 7951:1 7967:1 7995:1 8002:1 8024:1 8036:1 8043:1 8062:1 8071:1 8127:1 8178:1 8188:1 8191:1 8196:1 8221:1 8242:1 8257:1 8296:1 8303:1 8304:1 8339:1 8383:1 8384:1 8418:1 8438:1 8481:1 8516:1 8548:1 8570:1 8574:1 8610:1 8698:1 8708:1 8725:1 8735:1 8877:1 9003:1 9066:1 9106:1 9116:1 9120:1 9276:1 9279:1 9350:1 9411:1 9424:1 9432:1 9485:1 9516:1 9531:1 9655:1 9679:1 9810:1 9938:1 9997:1 10037:1 10130:1 10192:1 10218:1 10261:1 10345:1 10521:1 10526:1 10533:1 10564:1 10579:1 10610:1 10617:1 10705:1 10741:1 10743:1 #
-0.0040505618828767858338735230461225 1:1 2:1 3:1 5:1 6:1 7:1 8:1 9:1 12:1 15:1 16:1 18:1 20:1 21:1 24:1 25:1 27:1 29:1 30:1 31:1 34:1 35:1 36:1 41:1 43:1 44:1 48:1 50:1 57:1 60:1 62:1 63:1 66:1 69:1 78:1 90:1 94:1 101:1 102:1 104:1 114:1 125:1 128:1 140:1 143:1 148:1 159:1 160:1 172:1 174:1 189:1 202:1 205:1 213:1 215:1 227:1 232:1 236:1 237:1 245:1 252:1 277:1 278:1 283:1 286:1 287:1 307:1 312:1 315:1 324:1 325:1 350:1 352:1 364:1 377:1 387:1 388:1 396:1 407:1 411:1 416:1 434:1 445:1 452:1 466:1 471:1 475:1 482:1 509:1 529:1 554:1 557:1 566:1 583:1 637:1 640:1 645:1 653:1 670:1 671:1 695:1 702:1 728:1 745:1 840:1 850:1 875:1 895:1 914:1 1042:1 1058:1 1067:1 1090:1 1095:1 1108:1 1138:1 1228:1 1229:1 1250:1 1274:1 1279:1 1378:1 1528:1 1536:1 1591:1 1612:1 1646:1 1716:1 1736:1 1828:1 1915:1 1975:1 1977:1 2032:1 2064:1 2099:1 2117:1 2163:1 2177:1 2193:1 2348:1 2370:1 2382:1 2557:1 2588:1 2599:1 2606:1 2615:1 2694:1 2928:1 2951:1 2960:1 2963:1 2968:1 3099:1 3119:1 3204:1 3238:1 3275:1 3528:1 3723:1 3750:1 3926:1 3958:1 3967:1 4032:1 4168:1 4313:1 4332:1 4391:1 4392:1 5088:1 5261:1 5400:1 5483:1 5546:1 5645:1 5651:1 5874:1 5930:1 6130:1 6235:1 6392:1 6540:1 6637:1 7237:1 7352:1 7457:1 7505:1 7521:1 7529:1 7542:1 7571:1 7836:1 8041:1 8078:1 8211:1 8386:1 8551:1 8604:1 8836:1 8915:1 8928:1 8948:1 9037:1 9055:1 9223:1 9231:1 9539:1 9778:1 10195:1 10524:1 10592:1 10629:1 10669:1 #
-0.00099254451395418296678896385998314 1:1 4:1 5:1 6:1 7:1 8:1 9:1 10:1 11:1 12:1 14:1 15:1 16:1 17:1 18:1 19:1 20:1 21:1 22:1 24:1 25:1 27:1 28:1 29:1 30:1 32:1 34:1 35:1 36:1 40:1 41:1 42:1 45:1 46:1 49:1 50:1 53:1 54:1 55:1 56:1 57:1 62:1 64:1 65:1 66:1 67:1 68:1 69:1 71:1 72:1 73:1 76:1 78:1 80:1 83:1 87:1 88:1 90:1 91:1 92:1 93:1 95:1 96:1 98:1 99:1 102:1 104:1 106:1 109:1 113:1 116:1 117:1 118:1 119:1 122:1 124:1 130:1 133:1 135:1 137:1 138:1 140:1 146:1 149:1 150:1 151:1 153:1 155:1 156:1 157:1 159:1 160:1 162:1 163:1 165:1 168:1 175:1 177:1 178:1 189:1 192:1 196:1 205:1 211:1 215:1 221:1 222:1 226:1 235:1 239:1 243:1 244:1 245:1 249:1 252:1 257:1 270:1 274:1 279:1 283:1 286:1 288:1 302:1 303:1 305:1 314:1 315:1 318:1 319:1 321:1 324:1 325:1 331:1 333:1 354:1 357:1 368:1 381:1 382:1 387:1 388:1 396:1 400:1 401:1 408:1 416:1 427:1 451:1 453:1 457:1 459:1 462:1 463:1 465:1 476:1 478:1 482:1 484:1 485:1 490:1 508:1 521:1 554:1 575:1 602:1 607:1 613:1 630:1 644:1 652:1 653:1 664:1 683:1 689:1 700:1 745:1 771:1 774:1 777:1 781:1 782:1 793:1 802:1 809:1 810:1 814:1 824:1 832:1 843:1 847:1 864:1 866:1 875:1 891:1 892:1 894:1 901:1 912:1 913:1 921:1 928:1 930:1 984:1 989:1 995:1 1010:1 1015:1 1020:1 1026:1 1046:1 1057:1 1061:1 1077:1 1104:1 1151:1 1214:1 1254:1 1287:1 1374:1 1378:1 1380:1 1403:1 1450:1 1457:1 1476:1 1480:1 1527:1 1532:1 1552:1 1570:1 1574:1 1592:1 1599:1 1646:1 1687:1 1696:1 1713:1 1717:1 1730:1 1745:1 1747:1 1748:1 1790:1 1806:1 1832:1 1846:1 1928:1 1951:1 1976:1 2043:1 2093:1 2104:1 2163:1 2208:1 2226:1 2274:1 2278:1 2312:1 2356:1 2365:1 2484:1 2548:1 2588:1 2625:1 2662:1 2809:1 2852:1 2860:1 2902:1 3070:1 3086:1 3089:1 3129:1 3174:1 3179:1 3214:1 3337:1 3430:1 3450:1 3467:1 3483:1 3501:1 3519:1 3548:1 3684:1 3735:1 3768:1 3776:1 3871:1 3964:1 3965:1 3984:1 4062:1 4188:1 4191:1 4199:1 4228:1 4273:1 4317:1 4327:1 4361:1 4431:1 4503:1 4556:1 4574:1 4594:1 4668:1 4740:1 4823:1 4873:1 4903:1 5034:1 5040:1 5043:1 5105:1 5118:1 5140:1 5147:1 5185:1 5361:1 5385:1 5586:1 5593:1 5759:1 5803:1 5812:1 5847:1 5862:1 6058:1 6262:1 6263:1 6321:1 6339:1 6461:1 6530:1 6540:1 6555:1 6565:1 6745:1 6779:1 6789:1 6817:1 6821:1 6914:1 7016:1 7311:1 7380:1 7402:1 7500:1 7763:1 7795:1 7892:1 7910:1 7915:1 7916:1 8033:1 8078:1 8094:1 8110:1 8173:1 8198:1 8347:1 8410:1 8714:1 8717:1 8731:1 8737:1 8748:1 8796:1 8972:1 9035:1 9231:1 9329:1 9377:1 9552:1 9602:1 9824:1 9879:1 9969:1 10137:1 10151:1 10176:1 10187:1 10379:1 10408:1 10605:1 #
-0.0028381135877638213015072832234864 1:1 5:1 6:1 8:1 11:1 12:1 15:1 16:1 18:1 19:1 20:1 22:1 24:1 25:1 27:1 29:1 30:1 31:1 32:1 33:1 34:1 35:1 36:1 38:1 42:1 48:1 49:1 50:1 51:1 60:1 62:1 63:1 65:1 66:1 69:1 71:1 73:1 82:1 86:1 89:1 90:1 103:1 104:1 105:1 110:1 112:1 115:1 116:1 117:1 126:1 143:1 149:1 150:1 159:1 168:1 177:1 181:1 186:1 195:1 202:1 213:1 215:1 217:1 221:1 223:1 227:1 232:1 233:1 237:1 238:1 250:1 251:1 252:1 262:1 264:1 265:1 277:1 279:1 285:1 289:1 295:1 301:1 302:1 304:1 307:1 312:1 315:1 325:1 331:1 332:1 333:1 345:1 357:1 375:1 382:1 385:1 392:1 430:1 432:1 440:1 465:1 467:1 473:1 475:1 480:1 481:1 496:1 529:1 533:1 566:1 581:1 606:1 618:1 629:1 630:1 632:1 640:1 645:1 657:1 670:1 701:1 709:1 723:1 725:1 728:1 758:1 767:1 777:1 789:1 800:1 814:1 817:1 863:1 866:1 889:1 894:1 922:1 936:1 946:1 986:1 1005:1 1012:1 1042:1 1056:1 1071:1 1090:1 1131:1 1133:1 1138:1 1275:1 1365:1 1385:1 1399:1 1425:1 1432:1 1441:1 1473:1 1483:1 1485:1 1528:1 1536:1 1819:1 1828:1 1832:1 1975:1 1980:1 2006:1 2017:1 2134:1 2145:1 2160:1 2169:1 2179:1 2183:1 2199:1 2222:1 2228:1 2271:1 2309:1 2503:1 2536:1 2554:1 2615:1 2631:1 2709:1 2904:1 2908:1 2981:1 2990:1 3060:1 3204:1 3222:1 3242:1 3339:1 3406:1 3465:1 3501:1 3557:1 3572:1 3591:1 3775:1 3966:1 4265:1 4285:1 4313:1 4337:1 4349:1 4392:1 4448:1 4463:1 4470:1 4529:1 4552:1 4569:1 4694:1 4717:1 4740:1 4852:1 4876:1 5048:1 5189:1 5887:1 6181:1 6248:1 6753:1 6758:1 6882:1 6909:1 6949:1 6950:1 7044:1 7133:1 7237:1 7278:1 7355:1 7666:1 7871:1 7946:1 7949:1 7999:1 8081:1 8190:1 8410:1 8596:1 8751:1 8828:1 8915:1 8984:1 9349:1 9635:1 9892:1 9975:1 10551:1 10677:1 #
-0.0029014806624097859953648192998799 1:1 6:1 7:1 8:1 9:1 10:1 11:1 12:1 15:1 17:1 18:1 19:1 20:1 22:1 23:1 25:1 27:1 28:1 29:1 30:1 31:1 32:1 34:1 35:1 36:1 37:1 38:1 41:1 42:1 47:1 48:1 49:1 51:1 53:1 54:1 57:1 62:1 65:1 66:1 67:1 69:1 71:1 73:1 74:1 76:1 81:1 84:1 86:1 87:1 89:1 93:1 95:1 102:1 103:1 104:1 112:1 117:1 124:1 130:1 131:1 137:1 143:1 146:1 149:1 175:1 192:1 202:1 213:1 214:1 221:1 227:1 232:1 236:1 246:1 251:1 257:1 264:1 277:1 278:1 280:1 281:1 286:1 315:1 318:1 331:1 333:1 377:1 383:1 387:1 388:1 395:1 430:1 436:1 444:1 452:1 453:1 457:1 478:1 480:1 482:1 491:1 545:1 548:1 566:1 581:1 583:1 602:1 630:1 640:1 651:1 653:1 657:1 671:1 702:1 708:1 723:1 728:1 750:1 758:1 767:1 768:1 777:1 808:1 812:1 832:1 850:1 866:1 891:1 892:1 905:1 912:1 930:1 932:1 943:1 981:1 985:1 1008:1 1048:1 1056:1 1058:1 1074:1 1099:1 1169:1 1226:1 1279:1 1406:1 1429:1 1451:1 1457:1 1467:1 1481:1 1487:1 1513:1 1534:1 1557:1 1833:1 1916:1 1985:1 2017:1 2057:1 2064:1 2200:1 2280:1 2317:1 2343:1 2350:1 2456:1 2593:1 2606:1 2694:1 2714:1 2828:1 2983:1 3060:1 3088:1 3099:1 3100:1 3261:1 3275:1 3282:1 3430:1 3438:1 3472:1 3578:1 3607:1 3750:1 3966:1 3985:1 4080:1 4228:1 4290:1 4312:1 4501:1 4585:1 4717:1 4907:1 4935:1 4938:1 5014:1 5034:1 5261:1 5349:1 5433:1 5700:1 5955:1 6184:1 6301:1 6384:1 6604:1 6856:1 6913:1 7081:1 7519:1 7921:1 8081:1 8617:1 8620:1 8717:1 8774:1 9733:1 9892:1 10230:1 10243:1 #
0.0046367876808003534450097760100107 21:1 34:1 56:1 57:1 62:1 113:1 209:1 236:1 347:1 575:1 653:1 758:1 909:1 944:1 956:1 1008:1 1090:1 1138:1 1172:1 2104:1 2588:1 3089:1 3446:1 3597:1 3666:1 3784:1 4501:1 4852:1 5088:1 5192:1 5758:1 6951:1 8029:1 9319:1 9358:1 9811:1 10089:1 #
0.0046367876808003534450097760100107 3:1 11:1 22:1 23:1 29:1 30:1 33:1 34:1 48:1 49:1 58:1 60:1 62:1 68:1 72:1 75:1 79:1 82:1 88:1 89:1 90:1 100:1 102:1 104:1 113:1 121:1 151:1 165:1 168:1 179:1 214:1 222:1 229:1 243:1 251:1 292:1 311:1 350:1 372:1 390:1 407:1 427:1 457:1 491:1 633:1 638:1 815:1 834:1 839:1 929:1 950:1 1002:1 1090:1 1138:1 1198:1 1474:1 1555:1 1557:1 1607:1 1739:1 1745:1 1847:1 1900:1 1964:1 2005:1 2378:1 2440:1 2590:1 2617:1 2675:1 3389:1 3585:1 3899:1 4067:1 4071:1 4077:1 4107:1 4326:1 4405:1 4511:1 4577:1 4696:1 4908:1 5094:1 5393:1 5395:1 5489:1 5790:1 6192:1 6278:1 6802:1 8968:1 9676:1 9864:1 10499:1 #
0.0046367876808003534450097760100107 11:1 12:1 15:1 17:1 18:1 19:1 20:1 21:1 22:1 25:1 29:1 30:1 44:1 46:1 48:1 49:1 51:1 60:1 68:1 82:1 84:1 92:1 101:1 104:1 114:1 116:1 135:1 168:1 179:1 202:1 204:1 218:1 222:1 251:1 253:1 259:1 309:1 322:1 375:1 404:1 433:1 435:1 457:1 552:1 575:1 581:1 607:1 618:1 667:1 669:1 747:1 843:1 924:1 1015:1 1090:1 1173:1 1178:1 1198:1 1453:1 1510:1 1568:1 1676:1 1831:1 1847:1 1890:1 1946:1 2087:1 2107:1 2255:1 2573:1 3781:1 3814:1 3904:1 4196:1 4269:1 4337:1 4365:1 4730:1 4795:1 5065:1 5666:1 5820:1 5847:1 5921:1 6062:1 6639:1 6667:1 7848:1 8623:1 9700:1 9994:1 10296:1 10327:1 10382:1 #
0.0035018492792916774795919376828124 11:1 15:1 18:1 22:1 23:1 29:1 30:1 31:1 33:1 34:1 48:1 49:1 56:1 58:1 60:1 62:1 68:1 72:1 75:1 76:1 79:1 82:1 88:1 89:1 90:1 100:1 102:1 104:1 113:1 121:1 148:1 151:1 168:1 179:1 222:1 229:1 243:1 251:1 292:1 302:1 323:1 350:1 372:1 390:1 407:1 427:1 457:1 633:1 638:1 758:1 805:1 815:1 834:1 839:1 849:1 929:1 950:1 1008:1 1090:1 1138:1 1198:1 1474:1 1502:1 1555:1 1557:1 1607:1 1739:1 1745:1 1900:1 1964:1 2005:1 2378:1 2440:1 2590:1 2617:1 2675:1 3389:1 3585:1 3899:1 4067:1 4071:1 4077:1 4101:1 4107:1 4326:1 4365:1 4405:1 4477:1 4577:1 4696:1 4908:1 5094:1 5393:1 5395:1 5489:1 5790:1 6192:1 6278:1 6802:1 8379:1 8968:1 9676:1 9864:1 10499:1 #
0.0046367876808003534450097760100107 7:1 8:1 10:1 11:1 15:1 16:1 18:1 19:1 20:1 21:1 24:1 37:1 48:1 56:1 60:1 62:1 66:1 68:1 71:1 78:1 80:1 84:1 104:1 106:1 113:1 114:1 140:1 148:1 150:1 166:1 168:1 202:1 251:1 322:1 333:1 360:1 390:1 472:1 498:1 521:1 557:1 558:1 598:1 628:1 777:1 897:1 938:1 1008:1 1015:1 1037:1 1078:1 1090:1 1163:1 1198:1 1378:1 1490:1 1575:1 1596:1 1665:1 1681:1 1686:1 1827:1 2116:1 2158:1 2683:1 3027:1 3282:1 3581:1 3950:1 3958:1 4469:1 5054:1 5193:1 5519:1 5598:1 5845:1 5963:1 6195:1 6236:1 6732:1 7485:1 7667:1 7994:1 8643:1 10310:1 #
-0.0046367876808003534450097760100107 1:1 5:1 12:1 15:1 16:1 17:1 18:1 19:1 21:1 25:1 30:1 36:1 41:1 48:1 49:1 50:1 51:1 52:1 57:1 58:1 63:1 64:1 69:1 101:1 103:1 104:1 106:1 113:1 117:1 121:1 128:1 135:1 148:1 165:1 168:1 202:1 205:1 209:1 216:1 222:1 232:1 243:1 244:1 248:1 251:1 278:1 292:1 309:1 387:1 502:1 521:1 575:1 640:1 644:1 723:1 746:1 754:1 758:1 806:1 817:1 843:1 872:1 892:1 974:1 1015:1 1090:1 1161:1 1178:1 1236:1 1385:1 1425:1 1428:1 1523:1 1607:1 1676:1 1850:1 1900:1 1946:1 1961:1 1982:1 2023:1 2087:1 2255:1 2271:1 2371:1 2442:1 2503:1 2560:1 2959:1 3089:1 3098:1 3595:1 3832:1 3901:1 3960:1 4252:1 4263:1 4469:1 4848:1 5138:1 5703:1 5986:1 6116:1 6534:1 6951:1 7848:1 7961:1 8370:1 8615:1 8851:1 9544:1 10261:1 10327:1 #
-0.0046367876808003534450097760100107 1:1 6:1 7:1 10:1 13:1 14:1 15:1 16:1 18:1 19:1 21:1 25:1 30:1 31:1 44:1 48:1 50:1 57:1 58:1 62:1 78:1 84:1 88:1 96:1 100:1 113:1 120:1 125:1 151:1 177:1 191:1 192:1 214:1 216:1 222:1 238:1 249:1 268:1 293:1 320:1 400:1 407:1 411:1 426:1 475:1 510:1 521:1 560:1 567:1 598:1 674:1 940:1 944:1 1008:1 1036:1 1105:1 1226:1 1427:1 1480:1 1635:1 1681:1 1823:1 1935:1 2087:1 2240:1 2654:1 2739:1 2978:1 3121:1 3713:1 3910:1 4629:1 4721:1 4883:1 6379:1 6755:1 7806:1 8191:1 8393:1 8634:1 9795:1 #
-0.0046367876808003534450097760100107 11:1 18:1 30:1 45:1 48:1 58:1 62:1 95:1 135:1 145:1 166:1 339:1 370:1 425:1 475:1 492:1 597:1 648:1 726:1 774:1 848:1 1109:1 1275:1 1365:1 1448:1 1681:1 1837:1 2190:1 2654:1 2662:1 3134:1 3589:1 4801:1 5256:1 6217:1 7817:1 8455:1 8466:1 8787:1 9520:1 9613:1 #
-0.0046367876808003534450097760100107 5:1 7:1 11:1 13:1 16:1 17:1 20:1 21:1 30:1 31:1 35:1 54:1 62:1 84:1 88:1 103:1 125:1 151:1 218:1 222:1 229:1 254:1 323:1 359:1 372:1 394:1 411:1 421:1 457:1 475:1 496:1 564:1 575:1 648:1 665:1 666:1 683:1 709:1 784:1 819:1 842:1 904:1 915:1 924:1 950:1 991:1 994:1 1038:1 1138:1 1489:1 1748:1 1784:1 1973:1 2133:1 2183:1 2240:1 2390:1 2432:1 2484:1 2662:1 2739:1 2807:1 2811:1 3098:1 3154:1 3434:1 3743:1 3870:1 3896:1 3960:1 4161:1 4727:1 5256:1 5587:1 6210:1 6278:1 6415:1 6671:1 6855:1 7510:1 8304:1 8992:1 9741:1 #
0.00051499116950602490117017140391908 1:1 2:1 4:1 9:1 10:1 11:1 12:1 13:1 16:1 17:1 18:1 19:1 20:1 21:1 22:1 24:1 25:1 27:1 29:1 30:1 31:1 32:1 33:1 34:1 35:1 36:1 42:1 45:1 48:1 50:1 51:1 52:1 54:1 55:1 57:1 60:1 62:1 63:1 66:1 67:1 69:1 71:1 73:1 74:1 75:1 76:1 78:1 81:1 82:1 83:1 84:1 85:1 86:1 89:1 94:1 96:1 98:1 100:1 101:1 102:1 104:1 105:1 108:1 110:1 111:1 112:1 113:1 114:1 117:1 121:1 122:1 128:1 130:1 135:1 139:1 144:1 145:1 148:1 159:1 162:1 163:1 168:1 169:1 170:1 172:1 179:1 189:1 195:1 198:1 202:1 204:1 205:1 208:1 210:1 213:1 214:1 215:1 217:1 222:1 232:1 235:1 238:1 239:1 241:1 245:1 251:1 259:1 264:1 266:1 270:1 275:1 276:1 277:1 278:1 295:1 301:1 303:1 308:1 318:1 324:1 329:1 333:1 338:1 346:1 350:1 353:1 370:1 372:1 385:1 388:1 415:1 420:1 434:1 435:1 445:1 452:1 457:1 458:1 471:1 482:1 498:1 499:1 510:1 521:1 545:1 566:1 569:1 575:1 594:1 642:1 651:1 653:1 664:1 670:1 688:1 696:1 727:1 728:1 755:1 758:1 778:1 802:1 809:1 828:1 875:1 892:1 897:1 928:1 936:1 938:1 962:1 981:1 1000:1 1007:1 1009:1 1031:1 1052:1 1058:1 1061:1 1088:1 1090:1 1105:1 1131:1 1132:1 1137:1 1138:1 1176:1 1198:1 1200:1 1229:1 1250:1 1275:1 1364:1 1378:1 1389:1 1417:1 1439:1 1467:1 1477:1 1513:1 1534:1 1549:1 1552:1 1553:1 1565:1 1578:1 1583:1 1599:1 1602:1 1607:1 1626:1 1644:1 1646:1 1665:1 1672:1 1686:1 1691:1 1736:1 1746:1 1755:1 1817:1 1824:1 1831:1 1845:1 1848:1 1858:1 1868:1 1914:1 1917:1 1954:1 1993:1 2044:1 2064:1 2114:1 2117:1 2179:1 2190:1 2198:1 2206:1 2213:1 2289:1 2291:1 2440:1 2442:1 2590:1 2702:1 2788:1 2869:1 2893:1 2928:1 3100:1 3129:1 3199:1 3275:1 3304:1 3335:1 3451:1 3629:1 3641:1 3853:1 3905:1 3938:1 3985:1 4308:1 4332:1 4337:1 4457:1 4477:1 4513:1 4529:1 4580:1 4680:1 4715:1 4740:1 4832:1 4836:1 4907:1 4919:1 5232:1 5261:1 5340:1 5497:1 5500:1 5514:1 5541:1 5616:1 5653:1 5659:1 5686:1 5925:1 6111:1 6289:1 6396:1 6474:1 6577:1 6593:1 6890:1 6949:1 7198:1 7230:1 7502:1 7525:1 7553:1 7932:1 7952:1 8029:1 8041:1 8188:1 8363:1 8379:1 8413:1 8514:1 8934:1 9055:1 9138:1 9350:1 9729:1 9795:1 9892:1 9921:1 10261:1 10545:1 #
-0.0019101502195009939857883729530386 4:1 9:1 16:1 22:1 36:1 37:1 54:1 56:1 67:1 71:1 102:1 109:1 121:1 130:1 162:1 170:1 172:1 187:1 193:1 219:1 244:1 284:1 290:1 295:1 308:1 348:1 358:1 371:1 434:1 438:1 515:1 524:1 642:1 758:1 759:1 849:1 884:1 895:1 979:1 1002:1 1462:1 1514:1 1556:1 1952:1 2322:1 2433:1 2462:1 2745:1 2809:1 3257:1 3533:1 3842:1 4271:1 4782:1 4997:1 5092:1 5093:1 5464:1 6484:1 6502:1 6621:1 8313:1 8602:1 9057:1 9088:1 9156:1 9630:1 #
0.00024752209489858580842083779494089 1:1 2:1 4:1 5:1 6:1 7:1 8:1 10:1 11:1 12:1 13:1 14:1 15:1 16:1 17:1 18:1 19:1 20:1 21:1 22:1 23:1 24:1 25:1 27:1 29:1 30:1 31:1 32:1 33:1 34:1 35:1 36:1 41:1 44:1 48:1 50:1 51:1 56:1 60:1 63:1 64:1 65:1 66:1 67:1 68:1 70:1 76:1 79:1 80:1 81:1 82:1 83:1 84:1 86:1 88:1 89:1 90:1 92:1 93:1 94:1 95:1 98:1 99:1 100:1 101:1 102:1 104:1 105:1 106:1 114:1 115:1 116:1 117:1 121:1 122:1 125:1 126:1 128:1 129:1 130:1 135:1 142:1 146:1 148:1 150:1 152:1 158:1 159:1 162:1 163:1 168:1 172:1 179:1 189:1 196:1 201:1 202:1 204:1 209:1 210:1 213:1 216:1 221:1 232:1 233:1 242:1 244:1 245:1 251:1 254:1 266:1 292:1 293:1 301:1 302:1 309:1 310:1 314:1 315:1 322:1 323:1 332:1 334:1 375:1 387:1 388:1 390:1 400:1 416:1 417:1 420:1 426:1 427:1 428:1 433:1 435:1 452:1 457:1 460:1 461:1 465:1 473:1 486:1 502:1 507:1 509:1 526:1 545:1 564:1 566:1 575:1 601:1 607:1 640:1 641:1 667:1 671:1 723:1 724:1 728:1 758:1 759:1 786:1 839:1 848:1 869:1 892:1 896:1 897:1 899:1 901:1 914:1 917:1 919:1 929:1 937:1 944:1 946:1 968:1 1008:1 1058:1 1059:1 1090:1 1109:1 1128:1 1139:1 1154:1 1161:1 1169:1 1173:1 1182:1 1241:1 1259:1 1377:1 1396:1 1423:1 1432:1 1438:1 1439:1 1463:1 1467:1 1502:1 1510:1 1522:1 1555:1 1566:1 1571:1 1585:1 1591:1 1594:1 1646:1 1653:1 1736:1 1737:1 1757:1 1819:1 1824:1 1831:1 1832:1 1879:1 1892:1 1954:1 2051:1 2060:1 2085:1 2149:1 2200:1 2277:1 2302:1 2344:1 2359:1 2364:1 2371:1 2373:1 2378:1 2415:1 2467:1 2474:1 2588:1 2615:1 2617:1 2651:1 2739:1 2766:1 2797:1 2808:1 2852:1 2903:1 2908:1 2928:1 2990:1 3060:1 3084:1 3097:1 3099:1 3154:1 3204:1 3210:1 3240:1 3242:1 3275:1 3298:1 3339:1 3354:1 3377:1 3472:1 3563:1 3607:1 3768:1 3791:1 3878:1 3907:1 3940:1 3960:1 3985:1 4043:1 4060:1 4071:1 4107:1 4149:1 4211:1 4275:1 4303:1 4326:1 4400:1 4449:1 4451:1 4467:1 4783:1 4812:1 4831:1 4885:1 4974:1 5031:1 5130:1 5147:1 5177:1 5308:1 5387:1 5429:1 5433:1 5467:1 5533:1 5571:1 5668:1 5714:1 5796:1 6146:1 6163:1 6171:1 6184:1 6194:1 6229:1 6378:1 6446:1 6448:1 6568:1 6645:1 6693:1 6713:1 6786:1 6942:1 7114:1 7443:1 7502:1 7553:1 7658:1 7737:1 7995:1 8249:1 8433:1 8635:1 8647:1 8826:1 8849:1 9215:1 9465:1 9724:1 9735:1 9882:1 10250:1 10575:1 10628:1 10662:1 #
0.0037597047517021241549994847730432 1:1 5:1 6:1 7:1 8:1 10:1 11:1 12:1 13:1 14:1 15:1 16:1 18:1 19:1 20:1 21:1 22:1 24:1 25:1 29:1 30:1 31:1 33:1 34:1 35:1 36:1 41:1 45:1 48:1 49:1 51:1 56:1 57:1 60:1 62:1 63:1 65:1 66:1 67:1 68:1 69:1 72:1 80:1 82:1 84:1 86:1 92:1 94:1 96:1 100:1 101:1 102:1 103:1 105:1 106:1 117:1 124:1 126:1 129:1 131:1 135:1 136:1 148:1 151:1 159:1 162:1 168:1 172:1 174:1 179:1 187:1 196:1 198:1 202:1 205:1 215:1 218:1 229:1 232:1 243:1 245:1 249:1 251:1 252:1 256:1 266:1 277:1 278:1 279:1 289:1 292:1 307:1 318:1 332:1 333:1 334:1 350:1 357:1 367:1 375:1 382:1 388:1 396:1 399:1 404:1 405:1 406:1 420:1 421:1 434:1 445:1 457:1 478:1 531:1 564:1 575:1 581:1 625:1 639:1 665:1 674:1 723:1 724:1 745:1 758:1 770:1 775:1 830:1 839:1 841:1 870:1 892:1 897:1 943:1 944:1 951:1 981:1 994:1 1089:1 1090:1 1091:1 1092:1 1102:1 1105:1 1128:1 1150:1 1151:1 1154:1 1172:1 1200:1 1259:1 1275:1 1425:1 1432:1 1453:1 1467:1 1473:1 1483:1 1534:1 1551:1 1604:1 1650:1 1681:1 1784:1 1855:1 1890:1 1993:1 2035:1 2063:1 2080:1 2104:1 2134:1 2139:1 2182:1 2183:1 2240:1 2277:1 2329:1 2371:1 2413:1 2467:1 2599:1 2621:1 2654:1 2715:1 2739:1 2848:1 2965:1 3023:1 3097:1 3098:1 3100:1 3102:1 3120:1 3129:1 3182:1 3199:1 3271:1 3282:1 3440:1 3515:1 3614:1 3781:1 3863:1 3871:1 3896:1 3960:1 3994:1 4006:1 4365:1 4529:1 4679:1 4743:1 4832:1 5014:1 5223:1 5579:1 5819:1 6203:1 6214:1 6568:1 6630:1 7308:1 7666:1 7952:1 7982:1 8304:1 9544:1 10264:1 #
0.00060476958879535221928064325780383 1:1 5:1 6:1 7:1 8:1 10:1 11:1 12:1 13:1 15:1 16:1 17:1 18:1 19:1 20:1 21:1 22:1 23:1 24:1 25:1 26:1 27:1 28:1 29:1 30:1 31:1 32:1 33:1 34:1 36:1 37:1 38:1 41:1 44:1 45:1 48:1 51:1 54:1 56:1 57:1 58:1 60:1 61:1 62:1 63:1 64:1 65:1 66:1 68:1 69:1 73:1 76:1 78:1 80:1 82:1 84:1 88:1 89:1 91:1 92:1 93:1 94:1 99:1 102:1 103:1 104:1 106:1 107:1 108:1 109:1 112:1 113:1 114:1 115:1 117:1 119:1 120:1 123:1 129:1 131:1 138:1 148:1 150:1 152:1 155:1 158:1 159:1 161:1 163:1 166:1 168:1 172:1 174:1 175:1 179:1 185:1 188:1 196:1 202:1 203:1 204:1 206:1 208:1 211:1 214:1 221:1 224:1 225:1 227:1 232:1 233:1 238:1 244:1 251:1 264:1 270:1 272:1 277:1 287:1 297:1 307:1 310:1 315:1 316:1 321:1 331:1 332:1 339:1 341:1 352:1 356:1 367:1 379:1 382:1 383:1 385:1 400:1 404:1 407:1 411:1 421:1 434:1 435:1 438:1 446:1 452:1 464:1 472:1 475:1 490:1 508:1 521:1 523:1 545:1 552:1 557:1 564:1 575:1 601:1 605:1 606:1 609:1 618:1 628:1 629:1 630:1 631:1 633:1 640:1 642:1 651:1 654:1 665:1 671:1 690:1 702:1 723:1 725:1 727:1 728:1 741:1 755:1 763:1 777:1 791:1 793:1 802:1 842:1 843:1 848:1 892:1 894:1 904:1 954:1 1023:1 1037:1 1057:1 1063:1 1090:1 1102:1 1118:1 1160:1 1169:1 1173:1 1176:1 1186:1 1191:1 1198:1 1205:1 1268:1 1279:1 1372:1 1377:1 1435:1 1475:1 1476:1 1487:1 1508:1 1512:1 1591:1 1646:1 1680:1 1681:1 1726:1 1729:1 1736:1 1748:1 1827:1 1831:1 1840:1 1847:1 1854:1 1874:1 1886:1 1894:1 1898:1 1909:1 1923:1 1933:1 1949:1 2038:1 2120:1 2172:1 2194:1 2232:1 2257:1 2273:1 2310:1 2311:1 2312:1 2318:1 2371:1 2373:1 2389:1 2401:1 2429:1 2434:1 2439:1 2454:1 2486:1 2542:1 2580:1 2590:1 2611:1 2613:1 2702:1 2735:1 2744:1 2819:1 2852:1 2908:1 2983:1 3055:1 3071:1 3097:1 3098:1 3118:1 3182:1 3199:1 3207:1 3271:1 3283:1 3289:1 3330:1 3350:1 3438:1 3463:1 3551:1 3574:1 3782:1 3814:1 3844:1 3965:1 4004:1 4078:1 4126:1 4183:1 4225:1 4252:1 4330:1 4337:1 4487:1 4605:1 4658:1 4717:1 4798:1 4844:1 4859:1 5073:1 5079:1 5138:1 5236:1 5260:1 5279:1 5356:1 5473:1 5477:1 5499:1 5584:1 5595:1 5596:1 5656:1 5666:1 5686:1 5700:1 5746:1 5758:1 5894:1 6195:1 6236:1 6282:1 6562:1 6593:1 6625:1 6641:1 6795:1 6900:1 7073:1 7198:1 7502:1 7631:1 7786:1 7994:1 8115:1 8167:1 8190:1 8236:1 8280:1 8692:1 8743:1 8944:1 9350:1 9462:1 9551:1 9881:1 10334:1 #
-0.0014757303949332425431484328015586 5:1 6:1 7:1 8:1 9:1 11:1 12:1 16:1 17:1 19:1 21:1 22:1 23:1 24:1 25:1 26:1 27:1 29:1 31:1 33:1 34:1 37:1 38:1 44:1 45:1 47:1 49:1 56:1 61:1 62:1 64:1 68:1 71:1 75:1 76:1 77:1 78:1 80:1 82:1 83:1 85:1 86:1 88:1 92:1 94:1 100:1 101:1 102:1 103:1 105:1 106:1 107:1 108:1 113:1 114:1 119:1 120:1 124:1 126:1 127:1 128:1 132:1 133:1 134:1 135:1 141:1 143:1 144:1 146:1 147:1 148:1 153:1 158:1 164:1 166:1 172:1 173:1 184:1 187:1 191:1 193:1 195:1 196:1 199:1 202:1 203:1 207:1 210:1 216:1 218:1 223:1 225:1 231:1 237:1 238:1 239:1 243:1 244:1 245:1 258:1 274:1 277:1 278:1 279:1 281:1 285:1 289:1 297:1 301:1 318:1 322:1 323:1 327:1 335:1 339:1 340:1 341:1 344:1 347:1 349:1 351:1 374:1 376:1 385:1 389:1 393:1 395:1 399:1 413:1 423:1 428:1 440:1 442:1 444:1 451:1 452:1 462:1 472:1 478:1 490:1 500:1 523:1 536:1 551:1 557:1 569:1 598:1 599:1 605:1 610:1 615:1 625:1 628:1 633:1 653:1 664:1 665:1 670:1 690:1 694:1 727:1 748:1 755:1 758:1 767:1 768:1 797:1 798:1 828:1 835:1 838:1 839:1 850:1 851:1 855:1 856:1 858:1 860:1 874:1 900:1 933:1 937:1 941:1 944:1 951:1 978:1 985:1 991:1 1001:1 1008:1 1015:1 1039:1 1048:1 1056:1 1089:1 1105:1 1127:1 1129:1 1131:1 1137:1 1138:1 1172:1 1174:1 1185:1 1238:1 1392:1 1393:1 1425:1 1449:1 1452:1 1466:1 1477:1 1514:1 1538:1 1546:1 1553:1 1599:1 1626:1 1640:1 1643:1 1644:1 1678:1 1691:1 1722:1 1729:1 1746:1 1806:1 1838:1 1842:1 1868:1 1875:1 1909:1 1951:1 1991:1 2018:1 2039:1 2083:1 2169:1 2180:1 2183:1 2210:1 2263:1 2314:1 2435:1 2460:1 2621:1 2739:1 2869:1 2898:1 2908:1 2928:1 2935:1 2936:1 3014:1 3056:1 3073:1 3085:1 3126:1 3134:1 3152:1 3172:1 3305:1 3345:1 3367:1 3391:1 3395:1 3423:1 3433:1 3457:1 3461:1 3464:1 3495:1 3507:1 3544:1 3562:1 3621:1 3630:1 3707:1 3801:1 3826:1 3883:1 3940:1 3971:1 3990:1 3994:1 4035:1 4134:1 4264:1 4279:1 4291:1 4302:1 4337:1 4528:1 4586:1 4610:1 4679:1 4793:1 4884:1 5088:1 5314:1 5383:1 5469:1 5554:1 5623:1 5655:1 5745:1 5774:1 6066:1 6126:1 6203:1 6494:1 6609:1 6650:1 6850:1 7005:1 7277:1 8161:1 8287:1 8384:1 8693:1 8703:1 8835:1 9041:1 9044:1 9421:1 9589:1 9664:1 9827:1 10065:1 10169:1 10217:1 10301:1 #
-0.0016295660255687045327166462271862 2:1 4:1 5:1 6:1 7:1 8:1 10:1 11:1 15:1 16:1 17:1 21:1 22:1 24:1 27:1 28:1 29:1 30:1 32:1 33:1 34:1 38:1 44:1 45:1 48:1 56:1 57:1 58:1 60:1 62:1 64:1 66:1 70:1 74:1 76:1 78:1 81:1 84:1 89:1 90:1 93:1 94:1 97:1 102:1 103:1 105:1 108:1 110:1 114:1 120:1 123:1 126:1 130:1 135:1 143:1 148:1 150:1 158:1 162:1 163:1 172:1 179:1 181:1 187:1 189:1 193:1 195:1 201:1 206:1 208:1 213:1 214:1 215:1 216:1 226:1 227:1 230:1 233:1 238:1 240:1 243:1 264:1 270:1 275:1 281:1 295:1 301:1 302:1 307:1 309:1 320:1 321:1 322:1 325:1 337:1 341:1 349:1 357:1 384:1 385:1 386:1 388:1 390:1 392:1 403:1 404:1 405:1 413:1 419:1 434:1 444:1 456:1 459:1 475:1 481:1 498:1 499:1 502:1 515:1 566:1 569:1 575:1 585:1 598:1 602:1 618:1 632:1 640:1 653:1 670:1 673:1 680:1 696:1 758:1 762:1 769:1 770:1 797:1 798:1 799:1 821:1 828:1 835:1 872:1 897:1 1002:1 1004:1 1011:1 1014:1 1037:1 1066:1 1072:1 1085:1 1103:1 1104:1 1105:1 1111:1 1116:1 1161:1 1182:1 1230:1 1395:1 1396:1 1480:1 1502:1 1509:1 1519:1 1555:1 1573:1 1596:1 1623:1 1646:1 1652:1 1653:1 1670:1 1739:1 1803:1 1825:1 1837:1 1931:1 1999:1 2004:1 2011:1 2050:1 2155:1 2213:1 2227:1 2257:1 2276:1 2372:1 2415:1 2471:1 2617:1 2718:1 2785:1 2908:1 3001:1 3038:1 3118:1 3249:1 3340:1 3386:1 3459:1 3464:1 3607:1 3716:1 3723:1 3768:1 3774:1 3873:1 4061:1 4185:1 4192:1 4224:1 4239:1 4258:1 4263:1 4437:1 4542:1 4696:1 4829:1 4892:1 5136:1 5180:1 5205:1 5239:1 5265:1 5364:1 5409:1 5466:1 5494:1 5739:1 5769:1 5963:1 6013:1 6168:1 6378:1 6914:1 7090:1 7482:1 7618:1 7815:1 8173:1 8696:1 9081:1 9143:1 9303:1 9428:1 9500:1 #
-0.0039102267045594317831924691120093 1:1 11:1 15:1 16:1 17:1 18:1 21:1 25:1 27:1 29:1 32:1 41:1 55:1 56:1 58:1 68:1 89:1 90:1 94:1 96:1 102:1 103:1 113:1 120:1 135:1 148:1 163:1 170:1 178:1 189:1 221:1 227:1 244:1 245:1 252:1 273:1 285:1 292:1 320:1 323:1 404:1 433:1 452:1 472:1 533:1 544:1 608:1 628:1 634:1 640:1 642:1 644:1 645:1 669:1 719:1 758:1 777:1 815:1 817:1 964:1 995:1 999:1 1033:1 1150:1 1200:1 1216:1 1534:1 1755:1 1827:1 1846:1 1901:1 1909:1 2070:1 2130:1 2172:1 2213:1 2344:1 2418:1 2912:1 3235:1 3367:1 3899:1 4199:1 4205:1 5073:1 6350:1 6710:1 6795:1 7671:1 7692:1 7895:1 8743:1 9262:1 9423:1 10176:1 10410:1 #
-0.0021761430973228816990183709378925 2:1 5:1 6:1 7:1 8:1 9:1 10:1 11:1 13:1 15:1 16:1 17:1 18:1 20:1 21:1 22:1 23:1 25:1 27:1 28:1 30:1 31:1 34:1 35:1 36:1 37:1 40:1 44:1 45:1 49:1 51:1 55:1 56:1 59:1 61:1 62:1 64:1 66:1 67:1 69:1 72:1 73:1 76:1 77:1 78:1 82:1 83:1 84:1 87:1 90:1 92:1 95:1 98:1 102:1 103:1 104:1 105:1 106:1 108:1 113:1 114:1 123:1 130:1 144:1 146:1 156:1 163:1 167:1 170:1 171:1 172:1 176:1 185:1 187:1 197:1 199:1 201:1 202:1 213:1 231:1 236:1 249:1 253:1 260:1 261:1 266:1 277:1 282:1 292:1 300:1 307:1 318:1 320:1 321:1 329:1 334:1 350:1 367:1 384:1 396:1 403:1 404:1 419:1 426:1 428:1 452:1 467:1 471:1 482:1 488:1 521:1 526:1 569:1 575:1 581:1 585:1 618:1 627:1 630:1 632:1 637:1 642:1 648:1 653:1 671:1 682:1 693:1 702:1 715:1 756:1 758:1 761:1 765:1 767:1 789:1 800:1 828:1 833:1 853:1 875:1 891:1 909:1 944:1 970:1 1066:1 1092:1 1105:1 1122:1 1137:1 1138:1 1142:1 1154:1 1161:1 1165:1 1172:1 1230:1 1268:1 1416:1 1439:1 1452:1 1484:1 1489:1 1534:1 1568:1 1583:1 1620:1 1833:1 1835:1 1837:1 1848:1 1855:1 1879:1 2024:1 2053:1 2104:1 2129:1 2130:1 2148:1 2302:1 2304:1 2348:1 2382:1 2455:1 2549:1 2578:1 2649:1 2654:1 2747:1 2987:1 3014:1 3067:1 3102:1 3127:1 3149:1 3474:1 3614:1 3666:1 3690:1 3743:1 3795:1 3801:1 3809:1 3842:1 3923:1 4041:1 4114:1 4128:1 4679:1 4684:1 4728:1 4969:1 5221:1 5237:1 5371:1 5420:1 5449:1 5494:1 5587:1 5836:1 5856:1 6085:1 6116:1 6269:1 6890:1 7008:1 7326:1 7579:1 7644:1 7679:1 7714:1 7891:1 8185:1 8321:1 8435:1 8887:1 8913:1 8966:1 9143:1 9211:1 9487:1 9647:1 10133:1 10182:1 10366:1 10578:1 10586:1 10645:1 #
-0.0014551216939628615430063485192136 1:1 2:1 4:1 7:1 8:1 9:1 10:1 11:1 12:1 14:1 15:1 16:1 17:1 18:1 19:1 20:1 22:1 24:1 25:1 26:1 27:1 29:1 30:1 32:1 33:1 34:1 36:1 39:1 40:1 48:1 50:1 51:1 52:1 54:1 57:1 59:1 60:1 62:1 63:1 66:1 67:1 68:1 69:1 70:1 71:1 72:1 73:1 74:1 79:1 81:1 84:1 89:1 94:1 95:1 98:1 99:1 102:1 106:1 113:1 118:1 126:1 128:1 131:1 132:1 133:1 152:1 159:1 163:1 170:1 174:1 175:1 185:1 187:1 199:1 209:1 213:1 223:1 225:1 227:1 232:1 244:1 245:1 261:1 270:1 273:1 286:1 289:1 304:1 307:1 308:1 314:1 325:1 333:1 337:1 350:1 357:1 372:1 387:1 396:1 402:1 434:1 435:1 439:1 453:1 458:1 459:1 465:1 480:1 491:1 502:1 507:1 508:1 529:1 553:1 575:1 594:1 595:1 626:1 636:1 640:1 649:1 669:1 674:1 758:1 789:1 794:1 854:1 858:1 885:1 922:1 923:1 954:1 1002:1 1008:1 1033:1 1055:1 1082:1 1107:1 1133:1 1135:1 1169:1 1205:1 1246:1 1254:1 1259:1 1374:1 1437:1 1438:1 1472:1 1534:1 1536:1 1580:1 1639:1 1728:1 1729:1 1789:1 1810:1 1827:1 1914:1 1986:1 2051:1 2055:1 2078:1 2193:1 2215:1 2344:1 2440:1 2470:1 2613:1 2699:1 2721:1 2767:1 3043:1 3118:1 3129:1 3252:1 3417:1 3482:1 3562:1 3756:1 4040:1 4240:1 4272:1 4420:1 4482:1 4568:1 4655:1 5041:1 5117:1 5237:1 5358:1 5395:1 5414:1 5494:1 5915:1 5937:1 6035:1 6107:1 6188:1 6478:1 6570:1 6594:1 6619:1 6633:1 6675:1 6681:1 6829:1 6879:1 7022:1 7190:1 7224:1 7719:1 7824:1 7934:1 8036:1 8038:1 8153:1 8442:1 8616:1 8966:1 9003:1 9023:1 9034:1 9241:1 9904:1 10155:1 10442:1 10677:1 10739:1 #
0.0046367876808003534450097760100107 1:1 5:1 10:1 15:1 16:1 19:1 20:1 21:1 22:1 24:1 25:1 29:1 30:1 34:1 43:1 48:1 49:1 50:1 57:1 68:1 80:1 82:1 88:1 102:1 122:1 148:1 151:1 158:1 166:1 168:1 175:1 213:1 218:1 235:1 249:1 251:1 283:1 292:1 308:1 323:1 331:1 339:1 350:1 352:1 387:1 416:1 433:1 457:1 472:1 491:1 521:1 529:1 530:1 575:1 603:1 625:1 630:1 633:1 666:1 726:1 758:1 759:1 768:1 777:1 799:1 839:1 846:1 899:1 905:1 937:1 951:1 1015:1 1041:1 1059:1 1064:1 1090:1 1105:1 1138:1 1169:1 1173:1 1198:1 1363:1 1421:1 1467:1 1672:1 1676:1 1696:1 1827:1 1837:1 1986:1 2134:1 2140:1 2168:1 2226:1 2413:1 2654:1 2739:1 3369:1 3371:1 3566:1 3718:1 4067:1 4173:1 4239:1 4365:1 4548:1 5030:1 5630:1 6920:1 7806:1 8105:1 8361:1 10604:1 #
0.0046367876808003534450097760100107 1:1 6:1 12:1 16:1 17:1 19:1 20:1 21:1 30:1 31:1 33:1 34:1 36:1 37:1 45:1 48:1 49:1 54:1 56:1 57:1 58:1 60:1 62:1 84:1 86:1 96:1 98:1 102:1 106:1 113:1 168:1 172:1 202:1 216:1 222:1 251:1 256:1 331:1 432:1 435:1 467:1 521:1 548:1 554:1 557:1 566:1 638:1 651:1 700:1 777:1 812:1 839:1 849:1 923:1 955:1 1008:1 1090:1 1258:1 1467:1 1538:1 1549:1 1607:1 1652:1 1827:1 1831:1 2034:1 2099:1 2158:1 2654:1 3199:1 3665:1 3878:1 3940:1 4067:1 4173:1 4211:1 4579:1 4760:1 4929:1 5032:1 5472:1 7133:1 7521:1 8369:1 9772:1 #
0.0046367876808003534450097760100107 1:1 6:1 16:1 18:1 19:1 21:1 24:1 29:1 30:1 36:1 37:1 45:1 48:1 56:1 57:1 62:1 65:1 66:1 68:1 73:1 82:1 84:1 85:1 86:1 94:1 103:1 104:1 140:1 148:1 166:1 168:1 177:1 179:1 202:1 214:1 227:1 231:1 251:1 364:1 382:1 457:1 502:1 521:1 557:1 558:1 581:1 627:1 642:1 671:1 728:1 777:1 854:1 858:1 1008:1 1090:1 1536:1 1652:1 1672:1 1694:1 1827:1 2099:1 2138:1 2359:1 2702:1 2908:1 3199:1 3438:1 4252:1 4337:1 4779:1 5547:1 5836:1 6236:1 8019:1 9045:1 #
0.0031058318371505566450607727091437 1:1 2:1 3:1 6:1 7:1 10:1 11:1 15:1 18:1 19:1 20:1 21:1 29:1 30:1 31:1 33:1 35:1 43:1 44:1 45:1 48:1 52:1 56:1 57:1 58:1 62:1 68:1 84:1 100:1 103:1 113:1 114:1 121:1 122:1 125:1 139:1 143:1 156:1 159:1 160:1 166:1 168:1 172:1 202:1 209:1 215:1 229:1 251:1 270:1 283:1 307:1 334:1 344:1 352:1 357:1 360:1 387:1 407:1 426:1 427:1 435:1 457:1 467:1 482:1 529:1 554:1 557:1 598:1 609:1 700:1 860:1 872:1 875:1 877:1 895:1 924:1 938:1 950:1 971:1 1090:1 1102:1 1154:1 1163:1 1169:1 1377:1 1378:1 1389:1 1469:1 1561:1 1714:1 1823:1 1831:1 1843:1 1847:1 1889:1 1900:1 1929:1 2033:1 2117:1 2127:1 2158:1 2174:1 2183:1 2193:1 2706:1 2813:1 2908:1 2975:1 3001:1 3561:1 3618:1 3665:1 3858:1 3869:1 3878:1 3898:1 4004:1 4061:1 4088:1 4323:1 4335:1 4337:1 4742:1 4772:1 4929:1 5283:1 5333:1 5505:1 5653:1 6490:1 7457:1 7529:1 7553:1 7623:1 7643:1 7705:1 7910:1 8157:1 8667:1 8727:1 9166:1 9608:1 10666:1 #
0.00084989293364296425101200860297013 1:1 3:1 5:1 7:1 11:1 13:1 15:1 18:1 19:1 21:1 30:1 33:1 34:1 37:1 57:1 58:1 60:1 62:1 68:1 71:1 74:1 78:1 82:1 84:1 89:1 100:1 113:1 126:1 135:1 140:1 151:1 165:1 168:1 175:1 181:1 202:1 205:1 216:1 219:1 222:1 236:1 238:1 251:1 270:1 302:1 311:1 323:1 333:1 347:1 364:1 387:1 388:1 391:1 407:1 419:1 432:1 435:1 467:1 472:1 491:1 500:1 502:1 515:1 521:1 548:1 554:1 570:1 575:1 581:1 603:1 613:1 649:1 666:1 759:1 787:1 802:1 839:1 892:1 904:1 994:1 1002:1 1014:1 1015:1 1071:1 1090:1 1132:1 1171:1 1259:1 1302:1 1377:1 1393:1 1428:1 1467:1 1570:1 1593:1 1607:1 1681:1 1736:1 1831:1 1911:1 1973:1 2240:1 2272:1 2309:1 2350:1 2471:1 2564:1 2654:1 2683:1 2734:1 2936:1 2954:1 3199:1 3354:1 3397:1 3463:1 3901:1 4067:1 4078:1 4211:1 4252:1 4417:1 5054:1 5759:1 5826:1 6285:1 6639:1 6696:1 6856:1 7797:1 8029:1 8304:1 8593:1 8751:1 9054:1 9319:1 10287:1 10604:1 #
-0.0030009005184486849462932589460706 1:1 2:1 3:1 6:1 9:1 10:1 11:1 14:1 15:1 16:1 17:1 18:1 19:1 20:1 21:1 24:1 25:1 29:1 30:1 31:1 32:1 33:1 36:1 39:1 45:1 48:1 49:1 50:1 54:1 57:1 58:1 64:1 69:1 70:1 80:1 82:1 84:1 87:1 94:1 97:1 101:1 106:1 110:1 113:1 122:1 124:1 125:1 128:1 138:1 145:1 150:1 160:1 161:1 172:1 175:1 179:1 186:1 189:1 194:1 201:1 204:1 205:1 209:1 227:1 250:1 256:1 291:1 309:1 318:1 337:1 350:1 352:1 360:1 364:1 382:1 387:1 419:1 467:1 468:1 471:1 472:1 508:1 521:1 534:1 549:1 553:1 628:1 637:1 641:1 658:1 667:1 726:1 758:1 768:1 790:1 799:1 861:1 885:1 897:1 898:1 920:1 938:1 966:1 975:1 1002:1 1023:1 1036:1 1045:1 1101:1 1143:1 1178:1 1186:1 1409:1 1444:1 1528:1 1533:1 1568:1 1618:1 1672:1 1688:1 1789:1 1801:1 1805:1 1823:1 1844:1 1921:1 1965:1 2313:1 2326:1 2339:1 2459:1 2462:1 2503:1 2654:1 2810:1 2825:1 3032:1 3046:1 3095:1 3125:1 3129:1 3373:1 3446:1 3774:1 3858:1 3929:1 3948:1 3958:1 4030:1 4230:1 4484:1 4524:1 4603:1 4704:1 4744:1 5199:1 5242:1 5256:1 5533:1 5586:1 5836:1 5873:1 6089:1 6097:1 6222:1 6379:1 6480:1 6533:1 6607:1 6865:1 6895:1 6902:1 7202:1 7410:1 7456:1 7492:1 7738:1 7894:1 8186:1 8194:1 8197:1 8257:1 8545:1 8644:1 8938:1 9197:1 9264:1 10164:1 10322:1 10666:1 10668:1 #
-0.0044231577982999674067410289524105 2:1 3:1 6:1 10:1 11:1 14:1 15:1 16:1 17:1 18:1 19:1 20:1 21:1 25:1 30:1 33:1 35:1 39:1 49:1 54:1 56:1 57:1 58:1 60:1 64:1 66:1 69:1 80:1 82:1 88:1 90:1 98:1 100:1 103:1 106:1 109:1 117:1 121:1 125:1 128:1 136:1 151:1 160:1 162:1 165:1 175:1 177:1 179:1 191:1 192:1 205:1 214:1 216:1 233:1 242:1 272:1 295:1 307:1 309:1 315:1 319:1 332:1 333:1 352:1 355:1 357:1 382:1 387:1 407:1 433:1 471:1 474:1 491:1 492:1 502:1 521:1 534:1 549:1 601:1 625:1 638:1 640:1 641:1 648:1 685:1 726:1 740:1 746:1 758:1 784:1 787:1 794:1 821:1 855:1 905:1 914:1 917:1 923:1 938:1 958:1 971:1 1008:1 1041:1 1112:1 1133:1 1138:1 1173:1 1199:1 1216:1 1274:1 1469:1 1549:1 1553:1 1555:1 1605:1 1676:1 1681:1 1703:1 1862:1 1876:1 1900:1 1951:1 2001:1 2043:1 2127:1 2158:1 2313:1 2370:1 2654:1 2706:1 2739:1 2888:1 3114:1 3188:1 3344:1 3553:1 3595:1 3718:1 3948:1 4134:1 4150:1 4225:1 4281:1 4503:1 4852:1 4858:1 5029:1 5502:1 5592:1 5878:1 6253:1 6921:1 7482:1 7680:1 7975:1 8048:1 8153:1 9078:1 9197:1 9350:1 9354:1 9685:1 10021:1 10394:1 10451:1 10598:1 #
-0.0038884112070365272825767100073335 8:1 10:1 11:1 12:1 14:1 15:1 16:1 19:1 20:1 22:1 25:1 29:1 30:1 31:1 36:1 41:1 45:1 48:1 50:1 51:1 56:1 57:1 63:1 66:1 69:1 74:1 79:1 80:1 82:1 88:1 90:1 95:1 98:1 109:1 113:1 117:1 150:1 159:1 170:1 172:1 179:1 202:1 209:1 215:1 216:1 221:1 227:1 232:1 238:1 266:1 276:1 280:1 308:1 313:1 315:1 323:1 326:1 370:1 382:1 387:1 407:1 420:1 432:1 460:1 472:1 475:1 534:1 558:1 564:1 640:1 641:1 657:1 662:1 667:1 700:1 701:1 758:1 787:1 799:1 800:1 891:1 959:1 986:1 1089:1 1182:1 1204:1 1214:1 1249:1 1393:1 1536:1 1554:1 1607:1 1800:1 1809:1 1830:1 1846:1 1854:1 1898:1 1926:1 1942:1 2117:1 2428:1 2611:1 3068:1 3214:1 3332:1 3463:1 3515:1 3607:1 3829:1 4004:1 4364:1 4730:1 4762:1 4813:1 4818:1 5702:1 5724:1 5819:1 5982:1 6056:1 6339:1 6559:1 6823:1 7666:1 7865:1 9003:1 9044:1 9177:1 9264:1 10701:1 #
-0.003879222953670941574644270843919 10:1 11:1 15:1 16:1 17:1 18:1 19:1 21:1 22:1 25:1 33:1 35:1 56:1 57:1 58:1 62:1 65:1 70:1 88:1 98:1 99:1 106:1 124:1 128:1 131:1 135:1 136:1 138:1 143:1 148:1 150:1 172:1 175:1 192:1 216:1 235:1 249:1 263:1 272:1 301:1 307:1 308:1 350:1 352:1 360:1 387:1 400:1 435:1 459:1 471:1 503:1 521:1 529:1 557:1 564:1 570:1 613:1 640:1 641:1 657:1 679:1 700:1 740:1 758:1 790:1 810:1 875:1 923:1 991:1 1045:1 1101:1 1181:1 1375:1 1403:1 1415:1 1427:1 1463:1 1503:1 1563:1 1580:1 2107:1 2177:1 2350:1 2470:1 2503:1 2898:1 3168:1 3174:1 3406:1 3609:1 3662:1 3856:1 3974:1 4211:1 4471:1 4501:1 4551:1 4852:1 4870:1 5021:1 5185:1 5356:1 5361:1 5563:1 5768:1 5836:1 6004:1 6243:1 6407:1 6662:1 6863:1 7791:1 7866:1 8242:1 9207:1 9256:1 9469:1 10687:1 #
-0.0046367876808003534450097760100107 1:1 5:1 7:1 9:1 12:1 13:1 14:1 15:1 16:1 17:1 18:1 20:1 22:1 23:1 24:1 25:1 27:1 28:1 29:1 30:1 31:1 32:1 34:1 36:1 37:1 39:1 42:1 51:1 53:1 56:1 57:1 59:1 62:1 66:1 78:1 84:1 85:1 86:1 87:1 89:1 101:1 102:1 103:1 104:1 113:1 114:1 115:1 119:1 137:1 143:1 157:1 179:1 185:1 194:1 202:1 216:1 223:1 227:1 231:1 232:1 244:1 247:1 251:1 279:1 281:1 298:1 308:1 316:1 341:1 345:1 356:1 374:1 375:1 382:1 385:1 390:1 410:1 435:1 452:1 453:1 457:1 475:1 480:1 495:1 500:1 544:1 605:1 629:1 632:1 674:1 702:1 723:1 758:1 815:1 817:1 836:1 886:1 891:1 929:1 945:1 1004:1 1009:1 1022:1 1038:1 1046:1 1074:1 1084:1 1155:1 1200:1 1258:1 1265:1 1377:1 1453:1 1471:1 1487:1 1501:1 1513:1 1514:1 1549:1 1587:1 1620:1 1639:1 1643:1 1660:1 1741:1 1791:1 1805:1 1832:1 1842:1 1879:1 1985:1 2262:1 2344:1 2373:1 2378:1 2478:1 2573:1 2614:1 2898:1 2936:1 3005:1 3040:1 3078:1 3098:1 3101:1 3112:1 3127:1 3178:1 3416:1 3489:1 3680:1 3917:1 3932:1 3955:1 4059:1 4122:1 4199:1 4477:1 4921:1 5045:1 5123:1 5135:1 5358:1 5825:1 5865:1 6163:1 6528:1 6605:1 6758:1 6892:1 7171:1 7228:1 8836:1 9503:1 9649:1 10266:1 #
0.0046367876808003534450097760100107 1:1 5:1 7:1 8:1 11:1 16:1 17:1 18:1 19:1 21:1 23:1 25:1 27:1 29:1 30:1 31:1 33:1 35:1 36:1 38:1 40:1 44:1 45:1 48:1 50:1 54:1 56:1 57:1 60:1 61:1 62:1 63:1 64:1 67:1 76:1 77:1 78:1 84:1 86:1 95:1 96:1 98:1 100:1 102:1 103:1 104:1 112:1 113:1 119:1 121:1 125:1 127:1 131:1 138:1 143:1 148:1 156:1 160:1 161:1 168:1 169:1 174:1 182:1 197:1 202:1 208:1 209:1 213:1 216:1 228:1 229:1 239:1 249:1 251:1 273:1 279:1 295:1 319:1 320:1 332:1 333:1 334:1 349:1 353:1 387:1 403:1 404:1 426:1 432:1 435:1 446:1 451:1 457:1 463:1 472:1 475:1 478:1 479:1 521:1 558:1 627:1 633:1 668:1 723:1 758:1 829:1 866:1 874:1 905:1 906:1 920:1 938:1 971:1 999:1 1008:1 1009:1 1057:1 1058:1 1090:1 1093:1 1094:1 1095:1 1140:1 1148:1 1151:1 1154:1 1173:1 1178:1 1386:1 1438:1 1467:1 1469:1 1481:1 1491:1 1495:1 1545:1 1587:1 1637:1 1649:1 1652:1 1666:1 1691:1 1832:1 1849:1 1873:1 1993:1 2035:1 2042:1 2130:1 2213:1 2222:1 2291:1 2378:1 2440:1 2702:1 2755:1 2983:1 3129:1 3607:1 3633:1 3973:1 4021:1 4270:1 4332:1 4648:1 4900:1 4905:1 5232:1 5365:1 5541:1 5674:1 5775:1 5821:1 6172:1 6218:1 6426:1 6430:1 6546:1 7453:1 7606:1 8787:1 8934:1 9772:1 10192:1 #
0.0046367876808003534450097760100107 1:1 2:1 3:1 7:1 8:1 9:1 10:1 11:1 12:1 14:1 15:1 16:1 19:1 20:1 21:1 22:1 24:1 25:1 29:1 31:1 32:1 33:1 34:1 39:1 44:1 45:1 48:1 51:1 57:1 58:1 60:1 63:1 66:1 68:1 69:1 79:1 84:1 90:1 96:1 102:1 114:1 117:1 138:1 150:1 163:1 168:1 172:1 179:1 187:1 202:1 205:1 209:1 216:1 231:1 238:1 244:1 251:1 252:1 254:1 266:1 277:1 278:1 302:1 304:1 307:1 310:1 339:1 357:1 382:1 387:1 434:1 435:1 457:1 471:1 472:1 482:1 502:1 545:1 641:1 647:1 658:1 674:1 688:1 728:1 767:1 799:1 875:1 1012:1 1090:1 1092:1 1258:1 1378:1 1383:1 1397:1 1486:1 1489:1 1704:1 1736:1 1831:1 1879:1 1887:1 1977:1 2124:1 2378:1 2440:1 2455:1 2570:1 2702:1 2813:1 3098:1 3099:1 3235:1 3309:1 3394:1 3422:1 3461:1 3668:1 3784:1 3872:1 3878:1 3946:1 4161:1 4337:1 4685:1 5017:1 6103:1 6195:1 6377:1 6988:1 7198:1 7506:1 7792:1 8597:1 8935:1 9008:1 9830:1 9961:1 10133:1 #
0.0012147399797862203085774268629393 1:1 2:1 5:1 7:1 8:1 9:1 10:1 11:1 12:1 14:1 15:1 16:1 17:1 18:1 19:1 20:1 21:1 24:1 25:1 29:1 30:1 33:1 34:1 35:1 36:1 37:1 41:1 43:1 44:1 45:1 48:1 51:1 54:1 56:1 57:1 58:1 59:1 62:1 66:1 67:1 68:1 70:1 73:1 75:1 78:1 79:1 80:1 84:1 88:1 90:1 92:1 95:1 96:1 98:1 99:1 100:1 101:1 102:1 104:1 108:1 112:1 120:1 130:1 131:1 133:1 142:1 143:1 148:1 149:1 162:1 168:1 177:1 178:1 181:1 185:1 187:1 196:1 198:1 199:1 202:1 204:1 213:1 216:1 217:1 221:1 232:1 242:1 243:1 244:1 249:1 251:1 256:1 259:1 273:1 276:1 280:1 288:1 292:1 302:1 310:1 313:1 315:1 320:1 322:1 344:1 364:1 365:1 366:1 375:1 382:1 387:1 392:1 394:1 416:1 426:1 433:1 435:1 450:1 452:1 457:1 465:1 466:1 472:1 490:1 508:1 514:1 545:1 557:1 570:1 575:1 607:1 618:1 627:1 633:1 636:1 647:1 674:1 723:1 725:1 742:1 754:1 758:1 767:1 776:1 797:1 802:1 810:1 843:1 849:1 858:1 869:1 873:1 891:1 892:1 921:1 923:1 926:1 999:1 1008:1 1025:1 1042:1 1061:1 1090:1 1148:1 1173:1 1178:1 1377:1 1389:1 1425:1 1453:1 1485:1 1515:1 1544:1 1545:1 1570:1 1580:1 1609:1 1614:1 1676:1 1784:1 1831:1 1845:1 1861:1 1927:1 1959:1 2023:1 2031:1 2035:1 2039:1 2130:1 2356:1 2415:1 2442:1 2552:1 2615:1 2739:1 2772:1 2813:1 2915:1 2936:1 2965:1 3047:1 3089:1 3112:1 3119:1 3317:1 3384:1 3472:1 3528:1 3625:1 3660:1 3681:1 3684:1 3770:1 3901:1 3933:1 3938:1 4101:1 4252:1 4288:1 4330:1 4332:1 4365:1 4449:1 4531:1 4576:1 4740:1 5173:1 5231:1 5345:1 5478:1 5527:1 5649:1 5662:1 5698:1 5703:1 5719:1 5790:1 5889:1 6027:1 6919:1 7013:1 7068:1 7286:1 7448:1 7506:1 7865:1 7946:1 7961:1 8028:1 8090:1 8128:1 8157:1 8280:1 8453:1 8477:1 8510:1 8689:1 8800:1 9054:1 9229:1 9350:1 9424:1 9485:1 9680:1 9747:1 9792:1 9961:1 10031:1 10131:1 10207:1 10264:1 #
0.0010844780263013918848724603805067 2:1 4:1 5:1 7:1 9:1 11:1 15:1 16:1 17:1 18:1 19:1 20:1 21:1 22:1 23:1 24:1 25:1 27:1 28:1 29:1 30:1 31:1 32:1 33:1 34:1 36:1 38:1 40:1 41:1 44:1 45:1 48:1 55:1 56:1 57:1 58:1 60:1 62:1 63:1 65:1 66:1 67:1 68:1 70:1 73:1 74:1 78:1 80:1 81:1 82:1 84:1 86:1 88:1 89:1 90:1 91:1 97:1 98:1 106:1 108:1 109:1 113:1 114:1 119:1 120:1 121:1 123:1 124:1 125:1 127:1 129:1 130:1 133:1 134:1 135:1 138:1 141:1 147:1 148:1 149:1 152:1 153:1 162:1 163:1 168:1 172:1 176:1 179:1 186:1 189:1 195:1 198:1 202:1 203:1 204:1 213:1 214:1 222:1 224:1 236:1 237:1 238:1 239:1 243:1 250:1 251:1 255:1 261:1 277:1 282:1 289:1 301:1 305:1 306:1 315:1 320:1 322:1 333:1 341:1 342:1 347:1 352:1 354:1 360:1 375:1 382:1 385:1 388:1 399:1 404:1 417:1 425:1 426:1 431:1 434:1 435:1 436:1 447:1 448:1 454:1 457:1 467:1 479:1 502:1 521:1 554:1 558:1 561:1 562:1 570:1 575:1 594:1 615:1 618:1 630:1 641:1 655:1 682:1 694:1 700:1 727:1 728:1 742:1 745:1 755:1 758:1 764:1 767:1 774:1 778:1 797:1 798:1 799:1 817:1 882:1 923:1 924:1 959:1 970:1 976:1 994:1 1005:1 1012:1 1021:1 1047:1 1083:1 1090:1 1138:1 1177:1 1178:1 1198:1 1229:1 1232:1 1411:1 1413:1 1441:1 1449:1 1450:1 1458:1 1485:1 1497:1 1552:1 1578:1 1607:1 1616:1 1620:1 1637:1 1641:1 1660:1 1681:1 1693:1 1723:1 1755:1 1831:1 1835:1 1847:1 1908:1 1940:1 1946:1 1967:1 1984:1 2062:1 2148:1 2191:1 2257:1 2378:1 2389:1 2455:1 2483:1 2573:1 2590:1 2592:1 2623:1 2751:1 2774:1 2791:1 2797:1 2959:1 3003:1 3022:1 3078:1 3097:1 3149:1 3199:1 3272:1 3320:1 3368:1 3380:1 3657:1 3898:1 3913:1 4029:1 4059:1 4305:1 4319:1 4337:1 4341:1 4342:1 4457:1 4470:1 4508:1 4567:1 4724:1 4820:1 4852:1 5078:1 5414:1 5424:1 5472:1 5526:1 5544:1 5548:1 5613:1 5662:1 5841:1 5887:1 6146:1 6158:1 6423:1 6652:1 6683:1 6784:1 6941:1 7005:1 7062:1 7586:1 7625:1 7642:1 7658:1 7740:1 7882:1 7941:1 8369:1 8626:1 8936:1 9044:1 9132:1 9242:1 9284:1 9449:1 9575:1 9685:1 9772:1 10216:1 10266:1 10320:1 10327:1 #
-0.0041090089954538165303854491128277 1:1 8:1 10:1 11:1 12:1 16:1 18:1 19:1 20:1 21:1 22:1 23:1 24:1 25:1 29:1 30:1 31:1 32:1 34:1 44:1 48:1 49:1 50:1 58:1 62:1 66:1 67:1 72:1 73:1 82:1 84:1 85:1 88:1 90:1 95:1 96:1 98:1 102:1 103:1 104:1 106:1 113:1 117:1 119:1 124:1 126:1 130:1 135:1 137:1 151:1 153:1 158:1 166:1 170:1 173:1 174:1 186:1 194:1 196:1 202:1 218:1 222:1 230:1 231:1 232:1 237:1 243:1 254:1 295:1 322:1 323:1 329:1 331:1 341:1 352:1 357:1 364:1 377:1 421:1 428:1 457:1 472:1 478:1 493:1 521:1 544:1 564:1 567:1 581:1 614:1 625:1 628:1 630:1 762:1 763:1 802:1 816:1 829:1 846:1 895:1 948:1 994:1 1006:1 1008:1 1015:1 1099:1 1105:1 1111:1 1138:1 1148:1 1214:1 1234:1 1273:1 1283:1 1284:1 1305:1 1375:1 1422:1 1438:1 1466:1 1473:1 1483:1 1528:1 1534:1 1549:1 1568:1 1593:1 1676:1 1784:1 1850:1 1977:1 2053:1 2069:1 2072:1 2106:1 2169:1 2183:1 2277:1 2280:1 2304:1 2428:1 2439:1 2859:1 3068:1 3086:1 3365:1 3955:1 4059:1 4062:1 4210:1 4253:1 4302:1 4369:1 4410:1 4497:1 4534:1 4586:1 4601:1 4681:1 4714:1 4739:1 4845:1 4991:1 5002:1 5016:1 5030:1 5357:1 5400:1 5428:1 5578:1 5692:1 6008:1 6111:1 6473:1 6595:1 6719:1 7006:1 7248:1 7842:1 7876:1 8118:1 8219:1 8260:1 8304:1 8464:1 9176:1 9442:1 9728:1 9807:1 10099:1 10267:1 10521:1 #
0.0046367876808003534450097760100107 1:1 5:1 8:1 10:1 11:1 15:1 16:1 17:1 18:1 19:1 21:1 22:1 25:1 29:1 30:1 34:1 48:1 56:1 57:1 58:1 62:1 66:1 68:1 78:1 81:1 82:1 98:1 99:1 100:1 102:1 103:1 106:1 110:1 113:1 119:1 135:1 138:1 143:1 150:1 158:1 159:1 168:1 191:1 202:1 214:1 241:1 251:1 279:1 312:1 333:1 350:1 352:1 364:1 377:1 382:1 387:1 435:1 457:1 475:1 503:1 529:1 545:1 575:1 598:1 607:1 645:1 665:1 666:1 690:1 692:1 724:1 727:1 755:1 798:1 807:1 974:1 994:1 1090:1 1096:1 1198:1 1226:1 1236:1 1274:1 1570:1 1587:1 1681:1 1714:1 1803:1 1831:1 1847:1 1983:1 1997:1 2413:1 2442:1 2476:1 2649:1 2739:1 2755:1 3023:1 3050:1 3078:1 3127:1 3221:1 3572:1 3931:1 3967:1 4092:1 4134:1 4236:1 4337:1 4715:1 4730:1 4754:1 4904:1 4941:1 5355:1 5571:1 5955:1 6568:1 6874:1 6919:1 7288:1 7583:1 7763:1 8045:1 8361:1 8413:1 8548:1 10151:1 #
0.0018493805669025098221275316134893 5:1 6:1 7:1 8:1 10:1 11:1 12:1 14:1 16:1 17:1 18:1 19:1 21:1 22:1 25:1 29:1 30:1 31:1 32:1 34:1 36:1 45:1 48:1 49:1 54:1 55:1 57:1 58:1 60:1 62:1 66:1 67:1 68:1 69:1 74:1 78:1 82:1 84:1 89:1 94:1 97:1 98:1 102:1 104:1 113:1 114:1 121:1 126:1 138:1 139:1 141:1 145:1 148:1 156:1 158:1 166:1 168:1 169:1 170:1 205:1 216:1 217:1 218:1 222:1 232:1 235:1 236:1 243:1 245:1 249:1 251:1 277:1 295:1 301:1 308:1 309:1 312:1 318:1 320:1 324:1 334:1 337:1 341:1 350:1 360:1 364:1 370:1 374:1 386:1 387:1 388:1 407:1 419:1 427:1 430:1 434:1 435:1 438:1 475:1 476:1 482:1 507:1 548:1 549:1 554:1 558:1 564:1 567:1 581:1 598:1 618:1 628:1 632:1 636:1 651:1 653:1 671:1 728:1 743:1 755:1 758:1 775:1 839:1 875:1 892:1 897:1 1002:1 1038:1 1076:1 1090:1 1115:1 1178:1 1236:1 1249:1 1258:1 1302:1 1378:1 1389:1 1411:1 1412:1 1468:1 1480:1 1534:1 1549:1 1578:1 1636:1 1678:1 1823:1 1831:1 1847:1 1946:1 2018:1 2078:1 2117:1 2179:1 2232:1 2344:1 2399:1 2599:1 2654:1 2732:1 2781:1 2959:1 3089:1 3114:1 3120:1 3199:1 3203:1 3222:1 3320:1 3562:1 3657:1 3659:1 3797:1 3904:1 3938:1 3984:1 4047:1 4080:1 4211:1 4278:1 4337:1 4466:1 4477:1 4604:1 4779:1 4797:1 4843:1 4929:1 4938:1 5188:1 5345:1 5398:1 5616:1 5642:1 5653:1 5686:1 5856:1 5863:1 5911:1 6019:1 6068:1 6189:1 6407:1 6419:1 6429:1 6593:1 6641:1 6782:1 6876:1 7005:1 7295:1 7525:1 8171:1 8260:1 8450:1 8744:1 8850:1 8936:1 9027:1 9193:1 9303:1 9433:1 9516:1 9752:1 9949:1 10308:1 10396:1 10731:1 10738:1 #
0.0022933925139592232708696251108904 1:1 2:1 4:1 7:1 11:1 12:1 14:1 15:1 16:1 17:1 18:1 19:1 20:1 21:1 22:1 24:1 25:1 27:1 28:1 29:1 30:1 31:1 34:1 37:1 42:1 44:1 45:1 48:1 49:1 50:1 51:1 56:1 57:1 58:1 60:1 62:1 68:1 73:1 74:1 78:1 80:1 82:1 84:1 93:1 94:1 95:1 98:1 102:1 103:1 104:1 106:1 108:1 113:1 119:1 121:1 125:1 128:1 148:1 158:1 166:1 168:1 170:1 172:1 174:1 176:1 181:1 185:1 186:1 191:1 194:1 196:1 197:1 198:1 202:1 205:1 208:1 210:1 214:1 216:1 218:1 222:1 227:1 243:1 248:1 251:1 260:1 261:1 292:1 295:1 296:1 301:1 308:1 310:1 323:1 334:1 350:1 353:1 359:1 375:1 387:1 404:1 421:1 425:1 435:1 457:1 465:1 486:1 491:1 492:1 502:1 521:1 529:1 545:1 564:1 566:1 601:1 603:1 625:1 630:1 645:1 653:1 660:1 664:1 665:1 666:1 690:1 694:1 712:1 719:1 728:1 740:1 742:1 746:1 758:1 764:1 777:1 805:1 807:1 828:1 840:1 841:1 872:1 873:1 877:1 897:1 933:1 941:1 948:1 950:1 951:1 955:1 994:1 1048:1 1064:1 1090:1 1098:1 1101:1 1105:1 1146:1 1154:1 1161:1 1213:1 1273:1 1275:1 1365:1 1421:1 1508:1 1672:1 1676:1 1694:1 1784:1 1827:1 1831:1 1850:1 1951:1 1969:1 1983:1 1986:1 2064:1 2129:1 2133:1 2134:1 2140:1 2183:1 2371:1 2621:1 2654:1 2717:1 2739:1 3073:1 3134:1 3172:1 3199:1 3221:1 3259:1 3274:1 3555:1 3587:1 3642:1 3926:1 3938:1 4149:1 4211:1 4302:1 4308:1 4627:1 4716:1 4921:1 5167:1 5213:1 5408:1 5593:1 5656:1 5666:1 5836:1 5977:1 6630:1 6996:1 7062:1 7163:1 7230:1 7290:1 8045:1 8105:1 8581:1 9004:1 9048:1 9087:1 9580:1 9772:1 10217:1 10471:1 10649:1 #
0.0033699187869764362333879770261547 1:1 5:1 11:1 12:1 14:1 16:1 18:1 22:1 25:1 34:1 37:1 43:1 48:1 51:1 56:1 57:1 60:1 66:1 69:1 73:1 80:1 86:1 90:1 100:1 113:1 142:1 168:1 179:1 202:1 205:1 222:1 251:1 287:1 323:1 331:1 334:1 382:1 387:1 433:1 434:1 435:1 457:1 553:1 557:1 575:1 758:1 821:1 832:1 917:1 929:1 967:1 1008:1 1061:1 1090:1 1138:1 1161:1 1171:1 1378:1 1421:1 1467:1 1555:1 1607:1 1646:1 1681:1 1736:1 1794:1 1848:1 1854:1 2056:1 2142:1 2371:1 2654:1 2702:1 2954:1 3025:1 3118:1 3271:1 3784:1 3931:1 3940:1 4337:1 4405:1 4672:1 5586:1 5686:1 5757:1 5790:1 6687:1 6869:1 7351:1 7678:1 7816:1 8153:1 8778:1 8869:1 9864:1 #
0.0046367876808003534450097760100107 1:1 5:1 12:1 14:1 15:1 16:1 17:1 18:1 19:1 21:1 22:1 25:1 29:1 30:1 37:1 44:1 48:1 56:1 57:1 58:1 60:1 62:1 66:1 68:1 84:1 101:1 104:1 106:1 113:1 114:1 140:1 157:1 168:1 179:1 202:1 205:1 238:1 251:1 332:1 333:1 352:1 360:1 377:1 396:1 419:1 432:1 486:1 553:1 557:1 564:1 566:1 575:1 630:1 651:1 673:1 777:1 843:1 892:1 940:1 1008:1 1089:1 1090:1 1173:1 1198:1 1200:1 1372:1 1570:1 1607:1 1785:1 1827:1 2172:1 2370:1 2503:1 2702:1 2936:1 3588:1 3592:1 3625:1 3657:1 3658:1 4039:1 4078:1 4793:1 4848:1 4891:1 4894:1 5073:1 5078:1 5469:1 5686:1 5851:1 6068:1 6568:1 7133:1 7232:1 7696:1 7865:1 8024:1 8119:1 9172:1 9747:1 #
-0.0046367876808003534450097760100107 1:1 5:1 10:1 15:1 18:1 21:1 25:1 30:1 34:1 35:1 36:1 42:1 51:1 54:1 66:1 84:1 95:1 103:1 113:1 202:1 252:1 312:1 325:1 331:1 491:1 503:1 564:1 657:1 764:1 806:1 1008:1 1172:1 1173:1 1408:1 1458:1 1747:1 1975:1 1993:1 2069:1 2819:1 2981:1 3182:1 3457:1 3696:1 4530:1 4714:1 4763:1 6670:1 7098:1 8118:1 #
-0.0024074585668883048683586167726389 2:1 4:1 7:1 8:1 11:1 12:1 16:1 17:1 19:1 20:1 22:1 23:1 24:1 26:1 27:1 29:1 30:1 36:1 44:1 45:1 51:1 56:1 62:1 67:1 68:1 71:1 75:1 86:1 94:1 102:1 107:1 110:1 111:1 112:1 114:1 119:1 120:1 127:1 130:1 133:1 141:1 144:1 149:1 164:1 170:1 171:1 188:1 202:1 207:1 214:1 215:1 218:1 221:1 225:1 231:1 239:1 241:1 243:1 245:1 258:1 270:1 277:1 278:1 282:1 283:1 286:1 294:1 297:1 299:1 302:1 308:1 321:1 322:1 323:1 324:1 341:1 343:1 347:1 364:1 365:1 377:1 382:1 385:1 387:1 398:1 401:1 425:1 434:1 452:1 456:1 472:1 491:1 544:1 551:1 566:1 581:1 628:1 642:1 671:1 703:1 724:1 758:1 771:1 777:1 802:1 817:1 839:1 843:1 845:1 874:1 910:1 937:1 956:1 987:1 996:1 1008:1 1074:1 1138:1 1147:1 1150:1 1185:1 1310:1 1432:1 1439:1 1483:1 1536:1 1574:1 1595:1 1626:1 1642:1 1650:1 1755:1 1827:1 1852:1 1986:1 2134:1 2140:1 2193:1 2277:1 2306:1 2399:1 2439:1 2665:1 3078:1 3097:1 3120:1 3392:1 3484:1 3690:1 3928:1 3994:1 4029:1 4161:1 4312:1 5036:1 5401:1 5536:1 5745:1 5779:1 6442:1 7044:1 7075:1 7181:1 7525:1 7708:1 7786:1 7865:1 8166:1 8338:1 8482:1 8551:1 9294:1 9807:1 9839:1 10054:1 10336:1 #
-0.0037305003144553036849295768462298 15:1 16:1 21:1 22:1 29:1 32:1 54:1 62:1 66:1 78:1 148:1 157:1 160:1 165:1 199:1 236:1 244:1 272:1 280:1 292:1 307:1 310:1 360:1 401:1 416:1 426:1 450:1 460:1 566:1 640:1 683:1 717:1 724:1 810:1 854:1 922:1 943:1 952:1 1002:1 1008:1 1078:1 1199:1 1427:1 1560:1 1944:1 2044:1 2086:1 2442:1 2963:1 4659:1 6182:1 6437:1 7980:1 8045:1 8102:1 9492:1 10170:1 10687:1 #
-0.0046367876808003534450097760100107 11:1 12:1 18:1 19:1 25:1 29:1 35:1 44:1 45:1 49:1 50:1 51:1 57:1 60:1 66:1 71:1 72:1 96:1 101:1 106:1 143:1 145:1 150:1 158:1 175:1 238:1 263:1 266:1 270:1 287:1 296:1 315:1 326:1 350:1 352:1 382:1 387:1 411:1 419:1 427:1 475:1 482:1 492:1 502:1 521:1 598:1 602:1 630:1 746:1 758:1 779:1 896:1 1113:1 1147:1 1480:1 1607:1 1620:1 1672:1 1681:1 2174:1 2239:1 2624:1 2654:1 2739:1 2986:1 3098:1 3119:1 3395:1 3657:1 3665:1 3910:1 3940:1 5517:1 6352:1 6528:1 6755:1 7583:1 7806:1 8028:1 8075:1 8260:1 8478:1 8659:1 9823:1 #
-0.0046367876808003534450097760100107 15:1 17:1 18:1 21:1 22:1 24:1 25:1 30:1 34:1 36:1 48:1 51:1 54:1 66:1 78:1 84:1 113:1 114:1 120:1 125:1 148:1 150:1 157:1 159:1 161:1 174:1 177:1 179:1 187:1 215:1 218:1 227:1 277:1 287:1 315:1 341:1 350:1 357:1 426:1 554:1 799:1 854:1 867:1 1105:1 1137:1 1430:1 1473:1 1483:1 1485:1 1536:1 1744:1 1901:1 1977:1 2309:1 3946:1 4047:1 4511:1 6568:1 7076:1 #
0.0011657769704936868111061487596203 5:1 6:1 7:1 8:1 9:1 10:1 11:1 15:1 16:1 17:1 18:1 19:1 20:1 21:1 24:1 25:1 28:1 29:1 30:1 31:1 32:1 34:1 36:1 39:1 43:1 44:1 45:1 48:1 50:1 52:1 57:1 61:1 62:1 63:1 64:1 66:1 67:1 68:1 69:1 73:1 77:1 82:1 84:1 89:1 90:1 92:1 94:1 98:1 99:1 100:1 102:1 103:1 104:1 106:1 109:1 113:1 117:1 121:1 122:1 126:1 135:1 138:1 140:1 148:1 158:1 160:1 168:1 175:1 198:1 202:1 205:1 213:1 218:1 231:1 248:1 251:1 264:1 275:1 277:1 280:1 281:1 285:1 287:1 288:1 292:1 301:1 303:1 309:1 318:1 324:1 333:1 341:1 352:1 359:1 364:1 370:1 385:1 388:1 394:1 399:1 400:1 403:1 404:1 406:1 416:1 417:1 419:1 427:1 435:1 457:1 460:1 467:1 473:1 476:1 480:1 482:1 498:1 502:1 515:1 526:1 528:1 564:1 575:1 617:1 625:1 628:1 651:1 653:1 666:1 728:1 755:1 758:1 799:1 839:1 849:1 875:1 877:1 894:1 897:1 941:1 944:1 947:1 994:1 1045:1 1048:1 1060:1 1065:1 1090:1 1098:1 1105:1 1138:1 1147:1 1157:1 1161:1 1170:1 1172:1 1173:1 1178:1 1191:1 1204:1 1378:1 1389:1 1475:1 1477:1 1491:1 1553:1 1646:1 1676:1 1681:1 1714:1 1736:1 1823:1 1831:1 1847:1 1887:1 1942:1 1993:1 2005:1 2032:1 2035:1 2062:1 2078:1 2090:1 2133:1 2134:1 2149:1 2168:1 2183:1 2304:1 2358:1 2415:1 2429:1 2622:1 2702:1 2718:1 2739:1 3021:1 3023:1 3040:1 3041:1 3102:1 3119:1 3152:1 3182:1 3190:1 3194:1 3199:1 3221:1 3230:1 3300:1 3433:1 3466:1 3475:1 3487:1 3557:1 3587:1 3662:1 3666:1 3693:1 3870:1 3911:1 4074:1 4093:1 4138:1 4254:1 4266:1 4296:1 4337:1 4356:1 4359:1 4505:1 4571:1 4638:1 4679:1 4680:1 4754:1 4768:1 4920:1 5080:1 5081:1 5217:1 5283:1 5314:1 5444:1 5653:1 5761:1 5796:1 5994:1 6027:1 6404:1 6552:1 6745:1 6747:1 6965:1 7107:1 7163:1 7237:1 7278:1 7525:1 7788:1 7915:1 8002:1 8122:1 8163:1 8510:1 8522:1 8661:1 8665:1 8711:1 8751:1 8769:1 8905:1 8967:1 10099:1 10342:1 10635:1 10716:1 #
0.00060888894164313209569905360751818 1:1 2:1 3:1 7:1 10:1 11:1 13:1 14:1 15:1 16:1 17:1 18:1 19:1 20:1 21:1 22:1 23:1 24:1 25:1 27:1 29:1 30:1 31:1 34:1 36:1 37:1 44:1 45:1 49:1 51:1 54:1 56:1 57:1 60:1 62:1 65:1 66:1 67:1 68:1 69:1 73:1 74:1 80:1 84:1 90:1 94:1 98:1 102:1 103:1 104:1 105:1 106:1 109:1 113:1 114:1 115:1 121:1 130:1 131:1 140:1 143:1 148:1 150:1 156:1 165:1 168:1 170:1 172:1 175:1 179:1 185:1 213:1 226:1 227:1 232:1 236:1 244:1 248:1 249:1 256:1 263:1 266:1 270:1 272:1 275:1 277:1 278:1 292:1 301:1 302:1 307:1 310:1 315:1 322:1 329:1 334:1 364:1 370:1 375:1 385:1 387:1 388:1 406:1 435:1 452:1 457:1 472:1 480:1 482:1 485:1 521:1 533:1 564:1 575:1 606:1 627:1 630:1 640:1 641:1 653:1 688:1 701:1 743:1 758:1 764:1 781:1 800:1 812:1 817:1 827:1 875:1 896:1 897:1 926:1 929:1 938:1 946:1 971:1 1061:1 1090:1 1095:1 1096:1 1102:1 1112:1 1161:1 1171:1 1173:1 1182:1 1485:1 1494:1 1502:1 1549:1 1565:1 1585:1 1607:1 1790:1 1831:1 1832:1 1854:1 1857:1 1977:1 2017:1 2035:1 2039:1 2056:1 2104:1 2117:1 2148:1 2158:1 2210:1 2247:1 2257:1 2293:1 2365:1 2378:1 2382:1 2408:1 2415:1 2442:1 2503:1 2615:1 2654:1 2702:1 2716:1 2808:1 2908:1 3025:1 3089:1 3114:1 3129:1 3182:1 3204:1 3283:1 3286:1 3335:1 3352:1 3582:1 3588:1 3607:1 3667:1 3725:1 3784:1 3878:1 3898:1 3904:1 3910:1 3926:1 3960:1 4061:1 4062:1 4074:1 4103:1 4162:1 4211:1 4224:1 4313:1 4330:1 4332:1 4337:1 4406:1 4419:1 4430:1 4443:1 4501:1 4558:1 4563:1 4576:1 4620:1 4713:1 4764:1 4832:1 4882:1 4897:1 4912:1 4919:1 5009:1 5088:1 5147:1 5227:1 5489:1 5541:1 5593:1 5686:1 5770:1 5790:1 5879:1 5913:1 5955:1 6116:1 6117:1 6118:1 6136:1 6139:1 6178:1 6184:1 6347:1 6426:1 6478:1 6552:1 6568:1 6759:1 6926:1 6951:1 6966:1 7195:1 7282:1 7294:1 7505:1 7525:1 7582:1 7584:1 7610:1 7659:1 7705:1 7795:1 7806:1 7822:1 7843:1 7982:1 8232:1 8350:1 8415:1 8437:1 8465:1 8470:1 8590:1 8674:1 8689:1 9067:1 9278:1 9322:1 9544:1 9643:1 9712:1 9772:1 9864:1 9874:1 9928:1 9961:1 10031:1 10158:1 10193:1 10350:1 10499:1 10500:1 10593:1 10606:1 10641:1 #
0.00076872287952208548204857674335244 1:1 3:1 6:1 8:1 10:1 11:1 14:1 15:1 16:1 17:1 18:1 19:1 20:1 21:1 22:1 25:1 29:1 30:1 33:1 34:1 35:1 36:1 44:1 45:1 48:1 50:1 52:1 54:1 56:1 57:1 58:1 62:1 67:1 68:1 72:1 73:1 78:1 80:1 81:1 82:1 84:1 87:1 92:1 94:1 100:1 102:1 104:1 109:1 110:1 113:1 114:1 116:1 117:1 121:1 124:1 125:1 135:1 136:1 143:1 146:1 150:1 156:1 157:1 160:1 168:1 169:1 170:1 175:1 179:1 185:1 187:1 199:1 202:1 204:1 205:1 209:1 213:1 215:1 216:1 221:1 222:1 227:1 229:1 231:1 232:1 238:1 243:1 245:1 249:1 251:1 267:1 283:1 287:1 297:1 301:1 307:1 313:1 324:1 331:1 333:1 334:1 341:1 352:1 360:1 364:1 374:1 379:1 386:1 387:1 392:1 402:1 404:1 406:1 416:1 419:1 432:1 435:1 447:1 450:1 452:1 457:1 458:1 472:1 473:1 481:1 482:1 490:1 509:1 521:1 529:1 545:1 554:1 558:1 564:1 598:1 625:1 632:1 636:1 702:1 712:1 743:1 750:1 755:1 767:1 801:1 831:1 839:1 868:1 872:1 875:1 895:1 897:1 920:1 938:1 971:1 1004:1 1090:1 1102:1 1138:1 1154:1 1259:1 1378:1 1383:1 1428:1 1433:1 1484:1 1514:1 1536:1 1559:1 1570:1 1591:1 1596:1 1602:1 1633:1 1646:1 1713:1 1714:1 1789:1 1847:1 1854:1 1860:1 1881:1 1882:1 1883:1 1920:1 1929:1 2025:1 2035:1 2108:1 2143:1 2148:1 2158:1 2193:1 2200:1 2274:1 2301:1 2342:1 2370:1 2418:1 2438:1 2462:1 2486:1 2488:1 2503:1 2599:1 2611:1 2612:1 2654:1 2702:1 2788:1 2975:1 3003:1 3389:1 3409:1 3461:1 3471:1 3481:1 3688:1 3858:1 3869:1 3878:1 3899:1 3940:1 3948:1 4029:1 4044:1 4134:1 4149:1 4296:1 4473:1 4594:1 4621:1 4623:1 4629:1 4653:1 4772:1 4918:1 5068:1 5076:1 5119:1 5227:1 5548:1 5673:1 5741:1 5747:1 5913:1 5931:1 5984:1 6028:1 6068:1 6340:1 6350:1 6379:1 6409:1 6426:1 6490:1 6568:1 6623:1 6678:1 6693:1 6706:1 6911:1 6927:1 6990:1 7005:1 7067:1 7194:1 7243:1 7291:1 7298:1 7314:1 7457:1 7499:1 7502:1 7529:1 7536:1 7553:1 7906:1 8157:1 8188:1 8191:1 8260:1 8350:1 8508:1 8751:1 8960:1 9224:1 9319:1 9335:1 9531:1 9534:1 9881:1 9969:1 10010:1 10215:1 10229:1 10236:1 10455:1 10536:1 10558:1 #
7.4185499577289552549166917749801e-05 1:1 2:1 3:1 6:1 8:1 9:1 10:1 11:1 12:1 14:1 15:1 16:1 17:1 18:1 19:1 20:1 21:1 22:1 24:1 25:1 30:1 31:1 32:1 33:1 34:1 35:1 36:1 38:1 44:1 45:1 48:1 49:1 50:1 51:1 56:1 57:1 58:1 60:1 66:1 68:1 69:1 73:1 75:1 76:1 84:1 85:1 87:1 88:1 90:1 94:1 95:1 103:1 105:1 106:1 113:1 114:1 116:1 117:1 124:1 137:1 138:1 140:1 145:1 148:1 150:1 151:1 162:1 168:1 177:1 179:1 189:1 198:1 202:1 209:1 212:1 213:1 214:1 222:1 225:1 227:1 232:1 233:1 237:1 238:1 248:1 251:1 252:1 262:1 266:1 274:1 276:1 280:1 295:1 301:1 307:1 310:1 312:1 318:1 331:1 334:1 350:1 357:1 366:1 387:1 390:1 400:1 402:1 410:1 434:1 435:1 436:1 439:1 457:1 471:1 473:1 482:1 486:1 491:1 498:1 575:1 612:1 617:1 618:1 638:1 640:1 645:1 653:1 670:1 674:1 695:1 723:1 724:1 728:1 742:1 758:1 794:1 830:1 872:1 875:1 892:1 932:1 968:1 1015:1 1041:1 1062:1 1077:1 1090:1 1102:1 1111:1 1138:1 1142:1 1143:1 1154:1 1171:1 1199:1 1228:1 1368:1 1377:1 1392:1 1425:1 1453:1 1467:1 1485:1 1555:1 1633:1 1736:1 1791:1 1819:1 1831:1 1832:1 1850:1 1854:1 1993:1 2035:1 2060:1 2107:1 2117:1 2218:1 2234:1 2322:1 2378:1 2455:1 2466:1 2615:1 2679:1 2702:1 2769:1 3089:1 3119:1 3199:1 3210:1 3303:1 3440:1 3468:1 3551:1 3644:1 3690:1 3781:1 3813:1 3898:1 3910:1 4004:1 4071:1 4134:1 4149:1 4206:1 4303:1 4337:1 4405:1 4467:1 4469:1 4488:1 4501:1 4684:1 5081:1 5239:1 5352:1 5373:1 5487:1 5554:1 5630:1 5790:1 5963:1 6194:1 6272:1 6449:1 6551:1 6552:1 6636:1 6641:1 6935:1 6988:1 6999:1 7033:1 7208:1 7418:1 7471:1 7502:1 7658:1 7753:1 7972:1 8060:1 8190:1 8280:1 8370:1 8437:1 8654:1 8828:1 9283:1 9727:1 9864:1 10217:1 10264:1 10604:1 #
0.0016094502147205047310613013067382 1:1 8:1 10:1 11:1 14:1 15:1 16:1 17:1 18:1 19:1 20:1 21:1 22:1 24:1 25:1 30:1 34:1 35:1 36:1 39:1 48:1 50:1 54:1 57:1 58:1 59:1 60:1 62:1 67:1 68:1 74:1 75:1 82:1 88:1 92:1 94:1 100:1 102:1 103:1 104:1 106:1 109:1 113:1 114:1 117:1 123:1 125:1 126:1 128:1 135:1 137:1 140:1 165:1 168:1 172:1 174:1 177:1 192:1 202:1 205:1 227:1 229:1 231:1 235:1 243:1 251:1 259:1 277:1 279:1 303:1 308:1 315:1 318:1 322:1 387:1 395:1 406:1 419:1 421:1 435:1 457:1 472:1 522:1 554:1 594:1 618:1 627:1 633:1 653:1 667:1 673:1 691:1 692:1 700:1 723:1 726:1 728:1 746:1 762:1 786:1 814:1 842:1 843:1 849:1 866:1 879:1 891:1 892:1 940:1 946:1 955:1 999:1 1015:1 1026:1 1078:1 1090:1 1138:1 1161:1 1178:1 1198:1 1216:1 1259:1 1284:1 1364:1 1389:1 1408:1 1453:1 1467:1 1494:1 1553:1 1607:1 1617:1 1621:1 1622:1 1729:1 1831:1 1900:1 1901:1 1950:1 2005:1 2044:1 2169:1 2172:1 2232:1 2234:1 2309:1 2344:1 2360:1 2384:1 2389:1 2558:1 2611:1 2674:1 2681:1 2716:1 3078:1 3085:1 3086:1 3112:1 3114:1 3127:1 3199:1 3282:1 3559:1 3562:1 3679:1 3849:1 3938:1 4031:1 4059:1 4477:1 4494:1 4531:1 5029:1 5073:1 5078:1 5598:1 5663:1 5770:1 6194:1 6369:1 6419:1 6593:1 6605:1 6641:1 6704:1 7091:1 7254:1 7269:1 7274:1 7316:1 7326:1 7433:1 7658:1 7848:1 7892:1 8260:1 8464:1 8674:1 8718:1 8732:1 9350:1 9605:1 9963:1 10099:1 10131:1 10159:1 10246:1 10405:1 10408:1 10558:1 10585:1 #
0.0030949850185654553466618743584604 1:1 3:1 11:1 15:1 16:1 18:1 19:1 20:1 21:1 25:1 29:1 31:1 34:1 36:1 37:1 39:1 48:1 54:1 56:1 60:1 63:1 71:1 84:1 88:1 97:1 98:1 102:1 103:1 106:1 113:1 114:1 140:1 141:1 148:1 158:1 166:1 168:1 170:1 191:1 202:1 209:1 230:1 232:1 243:1 244:1 251:1 270:1 308:1 322:1 323:1 352:1 360:1 372:1 375:1 396:1 435:1 498:1 554:1 557:1 566:1 569:1 575:1 594:1 672:1 688:1 728:1 764:1 777:1 892:1 948:1 950:1 1008:1 1037:1 1043:1 1066:1 1090:1 1092:1 1101:1 1119:1 1131:1 1150:1 1185:1 1198:1 1395:1 1401:1 1418:1 1467:1 1484:1 1566:1 1605:1 1660:1 1741:1 1790:1 1827:1 1831:1 2138:1 2190:1 2521:1 2541:1 2610:1 2901:1 2908:1 2964:1 3084:1 3098:1 3199:1 3266:1 3446:1 4326:1 4469:1 4757:1 5009:1 5192:1 5796:1 5911:1 6236:1 6278:1 6447:1 6474:1 7005:1 7309:1 8191:1 8510:1 9518:1 10641:1 #
0.0012502753143425020254664303820391 1:1 2:1 5:1 6:1 10:1 11:1 12:1 16:1 18:1 20:1 21:1 24:1 25:1 27:1 28:1 30:1 32:1 33:1 34:1 37:1 48:1 49:1 51:1 54:1 56:1 58:1 60:1 62:1 68:1 69:1 71:1 73:1 76:1 78:1 80:1 82:1 84:1 88:1 90:1 98:1 102:1 103:1 104:1 121:1 125:1 135:1 137:1 140:1 151:1 157:1 166:1 168:1 174:1 175:1 179:1 202:1 205:1 214:1 215:1 249:1 251:1 261:1 271:1 289:1 292:1 307:1 323:1 331:1 333:1 334:1 375:1 383:1 388:1 433:1 435:1 439:1 457:1 467:1 482:1 554:1 570:1 575:1 633:1 641:1 644:1 651:1 652:1 673:1 700:1 723:1 758:1 764:1 827:1 875:1 892:1 1025:1 1061:1 1090:1 1152:1 1154:1 1178:1 1198:1 1226:1 1386:1 1470:1 1607:1 1652:1 1665:1 1696:1 1803:1 1831:1 1887:1 1964:1 2079:1 2255:1 2344:1 2356:1 2588:1 2825:1 3065:1 3183:1 3275:1 3438:1 3562:1 3592:1 3625:1 3774:1 3964:1 4181:1 4513:1 4594:1 4630:1 4912:1 4929:1 5221:1 5421:1 5482:1 5845:1 5847:1 5851:1 6035:1 6446:1 6629:1 7500:1 8232:1 8624:1 8990:1 9279:1 9323:1 10257:1 10681:1 #
0.0043321762252196572423601494961076 5:1 11:1 13:1 15:1 19:1 21:1 22:1 24:1 31:1 32:1 33:1 34:1 37:1 45:1 48:1 49:1 50:1 52:1 54:1 57:1 62:1 63:1 68:1 69:1 73:1 82:1 84:1 98:1 102:1 113:1 114:1 130:1 147:1 157:1 168:1 202:1 216:1 250:1 251:1 296:1 308:1 311:1 318:1 333:1 360:1 433:1 435:1 457:1 486:1 521:1 552:1 554:1 562:1 564:1 754:1 802:1 814:1 967:1 999:1 1090:1 1428:1 1549:1 1555:1 1607:1 1681:1 1831:1 2257:1 2378:1 2702:1 3038:1 3098:1 3199:1 3805:1 4101:1 4672:1 5110:1 5541:1 5586:1 5790:1 6641:1 7237:1 7652:1 8029:1 8934:1 9864:1 #
-0.0029568499366762514279916018722361 1:1 3:1 5:1 10:1 11:1 14:1 15:1 16:1 18:1 19:1 20:1 21:1 24:1 25:1 29:1 30:1 31:1 49:1 50:1 54:1 56:1 60:1 82:1 87:1 88:1 97:1 98:1 103:1 106:1 113:1 116:1 121:1 135:1 141:1 142:1 143:1 151:1 158:1 166:1 177:1 191:1 205:1 218:1 229:1 266:1 275:1 280:1 308:1 322:1 337:1 359:1 364:1 370:1 387:1 395:1 421:1 430:1 434:1 447:1 461:1 500:1 508:1 515:1 553:1 567:1 620:1 625:1 653:1 666:1 709:1 724:1 758:1 818:1 819:1 840:1 904:1 933:1 941:1 946:1 1041:1 1096:1 1122:1 1137:1 1163:1 1234:1 1428:1 1585:1 1699:1 1748:1 1886:1 1987:1 2090:1 2104:1 2240:1 2250:1 2365:1 2382:1 2390:1 2600:1 2739:1 3073:1 3450:1 3607:1 3631:1 3690:1 3731:1 3743:1 3985:1 4297:1 5217:1 5497:1 5513:1 5956:1 6063:1 6467:1 6770:1 7211:1 8045:1 8142:1 8304:1 8339:1 9772:1 10439:1 #
-0.0020115520652355285691204045406266 5:1 8:1 11:1 12:1 13:1 14:1 15:1 16:1 17:1 18:1 19:1 21:1 24:1 25:1 31:1 37:1 39:1 44:1 48:1 50:1 54:1 58:1 59:1 65:1 69:1 71:1 73:1 74:1 80:1 82:1 84:1 87:1 88:1 90:1 92:1 96:1 97:1 99:1 102:1 103:1 106:1 110:1 113:1 122:1 136:1 141:1 148:1 151:1 158:1 166:1 172:1 175:1 177:1 185:1 189:1 192:1 205:1 214:1 222:1 227:1 232:1 238:1 268:1 271:1 275:1 292:1 295:1 296:1 301:1 322:1 333:1 350:1 352:1 357:1 360:1 370:1 382:1 411:1 417:1 432:1 461:1 471:1 486:1 508:1 521:1 564:1 570:1 618:1 630:1 637:1 674:1 692:1 700:1 726:1 740:1 745:1 754:1 774:1 777:1 783:1 786:1 791:1 811:1 817:1 848:1 858:1 866:1 883:1 906:1 944:1 951:1 1002:1 1008:1 1019:1 1036:1 1048:1 1078:1 1089:1 1107:1 1109:1 1172:1 1186:1 1214:1 1226:1 1228:1 1387:1 1417:1 1453:1 1485:1 1537:1 1568:1 1607:1 1681:1 1682:1 1758:1 1801:1 1809:1 1850:1 1883:1 1913:1 1931:1 2063:1 2105:1 2134:1 2172:1 2302:1 2350:1 2453:1 2476:1 2570:1 2623:1 2634:1 2662:1 2683:1 2739:1 2888:1 3014:1 3058:1 3068:1 3134:1 3371:1 3380:1 3450:1 3454:1 3519:1 3538:1 3756:1 4019:1 4083:1 4124:1 4166:1 4211:1 4236:1 4273:1 4643:1 5355:1 5472:1 5593:1 5686:1 5774:1 6111:1 6215:1 6285:1 6384:1 6568:1 6583:1 6750:1 6978:1 7231:1 7243:1 7504:1 7525:1 8528:1 8628:1 8780:1 9027:1 9102:1 9223:1 9319:1 9350:1 9580:1 9949:1 10242:1 #
-0.0032924735783539851169399170771612 10:1 15:1 16:1 17:1 19:1 20:1 21:1 29:1 30:1 31:1 32:1 40:1 57:1 68:1 69:1 97:1 98:1 113:1 114:1 117:1 135:1 138:1 147:1 155:1 161:1 165:1 168:1 175:1 177:1 185:1 199:1 214:1 223:1 227:1 238:1 245:1 253:1 264:1 308:1 309:1 333:1 338:1 364:1 397:1 400:1 417:1 450:1 465:1 472:1 482:1 491:1 502:1 529:1 613:1 618:1 620:1 626:1 649:1 653:1 673:1 700:1 758:1 849:1 895:1 905:1 1002:1 1008:1 1026:1 1164:1 1250:1 1477:1 1622:1 1636:1 1676:1 1685:1 1689:1 1827:1 1888:1 1917:1 1942:1 1986:1 2177:1 2193:1 2457:1 2724:1 2963:1 3068:1 3174:1 3593:1 3776:1 4013:1 4072:1 4327:1 4498:1 4598:1 4692:1 5237:1 5361:1 5423:1 5681:1 6004:1 6322:1 6914:1 6919:1 7068:1 7298:1 8518:1 9251:1 9630:1 9940:1 10131:1 #
-0.0028281281342666993866563629467237 2:1 3:1 4:1 5:1 8:1 11:1 12:1 14:1 20:1 21:1 24:1 25:1 29:1 41:1 48:1 52:1 57:1 62:1 72:1 82:1 87:1 97:1 98:1 106:1 124:1 128:1 136:1 137:1 141:1 150:1 162:1 166:1 172:1 177:1 191:1 205:1 238:1 249:1 283:1 322:1 333:1 355:1 472:1 521:1 548:1 552:1 597:1 601:1 603:1 609:1 674:1 700:1 740:1 784:1 852:1 860:1 1002:1 1124:1 1172:1 1275:1 1373:1 1478:1 1538:1 2066:1 2366:1 2382:1 2406:1 2600:1 2655:1 2959:1 3017:1 3125:1 3151:1 3437:1 3818:1 3971:1 4134:1 4368:1 4434:1 5622:1 6327:1 6821:1 6870:1 7016:1 7438:1 8096:1 10260:1 10730:1 #
0.00085983476496493836584850134485691 1:1 5:1 6:1 7:1 8:1 10:1 11:1 12:1 14:1 15:1 16:1 17:1 18:1 19:1 20:1 21:1 24:1 25:1 26:1 28:1 29:1 30:1 31:1 32:1 33:1 34:1 36:1 37:1 42:1 44:1 45:1 48:1 49:1 53:1 54:1 56:1 57:1 60:1 62:1 65:1 66:1 68:1 69:1 71:1 73:1 74:1 76:1 80:1 82:1 84:1 88:1 92:1 93:1 94:1 95:1 98:1 99:1 100:1 102:1 103:1 106:1 108:1 109:1 112:1 114:1 116:1 117:1 120:1 128:1 130:1 138:1 140:1 143:1 146:1 149:1 150:1 151:1 159:1 163:1 168:1 169:1 172:1 179:1 189:1 193:1 194:1 198:1 202:1 205:1 206:1 209:1 212:1 216:1 225:1 227:1 233:1 240:1 243:1 246:1 251:1 262:1 263:1 264:1 268:1 270:1 287:1 288:1 295:1 296:1 302:1 303:1 309:1 315:1 322:1 329:1 334:1 336:1 337:1 350:1 352:1 366:1 370:1 372:1 375:1 385:1 387:1 390:1 395:1 396:1 405:1 420:1 425:1 435:1 439:1 457:1 498:1 545:1 557:1 566:1 575:1 602:1 610:1 615:1 617:1 618:1 628:1 632:1 633:1 636:1 695:1 700:1 702:1 725:1 746:1 758:1 770:1 775:1 778:1 785:1 817:1 832:1 833:1 840:1 880:1 891:1 892:1 917:1 918:1 926:1 950:1 955:1 967:1 1008:1 1037:1 1066:1 1072:1 1089:1 1090:1 1137:1 1139:1 1147:1 1198:1 1372:1 1376:1 1377:1 1391:1 1395:1 1396:1 1430:1 1477:1 1479:1 1491:1 1502:1 1516:1 1521:1 1555:1 1638:1 1652:1 1739:1 1800:1 1806:1 1819:1 1857:1 1861:1 1902:1 1905:1 1915:1 1934:1 1975:1 1989:1 2104:1 2107:1 2121:1 2138:1 2188:1 2218:1 2222:1 2234:1 2334:1 2359:1 2373:1 2442:1 2469:1 2540:1 2553:1 2590:1 2611:1 2615:1 2617:1 2620:1 2674:1 2702:1 2718:1 2772:1 2825:1 2849:1 2934:1 2949:1 2959:1 2983:1 2986:1 3023:1 3097:1 3128:1 3199:1 3242:1 3312:1 3362:1 3458:1 3781:1 3819:1 3985:1 4011:1 4024:1 4039:1 4040:1 4181:1 4202:1 4266:1 4337:1 4411:1 4427:1 4441:1 4594:1 4601:1 4639:1 4697:1 4785:1 4908:1 5006:1 5009:1 5065:1 5087:1 5111:1 5229:1 5324:1 5489:1 5666:1 5700:1 5794:1 5963:1 6093:1 6233:1 6278:1 6338:1 6358:1 6567:1 6577:1 6585:1 6600:1 6641:1 6803:1 6885:1 6951:1 6977:1 7054:1 7369:1 7381:1 7498:1 7521:1 8190:1 8232:1 8505:1 8506:1 8696:1 8711:1 8774:1 9142:1 9392:1 9735:1 10207:1 10214:1 10251:1 10444:1 10488:1 10510:1 #
0.0027404905485857349381473291316524 1:1 5:1 11:1 14:1 15:1 16:1 18:1 19:1 21:1 22:1 27:1 32:1 34:1 36:1 37:1 45:1 48:1 50:1 54:1 56:1 57:1 60:1 62:1 66:1 73:1 82:1 84:1 88:1 100:1 103:1 106:1 108:1 112:1 113:1 114:1 125:1 126:1 138:1 140:1 168:1 175:1 179:1 202:1 213:1 214:1 231:1 232:1 233:1 236:1 244:1 259:1 260:1 264:1 278:1 301:1 303:1 308:1 310:1 324:1 334:1 347:1 350:1 352:1 360:1 382:1 390:1 395:1 411:1 417:1 432:1 435:1 452:1 457:1 472:1 480:1 509:1 510:1 557:1 575:1 630:1 653:1 758:1 817:1 839:1 892:1 900:1 917:1 922:1 926:1 929:1 951:1 967:1 968:1 1008:1 1020:1 1059:1 1061:1 1090:1 1138:1 1173:1 1430:1 1473:1 1555:1 1620:1 1819:1 1854:1 2179:1 2215:1 2350:1 2370:1 2484:1 2615:1 2702:1 2766:1 3084:1 3098:1 3119:1 3348:1 3463:1 3591:1 3597:1 3614:1 4062:1 4067:1 4337:1 4405:1 4509:1 4542:1 5088:1 5790:1 6474:1 6568:1 6641:1 6996:1 7345:1 7583:1 7841:1 7951:1 8191:1 8662:1 8696:1 9840:1 9864:1 10207:1 10323:1 #
0.00061274063919271619035877840531157 1:1 2:1 7:1 10:1 11:1 14:1 15:1 17:1 18:1 19:1 20:1 21:1 24:1 25:1 27:1 29:1 30:1 31:1 34:1 35:1 36:1 38:1 42:1 45:1 48:1 49:1 50:1 53:1 57:1 58:1 60:1 63:1 64:1 67:1 68:1 76:1 84:1 86:1 88:1 92:1 94:1 95:1 96:1 98:1 99:1 100:1 102:1 104:1 105:1 106:1 108:1 112:1 113:1 114:1 117:1 121:1 124:1 143:1 144:1 146:1 148:1 151:1 152:1 157:1 161:1 165:1 166:1 168:1 170:1 178:1 179:1 189:1 192:1 193:1 202:1 210:1 216:1 218:1 222:1 223:1 229:1 231:1 235:1 238:1 243:1 244:1 248:1 251:1 259:1 266:1 277:1 292:1 295:1 313:1 314:1 318:1 321:1 334:1 339:1 341:1 350:1 352:1 355:1 377:1 387:1 388:1 390:1 394:1 404:1 416:1 426:1 428:1 434:1 435:1 442:1 457:1 471:1 473:1 486:1 488:1 521:1 566:1 575:1 618:1 625:1 628:1 647:1 651:1 653:1 657:1 688:1 703:1 724:1 728:1 758:1 767:1 802:1 828:1 843:1 858:1 892:1 901:1 926:1 955:1 984:1 994:1 1014:1 1025:1 1090:1 1105:1 1111:1 1133:1 1150:1 1154:1 1171:1 1173:1 1200:1 1259:1 1372:1 1413:1 1432:1 1439:1 1461:1 1502:1 1543:1 1565:1 1583:1 1614:1 1643:1 1650:1 1676:1 1691:1 1792:1 1806:1 1831:1 1946:1 1985:1 1993:1 1999:1 2015:1 2024:1 2064:1 2105:1 2183:1 2190:1 2195:1 2249:1 2290:1 2337:1 2348:1 2371:1 2454:1 2529:1 2585:1 2690:1 2715:1 2718:1 2760:1 2813:1 2815:1 2821:1 2915:1 3023:1 3077:1 3098:1 3115:1 3128:1 3196:1 3199:1 3265:1 3317:1 3367:1 3430:1 3453:1 3559:1 3572:1 3625:1 3660:1 3802:1 3853:1 3938:1 3940:1 3995:1 4062:1 4199:1 4202:1 4291:1 4365:1 4409:1 4504:1 4505:1 4629:1 4706:1 4822:1 4873:1 4948:1 5054:1 5078:1 5360:1 5505:1 5569:1 5703:1 5820:1 5836:1 6110:1 6268:1 6526:1 6783:1 6792:1 6805:1 6885:1 7075:1 7131:1 7214:1 7482:1 7531:1 7658:1 7680:1 7906:1 8264:1 8410:1 8475:1 8527:1 8832:1 9426:1 9727:1 9929:1 10031:1 10500:1 #
-0.0014074873275412070651457785430694 2:1 5:1 6:1 7:1 8:1 11:1 12:1 16:1 17:1 18:1 22:1 23:1 24:1 25:1 26:1 27:1 29:1 30:1 31:1 43:1 44:1 45:1 46:1 52:1 56:1 62:1 64:1 66:1 68:1 71:1 73:1 76:1 77:1 78:1 83:1 84:1 85:1 86:1 88:1 90:1 93:1 94:1 98:1 102:1 103:1 104:1 105:1 106:1 108:1 113:1 114:1 119:1 126:1 127:1 132:1 135:1 138:1 141:1 147:1 149:1 158:1 161:1 163:1 164:1 168:1 172:1 187:1 191:1 196:1 198:1 200:1 203:1 205:1 210:1 216:1 218:1 228:1 229:1 231:1 235:1 236:1 237:1 238:1 244:1 251:1 255:1 258:1 261:1 264:1 275:1 276:1 277:1 278:1 279:1 283:1 294:1 297:1 315:1 319:1 321:1 322:1 323:1 331:1 345:1 350:1 357:1 361:1 362:1 364:1 369:1 372:1 373:1 382:1 386:1 387:1 403:1 410:1 423:1 432:1 434:1 443:1 444:1 446:1 451:1 457:1 471:1 472:1 475:1 485:1 495:1 525:1 526:1 530:1 533:1 536:1 544:1 554:1 566:1 569:1 581:1 601:1 620:1 625:1 636:1 651:1 653:1 665:1 669:1 690:1 692:1 723:1 727:1 755:1 758:1 760:1 762:1 779:1 781:1 797:1 798:1 815:1 828:1 829:1 839:1 847:1 849:1 858:1 875:1 882:1 895:1 897:1 944:1 946:1 966:1 985:1 989:1 1008:1 1048:1 1050:1 1062:1 1067:1 1071:1 1074:1 1081:1 1105:1 1108:1 1118:1 1123:1 1131:1 1142:1 1155:1 1172:1 1173:1 1185:1 1190:1 1193:1 1226:1 1257:1 1274:1 1308:1 1310:1 1388:1 1393:1 1428:1 1432:1 1435:1 1452:1 1453:1 1465:1 1480:1 1481:1 1484:1 1535:1 1547:1 1549:1 1570:1 1624:1 1659:1 1662:1 1676:1 1742:1 1750:1 1751:1 1761:1 1785:1 1801:1 1850:1 1854:1 1855:1 1874:1 1909:1 1936:1 1960:1 2023:1 2051:1 2080:1 2091:1 2102:1 2107:1 2172:1 2190:1 2199:1 2282:1 2372:1 2396:1 2415:1 2420:1 2448:1 2580:1 2685:1 2705:1 2739:1 2759:1 2774:1 2807:1 2933:1 3014:1 3077:1 3078:1 3102:1 3114:1 3134:1 3152:1 3183:1 3221:1 3247:1 3286:1 3544:1 3555:1 3562:1 3584:1 3668:1 3718:1 3756:1 3801:1 3823:1 3864:1 3911:1 3951:1 3968:1 3974:1 4031:1 4083:1 4210:1 4291:1 4296:1 4422:1 4635:1 4661:1 4679:1 4714:1 4804:1 5080:1 5358:1 5405:1 5472:1 5505:1 5516:1 5536:1 5663:1 5852:1 6137:1 6141:1 6210:1 6340:1 6442:1 6531:1 6583:1 6718:1 6750:1 6782:1 6871:1 6978:1 7013:1 7178:1 7267:1 7433:1 7491:1 7768:1 7769:1 7786:1 7975:1 8139:1 8165:1 8181:1 8452:1 8645:1 9253:1 9374:1 9411:1 9421:1 9866:1 9896:1 9983:1 10062:1 10151:1 10158:1 10442:1 10486:1 #
-0.0015222294684456290185525784153242 1:1 2:1 4:1 5:1 6:1 7:1 9:1 10:1 11:1 16:1 17:1 18:1 19:1 21:1 23:1 24:1 25:1 26:1 28:1 29:1 30:1 31:1 32:1 34:1 36:1 39:1 44:1 45:1 46:1 54:1 61:1 62:1 63:1 65:1 67:1 69:1 71:1 73:1 80:1 81:1 82:1 84:1 85:1 86:1 94:1 98:1 102:1 104:1 106:1 107:1 110:1 114:1 133:1 135:1 142:1 144:1 147:1 154:1 156:1 157:1 158:1 162:1 164:1 165:1 167:1 168:1 170:1 171:1 172:1 177:1 179:1 181:1 186:1 187:1 190:1 208:1 213:1 227:1 230:1 231:1 232:1 234:1 235:1 236:1 242:1 244:1 255:1 258:1 266:1 270:1 281:1 297:1 300:1 305:1 315:1 320:1 322:1 323:1 324:1 352:1 354:1 361:1 370:1 372:1 374:1 385:1 396:1 404:1 415:1 416:1 429:1 430:1 434:1 464:1 480:1 482:1 516:1 522:1 544:1 558:1 566:1 569:1 575:1 585:1 599:1 601:1 615:1 616:1 618:1 621:1 628:1 629:1 632:1 636:1 651:1 653:1 656:1 658:1 666:1 667:1 669:1 676:1 688:1 700:1 702:1 709:1 743:1 758:1 759:1 764:1 780:1 795:1 796:1 802:1 804:1 806:1 812:1 814:1 834:1 835:1 839:1 843:1 849:1 875:1 899:1 908:1 913:1 922:1 962:1 976:1 983:1 997:1 1012:1 1015:1 1021:1 1033:1 1037:1 1117:1 1128:1 1131:1 1133:1 1147:1 1152:1 1200:1 1308:1 1378:1 1418:1 1432:1 1438:1 1483:1 1499:1 1536:1 1570:1 1574:1 1634:1 1660:1 1755:1 1805:1 1819:1 1901:1 1905:1 1992:1 2018:1 2039:1 2061:1 2073:1 2108:1 2117:1 2154:1 2190:1 2206:1 2244:1 2252:1 2257:1 2260:1 2263:1 2340:1 2439:1 2442:1 2448:1 2492:1 2617:1 2634:1 2638:1 2776:1 2778:1 2786:1 2801:1 2956:1 3097:1 3107:1 3235:1 3301:1 3320:1 3451:1 3500:1 3506:1 3563:1 3668:1 3719:1 3733:1 3963:1 3987:1 4005:1 4039:1 4062:1 4212:1 4340:1 4425:1 4501:1 4538:1 4576:1 4616:1 4653:1 4719:1 4730:1 4792:1 4825:1 4908:1 4921:1 4929:1 5013:1 5079:1 5433:1 5524:1 5653:1 5736:1 5882:1 5931:1 6006:1 6461:1 6583:1 6585:1 6957:1 7008:1 7019:1 7072:1 7151:1 7181:1 7344:1 7525:1 7550:1 7645:1 7795:1 7872:1 8093:1 8218:1 8438:1 8639:1 8721:1 8887:1 9438:1 9571:1 9900:1 10586:1 10655:1 #
-0.00094169190453911790373436874190816 1:1 5:1 8:1 11:1 13:1 15:1 17:1 18:1 20:1 21:1 22:1 23:1 24:1 25:1 27:1 29:1 30:1 32:1 34:1 36:1 41:1 43:1 48:1 51:1 52:1 54:1 62:1 65:1 66:1 68:1 73:1 75:1 79:1 82:1 84:1 89:1 90:1 94:1 99:1 102:1 103:1 104:1 106:1 107:1 114:1 115:1 120:1 124:1 125:1 130:1 131:1 137:1 146:1 148:1 150:1 156:1 159:1 170:1 174:1 179:1 187:1 188:1 195:1 199:1 202:1 204:1 205:1 213:1 222:1 230:1 231:1 233:1 235:1 236:1 238:1 244:1 245:1 246:1 264:1 266:1 270:1 276:1 277:1 295:1 312:1 315:1 322:1 337:1 341:1 345:1 350:1 357:1 379:1 387:1 390:1 400:1 406:1 410:1 411:1 432:1 434:1 442:1 449:1 450:1 472:1 475:1 490:1 495:1 496:1 500:1 510:1 558:1 566:1 598:1 601:1 607:1 608:1 613:1 632:1 636:1 651:1 653:1 674:1 695:1 709:1 717:1 746:1 747:1 762:1 771:1 793:1 800:1 805:1 813:1 815:1 817:1 828:1 843:1 849:1 866:1 867:1 872:1 874:1 918:1 932:1 945:1 951:1 969:1 999:1 1002:1 1012:1 1058:1 1075:1 1090:1 1118:1 1150:1 1160:1 1161:1 1170:1 1180:1 1230:1 1258:1 1265:1 1305:1 1396:1 1397:1 1418:1 1432:1 1458:1 1459:1 1462:1 1465:1 1466:1 1471:1 1476:1 1491:1 1502:1 1514:1 1528:1 1534:1 1570:1 1591:1 1649:1 1666:1 1720:1 1796:1 1843:1 1894:1 1915:1 1929:1 1961:1 1999:1 2039:1 2044:1 2091:1 2117:1 2194:1 2210:1 2257:1 2368:1 2370:1 2418:1 2442:1 2462:1 2527:1 2599:1 2621:1 2628:1 2674:1 2715:1 2718:1 2722:1 2765:1 2793:1 2912:1 3006:1 3029:1 3066:1 3068:1 3071:1 3089:1 3098:1 3120:1 3122:1 3129:1 3140:1 3254:1 3283:1 3361:1 3389:1 3646:1 3680:1 3756:1 3780:1 3782:1 3801:1 3844:1 3904:1 3946:1 3955:1 4125:1 4128:1 4138:1 4161:1 4210:1 4234:1 4238:1 4264:1 4302:1 4313:1 4441:1 4470:1 4472:1 4486:1 4495:1 4521:1 4580:1 4637:1 4735:1 4768:1 4770:1 4862:1 4868:1 4909:1 4925:1 4975:1 5070:1 5123:1 5576:1 5833:1 5845:1 5847:1 5955:1 6025:1 6068:1 6110:1 6268:1 6315:1 6356:1 6444:1 6584:1 6644:1 6673:1 6900:1 6928:1 6935:1 6941:1 6949:1 7047:1 7073:1 7076:1 7143:1 7318:1 7440:1 7566:1 7629:1 7786:1 7795:1 7842:1 7991:1 7995:1 8323:1 8335:1 8410:1 8438:1 8564:1 8722:1 8947:1 9335:1 9726:1 9752:1 9777:1 10016:1 10209:1 10267:1 10526:1 10737:1 #
-0.0023569816364540662791127179076511 1:1 2:1 3:1 7:1 8:1 11:1 12:1 15:1 16:1 17:1 18:1 19:1 20:1 22:1 23:1 24:1 25:1 26:1 27:1 28:1 29:1 30:1 31:1 34:1 40:1 41:1 45:1 51:1 52:1 60:1 62:1 67:1 69:1 71:1 72:1 75:1 76:1 77:1 78:1 81:1 83:1 86:1 90:1 93:1 94:1 98:1 101:1 102:1 103:1 104:1 107:1 108:1 114:1 116:1 123:1 126:1 129:1 130:1 131:1 133:1 135:1 146:1 148:1 149:1 153:1 158:1 168:1 169:1 171:1 175:1 185:1 187:1 189:1 193:1 198:1 202:1 206:1 214:1 224:1 227:1 237:1 244:1 247:1 251:1 252:1 257:1 260:1 264:1 270:1 277:1 278:1 281:1 286:1 294:1 304:1 323:1 325:1 332:1 333:1 353:1 378:1 380:1 381:1 387:1 404:1 408:1 425:1 431:1 450:1 452:1 453:1 477:1 478:1 491:1 495:1 507:1 521:1 529:1 553:1 566:1 575:1 581:1 617:1 630:1 643:1 649:1 651:1 674:1 693:1 709:1 725:1 727:1 757:1 766:1 789:1 828:1 843:1 856:1 857:1 869:1 889:1 894:1 946:1 988:1 1005:1 1008:1 1009:1 1067:1 1089:1 1093:1 1094:1 1131:1 1145:1 1147:1 1256:1 1284:1 1324:1 1374:1 1388:1 1424:1 1425:1 1434:1 1436:1 1441:1 1456:1 1462:1 1484:1 1485:1 1525:1 1562:1 1588:1 1618:1 1626:1 1810:1 1827:1 1856:1 1874:1 1947:1 1971:1 1986:1 2030:1 2039:1 2040:1 2051:1 2063:1 2113:1 2193:1 2253:1 2292:1 2308:1 2350:1 2363:1 2488:1 2547:1 2584:1 2615:1 2785:1 3141:1 3287:1 3308:1 3562:1 3606:1 3649:1 3663:1 3708:1 3761:1 3898:1 4086:1 4200:1 4212:1 4359:1 4498:1 4659:1 4692:1 4748:1 4967:1 5118:1 5168:1 5495:1 5627:1 5630:1 6192:1 6314:1 6433:1 6709:1 6817:1 7190:1 7290:1 7376:1 7558:1 7754:1 7865:1 7912:1 8038:1 8348:1 8563:1 8573:1 9080:1 9466:1 9612:1 9692:1 9739:1 9901:1 10212:1 10372:1 10495:1 10596:1 #
0.0024731268093371484850795383181321 1:1 2:1 5:1 7:1 11:1 15:1 16:1 17:1 18:1 19:1 20:1 21:1 24:1 27:1 29:1 30:1 31:1 37:1 39:1 44:1 48:1 56:1 58:1 62:1 66:1 68:1 82:1 84:1 88:1 89:1 98:1 102:1 103:1 104:1 106:1 113:1 116:1 140:1 166:1 168:1 175:1 185:1 202:1 204:1 214:1 217:1 227:1 236:1 251:1 259:1 270:1 283:1 301:1 308:1 315:1 322:1 323:1 326:1 331:1 332:1 334:1 357:1 364:1 382:1 433:1 435:1 457:1 460:1 472:1 503:1 521:1 553:1 554:1 564:1 575:1 606:1 628:1 630:1 641:1 674:1 778:1 815:1 898:1 905:1 944:1 1015:1 1061:1 1090:1 1092:1 1095:1 1137:1 1383:1 1444:1 1485:1 1552:1 1578:1 1607:1 1652:1 1672:1 1676:1 1681:1 1696:1 1831:1 1888:1 1949:1 1973:1 2035:1 2158:1 2300:1 2418:1 2609:1 2912:1 2981:1 3118:1 3763:1 3960:1 4330:1 4335:1 4337:1 4365:1 4829:1 4912:1 4929:1 5067:1 5202:1 5502:1 6568:1 6940:1 7822:1 8029:1 8079:1 8639:1 9319:1 9544:1 #
0.0018425166527200173473971522852821 1:1 6:1 7:1 8:1 14:1 16:1 17:1 18:1 19:1 20:1 21:1 22:1 25:1 30:1 34:1 37:1 48:1 49:1 50:1 56:1 62:1 68:1 73:1 81:1 89:1 103:1 104:1 106:1 113:1 117:1 123:1 151:1 166:1 168:1 174:1 175:1 202:1 214:1 218:1 232:1 251:1 266:1 275:1 308:1 323:1 375:1 382:1 419:1 435:1 458:1 466:1 474:1 515:1 521:1 557:1 575:1 633:1 651:1 666:1 723:1 728:1 777:1 815:1 858:1 923:1 944:1 974:1 1090:1 1092:1 1118:1 1198:1 1229:1 1475:1 1555:1 1681:1 1794:1 1827:1 1831:1 1850:1 1854:1 1993:1 2138:1 2162:1 2168:1 2412:1 2455:1 2521:1 2683:1 2692:1 2718:1 3199:1 3316:1 3581:1 3726:1 4211:1 4291:1 4510:1 4747:1 4781:1 5193:1 5433:1 5519:1 5541:1 6188:1 6236:1 6285:1 9067:1 10261:1 10267:1 #
0.0029200833632119903987556241986567 1:1 8:1 10:1 14:1 15:1 16:1 18:1 19:1 20:1 21:1 22:1 25:1 31:1 34:1 36:1 48:1 49:1 56:1 57:1 62:1 63:1 67:1 68:1 78:1 84:1 98:1 102:1 104:1 105:1 112:1 113:1 114:1 130:1 140:1 146:1 148:1 160:1 168:1 174:1 177:1 202:1 205:1 216:1 219:1 222:1 231:1 232:1 236:1 238:1 251:1 252:1 295:1 296:1 308:1 318:1 323:1 352:1 364:1 387:1 435:1 457:1 472:1 485:1 521:1 554:1 566:1 630:1 640:1 653:1 657:1 725:1 754:1 801:1 971:1 1061:1 1090:1 1138:1 1198:1 1447:1 1483:1 1484:1 1791:1 1831:1 1984:1 2034:1 2225:1 2257:1 2284:1 2389:1 2442:1 2468:1 2702:1 2714:1 2915:1 3097:1 3472:1 3834:1 3907:1 3932:1 4004:1 4228:1 4337:1 4358:1 4365:1 4642:1 5666:1 6259:1 6719:1 7084:1 7107:1 7502:1 7584:1 8410:1 8936:1 9685:1 9772:1 #
