SVM-light Version V6.02
0 # kernel type
3 # kernel parameter -d 
1 # kernel parameter -g 
1 # kernel parameter -s 
1 # kernel parameter -r 
empty# kernel parameter -u 
10746 # highest feature index 
10521 # number of training documents 
1066 # number of support vectors plus 1 
1.1416947 # threshold b, each following line is a SV (starting with alpha*y)
-0.003779248000698503130029282104374 1:1 8:1 11:1 15:1 16:1 18:1 20:1 21:1 22:1 24:1 25:1 27:1 29:1 30:1 31:1 32:1 35:1 36:1 39:1 41:1 49:1 51:1 52:1 54:1 59:1 62:1 64:1 74:1 75:1 88:1 89:1 92:1 97:1 98:1 100:1 109:1 116:1 117:1 135:1 155:1 158:1 160:1 170:1 172:1 175:1 186:1 192:1 232:1 242:1 259:1 262:1 265:1 322:1 364:1 373:1 387:1 392:1 394:1 416:1 417:1 430:1 434:1 436:1 461:1 476:1 564:1 598:1 609:1 618:1 700:1 781:1 842:1 849:1 860:1 905:1 909:1 915:1 940:1 943:1 951:1 964:1 1109:1 1216:1 1385:1 1444:1 1531:1 1543:1 1584:1 1596:1 1617:1 1671:1 1676:1 1685:1 1699:1 1860:1 2069:1 2151:1 2172:1 2187:1 2189:1 2193:1 2302:1 2339:1 2415:1 2585:1 2852:1 3031:1 3084:1 3089:1 3111:1 3128:1 3335:1 3450:1 3698:1 3892:1 4267:1 4659:1 4780:1 4838:1 4972:1 5073:1 5342:1 5517:1 5534:1 5554:1 5614:1 5859:1 6369:1 6412:1 6490:1 6939:1 7023:1 7594:1 7672:1 8153:1 9104:1 9306:1 9350:1 9358:1 9727:1 9795:1 9878:1 10226:1 10342:1 #
0.0024936673096624495209183702826294 1:1 9:1 11:1 12:1 13:1 15:1 16:1 17:1 20:1 22:1 25:1 27:1 30:1 34:1 36:1 37:1 52:1 56:1 60:1 62:1 65:1 73:1 75:1 82:1 102:1 103:1 106:1 124:1 157:1 163:1 170:1 199:1 213:1 236:1 244:1 277:1 283:1 289:1 382:1 406:1 408:1 430:1 435:1 438:1 486:1 553:1 554:1 557:1 725:1 749:1 750:1 789:1 806:1 847:1 970:1 1009:1 1061:1 1067:1 1155:1 1173:1 1239:1 1385:1 1416:1 1462:1 1556:1 1797:1 1845:1 1848:1 1861:1 1874:1 1969:1 2027:1 2701:1 2712:1 2826:1 3100:1 3128:1 3210:1 3422:1 3578:1 3678:1 4231:1 4676:1 4908:1 5035:1 5703:1 6008:1 6147:1 7032:1 7426:1 9513:1 9649:1 10270:1 10373:1 10411:1 10710:1 #
0.0045622021618379879001614618516669 5:1 8:1 9:1 10:1 11:1 12:1 14:1 16:1 17:1 18:1 19:1 22:1 24:1 25:1 27:1 28:1 29:1 30:1 31:1 32:1 33:1 34:1 36:1 37:1 41:1 51:1 52:1 53:1 54:1 56:1 62:1 68:1 69:1 72:1 73:1 74:1 75:1 78:1 79:1 80:1 81:1 82:1 86:1 89:1 90:1 98:1 103:1 104:1 107:1 108:1 114:1 118:1 126:1 130:1 131:1 137:1 162:1 163:1 164:1 170:1 172:1 177:1 187:1 198:1 205:1 219:1 226:1 227:1 232:1 236:1 238:1 242:1 244:1 245:1 266:1 278:1 286:1 307:1 308:1 325:1 337:1 377:1 392:1 396:1 404:1 408:1 410:1 438:1 442:1 451:1 452:1 453:1 456:1 472:1 481:1 490:1 515:1 554:1 601:1 603:1 612:1 636:1 637:1 642:1 649:1 689:1 700:1 714:1 749:1 755:1 767:1 777:1 802:1 811:1 815:1 847:1 854:1 930:1 951:1 1000:1 1008:1 1009:1 1046:1 1056:1 1058:1 1101:1 1113:1 1122:1 1133:1 1149:1 1150:1 1254:1 1280:1 1383:1 1393:1 1415:1 1426:1 1577:1 1578:1 1639:1 1660:1 1673:1 1789:1 1797:1 1827:1 2097:1 2136:1 2154:1 2186:1 2261:1 2447:1 2516:1 2627:1 2716:1 2940:1 2954:1 3100:1 3268:1 3288:1 3594:1 3709:1 3805:1 3809:1 3819:1 3941:1 4029:1 4126:1 4292:1 4299:1 4441:1 4676:1 4705:1 4846:1 4912:1 4935:1 5092:1 5350:1 5411:1 5440:1 5709:1 5742:1 6018:1 6153:1 6250:1 6255:1 6717:1 6778:1 6895:1 6918:1 6961:1 7021:1 7527:1 8586:1 8625:1 9196:1 9409:1 9726:1 9728:1 10234:1 10349:1 10396:1 10411:1 #
-5.9460846216238232161358651106653e-05 1:1 2:1 5:1 8:1 10:1 11:1 12:1 15:1 16:1 17:1 18:1 19:1 20:1 21:1 22:1 24:1 25:1 27:1 29:1 30:1 31:1 32:1 34:1 36:1 40:1 41:1 44:1 45:1 46:1 51:1 52:1 55:1 56:1 57:1 62:1 67:1 68:1 69:1 71:1 73:1 75:1 78:1 84:1 86:1 88:1 89:1 93:1 96:1 98:1 99:1 101:1 102:1 104:1 106:1 108:1 113:1 114:1 115:1 116:1 117:1 123:1 124:1 129:1 137:1 149:1 150:1 160:1 161:1 162:1 165:1 167:1 168:1 172:1 178:1 182:1 185:1 186:1 187:1 199:1 206:1 209:1 211:1 212:1 216:1 217:1 221:1 227:1 232:1 236:1 238:1 244:1 265:1 275:1 276:1 277:1 279:1 298:1 302:1 322:1 323:1 325:1 326:1 330:1 355:1 360:1 370:1 374:1 382:1 387:1 395:1 396:1 399:1 400:1 404:1 410:1 416:1 417:1 439:1 451:1 453:1 464:1 471:1 473:1 480:1 482:1 490:1 502:1 510:1 515:1 521:1 557:1 564:1 581:1 607:1 628:1 630:1 636:1 644:1 649:1 651:1 652:1 653:1 674:1 709:1 758:1 775:1 780:1 792:1 793:1 794:1 802:1 803:1 805:1 809:1 810:1 815:1 817:1 818:1 824:1 843:1 847:1 863:1 872:1 875:1 877:1 897:1 912:1 921:1 923:1 951:1 973:1 981:1 1002:1 1014:1 1025:1 1026:1 1088:1 1113:1 1132:1 1138:1 1150:1 1155:1 1161:1 1171:1 1173:1 1204:1 1364:1 1378:1 1463:1 1474:1 1491:1 1503:1 1539:1 1557:1 1567:1 1587:1 1643:1 1647:1 1660:1 1669:1 1717:1 1748:1 1790:1 1805:1 1888:1 1926:1 1954:1 1961:1 1977:1 2039:1 2069:1 2078:1 2163:1 2169:1 2322:1 2360:1 2370:1 2406:1 2548:1 2600:1 2623:1 2654:1 2681:1 2685:1 2718:1 2748:1 2785:1 2797:1 2936:1 3085:1 3086:1 3153:1 3335:1 3394:1 3396:1 3397:1 3449:1 3466:1 3524:1 3559:1 3572:1 3586:1 3597:1 3632:1 3801:1 3905:1 4092:1 4192:1 4204:1 4320:1 4411:1 4457:1 4568:1 4600:1 4950:1 4970:1 5232:1 5297:1 5453:1 5640:1 5653:1 5795:1 5803:1 5940:1 6202:1 6302:1 6430:1 6502:1 6535:1 6610:1 6893:1 6934:1 7091:1 7308:1 7525:1 7658:1 7840:1 7875:1 8234:1 8326:1 8483:1 8677:1 8791:1 8928:1 9074:1 9176:1 9329:1 9633:1 10158:1 10295:1 10520:1 #
0.0017318230127754009189944284230478 4:1 8:1 9:1 11:1 12:1 13:1 15:1 18:1 22:1 24:1 25:1 27:1 30:1 31:1 32:1 34:1 36:1 39:1 42:1 45:1 52:1 53:1 54:1 56:1 57:1 62:1 68:1 71:1 73:1 75:1 79:1 80:1 82:1 86:1 90:1 93:1 95:1 102:1 103:1 114:1 115:1 117:1 120:1 130:1 131:1 137:1 143:1 147:1 170:1 179:1 195:1 200:1 205:1 213:1 219:1 220:1 230:1 231:1 232:1 235:1 238:1 242:1 243:1 244:1 275:1 277:1 278:1 283:1 289:1 295:1 302:1 307:1 325:1 326:1 337:1 341:1 353:1 357:1 379:1 382:1 383:1 396:1 397:1 399:1 402:1 408:1 425:1 438:1 451:1 475:1 480:1 488:1 496:1 500:1 502:1 566:1 627:1 628:1 653:1 725:1 750:1 758:1 767:1 775:1 806:1 817:1 899:1 945:1 1005:1 1009:1 1170:1 1173:1 1275:1 1374:1 1388:1 1441:1 1462:1 1534:1 1556:1 1591:1 1649:1 1659:1 1672:1 1750:1 1808:1 1810:1 1819:1 1840:1 1853:1 1970:1 2027:1 2082:1 2109:1 2368:1 2372:1 2395:1 2606:1 2616:1 2716:1 2821:1 2826:1 2833:1 2909:1 3098:1 3100:1 3118:1 3140:1 3164:1 3205:1 3261:1 3289:1 3370:1 3463:1 3562:1 3819:1 3923:1 3936:1 4183:1 4232:1 4288:1 4292:1 4451:1 4676:1 4852:1 4947:1 5035:1 5144:1 5145:1 5399:1 5593:1 5598:1 6049:1 6315:1 6471:1 6553:1 6593:1 8362:1 9079:1 9080:1 9402:1 9867:1 #
-0.0012581444870245063298586085664965 1:1 4:1 5:1 7:1 10:1 11:1 15:1 16:1 17:1 18:1 19:1 20:1 24:1 30:1 31:1 33:1 36:1 38:1 44:1 45:1 48:1 49:1 52:1 55:1 56:1 58:1 59:1 61:1 62:1 63:1 66:1 67:1 69:1 71:1 72:1 81:1 82:1 84:1 86:1 90:1 98:1 102:1 103:1 119:1 122:1 135:1 137:1 146:1 149:1 157:1 160:1 163:1 168:1 170:1 172:1 173:1 179:1 187:1 195:1 201:1 205:1 209:1 216:1 224:1 232:1 238:1 249:1 251:1 259:1 260:1 262:1 279:1 291:1 293:1 305:1 308:1 313:1 322:1 328:1 337:1 345:1 352:1 372:1 375:1 378:1 379:1 386:1 407:1 433:1 452:1 457:1 470:1 471:1 564:1 626:1 628:1 653:1 667:1 669:1 693:1 701:1 725:1 758:1 842:1 845:1 849:1 891:1 897:1 900:1 929:1 958:1 962:1 1008:1 1066:1 1083:1 1164:1 1178:1 1180:1 1189:1 1228:1 1259:1 1283:1 1284:1 1375:1 1489:1 1508:1 1514:1 1568:1 1663:1 1731:1 1790:1 1832:1 1873:1 1900:1 1923:1 2029:1 2078:1 2116:1 2213:1 2267:1 2368:1 2370:1 2378:1 2408:1 2409:1 2415:1 2440:1 2462:1 2600:1 2634:1 2664:1 2673:1 2714:1 2716:1 2787:1 2797:1 2813:1 2954:1 2993:1 3112:1 3128:1 3221:1 3225:1 3289:1 3348:1 3471:1 3478:1 3641:1 3648:1 3676:1 3688:1 4040:1 4074:1 4107:1 4110:1 4291:1 4296:1 4312:1 4410:1 4661:1 4751:1 5002:1 5218:1 5478:1 5649:1 5910:1 5911:1 6001:1 6168:1 6201:1 6340:1 6650:1 6654:1 6732:1 6856:1 6904:1 6919:1 6920:1 7090:1 7330:1 7537:1 7616:1 7689:1 7837:1 8203:1 8260:1 8412:1 8477:1 8572:1 8602:1 8685:1 8748:1 9179:1 9262:1 9377:1 9402:1 9680:1 9741:1 9921:1 9990:1 #
-0.0016493634295215889133678910383196 1:1 5:1 7:1 8:1 11:1 17:1 18:1 19:1 20:1 21:1 22:1 23:1 24:1 25:1 29:1 30:1 36:1 44:1 45:1 46:1 51:1 52:1 54:1 59:1 67:1 69:1 75:1 77:1 82:1 89:1 90:1 95:1 101:1 102:1 103:1 104:1 106:1 113:1 114:1 115:1 117:1 119:1 120:1 125:1 130:1 134:1 137:1 143:1 147:1 149:1 156:1 161:1 164:1 167:1 170:1 179:1 190:1 205:1 213:1 218:1 221:1 227:1 232:1 236:1 241:1 242:1 243:1 244:1 250:1 264:1 266:1 275:1 276:1 277:1 278:1 293:1 318:1 320:1 328:1 329:1 341:1 381:1 382:1 387:1 404:1 414:1 416:1 436:1 451:1 452:1 464:1 480:1 490:1 575:1 608:1 642:1 644:1 651:1 671:1 685:1 688:1 702:1 725:1 728:1 746:1 762:1 763:1 780:1 791:1 798:1 802:1 809:1 817:1 831:1 835:1 843:1 868:1 874:1 898:1 899:1 928:1 947:1 955:1 972:1 980:1 993:1 994:1 996:1 997:1 1012:1 1030:1 1089:1 1101:1 1137:1 1147:1 1155:1 1181:1 1185:1 1200:1 1212:1 1258:1 1418:1 1419:1 1439:1 1444:1 1452:1 1455:1 1459:1 1476:1 1491:1 1513:1 1554:1 1567:1 1577:1 1609:1 1642:1 1646:1 1668:1 1750:1 1755:1 1827:1 1840:1 1845:1 1975:1 1998:1 2015:1 2062:1 2079:1 2150:1 2170:1 2184:1 2217:1 2257:1 2440:1 2455:1 2819:1 3004:1 3005:1 3098:1 3101:1 3128:1 3144:1 3153:1 3245:1 3261:1 3384:1 3389:1 3408:1 3431:1 3458:1 3474:1 3552:1 3695:1 3756:1 3882:1 4007:1 4183:1 4194:1 4330:1 4346:1 4431:1 4434:1 4713:1 4737:1 4870:1 4908:1 4936:1 5062:1 5107:1 5178:1 5236:1 5307:1 5571:1 5770:1 5934:1 6262:1 6326:1 6402:1 6579:1 6693:1 6779:1 6783:1 6838:1 7005:1 7212:1 7491:1 7812:1 7906:1 8163:1 8191:1 8303:1 8969:1 8971:1 9423:1 9432:1 9614:1 10286:1 10507:1 10599:1 10667:1 10669:1 #
-0.0045622021618379879001614618516669 1:1 7:1 10:1 11:1 12:1 15:1 16:1 17:1 18:1 20:1 22:1 24:1 25:1 27:1 29:1 30:1 31:1 34:1 36:1 41:1 44:1 51:1 52:1 56:1 59:1 62:1 66:1 67:1 73:1 79:1 84:1 86:1 94:1 95:1 98:1 102:1 103:1 106:1 113:1 114:1 116:1 117:1 125:1 137:1 138:1 146:1 156:1 161:1 163:1 170:1 172:1 174:1 177:1 187:1 199:1 209:1 213:1 216:1 218:1 221:1 232:1 238:1 244:1 245:1 246:1 268:1 270:1 277:1 278:1 283:1 293:1 302:1 312:1 323:1 329:1 341:1 357:1 369:1 374:1 377:1 382:1 385:1 387:1 404:1 415:1 416:1 425:1 432:1 452:1 460:1 465:1 482:1 490:1 553:1 564:1 566:1 601:1 630:1 642:1 687:1 695:1 702:1 717:1 725:1 727:1 750:1 755:1 775:1 800:1 813:1 843:1 875:1 882:1 889:1 999:1 1009:1 1021:1 1105:1 1123:1 1137:1 1150:1 1223:1 1232:1 1274:1 1283:1 1378:1 1385:1 1439:1 1444:1 1445:1 1459:1 1462:1 1534:1 1556:1 1568:1 1626:1 1698:1 1744:1 1750:1 1846:1 1894:1 1951:1 1997:1 2053:1 2084:1 2193:1 2249:1 2298:1 2372:1 2440:1 2599:1 2665:1 2684:1 2715:1 2729:1 2776:1 2789:1 2908:1 2928:1 2936:1 2956:1 3063:1 3172:1 3275:1 3310:1 3316:1 3400:1 3410:1 3668:1 3709:1 3801:1 3990:1 4205:1 4264:1 4280:1 4288:1 4305:1 4381:1 4458:1 4469:1 4470:1 4588:1 5409:1 5433:1 5439:1 5500:1 5571:1 5588:1 5692:1 5887:1 6006:1 6068:1 6167:1 6181:1 6195:1 6507:1 6930:1 7039:1 7062:1 7404:1 7941:1 8853:1 9178:1 9471:1 9622:1 9739:1 9877:1 10526:1 10620:1 10662:1 #
0.0045622021618379879001614618516669 1:1 2:1 5:1 6:1 7:1 9:1 11:1 12:1 15:1 17:1 18:1 20:1 22:1 23:1 24:1 25:1 26:1 29:1 30:1 31:1 32:1 34:1 35:1 36:1 51:1 52:1 54:1 57:1 60:1 61:1 62:1 65:1 67:1 69:1 73:1 75:1 80:1 81:1 82:1 86:1 94:1 98:1 102:1 103:1 113:1 114:1 116:1 129:1 131:1 137:1 143:1 146:1 149:1 163:1 170:1 172:1 174:1 180:1 187:1 195:1 200:1 202:1 204:1 219:1 220:1 221:1 222:1 223:1 225:1 232:1 233:1 235:1 236:1 238:1 242:1 244:1 249:1 257:1 263:1 267:1 270:1 277:1 278:1 279:1 289:1 291:1 295:1 325:1 337:1 348:1 352:1 355:1 357:1 387:1 400:1 404:1 405:1 408:1 416:1 419:1 432:1 434:1 438:1 453:1 456:1 463:1 475:1 485:1 490:1 495:1 500:1 515:1 553:1 554:1 581:1 606:1 608:1 614:1 628:1 640:1 653:1 698:1 700:1 702:1 719:1 747:1 749:1 755:1 758:1 767:1 816:1 847:1 857:1 869:1 872:1 897:1 912:1 962:1 978:1 1046:1 1071:1 1122:1 1138:1 1182:1 1211:1 1268:1 1275:1 1333:1 1428:1 1483:1 1484:1 1493:1 1514:1 1527:1 1534:1 1536:1 1565:1 1646:1 1649:1 1690:1 1750:1 1760:1 1785:1 1797:1 1837:1 1839:1 1845:1 1861:1 1890:1 1909:1 1939:1 1985:1 2021:1 2222:1 2309:1 2338:1 2375:1 2415:1 2440:1 2462:1 2692:1 2898:1 2954:1 3007:1 3099:1 3103:1 3274:1 3300:1 3352:1 3576:1 3578:1 3641:1 3795:1 3853:1 3926:1 3985:1 4007:1 4111:1 4145:1 4180:1 4228:1 4305:1 4602:1 4735:1 4772:1 5002:1 5449:1 5709:1 5869:1 5890:1 5960:1 6015:1 6089:1 6110:1 6112:1 6153:1 6235:1 6579:1 6693:1 6856:1 7284:1 7941:1 8157:1 8401:1 8501:1 8604:1 8948:1 9012:1 9037:1 9156:1 9310:1 9412:1 10015:1 10510:1 10592:1 #
0.0030146759507165671841677490050415 1:1 2:1 4:1 5:1 6:1 7:1 9:1 11:1 13:1 16:1 18:1 20:1 21:1 22:1 23:1 25:1 29:1 30:1 31:1 36:1 41:1 44:1 47:1 52:1 56:1 59:1 62:1 63:1 66:1 67:1 75:1 78:1 81:1 90:1 92:1 98:1 102:1 103:1 106:1 107:1 113:1 114:1 115:1 125:1 130:1 131:1 137:1 139:1 146:1 147:1 148:1 149:1 158:1 161:1 172:1 174:1 177:1 179:1 181:1 187:1 190:1 194:1 199:1 200:1 213:1 217:1 218:1 227:1 233:1 235:1 238:1 242:1 244:1 245:1 252:1 272:1 278:1 279:1 295:1 322:1 323:1 328:1 332:1 337:1 357:1 382:1 387:1 390:1 397:1 404:1 411:1 415:1 416:1 417:1 434:1 435:1 438:1 451:1 455:1 467:1 468:1 472:1 496:1 503:1 570:1 575:1 608:1 610:1 632:1 636:1 640:1 642:1 646:1 649:1 653:1 667:1 669:1 701:1 709:1 725:1 745:1 750:1 758:1 762:1 775:1 786:1 815:1 823:1 833:1 847:1 849:1 867:1 902:1 905:1 945:1 1054:1 1065:1 1067:1 1083:1 1089:1 1131:1 1132:1 1149:1 1161:1 1173:1 1228:1 1239:1 1274:1 1333:1 1372:1 1425:1 1462:1 1484:1 1491:1 1493:1 1502:1 1506:1 1513:1 1536:1 1552:1 1596:1 1620:1 1696:1 1819:1 1824:1 1882:1 1883:1 1897:1 1969:1 1975:1 2083:1 2355:1 2360:1 2415:1 2442:1 2488:1 2617:1 2679:1 2681:1 2715:1 2826:1 3184:1 3444:1 3585:1 3756:1 3814:1 4018:1 4125:1 4138:1 4146:1 4292:1 4616:1 4653:1 5092:1 5411:1 5493:1 5546:1 5739:1 5830:1 5963:1 6168:1 6352:1 6371:1 6402:1 6456:1 6525:1 6593:1 6621:1 6866:1 7961:1 8018:1 8080:1 8115:1 8160:1 8173:1 8211:1 8405:1 8534:1 8540:1 8885:1 9074:1 9160:1 9263:1 9465:1 9653:1 10089:1 10415:1 10540:1 #
-0.0045622021618379879001614618516669 1:1 4:1 6:1 8:1 9:1 11:1 12:1 13:1 14:1 15:1 16:1 17:1 18:1 19:1 20:1 22:1 24:1 25:1 26:1 28:1 29:1 30:1 31:1 32:1 34:1 36:1 38:1 42:1 44:1 51:1 52:1 53:1 55:1 56:1 57:1 59:1 60:1 62:1 66:1 67:1 68:1 69:1 72:1 73:1 74:1 75:1 78:1 79:1 81:1 82:1 84:1 89:1 95:1 98:1 101:1 102:1 104:1 108:1 112:1 113:1 115:1 127:1 128:1 130:1 138:1 140:1 143:1 147:1 162:1 163:1 170:1 172:1 174:1 179:1 181:1 187:1 194:1 197:1 198:1 199:1 200:1 212:1 213:1 214:1 215:1 216:1 219:1 220:1 224:1 228:1 232:1 236:1 238:1 239:1 242:1 244:1 252:1 260:1 263:1 266:1 273:1 275:1 277:1 278:1 284:1 289:1 290:1 291:1 295:1 301:1 303:1 307:1 309:1 314:1 315:1 325:1 335:1 337:1 346:1 347:1 349:1 352:1 372:1 388:1 396:1 402:1 408:1 410:1 434:1 438:1 440:1 452:1 453:1 455:1 458:1 463:1 466:1 469:1 472:1 475:1 490:1 496:1 500:1 515:1 520:1 526:1 541:1 554:1 566:1 583:1 603:1 608:1 629:1 631:1 641:1 642:1 650:1 668:1 676:1 687:1 749:1 758:1 775:1 815:1 816:1 847:1 869:1 871:1 905:1 912:1 946:1 952:1 955:1 957:1 978:1 984:1 989:1 1009:1 1046:1 1080:1 1104:1 1133:1 1148:1 1149:1 1150:1 1171:1 1280:1 1400:1 1416:1 1423:1 1425:1 1426:1 1439:1 1456:1 1462:1 1463:1 1484:1 1493:1 1501:1 1514:1 1527:1 1556:1 1597:1 1637:1 1639:1 1645:1 1646:1 1661:1 1704:1 1724:1 1750:1 1796:1 1797:1 1808:1 1825:1 1897:1 1906:1 1980:1 2024:1 2027:1 2032:1 2044:1 2057:1 2077:1 2082:1 2104:1 2107:1 2120:1 2123:1 2222:1 2232:1 2274:1 2394:1 2447:1 2455:1 2462:1 2664:1 2698:1 2706:1 2714:1 2718:1 2779:1 2797:1 2813:1 2959:1 2997:1 3089:1 3102:1 3104:1 3184:1 3238:1 3245:1 3254:1 3261:1 3304:1 3363:1 3369:1 3458:1 3459:1 3476:1 3557:1 3597:1 3607:1 3669:1 3692:1 3725:1 3730:1 3782:1 3783:1 3819:1 3923:1 3946:1 4074:1 4128:1 4200:1 4214:1 4224:1 4231:1 4271:1 4292:1 4313:1 4385:1 4396:1 4402:1 4466:1 4513:1 4520:1 4617:1 4772:1 4838:1 4891:1 5002:1 5009:1 5035:1 5078:1 5079:1 5092:1 5111:1 5144:1 5220:1 5221:1 5237:1 5317:1 5363:1 5411:1 5420:1 5439:1 5673:1 5759:1 5791:1 5869:1 5892:1 5960:1 6006:1 6214:1 6495:1 6507:1 6508:1 6599:1 6620:1 6830:1 6877:1 7230:1 7231:1 7312:1 7378:1 7482:1 7486:1 7631:1 7646:1 8207:1 8238:1 8363:1 8445:1 8446:1 8512:1 8575:1 8585:1 8660:1 9012:1 9047:1 9088:1 9249:1 9268:1 9273:1 9404:1 9525:1 9674:1 9791:1 9884:1 9927:1 10054:1 10095:1 10127:1 10170:1 10349:1 10411:1 10484:1 10536:1 10647:1 10742:1 #
-0.0045622021618379879001614618516669 1:1 4:1 7:1 12:1 13:1 15:1 17:1 18:1 20:1 21:1 23:1 25:1 27:1 29:1 30:1 31:1 32:1 34:1 56:1 67:1 69:1 73:1 84:1 95:1 101:1 102:1 103:1 104:1 130:1 131:1 137:1 147:1 149:1 158:1 159:1 163:1 172:1 202:1 213:1 214:1 236:1 270:1 273:1 283:1 299:1 331:1 337:1 346:1 382:1 403:1 416:1 452:1 472:1 490:1 510:1 526:1 601:1 649:1 758:1 793:1 799:1 828:1 928:1 943:1 972:1 988:1 1000:1 1061:1 1079:1 1212:1 1259:1 1268:1 1324:1 1374:1 1383:1 1427:1 1484:1 1534:1 1536:1 1567:1 1568:1 1583:1 1589:1 1591:1 1646:1 1715:1 1729:1 1733:1 1750:1 1789:1 1851:1 1863:1 1961:1 2034:1 2095:1 2097:1 2123:1 2238:1 2256:1 2300:1 2350:1 2470:1 2893:1 2908:1 2995:1 3104:1 3183:1 3352:1 3436:1 3482:1 3495:1 3804:1 4029:1 4032:1 4204:1 4224:1 4305:1 4459:1 4617:1 4676:1 4861:1 5035:1 5233:1 5356:1 5937:1 6136:1 6153:1 6194:1 6375:1 6402:1 6413:1 6845:1 7022:1 7254:1 7400:1 7770:1 7922:1 8775:1 8831:1 9404:1 9616:1 9787:1 9904:1 10147:1 #
-0.0045622021618379879001614618516669 1:1 3:1 4:1 6:1 8:1 9:1 10:1 11:1 12:1 13:1 14:1 16:1 17:1 18:1 22:1 24:1 25:1 29:1 30:1 31:1 34:1 36:1 37:1 41:1 45:1 50:1 51:1 52:1 56:1 57:1 60:1 62:1 66:1 67:1 68:1 69:1 74:1 75:1 79:1 82:1 84:1 86:1 89:1 90:1 91:1 94:1 95:1 98:1 101:1 102:1 103:1 104:1 109:1 114:1 116:1 117:1 120:1 129:1 131:1 137:1 138:1 140:1 146:1 147:1 148:1 159:1 163:1 170:1 185:1 186:1 187:1 195:1 197:1 199:1 213:1 220:1 222:1 223:1 227:1 232:1 234:1 242:1 244:1 245:1 252:1 256:1 260:1 266:1 268:1 277:1 278:1 279:1 283:1 286:1 289:1 293:1 296:1 302:1 303:1 323:1 337:1 353:1 385:1 388:1 402:1 408:1 410:1 425:1 431:1 436:1 438:1 440:1 445:1 451:1 452:1 457:1 459:1 467:1 471:1 472:1 481:1 482:1 488:1 495:1 496:1 500:1 510:1 552:1 564:1 601:1 608:1 630:1 640:1 641:1 660:1 670:1 709:1 712:1 725:1 750:1 752:1 758:1 767:1 777:1 780:1 789:1 806:1 807:1 817:1 821:1 827:1 861:1 875:1 899:1 911:1 945:1 947:1 999:1 1005:1 1006:1 1007:1 1008:1 1009:1 1020:1 1021:1 1042:1 1046:1 1056:1 1061:1 1080:1 1081:1 1083:1 1091:1 1092:1 1104:1 1131:1 1149:1 1176:1 1181:1 1200:1 1204:1 1228:1 1230:1 1231:1 1232:1 1280:1 1398:1 1417:1 1420:1 1432:1 1438:1 1441:1 1462:1 1500:1 1501:1 1506:1 1527:1 1534:1 1540:1 1556:1 1568:1 1587:1 1588:1 1591:1 1626:1 1649:1 1666:1 1698:1 1797:1 1825:1 1846:1 1848:1 1897:1 1912:1 1917:1 1926:1 1936:1 1951:1 1960:1 2027:1 2094:1 2109:1 2124:1 2222:1 2300:1 2372:1 2373:1 2417:1 2441:1 2455:1 2599:1 2651:1 2674:1 2771:1 2813:1 2982:1 3006:1 3063:1 3112:1 3129:1 3185:1 3205:1 3261:1 3282:1 3313:1 3335:1 3476:1 3668:1 3681:1 3692:1 3808:1 3965:1 3999:1 4055:1 4114:1 4121:1 4168:1 4231:1 4271:1 4280:1 4313:1 4330:1 4381:1 4385:1 4402:1 4457:1 4477:1 4523:1 4684:1 4772:1 4880:1 4889:1 4915:1 5045:1 5092:1 5145:1 5202:1 5267:1 5399:1 5606:1 5653:1 5683:1 5737:1 5790:1 5938:1 5960:1 6126:1 6167:1 6181:1 6216:1 6220:1 6321:1 6358:1 6556:1 6599:1 6612:1 6830:1 6989:1 6994:1 7072:1 7211:1 7540:1 7769:1 8219:1 8229:1 8347:1 8662:1 8974:1 9075:1 9249:1 9470:1 9471:1 9525:1 9700:1 9864:1 9865:1 9867:1 10244:1 10520:1 #
-0.0045622021618379879001614618516669 1:1 3:1 4:1 5:1 6:1 9:1 10:1 11:1 12:1 15:1 16:1 17:1 18:1 19:1 21:1 22:1 23:1 24:1 25:1 27:1 28:1 29:1 30:1 31:1 32:1 34:1 35:1 36:1 39:1 40:1 41:1 44:1 45:1 46:1 51:1 52:1 56:1 57:1 60:1 61:1 62:1 63:1 65:1 66:1 67:1 69:1 71:1 72:1 73:1 75:1 78:1 80:1 81:1 82:1 83:1 84:1 86:1 90:1 102:1 103:1 104:1 112:1 114:1 117:1 119:1 124:1 126:1 130:1 132:1 138:1 144:1 146:1 147:1 149:1 155:1 159:1 162:1 163:1 164:1 167:1 170:1 171:1 179:1 187:1 197:1 213:1 220:1 221:1 227:1 228:1 232:1 236:1 237:1 238:1 242:1 244:1 245:1 249:1 250:1 251:1 252:1 253:1 255:1 264:1 266:1 270:1 275:1 277:1 280:1 281:1 283:1 284:1 287:1 289:1 295:1 298:1 300:1 301:1 304:1 306:1 312:1 315:1 324:1 325:1 331:1 333:1 335:1 337:1 338:1 341:1 347:1 350:1 353:1 369:1 372:1 375:1 382:1 386:1 388:1 396:1 402:1 404:1 407:1 408:1 432:1 436:1 438:1 440:1 445:1 456:1 457:1 458:1 465:1 471:1 476:1 478:1 483:1 496:1 500:1 515:1 554:1 566:1 575:1 594:1 601:1 608:1 612:1 626:1 642:1 644:1 646:1 649:1 657:1 659:1 666:1 716:1 725:1 740:1 746:1 749:1 750:1 755:1 758:1 766:1 780:1 798:1 802:1 806:1 817:1 840:1 843:1 847:1 849:1 874:1 878:1 891:1 892:1 912:1 945:1 958:1 959:1 962:1 976:1 985:1 999:1 1012:1 1015:1 1021:1 1061:1 1090:1 1118:1 1157:1 1165:1 1173:1 1174:1 1228:1 1232:1 1274:1 1280:1 1310:1 1369:1 1385:1 1410:1 1421:1 1432:1 1456:1 1462:1 1473:1 1483:1 1485:1 1492:1 1493:1 1501:1 1508:1 1527:1 1534:1 1536:1 1539:1 1551:1 1552:1 1556:1 1557:1 1579:1 1620:1 1647:1 1681:1 1741:1 1742:1 1750:1 1817:1 1827:1 1915:1 1922:1 1946:1 1951:1 1959:1 2016:1 2038:1 2078:1 2082:1 2109:1 2131:1 2135:1 2150:1 2267:1 2418:1 2441:1 2454:1 2488:1 2505:1 2529:1 2541:1 2609:1 2664:1 2682:1 2699:1 2742:1 2912:1 2970:1 3038:1 3100:1 3115:1 3128:1 3150:1 3187:1 3261:1 3271:1 3292:1 3325:1 3370:1 3410:1 3438:1 3446:1 3449:1 3476:1 3646:1 3666:1 3669:1 3692:1 3695:1 3783:1 3801:1 3896:1 3904:1 4018:1 4023:1 4074:1 4168:1 4174:1 4252:1 4271:1 4292:1 4296:1 4305:1 4428:1 4457:1 4501:1 4503:1 4838:1 5062:1 5092:1 5093:1 5183:1 5222:1 5339:1 5759:1 5890:1 5928:1 5960:1 6068:1 6095:1 6324:1 6339:1 6507:1 6553:1 6568:1 6599:1 6609:1 6621:1 6702:1 6830:1 6839:1 7166:1 7179:1 7228:1 7255:1 7282:1 7288:1 7540:1 7652:1 7655:1 7680:1 7786:1 7838:1 7865:1 7941:1 8126:1 8379:1 8450:1 8467:1 8575:1 8808:1 8839:1 8966:1 9124:1 9157:1 9193:1 9249:1 9266:1 9288:1 9739:1 9819:1 9821:1 10127:1 10244:1 10327:1 10396:1 10470:1 10575:1 #
0.0045622021618379879001614618516669 2:1 7:1 21:1 32:1 72:1 88:1 101:1 135:1 141:1 150:1 179:1 191:1 216:1 217:1 276:1 320:1 322:1 967:1 1023:1 1182:1 1255:1 1555:1 1568:1 2086:1 3784:1 4266:1 4711:1 5925:1 5997:1 6062:1 6281:1 6536:1 6753:1 6886:1 6939:1 6988:1 8102:1 8106:1 9207:1 #
0.0045622021618379879001614618516669 24:1 62:1 67:1 71:1 94:1 125:1 126:1 150:1 177:1 275:1 296:1 360:1 390:1 649:1 802:1 849:1 895:1 1061:1 1652:1 1719:1 1986:1 2034:1 2692:1 3457:1 3629:1 4268:1 5963:1 6039:1 10739:1 #
0.0045622021618379879001614618516669 2:1 3:1 18:1 19:1 20:1 21:1 22:1 24:1 30:1 31:1 32:1 59:1 62:1 72:1 73:1 113:1 150:1 157:1 160:1 165:1 186:1 267:1 320:1 322:1 326:1 333:1 350:1 352:1 387:1 450:1 471:1 472:1 481:1 641:1 743:1 833:1 898:1 1014:1 1017:1 1040:1 1475:1 1568:1 1744:1 2508:1 2859:1 3432:1 3847:1 4320:1 4711:1 4826:1 5256:1 5378:1 5800:1 6133:1 8029:1 8418:1 8735:1 9870:1 #
0.0045622021618379879001614618516669 59:1 63:1 113:1 116:1 135:1 175:1 177:1 209:1 214:1 222:1 307:1 308:1 323:1 333:1 472:1 521:1 666:1 759:1 779:1 904:1 909:1 1048:1 1138:1 1630:1 1652:1 2296:1 2484:1 2623:1 3021:1 4023:1 4368:1 4894:1 4959:1 5137:1 6000:1 7752:1 9369:1 10094:1 10347:1 #
0.0045622021618379879001614618516669 275:1 296:1 895:1 1986:1 6039:1 #
0.0020370445466262069797447331609419 1:1 5:1 8:1 9:1 12:1 15:1 16:1 17:1 18:1 20:1 22:1 23:1 24:1 25:1 29:1 30:1 31:1 34:1 36:1 44:1 45:1 51:1 52:1 59:1 62:1 66:1 67:1 68:1 75:1 84:1 90:1 94:1 96:1 98:1 99:1 101:1 102:1 104:1 106:1 107:1 112:1 113:1 114:1 120:1 126:1 130:1 131:1 137:1 143:1 146:1 147:1 149:1 159:1 170:1 179:1 185:1 186:1 188:1 189:1 199:1 200:1 205:1 220:1 231:1 242:1 244:1 245:1 250:1 252:1 273:1 278:1 283:1 291:1 293:1 295:1 332:1 348:1 358:1 396:1 438:1 464:1 475:1 483:1 524:1 626:1 628:1 629:1 641:1 649:1 651:1 687:1 724:1 750:1 758:1 789:1 811:1 815:1 826:1 839:1 847:1 866:1 899:1 905:1 945:1 958:1 964:1 1026:1 1092:1 1118:1 1149:1 1165:1 1185:1 1218:1 1230:1 1260:1 1275:1 1287:1 1366:1 1385:1 1408:1 1439:1 1446:1 1473:1 1480:1 1500:1 1502:1 1514:1 1527:1 1556:1 1689:1 1691:1 1744:1 1750:1 1840:1 1853:1 1928:1 1961:1 1969:1 1975:1 2004:1 2023:1 2027:1 2117:1 2184:1 2194:1 2210:1 2360:1 2439:1 2462:1 2471:1 2503:1 2664:1 2718:1 2909:1 2956:1 3085:1 3086:1 3100:1 3192:1 3211:1 3283:1 3357:1 3389:1 3476:1 3607:1 3646:1 3654:1 3709:1 3907:1 3935:1 4015:1 4048:1 4121:1 4146:1 4183:1 4231:1 4313:1 4381:1 4397:1 4564:1 4624:1 4642:1 4754:1 4862:1 4891:1 4909:1 4935:1 5107:1 5123:1 5178:1 5515:1 6025:1 6087:1 6140:1 6502:1 6535:1 6634:1 6926:1 7084:1 7195:1 7212:1 7610:1 7721:1 7908:1 7957:1 7972:1 8115:1 8265:1 8577:1 8758:1 8799:1 8910:1 9108:1 9629:1 9772:1 9868:1 10000:1 10009:1 10700:1 #
0.0033738605431993871734686063490471 1:1 2:1 4:1 6:1 8:1 9:1 11:1 17:1 19:1 20:1 22:1 24:1 25:1 26:1 30:1 31:1 32:1 33:1 36:1 37:1 39:1 48:1 52:1 53:1 54:1 60:1 62:1 63:1 72:1 74:1 80:1 82:1 90:1 98:1 101:1 107:1 113:1 124:1 128:1 162:1 163:1 174:1 185:1 194:1 195:1 199:1 200:1 209:1 213:1 219:1 222:1 242:1 247:1 252:1 267:1 275:1 278:1 283:1 284:1 289:1 291:1 293:1 315:1 357:1 372:1 387:1 404:1 426:1 438:1 440:1 455:1 466:1 467:1 484:1 495:1 515:1 549:1 570:1 575:1 597:1 653:1 658:1 776:1 777:1 793:1 846:1 872:1 894:1 965:1 1026:1 1028:1 1061:1 1081:1 1135:1 1417:1 1425:1 1527:1 1556:1 1697:1 1758:1 1797:1 1913:1 2027:1 2029:1 2044:1 2399:1 2453:1 2599:1 2664:1 2831:1 2849:1 2934:1 3357:1 3614:1 3629:1 3669:1 3808:1 4014:1 4271:1 4336:1 4397:1 4472:1 4513:1 4634:1 4772:1 5092:1 5111:1 5914:1 6086:1 6209:1 6599:1 6764:1 6830:1 7231:1 7739:1 8229:1 9316:1 10094:1 10536:1 #
0.0031737102315125618849644961727563 4:1 5:1 12:1 15:1 16:1 18:1 20:1 21:1 22:1 24:1 27:1 29:1 30:1 31:1 34:1 36:1 37:1 41:1 44:1 45:1 51:1 52:1 56:1 59:1 63:1 66:1 67:1 68:1 79:1 82:1 84:1 85:1 98:1 102:1 103:1 111:1 117:1 127:1 135:1 138:1 147:1 148:1 149:1 168:1 170:1 175:1 177:1 179:1 187:1 194:1 195:1 207:1 211:1 213:1 227:1 229:1 231:1 241:1 244:1 252:1 264:1 266:1 279:1 308:1 322:1 328:1 331:1 332:1 341:1 352:1 388:1 416:1 432:1 434:1 435:1 438:1 450:1 451:1 475:1 486:1 488:1 490:1 510:1 516:1 552:1 575:1 608:1 651:1 653:1 656:1 664:1 666:1 667:1 749:1 777:1 887:1 953:1 1008:1 1015:1 1078:1 1093:1 1135:1 1142:1 1155:1 1173:1 1228:1 1310:1 1398:1 1506:1 1587:1 1827:1 1840:1 1845:1 1940:1 2020:1 2117:1 2150:1 2202:1 2228:1 2503:1 2643:1 2681:1 2684:1 2705:1 3085:1 3086:1 3100:1 3205:1 3445:1 3669:1 3801:1 3802:1 4325:1 4406:1 4498:1 4692:1 4885:1 5092:1 6004:1 6236:1 6888:1 7254:1 7418:1 8257:1 10054:1 #
-0.00035083501961511505840701774516788 10:1 11:1 15:1 16:1 18:1 24:1 29:1 30:1 34:1 36:1 48:1 69:1 71:1 72:1 88:1 93:1 95:1 97:1 131:1 136:1 153:1 159:1 168:1 169:1 170:1 172:1 174:1 175:1 185:1 193:1 196:1 213:1 214:1 234:1 252:1 265:1 308:1 325:1 333:1 359:1 392:1 395:1 453:1 463:1 491:1 502:1 529:1 560:1 575:1 649:1 659:1 680:1 746:1 789:1 824:1 832:1 905:1 909:1 1008:1 1188:1 1257:1 1280:1 1283:1 1374:1 1383:1 1407:1 1673:1 1789:1 1827:1 1986:1 1987:1 2095:1 2193:1 2446:1 2610:1 2805:1 2809:1 2859:1 3043:1 3143:1 3257:1 3287:1 3394:1 3447:1 3703:1 3960:1 4178:1 4617:1 4708:1 4963:1 4964:1 5230:1 5285:1 5545:1 5757:1 5871:1 6099:1 6296:1 6344:1 6526:1 6660:1 6851:1 7055:1 7436:1 7550:1 7651:1 8565:1 8856:1 9003:1 9197:1 9278:1 9923:1 10189:1 #
0.0039594684166472469272202161505447 4:1 11:1 12:1 15:1 20:1 22:1 24:1 30:1 31:1 32:1 35:1 36:1 41:1 62:1 69:1 72:1 75:1 81:1 102:1 150:1 159:1 163:1 179:1 189:1 219:1 227:1 232:1 235:1 244:1 270:1 289:1 308:1 337:1 404:1 407:1 410:1 436:1 438:1 496:1 502:1 515:1 642:1 651:1 780:1 946:1 1275:1 1400:1 1425:1 1489:1 1552:1 1556:1 1961:1 2082:1 2956:1 3552:1 3669:1 3692:1 3926:1 4237:1 4271:1 4292:1 5092:1 5220:1 5429:1 5527:1 5869:1 5924:1 5996:1 6272:1 6456:1 6888:1 6904:1 7602:1 7833:1 7999:1 8094:1 8313:1 8387:1 #
0.0038642217453726951381653975658992 1:1 3:1 4:1 6:1 8:1 9:1 10:1 11:1 12:1 13:1 14:1 16:1 17:1 18:1 22:1 24:1 25:1 29:1 30:1 31:1 34:1 36:1 37:1 41:1 45:1 50:1 51:1 52:1 56:1 57:1 60:1 62:1 66:1 67:1 68:1 69:1 74:1 75:1 79:1 82:1 84:1 86:1 89:1 90:1 91:1 94:1 95:1 98:1 101:1 102:1 103:1 104:1 109:1 114:1 116:1 117:1 120:1 129:1 131:1 137:1 138:1 140:1 146:1 147:1 148:1 159:1 163:1 170:1 185:1 186:1 187:1 195:1 197:1 199:1 213:1 220:1 222:1 223:1 227:1 232:1 234:1 242:1 244:1 245:1 252:1 256:1 260:1 266:1 268:1 277:1 278:1 279:1 283:1 286:1 289:1 293:1 296:1 302:1 303:1 323:1 337:1 353:1 385:1 388:1 402:1 408:1 410:1 425:1 431:1 436:1 438:1 440:1 445:1 451:1 452:1 457:1 459:1 467:1 471:1 472:1 481:1 482:1 488:1 495:1 496:1 500:1 510:1 552:1 564:1 601:1 608:1 630:1 640:1 641:1 660:1 670:1 709:1 712:1 725:1 750:1 752:1 758:1 767:1 777:1 780:1 789:1 806:1 807:1 817:1 821:1 827:1 861:1 875:1 899:1 911:1 945:1 947:1 999:1 1005:1 1006:1 1007:1 1008:1 1009:1 1020:1 1021:1 1042:1 1046:1 1056:1 1061:1 1080:1 1081:1 1083:1 1091:1 1092:1 1104:1 1131:1 1149:1 1176:1 1181:1 1200:1 1204:1 1228:1 1230:1 1231:1 1232:1 1280:1 1398:1 1417:1 1420:1 1432:1 1438:1 1441:1 1462:1 1500:1 1501:1 1506:1 1527:1 1534:1 1540:1 1556:1 1568:1 1587:1 1588:1 1591:1 1626:1 1649:1 1666:1 1698:1 1797:1 1825:1 1846:1 1848:1 1897:1 1912:1 1917:1 1926:1 1936:1 1951:1 1960:1 2027:1 2094:1 2109:1 2124:1 2222:1 2300:1 2372:1 2373:1 2417:1 2441:1 2455:1 2599:1 2651:1 2674:1 2771:1 2813:1 2982:1 3006:1 3063:1 3112:1 3129:1 3185:1 3205:1 3261:1 3282:1 3313:1 3335:1 3476:1 3668:1 3681:1 3692:1 3808:1 3965:1 3999:1 4055:1 4114:1 4121:1 4168:1 4231:1 4271:1 4280:1 4313:1 4330:1 4381:1 4385:1 4402:1 4457:1 4477:1 4523:1 4684:1 4772:1 4880:1 4889:1 4915:1 5045:1 5092:1 5145:1 5202:1 5267:1 5399:1 5606:1 5653:1 5683:1 5737:1 5790:1 5938:1 5960:1 6126:1 6167:1 6181:1 6216:1 6220:1 6321:1 6358:1 6556:1 6599:1 6612:1 6830:1 6989:1 6994:1 7072:1 7211:1 7540:1 7769:1 8219:1 8229:1 8347:1 8662:1 8974:1 9075:1 9249:1 9470:1 9471:1 9525:1 9700:1 9864:1 9865:1 9867:1 10244:1 10520:1 #
-0.0042525784134158691601745871935236 1:1 7:1 8:1 11:1 15:1 17:1 18:1 19:1 20:1 21:1 22:1 23:1 24:1 25:1 29:1 30:1 31:1 32:1 34:1 39:1 41:1 46:1 49:1 51:1 52:1 54:1 56:1 62:1 65:1 66:1 67:1 68:1 73:1 75:1 77:1 81:1 84:1 86:1 87:1 94:1 98:1 102:1 103:1 105:1 106:1 114:1 115:1 122:1 131:1 138:1 142:1 143:1 159:1 161:1 170:1 174:1 187:1 195:1 196:1 199:1 202:1 209:1 222:1 230:1 231:1 236:1 238:1 240:1 241:1 244:1 245:1 246:1 249:1 266:1 268:1 276:1 277:1 279:1 286:1 291:1 295:1 310:1 312:1 315:1 326:1 329:1 333:1 341:1 350:1 357:1 369:1 370:1 375:1 377:1 382:1 385:1 387:1 396:1 397:1 410:1 415:1 416:1 417:1 434:1 440:1 472:1 490:1 495:1 507:1 510:1 526:1 541:1 553:1 564:1 566:1 569:1 608:1 628:1 653:1 683:1 688:1 690:1 702:1 712:1 727:1 728:1 750:1 755:1 758:1 762:1 814:1 815:1 828:1 831:1 849:1 863:1 867:1 882:1 894:1 902:1 932:1 954:1 955:1 960:1 994:1 1008:1 1021:1 1046:1 1061:1 1089:1 1090:1 1105:1 1107:1 1138:1 1149:1 1170:1 1173:1 1181:1 1194:1 1223:1 1228:1 1232:1 1272:1 1279:1 1283:1 1284:1 1371:1 1408:1 1444:1 1476:1 1510:1 1532:1 1556:1 1593:1 1626:1 1660:1 1672:1 1678:1 1698:1 1720:1 1736:1 1964:1 2002:1 2018:1 2053:1 2064:1 2107:1 2134:1 2249:1 2262:1 2271:1 2329:1 2339:1 2373:1 2437:1 2440:1 2454:1 2588:1 2681:1 2702:1 2714:1 2716:1 2928:1 3028:1 3068:1 3078:1 3097:1 3114:1 3126:1 3172:1 3245:1 3400:1 3463:1 3485:1 3668:1 3723:1 3742:1 3788:1 3842:1 3872:1 3896:1 3955:1 4176:1 4210:1 4236:1 4265:1 4305:1 4367:1 4458:1 4470:1 4548:1 4697:1 4740:1 4743:1 4921:1 5433:1 5617:1 5887:1 6006:1 6033:1 6110:1 6167:1 6189:1 6339:1 6629:1 6745:1 6792:1 6808:1 6854:1 6885:1 6892:1 6926:1 7023:1 7039:1 7062:1 7197:1 7380:1 7390:1 7404:1 7440:1 7474:1 7487:1 7553:1 7691:1 7730:1 7904:1 7929:1 7994:1 8062:1 8097:1 8141:1 8161:1 8263:1 8264:1 8454:1 8464:1 8661:1 8763:1 8798:1 9061:1 9178:1 9426:1 9435:1 9602:1 9649:1 9657:1 9675:1 9954:1 10154:1 10353:1 10418:1 10479:1 10484:1 10522:1 10526:1 10547:1 10629:1 10731:1 #
-0.00050211907751622421487713854304502 1:1 4:1 5:1 7:1 8:1 9:1 10:1 11:1 12:1 13:1 15:1 16:1 17:1 18:1 19:1 20:1 22:1 23:1 24:1 25:1 28:1 29:1 30:1 31:1 32:1 36:1 38:1 40:1 42:1 45:1 46:1 51:1 52:1 54:1 56:1 58:1 61:1 62:1 65:1 66:1 67:1 71:1 73:1 75:1 77:1 82:1 83:1 84:1 86:1 89:1 94:1 97:1 98:1 102:1 104:1 111:1 112:1 117:1 119:1 120:1 126:1 133:1 134:1 135:1 141:1 144:1 146:1 153:1 154:1 159:1 164:1 167:1 177:1 178:1 182:1 186:1 187:1 195:1 196:1 198:1 199:1 211:1 213:1 214:1 216:1 218:1 223:1 226:1 228:1 236:1 237:1 238:1 239:1 243:1 244:1 245:1 255:1 264:1 265:1 273:1 277:1 278:1 288:1 302:1 316:1 322:1 324:1 329:1 330:1 341:1 353:1 354:1 357:1 364:1 365:1 376:1 381:1 383:1 391:1 408:1 422:1 426:1 432:1 434:1 481:1 495:1 496:1 515:1 522:1 526:1 606:1 620:1 631:1 636:1 642:1 644:1 647:1 648:1 663:1 665:1 671:1 674:1 692:1 725:1 750:1 757:1 758:1 779:1 792:1 798:1 800:1 802:1 809:1 810:1 814:1 817:1 818:1 820:1 831:1 842:1 843:1 853:1 855:1 873:1 874:1 878:1 887:1 897:1 899:1 905:1 921:1 928:1 935:1 939:1 943:1 945:1 972:1 994:1 997:1 1006:1 1010:1 1012:1 1047:1 1067:1 1070:1 1074:1 1077:1 1087:1 1105:1 1131:1 1138:1 1142:1 1147:1 1172:1 1258:1 1368:1 1370:1 1383:1 1392:1 1422:1 1457:1 1462:1 1465:1 1476:1 1492:1 1506:1 1528:1 1534:1 1570:1 1642:1 1688:1 1690:1 1731:1 1755:1 1790:1 1845:1 1846:1 1894:1 1895:1 1977:1 2010:1 2049:1 2057:1 2093:1 2163:1 2168:1 2219:1 2282:1 2298:1 2322:1 2330:1 2382:1 2455:1 2682:1 2734:1 2739:1 2794:1 2852:1 3052:1 3213:1 3242:1 3261:1 3359:1 3536:1 3808:1 3950:1 3964:1 4007:1 4063:1 4134:1 4194:1 4234:1 4252:1 4422:1 4428:1 4600:1 4644:1 4853:1 4901:1 4994:1 5030:1 5182:1 5464:1 5638:1 5691:1 5758:1 5844:1 5847:1 5931:1 6073:1 6265:1 6297:1 6655:1 7062:1 7201:1 7380:1 7449:1 7455:1 7521:1 7683:1 7735:1 7975:1 8304:1 8351:1 8379:1 8482:1 8516:1 8593:1 8746:1 8889:1 8932:1 8979:1 9074:1 9188:1 9192:1 9442:1 9978:1 10031:1 10151:1 10378:1 10521:1 #
0.0045622021618379879001614618516669 1:1 2:1 3:1 4:1 5:1 6:1 7:1 8:1 10:1 11:1 12:1 13:1 15:1 16:1 17:1 18:1 19:1 20:1 21:1 23:1 24:1 25:1 26:1 27:1 29:1 30:1 31:1 32:1 34:1 36:1 37:1 39:1 40:1 41:1 42:1 44:1 45:1 46:1 48:1 51:1 52:1 53:1 54:1 55:1 57:1 59:1 61:1 62:1 63:1 65:1 66:1 67:1 68:1 69:1 71:1 73:1 74:1 75:1 78:1 80:1 81:1 82:1 84:1 85:1 87:1 89:1 90:1 96:1 101:1 102:1 103:1 104:1 106:1 107:1 112:1 113:1 114:1 115:1 117:1 119:1 123:1 124:1 126:1 127:1 130:1 137:1 139:1 142:1 144:1 146:1 147:1 149:1 154:1 159:1 167:1 168:1 170:1 172:1 173:1 174:1 182:1 186:1 187:1 188:1 190:1 194:1 195:1 196:1 197:1 200:1 203:1 209:1 212:1 214:1 215:1 219:1 220:1 221:1 224:1 227:1 230:1 231:1 232:1 235:1 237:1 238:1 240:1 241:1 245:1 249:1 255:1 266:1 276:1 277:1 278:1 282:1 283:1 285:1 288:1 293:1 295:1 308:1 315:1 324:1 325:1 328:1 329:1 356:1 357:1 364:1 370:1 387:1 388:1 399:1 401:1 410:1 425:1 427:1 430:1 432:1 434:1 436:1 440:1 442:1 447:1 448:1 452:1 456:1 462:1 465:1 471:1 472:1 478:1 479:1 480:1 482:1 495:1 496:1 497:1 500:1 503:1 506:1 510:1 519:1 533:1 543:1 557:1 599:1 601:1 606:1 608:1 611:1 614:1 615:1 618:1 627:1 628:1 629:1 630:1 644:1 652:1 694:1 700:1 709:1 716:1 725:1 749:1 750:1 751:1 757:1 758:1 759:1 777:1 792:1 793:1 805:1 808:1 809:1 812:1 817:1 820:1 821:1 835:1 847:1 857:1 859:1 865:1 871:1 874:1 875:1 891:1 899:1 923:1 940:1 945:1 956:1 964:1 989:1 999:1 1001:1 1015:1 1024:1 1026:1 1030:1 1046:1 1047:1 1067:1 1071:1 1089:1 1092:1 1097:1 1105:1 1117:1 1120:1 1131:1 1137:1 1150:1 1151:1 1155:1 1160:1 1161:1 1162:1 1165:1 1185:1 1190:1 1258:1 1287:1 1374:1 1376:1 1378:1 1428:1 1429:1 1438:1 1439:1 1444:1 1445:1 1446:1 1457:1 1462:1 1480:1 1481:1 1506:1 1513:1 1527:1 1534:1 1549:1 1553:1 1556:1 1587:1 1599:1 1620:1 1697:1 1750:1 1809:1 1825:1 1840:1 1843:1 1874:1 1897:1 1907:1 1915:1 1947:1 1961:1 1969:1 2027:1 2042:1 2051:1 2078:1 2084:1 2109:1 2135:1 2172:1 2184:1 2194:1 2213:1 2237:1 2257:1 2274:1 2282:1 2318:1 2344:1 2368:1 2418:1 2436:1 2440:1 2488:1 2548:1 2584:1 2679:1 2682:1 2695:1 2718:1 2734:1 2753:1 2912:1 2957:1 2980:1 3085:1 3086:1 3098:1 3100:1 3222:1 3234:1 3271:1 3282:1 3352:1 3368:1 3394:1 3431:1 3467:1 3490:1 3620:1 3700:1 3727:1 3730:1 3782:1 3799:1 3839:1 3870:1 3877:1 3988:1 4015:1 4111:1 4179:1 4181:1 4212:1 4237:1 4288:1 4341:1 4351:1 4397:1 4483:1 4588:1 4615:1 4624:1 4628:1 4724:1 4808:1 4815:1 4838:1 4896:1 4952:1 5015:1 5070:1 5073:1 5104:1 5118:1 5270:1 5363:1 5399:1 5419:1 5500:1 5524:1 5653:1 5770:1 6008:1 6051:1 6109:1 6401:1 6502:1 6621:1 6625:1 6673:1 6798:1 6839:1 6849:1 6935:1 7091:1 7228:1 7238:1 7254:1 7264:1 7324:1 7433:1 7525:1 7691:1 7895:1 7932:1 8167:1 8173:1 8218:1 8236:1 8661:1 8684:1 8701:1 8706:1 8844:1 8961:1 9126:1 9242:1 9262:1 9284:1 9618:1 9868:1 10287:1 10416:1 10426:1 #
-0.0045622021618379879001614618516669 1:1 3:1 4:1 6:1 8:1 9:1 10:1 11:1 12:1 13:1 14:1 16:1 17:1 18:1 22:1 24:1 25:1 29:1 30:1 31:1 34:1 36:1 37:1 41:1 45:1 50:1 51:1 52:1 56:1 57:1 60:1 62:1 66:1 67:1 68:1 69:1 74:1 75:1 79:1 82:1 84:1 86:1 89:1 90:1 91:1 94:1 95:1 98:1 101:1 102:1 103:1 104:1 109:1 114:1 116:1 117:1 120:1 129:1 131:1 137:1 138:1 140:1 146:1 147:1 148:1 159:1 163:1 170:1 185:1 186:1 187:1 195:1 197:1 199:1 213:1 220:1 222:1 223:1 227:1 232:1 234:1 242:1 244:1 245:1 252:1 256:1 260:1 266:1 268:1 277:1 278:1 279:1 283:1 286:1 289:1 293:1 296:1 302:1 303:1 323:1 337:1 353:1 385:1 388:1 402:1 408:1 410:1 425:1 431:1 436:1 438:1 440:1 445:1 451:1 452:1 457:1 459:1 467:1 471:1 472:1 481:1 482:1 488:1 495:1 496:1 500:1 510:1 552:1 564:1 601:1 608:1 630:1 640:1 641:1 660:1 670:1 709:1 712:1 725:1 750:1 752:1 758:1 767:1 777:1 780:1 789:1 806:1 807:1 817:1 821:1 827:1 861:1 875:1 899:1 911:1 945:1 947:1 999:1 1005:1 1006:1 1007:1 1008:1 1009:1 1020:1 1021:1 1042:1 1046:1 1056:1 1061:1 1080:1 1081:1 1083:1 1091:1 1092:1 1104:1 1131:1 1149:1 1176:1 1181:1 1200:1 1204:1 1228:1 1230:1 1231:1 1232:1 1280:1 1398:1 1417:1 1420:1 1432:1 1438:1 1441:1 1462:1 1500:1 1501:1 1506:1 1527:1 1534:1 1540:1 1556:1 1568:1 1587:1 1588:1 1591:1 1626:1 1649:1 1666:1 1698:1 1797:1 1825:1 1846:1 1848:1 1897:1 1912:1 1917:1 1926:1 1936:1 1951:1 1960:1 2027:1 2094:1 2109:1 2124:1 2222:1 2300:1 2372:1 2373:1 2417:1 2441:1 2455:1 2599:1 2651:1 2674:1 2771:1 2813:1 2982:1 3006:1 3063:1 3112:1 3129:1 3185:1 3205:1 3261:1 3282:1 3313:1 3335:1 3476:1 3668:1 3681:1 3692:1 3808:1 3965:1 3999:1 4055:1 4114:1 4121:1 4168:1 4231:1 4271:1 4280:1 4313:1 4330:1 4381:1 4385:1 4402:1 4457:1 4477:1 4523:1 4684:1 4772:1 4880:1 4889:1 4915:1 5045:1 5092:1 5145:1 5202:1 5267:1 5399:1 5606:1 5653:1 5683:1 5737:1 5790:1 5938:1 5960:1 6126:1 6167:1 6181:1 6216:1 6220:1 6321:1 6358:1 6556:1 6599:1 6612:1 6830:1 6989:1 6994:1 7072:1 7211:1 7540:1 7769:1 8219:1 8229:1 8347:1 8662:1 8974:1 9075:1 9249:1 9470:1 9471:1 9525:1 9700:1 9864:1 9865:1 9867:1 10244:1 10520:1 #
-0.0045622021618379879001614618516669 1:1 2:1 4:1 5:1 9:1 11:1 12:1 13:1 14:1 15:1 16:1 17:1 18:1 19:1 20:1 22:1 24:1 25:1 27:1 30:1 31:1 32:1 36:1 39:1 41:1 44:1 50:1 51:1 52:1 54:1 59:1 60:1 65:1 67:1 68:1 69:1 73:1 79:1 81:1 82:1 89:1 90:1 91:1 92:1 93:1 96:1 98:1 99:1 101:1 102:1 104:1 106:1 111:1 112:1 113:1 114:1 117:1 118:1 120:1 127:1 130:1 131:1 132:1 135:1 136:1 137:1 143:1 149:1 155:1 159:1 160:1 161:1 162:1 163:1 165:1 170:1 179:1 187:1 199:1 209:1 213:1 216:1 218:1 220:1 222:1 224:1 232:1 244:1 250:1 270:1 276:1 277:1 280:1 283:1 289:1 291:1 295:1 307:1 314:1 333:1 337:1 357:1 358:1 363:1 365:1 369:1 371:1 381:1 387:1 391:1 396:1 397:1 408:1 410:1 438:1 440:1 455:1 461:1 469:1 471:1 472:1 480:1 510:1 515:1 553:1 554:1 566:1 601:1 629:1 640:1 642:1 646:1 653:1 697:1 716:1 750:1 758:1 773:1 779:1 801:1 816:1 829:1 847:1 849:1 869:1 872:1 878:1 905:1 911:1 944:1 945:1 958:1 978:1 989:1 991:1 1002:1 1005:1 1009:1 1042:1 1057:1 1067:1 1101:1 1133:1 1148:1 1149:1 1155:1 1164:1 1165:1 1172:1 1283:1 1333:1 1385:1 1416:1 1439:1 1441:1 1462:1 1473:1 1484:1 1493:1 1495:1 1527:1 1750:1 1797:1 1836:1 1845:1 1897:1 2023:1 2027:1 2069:1 2107:1 2120:1 2123:1 2178:1 2375:1 2415:1 2440:1 2442:1 2461:1 2505:1 2563:1 2573:1 2664:1 2682:1 2698:1 2715:1 2725:1 2739:1 2745:1 2826:1 2909:1 2938:1 3104:1 3119:1 3128:1 3187:1 3197:1 3221:1 3225:1 3245:1 3254:1 3369:1 3422:1 3629:1 3649:1 3690:1 3692:1 3774:1 3782:1 3783:1 3988:1 4014:1 4092:1 4121:1 4135:1 4146:1 4183:1 4271:1 4288:1 4292:1 4381:1 4441:1 4568:1 4637:1 4676:1 4772:1 4841:1 5002:1 5060:1 5092:1 5110:1 5115:1 5221:1 5232:1 5464:1 5493:1 5571:1 5720:1 5759:1 5856:1 5890:1 5892:1 6001:1 6083:1 6147:1 6185:1 6507:1 6535:1 6579:1 6599:1 6658:1 6720:1 6830:1 6968:1 7206:1 7302:1 7375:1 7433:1 7691:1 7714:1 7784:1 8229:1 8312:1 8325:1 8429:1 8718:1 8931:1 9156:1 9365:1 10015:1 10041:1 10349:1 10621:1 #
-0.0043859748511260385206433909388579 1:1 2:1 4:1 7:1 8:1 9:1 11:1 12:1 13:1 14:1 15:1 16:1 17:1 18:1 20:1 22:1 23:1 24:1 25:1 26:1 28:1 29:1 30:1 31:1 35:1 36:1 38:1 40:1 41:1 42:1 44:1 45:1 46:1 51:1 52:1 53:1 54:1 55:1 56:1 57:1 62:1 63:1 65:1 66:1 67:1 69:1 71:1 72:1 73:1 75:1 76:1 78:1 79:1 80:1 83:1 84:1 86:1 89:1 90:1 91:1 93:1 94:1 98:1 101:1 102:1 103:1 104:1 106:1 107:1 111:1 112:1 113:1 114:1 115:1 116:1 117:1 118:1 119:1 120:1 122:1 123:1 126:1 127:1 128:1 130:1 131:1 134:1 136:1 137:1 138:1 139:1 144:1 147:1 149:1 152:1 154:1 157:1 159:1 165:1 170:1 171:1 172:1 180:1 181:1 186:1 187:1 188:1 190:1 196:1 197:1 198:1 199:1 200:1 205:1 208:1 213:1 214:1 215:1 220:1 221:1 226:1 231:1 232:1 234:1 235:1 238:1 239:1 240:1 241:1 242:1 243:1 245:1 249:1 253:1 262:1 263:1 264:1 265:1 267:1 270:1 272:1 273:1 277:1 278:1 279:1 289:1 295:1 300:1 304:1 305:1 316:1 328:1 331:1 345:1 346:1 356:1 383:1 387:1 391:1 392:1 399:1 400:1 402:1 403:1 408:1 410:1 414:1 425:1 430:1 431:1 434:1 436:1 440:1 442:1 446:1 448:1 451:1 452:1 459:1 462:1 464:1 465:1 469:1 478:1 480:1 481:1 496:1 500:1 510:1 526:1 539:1 551:1 562:1 575:1 581:1 600:1 601:1 605:1 606:1 608:1 612:1 613:1 628:1 630:1 636:1 640:1 643:1 646:1 648:1 651:1 653:1 656:1 659:1 674:1 676:1 690:1 703:1 714:1 716:1 719:1 725:1 727:1 746:1 748:1 750:1 755:1 757:1 762:1 767:1 772:1 793:1 798:1 805:1 807:1 811:1 815:1 817:1 818:1 854:1 857:1 862:1 869:1 874:1 875:1 891:1 897:1 899:1 936:1 945:1 949:1 987:1 996:1 997:1 1013:1 1032:1 1074:1 1096:1 1118:1 1135:1 1138:1 1142:1 1173:1 1180:1 1185:1 1200:1 1204:1 1228:1 1242:1 1280:1 1287:1 1370:1 1376:1 1428:1 1446:1 1456:1 1462:1 1465:1 1473:1 1476:1 1484:1 1487:1 1498:1 1500:1 1514:1 1525:1 1534:1 1536:1 1556:1 1605:1 1616:1 1620:1 1645:1 1652:1 1660:1 1697:1 1705:1 1735:1 1745:1 1750:1 1755:1 1797:1 1802:1 1807:1 1808:1 1819:1 1824:1 1840:1 1853:1 1863:1 1904:1 1915:1 1949:1 1956:1 1981:1 2007:1 2014:1 2027:1 2029:1 2038:1 2039:1 2064:1 2151:1 2158:1 2163:1 2184:1 2192:1 2194:1 2210:1 2228:1 2311:1 2322:1 2338:1 2344:1 2427:1 2454:1 2457:1 2462:1 2492:1 2503:1 2573:1 2588:1 2616:1 2628:1 2691:1 2715:1 2747:1 2753:1 2819:1 2918:1 3042:1 3086:1 3098:1 3100:1 3120:1 3122:1 3126:1 3183:1 3204:1 3211:1 3271:1 3283:1 3289:1 3329:1 3363:1 3389:1 3400:1 3439:1 3461:1 3646:1 3649:1 3654:1 3683:1 3782:1 3814:1 4015:1 4063:1 4091:1 4104:1 4181:1 4194:1 4205:1 4224:1 4225:1 4269:1 4272:1 4313:1 4332:1 4361:1 4385:1 4407:1 4441:1 4481:1 4503:1 4530:1 4564:1 4569:1 4597:1 4779:1 4781:1 4950:1 4963:1 4976:1 5011:1 5026:1 5027:1 5033:1 5086:1 5147:1 5365:1 5446:1 5453:1 5462:1 5484:1 5500:1 5515:1 5564:1 5754:1 5845:1 5859:1 5900:1 5963:1 6009:1 6150:1 6188:1 6192:1 6298:1 6478:1 6510:1 6663:1 6731:1 6880:1 7033:1 7044:1 7090:1 7324:1 7971:1 8122:1 8151:1 8158:1 8205:1 8277:1 8288:1 8319:1 8844:1 8958:1 8980:1 9160:1 9222:1 9501:1 9571:1 9605:1 9618:1 9657:1 9697:1 9851:1 10262:1 10598:1 #
-0.0045622021618379879001614618516669 1:1 2:1 5:1 9:1 11:1 13:1 15:1 16:1 17:1 18:1 20:1 22:1 24:1 25:1 29:1 30:1 31:1 32:1 34:1 36:1 37:1 40:1 45:1 50:1 52:1 54:1 56:1 59:1 60:1 62:1 66:1 67:1 69:1 72:1 75:1 77:1 78:1 79:1 80:1 81:1 84:1 94:1 95:1 99:1 102:1 103:1 104:1 112:1 113:1 114:1 115:1 116:1 124:1 125:1 127:1 128:1 129:1 131:1 132:1 133:1 142:1 143:1 146:1 153:1 155:1 161:1 162:1 163:1 170:1 179:1 187:1 197:1 199:1 200:1 216:1 219:1 220:1 221:1 224:1 231:1 236:1 239:1 242:1 244:1 260:1 265:1 273:1 277:1 278:1 279:1 280:1 283:1 286:1 289:1 293:1 315:1 325:1 333:1 345:1 357:1 363:1 387:1 388:1 396:1 407:1 408:1 420:1 434:1 438:1 445:1 446:1 469:1 471:1 481:1 482:1 493:1 495:1 541:1 554:1 600:1 608:1 671:1 725:1 728:1 750:1 789:1 801:1 811:1 813:1 857:1 875:1 878:1 905:1 911:1 936:1 945:1 957:1 964:1 1006:1 1046:1 1047:1 1067:1 1080:1 1104:1 1119:1 1148:1 1173:1 1250:1 1333:1 1378:1 1384:1 1385:1 1416:1 1439:1 1451:1 1456:1 1462:1 1493:1 1495:1 1501:1 1506:1 1514:1 1534:1 1556:1 1587:1 1625:1 1645:1 1704:1 1724:1 1733:1 1750:1 1797:1 1810:1 1842:1 1851:1 1897:1 1915:1 1925:1 2027:1 2057:1 2097:1 2193:1 2224:1 2225:1 2237:1 2300:1 2417:1 2462:1 2682:1 2729:1 2763:1 2801:1 2833:1 2908:1 2938:1 2958:1 2983:1 3040:1 3043:1 3127:1 3153:1 3185:1 3272:1 3337:1 3350:1 3370:1 3375:1 3476:1 3669:1 3678:1 3742:1 3814:1 3819:1 4081:1 4173:1 4214:1 4231:1 4271:1 4288:1 4396:1 4676:1 4772:1 4891:1 5002:1 5035:1 5093:1 5110:1 5403:1 5431:1 5677:1 5730:1 5797:1 5865:1 5890:1 5900:1 5960:1 6049:1 6127:1 6147:1 6448:1 6471:1 6489:1 6502:1 6935:1 7044:1 7611:1 7833:1 7862:1 7945:1 8974:1 9088:1 9126:1 10134:1 10378:1 #
-0.0045622021618379879001614618516669 2:1 4:1 5:1 9:1 11:1 12:1 13:1 15:1 16:1 17:1 18:1 20:1 21:1 22:1 23:1 24:1 25:1 28:1 29:1 30:1 31:1 32:1 34:1 36:1 38:1 40:1 46:1 48:1 51:1 52:1 54:1 56:1 57:1 60:1 62:1 69:1 71:1 73:1 74:1 75:1 78:1 80:1 81:1 82:1 83:1 84:1 85:1 86:1 90:1 91:1 94:1 96:1 99:1 101:1 102:1 104:1 106:1 111:1 113:1 114:1 115:1 118:1 119:1 120:1 125:1 126:1 127:1 131:1 133:1 134:1 135:1 147:1 155:1 159:1 161:1 162:1 167:1 170:1 176:1 179:1 182:1 187:1 198:1 200:1 208:1 213:1 216:1 218:1 220:1 224:1 227:1 228:1 229:1 231:1 232:1 237:1 238:1 239:1 241:1 244:1 253:1 260:1 264:1 266:1 277:1 283:1 288:1 289:1 293:1 295:1 304:1 314:1 322:1 326:1 329:1 333:1 341:1 346:1 364:1 378:1 390:1 396:1 397:1 402:1 404:1 408:1 411:1 416:1 425:1 434:1 438:1 440:1 442:1 445:1 446:1 451:1 470:1 473:1 481:1 490:1 495:1 500:1 562:1 564:1 566:1 575:1 607:1 608:1 626:1 630:1 642:1 659:1 660:1 676:1 719:1 724:1 725:1 750:1 755:1 757:1 758:1 759:1 761:1 762:1 768:1 798:1 802:1 806:1 816:1 831:1 835:1 843:1 850:1 872:1 874:1 878:1 942:1 945:1 952:1 964:1 989:1 991:1 994:1 1006:1 1042:1 1050:1 1060:1 1085:1 1104:1 1105:1 1111:1 1118:1 1173:1 1200:1 1230:1 1257:1 1268:1 1384:1 1403:1 1425:1 1456:1 1501:1 1514:1 1536:1 1549:1 1556:1 1565:1 1570:1 1593:1 1602:1 1616:1 1646:1 1672:1 1689:1 1691:1 1714:1 1750:1 1788:1 1853:1 1879:1 1923:1 1932:1 1987:1 2014:1 2057:1 2065:1 2082:1 2120:1 2183:1 2219:1 2232:1 2277:1 2304:1 2368:1 2417:1 2420:1 2427:1 2439:1 2462:1 2546:1 2583:1 2617:1 2649:1 2664:1 2682:1 2698:1 2718:1 2753:1 2801:1 2951:1 2954:1 2959:1 2987:1 3029:1 3068:1 3086:1 3122:1 3205:1 3234:1 3243:1 3272:1 3283:1 3329:1 3394:1 3461:1 3463:1 3476:1 3490:1 3629:1 3669:1 3681:1 3682:1 3692:1 3750:1 3766:1 4043:1 4102:1 4138:1 4196:1 4200:1 4271:1 4302:1 4341:1 4367:1 4385:1 4590:1 4605:1 4642:1 4682:1 4772:1 4908:1 5009:1 5092:1 5220:1 5339:1 5428:1 5598:1 5646:1 5833:1 5872:1 5900:1 5921:1 6025:1 6029:1 6049:1 6127:1 6189:1 6298:1 6324:1 6393:1 6502:1 6553:1 6599:1 6830:1 7084:1 7206:1 7391:1 7496:1 7833:1 8164:1 8207:1 8229:1 8266:1 8304:1 8516:1 8632:1 8660:1 8958:1 9001:1 9044:1 9088:1 9268:1 9571:1 9674:1 9884:1 9921:1 9955:1 10343:1 10440:1 10617:1 10700:1 #
-0.0045622021618379879001614618516669 1:1 2:1 4:1 5:1 7:1 8:1 10:1 11:1 12:1 13:1 15:1 16:1 17:1 18:1 19:1 20:1 21:1 22:1 23:1 24:1 25:1 27:1 28:1 29:1 30:1 31:1 32:1 34:1 36:1 38:1 44:1 45:1 46:1 51:1 52:1 55:1 57:1 59:1 61:1 62:1 65:1 66:1 67:1 68:1 69:1 73:1 76:1 77:1 78:1 79:1 81:1 82:1 84:1 86:1 90:1 91:1 94:1 95:1 98:1 99:1 101:1 102:1 103:1 104:1 107:1 111:1 113:1 114:1 119:1 122:1 124:1 126:1 127:1 130:1 131:1 134:1 135:1 136:1 137:1 146:1 148:1 158:1 159:1 163:1 167:1 170:1 172:1 174:1 181:1 182:1 185:1 189:1 195:1 197:1 199:1 200:1 202:1 207:1 208:1 209:1 213:1 215:1 218:1 221:1 223:1 227:1 231:1 236:1 237:1 239:1 241:1 244:1 245:1 246:1 252:1 253:1 260:1 264:1 270:1 272:1 277:1 279:1 283:1 289:1 291:1 292:1 295:1 300:1 301:1 304:1 307:1 317:1 319:1 322:1 332:1 333:1 335:1 338:1 341:1 342:1 343:1 346:1 370:1 382:1 384:1 385:1 387:1 396:1 402:1 403:1 408:1 410:1 425:1 431:1 434:1 436:1 440:1 441:1 446:1 448:1 450:1 465:1 470:1 471:1 481:1 488:1 495:1 496:1 502:1 526:1 529:1 533:1 566:1 575:1 581:1 601:1 606:1 608:1 618:1 625:1 626:1 631:1 644:1 653:1 668:1 690:1 702:1 709:1 716:1 725:1 727:1 746:1 750:1 752:1 755:1 758:1 762:1 764:1 788:1 789:1 795:1 800:1 807:1 808:1 813:1 817:1 825:1 837:1 845:1 873:1 878:1 894:1 914:1 941:1 944:1 945:1 946:1 972:1 987:1 990:1 994:1 1009:1 1088:1 1090:1 1099:1 1105:1 1107:1 1111:1 1119:1 1123:1 1131:1 1135:1 1149:1 1150:1 1170:1 1194:1 1200:1 1213:1 1228:1 1231:1 1275:1 1369:1 1384:1 1397:1 1410:1 1414:1 1435:1 1439:1 1444:1 1452:1 1471:1 1480:1 1485:1 1514:1 1528:1 1536:1 1549:1 1550:1 1556:1 1595:1 1597:1 1612:1 1624:1 1626:1 1632:1 1638:1 1750:1 1784:1 1796:1 1817:1 1824:1 1845:1 1868:1 1888:1 1909:1 1985:1 2014:1 2042:1 2104:1 2107:1 2124:1 2156:1 2183:1 2213:1 2216:1 2252:1 2280:1 2299:1 2304:1 2306:1 2386:1 2417:1 2420:1 2427:1 2436:1 2440:1 2441:1 2442:1 2455:1 2462:1 2503:1 2538:1 2602:1 2681:1 2715:1 2744:1 2759:1 2767:1 2774:1 2826:1 2898:1 2951:1 3047:1 3073:1 3078:1 3086:1 3100:1 3120:1 3180:1 3221:1 3329:1 3339:1 3457:1 3493:1 3544:1 3612:1 3649:1 3725:1 3926:1 3955:1 4072:1 4236:1 4237:1 4291:1 4395:1 4481:1 4483:1 4534:1 4555:1 4643:1 4679:1 4874:1 4908:1 5002:1 5010:1 5077:1 5087:1 5345:1 5365:1 5431:1 5439:1 5676:1 5705:1 5791:1 5869:1 6009:1 6111:1 6141:1 6265:1 6315:1 6362:1 6866:1 6919:1 6931:1 7215:1 7238:1 7284:1 7384:1 7506:1 7562:1 7576:1 7683:1 7842:1 7910:1 8128:1 8173:1 8380:1 8415:1 8446:1 8464:1 8540:1 8669:1 8710:1 9174:1 9224:1 9398:1 9470:1 9471:1 9722:1 9798:1 9807:1 9839:1 9869:1 10054:1 10089:1 10095:1 10336:1 10378:1 10535:1 10622:1 10707:1 10743:1 #
-0.0045622021618379879001614618516669 1:1 2:1 3:1 4:1 5:1 7:1 8:1 9:1 10:1 11:1 12:1 13:1 15:1 17:1 18:1 20:1 21:1 23:1 24:1 25:1 28:1 30:1 31:1 32:1 36:1 37:1 38:1 40:1 43:1 44:1 46:1 47:1 52:1 53:1 55:1 56:1 59:1 60:1 62:1 63:1 66:1 67:1 71:1 74:1 75:1 77:1 79:1 80:1 81:1 82:1 83:1 85:1 86:1 90:1 93:1 94:1 98:1 102:1 104:1 106:1 116:1 117:1 126:1 128:1 130:1 137:1 149:1 152:1 159:1 162:1 163:1 170:1 174:1 175:1 178:1 181:1 183:1 185:1 193:1 195:1 198:1 200:1 205:1 212:1 214:1 216:1 218:1 219:1 220:1 221:1 222:1 240:1 244:1 249:1 251:1 255:1 260:1 268:1 270:1 278:1 279:1 283:1 289:1 291:1 295:1 309:1 315:1 327:1 329:1 332:1 352:1 357:1 365:1 374:1 378:1 379:1 387:1 388:1 402:1 404:1 405:1 420:1 422:1 425:1 427:1 432:1 438:1 440:1 456:1 469:1 490:1 495:1 497:1 500:1 515:1 552:1 553:1 561:1 570:1 575:1 581:1 601:1 608:1 622:1 634:1 640:1 644:1 647:1 661:1 669:1 716:1 725:1 749:1 750:1 751:1 758:1 775:1 780:1 802:1 839:1 843:1 878:1 905:1 924:1 943:1 945:1 987:1 997:1 999:1 1006:1 1029:1 1042:1 1046:1 1058:1 1067:1 1134:1 1148:1 1204:1 1232:1 1283:1 1383:1 1385:1 1400:1 1403:1 1418:1 1459:1 1461:1 1476:1 1483:1 1487:1 1501:1 1506:1 1527:1 1534:1 1573:1 1586:1 1612:1 1613:1 1696:1 1750:1 1874:1 1897:1 1946:1 1961:1 2027:1 2082:1 2087:1 2107:1 2134:1 2169:1 2177:1 2417:1 2505:1 2589:1 2599:1 2682:1 2683:1 2684:1 2698:1 2715:1 3129:1 3149:1 3154:1 3204:1 3262:1 3272:1 3315:1 3369:1 3449:1 3476:1 3592:1 3625:1 3641:1 3669:1 3685:1 3691:1 3692:1 3695:1 3700:1 3964:1 4040:1 4231:1 4271:1 4291:1 4292:1 4342:1 4385:1 4421:1 4463:1 4501:1 4552:1 4564:1 4610:1 4628:1 4701:1 4719:1 4772:1 4891:1 4912:1 4994:1 5092:1 5138:1 5232:1 5307:1 5317:1 5342:1 5423:1 5430:1 5759:1 5831:1 5851:1 5960:1 5996:1 6035:1 6285:1 6393:1 6456:1 6508:1 6514:1 6530:1 6599:1 6621:1 6830:1 7238:1 7372:1 7540:1 7556:1 7848:1 8153:1 8207:1 8429:1 8575:1 8660:1 8847:1 9052:1 9268:1 10327:1 10638:1 #
0.0045622021618379879001614618516669 20:1 24:1 32:1 120:1 131:1 148:1 150:1 156:1 170:1 235:1 301:1 333:1 601:1 649:1 812:1 3446:1 4153:1 5291:1 5925:1 6062:1 6339:1 6536:1 8447:1 9391:1 #
0.0045622021618379879001614618516669 22:1 36:1 56:1 114:1 3055:1 9188:1 10299:1 #
0.0045622021618379879001614618516669 4:1 10:1 11:1 15:1 18:1 22:1 30:1 32:1 41:1 59:1 60:1 75:1 89:1 102:1 132:1 150:1 161:1 163:1 165:1 172:1 187:1 189:1 225:1 238:1 244:1 250:1 254:1 266:1 307:1 326:1 350:1 357:1 364:1 612:1 635:1 724:1 968:1 1182:1 1280:1 1688:1 1715:1 1856:1 2053:1 2086:1 2350:1 2440:1 3200:1 3210:1 4266:1 4619:1 6145:1 6484:1 6634:1 10443:1 #
0.0045622021618379879001614618516669 22:1 36:1 52:1 204:1 213:1 220:1 445:1 495:1 1008:1 1604:1 7510:1 10469:1 #
0.0011221601209616572248500832031937 1:1 2:1 4:1 6:1 8:1 9:1 11:1 12:1 15:1 16:1 17:1 18:1 19:1 20:1 22:1 24:1 25:1 27:1 28:1 29:1 30:1 31:1 32:1 34:1 36:1 38:1 40:1 41:1 42:1 45:1 51:1 52:1 55:1 56:1 59:1 62:1 65:1 66:1 67:1 68:1 69:1 72:1 74:1 76:1 78:1 81:1 82:1 83:1 84:1 86:1 89:1 93:1 94:1 98:1 102:1 104:1 108:1 112:1 114:1 115:1 123:1 125:1 127:1 129:1 130:1 131:1 138:1 144:1 149:1 152:1 153:1 155:1 159:1 162:1 169:1 174:1 181:1 193:1 202:1 206:1 209:1 213:1 221:1 222:1 226:1 227:1 228:1 232:1 234:1 236:1 238:1 244:1 250:1 257:1 264:1 277:1 289:1 295:1 302:1 315:1 318:1 321:1 331:1 332:1 337:1 357:1 371:1 381:1 384:1 387:1 396:1 397:1 406:1 408:1 410:1 425:1 434:1 440:1 452:1 472:1 475:1 488:1 510:1 513:1 566:1 569:1 570:1 583:1 602:1 606:1 628:1 630:1 636:1 642:1 645:1 649:1 653:1 725:1 750:1 755:1 762:1 817:1 836:1 857:1 862:1 866:1 891:1 953:1 964:1 984:1 988:1 1003:1 1004:1 1044:1 1094:1 1133:1 1147:1 1150:1 1161:1 1184:1 1374:1 1383:1 1428:1 1481:1 1484:1 1500:1 1516:1 1523:1 1527:1 1534:1 1540:1 1557:1 1569:1 1591:1 1609:1 1620:1 1626:1 1639:1 1645:1 1659:1 1750:1 1851:1 1939:1 1949:1 1951:1 2004:1 2023:1 2057:1 2077:1 2103:1 2123:1 2167:1 2199:1 2222:1 2233:1 2243:1 2266:1 2273:1 2311:1 2319:1 2375:1 2417:1 2585:1 2613:1 2709:1 2833:1 3038:1 3043:1 3055:1 3072:1 3098:1 3101:1 3132:1 3172:1 3257:1 3335:1 3350:1 3445:1 3460:1 3476:1 3606:1 3629:1 3641:1 3669:1 3784:1 3804:1 3814:1 3932:1 3935:1 4014:1 4026:1 4055:1 4074:1 4086:1 4119:1 4158:1 4253:1 4385:1 4539:1 4559:1 4601:1 4617:1 4707:1 4772:1 4824:1 5002:1 5030:1 5092:1 5107:1 5164:1 5185:1 5339:1 5423:1 5468:1 5604:1 5645:1 5759:1 5764:1 5789:1 5890:1 5917:1 5960:1 6424:1 6480:1 6556:1 6599:1 6830:1 7074:1 7171:1 7211:1 7229:1 7390:1 7506:1 7555:1 7661:1 7809:1 7903:1 7942:1 8078:1 8262:1 8370:1 8575:1 8669:1 8706:1 8931:1 9023:1 9268:1 9458:1 9733:1 10015:1 10034:1 10044:1 10244:1 #
-0.0014639114226325669956829678142185 8:1 10:1 16:1 17:1 22:1 31:1 34:1 36:1 60:1 62:1 69:1 71:1 78:1 85:1 102:1 120:1 125:1 131:1 155:1 172:1 175:1 185:1 209:1 214:1 222:1 224:1 232:1 236:1 270:1 273:1 275:1 278:1 333:1 337:1 388:1 453:1 472:1 481:1 491:1 508:1 529:1 628:1 649:1 725:1 780:1 818:1 885:1 936:1 1008:1 1198:1 1205:1 1374:1 1504:1 1827:1 1986:1 2032:1 2095:1 2193:1 2291:1 2797:1 2970:1 3020:1 3043:1 3862:1 4328:1 4511:1 5035:1 5193:1 5272:1 5635:1 5921:1 5930:1 5943:1 6321:1 6811:1 7998:1 8057:1 8076:1 8553:1 10078:1 10261:1 10351:1 #
-0.00026943259482610661505533333759388 4:1 5:1 9:1 12:1 14:1 15:1 16:1 17:1 18:1 20:1 22:1 23:1 24:1 25:1 30:1 31:1 33:1 34:1 35:1 36:1 40:1 41:1 46:1 47:1 51:1 52:1 54:1 59:1 61:1 62:1 68:1 73:1 77:1 80:1 83:1 96:1 97:1 98:1 102:1 107:1 110:1 113:1 116:1 126:1 130:1 147:1 149:1 159:1 172:1 175:1 177:1 183:1 185:1 198:1 214:1 224:1 226:1 227:1 228:1 244:1 261:1 265:1 282:1 283:1 295:1 319:1 322:1 325:1 328:1 329:1 333:1 350:1 351:1 355:1 378:1 417:1 422:1 456:1 462:1 472:1 480:1 491:1 521:1 529:1 533:1 600:1 609:1 620:1 647:1 649:1 652:1 660:1 667:1 752:1 758:1 766:1 776:1 802:1 803:1 810:1 813:1 843:1 854:1 875:1 996:1 1008:1 1026:1 1060:1 1093:1 1109:1 1121:1 1155:1 1259:1 1374:1 1380:1 1422:1 1495:1 1503:1 1606:1 1717:1 1748:1 1750:1 1827:1 1849:1 1986:1 2052:1 2193:1 2216:1 2320:1 2350:1 2410:1 2429:1 2442:1 2600:1 2619:1 2714:1 2716:1 2726:1 2825:1 2963:1 3085:1 3086:1 3114:1 3116:1 3328:1 3415:1 3446:1 3482:1 3524:1 4007:1 4117:1 4199:1 4317:1 4498:1 4574:1 4692:1 4706:1 4994:1 5087:1 5178:1 5423:1 6190:1 6322:1 6595:1 6731:1 6890:1 6934:1 7145:1 7190:1 7365:1 7483:1 7530:1 7579:1 7679:1 7875:1 7968:1 8188:1 8295:1 8384:1 8396:1 8646:1 9134:1 10325:1 10462:1 10534:1 #
0.00016535906483750072507032946589334 1:1 3:1 4:1 8:1 9:1 10:1 12:1 13:1 17:1 19:1 20:1 22:1 23:1 24:1 25:1 27:1 28:1 29:1 30:1 31:1 32:1 34:1 36:1 44:1 46:1 51:1 52:1 53:1 54:1 55:1 56:1 57:1 59:1 62:1 69:1 75:1 77:1 80:1 82:1 84:1 86:1 89:1 94:1 96:1 99:1 101:1 102:1 103:1 104:1 111:1 114:1 131:1 132:1 134:1 147:1 155:1 163:1 167:1 170:1 179:1 186:1 187:1 194:1 195:1 200:1 209:1 221:1 232:1 241:1 244:1 245:1 264:1 266:1 268:1 273:1 277:1 284:1 289:1 295:1 300:1 315:1 328:1 337:1 352:1 402:1 406:1 410:1 432:1 436:1 438:1 446:1 449:1 451:1 457:1 475:1 485:1 495:1 515:1 553:1 566:1 575:1 581:1 603:1 608:1 628:1 642:1 644:1 647:1 676:1 709:1 717:1 727:1 750:1 755:1 758:1 767:1 843:1 851:1 867:1 889:1 891:1 892:1 928:1 945:1 962:1 964:1 1058:1 1131:1 1161:1 1280:1 1282:1 1385:1 1414:1 1428:1 1438:1 1462:1 1476:1 1495:1 1530:1 1551:1 1552:1 1563:1 1568:1 1646:1 1672:1 1729:1 1771:1 1797:1 1809:1 1810:1 1845:1 1846:1 1956:1 2062:1 2097:1 2106:1 2114:1 2150:1 2168:1 2171:1 2222:1 2368:1 2440:1 2471:1 2488:1 2516:1 2548:1 2613:1 2762:1 2779:1 2846:1 2940:1 3004:1 3098:1 3128:1 3190:1 3207:1 3308:1 3325:1 3475:1 3618:1 3675:1 3692:1 3700:1 3761:1 3782:1 3804:1 4020:1 4062:1 4183:1 4199:1 4288:1 4292:1 4425:1 4537:1 4617:1 4814:1 4994:1 5067:1 5092:1 5118:1 5270:1 5448:1 5597:1 5833:1 6008:1 6029:1 6032:1 6068:1 6100:1 6106:1 6147:1 6262:1 6289:1 6371:1 6456:1 6502:1 6621:1 7555:1 7564:1 7691:1 7698:1 7797:1 8058:1 8073:1 8115:1 8601:1 8898:1 9156:1 9287:1 9781:1 9881:1 10315:1 10507:1 #
-0.00021284041062820459083888835483123 1:1 2:1 3:1 4:1 5:1 6:1 9:1 10:1 11:1 12:1 14:1 15:1 16:1 17:1 18:1 19:1 20:1 22:1 24:1 25:1 27:1 29:1 30:1 31:1 36:1 41:1 44:1 51:1 52:1 54:1 57:1 59:1 62:1 63:1 66:1 69:1 72:1 74:1 75:1 78:1 79:1 80:1 86:1 90:1 98:1 101:1 102:1 103:1 107:1 117:1 122:1 124:1 125:1 129:1 131:1 138:1 148:1 149:1 150:1 157:1 161:1 163:1 165:1 172:1 177:1 179:1 184:1 185:1 187:1 188:1 193:1 199:1 205:1 212:1 213:1 214:1 216:1 217:1 219:1 221:1 224:1 225:1 227:1 232:1 233:1 235:1 238:1 244:1 245:1 246:1 249:1 252:1 266:1 267:1 283:1 289:1 293:1 323:1 326:1 331:1 336:1 337:1 357:1 372:1 397:1 399:1 406:1 410:1 411:1 416:1 430:1 432:1 434:1 467:1 481:1 482:1 487:1 495:1 500:1 502:1 507:1 515:1 549:1 552:1 553:1 554:1 601:1 606:1 629:1 630:1 640:1 645:1 653:1 657:1 658:1 662:1 674:1 687:1 703:1 747:1 800:1 805:1 811:1 813:1 827:1 830:1 856:1 875:1 883:1 912:1 943:1 955:1 958:1 1135:1 1161:1 1165:1 1173:1 1228:1 1414:1 1486:1 1513:1 1514:1 1529:1 1532:1 1549:1 1567:1 1569:1 1621:1 1646:1 1671:1 1679:1 1719:1 1747:1 1756:1 1810:1 1819:1 1887:1 2016:1 2094:1 2135:1 2193:1 2222:1 2228:1 2324:1 2382:1 2426:1 2671:1 2706:1 2729:1 3107:1 3119:1 3198:1 3252:1 3357:1 3495:1 3572:1 3574:1 3714:1 3819:1 3907:1 4023:1 4031:1 4047:1 4127:1 4228:1 4312:1 4343:1 4441:1 4462:1 4684:1 4891:1 4902:1 5238:1 5453:1 5633:1 5892:1 5955:1 5974:1 6063:1 6069:1 6225:1 6404:1 6473:1 6514:1 6600:1 6613:1 6792:1 6909:1 6966:1 7216:1 7235:1 7433:1 7448:1 7493:1 7750:1 7855:1 7910:1 8148:1 8260:1 8382:1 8451:1 8460:1 8610:1 8720:1 8903:1 9125:1 9335:1 9366:1 9611:1 9641:1 9864:1 9935:1 10033:1 10153:1 10442:1 10708:1 #
-0.00077420489629142195692895755954055 1:1 2:1 5:1 6:1 7:1 8:1 9:1 11:1 15:1 16:1 17:1 20:1 21:1 22:1 23:1 24:1 25:1 26:1 27:1 29:1 30:1 31:1 35:1 36:1 38:1 40:1 43:1 44:1 45:1 46:1 49:1 53:1 55:1 56:1 59:1 61:1 62:1 63:1 65:1 66:1 67:1 69:1 70:1 72:1 73:1 75:1 78:1 81:1 82:1 83:1 84:1 86:1 89:1 90:1 94:1 96:1 97:1 98:1 99:1 102:1 103:1 106:1 110:1 111:1 113:1 114:1 117:1 120:1 135:1 138:1 139:1 143:1 144:1 147:1 153:1 158:1 161:1 163:1 165:1 166:1 167:1 171:1 178:1 181:1 184:1 186:1 187:1 189:1 197:1 198:1 202:1 203:1 204:1 205:1 214:1 216:1 218:1 223:1 227:1 228:1 231:1 233:1 238:1 240:1 244:1 245:1 252:1 258:1 261:1 264:1 266:1 272:1 273:1 283:1 285:1 288:1 294:1 308:1 315:1 316:1 319:1 322:1 323:1 326:1 329:1 330:1 332:1 339:1 341:1 345:1 359:1 368:1 374:1 376:1 387:1 392:1 393:1 397:1 404:1 433:1 434:1 438:1 461:1 462:1 463:1 468:1 491:1 500:1 515:1 516:1 526:1 529:1 530:1 531:1 533:1 536:1 548:1 585:1 608:1 625:1 629:1 630:1 642:1 665:1 666:1 667:1 676:1 687:1 688:1 700:1 702:1 740:1 758:1 762:1 777:1 779:1 786:1 787:1 815:1 818:1 821:1 823:1 843:1 845:1 858:1 868:1 875:1 887:1 915:1 934:1 976:1 1035:1 1046:1 1048:1 1093:1 1105:1 1111:1 1121:1 1129:1 1133:1 1135:1 1140:1 1142:1 1161:1 1162:1 1186:1 1188:1 1226:1 1264:1 1274:1 1383:1 1405:1 1428:1 1433:1 1466:1 1476:1 1484:1 1518:1 1531:1 1640:1 1646:1 1729:1 1755:1 1798:1 1827:1 1849:1 1855:1 1860:1 1881:1 1884:1 1967:1 1986:1 2030:1 2062:1 2106:1 2111:1 2140:1 2150:1 2164:1 2180:1 2222:1 2252:1 2258:1 2301:1 2344:1 2360:1 2442:1 2552:1 2569:1 2573:1 2576:1 2592:1 2680:1 2702:1 2723:1 2739:1 2778:1 2794:1 2852:1 3068:1 3102:1 3128:1 3221:1 3262:1 3270:1 3295:1 3372:1 3386:1 3459:1 3621:1 3706:1 3707:1 3731:1 3760:1 3795:1 3952:1 4034:1 4173:1 4234:1 4293:1 4528:1 4538:1 4576:1 4642:1 4764:1 4810:1 4818:1 5062:1 5428:1 5464:1 5494:1 5534:1 5578:1 5588:1 5596:1 5702:1 5735:1 5834:1 5994:1 6011:1 6095:1 6111:1 6120:1 6134:1 6261:1 6357:1 6693:1 6718:1 6926:1 7052:1 7485:1 7510:1 7574:1 7658:1 7765:1 7773:1 7782:1 8105:1 8139:1 8653:1 8706:1 8714:1 8718:1 9423:1 9623:1 9720:1 9918:1 10387:1 #
0.004497011341083393710926774389236 1:1 12:1 16:1 20:1 22:1 23:1 24:1 25:1 36:1 43:1 52:1 53:1 60:1 62:1 68:1 69:1 78:1 79:1 85:1 96:1 102:1 103:1 106:1 114:1 127:1 170:1 177:1 194:1 200:1 213:1 214:1 220:1 224:1 232:1 235:1 244:1 267:1 284:1 285:1 289:1 291:1 315:1 345:1 379:1 396:1 402:1 407:1 408:1 410:1 434:1 438:1 451:1 500:1 532:1 611:1 612:1 640:1 653:1 724:1 750:1 758:1 768:1 945:1 955:1 1008:1 1012:1 1137:1 1173:1 1176:1 1199:1 1250:1 1374:1 1400:1 1416:1 1462:1 1591:1 1645:1 1658:1 1963:1 2044:1 2078:1 2107:1 2123:1 2395:1 2599:1 3043:1 3052:1 3100:1 3104:1 3112:1 3140:1 3310:1 3782:1 3804:1 4168:1 4421:1 4460:1 4484:1 4523:1 4617:1 4946:1 5002:1 5092:1 5093:1 5096:1 5317:1 5399:1 5430:1 5759:1 5903:1 5905:1 6001:1 6259:1 7356:1 7540:1 7686:1 8575:1 9075:1 9255:1 10011:1 10015:1 10701:1 #
0.0014937170998674130419775485378864 1:1 2:1 6:1 8:1 9:1 10:1 12:1 14:1 15:1 17:1 18:1 20:1 22:1 24:1 25:1 30:1 31:1 32:1 36:1 39:1 41:1 44:1 45:1 48:1 51:1 54:1 59:1 62:1 66:1 71:1 72:1 73:1 75:1 80:1 82:1 87:1 89:1 95:1 96:1 99:1 102:1 103:1 107:1 109:1 114:1 116:1 120:1 130:1 150:1 159:1 161:1 165:1 170:1 187:1 195:1 199:1 212:1 213:1 215:1 216:1 219:1 232:1 236:1 237:1 238:1 244:1 245:1 250:1 287:1 289:1 291:1 309:1 316:1 324:1 326:1 332:1 333:1 337:1 350:1 387:1 391:1 397:1 406:1 408:1 419:1 432:1 434:1 438:1 455:1 478:1 480:1 481:1 483:1 484:1 496:1 529:1 533:1 554:1 628:1 640:1 642:1 649:1 651:1 674:1 745:1 747:1 758:1 789:1 800:1 805:1 817:1 905:1 914:1 947:1 986:1 989:1 1028:1 1032:1 1040:1 1083:1 1097:1 1134:1 1138:1 1142:1 1148:1 1149:1 1150:1 1176:1 1185:1 1226:1 1280:1 1374:1 1376:1 1385:1 1394:1 1428:1 1432:1 1438:1 1439:1 1449:1 1473:1 1474:1 1501:1 1513:1 1514:1 1549:1 1556:1 1573:1 1688:1 1845:1 1947:1 1975:1 2040:1 2062:1 2101:1 2138:1 2192:1 2222:1 2228:1 2563:1 2909:1 3128:1 3343:1 3347:1 3357:1 3431:1 3450:1 3458:1 3461:1 3601:1 3678:1 3685:1 3774:1 3814:1 3843:1 3905:1 3972:1 4181:1 4217:1 4313:1 4330:1 4441:1 4891:1 5092:1 5131:1 5138:1 5147:1 5366:1 5439:1 6069:1 6184:1 6185:1 6188:1 6324:1 6347:1 6371:1 6535:1 6563:1 6764:1 7251:1 7320:1 7390:1 7448:1 7833:1 7870:1 8401:1 8437:1 8445:1 9014:1 9088:1 9775:1 9821:1 9927:1 10621:1 #
0.0045622021618379879001614618516669 1:1 2:1 4:1 6:1 9:1 10:1 11:1 15:1 16:1 18:1 20:1 24:1 25:1 30:1 31:1 32:1 33:1 36:1 39:1 41:1 50:1 52:1 57:1 62:1 63:1 73:1 75:1 79:1 80:1 82:1 98:1 125:1 137:1 146:1 162:1 177:1 179:1 187:1 189:1 205:1 212:1 213:1 219:1 232:1 237:1 244:1 245:1 249:1 265:1 268:1 280:1 283:1 289:1 309:1 331:1 337:1 357:1 382:1 397:1 402:1 419:1 420:1 425:1 438:1 445:1 455:1 462:1 463:1 467:1 475:1 524:1 628:1 645:1 662:1 670:1 746:1 780:1 793:1 800:1 806:1 818:1 836:1 927:1 959:1 965:1 1002:1 1028:1 1134:1 1137:1 1142:1 1149:1 1166:1 1180:1 1274:1 1425:1 1437:1 1501:1 1514:1 1527:1 1534:1 1549:1 1605:1 1612:1 1679:1 1797:1 1951:1 2035:1 2057:1 2178:1 2184:1 2222:1 2239:1 2426:1 2715:1 2952:1 2986:1 3128:1 3154:1 3177:1 3434:1 3474:1 3629:1 3669:1 3685:1 3819:1 3865:1 3875:1 3907:1 4015:1 4018:1 4231:1 4263:1 4717:1 4743:1 4811:1 5092:1 5093:1 5111:1 5126:1 5353:1 5483:1 5580:1 5631:1 6109:1 6250:1 6319:1 6345:1 6401:1 6502:1 6771:1 6835:1 6892:1 7047:1 7271:1 7961:1 8072:1 8604:1 8660:1 9088:1 9588:1 10611:1 #
0.0017398474952637253080484081024792 1:1 4:1 6:1 9:1 10:1 11:1 12:1 13:1 14:1 15:1 16:1 18:1 21:1 24:1 25:1 27:1 30:1 31:1 34:1 36:1 38:1 40:1 43:1 45:1 51:1 52:1 53:1 54:1 55:1 56:1 59:1 62:1 66:1 75:1 77:1 80:1 81:1 82:1 84:1 87:1 91:1 94:1 96:1 98:1 99:1 102:1 103:1 104:1 106:1 113:1 120:1 127:1 137:1 143:1 152:1 153:1 156:1 159:1 165:1 170:1 174:1 179:1 186:1 187:1 189:1 195:1 196:1 199:1 200:1 205:1 212:1 214:1 222:1 232:1 238:1 244:1 245:1 250:1 252:1 253:1 270:1 273:1 277:1 283:1 293:1 295:1 312:1 323:1 333:1 335:1 337:1 347:1 348:1 349:1 357:1 358:1 371:1 382:1 387:1 408:1 410:1 438:1 440:1 445:1 456:1 469:1 475:1 480:1 481:1 496:1 529:1 541:1 553:1 554:1 630:1 635:1 651:1 696:1 716:1 749:1 758:1 788:1 789:1 821:1 827:1 884:1 891:1 905:1 943:1 945:1 959:1 989:1 1006:1 1057:1 1092:1 1101:1 1119:1 1130:1 1138:1 1148:1 1153:1 1203:1 1232:1 1273:1 1384:1 1426:1 1439:1 1447:1 1489:1 1514:1 1527:1 1530:1 1534:1 1556:1 1568:1 1591:1 1638:1 1646:1 1672:1 1719:1 1750:1 1817:1 1854:1 1861:1 1920:1 1951:1 1956:1 1964:1 1977:1 1981:1 2009:1 2027:1 2043:1 2057:1 2082:1 2175:1 2529:1 2584:1 2664:1 2715:1 2779:1 2821:1 2826:1 2867:1 2909:1 3059:1 3129:1 3154:1 3190:1 3341:1 3459:1 3593:1 3629:1 3654:1 3691:1 3700:1 3749:1 3756:1 3802:1 3907:1 4012:1 4146:1 4201:1 4451:1 4511:1 4628:1 4908:1 4922:1 4936:1 5002:1 5119:1 5220:1 5237:1 5238:1 5260:1 5263:1 5339:1 5434:1 5642:1 6032:1 6063:1 6069:1 6109:1 6172:1 6188:1 6225:1 6553:1 6579:1 6719:1 6729:1 7032:1 7155:1 7193:1 7219:1 7233:1 7531:1 7616:1 7727:1 7843:1 7865:1 7910:1 7974:1 8003:1 8024:1 8221:1 8293:1 8339:1 8359:1 8445:1 8646:1 9002:1 9166:1 9413:1 9571:1 9921:1 9966:1 10009:1 10478:1 10551:1 10662:1 #
-0.0045622021618379879001614618516669 1:1 5:1 6:1 8:1 9:1 12:1 15:1 16:1 18:1 19:1 20:1 22:1 23:1 24:1 25:1 27:1 30:1 31:1 32:1 33:1 36:1 37:1 39:1 41:1 46:1 51:1 52:1 54:1 56:1 58:1 59:1 60:1 62:1 66:1 68:1 72:1 73:1 75:1 79:1 81:1 84:1 86:1 89:1 99:1 101:1 102:1 103:1 104:1 107:1 114:1 115:1 131:1 137:1 138:1 140:1 146:1 162:1 170:1 175:1 179:1 187:1 195:1 199:1 213:1 220:1 227:1 232:1 242:1 244:1 245:1 253:1 277:1 278:1 280:1 283:1 284:1 289:1 291:1 293:1 295:1 304:1 312:1 314:1 322:1 328:1 347:1 382:1 387:1 388:1 390:1 391:1 400:1 402:1 407:1 408:1 419:1 420:1 425:1 432:1 438:1 443:1 452:1 467:1 496:1 500:1 502:1 515:1 524:1 570:1 594:1 598:1 601:1 630:1 642:1 653:1 724:1 725:1 749:1 750:1 758:1 768:1 772:1 788:1 800:1 809:1 815:1 817:1 821:1 830:1 831:1 849:1 866:1 872:1 905:1 928:1 958:1 965:1 989:1 1008:1 1015:1 1042:1 1066:1 1118:1 1162:1 1200:1 1258:1 1372:1 1385:1 1400:1 1416:1 1425:1 1439:1 1447:1 1462:1 1473:1 1480:1 1495:1 1501:1 1502:1 1514:1 1529:1 1538:1 1549:1 1568:1 1591:1 1609:1 1633:1 1636:1 1638:1 1737:1 1750:1 1797:1 1808:1 1819:1 1845:1 1912:1 1957:1 2027:1 2078:1 2159:1 2415:1 2418:1 2433:1 2488:1 2617:1 2628:1 2664:1 2674:1 2682:1 2685:1 2715:1 2813:1 2826:1 2912:1 2934:1 2958:1 3112:1 3114:1 3140:1 3240:1 3289:1 3325:1 3364:1 3375:1 3444:1 3446:1 3572:1 3629:1 3669:1 3681:1 3782:1 3808:1 3819:1 3844:1 3923:1 3932:1 3999:1 4134:1 4183:1 4194:1 4231:1 4271:1 4292:1 4385:1 4420:1 4602:1 4699:1 4772:1 4862:1 4973:1 5002:1 5030:1 5069:1 5092:1 5111:1 5145:1 5389:1 5448:1 5500:1 5604:1 5847:1 5890:1 5892:1 5895:1 5960:1 6032:1 6068:1 6109:1 6147:1 6197:1 6262:1 6393:1 6401:1 6415:1 6471:1 6502:1 6526:1 6535:1 6579:1 6593:1 6599:1 6717:1 6778:1 6830:1 6877:1 6960:1 7072:1 7284:1 7409:1 7551:1 7555:1 7616:1 7775:1 7833:1 8071:1 8165:1 8178:1 8229:1 8292:1 8429:1 8436:1 8534:1 8587:1 8638:1 8748:1 8847:1 8921:1 9088:1 9156:1 9268:1 9335:1 9348:1 9465:1 9499:1 10095:1 10244:1 10621:1 10700:1 #
-0.0045622021618379879001614618516669 1:1 2:1 4:1 5:1 6:1 8:1 9:1 11:1 13:1 16:1 17:1 18:1 20:1 22:1 23:1 25:1 30:1 32:1 36:1 38:1 39:1 50:1 52:1 59:1 60:1 62:1 63:1 65:1 67:1 73:1 75:1 81:1 82:1 84:1 86:1 89:1 90:1 94:1 101:1 102:1 103:1 104:1 109:1 114:1 130:1 131:1 132:1 147:1 155:1 159:1 163:1 170:1 172:1 187:1 213:1 214:1 216:1 225:1 232:1 244:1 245:1 250:1 263:1 268:1 277:1 279:1 283:1 289:1 291:1 295:1 308:1 309:1 326:1 328:1 363:1 387:1 396:1 402:1 407:1 408:1 438:1 440:1 449:1 452:1 455:1 472:1 480:1 495:1 500:1 515:1 601:1 628:1 640:1 661:1 674:1 712:1 749:1 750:1 758:1 780:1 806:1 905:1 945:1 965:1 989:1 1005:1 1028:1 1067:1 1088:1 1100:1 1133:1 1161:1 1280:1 1374:1 1385:1 1427:1 1439:1 1441:1 1462:1 1484:1 1500:1 1501:1 1514:1 1520:1 1538:1 1646:1 1696:1 1744:1 1750:1 1845:1 1858:1 1864:1 1888:1 1897:1 1972:1 2027:1 2040:1 2082:1 2222:1 2440:1 2462:1 2470:1 2599:1 2643:1 2682:1 2683:1 2698:1 2715:1 2762:1 2898:1 2909:1 3043:1 3272:1 3288:1 3422:1 3641:1 3649:1 3669:1 3692:1 3725:1 3782:1 3801:1 3819:1 3896:1 3906:1 4016:1 4231:1 4271:1 4292:1 4325:1 4717:1 4772:1 4958:1 5015:1 5092:1 5111:1 5252:1 5411:1 5498:1 5571:1 5576:1 5647:1 5661:1 6049:1 6147:1 6285:1 6341:1 6507:1 6830:1 6888:1 6935:1 7238:1 7512:1 7616:1 7646:1 7690:1 7721:1 8053:1 8158:1 8207:1 8229:1 8292:1 8405:1 8429:1 8683:1 8847:1 8890:1 9156:1 9481:1 9884:1 9916:1 10015:1 10127:1 10739:1 #
-0.0045622021618379879001614618516669 1:1 2:1 6:1 7:1 8:1 9:1 11:1 12:1 15:1 16:1 17:1 18:1 20:1 21:1 22:1 23:1 24:1 29:1 30:1 31:1 32:1 34:1 36:1 38:1 52:1 57:1 59:1 60:1 62:1 67:1 69:1 71:1 73:1 74:1 75:1 79:1 81:1 82:1 84:1 86:1 94:1 99:1 101:1 102:1 103:1 131:1 132:1 133:1 138:1 143:1 162:1 163:1 169:1 170:1 174:1 179:1 187:1 194:1 195:1 213:1 216:1 221:1 224:1 236:1 237:1 238:1 244:1 266:1 270:1 274:1 278:1 283:1 284:1 289:1 291:1 295:1 308:1 322:1 357:1 358:1 371:1 379:1 387:1 402:1 408:1 432:1 438:1 451:1 455:1 467:1 469:1 472:1 475:1 495:1 496:1 500:1 510:1 515:1 554:1 601:1 606:1 608:1 628:1 642:1 643:1 646:1 686:1 725:1 750:1 755:1 758:1 815:1 840:1 945:1 947:1 988:1 1002:1 1009:1 1079:1 1137:1 1149:1 1180:1 1181:1 1204:1 1280:1 1369:1 1374:1 1385:1 1403:1 1439:1 1501:1 1513:1 1514:1 1527:1 1567:1 1646:1 1723:1 1750:1 1756:1 1797:1 1839:1 1845:1 1858:1 2027:1 2222:1 2228:1 2253:1 2314:1 2417:1 2440:1 2573:1 2588:1 2675:1 2682:1 2715:1 2826:1 2898:1 3055:1 3071:1 3128:1 3194:1 3261:1 3272:1 3315:1 3476:1 3482:1 3681:1 3982:1 3999:1 4271:1 4292:1 4456:1 4564:1 4772:1 4828:1 4868:1 4930:1 4970:1 4994:1 5002:1 5092:1 5448:1 5707:1 5729:1 5813:1 5890:1 5960:1 6002:1 6049:1 6250:1 6324:1 6507:1 6517:1 6554:1 6579:1 6634:1 6700:1 7072:1 7162:1 7349:1 8128:1 8153:1 8207:1 8229:1 8282:1 8413:1 8660:1 8831:1 9088:1 9156:1 9289:1 9457:1 9594:1 9884:1 10599:1 #
-0.0045622021618379879001614618516669 1:1 3:1 4:1 5:1 6:1 9:1 11:1 12:1 13:1 14:1 15:1 16:1 22:1 25:1 29:1 30:1 31:1 36:1 38:1 43:1 52:1 53:1 54:1 59:1 60:1 62:1 66:1 67:1 69:1 72:1 73:1 74:1 75:1 78:1 79:1 80:1 81:1 82:1 84:1 94:1 98:1 99:1 102:1 103:1 111:1 113:1 115:1 117:1 119:1 128:1 130:1 131:1 132:1 135:1 143:1 146:1 147:1 155:1 162:1 163:1 170:1 179:1 187:1 189:1 200:1 213:1 218:1 219:1 220:1 221:1 224:1 227:1 236:1 238:1 244:1 253:1 277:1 280:1 284:1 289:1 291:1 293:1 295:1 314:1 316:1 318:1 322:1 337:1 341:1 348:1 365:1 371:1 374:1 387:1 396:1 401:1 407:1 408:1 410:1 434:1 436:1 438:1 451:1 463:1 469:1 482:1 486:1 496:1 500:1 502:1 515:1 534:1 603:1 608:1 702:1 725:1 750:1 779:1 789:1 799:1 800:1 809:1 840:1 849:1 872:1 875:1 877:1 878:1 891:1 897:1 902:1 905:1 922:1 928:1 945:1 959:1 964:1 1009:1 1028:1 1042:1 1111:1 1161:1 1206:1 1210:1 1275:1 1333:1 1369:1 1378:1 1385:1 1394:1 1400:1 1425:1 1438:1 1439:1 1493:1 1501:1 1513:1 1514:1 1534:1 1552:1 1556:1 1591:1 1613:1 1633:1 1671:1 1744:1 1750:1 1845:1 1925:1 1975:1 1977:1 2027:1 2082:1 2109:1 2120:1 2168:1 2193:1 2370:1 2418:1 2538:1 2679:1 2718:1 2779:1 2898:1 2912:1 2962:1 3085:1 3112:1 3185:1 3332:1 3431:1 3476:1 3669:1 3685:1 3692:1 3700:1 3809:1 3842:1 3999:1 4181:1 4231:1 4271:1 4292:1 4576:1 4772:1 4891:1 4905:1 4967:1 5002:1 5092:1 5707:1 5856:1 5890:1 5960:1 6000:1 6049:1 6289:1 6403:1 6507:1 6579:1 6888:1 6898:1 7475:1 7675:1 7858:1 7891:1 7987:1 8229:1 8613:1 8931:1 8969:1 9255:1 9268:1 9884:1 10743:1 #
-0.0045622021618379879001614618516669 1:1 2:1 6:1 8:1 9:1 12:1 13:1 17:1 18:1 20:1 21:1 22:1 23:1 25:1 27:1 30:1 31:1 32:1 34:1 36:1 39:1 52:1 56:1 59:1 62:1 67:1 69:1 73:1 75:1 78:1 79:1 82:1 84:1 89:1 98:1 99:1 102:1 104:1 106:1 113:1 114:1 115:1 117:1 127:1 131:1 143:1 158:1 159:1 162:1 163:1 170:1 172:1 181:1 185:1 213:1 222:1 226:1 228:1 232:1 235:1 237:1 238:1 244:1 277:1 283:1 285:1 289:1 291:1 295:1 328:1 332:1 338:1 346:1 350:1 365:1 390:1 396:1 402:1 404:1 407:1 408:1 410:1 411:1 434:1 438:1 451:1 472:1 481:1 490:1 500:1 526:1 583:1 606:1 608:1 630:1 632:1 649:1 750:1 755:1 767:1 773:1 800:1 811:1 857:1 874:1 902:1 911:1 945:1 989:1 1006:1 1046:1 1085:1 1092:1 1100:1 1119:1 1122:1 1133:1 1185:1 1226:1 1374:1 1384:1 1385:1 1400:1 1416:1 1419:1 1427:1 1439:1 1456:1 1489:1 1493:1 1501:1 1506:1 1514:1 1527:1 1556:1 1568:1 1588:1 1609:1 1624:1 1819:1 1825:1 1837:1 1888:1 2040:1 2065:1 2123:1 2168:1 2438:1 2462:1 2470:1 2585:1 2826:1 2898:1 3043:1 3055:1 3104:1 3118:1 3122:1 3148:1 3222:1 3261:1 3337:1 3474:1 3476:1 3669:1 3819:1 3869:1 3923:1 4271:1 4296:1 4523:1 4559:1 4772:1 4891:1 4994:1 5002:1 5092:1 5111:1 5171:1 5179:1 5252:1 5315:1 5353:1 5890:1 5943:1 5960:1 6085:1 6380:1 6487:1 6507:1 6556:1 6599:1 6830:1 6951:1 7238:1 7679:1 8105:1 8229:1 8276:1 8429:1 8474:1 8481:1 8485:1 8534:1 8757:1 8974:1 9156:1 9268:1 9291:1 9348:1 9772:1 #
0.0045622021618379879001614618516669 4:1 16:1 20:1 36:1 52:1 56:1 62:1 78:1 214:1 289:1 481:1 1204:1 1589:1 2027:1 3394:1 3607:1 5892:1 7653:1 #
0.0045622021618379879001614618516669 22:1 29:1 36:1 37:1 56:1 59:1 94:1 209:1 320:1 322:1 1161:1 1596:1 2630:1 3266:1 5400:1 7490:1 9319:1 #
0.0045622021618379879001614618516669 22:1 34:1 36:1 56:1 62:1 177:1 214:1 323:1 379:1 410:1 725:1 1180:1 #
-0.0045622021618379879001614618516669 1:1 6:1 11:1 12:1 15:1 16:1 17:1 18:1 20:1 22:1 24:1 25:1 29:1 30:1 32:1 34:1 36:1 42:1 44:1 45:1 51:1 53:1 55:1 62:1 63:1 65:1 66:1 73:1 77:1 86:1 90:1 94:1 95:1 102:1 103:1 104:1 106:1 112:1 114:1 117:1 119:1 120:1 126:1 137:1 146:1 149:1 155:1 165:1 170:1 174:1 187:1 195:1 196:1 205:1 210:1 221:1 235:1 242:1 245:1 265:1 278:1 283:1 293:1 312:1 315:1 323:1 350:1 353:1 365:1 382:1 408:1 426:1 432:1 440:1 452:1 488:1 495:1 510:1 566:1 575:1 581:1 613:1 630:1 641:1 656:1 660:1 716:1 725:1 728:1 750:1 753:1 767:1 807:1 808:1 815:1 857:1 882:1 989:1 1009:1 1024:1 1089:1 1093:1 1094:1 1105:1 1160:1 1169:1 1176:1 1180:1 1374:1 1422:1 1457:1 1462:1 1476:1 1508:1 1568:1 1626:1 1733:1 1794:1 1827:1 2030:1 2053:1 2058:1 2078:1 2187:1 2199:1 2291:1 2368:1 2370:1 2372:1 2484:1 2488:1 2548:1 2680:1 2774:1 2826:1 2833:1 3086:1 3089:1 3100:1 3129:1 3172:1 3196:1 3380:1 3584:1 3888:1 4029:1 4200:1 4252:1 4313:1 4431:1 4568:1 4574:1 4588:1 4740:1 4994:1 5168:1 5469:1 5593:1 6541:1 7062:1 7224:1 7705:1 7803:1 7901:1 8173:1 8222:1 8510:1 9079:1 9280:1 9407:1 9470:1 9703:1 9839:1 10173:1 10488:1 #
-0.0037664979464589886000436269597458 1:1 6:1 9:1 11:1 12:1 19:1 21:1 25:1 27:1 29:1 30:1 31:1 32:1 34:1 35:1 37:1 38:1 40:1 41:1 42:1 43:1 45:1 48:1 52:1 53:1 56:1 60:1 61:1 62:1 63:1 66:1 67:1 73:1 78:1 79:1 82:1 83:1 85:1 91:1 93:1 95:1 101:1 104:1 110:1 112:1 113:1 115:1 122:1 130:1 137:1 144:1 149:1 153:1 158:1 165:1 186:1 189:1 196:1 200:1 202:1 212:1 213:1 215:1 217:1 221:1 224:1 235:1 251:1 264:1 265:1 275:1 278:1 286:1 289:1 311:1 314:1 322:1 324:1 381:1 386:1 392:1 400:1 416:1 436:1 440:1 444:1 475:1 481:1 495:1 496:1 497:1 553:1 557:1 629:1 653:1 668:1 694:1 724:1 725:1 750:1 800:1 808:1 817:1 820:1 827:1 849:1 857:1 862:1 867:1 895:1 905:1 922:1 945:1 956:1 984:1 1067:1 1092:1 1155:1 1174:1 1198:1 1279:1 1438:1 1506:1 1527:1 1567:1 1797:1 1810:1 1874:1 1897:1 1919:1 1955:1 1959:1 1964:1 2034:1 2065:1 2120:1 2134:1 2232:1 2362:1 2372:1 2394:1 2417:1 2614:1 2653:1 2675:1 2682:1 2828:1 2850:1 2968:1 2983:1 3047:1 3118:1 3381:1 3591:1 3614:1 3648:1 3827:1 3990:1 4288:1 4289:1 4431:1 4503:1 4556:1 4900:1 5178:1 5232:1 5274:1 5400:1 5475:1 5557:1 5813:1 5990:1 6029:1 6250:1 6334:1 6489:1 6728:1 6778:1 7071:1 7157:1 7440:1 7994:1 9384:1 9491:1 10332:1 #
-0.0045622021618379879001614618516669 1:1 6:1 8:1 9:1 11:1 12:1 15:1 16:1 19:1 21:1 25:1 27:1 29:1 30:1 31:1 32:1 34:1 35:1 37:1 38:1 40:1 41:1 42:1 43:1 45:1 48:1 52:1 56:1 57:1 60:1 61:1 62:1 63:1 66:1 67:1 73:1 78:1 79:1 82:1 83:1 85:1 89:1 91:1 93:1 94:1 95:1 101:1 104:1 110:1 112:1 113:1 115:1 122:1 130:1 137:1 144:1 149:1 153:1 158:1 165:1 189:1 196:1 200:1 202:1 212:1 213:1 214:1 215:1 217:1 219:1 221:1 224:1 228:1 235:1 251:1 264:1 265:1 275:1 278:1 279:1 286:1 289:1 314:1 322:1 324:1 350:1 381:1 386:1 392:1 400:1 416:1 426:1 436:1 440:1 444:1 457:1 475:1 481:1 486:1 495:1 496:1 497:1 526:1 553:1 557:1 629:1 650:1 653:1 660:1 668:1 694:1 724:1 725:1 750:1 773:1 777:1 800:1 808:1 817:1 820:1 827:1 849:1 857:1 862:1 867:1 895:1 905:1 922:1 945:1 956:1 984:1 1008:1 1047:1 1067:1 1092:1 1104:1 1155:1 1174:1 1198:1 1279:1 1506:1 1527:1 1567:1 1797:1 1810:1 1827:1 1874:1 1897:1 1919:1 1955:1 1959:1 1964:1 2101:1 2120:1 2134:1 2203:1 2232:1 2362:1 2372:1 2394:1 2614:1 2675:1 2743:1 2828:1 2850:1 2968:1 2983:1 3047:1 3381:1 3474:1 3487:1 3614:1 3648:1 3782:1 3827:1 4089:1 4214:1 4288:1 4289:1 4300:1 4431:1 4503:1 4900:1 5178:1 5232:1 5274:1 5400:1 5475:1 5557:1 5813:1 5990:1 6273:1 6282:1 6334:1 6489:1 6778:1 7071:1 7157:1 7440:1 7994:1 9384:1 9491:1 10332:1 #
0.0010404718382166890447426688126598 1:1 5:1 8:1 11:1 12:1 15:1 16:1 17:1 18:1 19:1 20:1 21:1 22:1 24:1 25:1 29:1 30:1 31:1 32:1 34:1 35:1 36:1 38:1 40:1 42:1 52:1 56:1 59:1 62:1 63:1 67:1 69:1 73:1 75:1 78:1 81:1 82:1 84:1 86:1 89:1 94:1 101:1 102:1 103:1 104:1 106:1 113:1 114:1 120:1 126:1 131:1 138:1 146:1 148:1 158:1 163:1 170:1 172:1 178:1 187:1 202:1 214:1 221:1 222:1 227:1 231:1 232:1 236:1 237:1 245:1 253:1 266:1 270:1 277:1 278:1 279:1 283:1 284:1 295:1 316:1 329:1 346:1 357:1 360:1 388:1 396:1 397:1 400:1 408:1 416:1 434:1 436:1 438:1 441:1 451:1 452:1 464:1 471:1 475:1 481:1 490:1 521:1 566:1 608:1 618:1 642:1 649:1 651:1 669:1 724:1 725:1 745:1 750:1 755:1 758:1 762:1 763:1 766:1 800:1 802:1 806:1 815:1 836:1 840:1 843:1 912:1 945:1 964:1 1010:1 1012:1 1021:1 1054:1 1067:1 1092:1 1105:1 1155:1 1160:1 1173:1 1185:1 1226:1 1232:1 1283:1 1374:1 1413:1 1414:1 1427:1 1432:1 1438:1 1439:1 1514:1 1534:1 1565:1 1570:1 1634:1 1638:1 1646:1 1698:1 1750:1 1796:1 1797:1 1805:1 1845:1 1861:1 1874:1 1909:1 1925:1 1999:1 2027:1 2168:1 2169:1 2187:1 2244:1 2311:1 2415:1 2455:1 2470:1 2484:1 2503:1 2771:1 2813:1 2819:1 2826:1 2898:1 2930:1 3040:1 3043:1 3098:1 3114:1 3152:1 3692:1 3782:1 3819:1 3872:1 3893:1 4016:1 4040:1 4096:1 4196:1 4280:1 4325:1 4356:1 4414:1 4458:1 4482:1 4610:1 4642:1 4731:1 4873:1 5092:1 5118:1 5133:1 5168:1 5279:1 5356:1 5402:1 5478:1 5500:1 5550:1 5580:1 5591:1 5652:1 5887:1 6004:1 6116:1 6136:1 6141:1 6269:1 6287:1 6425:1 6478:1 6509:1 6526:1 6594:1 6759:1 6795:1 6888:1 7364:1 7770:1 7910:1 8330:1 8333:1 8464:1 8692:1 9339:1 9460:1 9471:1 9560:1 9580:1 9958:1 10356:1 10444:1 10526:1 #
-0.0045622021618379879001614618516669 2:1 5:1 8:1 12:1 15:1 27:1 29:1 30:1 31:1 36:1 51:1 52:1 53:1 62:1 63:1 66:1 67:1 109:1 110:1 134:1 143:1 147:1 163:1 170:1 175:1 195:1 196:1 200:1 213:1 237:1 244:1 273:1 276:1 295:1 315:1 338:1 419:1 440:1 470:1 481:1 526:1 608:1 612:1 632:1 673:1 809:1 812:1 817:1 818:1 928:1 964:1 1275:1 1280:1 1374:1 1438:1 1513:1 1603:1 2097:1 2253:1 2267:1 2440:1 2594:1 3004:1 3184:1 3225:1 3589:1 3708:1 4111:1 4234:1 4278:1 4360:1 6295:1 6403:1 6839:1 8405:1 8724:1 9061:1 9378:1 10052:1 #
-0.0045622021618379879001614618516669 9:1 11:1 12:1 13:1 15:1 16:1 17:1 18:1 20:1 22:1 24:1 30:1 36:1 38:1 41:1 44:1 52:1 56:1 57:1 59:1 61:1 62:1 66:1 78:1 79:1 87:1 94:1 98:1 102:1 106:1 117:1 124:1 136:1 137:1 144:1 158:1 163:1 169:1 170:1 185:1 186:1 187:1 198:1 199:1 200:1 220:1 221:1 232:1 244:1 252:1 268:1 270:1 283:1 292:1 323:1 337:1 343:1 372:1 382:1 387:1 405:1 411:1 416:1 432:1 436:1 485:1 486:1 502:1 623:1 626:1 628:1 642:1 725:1 758:1 759:1 762:1 800:1 805:1 847:1 867:1 891:1 905:1 1014:1 1048:1 1101:1 1175:1 1275:1 1280:1 1366:1 1369:1 1426:1 1514:1 1638:1 2024:1 2184:1 2344:1 2442:1 2475:1 2664:1 2675:1 2901:1 2942:1 2962:1 3129:1 3351:1 3394:1 3641:1 3818:1 3824:1 4048:1 4183:1 4263:1 4420:1 4463:1 4868:1 4964:1 5001:1 5339:1 5395:1 5836:1 5995:1 6371:1 6621:1 6890:1 7088:1 7390:1 7484:1 7616:1 7809:1 8587:1 9118:1 9295:1 9616:1 9729:1 10355:1 #
0.0030376995940255414711816950301682 5:1 8:1 11:1 12:1 13:1 14:1 15:1 16:1 18:1 20:1 21:1 22:1 23:1 24:1 25:1 27:1 30:1 31:1 35:1 36:1 41:1 44:1 51:1 52:1 53:1 54:1 56:1 60:1 62:1 65:1 66:1 67:1 69:1 73:1 81:1 82:1 84:1 89:1 90:1 98:1 102:1 103:1 104:1 112:1 114:1 137:1 159:1 163:1 174:1 177:1 179:1 184:1 186:1 199:1 200:1 204:1 214:1 217:1 218:1 219:1 221:1 232:1 236:1 244:1 245:1 252:1 276:1 278:1 279:1 280:1 283:1 284:1 289:1 291:1 295:1 307:1 312:1 326:1 337:1 341:1 345:1 348:1 350:1 357:1 382:1 390:1 396:1 397:1 408:1 410:1 430:1 434:1 436:1 438:1 440:1 452:1 464:1 470:1 485:1 494:1 500:1 503:1 515:1 554:1 566:1 645:1 649:1 651:1 709:1 725:1 745:1 755:1 758:1 780:1 815:1 843:1 847:1 872:1 874:1 902:1 905:1 912:1 965:1 989:1 991:1 1009:1 1046:1 1118:1 1131:1 1239:1 1258:1 1274:1 1283:1 1385:1 1418:1 1428:1 1432:1 1462:1 1473:1 1514:1 1534:1 1552:1 1556:1 1591:1 1808:1 1883:1 1887:1 1890:1 1907:1 2003:1 2027:1 2038:1 2062:1 2078:1 2164:1 2209:1 2222:1 2291:1 2455:1 2583:1 2675:1 2685:1 2698:1 2736:1 2898:1 2909:1 3043:1 3063:1 3086:1 3098:1 3357:1 3474:1 3691:1 3782:1 3795:1 3801:1 3949:1 4146:1 4231:1 4292:1 4441:1 4513:1 4568:1 4601:1 4701:1 4782:1 4953:1 4973:1 5079:1 5238:1 5364:1 5493:1 5604:1 5663:1 5813:1 6068:1 6088:1 6147:1 6507:1 6535:1 6600:1 6795:1 7206:1 7238:1 7536:1 7758:1 7870:1 8126:1 8232:1 8598:1 8915:1 9634:1 9635:1 10621:1 #
0.00043825629895251344688919536984884 1:1 2:1 4:1 7:1 8:1 10:1 13:1 15:1 16:1 18:1 20:1 21:1 22:1 23:1 24:1 25:1 27:1 28:1 29:1 30:1 31:1 34:1 35:1 36:1 38:1 40:1 41:1 46:1 47:1 48:1 49:1 52:1 54:1 57:1 59:1 60:1 62:1 67:1 68:1 69:1 75:1 78:1 80:1 81:1 82:1 86:1 93:1 95:1 102:1 104:1 106:1 113:1 126:1 131:1 146:1 158:1 161:1 162:1 163:1 167:1 172:1 177:1 179:1 194:1 199:1 212:1 213:1 214:1 217:1 220:1 221:1 222:1 223:1 236:1 242:1 243:1 265:1 273:1 277:1 279:1 280:1 289:1 295:1 296:1 302:1 307:1 314:1 322:1 323:1 328:1 333:1 337:1 345:1 347:1 351:1 369:1 387:1 396:1 400:1 411:1 416:1 419:1 429:1 430:1 438:1 440:1 445:1 451:1 462:1 472:1 478:1 482:1 496:1 500:1 502:1 515:1 541:1 554:1 564:1 606:1 610:1 630:1 641:1 644:1 645:1 647:1 649:1 652:1 660:1 670:1 701:1 715:1 716:1 740:1 759:1 780:1 786:1 800:1 802:1 803:1 806:1 809:1 815:1 816:1 843:1 847:1 875:1 905:1 928:1 933:1 988:1 1015:1 1028:1 1029:1 1046:1 1061:1 1067:1 1083:1 1105:1 1131:1 1135:1 1161:1 1174:1 1228:1 1378:1 1384:1 1385:1 1400:1 1414:1 1428:1 1432:1 1461:1 1473:1 1483:1 1508:1 1534:1 1568:1 1646:1 1750:1 1790:1 1878:1 1976:1 2004:1 2005:1 2082:1 2089:1 2120:1 2168:1 2216:1 2222:1 2369:1 2440:1 2441:1 2503:1 2584:1 2599:1 2681:1 2743:1 2821:1 2904:1 2968:1 3004:1 3085:1 3086:1 3149:1 3305:1 3394:1 3410:1 3449:1 3450:1 3467:1 3562:1 3581:1 3597:1 3607:1 3661:1 3669:1 3738:1 3783:1 3802:1 3907:1 4145:1 4231:1 4262:1 4292:1 4385:1 4529:1 4539:1 4564:1 4594:1 4631:1 4684:1 4754:1 4994:1 5030:1 5092:1 5185:1 5193:1 5423:1 5519:1 5653:1 5951:1 5996:1 6021:1 6139:1 6273:1 6393:1 6599:1 6731:1 6745:1 6830:1 6880:1 6892:1 7023:1 7043:1 7049:1 7291:1 7401:1 7416:1 7658:1 7858:1 8154:1 8198:1 8543:1 8642:1 8647:1 8661:1 9047:1 9054:1 9249:1 9253:1 9279:1 9436:1 9525:1 9577:1 9875:1 10244:1 10731:1 #
-0.0045622021618379879001614618516669 1:1 5:1 7:1 9:1 18:1 20:1 21:1 22:1 23:1 30:1 36:1 52:1 54:1 59:1 67:1 69:1 74:1 102:1 104:1 114:1 138:1 142:1 156:1 169:1 175:1 187:1 199:1 220:1 231:1 232:1 234:1 235:1 238:1 273:1 277:1 310:1 336:1 337:1 347:1 408:1 452:1 475:1 480:1 558:1 640:1 649:1 717:1 912:1 946:1 1002:1 1025:1 1173:1 1258:1 1374:1 1426:1 1432:1 1438:1 1439:1 1513:1 1536:1 1626:1 1750:1 1851:1 2675:1 2805:1 3043:1 3114:1 3562:1 3804:1 3941:1 4908:1 5001:1 5692:1 6117:1 6375:1 6507:1 6535:1 6577:1 6845:1 6846:1 7876:1 7972:1 8094:1 8732:1 9338:1 #
0.0017741894250899651989950012165309 1:1 2:1 6:1 8:1 9:1 10:1 11:1 12:1 13:1 14:1 15:1 16:1 20:1 21:1 22:1 24:1 25:1 26:1 29:1 31:1 34:1 36:1 41:1 56:1 59:1 62:1 63:1 66:1 67:1 71:1 73:1 74:1 75:1 82:1 84:1 87:1 89:1 90:1 101:1 102:1 103:1 104:1 106:1 107:1 112:1 114:1 115:1 117:1 122:1 125:1 130:1 156:1 159:1 161:1 163:1 170:1 179:1 189:1 199:1 209:1 212:1 219:1 229:1 232:1 233:1 236:1 242:1 245:1 266:1 277:1 278:1 279:1 287:1 289:1 290:1 295:1 307:1 308:1 309:1 318:1 337:1 364:1 387:1 388:1 390:1 400:1 408:1 425:1 430:1 432:1 434:1 438:1 455:1 465:1 471:1 475:1 478:1 485:1 507:1 529:1 564:1 570:1 619:1 628:1 640:1 651:1 662:1 745:1 750:1 758:1 789:1 790:1 818:1 881:1 899:1 912:1 943:1 945:1 947:1 969:1 1005:1 1009:1 1028:1 1046:1 1075:1 1104:1 1138:1 1149:1 1274:1 1279:1 1376:1 1383:1 1385:1 1428:1 1429:1 1432:1 1438:1 1439:1 1441:1 1451:1 1459:1 1473:1 1501:1 1514:1 1542:1 1556:1 1583:1 1591:1 1641:1 1697:1 1736:1 1825:1 1876:1 2016:1 2039:1 2064:1 2106:1 2138:1 2192:1 2245:1 2344:1 2354:1 2462:1 2599:1 2617:1 2657:1 2826:1 2859:1 2898:1 2980:1 2984:1 3005:1 3106:1 3114:1 3126:1 3132:1 3214:1 3282:1 3335:1 3400:1 3431:1 3446:1 3476:1 3678:1 3681:1 3724:1 4017:1 4029:1 4039:1 4138:1 4217:1 4268:1 4271:1 4456:1 4552:1 4885:1 4952:1 5035:1 5119:1 5163:1 5341:1 5400:1 5546:1 5834:1 6008:1 6086:1 6106:1 6180:1 6308:1 6599:1 6733:1 6748:1 6830:1 6966:1 7110:1 7251:1 7497:1 7675:1 7949:1 8184:1 8225:1 8338:1 8598:1 8615:1 9088:1 9126:1 9398:1 10347:1 10411:1 10626:1 #
0.0045622021618379879001614618516669 1:1 2:1 5:1 6:1 7:1 8:1 10:1 11:1 12:1 13:1 14:1 15:1 16:1 17:1 18:1 19:1 20:1 21:1 22:1 24:1 25:1 26:1 29:1 30:1 31:1 32:1 35:1 39:1 40:1 41:1 45:1 46:1 47:1 48:1 49:1 50:1 51:1 52:1 57:1 58:1 59:1 66:1 69:1 72:1 73:1 75:1 78:1 79:1 82:1 88:1 90:1 94:1 96:1 98:1 99:1 101:1 102:1 103:1 106:1 116:1 117:1 120:1 122:1 131:1 135:1 136:1 137:1 138:1 141:1 146:1 150:1 151:1 153:1 158:1 159:1 164:1 165:1 166:1 170:1 172:1 186:1 187:1 191:1 195:1 204:1 205:1 209:1 213:1 235:1 238:1 242:1 243:1 244:1 273:1 274:1 276:1 310:1 315:1 319:1 322:1 326:1 329:1 344:1 350:1 357:1 359:1 364:1 370:1 376:1 381:1 382:1 387:1 395:1 399:1 404:1 407:1 421:1 426:1 429:1 459:1 461:1 462:1 463:1 470:1 471:1 475:1 476:1 482:1 487:1 498:1 500:1 510:1 521:1 527:1 530:1 534:1 570:1 583:1 598:1 601:1 609:1 625:1 629:1 630:1 636:1 646:1 665:1 667:1 692:1 700:1 725:1 787:1 800:1 802:1 817:1 830:1 832:1 842:1 848:1 849:1 852:1 856:1 861:1 867:1 893:1 904:1 914:1 924:1 966:1 991:1 992:1 996:1 997:1 1027:1 1036:1 1048:1 1062:1 1071:1 1074:1 1122:1 1131:1 1383:1 1397:1 1442:1 1474:1 1476:1 1487:1 1510:1 1523:1 1531:1 1536:1 1537:1 1551:1 1583:1 1620:1 1621:1 1622:1 1650:1 1664:1 1676:1 1728:1 1744:1 1795:1 1801:1 1805:1 1850:1 1856:1 1873:1 1901:1 1931:1 1943:1 1944:1 1987:1 2093:1 2163:1 2183:1 2185:1 2240:1 2243:1 2366:1 2393:1 2396:1 2409:1 2413:1 2428:1 2433:1 2454:1 2468:1 2471:1 2529:1 2537:1 2542:1 2568:1 2704:1 2706:1 2733:1 2743:1 2811:1 2847:1 2915:1 2956:1 2961:1 2962:1 2966:1 2971:1 3021:1 3030:1 3082:1 3111:1 3128:1 3138:1 3221:1 3310:1 3327:1 3332:1 3372:1 3538:1 3555:1 3572:1 3587:1 3706:1 3833:1 3836:1 3877:1 3882:1 3935:1 3968:1 3971:1 4015:1 4035:1 4051:1 4058:1 4120:1 4187:1 4195:1 4263:1 4329:1 4422:1 4428:1 4565:1 4641:1 4790:1 4804:1 4836:1 4937:1 5497:1 5800:1 5982:1 6020:1 6210:1 6339:1 6365:1 6400:1 6438:1 6487:1 6527:1 6592:1 6718:1 6821:1 6871:1 6885:1 6899:1 7031:1 7059:1 7072:1 7182:1 7238:1 7309:1 7399:1 7430:1 7500:1 7583:1 7604:1 8282:1 8542:1 8673:1 9056:1 9304:1 9423:1 9473:1 9606:1 9963:1 10164:1 10170:1 10342:1 #
0.0045622021618379879001614618516669 2:1 3:1 4:1 6:1 8:1 11:1 12:1 14:1 15:1 16:1 17:1 18:1 20:1 21:1 23:1 24:1 25:1 27:1 28:1 29:1 30:1 32:1 34:1 35:1 36:1 42:1 44:1 45:1 51:1 52:1 54:1 55:1 63:1 67:1 69:1 73:1 77:1 80:1 81:1 82:1 84:1 86:1 90:1 92:1 93:1 94:1 95:1 96:1 99:1 101:1 102:1 104:1 106:1 108:1 111:1 112:1 114:1 116:1 118:1 129:1 130:1 131:1 137:1 146:1 149:1 153:1 161:1 163:1 168:1 170:1 175:1 181:1 185:1 186:1 187:1 194:1 195:1 196:1 197:1 199:1 202:1 214:1 220:1 221:1 223:1 227:1 228:1 231:1 232:1 236:1 237:1 238:1 242:1 247:1 250:1 252:1 264:1 268:1 270:1 275:1 277:1 279:1 280:1 286:1 308:1 316:1 321:1 323:1 325:1 326:1 331:1 333:1 346:1 347:1 350:1 364:1 369:1 377:1 381:1 383:1 397:1 408:1 420:1 440:1 451:1 452:1 455:1 475:1 478:1 480:1 491:1 493:1 495:1 496:1 497:1 499:1 510:1 526:1 529:1 553:1 557:1 566:1 581:1 600:1 630:1 637:1 642:1 649:1 651:1 653:1 654:1 694:1 701:1 709:1 716:1 755:1 758:1 773:1 789:1 807:1 808:1 815:1 820:1 828:1 829:1 843:1 845:1 857:1 873:1 899:1 912:1 952:1 955:1 963:1 987:1 988:1 1006:1 1008:1 1010:1 1012:1 1029:1 1044:1 1057:1 1067:1 1083:1 1099:1 1103:1 1184:1 1190:1 1240:1 1283:1 1370:1 1374:1 1384:1 1402:1 1416:1 1472:1 1476:1 1481:1 1513:1 1567:1 1587:1 1617:1 1626:1 1631:1 1636:1 1647:1 1671:1 1719:1 1733:1 1789:1 1827:1 1851:1 1861:1 1873:1 1888:1 1921:1 1986:1 2004:1 2051:1 2077:1 2106:1 2123:1 2160:1 2193:1 2222:1 2225:1 2233:1 2280:1 2310:1 2328:1 2368:1 2548:1 2709:1 2785:1 2833:1 2860:1 2974:1 2982:1 3020:1 3043:1 3098:1 3104:1 3113:1 3120:1 3147:1 3172:1 3184:1 3259:1 3262:1 3287:1 3315:1 3346:1 3397:1 3436:1 3482:1 3506:1 3597:1 3708:1 3756:1 3804:1 3874:1 3944:1 3974:1 4040:1 4183:1 4234:1 4245:1 4262:1 4290:1 4351:1 4432:1 4500:1 4539:1 4566:1 4612:1 4617:1 4694:1 4814:1 4859:1 4996:1 5221:1 5225:1 5343:1 5545:1 5578:1 5742:1 5758:1 6166:1 6238:1 6334:1 6413:1 6456:1 6491:1 6621:1 6697:1 7127:1 7237:1 7590:1 7703:1 7719:1 7812:1 7842:1 7903:1 7945:1 7948:1 8004:1 8006:1 8069:1 8115:1 8162:1 8190:1 8677:1 8694:1 9165:1 9188:1 9241:1 9273:1 9529:1 10459:1 10469:1 #
0.0045622021618379879001614618516669 1:1 2:1 4:1 7:1 8:1 10:1 12:1 13:1 16:1 17:1 18:1 20:1 21:1 22:1 23:1 24:1 26:1 28:1 29:1 30:1 32:1 34:1 36:1 40:1 41:1 42:1 47:1 54:1 62:1 67:1 69:1 74:1 78:1 79:1 81:1 83:1 84:1 85:1 86:1 93:1 94:1 95:1 97:1 98:1 102:1 103:1 104:1 111:1 115:1 129:1 131:1 133:1 136:1 146:1 147:1 153:1 156:1 158:1 163:1 165:1 167:1 170:1 175:1 184:1 185:1 187:1 196:1 202:1 210:1 214:1 218:1 221:1 224:1 226:1 234:1 236:1 248:1 252:1 268:1 269:1 275:1 277:1 279:1 304:1 325:1 333:1 335:1 346:1 351:1 353:1 364:1 381:1 396:1 397:1 399:1 408:1 416:1 420:1 423:1 429:1 440:1 446:1 463:1 476:1 478:1 479:1 481:1 491:1 496:1 497:1 500:1 509:1 523:1 529:1 533:1 575:1 608:1 629:1 642:1 649:1 669:1 742:1 750:1 758:1 763:1 774:1 789:1 796:1 803:1 808:1 810:1 811:1 831:1 843:1 854:1 867:1 945:1 946:1 964:1 978:1 980:1 988:1 1002:1 1008:1 1009:1 1010:1 1018:1 1057:1 1067:1 1155:1 1164:1 1200:1 1205:1 1374:1 1424:1 1439:1 1451:1 1461:1 1492:1 1494:1 1497:1 1513:1 1531:1 1557:1 1567:1 1620:1 1639:1 1644:1 1711:1 1715:1 1725:1 1763:1 1827:1 1986:1 2006:1 2030:1 2045:1 2095:1 2097:1 2100:1 2150:1 2161:1 2177:1 2193:1 2198:1 2199:1 2273:1 2291:1 2312:1 2350:1 2357:1 2375:1 2436:1 2547:1 2592:1 2613:1 2649:1 2709:1 2826:1 2859:1 2868:1 2904:1 2924:1 2937:1 2974:1 3020:1 3043:1 3086:1 3114:1 3144:1 3238:1 3548:1 3607:1 3775:1 3804:1 4026:1 4130:1 4194:1 4349:1 4353:1 4572:1 4824:1 4838:1 5024:1 5133:1 5345:1 5598:1 5915:1 5917:1 5954:1 6007:1 6011:1 6162:1 6214:1 6299:1 6403:1 6507:1 6932:1 7085:1 7122:1 7310:1 7631:1 7991:1 8467:1 8669:1 8706:1 8831:1 8853:1 8864:1 9067:1 9290:1 9534:1 9703:1 9918:1 9955:1 10052:1 10234:1 #
0.0045622021618379879001614618516669 1:1 2:1 9:1 11:1 12:1 15:1 16:1 17:1 18:1 19:1 20:1 23:1 24:1 27:1 30:1 32:1 34:1 36:1 40:1 52:1 54:1 59:1 61:1 62:1 67:1 71:1 77:1 78:1 83:1 84:1 85:1 86:1 91:1 93:1 102:1 103:1 104:1 106:1 111:1 112:1 117:1 125:1 129:1 130:1 136:1 147:1 149:1 150:1 155:1 159:1 163:1 169:1 170:1 175:1 185:1 214:1 224:1 225:1 232:1 234:1 242:1 250:1 270:1 277:1 325:1 333:1 342:1 349:1 357:1 381:1 408:1 428:1 435:1 448:1 450:1 452:1 456:1 458:1 467:1 479:1 491:1 497:1 502:1 526:1 529:1 581:1 608:1 628:1 629:1 635:1 636:1 649:1 653:1 659:1 674:1 725:1 750:1 757:1 758:1 796:1 813:1 843:1 878:1 912:1 928:1 936:1 1002:1 1006:1 1008:1 1010:1 1028:1 1044:1 1092:1 1205:1 1254:1 1257:1 1280:1 1370:1 1374:1 1388:1 1462:1 1480:1 1514:1 1518:1 1556:1 1583:1 1639:1 1751:1 1790:1 1827:1 1839:1 1851:1 1908:1 1977:1 1986:1 2050:1 2095:1 2097:1 2109:1 2117:1 2178:1 2193:1 2228:1 2348:1 2370:1 2429:1 2440:1 2532:1 2610:1 2675:1 2731:1 2733:1 2904:1 2974:1 2982:1 3004:1 3019:1 3287:1 3392:1 3688:1 3775:1 3783:1 3801:1 3915:1 3985:1 4210:1 4224:1 4245:1 4312:1 4425:1 4500:1 4534:1 4539:1 4617:1 4699:1 4703:1 4964:1 5222:1 5312:1 5395:1 5479:1 5527:1 5545:1 5663:1 5707:1 5797:1 5895:1 6007:1 6095:1 6116:1 6728:1 6845:1 7118:1 7239:1 7506:1 7553:1 8077:1 8327:1 8982:1 8987:1 8992:1 9138:1 9241:1 9273:1 9404:1 9677:1 9742:1 9955:1 10142:1 10189:1 10297:1 #
0.0045622021618379879001614618516669 1:1 5:1 8:1 9:1 11:1 12:1 13:1 14:1 15:1 16:1 17:1 19:1 20:1 21:1 22:1 24:1 25:1 27:1 28:1 30:1 31:1 32:1 34:1 36:1 39:1 40:1 48:1 51:1 56:1 57:1 62:1 66:1 67:1 68:1 72:1 73:1 75:1 84:1 90:1 91:1 93:1 94:1 95:1 98:1 102:1 103:1 104:1 107:1 112:1 114:1 115:1 123:1 124:1 126:1 128:1 130:1 131:1 138:1 146:1 149:1 153:1 158:1 159:1 160:1 167:1 168:1 170:1 172:1 177:1 181:1 187:1 195:1 198:1 202:1 204:1 209:1 215:1 225:1 227:1 230:1 232:1 236:1 238:1 245:1 253:1 266:1 268:1 282:1 286:1 295:1 308:1 325:1 331:1 332:1 350:1 353:1 357:1 369:1 381:1 388:1 392:1 399:1 408:1 416:1 434:1 436:1 440:1 445:1 452:1 453:1 473:1 478:1 480:1 481:1 495:1 526:1 533:1 553:1 601:1 602:1 623:1 644:1 649:1 651:1 652:1 657:1 695:1 709:1 745:1 755:1 758:1 767:1 789:1 790:1 802:1 803:1 808:1 817:1 836:1 839:1 867:1 875:1 894:1 905:1 945:1 988:1 1010:1 1026:1 1057:1 1089:1 1092:1 1094:1 1254:1 1275:1 1374:1 1458:1 1534:1 1551:1 1567:1 1591:1 1626:1 1639:1 1704:1 1851:1 1853:1 2030:1 2038:1 2042:1 2123:1 2163:1 2168:1 2183:1 2291:1 2318:1 2328:1 2368:1 2709:1 2833:1 3043:1 3086:1 3099:1 3190:1 3315:1 3346:1 3423:1 3432:1 3460:1 3552:1 3579:1 3785:1 3801:1 3804:1 3965:1 4029:1 4183:1 4212:1 4327:1 4448:1 4539:1 4572:1 4617:1 4676:1 4824:1 4844:1 4873:1 4946:1 5029:1 5045:1 5088:1 5096:1 5138:1 5178:1 5220:1 5252:1 5527:1 5560:1 5618:1 6105:1 6443:1 6530:1 6675:1 6693:1 6697:1 7044:1 7085:1 7254:1 7264:1 7475:1 7808:1 8211:1 8392:1 8424:1 9238:1 9960:1 10129:1 #
-0.0045622021618379879001614618516669 1:1 2:1 6:1 8:1 9:1 12:1 13:1 17:1 18:1 20:1 21:1 22:1 23:1 25:1 27:1 30:1 31:1 32:1 34:1 36:1 39:1 52:1 56:1 59:1 62:1 67:1 69:1 73:1 75:1 78:1 79:1 82:1 84:1 89:1 98:1 99:1 102:1 104:1 106:1 113:1 114:1 115:1 117:1 127:1 131:1 143:1 158:1 159:1 162:1 163:1 170:1 172:1 181:1 185:1 213:1 222:1 226:1 228:1 232:1 235:1 237:1 238:1 244:1 277:1 283:1 285:1 289:1 291:1 295:1 328:1 332:1 338:1 346:1 350:1 365:1 390:1 396:1 402:1 404:1 407:1 408:1 410:1 411:1 434:1 438:1 451:1 472:1 481:1 490:1 500:1 526:1 583:1 606:1 608:1 630:1 632:1 649:1 750:1 755:1 767:1 773:1 800:1 811:1 857:1 874:1 902:1 911:1 945:1 989:1 1006:1 1046:1 1085:1 1092:1 1100:1 1119:1 1122:1 1133:1 1185:1 1226:1 1374:1 1384:1 1385:1 1400:1 1416:1 1419:1 1427:1 1439:1 1456:1 1489:1 1493:1 1501:1 1506:1 1514:1 1527:1 1556:1 1568:1 1588:1 1609:1 1624:1 1819:1 1825:1 1837:1 1888:1 2040:1 2065:1 2123:1 2168:1 2438:1 2462:1 2470:1 2585:1 2826:1 2898:1 3043:1 3055:1 3104:1 3118:1 3122:1 3148:1 3222:1 3261:1 3337:1 3474:1 3476:1 3669:1 3819:1 3869:1 3923:1 4271:1 4296:1 4523:1 4559:1 4772:1 4891:1 4994:1 5002:1 5092:1 5111:1 5171:1 5179:1 5252:1 5315:1 5353:1 5890:1 5943:1 5960:1 6085:1 6380:1 6487:1 6507:1 6556:1 6599:1 6830:1 6951:1 7238:1 7679:1 8105:1 8229:1 8276:1 8429:1 8474:1 8481:1 8485:1 8534:1 8757:1 8974:1 9156:1 9268:1 9291:1 9348:1 9772:1 #
-0.0045622021618379879001614618516669 1:1 6:1 8:1 9:1 10:1 11:1 12:1 15:1 16:1 17:1 18:1 19:1 20:1 25:1 29:1 30:1 31:1 36:1 41:1 43:1 51:1 52:1 53:1 54:1 56:1 59:1 60:1 66:1 67:1 69:1 72:1 73:1 80:1 81:1 82:1 98:1 101:1 102:1 103:1 109:1 111:1 113:1 120:1 124:1 131:1 137:1 140:1 149:1 152:1 163:1 170:1 174:1 177:1 185:1 186:1 195:1 200:1 213:1 219:1 227:1 232:1 244:1 253:1 266:1 279:1 289:1 290:1 293:1 295:1 335:1 343:1 353:1 358:1 363:1 371:1 387:1 402:1 408:1 410:1 432:1 434:1 438:1 440:1 456:1 472:1 481:1 486:1 490:1 500:1 515:1 630:1 642:1 649:1 667:1 696:1 716:1 725:1 749:1 758:1 759:1 798:1 813:1 815:1 849:1 894:1 947:1 959:1 989:1 1008:1 1042:1 1057:1 1089:1 1138:1 1144:1 1149:1 1169:1 1174:1 1188:1 1280:1 1333:1 1374:1 1385:1 1400:1 1403:1 1416:1 1426:1 1445:1 1446:1 1447:1 1493:1 1506:1 1514:1 1527:1 1534:1 1556:1 1733:1 1824:1 1845:1 1887:1 2038:1 2082:1 2178:1 2237:1 2471:1 2538:1 2664:1 2681:1 2684:1 2698:1 2898:1 3190:1 3222:1 3248:1 3271:1 3309:1 3463:1 3618:1 3669:1 3692:1 4181:1 4225:1 4231:1 4292:1 4381:1 4385:1 4482:1 4498:1 4692:1 4772:1 4994:1 5002:1 5092:1 5110:1 5220:1 5260:1 5604:1 5706:1 5960:1 6599:1 6621:1 6830:1 7206:1 7512:1 8154:1 8207:1 8229:1 8429:1 8509:1 8567:1 8660:1 8788:1 9047:1 9107:1 9156:1 9742:1 9884:1 9921:1 10127:1 10571:1 10610:1 #
-0.0045622021618379879001614618516669 1:1 6:1 7:1 9:1 10:1 11:1 12:1 15:1 16:1 17:1 18:1 20:1 22:1 23:1 24:1 25:1 28:1 29:1 30:1 32:1 36:1 44:1 45:1 46:1 49:1 50:1 51:1 52:1 56:1 58:1 59:1 69:1 75:1 78:1 81:1 84:1 90:1 96:1 97:1 98:1 99:1 101:1 102:1 103:1 112:1 114:1 119:1 120:1 125:1 127:1 135:1 137:1 147:1 149:1 152:1 155:1 158:1 170:1 171:1 174:1 179:1 181:1 187:1 195:1 198:1 199:1 203:1 204:1 207:1 209:1 213:1 218:1 219:1 220:1 221:1 227:1 230:1 231:1 236:1 239:1 241:1 242:1 244:1 264:1 268:1 270:1 279:1 289:1 293:1 295:1 308:1 318:1 322:1 323:1 324:1 325:1 328:1 331:1 335:1 337:1 339:1 341:1 347:1 376:1 382:1 383:1 410:1 416:1 427:1 440:1 443:1 451:1 481:1 485:1 490:1 500:1 528:1 529:1 553:1 630:1 636:1 641:1 642:1 644:1 661:1 666:1 667:1 716:1 725:1 745:1 750:1 752:1 755:1 758:1 780:1 788:1 795:1 805:1 818:1 820:1 842:1 868:1 899:1 928:1 944:1 997:1 999:1 1015:1 1035:1 1046:1 1071:1 1092:1 1111:1 1134:1 1138:1 1162:1 1165:1 1228:1 1302:1 1369:1 1400:1 1403:1 1439:1 1457:1 1462:1 1473:1 1492:1 1501:1 1514:1 1527:1 1534:1 1536:1 1550:1 1646:1 1659:1 1672:1 1750:1 1797:1 1807:1 1881:1 1894:1 2042:1 2062:1 2082:1 2190:1 2222:1 2360:1 2368:1 2442:1 2602:1 2662:1 2705:1 2715:1 2739:1 2772:1 2774:1 2814:1 2815:1 2981:1 2987:1 3068:1 3194:1 3272:1 3295:1 3392:1 3654:1 3669:1 3692:1 3700:1 4126:1 4173:1 4183:1 4231:1 4271:1 4292:1 4325:1 4409:1 4586:1 4588:1 4717:1 4793:1 4950:1 4994:1 5337:1 5411:1 5450:1 5453:1 5464:1 5527:1 5731:1 5753:1 5960:1 6839:1 6858:1 6877:1 6880:1 6888:1 6900:1 7255:1 7950:1 8207:1 8466:1 8655:1 8660:1 8855:1 8974:1 9161:1 9319:1 9411:1 9423:1 9667:1 9714:1 9913:1 10009:1 10015:1 10062:1 10261:1 10489:1 10743:1 #
-0.0045622021618379879001614618516669 6:1 8:1 9:1 10:1 12:1 13:1 14:1 15:1 16:1 18:1 20:1 22:1 23:1 25:1 26:1 27:1 30:1 31:1 32:1 34:1 36:1 51:1 52:1 53:1 56:1 60:1 62:1 65:1 68:1 69:1 73:1 74:1 75:1 79:1 81:1 82:1 84:1 89:1 99:1 102:1 103:1 104:1 107:1 111:1 112:1 115:1 128:1 131:1 140:1 159:1 177:1 181:1 186:1 199:1 200:1 219:1 221:1 222:1 227:1 230:1 232:1 235:1 236:1 244:1 253:1 266:1 267:1 278:1 284:1 289:1 291:1 295:1 307:1 325:1 357:1 388:1 399:1 402:1 408:1 426:1 434:1 438:1 452:1 455:1 466:1 481:1 495:1 496:1 515:1 543:1 553:1 581:1 606:1 643:1 656:1 658:1 660:1 696:1 701:1 724:1 725:1 745:1 750:1 755:1 758:1 759:1 800:1 815:1 827:1 836:1 840:1 860:1 905:1 945:1 949:1 986:1 988:1 989:1 1028:1 1032:1 1042:1 1067:1 1086:1 1162:1 1200:1 1226:1 1274:1 1287:1 1374:1 1403:1 1459:1 1473:1 1534:1 1538:1 1556:1 1567:1 1618:1 1639:1 1697:1 1719:1 1797:1 1808:1 1910:1 1929:1 1963:1 2027:1 2106:1 2109:1 2123:1 2194:1 2309:1 2350:1 2368:1 2417:1 2446:1 2488:1 2682:1 2684:1 2698:1 2715:1 2826:1 2831:1 3043:1 3051:1 3086:1 3095:1 3104:1 3120:1 3128:1 3262:1 3272:1 3315:1 3391:1 3440:1 3519:1 3723:1 3782:1 3801:1 3813:1 3868:1 3988:1 3999:1 4019:1 4183:1 4231:1 4271:1 4292:1 4336:1 4397:1 4549:1 4564:1 4575:1 4617:1 4676:1 4717:1 4808:1 4814:1 4871:1 5063:1 5092:1 5220:1 5317:1 5560:1 5571:1 5576:1 5960:1 6029:1 6106:1 6222:1 6376:1 6393:1 6456:1 6599:1 6830:1 7540:1 7742:1 7820:1 8207:1 8211:1 8229:1 8424:1 8598:1 8660:1 8878:1 8974:1 9621:1 9708:1 #
