SVM-light Version V6.02
0 # kernel type
3 # kernel parameter -d 
1 # kernel parameter -g 
1 # kernel parameter -s 
1 # kernel parameter -r 
empty# kernel parameter -u 
10746 # highest feature index 
1325 # number of training documents 
528 # number of support vectors plus 1 
0.90382236 # threshold b, each following line is a SV (starting with alpha*y)
-0.001692208079098732505241020618314 1:1 5:1 10:1 12:1 16:1 17:1 18:1 21:1 22:1 23:1 24:1 25:1 27:1 29:1 30:1 32:1 34:1 36:1 39:1 42:1 44:1 48:1 51:1 52:1 54:1 57:1 62:1 66:1 67:1 68:1 69:1 78:1 81:1 82:1 84:1 86:1 94:1 95:1 101:1 104:1 105:1 112:1 113:1 114:1 117:1 124:1 130:1 131:1 136:1 146:1 150:1 158:1 160:1 170:1 175:1 185:1 196:1 199:1 202:1 213:1 215:1 222:1 226:1 232:1 238:1 277:1 278:1 293:1 295:1 304:1 308:1 318:1 321:1 325:1 331:1 333:1 339:1 355:1 364:1 378:1 388:1 400:1 407:1 408:1 410:1 424:1 445:1 452:1 464:1 473:1 475:1 491:1 502:1 529:1 564:1 566:1 581:1 608:1 612:1 630:1 640:1 649:1 653:1 674:1 750:1 758:1 789:1 802:1 806:1 810:1 816:1 821:1 899:1 909:1 912:1 922:1 955:1 988:1 1008:1 1009:1 1026:1 1061:1 1071:1 1079:1 1149:1 1161:1 1173:1 1175:1 1240:1 1374:1 1383:1 1420:1 1427:1 1461:1 1476:1 1503:1 1551:1 1567:1 1568:1 1584:1 1591:1 1646:1 1647:1 1655:1 1827:1 1851:1 1971:1 1986:1 2034:1 2052:1 2077:1 2104:1 2163:1 2193:1 2233:1 2300:1 2372:1 2392:1 2470:1 2486:1 2674:1 2709:1 2875:1 2904:1 2974:1 3020:1 3043:1 3060:1 3100:1 3120:1 3128:1 3204:1 3257:1 3315:1 3335:1 3350:1 3449:1 3465:1 3472:1 3474:1 3482:1 3519:1 3538:1 3553:1 3578:1 3607:1 3649:1 3723:1 3750:1 3775:1 3868:1 4032:1 4096:1 4177:1 4210:1 4256:1 4327:1 4397:1 4459:1 4539:1 4559:1 4658:1 4694:1 4781:1 4824:1 4844:1 4894:1 4956:1 4998:1 5101:1 5138:1 5252:1 5256:1 5261:1 5345:1 5399:1 5420:1 5423:1 5473:1 5593:1 5598:1 5790:1 5814:1 5855:1 5905:1 5917:1 5925:1 6105:1 6192:1 6275:1 6277:1 6344:1 6392:1 6413:1 6898:1 6914:1 6927:1 6943:1 6966:1 6983:1 7001:1 7016:1 7068:1 7073:1 7139:1 7224:1 7651:1 7684:1 7841:1 8021:1 8029:1 8237:1 8452:1 8485:1 8586:1 8831:1 8843:1 9023:1 9075:1 9252:1 9272:1 9356:1 9376:1 9458:1 9508:1 9703:1 9733:1 9787:1 9877:1 9967:1 10187:1 10297:1 10498:1 10524:1 #
-0.004374232019613822318448992376716 1:1 6:1 9:1 12:1 16:1 18:1 20:1 22:1 23:1 25:1 29:1 30:1 31:1 34:1 36:1 38:1 41:1 47:1 52:1 56:1 62:1 63:1 66:1 67:1 77:1 78:1 81:1 84:1 86:1 91:1 94:1 98:1 102:1 103:1 104:1 113:1 122:1 129:1 131:1 133:1 137:1 146:1 153:1 158:1 159:1 163:1 170:1 177:1 187:1 202:1 209:1 216:1 220:1 222:1 223:1 228:1 270:1 277:1 283:1 305:1 307:1 308:1 325:1 332:1 333:1 372:1 379:1 381:1 405:1 408:1 410:1 434:1 447:1 452:1 463:1 478:1 493:1 502:1 557:1 581:1 632:1 649:1 687:1 703:1 708:1 755:1 758:1 773:1 820:1 857:1 897:1 945:1 963:1 1008:1 1009:1 1044:1 1046:1 1057:1 1067:1 1099:1 1100:1 1118:1 1148:1 1205:1 1258:1 1268:1 1275:1 1374:1 1432:1 1495:1 1513:1 1514:1 1518:1 1520:1 1525:1 1568:1 1580:1 1636:1 1639:1 1690:1 1750:1 1789:1 1796:1 1951:1 2030:1 2077:1 2097:1 2123:1 2233:1 2257:1 2280:1 2462:1 2585:1 2664:1 2695:1 2898:1 2959:1 3043:1 3078:1 3104:1 3106:1 3112:1 3120:1 3132:1 3341:1 3629:1 3714:1 3749:1 3804:1 4050:1 4075:1 4078:1 4539:1 4617:1 4677:1 4909:1 5002:1 5222:1 5417:1 5576:1 5710:1 5921:1 6758:1 6855:1 6920:1 7211:1 7284:1 7842:1 7873:1 8197:1 8221:1 8264:1 8683:1 9445:1 10095:1 10227:1 10442:1 10493:1 #
-0.004374232019613822318448992376716 1:1 3:1 5:1 6:1 8:1 10:1 11:1 12:1 14:1 15:1 16:1 18:1 19:1 20:1 21:1 24:1 25:1 27:1 29:1 30:1 34:1 36:1 39:1 44:1 48:1 50:1 56:1 57:1 58:1 62:1 65:1 68:1 69:1 72:1 76:1 84:1 89:1 94:1 95:1 97:1 98:1 100:1 103:1 104:1 106:1 109:1 113:1 114:1 116:1 121:1 125:1 128:1 138:1 151:1 168:1 172:1 177:1 179:1 192:1 198:1 202:1 216:1 243:1 251:1 279:1 280:1 287:1 307:1 308:1 323:1 332:1 333:1 366:1 382:1 388:1 390:1 394:1 417:1 430:1 435:1 445:1 457:1 467:1 472:1 498:1 545:1 575:1 581:1 594:1 628:1 633:1 638:1 645:1 689:1 691:1 700:1 702:1 755:1 758:1 815:1 849:1 863:1 892:1 900:1 926:1 932:1 951:1 974:1 1037:1 1090:1 1178:1 1467:1 1504:1 1555:1 1568:1 1580:1 1607:1 1713:1 1831:1 1847:1 2036:1 2232:1 2293:1 2371:1 2385:1 2562:1 2615:1 2674:1 2718:1 3084:1 3271:1 3438:1 3595:1 3607:1 3774:1 3830:1 3896:1 3938:1 3960:1 4101:1 4337:1 4467:1 4477:1 4908:1 4961:1 5081:1 5138:1 5193:1 5373:1 5397:1 5608:1 5686:1 6430:1 6497:1 6548:1 6641:1 6926:1 8153:1 8154:1 8674:1 8828:1 8931:1 9864:1 9882:1 10161:1 10190:1 #
-0.0042629440345748614848986335346126 1:1 2:1 5:1 7:1 9:1 10:1 11:1 12:1 15:1 16:1 17:1 18:1 19:1 20:1 21:1 22:1 23:1 24:1 25:1 26:1 29:1 30:1 31:1 37:1 40:1 46:1 47:1 51:1 53:1 54:1 58:1 62:1 65:1 70:1 72:1 73:1 75:1 78:1 88:1 89:1 98:1 102:1 103:1 114:1 117:1 127:1 130:1 131:1 138:1 139:1 146:1 158:1 167:1 170:1 179:1 183:1 197:1 203:1 207:1 221:1 230:1 235:1 244:1 261:1 262:1 267:1 273:1 283:1 300:1 351:1 372:1 387:1 390:1 404:1 413:1 423:1 432:1 434:1 488:1 490:1 498:1 502:1 555:1 562:1 612:1 615:1 624:1 632:1 635:1 636:1 640:1 653:1 658:1 698:1 755:1 761:1 763:1 783:1 809:1 815:1 817:1 818:1 833:1 835:1 856:1 903:1 916:1 917:1 919:1 950:1 968:1 994:1 996:1 1037:1 1043:1 1066:1 1085:1 1111:1 1119:1 1122:1 1142:1 1208:1 1215:1 1372:1 1398:1 1408:1 1411:1 1433:1 1514:1 1570:1 1620:1 1683:1 1726:1 1760:1 1784:1 1808:1 1842:1 2104:1 2106:1 2170:1 2222:1 2239:1 2246:1 2338:1 2385:1 2440:1 2562:1 2630:1 2826:1 2898:1 2959:1 2972:1 3005:1 3076:1 3089:1 3221:1 3252:1 3297:1 3530:1 3562:1 3585:1 3641:1 3703:1 3733:1 3805:1 4078:1 4321:1 4581:1 5148:1 5163:1 5177:1 5228:1 5412:1 5467:1 5553:1 5578:1 5608:1 5631:1 5758:1 5759:1 5841:1 5963:1 6106:1 6147:1 6278:1 6835:1 7231:1 7498:1 7499:1 7797:1 8394:1 8689:1 10126:1 10179:1 10215:1 10292:1 10492:1 10681:1 #
-0.004374232019613822318448992376716 1:1 2:1 5:1 7:1 8:1 9:1 10:1 12:1 13:1 15:1 16:1 17:1 18:1 20:1 23:1 25:1 26:1 28:1 29:1 30:1 32:1 34:1 38:1 40:1 46:1 47:1 51:1 52:1 60:1 62:1 67:1 75:1 77:1 79:1 81:1 84:1 86:1 91:1 102:1 103:1 104:1 107:1 113:1 114:1 117:1 118:1 119:1 125:1 127:1 131:1 149:1 155:1 156:1 159:1 163:1 167:1 169:1 170:1 171:1 175:1 176:1 178:1 182:1 186:1 187:1 188:1 202:1 203:1 207:1 214:1 215:1 216:1 220:1 221:1 222:1 224:1 231:1 234:1 236:1 241:1 242:1 243:1 244:1 255:1 264:1 273:1 275:1 277:1 281:1 282:1 297:1 300:1 317:1 320:1 325:1 326:1 330:1 333:1 335:1 347:1 351:1 353:1 354:1 355:1 364:1 381:1 383:1 385:1 387:1 390:1 392:1 403:1 404:1 413:1 424:1 446:1 451:1 452:1 454:1 456:1 472:1 478:1 490:1 497:1 500:1 513:1 529:1 551:1 558:1 595:1 600:1 601:1 608:1 614:1 615:1 620:1 628:1 631:1 672:1 702:1 750:1 752:1 755:1 757:1 758:1 792:1 795:1 806:1 817:1 833:1 835:1 837:1 840:1 851:1 857:1 865:1 866:1 874:1 888:1 894:1 910:1 919:1 928:1 937:1 945:1 953:1 956:1 989:1 996:1 1009:1 1037:1 1039:1 1054:1 1058:1 1065:1 1067:1 1077:1 1085:1 1094:1 1105:1 1111:1 1144:1 1150:1 1152:1 1155:1 1173:1 1185:1 1200:1 1206:1 1222:1 1258:1 1395:1 1432:1 1439:1 1446:1 1489:1 1492:1 1506:1 1508:1 1513:1 1516:1 1550:1 1564:1 1566:1 1572:1 1574:1 1660:1 1737:1 1742:1 1795:1 1827:1 1836:1 1840:1 1849:1 1874:1 1891:1 1897:1 2042:1 2064:1 2067:1 2078:1 2107:1 2224:1 2229:1 2249:1 2291:1 2318:1 2356:1 2408:1 2417:1 2418:1 2432:1 2436:1 2471:1 2584:1 2616:1 2652:1 2682:1 2713:1 2778:1 2901:1 2912:1 2964:1 3017:1 3078:1 3087:1 3089:1 3120:1 3142:1 3205:1 3584:1 3724:1 3725:1 4108:1 4134:1 4341:1 4624:1 4975:1 5220:1 5264:1 5593:1 5740:1 5749:1 5771:1 5963:1 6182:1 6272:1 6447:1 6554:1 6593:1 6920:1 7538:1 7579:1 7932:1 8298:1 8379:1 8483:1 8579:1 8669:1 8747:1 8767:1 9266:1 9272:1 9874:1 9896:1 9966:1 10019:1 10328:1 10392:1 #
-0.002704210301973358505228661741171 22:1 25:1 30:1 44:1 54:1 66:1 84:1 113:1 150:1 213:1 217:1 333:1 482:1 502:1 635:1 695:1 1002:1 1008:1 1208:1 1536:1 1568:1 1744:1 1915:1 2086:1 2981:1 3363:1 3677:1 3756:1 5193:1 6651:1 8102:1 9870:1 10351:1 #
-0.00099147928220381974576125294618123 1:1 3:1 6:1 10:1 11:1 12:1 14:1 15:1 16:1 17:1 18:1 19:1 20:1 21:1 22:1 24:1 25:1 27:1 29:1 30:1 31:1 32:1 34:1 35:1 36:1 37:1 44:1 45:1 49:1 51:1 54:1 66:1 71:1 73:1 75:1 78:1 82:1 84:1 87:1 89:1 98:1 100:1 102:1 104:1 105:1 106:1 113:1 114:1 115:1 117:1 120:1 121:1 122:1 125:1 128:1 138:1 140:1 143:1 148:1 150:1 155:1 156:1 158:1 164:1 172:1 187:1 192:1 200:1 209:1 212:1 213:1 218:1 221:1 230:1 232:1 233:1 243:1 244:1 252:1 254:1 265:1 266:1 283:1 287:1 289:1 293:1 301:1 303:1 313:1 320:1 324:1 334:1 341:1 357:1 377:1 387:1 388:1 401:1 407:1 411:1 416:1 427:1 433:1 434:1 464:1 471:1 475:1 482:1 499:1 521:1 544:1 552:1 554:1 564:1 566:1 601:1 610:1 613:1 628:1 632:1 642:1 645:1 647:1 657:1 669:1 688:1 743:1 763:1 764:1 768:1 769:1 781:1 794:1 800:1 802:1 806:1 815:1 828:1 843:1 848:1 855:1 866:1 875:1 895:1 917:1 926:1 943:1 975:1 989:1 1012:1 1049:1 1090:1 1092:1 1111:1 1112:1 1138:1 1180:1 1200:1 1228:1 1374:1 1378:1 1380:1 1383:1 1467:1 1470:1 1476:1 1487:1 1496:1 1555:1 1556:1 1565:1 1568:1 1592:1 1626:1 1661:1 1672:1 1694:1 1755:1 1791:1 1804:1 1819:1 1915:1 1975:1 2072:1 2093:1 2101:1 2117:1 2121:1 2193:1 2368:1 2439:1 2442:1 2484:1 2588:1 2767:1 2789:1 2801:1 2813:1 2915:1 3144:1 3154:1 3364:1 3369:1 3434:1 3457:1 3464:1 3528:1 3625:1 3659:1 3690:1 3756:1 3774:1 4058:1 4239:1 4287:1 4296:1 4351:1 4366:1 4471:1 4531:1 4580:1 4739:1 4963:1 5017:1 5253:1 5557:1 5576:1 5596:1 5931:1 5934:1 6238:1 6539:1 6693:1 6704:1 6743:1 7217:1 7232:1 7457:1 7529:1 7952:1 8184:1 8735:1 8761:1 8926:1 8972:1 8983:1 9107:1 9295:1 9423:1 9637:1 9895:1 10016:1 10133:1 10320:1 10444:1 10526:1 10638:1 #
-0.0037897245445560954861530245096901 1:1 4:1 7:1 11:1 15:1 16:1 17:1 18:1 20:1 21:1 24:1 25:1 29:1 31:1 32:1 34:1 35:1 41:1 49:1 51:1 54:1 57:1 62:1 65:1 66:1 70:1 75:1 79:1 84:1 89:1 90:1 96:1 98:1 99:1 101:1 102:1 103:1 112:1 114:1 116:1 125:1 131:1 138:1 143:1 154:1 162:1 167:1 168:1 170:1 172:1 177:1 179:1 186:1 194:1 195:1 199:1 201:1 216:1 221:1 231:1 233:1 234:1 252:1 254:1 263:1 266:1 275:1 277:1 279:1 287:1 293:1 301:1 302:1 315:1 320:1 325:1 335:1 344:1 347:1 350:1 356:1 374:1 375:1 385:1 390:1 400:1 416:1 420:1 452:1 460:1 476:1 482:1 498:1 502:1 527:1 585:1 598:1 615:1 630:1 632:1 635:1 637:1 641:1 645:1 708:1 723:1 724:1 725:1 728:1 758:1 791:1 820:1 825:1 834:1 835:1 839:1 849:1 888:1 889:1 917:1 922:1 962:1 967:1 1008:1 1015:1 1023:1 1037:1 1058:1 1062:1 1066:1 1075:1 1079:1 1086:1 1087:1 1096:1 1102:1 1116:1 1125:1 1133:1 1228:1 1251:1 1258:1 1283:1 1292:1 1400:1 1401:1 1416:1 1433:1 1445:1 1457:1 1465:1 1490:1 1514:1 1518:1 1534:1 1546:1 1555:1 1620:1 1652:1 1726:1 1819:1 1832:1 1850:1 1997:1 2011:1 2055:1 2067:1 2070:1 2104:1 2145:1 2154:1 2163:1 2168:1 2177:1 2189:1 2218:1 2246:1 2346:1 2415:1 2462:1 2471:1 2541:1 2748:1 2778:1 2780:1 2959:1 2992:1 3005:1 3017:1 3031:1 3121:1 3128:1 3129:1 3153:1 3165:1 3239:1 3261:1 3339:1 3379:1 3381:1 3424:1 3471:1 3660:1 3895:1 3970:1 4029:1 4059:1 4071:1 4118:1 4313:1 4338:1 4421:1 4467:1 4531:1 4551:1 4589:1 4831:1 4960:1 4973:1 5039:1 5136:1 5210:1 5418:1 5422:1 5467:1 5517:1 5558:1 5575:1 5617:1 5625:1 5963:1 5990:1 6068:1 6110:1 6294:1 6374:1 6387:1 6536:1 6693:1 6807:1 6927:1 7043:1 7309:1 7310:1 7915:1 7955:1 7987:1 8152:1 8173:1 8561:1 8687:1 8749:1 8814:1 8985:1 9442:1 9645:1 10099:1 10261:1 10573:1 #
0.0041296139539678021826429876739439 1:1 4:1 7:1 11:1 12:1 15:1 16:1 17:1 20:1 21:1 22:1 23:1 24:1 25:1 26:1 27:1 28:1 30:1 31:1 32:1 36:1 38:1 40:1 41:1 46:1 47:1 51:1 52:1 59:1 61:1 62:1 67:1 69:1 73:1 75:1 76:1 77:1 89:1 90:1 93:1 94:1 95:1 98:1 102:1 103:1 109:1 113:1 119:1 120:1 123:1 124:1 125:1 127:1 129:1 130:1 131:1 132:1 133:1 137:1 146:1 147:1 149:1 152:1 159:1 164:1 167:1 170:1 175:1 182:1 185:1 187:1 188:1 193:1 197:1 198:1 199:1 204:1 206:1 210:1 215:1 217:1 218:1 220:1 221:1 224:1 228:1 231:1 232:1 244:1 255:1 264:1 281:1 282:1 286:1 293:1 297:1 300:1 304:1 305:1 307:1 308:1 314:1 315:1 321:1 329:1 333:1 335:1 341:1 344:1 347:1 351:1 353:1 354:1 365:1 369:1 378:1 383:1 385:1 391:1 399:1 401:1 408:1 423:1 425:1 428:1 436:1 440:1 442:1 456:1 464:1 471:1 472:1 477:1 488:1 491:1 497:1 529:1 536:1 541:1 548:1 551:1 554:1 561:1 569:1 632:1 640:1 646:1 647:1 649:1 654:1 664:1 669:1 675:1 681:1 688:1 714:1 716:1 725:1 746:1 748:1 750:1 751:1 753:1 758:1 763:1 766:1 772:1 773:1 802:1 809:1 835:1 843:1 874:1 893:1 900:1 935:1 937:1 939:1 955:1 956:1 963:1 988:1 994:1 995:1 1008:1 1044:1 1087:1 1092:1 1093:1 1107:1 1180:1 1205:1 1259:1 1279:1 1284:1 1372:1 1374:1 1427:1 1442:1 1492:1 1494:1 1514:1 1517:1 1524:1 1579:1 1729:1 1746:1 1750:1 1782:1 1802:1 1827:1 1840:1 1845:1 1849:1 1986:1 2078:1 2097:1 2147:1 2149:1 2168:1 2193:1 2298:1 2369:1 2416:1 2462:1 2470:1 2603:1 2613:1 2790:1 2898:1 3040:1 3071:1 3078:1 3098:1 3101:1 3119:1 3144:1 3215:1 3244:1 3365:1 3390:1 3457:1 3562:1 3575:1 3621:1 3629:1 3666:1 3804:1 3905:1 4007:1 4021:1 4072:1 4117:1 4173:1 4254:1 4293:1 4296:1 4308:1 4312:1 4359:1 4366:1 4406:1 4439:1 4444:1 4503:1 4617:1 4706:1 4921:1 5026:1 5076:1 5279:1 5343:1 5387:1 5742:1 5931:1 5990:1 6019:1 6024:1 6105:1 6163:1 6201:1 6289:1 6609:1 6647:1 6873:1 6917:1 7091:1 7349:1 7350:1 7583:1 7791:1 7836:1 8003:1 8162:1 8179:1 8359:1 8377:1 8483:1 8838:1 8845:1 9118:1 9587:1 9739:1 9821:1 9881:1 10095:1 10158:1 10233:1 10310:1 10355:1 10584:1 #
0.0023061968668901767706702621296699 1:1 2:1 5:1 6:1 8:1 11:1 12:1 15:1 16:1 17:1 18:1 19:1 20:1 22:1 24:1 25:1 27:1 30:1 31:1 32:1 36:1 39:1 41:1 45:1 51:1 52:1 54:1 59:1 61:1 62:1 66:1 67:1 69:1 73:1 77:1 78:1 80:1 86:1 87:1 89:1 90:1 93:1 94:1 95:1 96:1 98:1 102:1 103:1 106:1 109:1 112:1 114:1 115:1 116:1 120:1 129:1 130:1 131:1 137:1 146:1 149:1 152:1 155:1 161:1 163:1 170:1 172:1 174:1 185:1 195:1 196:1 197:1 199:1 210:1 213:1 215:1 216:1 221:1 226:1 231:1 232:1 244:1 245:1 250:1 265:1 270:1 277:1 278:1 286:1 295:1 296:1 326:1 331:1 337:1 345:1 357:1 387:1 405:1 408:1 440:1 463:1 480:1 485:1 490:1 510:1 553:1 554:1 575:1 581:1 600:1 606:1 608:1 618:1 628:1 630:1 660:1 708:1 716:1 725:1 746:1 758:1 767:1 773:1 798:1 808:1 816:1 817:1 840:1 842:1 845:1 847:1 862:1 866:1 872:1 873:1 881:1 889:1 891:1 905:1 943:1 945:1 947:1 959:1 964:1 977:1 983:1 989:1 996:1 1009:1 1021:1 1028:1 1087:1 1280:1 1392:1 1408:1 1422:1 1432:1 1438:1 1445:1 1476:1 1551:1 1574:1 1597:1 1626:1 1878:1 1904:1 1906:1 1964:1 2027:1 2151:1 2163:1 2232:1 2280:1 2306:1 2394:1 2554:1 2743:1 2774:1 2956:1 3105:1 3122:1 3147:1 3315:1 3325:1 3357:1 3493:1 3669:1 3681:1 4014:1 4062:1 4253:1 4876:1 4956:1 5002:1 5136:1 5145:1 5262:1 5399:1 5403:1 5558:1 5673:1 5747:1 5903:1 5961:1 6374:1 6684:1 6808:1 7117:1 7209:1 7769:1 8474:1 8510:1 9178:1 9328:1 9438:1 9452:1 10054:1 10678:1 #
-0.004374232019613822318448992376716 8:1 9:1 11:1 12:1 13:1 15:1 16:1 17:1 18:1 22:1 23:1 24:1 25:1 27:1 29:1 30:1 31:1 32:1 35:1 36:1 47:1 52:1 62:1 65:1 66:1 67:1 68:1 72:1 73:1 76:1 79:1 83:1 84:1 86:1 89:1 90:1 95:1 98:1 102:1 104:1 106:1 114:1 117:1 119:1 120:1 124:1 127:1 129:1 130:1 133:1 134:1 136:1 137:1 138:1 143:1 146:1 149:1 153:1 159:1 161:1 163:1 164:1 174:1 175:1 185:1 195:1 196:1 197:1 199:1 202:1 208:1 211:1 213:1 214:1 220:1 221:1 224:1 228:1 231:1 232:1 233:1 236:1 242:1 253:1 262:1 264:1 268:1 278:1 279:1 295:1 300:1 308:1 333:1 335:1 338:1 340:1 351:1 357:1 364:1 381:1 384:1 389:1 403:1 404:1 424:1 425:1 440:1 447:1 451:1 452:1 472:1 480:1 491:1 493:1 494:1 497:1 529:1 559:1 566:1 601:1 605:1 608:1 626:1 630:1 644:1 649:1 676:1 700:1 716:1 725:1 750:1 753:1 755:1 758:1 760:1 767:1 773:1 775:1 796:1 798:1 807:1 817:1 819:1 821:1 874:1 887:1 889:1 935:1 945:1 985:1 987:1 996:1 999:1 1002:1 1008:1 1009:1 1018:1 1021:1 1022:1 1067:1 1083:1 1087:1 1112:1 1123:1 1131:1 1147:1 1155:1 1279:1 1384:1 1397:1 1414:1 1438:1 1456:1 1471:1 1525:1 1549:1 1551:1 1556:1 1565:1 1587:1 1591:1 1603:1 1624:1 1649:1 1742:1 1755:1 1761:1 1802:1 1810:1 1817:1 1819:1 1827:1 1853:1 1868:1 1874:1 1986:1 2014:1 2091:1 2136:1 2151:1 2193:1 2267:1 2370:1 2373:1 2440:1 2563:1 2569:1 2674:1 2705:1 2783:1 2905:1 3004:1 3005:1 3089:1 3234:1 3289:1 3325:1 3370:1 3394:1 3467:1 3557:1 4126:1 4194:1 4225:1 4280:1 4302:1 4568:1 4747:1 5114:1 5267:1 5431:1 5439:1 5529:1 5681:1 5830:1 6315:1 6448:1 6563:1 6740:1 6808:1 7187:1 7212:1 7237:1 7485:1 7610:1 8097:1 8142:1 8338:1 8400:1 8510:1 8807:1 9294:1 9394:1 9537:1 9690:1 9739:1 9821:1 10206:1 10599:1 10684:1 #
0.004374232019613822318448992376716 22:1 59:1 67:1 85:1 113:1 125:1 156:1 163:1 222:1 275:1 277:1 472:1 558:1 803:1 809:1 1002:1 1200:1 2228:1 3127:1 3853:1 4904:1 5395:1 7611:1 9118:1 #
-0.004374232019613822318448992376716 5:1 7:1 11:1 16:1 18:1 20:1 22:1 24:1 25:1 27:1 28:1 29:1 30:1 31:1 32:1 35:1 38:1 39:1 40:1 42:1 44:1 45:1 46:1 49:1 51:1 59:1 61:1 64:1 68:1 69:1 73:1 77:1 82:1 84:1 85:1 86:1 88:1 93:1 94:1 98:1 99:1 102:1 107:1 108:1 112:1 113:1 114:1 118:1 119:1 120:1 123:1 127:1 130:1 135:1 144:1 147:1 149:1 157:1 158:1 163:1 167:1 169:1 170:1 174:1 175:1 176:1 178:1 179:1 182:1 183:1 188:1 193:1 196:1 198:1 199:1 203:1 206:1 208:1 210:1 218:1 225:1 227:1 231:1 232:1 236:1 239:1 244:1 255:1 257:1 258:1 260:1 261:1 267:1 278:1 281:1 282:1 292:1 295:1 299:1 305:1 306:1 312:1 321:1 322:1 323:1 324:1 329:1 331:1 337:1 339:1 341:1 350:1 362:1 370:1 376:1 378:1 387:1 393:1 403:1 428:1 431:1 434:1 471:1 482:1 503:1 519:1 523:1 531:1 548:1 569:1 595:1 599:1 602:1 608:1 632:1 642:1 649:1 653:1 656:1 664:1 670:1 690:1 693:1 702:1 727:1 758:1 762:1 766:1 768:1 802:1 828:1 849:1 863:1 868:1 875:1 908:1 946:1 973:1 1012:1 1074:1 1105:1 1160:1 1279:1 1378:1 1391:1 1444:1 1452:1 1476:1 1508:1 1514:1 1546:1 1549:1 1556:1 1599:1 1634:1 1643:1 1652:1 1676:1 1746:1 1755:1 1803:1 1807:1 1835:1 1865:1 1881:1 1891:1 1894:1 2003:1 2063:1 2091:1 2158:1 2168:1 2190:1 2294:1 2310:1 2311:1 2333:1 2372:1 2413:1 2455:1 2478:1 2526:1 2576:1 2599:1 2654:1 2674:1 2739:1 2778:1 2898:1 3102:1 3114:1 3144:1 3172:1 3194:1 3206:1 3221:1 3410:1 3584:1 3721:1 3742:1 4061:1 4074:1 4222:1 4246:1 4308:1 4409:1 4458:1 4506:1 4679:1 4728:1 4859:1 4929:1 4998:1 5051:1 5079:1 5109:1 5185:1 5401:1 5405:1 5517:1 5580:1 5653:1 6213:1 6357:1 6416:1 6577:1 6724:1 6754:1 6874:1 6930:1 6938:1 6996:1 7008:1 7151:1 7310:1 7485:1 7491:1 7525:1 7788:1 8081:1 8164:1 8659:1 8887:1 9151:1 9284:1 9969:1 10301:1 10741:1 10743:1 #
-0.004374232019613822318448992376716 1:1 3:1 5:1 8:1 10:1 11:1 12:1 13:1 14:1 15:1 16:1 17:1 18:1 19:1 20:1 22:1 23:1 24:1 25:1 26:1 27:1 30:1 32:1 34:1 36:1 38:1 39:1 40:1 45:1 46:1 48:1 51:1 53:1 55:1 61:1 62:1 63:1 68:1 73:1 74:1 75:1 78:1 79:1 81:1 83:1 86:1 89:1 90:1 94:1 98:1 99:1 102:1 103:1 104:1 106:1 107:1 114:1 116:1 119:1 124:1 126:1 130:1 138:1 147:1 154:1 159:1 161:1 162:1 164:1 169:1 177:1 178:1 186:1 190:1 194:1 195:1 204:1 205:1 210:1 212:1 213:1 221:1 223:1 224:1 230:1 231:1 235:1 236:1 237:1 238:1 239:1 243:1 244:1 252:1 255:1 264:1 278:1 302:1 319:1 321:1 323:1 324:1 326:1 329:1 330:1 332:1 340:1 345:1 350:1 353:1 356:1 369:1 370:1 374:1 389:1 396:1 397:1 400:1 432:1 436:1 442:1 451:1 462:1 464:1 472:1 475:1 478:1 480:1 485:1 500:1 510:1 551:1 553:1 564:1 569:1 575:1 601:1 613:1 618:1 620:1 628:1 630:1 640:1 645:1 651:1 652:1 655:1 664:1 671:1 685:1 688:1 728:1 753:1 758:1 762:1 763:1 775:1 777:1 792:1 793:1 800:1 802:1 806:1 809:1 815:1 829:1 830:1 831:1 843:1 847:1 865:1 894:1 905:1 912:1 921:1 939:1 946:1 950:1 994:1 997:1 1026:1 1032:1 1092:1 1111:1 1133:1 1138:1 1161:1 1226:1 1230:1 1284:1 1287:1 1310:1 1372:1 1385:1 1418:1 1432:1 1476:1 1508:1 1530:1 1534:1 1565:1 1568:1 1570:1 1593:1 1611:1 1687:1 1689:1 1865:1 1915:1 1928:1 1939:1 1976:1 1991:1 1999:1 2038:1 2128:1 2208:1 2228:1 2244:1 2245:1 2314:1 2319:1 2368:1 2382:1 2599:1 2617:1 2630:1 2716:1 2801:1 2848:1 2936:1 3066:1 3086:1 3101:1 3114:1 3120:1 3235:1 3245:1 3283:1 3389:1 3492:1 3584:1 3597:1 3609:1 3646:1 3725:1 3735:1 3901:1 3918:1 3920:1 3955:1 4035:1 4067:1 4134:1 4138:1 4210:1 4290:1 4320:1 4350:1 4359:1 4364:1 4397:1 4441:1 4457:1 4523:1 4580:1 4674:1 4694:1 4725:1 4921:1 4988:1 5017:1 5062:1 5118:1 5243:1 5482:1 5622:1 5640:1 5653:1 5803:1 5857:1 5872:1 5880:1 5925:1 6238:1 6319:1 6322:1 6351:1 6371:1 6416:1 6461:1 6478:1 6629:1 6693:1 6898:1 6930:1 7091:1 7171:1 7255:1 7265:1 7391:1 7463:1 7525:1 7927:1 8152:1 8170:1 8421:1 8711:1 8821:1 8850:1 8972:1 9134:1 9338:1 9357:1 9629:1 9800:1 10176:1 10279:1 10396:1 10617:1 10700:1 #
-0.004374232019613822318448992376716 4:1 6:1 7:1 8:1 11:1 12:1 13:1 14:1 15:1 16:1 17:1 18:1 20:1 22:1 23:1 24:1 25:1 27:1 28:1 29:1 30:1 38:1 40:1 42:1 43:1 45:1 51:1 53:1 55:1 61:1 76:1 77:1 78:1 83:1 84:1 85:1 86:1 89:1 91:1 93:1 94:1 96:1 102:1 105:1 107:1 108:1 111:1 112:1 113:1 114:1 118:1 119:1 120:1 122:1 123:1 127:1 129:1 135:1 139:1 146:1 147:1 154:1 155:1 170:1 171:1 176:1 178:1 186:1 188:1 195:1 200:1 207:1 208:1 210:1 216:1 218:1 220:1 228:1 231:1 239:1 241:1 243:1 260:1 264:1 273:1 282:1 283:1 291:1 292:1 297:1 299:1 300:1 321:1 322:1 323:1 329:1 339:1 361:1 372:1 378:1 403:1 408:1 414:1 423:1 452:1 456:1 462:1 463:1 477:1 479:1 488:1 491:1 519:1 529:1 541:1 551:1 566:1 598:1 605:1 614:1 625:1 632:1 642:1 649:1 656:1 660:1 664:1 669:1 690:1 740:1 744:1 751:1 755:1 757:1 758:1 761:1 768:1 777:1 797:1 802:1 812:1 815:1 831:1 843:1 844:1 868:1 874:1 913:1 921:1 941:1 947:1 976:1 994:1 1038:1 1059:1 1093:1 1115:1 1138:1 1160:1 1212:1 1284:1 1361:1 1372:1 1421:1 1430:1 1432:1 1466:1 1508:1 1510:1 1514:1 1565:1 1634:1 1755:1 1827:1 1908:1 1933:1 1976:1 1984:1 1986:1 1991:1 2020:1 2065:1 2091:1 2102:1 2126:1 2135:1 2140:1 2152:1 2236:1 2257:1 2305:1 2310:1 2314:1 2368:1 2390:1 2447:1 2462:1 2739:1 2778:1 2785:1 2936:1 3068:1 3102:1 3222:1 3338:1 3463:1 3468:1 3584:1 3621:1 3702:1 3867:1 4007:1 4356:1 4466:1 4518:1 4530:1 4555:1 4715:1 4970:1 5136:1 5596:1 5852:1 6189:1 6194:1 6217:1 6276:1 6358:1 6568:1 6949:1 7324:1 7545:1 7741:1 8002:1 8019:1 8093:1 8099:1 8105:1 8252:1 8380:1 8438:1 8440:1 8634:1 9423:1 9500:1 10106:1 #
-0.004374232019613822318448992376716 4:1 5:1 7:1 14:1 15:1 17:1 18:1 19:1 21:1 22:1 23:1 24:1 25:1 30:1 32:1 36:1 48:1 52:1 53:1 54:1 71:1 73:1 75:1 80:1 84:1 86:1 88:1 95:1 99:1 101:1 103:1 104:1 106:1 111:1 112:1 114:1 115:1 120:1 122:1 127:1 128:1 129:1 131:1 138:1 146:1 155:1 170:1 178:1 179:1 187:1 195:1 200:1 207:1 210:1 211:1 214:1 219:1 221:1 235:1 236:1 238:1 241:1 242:1 244:1 246:1 249:1 277:1 278:1 283:1 286:1 287:1 293:1 300:1 325:1 326:1 329:1 341:1 342:1 357:1 381:1 387:1 408:1 410:1 412:1 428:1 438:1 448:1 451:1 452:1 465:1 472:1 488:1 490:1 502:1 506:1 529:1 553:1 564:1 581:1 595:1 608:1 628:1 629:1 631:1 632:1 642:1 644:1 647:1 676:1 719:1 725:1 749:1 750:1 764:1 789:1 802:1 807:1 808:1 817:1 835:1 843:1 845:1 857:1 891:1 899:1 921:1 945:1 962:1 987:1 996:1 1009:1 1028:1 1067:1 1092:1 1099:1 1117:1 1279:1 1361:1 1376:1 1425:1 1439:1 1455:1 1492:1 1513:1 1514:1 1534:1 1591:1 1646:1 1731:1 1919:1 1939:1 1946:1 2078:1 2087:1 2109:1 2280:1 2372:1 2462:1 2588:1 2682:1 2713:1 2734:1 2789:1 2936:1 2981:1 3077:1 3078:1 3098:1 3128:1 3196:1 3197:1 3315:1 3354:1 3462:1 3588:1 3592:1 3597:1 3625:1 3629:1 3775:1 3888:1 3964:1 3999:1 4040:1 4063:1 4164:1 4234:1 4407:1 4542:1 4628:1 4939:1 5148:1 5164:1 5221:1 5462:1 5737:1 5833:1 5851:1 5875:1 6008:1 6029:1 6061:1 6191:1 6259:1 6351:1 6621:1 6776:1 6808:1 6849:1 6853:1 6858:1 7179:1 7791:1 7838:1 7842:1 8121:1 8153:1 8335:1 8649:1 8897:1 8972:1 9279:1 9845:1 10245:1 10327:1 #
-0.004374232019613822318448992376716 1:1 5:1 11:1 12:1 13:1 15:1 17:1 19:1 20:1 22:1 24:1 25:1 31:1 32:1 34:1 36:1 38:1 41:1 44:1 51:1 52:1 53:1 56:1 57:1 62:1 68:1 75:1 81:1 82:1 84:1 86:1 94:1 95:1 98:1 101:1 102:1 103:1 104:1 106:1 112:1 114:1 117:1 120:1 129:1 130:1 131:1 137:1 138:1 149:1 159:1 163:1 170:1 172:1 175:1 186:1 187:1 195:1 199:1 200:1 202:1 205:1 207:1 211:1 213:1 232:1 235:1 241:1 245:1 250:1 251:1 253:1 264:1 265:1 270:1 273:1 276:1 277:1 278:1 279:1 286:1 295:1 302:1 324:1 329:1 341:1 345:1 385:1 399:1 410:1 434:1 445:1 451:1 475:1 485:1 495:1 510:1 564:1 566:1 601:1 642:1 644:1 645:1 651:1 653:1 695:1 702:1 725:1 750:1 758:1 767:1 792:1 798:1 806:1 807:1 840:1 851:1 857:1 867:1 881:1 882:1 891:1 922:1 932:1 945:1 994:1 1009:1 1021:1 1058:1 1090:1 1092:1 1137:1 1155:1 1160:1 1170:1 1173:1 1226:1 1232:1 1280:1 1284:1 1305:1 1310:1 1376:1 1384:1 1397:1 1432:1 1439:1 1458:1 1462:1 1483:1 1506:1 1556:1 1645:1 1660:1 1698:1 1720:1 1724:1 1750:1 1785:1 1840:1 1842:1 1919:1 1964:1 1969:1 2014:1 2038:1 2042:1 2053:1 2192:1 2268:1 2300:1 2373:1 2440:1 2529:1 2599:1 2606:1 2638:1 2753:1 3097:1 3098:1 3140:1 3234:1 3275:1 3289:1 3368:1 3370:1 3541:1 3578:1 3668:1 3680:1 3720:1 3750:1 3788:1 4055:1 4096:1 4126:1 4280:1 4288:1 4305:1 4451:1 4747:1 4956:1 4975:1 5096:1 5107:1 5235:1 5267:1 5402:1 5433:1 5458:1 5487:1 5588:1 5714:1 5770:1 5789:1 5887:1 5903:1 6167:1 6259:1 6299:1 6401:1 6556:1 6885:1 7298:1 7455:1 7548:1 7769:1 7826:1 8021:1 8200:1 8266:1 8590:1 8766:1 8772:1 8826:1 9537:1 10030:1 10389:1 10707:1 #
0.004374232019613822318448992376716 1:1 2:1 4:1 5:1 7:1 8:1 9:1 11:1 12:1 15:1 16:1 18:1 20:1 21:1 22:1 23:1 24:1 25:1 29:1 30:1 31:1 32:1 34:1 44:1 45:1 52:1 54:1 59:1 61:1 64:1 67:1 69:1 71:1 73:1 74:1 76:1 77:1 81:1 86:1 89:1 90:1 91:1 94:1 96:1 98:1 101:1 102:1 103:1 106:1 114:1 116:1 126:1 131:1 132:1 136:1 138:1 144:1 158:1 159:1 161:1 162:1 163:1 170:1 172:1 179:1 185:1 186:1 187:1 199:1 212:1 216:1 217:1 224:1 225:1 227:1 232:1 234:1 237:1 239:1 244:1 250:1 252:1 264:1 267:1 270:1 305:1 307:1 315:1 322:1 323:1 328:1 337:1 355:1 390:1 434:1 450:1 452:1 465:1 469:1 488:1 490:1 564:1 566:1 569:1 585:1 632:1 637:1 649:1 659:1 663:1 674:1 746:1 758:1 806:1 811:1 817:1 853:1 874:1 1001:1 1009:1 1018:1 1039:1 1055:1 1058:1 1085:1 1100:1 1122:1 1133:1 1172:1 1173:1 1257:1 1268:1 1324:1 1374:1 1376:1 1426:1 1439:1 1486:1 1489:1 1514:1 1520:1 1536:1 1580:1 1583:1 1603:1 1625:1 1639:1 1645:1 1715:1 1748:1 1760:1 1771:1 1789:1 1837:1 1839:1 1845:1 1915:1 1917:1 1981:1 2009:1 2178:1 2211:1 2228:1 2237:1 2291:1 2322:1 2344:1 2348:1 2415:1 2440:1 2462:1 2548:1 2576:1 2698:1 2714:1 2734:1 2898:1 3012:1 3015:1 3128:1 3245:1 3323:1 3329:1 3394:1 3431:1 3739:1 3844:1 4007:1 4126:1 4137:1 4183:1 4225:1 4276:1 4291:1 4325:1 4501:1 4581:1 4594:1 4605:1 4701:1 4727:1 4746:1 4868:1 4887:1 4908:1 5002:1 5033:1 5145:1 5167:1 5267:1 5478:1 5516:1 5527:1 5891:1 5963:1 6011:1 6015:1 6032:1 6085:1 6107:1 6299:1 6507:1 6515:1 6757:1 6896:1 6920:1 7021:1 7358:1 7512:1 7782:1 8072:1 8158:1 8174:1 8257:1 8329:1 8464:1 8697:1 8901:1 9291:1 9294:1 9369:1 10328:1 10684:1 #
0.004374232019613822318448992376716 1:1 2:1 7:1 8:1 9:1 10:1 11:1 12:1 14:1 15:1 16:1 17:1 18:1 20:1 22:1 25:1 27:1 30:1 32:1 34:1 36:1 42:1 47:1 49:1 55:1 56:1 62:1 66:1 69:1 73:1 78:1 89:1 94:1 99:1 101:1 104:1 113:1 114:1 123:1 124:1 126:1 131:1 146:1 148:1 156:1 160:1 177:1 181:1 196:1 202:1 222:1 224:1 236:1 243:1 246:1 272:1 275:1 283:1 286:1 308:1 325:1 353:1 354:1 377:1 379:1 383:1 387:1 390:1 408:1 432:1 434:1 442:1 446:1 452:1 453:1 475:1 480:1 482:1 553:1 554:1 558:1 594:1 598:1 601:1 602:1 671:1 689:1 728:1 758:1 797:1 817:1 833:1 835:1 843:1 899:1 905:1 930:1 944:1 955:1 1002:1 1025:1 1037:1 1058:1 1074:1 1080:1 1138:1 1142:1 1173:1 1275:1 1305:1 1382:1 1386:1 1406:1 1423:1 1429:1 1452:1 1483:1 1490:1 1534:1 1566:1 1568:1 1574:1 1644:1 1649:1 1652:1 1726:1 1737:1 1827:1 1857:1 1929:1 1975:1 1979:1 1985:1 2019:1 2021:1 2029:1 2036:1 2124:1 2129:1 2150:1 2249:1 2309:1 2373:1 2385:1 2454:1 2503:1 2551:1 2562:1 2621:1 2627:1 2628:1 2665:1 2667:1 2797:1 2875:1 3006:1 3239:1 3282:1 3569:1 3853:1 3928:1 4029:1 4114:1 4152:1 4215:1 4258:1 4263:1 4326:1 4352:1 4696:1 4813:1 4831:1 4889:1 4929:1 5420:1 5467:1 5553:1 5842:1 5911:1 6048:1 6188:1 6713:1 7345:1 8195:1 8199:1 8220:1 8370:1 8421:1 8798:1 9707:1 10182:1 10234:1 10520:1 10531:1 10654:1 #
0.0040213303688470388927433951664625 2:1 3:1 4:1 5:1 7:1 8:1 9:1 11:1 12:1 13:1 15:1 16:1 20:1 22:1 23:1 24:1 25:1 26:1 30:1 31:1 32:1 36:1 40:1 43:1 47:1 51:1 56:1 62:1 63:1 64:1 65:1 67:1 71:1 73:1 78:1 83:1 86:1 89:1 91:1 94:1 98:1 102:1 103:1 107:1 111:1 114:1 118:1 119:1 120:1 127:1 129:1 130:1 133:1 134:1 136:1 139:1 143:1 149:1 154:1 157:1 163:1 170:1 172:1 173:1 174:1 176:1 179:1 184:1 186:1 190:1 191:1 199:1 200:1 205:1 216:1 217:1 220:1 221:1 223:1 226:1 228:1 231:1 235:1 236:1 238:1 239:1 255:1 258:1 259:1 276:1 279:1 282:1 286:1 305:1 306:1 312:1 315:1 323:1 329:1 331:1 333:1 340:1 341:1 351:1 368:1 380:1 382:1 399:1 400:1 403:1 421:1 432:1 434:1 448:1 456:1 463:1 464:1 479:1 500:1 503:1 513:1 518:1 531:1 536:1 543:1 554:1 566:1 569:1 599:1 601:1 620:1 628:1 631:1 632:1 636:1 642:1 643:1 669:1 671:1 698:1 702:1 744:1 749:1 751:1 758:1 779:1 828:1 835:1 840:1 868:1 874:1 891:1 900:1 921:1 923:1 939:1 949:1 962:1 978:1 989:1 992:1 1012:1 1022:1 1067:1 1085:1 1111:1 1118:1 1122:1 1228:1 1242:1 1248:1 1264:1 1361:1 1372:1 1440:1 1442:1 1456:1 1460:1 1462:1 1484:1 1487:1 1489:1 1500:1 1507:1 1510:1 1514:1 1588:1 1620:1 1660:1 1662:1 1755:1 1790:1 1796:1 1797:1 1829:1 1839:1 1840:1 1870:1 1906:1 1915:1 1917:1 1935:1 1998:1 2029:1 2038:1 2194:1 2213:1 2216:1 2344:1 2360:1 2440:1 2462:1 2541:1 2545:1 2584:1 2624:1 2798:1 2801:1 2898:1 2976:1 3053:1 3075:1 3077:1 3087:1 3114:1 3122:1 3245:1 3251:1 3263:1 3367:1 3629:1 3641:1 3649:1 3725:1 3795:1 3955:1 3972:1 4040:1 4071:1 4151:1 4293:1 4312:1 4473:1 4580:1 4581:1 4630:1 4631:1 4703:1 4706:1 4751:1 4784:1 4876:1 4982:1 5002:1 5107:1 5138:1 5188:1 5487:1 5542:1 5585:1 5695:1 5747:1 5811:1 5939:1 6118:1 6172:1 6425:1 6528:1 6596:1 6917:1 7163:1 7228:1 7321:1 7365:1 7433:1 7640:1 8075:1 8232:1 8414:1 8658:1 8934:1 9173:1 9411:1 9423:1 9648:1 9690:1 9804:1 10492:1 #
0.004374232019613822318448992376716 1:1 5:1 6:1 7:1 11:1 12:1 13:1 14:1 15:1 16:1 18:1 19:1 20:1 21:1 23:1 24:1 25:1 29:1 30:1 36:1 42:1 44:1 46:1 48:1 50:1 62:1 63:1 72:1 80:1 84:1 86:1 88:1 90:1 101:1 102:1 103:1 106:1 116:1 117:1 151:1 165:1 172:1 187:1 189:1 202:1 205:1 214:1 219:1 227:1 243:1 251:1 266:1 287:1 339:1 385:1 400:1 404:1 411:1 432:1 435:1 457:1 515:1 564:1 575:1 603:1 615:1 625:1 725:1 755:1 763:1 861:1 922:1 932:1 951:1 991:1 1015:1 1089:1 1105:1 1214:1 1452:1 1467:1 1473:1 1483:1 1568:1 1591:1 1606:1 1646:1 1675:1 1676:1 1751:1 1792:1 1819:1 1838:1 1855:1 1905:1 1928:1 1936:1 2183:1 2226:1 2277:1 2371:1 2390:1 2428:1 2600:1 2702:1 2774:1 3048:1 3050:1 3089:1 3134:1 3194:1 3274:1 3456:1 3566:1 3871:1 3886:1 3960:1 4039:1 4366:1 4679:1 4683:1 4885:1 4988:1 5014:1 5059:1 5188:1 5965:1 6035:1 6047:1 6119:1 6568:1 6750:1 6853:1 6978:1 7005:1 7076:1 7574:1 8639:1 8703:1 9442:1 #
0.004374232019613822318448992376716 2:1 7:1 9:1 14:1 16:1 22:1 23:1 25:1 31:1 36:1 46:1 52:1 53:1 62:1 75:1 79:1 113:1 125:1 150:1 172:1 179:1 190:1 207:1 214:1 217:1 224:1 296:1 307:1 323:1 333:1 390:1 475:1 490:1 497:1 615:1 649:1 658:1 688:1 756:1 773:1 802:1 809:1 843:1 849:1 851:1 868:1 884:1 895:1 1138:1 1374:1 1405:1 1439:1 1446:1 1513:1 1514:1 1609:1 1652:1 1761:1 1986:1 2148:1 2175:1 2344:1 2448:1 2624:1 2692:1 2736:1 2898:1 3207:1 3457:1 3562:1 3663:1 3733:1 4106:1 4210:1 4325:1 4368:1 5576:1 5770:1 5852:1 6039:1 7219:1 8153:1 8608:1 9008:1 9684:1 #
-0.001355153207605062047613753151154 11:1 15:1 17:1 24:1 25:1 29:1 30:1 31:1 41:1 44:1 66:1 80:1 87:1 116:1 150:1 172:1 174:1 215:1 217:1 221:1 226:1 232:1 287:1 307:1 333:1 360:1 370:1 416:1 460:1 465:1 483:1 553:1 601:1 787:1 817:1 955:1 1149:1 1182:1 1228:1 1420:1 1534:1 1559:1 1568:1 1861:1 2177:1 2193:1 2662:1 3025:1 3062:1 3463:1 3572:1 3662:1 3820:1 4905:1 5059:1 5231:1 5456:1 5602:1 5701:1 5835:1 6651:1 6670:1 8411:1 8794:1 9870:1 #
0.0011349904219889960475808887707672 1:1 8:1 11:1 12:1 15:1 16:1 18:1 20:1 22:1 23:1 24:1 25:1 30:1 32:1 36:1 42:1 45:1 50:1 52:1 53:1 54:1 56:1 62:1 67:1 68:1 73:1 79:1 84:1 86:1 89:1 91:1 95:1 102:1 104:1 116:1 120:1 130:1 146:1 152:1 153:1 163:1 167:1 170:1 175:1 194:1 195:1 196:1 197:1 220:1 226:1 242:1 244:1 257:1 265:1 266:1 276:1 277:1 278:1 283:1 285:1 295:1 300:1 304:1 314:1 315:1 345:1 354:1 381:1 382:1 386:1 404:1 406:1 408:1 425:1 440:1 458:1 470:1 475:1 480:1 481:1 495:1 533:1 581:1 608:1 651:1 656:1 660:1 758:1 792:1 798:1 807:1 812:1 852:1 865:1 873:1 905:1 922:1 964:1 987:1 1005:1 1024:1 1099:1 1122:1 1176:1 1180:1 1275:1 1374:1 1425:1 1441:1 1481:1 1525:1 1560:1 1568:1 1574:1 1649:1 1704:1 1827:1 1897:1 1964:1 2003:1 2023:1 2053:1 2078:1 2160:1 2253:1 2280:1 2368:1 2372:1 2440:1 2584:1 2616:1 2797:1 2850:1 3153:1 3287:1 3584:1 3712:1 3853:1 3947:1 4021:1 4053:1 4361:1 4580:1 5148:1 5220:1 5475:1 5588:1 5682:1 6371:1 7251:1 7418:1 7842:1 7878:1 7895:1 8187:1 9402:1 9404:1 9577:1 10178:1 10206:1 10446:1 10706:1 #
-0.0022921163687706844203084699529427 1:1 4:1 5:1 9:1 13:1 16:1 18:1 22:1 36:1 37:1 44:1 54:1 56:1 62:1 66:1 69:1 71:1 73:1 87:1 101:1 121:1 125:1 149:1 172:1 219:1 237:1 244:1 284:1 290:1 291:1 295:1 308:1 348:1 358:1 363:1 371:1 438:1 455:1 486:1 515:1 524:1 642:1 653:1 758:1 895:1 979:1 1168:1 1257:1 1756:1 3198:1 3508:1 4018:1 4138:1 4957:1 5092:1 5093:1 6502:1 6522:1 6621:1 8313:1 #
-0.004374232019613822318448992376716 1:1 2:1 11:1 12:1 15:1 16:1 17:1 24:1 25:1 30:1 31:1 32:1 33:1 44:1 50:1 51:1 55:1 59:1 62:1 66:1 78:1 102:1 103:1 106:1 120:1 126:1 159:1 161:1 170:1 172:1 187:1 205:1 238:1 270:1 333:1 350:1 387:1 390:1 399:1 486:1 636:1 646:1 815:1 817:1 833:1 849:1 880:1 891:1 916:1 1012:1 1023:1 1061:1 1085:1 1089:1 1093:1 1265:1 1280:1 1385:1 1514:1 1557:1 1620:1 1827:1 1926:1 2038:1 2039:1 2184:1 2239:1 2274:1 2415:1 2462:1 3005:1 3184:1 3240:1 3446:1 3474:1 3576:1 4128:1 4602:1 4973:1 4977:1 5107:1 5123:1 5478:1 5562:1 5638:1 6363:1 6656:1 7084:1 7267:1 7398:1 7716:1 8197:1 8456:1 8750:1 9419:1 #
0.0015912405259046402076356097055054 4:1 7:1 8:1 11:1 15:1 16:1 17:1 18:1 19:1 20:1 23:1 24:1 25:1 26:1 27:1 28:1 29:1 30:1 31:1 36:1 38:1 40:1 48:1 50:1 51:1 52:1 54:1 56:1 60:1 61:1 62:1 66:1 73:1 75:1 78:1 81:1 82:1 84:1 85:1 92:1 98:1 102:1 103:1 106:1 107:1 111:1 114:1 120:1 125:1 126:1 127:1 129:1 133:1 138:1 147:1 153:1 154:1 155:1 158:1 163:1 164:1 168:1 170:1 171:1 172:1 186:1 188:1 199:1 207:1 211:1 214:1 218:1 231:1 232:1 239:1 241:1 242:1 243:1 244:1 245:1 251:1 260:1 268:1 276:1 277:1 282:1 283:1 291:1 297:1 305:1 308:1 324:1 330:1 341:1 357:1 364:1 367:1 370:1 377:1 381:1 382:1 387:1 414:1 432:1 479:1 480:1 491:1 544:1 551:1 566:1 647:1 651:1 653:1 674:1 687:1 703:1 709:1 723:1 752:1 758:1 760:1 762:1 777:1 780:1 795:1 802:1 806:1 815:1 817:1 828:1 839:1 843:1 844:1 851:1 887:1 891:1 894:1 905:1 922:1 935:1 937:1 939:1 943:1 947:1 1008:1 1042:1 1050:1 1089:1 1105:1 1111:1 1131:1 1156:1 1160:1 1190:1 1196:1 1200:1 1226:1 1228:1 1231:1 1263:1 1385:1 1404:1 1421:1 1444:1 1450:1 1466:1 1473:1 1487:1 1506:1 1525:1 1557:1 1565:1 1570:1 1619:1 1637:1 1735:1 1755:1 1784:1 1827:1 1888:1 1894:1 1931:1 1949:1 1951:1 1952:1 1976:1 1986:1 2010:1 2140:1 2170:1 2183:1 2190:1 2193:1 2236:1 2270:1 2306:1 2345:1 2370:1 2471:1 2564:1 2936:1 3040:1 3078:1 3114:1 3128:1 3380:1 3564:1 3807:1 3848:1 3877:1 4067:1 4119:1 4128:1 4161:1 4210:1 4253:1 4279:1 4291:1 4503:1 4594:1 4642:1 4679:1 4878:1 5022:1 5086:1 5531:1 5646:1 5731:1 5779:1 6163:1 6189:1 6339:1 6779:1 7131:1 7194:1 7203:1 7409:1 7510:1 7630:1 7700:1 7711:1 7775:1 8188:1 9248:1 9442:1 9471:1 9577:1 9657:1 9708:1 10279:1 10548:1 10617:1 #
0.0020559434649371640356496637735972 1:1 3:1 4:1 5:1 6:1 7:1 8:1 9:1 11:1 12:1 13:1 16:1 17:1 18:1 22:1 23:1 24:1 25:1 26:1 28:1 29:1 30:1 31:1 35:1 38:1 40:1 41:1 42:1 43:1 44:1 45:1 47:1 48:1 51:1 52:1 62:1 63:1 66:1 72:1 73:1 75:1 76:1 77:1 78:1 79:1 81:1 89:1 90:1 94:1 98:1 102:1 104:1 106:1 107:1 109:1 111:1 113:1 114:1 115:1 116:1 119:1 120:1 127:1 132:1 146:1 147:1 156:1 160:1 169:1 170:1 171:1 172:1 173:1 177:1 180:1 182:1 184:1 187:1 188:1 190:1 194:1 195:1 199:1 204:1 208:1 210:1 211:1 212:1 213:1 215:1 224:1 228:1 232:1 235:1 238:1 241:1 242:1 243:1 244:1 245:1 247:1 260:1 264:1 266:1 267:1 269:1 270:1 276:1 278:1 282:1 289:1 298:1 304:1 305:1 306:1 322:1 324:1 331:1 341:1 344:1 351:1 356:1 370:1 372:1 373:1 385:1 387:1 390:1 392:1 398:1 406:1 418:1 432:1 437:1 448:1 452:1 475:1 480:1 485:1 497:1 500:1 523:1 551:1 566:1 599:1 605:1 613:1 620:1 630:1 632:1 653:1 663:1 664:1 670:1 687:1 690:1 715:1 727:1 741:1 758:1 773:1 839:1 843:1 849:1 872:1 874:1 880:1 882:1 908:1 932:1 936:1 945:1 953:1 990:1 1002:1 1089:1 1110:1 1118:1 1160:1 1161:1 1176:1 1180:1 1196:1 1200:1 1228:1 1274:1 1361:1 1432:1 1435:1 1440:1 1466:1 1476:1 1500:1 1534:1 1580:1 1599:1 1610:1 1620:1 1622:1 1632:1 1655:1 1746:1 1748:1 1790:1 1840:1 1843:1 1865:1 1868:1 1951:1 1963:1 1991:1 2005:1 2082:1 2144:1 2236:1 2286:1 2327:1 2369:1 2370:1 2396:1 2415:1 2418:1 2455:1 2482:1 2548:1 2551:1 2801:1 2869:1 2912:1 2939:1 2987:1 3039:1 3071:1 3101:1 3122:1 3248:1 3389:1 3620:1 3782:1 3863:1 3951:1 4039:1 4074:1 4092:1 4138:1 4176:1 4293:1 4320:1 4372:1 4382:1 4405:1 4495:1 4691:1 4886:1 4905:1 4908:1 4963:1 4975:1 4989:1 5069:1 5123:1 5179:1 5365:1 5622:1 5624:1 5653:1 5728:1 5758:1 5833:1 5964:1 6025:1 6280:1 6346:1 6371:1 6584:1 6644:1 6964:1 7044:1 7143:1 7318:1 7484:1 7525:1 7536:1 7788:1 7811:1 8266:1 8396:1 8404:1 8410:1 8784:1 8802:1 8927:1 8940:1 8946:1 9419:1 9726:1 10517:1 10700:1 #
7.6898044448514443717154764890154e-05 1:1 4:1 6:1 7:1 8:1 9:1 10:1 11:1 12:1 13:1 15:1 16:1 17:1 19:1 20:1 22:1 23:1 24:1 25:1 27:1 28:1 29:1 31:1 32:1 36:1 37:1 38:1 39:1 40:1 44:1 45:1 46:1 47:1 50:1 51:1 52:1 56:1 57:1 60:1 61:1 62:1 66:1 69:1 71:1 73:1 74:1 75:1 82:1 85:1 86:1 89:1 94:1 95:1 96:1 98:1 101:1 102:1 103:1 104:1 106:1 107:1 113:1 114:1 117:1 119:1 120:1 124:1 127:1 129:1 131:1 133:1 139:1 152:1 154:1 155:1 159:1 161:1 163:1 164:1 169:1 170:1 171:1 174:1 175:1 186:1 187:1 195:1 196:1 204:1 207:1 208:1 209:1 218:1 221:1 222:1 230:1 232:1 238:1 241:1 243:1 244:1 245:1 250:1 255:1 260:1 263:1 264:1 266:1 273:1 275:1 276:1 278:1 279:1 280:1 282:1 285:1 291:1 293:1 294:1 295:1 300:1 305:1 306:1 314:1 321:1 324:1 326:1 329:1 331:1 332:1 345:1 346:1 350:1 357:1 364:1 375:1 381:1 385:1 397:1 401:1 403:1 410:1 414:1 420:1 422:1 430:1 436:1 440:1 451:1 452:1 458:1 459:1 470:1 472:1 481:1 483:1 490:1 496:1 500:1 502:1 510:1 513:1 551:1 553:1 561:1 605:1 606:1 608:1 632:1 636:1 642:1 644:1 649:1 653:1 668:1 693:1 696:1 703:1 716:1 717:1 725:1 749:1 755:1 757:1 758:1 760:1 762:1 780:1 788:1 789:1 792:1 802:1 809:1 817:1 820:1 823:1 831:1 840:1 843:1 857:1 874:1 891:1 894:1 899:1 936:1 945:1 946:1 981:1 987:1 996:1 1002:1 1008:1 1083:1 1092:1 1118:1 1131:1 1133:1 1147:1 1149:1 1155:1 1167:1 1187:1 1200:1 1232:1 1258:1 1264:1 1283:1 1368:1 1376:1 1383:1 1385:1 1414:1 1432:1 1438:1 1439:1 1446:1 1457:1 1462:1 1492:1 1500:1 1506:1 1513:1 1514:1 1534:1 1549:1 1551:1 1568:1 1587:1 1620:1 1622:1 1628:1 1659:1 1660:1 1689:1 1735:1 1771:1 1836:1 1840:1 1842:1 1843:1 1845:1 1861:1 2011:1 2014:1 2027:1 2097:1 2194:1 2206:1 2210:1 2239:1 2257:1 2266:1 2294:1 2300:1 2356:1 2396:1 2408:1 2418:1 2441:1 2478:1 2602:1 2685:1 2714:1 2754:1 2780:1 2816:1 2819:1 2912:1 2918:1 2953:1 2956:1 2962:1 3023:1 3029:1 3068:1 3078:1 3089:1 3101:1 3112:1 3122:1 3154:1 3261:1 3270:1 3319:1 3446:1 3449:1 3467:1 3479:1 3571:1 3620:1 3646:1 3654:1 3681:1 3683:1 3695:1 3773:1 3795:1 3818:1 3985:1 4055:1 4062:1 4128:1 4160:1 4169:1 4200:1 4224:1 4237:1 4252:1 4288:1 4363:1 4364:1 4594:1 4597:1 4921:1 4936:1 4963:1 5076:1 5088:1 5103:1 5113:1 5164:1 5275:1 5365:1 5395:1 5445:1 5465:1 5613:1 5857:1 6262:1 6289:1 6311:1 6364:1 6532:1 6812:1 6858:1 6920:1 7275:1 7326:1 7500:1 7741:1 7746:1 7769:1 7880:1 7932:1 8015:1 8066:1 8115:1 8118:1 8164:1 8214:1 8382:1 8534:1 8751:1 8961:1 8979:1 9247:1 9500:1 9509:1 9667:1 9839:1 9864:1 10164:1 10209:1 10261:1 10267:1 10499:1 10545:1 10689:1 #
0.0031387981470891159960223681935076 1:1 2:1 3:1 5:1 8:1 9:1 11:1 12:1 15:1 16:1 18:1 19:1 20:1 21:1 22:1 23:1 24:1 27:1 29:1 30:1 31:1 32:1 34:1 35:1 38:1 39:1 40:1 41:1 43:1 45:1 46:1 50:1 51:1 53:1 55:1 61:1 62:1 63:1 66:1 68:1 73:1 74:1 76:1 77:1 83:1 85:1 86:1 90:1 91:1 94:1 98:1 102:1 103:1 104:1 106:1 108:1 113:1 114:1 116:1 119:1 126:1 130:1 133:1 134:1 139:1 146:1 147:1 149:1 150:1 155:1 159:1 164:1 167:1 170:1 171:1 177:1 178:1 182:1 194:1 198:1 200:1 202:1 205:1 212:1 216:1 221:1 225:1 228:1 233:1 234:1 235:1 236:1 241:1 245:1 246:1 257:1 264:1 265:1 278:1 279:1 283:1 295:1 299:1 319:1 321:1 324:1 329:1 357:1 382:1 387:1 391:1 392:1 396:1 399:1 415:1 440:1 451:1 456:1 462:1 464:1 472:1 482:1 483:1 490:1 510:1 531:1 554:1 569:1 595:1 613:1 628:1 630:1 631:1 633:1 649:1 652:1 653:1 719:1 753:1 757:1 763:1 773:1 788:1 789:1 790:1 792:1 793:1 802:1 819:1 829:1 830:1 835:1 844:1 863:1 875:1 895:1 900:1 905:1 910:1 935:1 955:1 966:1 973:1 984:1 985:1 994:1 1021:1 1026:1 1087:1 1092:1 1105:1 1126:1 1150:1 1155:1 1169:1 1185:1 1190:1 1279:1 1287:1 1374:1 1378:1 1397:1 1404:1 1432:1 1471:1 1524:1 1539:1 1576:1 1599:1 1605:1 1622:1 1636:1 1689:1 1829:1 1840:1 1928:1 1960:1 1961:1 1999:1 2030:1 2107:1 2135:1 2193:1 2194:1 2310:1 2372:1 2382:1 2598:1 2599:1 2610:1 2685:1 2718:1 2771:1 2921:1 3085:1 3086:1 3089:1 3154:1 3202:1 3205:1 3283:1 3338:1 3364:1 3389:1 3584:1 3721:1 3735:1 3750:1 3773:1 3776:1 3845:1 3957:1 4280:1 4357:1 4397:1 4441:1 4513:1 4584:1 4588:1 4718:1 4725:1 4747:1 4869:1 4899:1 5141:1 5151:1 5394:1 5482:1 5726:1 5803:1 5856:1 5857:1 6002:1 6083:1 6259:1 6265:1 6332:1 6560:1 6719:1 6898:1 7311:1 7391:1 7400:1 7457:1 7529:1 7555:1 7685:1 7766:1 8078:1 8225:1 8554:1 8753:1 8755:1 9251:1 9351:1 10176:1 #
-0.004374232019613822318448992376716 2:1 4:1 5:1 6:1 8:1 11:1 12:1 14:1 16:1 17:1 18:1 19:1 20:1 22:1 23:1 24:1 25:1 27:1 30:1 31:1 36:1 50:1 51:1 52:1 54:1 56:1 58:1 59:1 62:1 64:1 68:1 73:1 75:1 79:1 86:1 90:1 96:1 98:1 102:1 114:1 116:1 130:1 159:1 160:1 162:1 165:1 170:1 186:1 187:1 209:1 212:1 216:1 227:1 238:1 244:1 245:1 250:1 270:1 279:1 308:1 316:1 319:1 332:1 337:1 345:1 369:1 382:1 387:1 392:1 396:1 404:1 405:1 419:1 442:1 452:1 475:1 510:1 553:1 632:1 640:1 645:1 657:1 687:1 708:1 755:1 758:1 889:1 891:1 968:1 1081:1 1089:1 1100:1 1101:1 1131:1 1133:1 1258:1 1408:1 1487:1 1514:1 1520:1 1538:1 1565:1 1573:1 1587:1 1672:1 1819:1 1936:1 1951:1 1983:1 1990:1 2004:1 2038:1 2462:1 2585:1 2684:1 2898:1 3082:1 3268:1 3288:1 3400:1 3430:1 3446:1 3552:1 3618:1 3801:1 3941:1 4125:1 4567:1 4568:1 4912:1 4935:1 5440:1 5949:1 6339:1 6535:1 6625:1 6892:1 6918:1 7268:1 8468:1 8625:1 8646:1 9492:1 9811:1 10011:1 #
0.00055722020280285012357873730692859 1:1 4:1 8:1 11:1 12:1 13:1 14:1 15:1 16:1 17:1 18:1 20:1 21:1 22:1 24:1 25:1 27:1 28:1 30:1 31:1 34:1 36:1 39:1 40:1 44:1 45:1 52:1 57:1 61:1 67:1 68:1 73:1 82:1 84:1 85:1 93:1 94:1 96:1 98:1 101:1 102:1 103:1 104:1 109:1 113:1 114:1 115:1 119:1 120:1 124:1 129:1 131:1 135:1 146:1 155:1 159:1 161:1 163:1 170:1 172:1 174:1 175:1 177:1 185:1 199:1 207:1 208:1 214:1 217:1 218:1 221:1 224:1 227:1 232:1 236:1 241:1 244:1 264:1 277:1 278:1 293:1 295:1 321:1 322:1 323:1 325:1 332:1 333:1 335:1 345:1 352:1 353:1 369:1 387:1 403:1 432:1 442:1 475:1 478:1 491:1 495:1 497:1 529:1 541:1 553:1 566:1 601:1 605:1 622:1 628:1 630:1 632:1 644:1 647:1 649:1 651:1 669:1 671:1 690:1 702:1 725:1 728:1 740:1 755:1 758:1 780:1 808:1 828:1 847:1 850:1 882:1 889:1 891:1 898:1 899:1 905:1 912:1 945:1 947:1 987:1 1005:1 1008:1 1009:1 1026:1 1042:1 1067:1 1092:1 1094:1 1131:1 1137:1 1180:1 1228:1 1279:1 1310:1 1374:1 1414:1 1438:1 1439:1 1441:1 1455:1 1462:1 1476:1 1506:1 1508:1 1536:1 1551:1 1556:1 1568:1 1597:1 1649:1 1720:1 1733:1 1815:1 1827:1 1849:1 1928:1 1964:1 1986:1 2030:1 2038:1 2042:1 2064:1 2107:1 2151:1 2163:1 2187:1 2193:1 2224:1 2318:1 2340:1 2368:1 2548:1 2720:1 2726:1 2779:1 2905:1 2983:1 2996:1 3005:1 3077:1 3086:1 3100:1 3177:1 3287:1 3315:1 3368:1 3370:1 3680:1 3709:1 3712:1 3766:1 3801:1 3896:1 4125:1 4138:1 4200:1 4232:1 4483:1 4500:1 4565:1 4588:1 4716:1 4718:1 4939:1 4944:1 5030:1 5136:1 5168:1 5220:1 5469:1 5593:1 5600:1 5663:1 5830:1 5882:1 6419:1 6448:1 6759:1 6808:1 7194:1 7212:1 7237:1 7352:1 8151:1 8338:1 8401:1 8766:1 8872:1 9080:1 9116:1 9223:1 9323:1 9470:1 9559:1 9688:1 9728:1 9881:1 10049:1 10456:1 10669:1 #
-0.004374232019613822318448992376716 2:1 3:1 4:1 5:1 7:1 8:1 9:1 11:1 12:1 13:1 14:1 15:1 16:1 17:1 18:1 20:1 21:1 22:1 23:1 24:1 25:1 26:1 29:1 30:1 31:1 32:1 34:1 36:1 38:1 40:1 44:1 46:1 51:1 53:1 54:1 60:1 62:1 66:1 71:1 72:1 73:1 74:1 75:1 78:1 79:1 80:1 81:1 84:1 86:1 88:1 90:1 94:1 96:1 98:1 99:1 103:1 104:1 106:1 116:1 118:1 119:1 120:1 124:1 125:1 127:1 131:1 133:1 136:1 143:1 151:1 156:1 159:1 163:1 167:1 170:1 172:1 174:1 176:1 178:1 179:1 182:1 183:1 191:1 194:1 195:1 197:1 199:1 200:1 202:1 203:1 207:1 209:1 211:1 218:1 221:1 230:1 236:1 237:1 238:1 241:1 244:1 261:1 262:1 263:1 264:1 266:1 270:1 277:1 283:1 288:1 294:1 299:1 300:1 315:1 318:1 323:1 329:1 350:1 353:1 357:1 375:1 382:1 383:1 385:1 408:1 410:1 414:1 415:1 418:1 432:1 434:1 436:1 448:1 451:1 452:1 460:1 472:1 475:1 480:1 488:1 490:1 491:1 523:1 529:1 533:1 558:1 564:1 599:1 606:1 612:1 615:1 620:1 630:1 632:1 636:1 644:1 646:1 653:1 659:1 663:1 666:1 671:1 702:1 714:1 725:1 741:1 746:1 755:1 758:1 762:1 776:1 777:1 792:1 798:1 800:1 809:1 817:1 841:1 845:1 861:1 865:1 866:1 881:1 887:1 891:1 905:1 928:1 935:1 946:1 947:1 953:1 958:1 989:1 994:1 996:1 997:1 1002:1 1029:1 1048:1 1071:1 1074:1 1108:1 1110:1 1118:1 1121:1 1131:1 1140:1 1146:1 1171:1 1185:1 1188:1 1200:1 1257:1 1258:1 1273:1 1308:1 1374:1 1383:1 1426:1 1432:1 1450:1 1455:1 1457:1 1472:1 1485:1 1514:1 1534:1 1536:1 1591:1 1618:1 1644:1 1685:1 1689:1 1735:1 1820:1 1827:1 1928:1 1985:1 1986:1 1992:1 2079:1 2097:1 2107:1 2133:1 2136:1 2140:1 2159:1 2184:1 2195:1 2197:1 2213:1 2249:1 2281:1 2300:1 2333:1 2344:1 2347:1 2362:1 2415:1 2462:1 2474:1 2551:1 2558:1 2561:1 2621:1 2674:1 2705:1 2714:1 2726:1 2747:1 2790:1 2798:1 2807:1 2813:1 2898:1 3005:1 3025:1 3078:1 3085:1 3114:1 3152:1 3183:1 3196:1 3210:1 3221:1 3246:1 3282:1 3446:1 3493:1 3666:1 3911:1 3928:1 3932:1 3968:1 3974:1 3999:1 4039:1 4040:1 4054:1 4062:1 4176:1 4195:1 4200:1 4263:1 4312:1 4344:1 4422:1 4498:1 4804:1 4956:1 5011:1 5030:1 5073:1 5082:1 5148:1 5188:1 5226:1 5270:1 5314:1 5387:1 5417:1 5588:1 5759:1 5864:1 5911:1 5921:1 6004:1 6023:1 6078:1 6129:1 6141:1 6469:1 6579:1 6632:1 6988:1 7112:1 7140:1 7178:1 7437:1 7506:1 7582:1 7769:1 7802:1 8105:1 8141:1 8158:1 8188:1 8238:1 8380:1 8385:1 8520:1 8548:1 8551:1 8639:1 8706:1 8732:1 9049:1 9247:1 9685:1 9727:1 10350:1 10442:1 10461:1 10486:1 10500:1 10586:1 10656:1 #
0.004374232019613822318448992376716 275:1 296:1 895:1 1986:1 6039:1 #
-0.004374232019613822318448992376716 1:1 2:1 4:1 5:1 6:1 7:1 8:1 9:1 10:1 11:1 12:1 13:1 14:1 15:1 16:1 17:1 18:1 19:1 20:1 21:1 22:1 24:1 25:1 26:1 27:1 28:1 29:1 30:1 31:1 32:1 34:1 36:1 42:1 43:1 45:1 47:1 49:1 51:1 52:1 53:1 56:1 60:1 62:1 63:1 66:1 67:1 68:1 71:1 73:1 75:1 76:1 77:1 78:1 79:1 81:1 82:1 84:1 89:1 93:1 94:1 95:1 98:1 102:1 104:1 105:1 106:1 107:1 108:1 109:1 112:1 113:1 114:1 115:1 117:1 122:1 123:1 126:1 128:1 130:1 137:1 138:1 144:1 146:1 148:1 149:1 154:1 156:1 158:1 159:1 163:1 168:1 170:1 171:1 181:1 184:1 190:1 195:1 196:1 198:1 200:1 202:1 203:1 206:1 221:1 222:1 225:1 227:1 229:1 230:1 232:1 233:1 234:1 235:1 238:1 241:1 243:1 244:1 245:1 246:1 247:1 249:1 251:1 257:1 258:1 260:1 264:1 266:1 279:1 282:1 283:1 295:1 297:1 303:1 308:1 321:1 324:1 329:1 334:1 341:1 349:1 361:1 364:1 367:1 374:1 375:1 377:1 385:1 387:1 388:1 390:1 393:1 397:1 400:1 401:1 403:1 404:1 409:1 423:1 430:1 440:1 444:1 452:1 454:1 459:1 471:1 472:1 475:1 482:1 485:1 495:1 496:1 499:1 533:1 544:1 551:1 566:1 569:1 581:1 599:1 602:1 615:1 628:1 630:1 632:1 639:1 643:1 653:1 658:1 660:1 670:1 674:1 680:1 713:1 723:1 725:1 728:1 745:1 750:1 755:1 760:1 767:1 768:1 771:1 775:1 782:1 785:1 814:1 819:1 828:1 863:1 864:1 868:1 875:1 888:1 891:1 899:1 918:1 919:1 932:1 936:1 937:1 945:1 949:1 953:1 955:1 956:1 985:1 989:1 1004:1 1009:1 1011:1 1012:1 1021:1 1028:1 1042:1 1046:1 1049:1 1058:1 1066:1 1071:1 1079:1 1082:1 1090:1 1091:1 1103:1 1118:1 1119:1 1124:1 1128:1 1133:1 1134:1 1142:1 1154:1 1160:1 1161:1 1185:1 1200:1 1228:1 1232:1 1267:1 1324:1 1361:1 1378:1 1386:1 1397:1 1403:1 1438:1 1439:1 1450:1 1452:1 1470:1 1471:1 1483:1 1488:1 1498:1 1505:1 1514:1 1516:1 1522:1 1524:1 1546:1 1561:1 1570:1 1573:1 1587:1 1588:1 1591:1 1625:1 1683:1 1698:1 1704:1 1720:1 1726:1 1744:1 1820:1 1857:1 1859:1 1870:1 1879:1 1898:1 1919:1 1926:1 1961:1 1964:1 1977:1 2009:1 2062:1 2134:1 2179:1 2194:1 2262:1 2268:1 2272:1 2300:1 2304:1 2309:1 2325:1 2363:1 2372:1 2383:1 2448:1 2462:1 2486:1 2541:1 2548:1 2599:1 2614:1 2621:1 2718:1 2780:1 2794:1 2896:1 2966:1 2996:1 3004:1 3022:1 3040:1 3045:1 3056:1 3114:1 3120:1 3182:1 3275:1 3333:1 3353:1 3368:1 3376:1 3463:1 3464:1 3500:1 3562:1 3620:1 3648:1 3668:1 3721:1 3741:1 3801:1 3827:1 3840:1 3853:1 3877:1 3883:1 3907:1 3926:1 3985:1 4029:1 4040:1 4043:1 4055:1 4141:1 4160:1 4192:1 4225:1 4280:1 4288:1 4302:1 4318:1 4329:1 4337:1 4359:1 4367:1 4383:1 4398:1 4431:1 4470:1 4561:1 4580:1 4740:1 4759:1 4779:1 4921:1 4929:1 5102:1 5157:1 5376:1 5382:1 5399:1 5439:1 5470:1 5640:1 5659:1 5794:1 6006:1 6007:1 6008:1 6054:1 6111:1 6149:1 6184:1 6309:1 6442:1 6572:1 6588:1 6759:1 6877:1 6926:1 6980:1 7035:1 7062:1 7078:1 7171:1 7281:1 7286:1 7294:1 7354:1 7394:1 7506:1 7590:1 7652:1 7697:1 7762:1 7769:1 7787:1 7799:1 7836:1 7929:1 7949:1 7964:1 8179:1 8280:1 8464:1 8794:1 8948:1 9070:1 9281:1 9303:1 9428:1 9462:1 9605:1 9667:1 9668:1 9752:1 9866:1 10030:1 10031:1 10126:1 10228:1 10301:1 10372:1 10606:1 10718:1 #
-0.004374232019613822318448992376716 2:1 4:1 6:1 8:1 9:1 11:1 12:1 15:1 16:1 17:1 18:1 20:1 21:1 22:1 23:1 24:1 25:1 27:1 28:1 29:1 30:1 32:1 34:1 36:1 38:1 40:1 41:1 45:1 46:1 51:1 52:1 54:1 60:1 61:1 62:1 65:1 67:1 68:1 71:1 72:1 76:1 78:1 79:1 82:1 85:1 86:1 90:1 92:1 98:1 101:1 102:1 104:1 111:1 114:1 124:1 126:1 130:1 134:1 135:1 138:1 144:1 147:1 155:1 158:1 163:1 167:1 169:1 170:1 172:1 186:1 187:1 197:1 198:1 199:1 204:1 207:1 210:1 212:1 214:1 216:1 225:1 226:1 231:1 232:1 241:1 245:1 250:1 253:1 270:1 281:1 283:1 289:1 301:1 304:1 316:1 323:1 328:1 332:1 345:1 346:1 392:1 411:1 416:1 420:1 425:1 428:1 441:1 449:1 456:1 470:1 475:1 481:1 485:1 490:1 496:1 497:1 507:1 526:1 554:1 626:1 628:1 629:1 630:1 653:1 659:1 676:1 750:1 758:1 762:1 802:1 818:1 843:1 844:1 851:1 861:1 888:1 891:1 894:1 913:1 945:1 953:1 964:1 983:1 1000:1 1001:1 1005:1 1007:1 1012:1 1067:1 1081:1 1098:1 1105:1 1111:1 1135:1 1138:1 1155:1 1180:1 1199:1 1232:1 1257:1 1366:1 1416:1 1424:1 1441:1 1465:1 1480:1 1602:1 1603:1 1609:1 1638:1 1675:1 1679:1 1724:1 1751:1 1801:1 1817:1 1845:1 1855:1 1897:1 1949:1 2029:1 2044:1 2072:1 2086:1 2118:1 2167:1 2252:1 2266:1 2322:1 2427:1 2462:1 2602:1 2662:1 2846:1 2987:1 3289:1 3329:1 3725:1 3783:1 3795:1 3950:1 4180:1 4183:1 4363:1 4594:1 4642:1 4739:1 4852:1 4878:1 4979:1 5002:1 5010:1 5175:1 5256:1 5314:1 5405:1 5429:1 5439:1 5479:1 5731:1 6119:1 6515:1 7215:1 7243:1 7332:1 7424:1 7516:1 7564:1 8055:1 8151:1 8173:1 8687:1 8958:1 9116:1 9765:1 9863:1 9873:1 9921:1 10190:1 10682:1 #
-0.004374232019613822318448992376716 6:1 7:1 15:1 16:1 17:1 20:1 24:1 27:1 29:1 31:1 32:1 35:1 36:1 40:1 41:1 42:1 45:1 46:1 47:1 48:1 49:1 52:1 53:1 56:1 62:1 63:1 66:1 67:1 68:1 71:1 75:1 77:1 84:1 86:1 89:1 91:1 94:1 99:1 102:1 104:1 111:1 114:1 115:1 119:1 120:1 126:1 127:1 129:1 131:1 133:1 152:1 153:1 154:1 155:1 156:1 163:1 164:1 165:1 167:1 170:1 177:1 178:1 183:1 195:1 198:1 204:1 210:1 212:1 216:1 218:1 221:1 225:1 231:1 232:1 240:1 241:1 244:1 255:1 264:1 265:1 272:1 275:1 277:1 279:1 295:1 316:1 318:1 319:1 321:1 330:1 345:1 351:1 355:1 361:1 369:1 406:1 408:1 414:1 425:1 435:1 448:1 464:1 475:1 490:1 495:1 497:1 606:1 631:1 632:1 636:1 644:1 648:1 649:1 652:1 656:1 667:1 676:1 725:1 740:1 750:1 751:1 752:1 758:1 763:1 780:1 788:1 795:1 798:1 800:1 802:1 808:1 809:1 810:1 815:1 828:1 838:1 843:1 855:1 857:1 874:1 897:1 899:1 937:1 945:1 946:1 947:1 1009:1 1030:1 1058:1 1071:1 1074:1 1092:1 1094:1 1147:1 1161:1 1197:1 1226:1 1370:1 1372:1 1376:1 1387:1 1390:1 1414:1 1427:1 1439:1 1442:1 1446:1 1457:1 1465:1 1476:1 1487:1 1491:1 1492:1 1494:1 1496:1 1527:1 1534:1 1548:1 1570:1 1572:1 1719:1 1735:1 1750:1 1810:1 1919:1 1931:1 1945:1 2003:1 2027:1 2040:1 2109:1 2117:1 2151:1 2170:1 2203:1 2274:1 2294:1 2300:1 2314:1 2416:1 2418:1 2470:1 2548:1 2554:1 2643:1 2681:1 2682:1 2726:1 2734:1 2819:1 2950:1 3067:1 3085:1 3086:1 3111:1 3163:1 3275:1 3283:1 3335:1 3399:1 3462:1 3474:1 3646:1 3654:1 3684:1 3685:1 3845:1 3964:1 3967:1 4055:1 4156:1 4194:1 4199:1 4252:1 4344:1 4403:1 4414:1 4500:1 4574:1 4908:1 4936:1 5150:1 5215:1 5270:1 5276:1 5516:1 5736:1 5791:1 5931:1 6029:1 6127:1 6130:1 6192:1 6259:1 6552:1 6583:1 6727:1 6959:1 7187:1 7228:1 7251:1 7683:1 7720:1 7769:1 7838:1 7982:1 8081:1 8999:1 9471:1 10211:1 10620:1 #
-0.004374232019613822318448992376716 1:1 2:1 4:1 8:1 9:1 11:1 12:1 13:1 16:1 18:1 19:1 20:1 21:1 22:1 23:1 24:1 25:1 26:1 27:1 29:1 30:1 31:1 35:1 36:1 39:1 40:1 43:1 45:1 46:1 50:1 51:1 54:1 59:1 62:1 63:1 65:1 66:1 67:1 71:1 72:1 75:1 77:1 84:1 91:1 94:1 96:1 98:1 99:1 102:1 106:1 107:1 111:1 114:1 116:1 122:1 124:1 126:1 130:1 133:1 139:1 146:1 149:1 163:1 167:1 169:1 170:1 171:1 172:1 176:1 182:1 184:1 207:1 216:1 230:1 232:1 234:1 235:1 241:1 243:1 244:1 245:1 246:1 252:1 264:1 265:1 266:1 272:1 273:1 276:1 277:1 289:1 291:1 300:1 308:1 315:1 324:1 326:1 331:1 332:1 341:1 342:1 356:1 357:1 360:1 362:1 372:1 377:1 387:1 391:1 392:1 397:1 399:1 402:1 407:1 434:1 442:1 448:1 456:1 464:1 469:1 480:1 495:1 496:1 500:1 502:1 529:1 531:1 562:1 566:1 600:1 606:1 628:1 635:1 636:1 643:1 651:1 695:1 702:1 714:1 755:1 763:1 771:1 798:1 802:1 809:1 814:1 817:1 829:1 866:1 873:1 889:1 894:1 905:1 927:1 928:1 960:1 987:1 1002:1 1023:1 1029:1 1032:1 1071:1 1083:1 1088:1 1118:1 1134:1 1135:1 1137:1 1138:1 1149:1 1165:1 1169:1 1200:1 1230:1 1308:1 1361:1 1372:1 1416:1 1419:1 1439:1 1456:1 1500:1 1531:1 1556:1 1557:1 1572:1 1583:1 1588:1 1641:1 1688:1 1745:1 1749:1 1842:1 1843:1 1863:1 1888:1 1925:1 1939:1 1949:1 1995:1 1998:1 2003:1 2079:1 2192:1 2194:1 2208:1 2210:1 2228:1 2339:1 2382:1 2418:1 2470:1 2486:1 2538:1 2542:1 2674:1 2675:1 2680:1 2813:1 2819:1 2912:1 3029:1 3066:1 3098:1 3122:1 3126:1 3207:1 3283:1 3355:1 3365:1 3461:1 3646:1 3649:1 3725:1 3924:1 4007:1 4009:1 4017:1 4039:1 4081:1 4083:1 4104:1 4176:1 4181:1 4224:1 4234:1 4304:1 4363:1 4674:1 4731:1 4738:1 4781:1 4963:1 5070:1 5086:1 5188:1 5354:1 5356:1 5396:1 5429:1 5445:1 5449:1 5483:1 5612:1 5700:1 5757:1 5802:1 5810:1 5967:1 6123:1 6177:1 6242:1 6262:1 6319:1 6408:1 6439:1 6649:1 6941:1 7109:1 7196:1 7227:1 7412:1 7554:1 7617:1 7710:1 7874:1 7997:1 8042:1 8191:1 8197:1 8208:1 8395:1 8587:1 8603:1 8615:1 8692:1 8779:1 8961:1 9321:1 9412:1 9470:1 9650:1 9657:1 9819:1 10027:1 10267:1 10315:1 10360:1 10364:1 10450:1 10544:1 10614:1 #
-0.004374232019613822318448992376716 2:1 4:1 5:1 8:1 11:1 12:1 13:1 14:1 15:1 16:1 17:1 18:1 22:1 23:1 24:1 25:1 26:1 27:1 28:1 30:1 31:1 32:1 35:1 36:1 37:1 40:1 44:1 51:1 52:1 54:1 56:1 62:1 65:1 73:1 75:1 77:1 84:1 85:1 86:1 89:1 91:1 94:1 95:1 102:1 103:1 104:1 107:1 108:1 114:1 119:1 124:1 127:1 131:1 137:1 138:1 147:1 148:1 149:1 154:1 159:1 163:1 165:1 170:1 171:1 177:1 187:1 188:1 193:1 195:1 196:1 198:1 202:1 207:1 215:1 216:1 222:1 231:1 232:1 244:1 245:1 260:1 270:1 272:1 273:1 278:1 279:1 288:1 289:1 315:1 316:1 326:1 328:1 333:1 335:1 336:1 339:1 354:1 356:1 357:1 387:1 392:1 397:1 408:1 414:1 434:1 442:1 446:1 452:1 459:1 464:1 467:1 480:1 481:1 488:1 503:1 553:1 599:1 612:1 630:1 641:1 645:1 649:1 653:1 674:1 676:1 688:1 709:1 725:1 750:1 755:1 757:1 758:1 760:1 771:1 788:1 817:1 851:1 874:1 891:1 905:1 912:1 964:1 972:1 987:1 988:1 1006:1 1008:1 1009:1 1012:1 1028:1 1057:1 1092:1 1111:1 1131:1 1150:1 1155:1 1173:1 1226:1 1374:1 1375:1 1432:1 1439:1 1462:1 1476:1 1495:1 1556:1 1602:1 1608:1 1723:1 1735:1 1741:1 1749:1 1840:1 1851:1 1874:1 1912:1 1919:1 1999:1 2000:1 2029:1 2052:1 2077:1 2163:1 2168:1 2210:1 2253:1 2265:1 2271:1 2300:1 2318:1 2368:1 2375:1 2396:1 2613:1 2625:1 2674:1 2819:1 3004:1 3043:1 3078:1 3098:1 3100:1 3207:1 3271:1 3350:1 3431:1 3461:1 3519:1 3654:1 3725:1 3774:1 3804:1 3946:1 4014:1 4055:1 4183:1 4200:1 4236:1 4481:1 4488:1 4598:1 4844:1 4886:1 4909:1 4912:1 5095:1 5111:1 5118:1 5123:1 5147:1 5234:1 5473:1 5500:1 5571:1 5591:1 5733:1 6008:1 6032:1 6105:1 6147:1 6375:1 6740:1 6783:1 7074:1 7149:1 7232:1 7475:1 7505:1 7564:1 7729:1 7868:1 7910:1 8292:1 8828:1 8887:1 9067:1 9146:1 9194:1 9231:1 9635:1 9739:1 9759:1 10267:1 #
-0.0023907078628611845745599584489582 1:1 5:1 7:1 10:1 11:1 12:1 13:1 16:1 17:1 18:1 21:1 22:1 24:1 25:1 29:1 30:1 31:1 32:1 36:1 51:1 56:1 57:1 59:1 62:1 63:1 67:1 75:1 84:1 88:1 89:1 94:1 97:1 98:1 102:1 106:1 110:1 113:1 114:1 119:1 120:1 130:1 131:1 135:1 146:1 153:1 158:1 170:1 172:1 175:1 179:1 187:1 209:1 215:1 216:1 218:1 227:1 231:1 236:1 238:1 243:1 244:1 264:1 270:1 273:1 278:1 319:1 320:1 322:1 333:1 341:1 355:1 357:1 382:1 387:1 394:1 397:1 403:1 430:1 464:1 475:1 476:1 490:1 500:1 522:1 566:1 618:1 620:1 632:1 635:1 649:1 669:1 688:1 698:1 758:1 762:1 802:1 806:1 828:1 839:1 843:1 849:1 913:1 918:1 935:1 946:1 993:1 1025:1 1093:1 1107:1 1173:1 1175:1 1212:1 1284:1 1418:1 1419:1 1478:1 1484:1 1514:1 1536:1 1580:1 1589:1 1620:1 1626:1 1760:1 1863:1 1903:1 1941:1 2057:1 2072:1 2077:1 2090:1 2168:1 2195:1 2233:1 2235:1 2289:1 2296:1 2337:1 2401:1 2415:1 2416:1 2442:1 2443:1 2462:1 2484:1 2630:1 2634:1 2660:1 2706:1 2995:1 3005:1 3055:1 3078:1 3114:1 3152:1 3154:1 3207:1 3365:1 3446:1 3450:1 3463:1 3666:1 3872:1 3944:1 4059:1 4128:1 4186:1 4201:1 4210:1 4313:1 4359:1 4366:1 4406:1 4482:1 4498:1 4504:1 4692:1 4822:1 4991:1 5009:1 5047:1 5079:1 5252:1 5355:1 5358:1 5477:1 5500:1 5747:1 5845:1 5905:1 5936:1 6189:1 6194:1 6442:1 6478:1 6593:1 6609:1 6690:1 6702:1 6740:1 6743:1 7017:1 7131:1 7194:1 7231:1 7474:1 7995:1 8141:1 8173:1 8413:1 8438:1 8551:1 8647:1 8694:1 8732:1 8836:1 8887:1 9116:1 9120:1 9134:1 9161:1 9551:1 9729:1 9958:1 10044:1 10130:1 10147:1 10500:1 10533:1 #
0.004374232019613822318448992376716 1:1 3:1 5:1 7:1 11:1 12:1 14:1 15:1 16:1 18:1 19:1 20:1 21:1 22:1 24:1 25:1 30:1 31:1 34:1 36:1 39:1 44:1 48:1 51:1 62:1 63:1 66:1 69:1 84:1 88:1 92:1 94:1 95:1 98:1 100:1 103:1 104:1 109:1 113:1 126:1 128:1 135:1 138:1 141:1 151:1 158:1 161:1 166:1 168:1 191:1 195:1 199:1 204:1 205:1 216:1 218:1 222:1 223:1 229:1 232:1 238:1 244:1 249:1 251:1 254:1 259:1 270:1 302:1 315:1 316:1 318:1 322:1 324:1 326:1 327:1 333:1 350:1 366:1 367:1 370:1 406:1 410:1 411:1 421:1 426:1 434:1 435:1 452:1 457:1 465:1 471:1 480:1 482:1 496:1 522:1 530:1 545:1 566:1 575:1 606:1 630:1 642:1 644:1 653:1 666:1 758:1 802:1 814:1 832:1 843:1 875:1 892:1 897:1 905:1 950:1 986:1 994:1 1015:1 1096:1 1098:1 1125:1 1178:1 1180:1 1255:1 1275:1 1364:1 1365:1 1377:1 1378:1 1461:1 1487:1 1593:1 1757:1 1784:1 1831:1 1886:1 1942:1 1946:1 2106:1 2146:1 2231:1 2235:1 2240:1 2304:1 2371:1 2439:1 2660:1 3098:1 3128:1 3213:1 3433:1 3458:1 3477:1 3783:1 4004:1 4288:1 4360:1 4987:1 5014:1 5062:1 5314:1 5401:1 5653:1 5835:1 5931:1 6110:1 6147:1 6439:1 6639:1 7059:1 7111:1 7525:1 8383:1 8450:1 8593:1 8751:1 9054:1 9193:1 9552:1 10114:1 10186:1 10201:1 10327:1 10343:1 10533:1 #
0.004374232019613822318448992376716 7:1 8:1 21:1 26:1 30:1 36:1 72:1 103:1 141:1 191:1 320:1 344:1 357:1 471:1 667:1 778:1 817:1 944:1 1373:1 1536:1 1901:1 2101:1 3789:1 4145:1 4187:1 6343:1 7070:1 7116:1 7430:1 #
0.0042877918280159570130205537452639 1:1 5:1 8:1 12:1 14:1 16:1 17:1 18:1 20:1 22:1 25:1 26:1 29:1 30:1 34:1 35:1 37:1 42:1 43:1 44:1 50:1 52:1 54:1 56:1 57:1 58:1 62:1 66:1 68:1 75:1 82:1 84:1 96:1 99:1 104:1 114:1 124:1 135:1 137:1 146:1 159:1 179:1 186:1 202:1 205:1 209:1 216:1 218:1 222:1 231:1 236:1 238:1 249:1 279:1 283:1 310:1 322:1 323:1 324:1 331:1 352:1 362:1 377:1 382:1 395:1 404:1 411:1 416:1 426:1 436:1 440:1 452:1 478:1 491:1 510:1 515:1 521:1 529:1 544:1 558:1 564:1 566:1 581:1 630:1 640:1 666:1 671:1 691:1 694:1 728:1 758:1 768:1 777:1 779:1 783:1 868:1 899:1 941:1 1015:1 1061:1 1105:1 1111:1 1147:1 1172:1 1258:1 1471:1 1473:1 1481:1 1483:1 1672:1 1805:1 1827:1 1949:1 1986:1 2003:1 2034:1 2131:1 2140:1 2160:1 2183:1 2232:1 2240:1 2293:1 2350:1 2358:1 2361:1 2373:1 2390:1 2443:1 2467:1 2588:1 2692:1 2716:1 3129:1 3221:1 3300:1 3369:1 3438:1 3507:1 3960:1 3965:1 3994:1 4173:1 4357:1 4477:1 4511:1 4619:1 4842:1 5045:1 5101:1 5180:1 5262:1 5472:1 5535:1 5571:1 5640:1 5656:1 5965:1 6528:1 6740:1 6867:1 7094:1 7295:1 8105:1 8542:1 8584:1 8634:1 9223:1 10062:1 10261:1 10287:1 #
0.004374232019613822318448992376716 1:1 5:1 6:1 7:1 11:1 12:1 16:1 18:1 20:1 22:1 25:1 30:1 34:1 42:1 44:1 45:1 53:1 62:1 67:1 72:1 75:1 76:1 84:1 86:1 88:1 98:1 101:1 103:1 104:1 112:1 114:1 117:1 119:1 120:1 122:1 125:1 129:1 146:1 172:1 191:1 199:1 202:1 210:1 212:1 218:1 219:1 243:1 245:1 251:1 265:1 275:1 277:1 278:1 283:1 323:1 325:1 381:1 395:1 398:1 404:1 410:1 416:1 424:1 428:1 434:1 442:1 446:1 451:1 472:1 491:1 529:1 581:1 658:1 665:1 694:1 703:1 758:1 762:1 777:1 828:1 839:1 863:1 937:1 940:1 941:1 944:1 953:1 1003:1 1105:1 1172:1 1305:1 1480:1 1504:1 1536:1 1549:1 1553:1 1591:1 1796:1 1827:1 1890:1 1977:1 1986:1 1999:1 2005:1 2051:1 2064:1 2117:1 2140:1 2183:1 2249:1 2277:1 2306:1 2350:1 2371:1 2440:1 2455:1 2739:1 2813:1 2904:1 2908:1 3078:1 3098:1 3102:1 3120:1 3134:1 3461:1 3487:1 3548:1 3723:1 3742:1 3775:1 3914:1 4128:1 4132:1 4469:1 4679:1 4714:1 4754:1 4896:1 5025:1 5049:1 5066:1 5069:1 5314:1 5390:1 5402:1 5588:1 5615:1 6702:1 6989:1 7795:1 8029:1 8105:1 8339:1 8525:1 9103:1 9344:1 9442:1 10095:1 #
-0.004374232019613822318448992376716 1:1 2:1 5:1 7:1 9:1 11:1 12:1 15:1 16:1 20:1 25:1 28:1 29:1 30:1 32:1 36:1 44:1 48:1 51:1 52:1 54:1 57:1 59:1 62:1 73:1 78:1 82:1 83:1 84:1 90:1 95:1 98:1 102:1 103:1 106:1 112:1 113:1 114:1 137:1 151:1 152:1 155:1 194:1 197:1 202:1 213:1 216:1 218:1 220:1 222:1 224:1 249:1 251:1 270:1 277:1 279:1 314:1 319:1 339:1 353:1 411:1 429:1 432:1 434:1 452:1 457:1 471:1 475:1 478:1 493:1 497:1 530:1 570:1 575:1 614:1 628:1 728:1 750:1 755:1 760:1 762:1 783:1 816:1 817:1 833:1 856:1 862:1 868:1 891:1 941:1 946:1 951:1 955:1 962:1 987:1 1004:1 1030:1 1035:1 1068:1 1082:1 1092:1 1102:1 1105:1 1172:1 1239:1 1373:1 1413:1 1483:1 1484:1 1536:1 1553:1 1591:1 1748:1 1842:1 1976:1 2109:1 2240:1 2344:1 2360:1 2390:1 2423:1 2480:1 2610:1 2716:1 3014:1 3099:1 3102:1 3295:1 3495:1 3562:1 4081:1 4194:1 4366:1 4477:1 4714:1 4716:1 4991:1 5082:1 5221:1 5589:1 5659:1 5865:1 5897:1 5956:1 6593:1 6665:1 6750:1 6978:1 7229:1 7714:1 7785:1 7786:1 7975:1 9421:1 9798:1 10025:1 10440:1 #
-0.004374232019613822318448992376716 2:1 7:1 12:1 16:1 18:1 19:1 20:1 23:1 24:1 27:1 29:1 30:1 34:1 36:1 37:1 42:1 48:1 51:1 66:1 69:1 71:1 76:1 84:1 86:1 95:1 101:1 104:1 112:1 113:1 126:1 129:1 136:1 146:1 152:1 159:1 185:1 189:1 196:1 222:1 224:1 227:1 228:1 238:1 244:1 251:1 289:1 314:1 318:1 375:1 378:1 379:1 387:1 411:1 426:1 434:1 438:1 448:1 457:1 477:1 478:1 490:1 553:1 628:1 630:1 728:1 746:1 758:1 818:1 843:1 881:1 892:1 897:1 912:1 946:1 1008:1 1015:1 1107:1 1178:1 1184:1 1190:1 1259:1 1377:1 1425:1 1428:1 1455:1 1461:1 1513:1 1832:1 2005:1 2120:1 2171:1 2290:1 2378:1 2391:1 2439:1 2611:1 2649:1 2714:1 2921:1 3098:1 3487:1 3495:1 3643:1 3723:1 3869:1 3914:1 3988:1 4252:1 4355:1 5064:1 5703:1 6059:1 7500:1 7951:1 7978:1 8235:1 9054:1 9744:1 #
-0.0018850587713904209431758918213973 2:1 5:1 7:1 8:1 11:1 12:1 13:1 14:1 15:1 16:1 17:1 18:1 19:1 20:1 21:1 22:1 23:1 24:1 25:1 29:1 30:1 32:1 39:1 44:1 50:1 57:1 62:1 84:1 88:1 90:1 96:1 98:1 103:1 104:1 106:1 116:1 126:1 135:1 138:1 141:1 146:1 150:1 151:1 159:1 166:1 189:1 191:1 202:1 213:1 218:1 221:1 222:1 223:1 229:1 238:1 256:1 271:1 293:1 309:1 352:1 357:1 364:1 387:1 438:1 460:1 465:1 472:1 521:1 567:1 575:1 609:1 651:1 657:1 665:1 669:1 801:1 848:1 860:1 867:1 891:1 904:1 923:1 924:1 943:1 1005:1 1102:1 1137:1 1173:1 1373:1 1377:1 1441:1 1461:1 1536:1 1676:1 1827:1 1886:1 2053:1 2113:1 2172:1 2416:1 2429:1 2702:1 2797:1 2825:1 2852:1 3128:1 3335:1 3625:1 3960:1 3965:1 4004:1 4041:1 4065:1 4124:1 4559:1 4754:1 5070:1 5345:1 6111:1 6250:1 6356:1 6481:1 6562:1 6683:1 6707:1 6781:1 7209:1 7231:1 7485:1 8383:1 8524:1 8865:1 9024:1 9350:1 9881:1 10010:1 10263:1 10371:1 10743:1 #
0.0012038999569365992168418211250014 4:1 6:1 7:1 11:1 12:1 13:1 14:1 15:1 22:1 23:1 24:1 25:1 26:1 28:1 29:1 30:1 31:1 32:1 36:1 38:1 43:1 45:1 46:1 50:1 51:1 57:1 59:1 61:1 63:1 66:1 75:1 79:1 81:1 94:1 96:1 102:1 103:1 111:1 113:1 114:1 119:1 127:1 130:1 133:1 137:1 138:1 149:1 153:1 163:1 167:1 174:1 177:1 187:1 190:1 207:1 216:1 218:1 220:1 231:1 234:1 235:1 238:1 241:1 244:1 249:1 255:1 260:1 264:1 278:1 299:1 305:1 318:1 332:1 339:1 347:1 354:1 356:1 357:1 385:1 387:1 414:1 425:1 434:1 435:1 442:1 451:1 462:1 481:1 500:1 531:1 554:1 581:1 618:1 628:1 642:1 653:1 688:1 693:1 755:1 779:1 792:1 798:1 800:1 803:1 809:1 814:1 815:1 830:1 839:1 849:1 859:1 865:1 870:1 873:1 891:1 897:1 921:1 939:1 972:1 990:1 996:1 1074:1 1131:1 1140:1 1149:1 1173:1 1185:1 1226:1 1279:1 1398:1 1405:1 1418:1 1446:1 1465:1 1785:1 1820:1 1998:1 1999:1 2083:1 2150:1 2192:1 2206:1 2207:1 2214:1 2251:1 2339:1 2344:1 2647:1 2730:1 2780:1 3000:1 3123:1 3235:1 3536:1 3562:1 3597:1 3604:1 3774:1 3939:1 4092:1 4225:1 4291:1 4300:1 4418:1 4885:1 4954:1 5047:1 5184:1 5219:1 5354:1 5429:1 5667:1 5733:1 5753:1 6007:1 6177:1 6211:1 6242:1 6337:1 6819:1 7392:1 7554:1 7617:1 7736:1 7748:1 8164:1 8208:1 8422:1 8551:1 8608:1 8676:1 8686:1 8777:1 8920:1 9295:1 10067:1 10522:1 10559:1 10647:1 10677:1 10706:1 #
-0.004374232019613822318448992376716 1:1 6:1 7:1 8:1 11:1 12:1 16:1 17:1 18:1 20:1 22:1 24:1 27:1 28:1 30:1 31:1 34:1 38:1 45:1 48:1 50:1 51:1 56:1 59:1 61:1 62:1 74:1 76:1 78:1 84:1 90:1 93:1 94:1 95:1 96:1 97:1 98:1 99:1 102:1 103:1 104:1 105:1 113:1 114:1 125:1 127:1 129:1 152:1 155:1 158:1 168:1 175:1 177:1 186:1 187:1 193:1 198:1 202:1 208:1 216:1 218:1 224:1 231:1 251:1 279:1 281:1 307:1 319:1 329:1 332:1 337:1 341:1 365:1 382:1 384:1 387:1 404:1 406:1 471:1 472:1 475:1 497:1 515:1 526:1 533:1 564:1 575:1 581:1 614:1 633:1 653:1 709:1 719:1 723:1 746:1 758:1 761:1 827:1 828:1 851:1 868:1 872:1 875:1 882:1 891:1 910:1 936:1 943:1 984:1 985:1 994:1 1008:1 1067:1 1090:1 1105:1 1155:1 1425:1 1453:1 1476:1 1483:1 1485:1 1543:1 1574:1 1626:1 1643:1 1659:1 1851:1 1861:1 1890:1 1976:1 2134:1 2183:1 2304:1 2305:1 2359:1 2371:1 2667:1 2789:1 2797:1 3129:1 3152:1 3245:1 3400:1 3459:1 3605:1 3666:1 3755:1 3801:1 3807:1 4059:1 4679:1 5060:1 5064:1 5213:1 5529:1 5589:1 5643:1 5911:1 5994:1 6118:1 6192:1 6568:1 6930:1 7163:1 7228:1 7773:1 7898:1 7994:1 8281:1 8634:1 9580:1 9795:1 10190:1 #
0.0020443366143164214132621481212482 2:1 6:1 7:1 11:1 15:1 16:1 17:1 18:1 20:1 22:1 24:1 25:1 27:1 29:1 30:1 31:1 32:1 34:1 35:1 37:1 38:1 40:1 49:1 51:1 61:1 62:1 64:1 66:1 73:1 78:1 81:1 84:1 85:1 86:1 90:1 94:1 95:1 98:1 102:1 103:1 104:1 113:1 114:1 120:1 124:1 126:1 127:1 149:1 156:1 162:1 168:1 172:1 178:1 194:1 198:1 202:1 207:1 209:1 221:1 231:1 236:1 238:1 244:1 251:1 260:1 277:1 279:1 293:1 307:1 308:1 319:1 322:1 330:1 333:1 341:1 344:1 347:1 352:1 367:1 374:1 375:1 385:1 396:1 400:1 425:1 446:1 464:1 472:1 478:1 488:1 502:1 557:1 569:1 630:1 634:1 642:1 660:1 669:1 723:1 725:1 758:1 762:1 807:1 808:1 820:1 843:1 847:1 849:1 983:1 1087:1 1102:1 1107:1 1205:1 1284:1 1371:1 1372:1 1438:1 1439:1 1442:1 1517:1 1534:1 1546:1 1620:1 1646:1 1832:1 1894:1 2011:1 2103:1 2157:1 2158:1 2168:1 2236:1 2298:1 2416:1 2613:1 2665:1 2753:1 2905:1 2936:1 2950:1 3028:1 3139:1 3182:1 3196:1 3449:1 3463:1 3575:1 3652:1 3788:1 3804:1 3872:1 3910:1 4061:1 4065:1 4091:1 4144:1 4194:1 4210:1 4356:1 4406:1 4524:1 4612:1 4873:1 4921:1 4926:1 4959:1 5105:1 5147:1 5279:1 5400:1 5415:1 5933:1 5979:1 6540:1 6609:1 6693:1 7008:1 7791:1 7836:1 8112:1 8141:1 8179:1 8377:1 9958:1 10444:1 #
0.004374232019613822318448992376716 1:1 2:1 4:1 6:1 9:1 10:1 11:1 12:1 14:1 16:1 17:1 18:1 20:1 22:1 23:1 24:1 25:1 27:1 29:1 30:1 33:1 36:1 40:1 41:1 42:1 45:1 47:1 48:1 50:1 51:1 53:1 57:1 59:1 60:1 61:1 62:1 63:1 69:1 71:1 72:1 75:1 77:1 79:1 80:1 83:1 85:1 89:1 91:1 98:1 99:1 102:1 116:1 117:1 120:1 125:1 130:1 131:1 133:1 136:1 138:1 156:1 159:1 165:1 169:1 170:1 174:1 187:1 212:1 222:1 225:1 235:1 240:1 242:1 244:1 245:1 247:1 250:1 267:1 269:1 270:1 283:1 285:1 289:1 295:1 298:1 304:1 305:1 332:1 333:1 336:1 356:1 357:1 361:1 365:1 372:1 373:1 378:1 382:1 392:1 396:1 403:1 410:1 414:1 424:1 455:1 464:1 475:1 477:1 480:1 500:1 518:1 524:1 553:1 575:1 581:1 598:1 626:1 629:1 630:1 635:1 636:1 641:1 645:1 646:1 670:1 687:1 700:1 703:1 717:1 746:1 762:1 801:1 817:1 849:1 855:1 856:1 869:1 874:1 878:1 881:1 891:1 895:1 900:1 918:1 922:1 947:1 956:1 958:1 978:1 1014:1 1022:1 1147:1 1161:1 1226:1 1257:1 1275:1 1376:1 1414:1 1425:1 1426:1 1476:1 1478:1 1569:1 1655:1 1690:1 1821:1 1827:1 1856:1 1906:1 1927:1 1939:1 1963:1 1972:1 2120:1 2163:1 2192:1 2212:1 2222:1 2274:1 2339:1 2348:1 2396:1 2531:1 2541:1 2655:1 2684:1 2715:1 2798:1 2937:1 3000:1 3144:1 3178:1 3184:1 3237:1 3240:1 3402:1 3414:1 3421:1 3434:1 3445:1 3487:1 3563:1 3685:1 3749:1 3864:1 3888:1 3939:1 4009:1 4017:1 4043:1 4147:1 4172:1 4282:1 4331:1 4513:1 4631:1 4738:1 4745:1 4780:1 4799:1 4868:1 4913:1 4962:1 5012:1 5188:1 5190:1 5219:1 5396:1 5599:1 5700:1 5728:1 5964:1 6025:1 6041:1 6063:1 6161:1 6197:1 6287:1 6312:1 6318:1 6450:1 6648:1 6743:1 6896:1 7077:1 7227:1 7303:1 7334:1 7448:1 7731:1 7937:1 8042:1 8191:1 8197:1 8208:1 8343:1 8388:1 8589:1 8631:1 8732:1 8837:1 8899:1 8902:1 8923:1 8928:1 9099:1 9437:1 9530:1 9573:1 9607:1 9650:1 9687:1 9777:1 10089:1 10141:1 10253:1 10267:1 #
0.0010905962628258848538809200334754 1:1 2:1 3:1 5:1 6:1 7:1 8:1 9:1 11:1 12:1 13:1 15:1 17:1 18:1 19:1 20:1 21:1 22:1 23:1 25:1 27:1 29:1 30:1 31:1 32:1 34:1 36:1 41:1 44:1 45:1 46:1 51:1 52:1 53:1 54:1 58:1 59:1 60:1 62:1 63:1 65:1 66:1 67:1 69:1 72:1 73:1 75:1 79:1 81:1 82:1 84:1 86:1 89:1 90:1 92:1 94:1 96:1 97:1 98:1 99:1 101:1 102:1 103:1 106:1 114:1 117:1 120:1 122:1 124:1 125:1 130:1 131:1 135:1 136:1 137:1 139:1 141:1 146:1 149:1 150:1 155:1 156:1 157:1 158:1 163:1 166:1 168:1 169:1 170:1 172:1 179:1 184:1 185:1 187:1 195:1 196:1 197:1 199:1 200:1 205:1 207:1 213:1 215:1 218:1 221:1 225:1 226:1 227:1 230:1 231:1 232:1 236:1 243:1 244:1 249:1 250:1 253:1 261:1 264:1 266:1 270:1 277:1 278:1 283:1 292:1 293:1 295:1 302:1 308:1 312:1 316:1 320:1 322:1 328:1 329:1 333:1 345:1 346:1 350:1 352:1 357:1 360:1 369:1 374:1 375:1 382:1 387:1 395:1 402:1 404:1 406:1 410:1 411:1 413:1 419:1 425:1 430:1 434:1 437:1 443:1 452:1 458:1 462:1 464:1 467:1 469:1 475:1 476:1 478:1 480:1 488:1 490:1 491:1 500:1 502:1 510:1 521:1 529:1 560:1 564:1 567:1 569:1 575:1 601:1 607:1 608:1 609:1 612:1 614:1 625:1 627:1 628:1 632:1 636:1 642:1 646:1 651:1 653:1 655:1 656:1 667:1 669:1 670:1 688:1 695:1 698:1 719:1 723:1 725:1 750:1 755:1 756:1 758:1 763:1 771:1 800:1 803:1 805:1 807:1 810:1 813:1 815:1 818:1 842:1 843:1 845:1 849:1 872:1 884:1 885:1 891:1 903:1 905:1 909:1 912:1 913:1 928:1 936:1 938:1 945:1 962:1 965:1 968:1 971:1 980:1 981:1 985:1 1002:1 1030:1 1052:1 1058:1 1092:1 1093:1 1095:1 1102:1 1109:1 1111:1 1118:1 1122:1 1131:1 1134:1 1135:1 1155:1 1157:1 1160:1 1161:1 1165:1 1173:1 1180:1 1187:1 1200:1 1228:1 1229:1 1232:1 1239:1 1258:1 1259:1 1268:1 1280:1 1284:1 1380:1 1383:1 1385:1 1405:1 1416:1 1426:1 1446:1 1457:1 1458:1 1462:1 1465:1 1470:1 1473:1 1476:1 1484:1 1485:1 1487:1 1489:1 1491:1 1492:1 1495:1 1514:1 1549:1 1551:1 1554:1 1556:1 1565:1 1596:1 1607:1 1619:1 1620:1 1627:1 1668:1 1671:1 1672:1 1676:1 1681:1 1698:1 1702:1 1729:1 1744:1 1750:1 1755:1 1760:1 1767:1 1797:1 1831:1 1832:1 1837:1 1845:1 1850:1 1883:1 1888:1 1890:1 1898:1 1905:1 1917:1 1939:1 1951:1 1967:1 1977:1 2003:1 2011:1 2023:1 2027:1 2035:1 2038:1 2053:1 2063:1 2086:1 2093:1 2106:1 2107:1 2148:1 2158:1 2168:1 2169:1 2184:1 2185:1 2187:1 2196:1 2213:1 2216:1 2228:1 2253:1 2257:1 2285:1 2298:1 2302:1 2314:1 2334:1 2344:1 2350:1 2355:1 2360:1 2363:1 2365:1 2370:1 2382:1 2396:1 2413:1 2415:1 2416:1 2440:1 2442:1 2462:1 2474:1 2599:1 2634:1 2681:1 2702:1 2706:1 2714:1 2716:1 2718:1 2825:1 2852:1 2898:1 2955:1 2957:1 2959:1 2964:1 2967:1 3001:1 3019:1 3040:1 3052:1 3059:1 3078:1 3101:1 3114:1 3122:1 3128:1 3144:1 3183:1 3204:1 3211:1 3222:1 3271:1 3274:1 3283:1 3289:1 3309:1 3352:1 3365:1 3369:1 3422:1 3541:1 3552:1 3562:1 3566:1 3582:1 3621:1 3646:1 3666:1 3667:1 3679:1 3690:1 3709:1 3730:1 3743:1 3774:1 3780:1 3782:1 3783:1 3795:1 3801:1 3842:1 3862:1 3878:1 3896:1 3905:1 3931:1 3947:1 3955:1 3960:1 4015:1 4016:1 4039:1 4059:1 4091:1 4092:1 4100:1 4103:1 4111:1 4125:1 4128:1 4162:1 4201:1 4224:1 4234:1 4263:1 4273:1 4278:1 4323:1 4332:1 4359:1 4366:1 4411:1 4423:1 4441:1 4443:1 4449:1 4510:1 4513:1 4558:1 4588:1 4594:1 4620:1 4626:1 4648:1 4658:1 4701:1 4706:1 4713:1 4719:1 4740:1 4754:1 4757:1 4763:1 4793:1 4795:1 4814:1 4824:1 4847:1 4851:1 4886:1 4897:1 4908:1 4919:1 4920:1 4926:1 4929:1 4992:1 5000:1 5009:1 5011:1 5069:1 5076:1 5146:1 5342:1 5410:1 5412:1 5450:1 5453:1 5465:1 5494:1 5500:1 5515:1 5597:1 5659:1 5662:1 5663:1 5674:1 5686:1 5717:1 5725:1 5770:1 5790:1 5836:1 5847:1 5906:1 6032:1 6068:1 6087:1 6095:1 6118:1 6136:1 6147:1 6189:1 6194:1 6218:1 6221:1 6379:1 6382:1 6402:1 6416:1 6426:1 6478:1 6490:1 6539:1 6545:1 6583:1 6609:1 6634:1 6653:1 6658:1 6661:1 6686:1 6702:1 6706:1 6716:1 6731:1 6796:1 6880:1 6896:1 6914:1 6949:1 6951:1 6968:1 7005:1 7056:1 7091:1 7151:1 7228:1 7268:1 7292:1 7403:1 7468:1 7474:1 7491:1 7506:1 7510:1 7579:1 7600:1 7610:1 7616:1 7655:1 7705:1 7727:1 7752:1 7765:1 7788:1 7797:1 7806:1 7822:1 7836:1 7876:1 7880:1 8028:1 8078:1 8111:1 8118:1 8119:1 8128:1 8153:1 8164:1 8191:1 8222:1 8234:1 8252:1 8265:1 8277:1 8288:1 8325:1 8351:1 8355:1 8437:1 8543:1 8552:1 8604:1 8647:1 8701:1 8735:1 8758:1 8821:1 8836:1 8840:1 8859:1 8960:1 8976:1 8979:1 9008:1 9080:1 9104:1 9284:1 9300:1 9322:1 9398:1 9457:1 9545:1 9560:1 9588:1 9630:1 9657:1 9788:1 9875:1 9878:1 9933:1 10044:1 10190:1 10193:1 10203:1 10364:1 10412:1 10416:1 10435:1 10452:1 10466:1 10469:1 10526:1 10584:1 10647:1 #
0.00084876573588775375105164311406725 1:1 4:1 7:1 11:1 12:1 14:1 15:1 16:1 17:1 18:1 21:1 22:1 23:1 24:1 25:1 27:1 28:1 29:1 30:1 31:1 32:1 34:1 36:1 38:1 40:1 42:1 46:1 51:1 52:1 53:1 62:1 63:1 67:1 78:1 84:1 86:1 90:1 91:1 103:1 104:1 113:1 115:1 122:1 127:1 129:1 132:1 138:1 147:1 155:1 156:1 158:1 159:1 169:1 170:1 176:1 186:1 195:1 199:1 200:1 207:1 210:1 211:1 213:1 218:1 220:1 221:1 224:1 227:1 235:1 236:1 237:1 242:1 243:1 244:1 260:1 277:1 293:1 295:1 304:1 315:1 322:1 323:1 324:1 350:1 353:1 365:1 374:1 381:1 385:1 387:1 388:1 401:1 408:1 425:1 430:1 434:1 436:1 451:1 469:1 475:1 480:1 483:1 488:1 496:1 509:1 575:1 601:1 630:1 636:1 644:1 653:1 673:1 676:1 750:1 758:1 760:1 767:1 769:1 788:1 806:1 808:1 818:1 845:1 849:1 850:1 857:1 859:1 878:1 900:1 910:1 911:1 937:1 941:1 945:1 953:1 955:1 962:1 971:1 982:1 987:1 995:1 996:1 999:1 1009:1 1018:1 1056:1 1067:1 1085:1 1093:1 1131:1 1133:1 1138:1 1161:1 1195:1 1384:1 1416:1 1452:1 1464:1 1491:1 1525:1 1554:1 1556:1 1568:1 1602:1 1638:1 1666:1 1692:1 1761:1 1824:1 1835:1 1839:1 1881:1 1901:1 1952:1 2058:1 2104:1 2164:1 2183:1 2217:1 2253:1 2355:1 2418:1 2471:1 2474:1 2576:1 2606:1 2706:1 2716:1 2736:1 2793:1 2833:1 2912:1 3169:1 3197:1 3237:1 3245:1 3294:1 3357:1 3372:1 3394:1 3467:1 3544:1 3584:1 3641:1 3648:1 3659:1 3690:1 3848:1 4029:1 4117:1 4222:1 4269:1 4304:1 4548:1 4560:1 4581:1 4795:1 4804:1 4811:1 4882:1 4884:1 5144:1 5232:1 5358:1 5423:1 5789:1 6731:1 6896:1 7691:1 8694:1 8840:1 9045:1 9148:1 9311:1 9510:1 10709:1 10742:1 #
0.00090049297624710097822514631715762 4:1 5:1 7:1 8:1 11:1 12:1 13:1 15:1 16:1 17:1 18:1 22:1 23:1 24:1 26:1 27:1 28:1 29:1 30:1 31:1 32:1 37:1 40:1 45:1 51:1 52:1 55:1 56:1 62:1 64:1 65:1 71:1 75:1 78:1 94:1 96:1 98:1 99:1 100:1 103:1 104:1 107:1 114:1 116:1 119:1 120:1 124:1 129:1 130:1 132:1 146:1 155:1 163:1 170:1 176:1 178:1 185:1 187:1 188:1 193:1 194:1 207:1 213:1 221:1 231:1 232:1 241:1 242:1 249:1 250:1 252:1 264:1 277:1 279:1 293:1 305:1 319:1 323:1 327:1 356:1 362:1 367:1 382:1 385:1 387:1 390:1 392:1 410:1 414:1 465:1 504:1 561:1 599:1 605:1 642:1 653:1 671:1 691:1 751:1 752:1 755:1 758:1 795:1 798:1 817:1 819:1 828:1 833:1 835:1 845:1 849:1 851:1 928:1 945:1 987:1 990:1 1008:1 1022:1 1106:1 1118:1 1138:1 1186:1 1231:1 1372:1 1376:1 1595:1 1597:1 1627:1 1634:1 1761:1 1796:1 1819:1 1926:1 2014:1 2024:1 2079:1 2135:1 2197:1 2227:1 2244:1 2282:1 2360:1 2415:1 2588:1 2664:1 2739:1 3108:1 3122:1 3144:1 3234:1 3283:1 3340:1 3462:1 3490:1 3624:1 3782:1 3801:1 3925:1 4169:1 4185:1 4279:1 4521:1 4601:1 4624:1 4697:1 4886:1 4977:1 4998:1 5062:1 5070:1 5082:1 5103:1 5234:1 5389:1 5955:1 5989:1 6087:1 6363:1 6436:1 6446:1 6765:1 6806:1 6838:1 6917:1 7288:1 7377:1 7618:1 7643:1 7691:1 7920:1 8328:1 8351:1 8436:1 8784:1 8935:1 9555:1 9635:1 9732:1 10377:1 10386:1 #
-0.004374232019613822318448992376716 1:1 2:1 5:1 7:1 8:1 9:1 11:1 12:1 13:1 16:1 17:1 18:1 19:1 22:1 23:1 24:1 25:1 27:1 29:1 30:1 31:1 32:1 34:1 36:1 38:1 40:1 41:1 43:1 46:1 47:1 52:1 53:1 55:1 56:1 59:1 61:1 62:1 63:1 67:1 77:1 78:1 79:1 80:1 81:1 84:1 91:1 94:1 95:1 98:1 99:1 102:1 103:1 104:1 106:1 107:1 110:1 113:1 114:1 118:1 119:1 120:1 129:1 130:1 131:1 138:1 146:1 154:1 156:1 157:1 159:1 161:1 163:1 167:1 170:1 171:1 172:1 183:1 184:1 186:1 187:1 190:1 196:1 200:1 203:1 209:1 213:1 220:1 224:1 226:1 231:1 234:1 240:1 244:1 257:1 258:1 264:1 270:1 273:1 276:1 278:1 279:1 282:1 283:1 297:1 300:1 304:1 308:1 316:1 322:1 333:1 351:1 353:1 356:1 362:1 365:1 373:1 385:1 401:1 403:1 404:1 407:1 408:1 423:1 425:1 428:1 434:1 436:1 440:1 442:1 443:1 451:1 452:1 469:1 478:1 488:1 490:1 491:1 496:1 500:1 566:1 601:1 605:1 615:1 632:1 640:1 656:1 669:1 698:1 725:1 741:1 751:1 758:1 762:1 773:1 793:1 796:1 806:1 807:1 835:1 841:1 845:1 849:1 857:1 874:1 876:1 888:1 893:1 898:1 900:1 974:1 1024:1 1030:1 1067:1 1068:1 1116:1 1122:1 1135:1 1136:1 1140:1 1161:1 1200:1 1229:1 1264:1 1268:1 1279:1 1375:1 1382:1 1395:1 1400:1 1407:1 1416:1 1432:1 1481:1 1484:1 1489:1 1493:1 1505:1 1506:1 1514:1 1560:1 1568:1 1595:1 1620:1 1626:1 1652:1 1670:1 1685:1 1750:1 1760:1 1820:1 1827:1 1837:1 1923:1 1939:1 1961:1 1985:1 2155:1 2168:1 2181:1 2194:1 2213:1 2229:1 2232:1 2399:1 2408:1 2415:1 2416:1 2440:1 2492:1 2628:1 2674:1 2715:1 2771:1 2775:1 2898:1 3005:1 3089:1 3098:1 3144:1 3245:1 3297:1 3389:1 3467:1 3604:1 3666:1 3760:1 3872:1 3879:1 4252:1 4325:1 4333:1 4336:1 4364:1 4411:1 4481:1 4487:1 4506:1 4624:1 4658:1 4706:1 4845:1 4851:1 5002:1 5029:1 5070:1 5076:1 5164:1 5189:1 5478:1 5500:1 5921:1 6063:1 6172:1 6291:1 6402:1 6419:1 6490:1 6806:1 6845:1 7330:1 7831:1 7994:1 8162:1 8439:1 8510:1 8859:1 8934:1 9134:1 9394:1 9442:1 9504:1 9678:1 9680:1 9708:1 10089:1 10153:1 10175:1 #
-0.004374232019613822318448992376716 1:1 2:1 6:1 8:1 9:1 11:1 15:1 16:1 17:1 18:1 20:1 21:1 22:1 23:1 24:1 25:1 26:1 29:1 30:1 31:1 32:1 34:1 36:1 37:1 42:1 43:1 45:1 51:1 52:1 54:1 55:1 61:1 62:1 63:1 64:1 65:1 66:1 69:1 70:1 73:1 75:1 79:1 82:1 84:1 89:1 90:1 94:1 96:1 99:1 102:1 103:1 104:1 106:1 107:1 111:1 112:1 113:1 114:1 116:1 117:1 120:1 123:1 124:1 133:1 139:1 146:1 156:1 159:1 160:1 161:1 168:1 169:1 172:1 173:1 175:1 179:1 180:1 181:1 184:1 186:1 187:1 188:1 198:1 199:1 202:1 205:1 212:1 213:1 215:1 221:1 227:1 232:1 233:1 234:1 236:1 238:1 244:1 245:1 247:1 251:1 267:1 270:1 277:1 278:1 279:1 283:1 295:1 297:1 298:1 307:1 324:1 331:1 342:1 350:1 367:1 368:1 370:1 374:1 387:1 390:1 397:1 400:1 423:1 432:1 436:1 442:1 445:1 446:1 447:1 452:1 457:1 463:1 475:1 478:1 480:1 481:1 482:1 498:1 539:1 566:1 630:1 632:1 641:1 671:1 688:1 709:1 750:1 758:1 767:1 803:1 806:1 811:1 815:1 817:1 818:1 834:1 849:1 850:1 852:1 863:1 874:1 875:1 880:1 931:1 932:1 936:1 945:1 961:1 997:1 1004:1 1022:1 1037:1 1066:1 1067:1 1105:1 1118:1 1131:1 1150:1 1185:1 1193:1 1196:1 1200:1 1228:1 1265:1 1372:1 1378:1 1381:1 1396:1 1418:1 1438:1 1475:1 1481:1 1490:1 1502:1 1514:1 1549:1 1568:1 1587:1 1591:1 1666:1 1750:1 1821:1 1840:1 1842:1 1879:1 1905:1 1957:1 1978:1 1999:1 2084:1 2109:1 2160:1 2183:1 2184:1 2188:1 2222:1 2257:1 2364:1 2415:1 2417:1 2460:1 2540:1 2621:1 2631:1 2715:1 2765:1 2793:1 2898:1 2984:1 3004:1 3015:1 3078:1 3098:1 3112:1 3128:1 3178:1 3235:1 3239:1 3248:1 3320:1 3348:1 3389:1 3444:1 3563:1 3572:1 3594:1 3620:1 3648:1 3724:1 3744:1 3844:1 3853:1 3932:1 4062:1 4125:1 4160:1 4217:1 4236:1 4568:1 4571:1 4588:1 4593:1 4624:1 4638:1 4658:1 4663:1 4730:1 4792:1 4794:1 4827:1 4908:1 4970:1 4973:1 5123:1 5349:1 5367:1 5511:1 5524:1 5640:1 5653:1 5656:1 5730:1 5733:1 5790:1 5833:1 5859:1 6021:1 6060:1 6229:1 6258:1 6311:1 6447:1 6485:1 6584:1 6698:1 6711:1 6783:1 6803:1 7094:1 7257:1 7318:1 7344:1 7355:1 7383:1 7525:1 7583:1 7652:1 7872:1 8025:1 8089:1 8115:1 8160:1 8190:1 8232:1 8394:1 8401:1 8484:1 8502:1 8560:1 8839:1 8887:1 8946:1 9008:1 9045:1 9062:1 9392:1 9465:1 9532:1 9689:1 9866:1 10006:1 10200:1 10230:1 10383:1 10390:1 10488:1 10508:1 10524:1 10676:1 10700:1 #
-0.004374232019613822318448992376716 6:1 7:1 8:1 9:1 11:1 12:1 14:1 15:1 16:1 18:1 20:1 21:1 22:1 23:1 24:1 25:1 27:1 28:1 30:1 31:1 32:1 34:1 36:1 40:1 41:1 45:1 47:1 51:1 53:1 61:1 62:1 67:1 72:1 77:1 78:1 81:1 83:1 89:1 90:1 91:1 94:1 95:1 98:1 102:1 104:1 106:1 109:1 113:1 117:1 119:1 123:1 127:1 130:1 131:1 133:1 138:1 146:1 149:1 155:1 163:1 168:1 170:1 171:1 172:1 175:1 179:1 182:1 185:1 195:1 204:1 210:1 215:1 221:1 224:1 228:1 231:1 232:1 234:1 236:1 237:1 245:1 251:1 257:1 261:1 264:1 266:1 273:1 277:1 286:1 295:1 308:1 319:1 329:1 333:1 335:1 336:1 349:1 350:1 351:1 364:1 365:1 374:1 375:1 381:1 382:1 383:1 391:1 392:1 399:1 440:1 442:1 451:1 478:1 488:1 491:1 497:1 507:1 508:1 529:1 536:1 541:1 553:1 564:1 566:1 581:1 598:1 600:1 605:1 614:1 649:1 653:1 671:1 696:1 716:1 725:1 728:1 740:1 755:1 758:1 789:1 806:1 808:1 813:1 817:1 857:1 862:1 881:1 897:1 898:1 899:1 909:1 946:1 990:1 1005:1 1008:1 1009:1 1018:1 1058:1 1074:1 1087:1 1094:1 1119:1 1279:1 1414:1 1438:1 1441:1 1452:1 1458:1 1465:1 1476:1 1489:1 1570:1 1576:1 1597:1 1625:1 1646:1 1666:1 1705:1 1784:1 1785:1 1802:1 1827:1 1832:1 1855:1 1856:1 1919:1 1947:1 1949:1 1951:1 1977:1 1986:1 2038:1 2045:1 2051:1 2064:1 2103:1 2104:1 2120:1 2151:1 2163:1 2183:1 2193:1 2274:1 2344:1 2371:1 2436:1 2713:1 2726:1 2785:1 2793:1 3005:1 3059:1 3105:1 3190:1 3222:1 3256:1 3328:1 3370:1 3412:1 3620:1 3867:1 3923:1 3965:1 4074:1 4173:1 4237:1 4409:1 4448:1 4477:1 4542:1 4734:1 4929:1 4944:1 5030:1 5045:1 5081:1 5220:1 5341:1 5399:1 5527:1 5558:1 5692:1 6095:1 6419:1 6448:1 6563:1 6577:1 6745:1 6980:1 7237:1 7320:1 7333:1 7769:1 7952:1 8257:1 8338:1 8400:1 8598:1 8687:1 8839:1 9002:1 9541:1 10089:1 10669:1 #
-0.004374232019613822318448992376716 2:1 4:1 7:1 8:1 11:1 12:1 13:1 15:1 16:1 17:1 18:1 20:1 21:1 22:1 23:1 24:1 25:1 26:1 27:1 28:1 29:1 30:1 31:1 32:1 36:1 41:1 43:1 46:1 54:1 56:1 59:1 61:1 62:1 63:1 64:1 66:1 67:1 72:1 73:1 75:1 77:1 78:1 81:1 83:1 84:1 85:1 88:1 89:1 90:1 94:1 98:1 102:1 105:1 106:1 107:1 114:1 119:1 124:1 127:1 130:1 131:1 135:1 139:1 144:1 147:1 150:1 159:1 161:1 167:1 170:1 172:1 173:1 178:1 179:1 188:1 190:1 195:1 207:1 208:1 215:1 221:1 226:1 227:1 230:1 231:1 232:1 234:1 235:1 237:1 243:1 245:1 255:1 260:1 263:1 266:1 267:1 269:1 272:1 275:1 276:1 282:1 295:1 297:1 301:1 302:1 308:1 317:1 332:1 333:1 339:1 343:1 354:1 357:1 374:1 379:1 382:1 390:1 410:1 411:1 419:1 423:1 434:1 442:1 444:1 460:1 463:1 480:1 551:1 569:1 583:1 601:1 605:1 608:1 628:1 640:1 653:1 674:1 690:1 701:1 727:1 746:1 755:1 756:1 759:1 762:1 771:1 798:1 803:1 809:1 811:1 834:1 839:1 844:1 868:1 872:1 882:1 891:1 921:1 932:1 945:1 946:1 951:1 955:1 997:1 1037:1 1066:1 1077:1 1083:1 1089:1 1090:1 1117:1 1118:1 1119:1 1138:1 1161:1 1185:1 1230:1 1258:1 1272:1 1279:1 1284:1 1439:1 1471:1 1484:1 1485:1 1489:1 1506:1 1514:1 1550:1 1565:1 1573:1 1737:1 1742:1 1790:1 1840:1 1843:1 1849:1 1937:1 1951:1 1952:1 2000:1 2044:1 2053:1 2061:1 2077:1 2150:1 2177:1 2194:1 2210:1 2233:1 2261:1 2367:1 2396:1 2417:1 2418:1 2436:1 2462:1 2585:1 2610:1 2682:1 2693:1 2771:1 2819:1 2912:1 2918:1 2956:1 3029:1 3056:1 3122:1 3126:1 3127:1 3159:1 3222:1 3253:1 3283:1 3389:1 3430:1 3536:1 3571:1 3581:1 3620:1 3646:1 3723:1 3801:1 3955:1 4044:1 4110:1 4117:1 4138:1 4202:1 4236:1 4336:1 4337:1 4361:1 4366:1 4409:1 4472:1 4483:1 4624:1 4685:1 4706:1 4731:1 4768:1 4781:1 4862:1 4895:1 4963:1 5013:1 5107:1 5147:1 5195:1 5215:1 5220:1 5365:1 5598:1 5640:1 5711:1 5770:1 5845:1 5859:1 6022:1 6095:1 6163:1 6169:1 6194:1 6206:1 6525:1 6594:1 6708:1 6831:1 6917:1 7084:1 7166:1 7228:1 7326:1 7491:1 7496:1 7611:1 7788:1 7823:1 8141:1 8178:1 8181:1 8379:1 8420:1 8464:1 9657:1 9760:1 9896:1 10261:1 10270:1 10329:1 10455:1 10557:1 #
-0.004374232019613822318448992376716 1:1 2:1 5:1 6:1 9:1 12:1 13:1 14:1 16:1 18:1 20:1 21:1 22:1 23:1 24:1 25:1 26:1 28:1 29:1 30:1 34:1 36:1 39:1 40:1 42:1 44:1 45:1 48:1 50:1 51:1 54:1 62:1 66:1 67:1 72:1 73:1 79:1 83:1 84:1 85:1 91:1 95:1 101:1 103:1 104:1 107:1 111:1 114:1 115:1 119:1 124:1 127:1 130:1 134:1 136:1 144:1 147:1 148:1 149:1 154:1 163:1 167:1 170:1 171:1 184:1 199:1 209:1 210:1 213:1 216:1 221:1 222:1 231:1 234:1 236:1 237:1 242:1 245:1 246:1 249:1 253:1 255:1 260:1 262:1 270:1 272:1 273:1 277:1 278:1 282:1 283:1 285:1 287:1 293:1 295:1 309:1 336:1 337:1 346:1 355:1 374:1 381:1 382:1 388:1 391:1 396:1 397:1 403:1 412:1 414:1 416:1 445:1 447:1 452:1 471:1 473:1 475:1 480:1 490:1 491:1 495:1 499:1 502:1 543:1 553:1 554:1 575:1 581:1 601:1 608:1 626:1 631:1 636:1 644:1 651:1 668:1 673:1 750:1 755:1 758:1 789:1 794:1 821:1 825:1 840:1 850:1 857:1 874:1 891:1 939:1 955:1 972:1 989:1 1005:1 1007:1 1009:1 1062:1 1094:1 1111:1 1118:1 1147:1 1167:1 1173:1 1200:1 1225:1 1226:1 1258:1 1268:1 1374:1 1385:1 1393:1 1416:1 1426:1 1432:1 1439:1 1441:1 1447:1 1480:1 1484:1 1489:1 1495:1 1514:1 1525:1 1556:1 1568:1 1580:1 1583:1 1646:1 1742:1 1750:1 1789:1 1817:1 1829:1 1841:1 1861:1 1888:1 1936:1 1949:1 1961:1 2030:1 2038:1 2107:1 2150:1 2194:1 2198:1 2210:1 2212:1 2224:1 2257:1 2300:1 2308:1 2362:1 2433:1 2440:1 2455:1 2503:1 2674:1 2749:1 2774:1 2780:1 2898:1 3100:1 3126:1 3129:1 3172:1 3189:1 3245:1 3309:1 3329:1 3369:1 3422:1 3446:1 3493:1 3620:1 3649:1 3683:1 3988:1 4007:1 4015:1 4055:1 4191:1 4248:1 4270:1 4305:1 4402:1 4571:1 4589:1 4701:1 4717:1 4921:1 5011:1 5118:1 5342:1 5369:1 5370:1 5407:1 5449:1 5519:1 6004:1 6112:1 6136:1 6188:1 6301:1 6376:1 6383:1 6416:1 6434:1 6603:1 6658:1 6759:1 6808:1 6920:1 6968:1 7001:1 7055:1 7211:1 7231:1 7302:1 7330:1 7375:1 7433:1 7510:1 7519:1 7675:1 7769:1 7784:1 8325:1 8363:1 8446:1 8467:1 8678:1 8740:1 9004:1 9196:1 9261:1 9616:1 9781:1 9795:1 9916:1 9921:1 10209:1 10267:1 10507:1 10745:1 #
0.004374232019613822318448992376716 1:1 3:1 5:1 6:1 8:1 10:1 11:1 12:1 13:1 15:1 16:1 17:1 18:1 19:1 20:1 21:1 22:1 24:1 25:1 29:1 30:1 34:1 48:1 50:1 51:1 57:1 63:1 68:1 73:1 88:1 95:1 100:1 104:1 106:1 114:1 116:1 121:1 124:1 135:1 151:1 158:1 159:1 168:1 175:1 185:1 186:1 202:1 204:1 218:1 221:1 232:1 238:1 244:1 251:1 324:1 331:1 339:1 382:1 395:1 427:1 432:1 457:1 472:1 475:1 480:1 485:1 509:1 510:1 521:1 553:1 564:1 575:1 618:1 625:1 641:1 642:1 648:1 700:1 717:1 725:1 740:1 758:1 787:1 802:1 815:1 817:1 839:1 843:1 858:1 905:1 912:1 932:1 1019:1 1476:1 1591:1 1854:1 1855:1 1879:1 1911:1 1961:1 1983:1 2135:1 2138:1 2168:1 2177:1 2271:1 2358:1 2360:1 2435:1 2470:1 2726:1 2852:1 3134:1 3174:1 3245:1 3328:1 3776:1 3886:1 4067:1 4252:1 4320:1 4757:1 4899:1 5118:1 5361:1 5400:1 5622:1 5653:1 5663:1 5759:1 5862:1 6001:1 6164:1 6577:1 6625:1 6693:1 6946:1 7005:1 7405:1 7892:1 8146:1 8257:1 9054:1 9304:1 10212:1 10572:1 #
0.004374232019613822318448992376716 1:1 2:1 7:1 11:1 15:1 16:1 17:1 20:1 21:1 22:1 23:1 25:1 27:1 30:1 34:1 36:1 46:1 48:1 51:1 52:1 54:1 57:1 62:1 67:1 84:1 95:1 104:1 113:1 114:1 115:1 125:1 130:1 131:1 146:1 149:1 152:1 163:1 170:1 202:1 209:1 221:1 222:1 224:1 238:1 243:1 244:1 246:1 249:1 277:1 295:1 314:1 385:1 390:1 396:1 435:1 445:1 446:1 466:1 478:1 544:1 600:1 644:1 655:1 688:1 725:1 728:1 750:1 758:1 809:1 814:1 817:1 945:1 1038:1 1067:1 1071:1 1085:1 1141:1 1181:1 1258:1 1259:1 1438:1 1453:1 1514:1 1800:1 1879:1 1979:1 2200:1 2216:1 2373:1 2675:1 2697:1 2901:1 2964:1 3040:1 3078:1 3114:1 3236:1 3257:1 3569:1 3781:1 3926:1 3985:1 4043:1 5014:1 5133:1 5659:1 5845:1 5882:1 6289:1 6334:1 6735:1 7265:1 7673:1 7775:1 7915:1 8474:1 9118:1 9315:1 9730:1 10617:1 10677:1 #
0.00073538002036948354848966413754852 1:1 2:1 5:1 7:1 9:1 12:1 13:1 16:1 18:1 20:1 22:1 24:1 25:1 29:1 30:1 32:1 36:1 37:1 38:1 39:1 41:1 52:1 56:1 59:1 62:1 66:1 67:1 69:1 75:1 77:1 80:1 81:1 82:1 84:1 86:1 98:1 102:1 103:1 106:1 114:1 115:1 135:1 146:1 158:1 159:1 160:1 162:1 163:1 170:1 177:1 179:1 186:1 187:1 211:1 213:1 214:1 232:1 244:1 249:1 270:1 277:1 278:1 283:1 286:1 289:1 350:1 364:1 374:1 379:1 397:1 402:1 406:1 436:1 438:1 440:1 445:1 452:1 455:1 472:1 480:1 495:1 500:1 503:1 515:1 557:1 628:1 630:1 635:1 642:1 702:1 750:1 758:1 780:1 800:1 806:1 809:1 811:1 815:1 817:1 849:1 899:1 928:1 945:1 964:1 971:1 994:1 1002:1 1028:1 1046:1 1061:1 1149:1 1162:1 1232:1 1258:1 1275:1 1280:1 1283:1 1385:1 1426:1 1436:1 1439:1 1473:1 1483:1 1501:1 1514:1 1534:1 1556:1 1612:1 1742:1 1750:1 1825:1 1897:1 1952:1 1985:1 2027:1 2062:1 2145:1 2150:1 2257:1 2300:1 2372:1 2415:1 2439:1 2462:1 2584:1 2664:1 2681:1 2909:1 3112:1 3245:1 3272:1 3300:1 3313:1 3370:1 3394:1 3562:1 3614:1 3681:1 3801:1 3819:1 3896:1 4183:1 4263:1 4271:1 4292:1 4361:1 4411:1 4513:1 4720:1 4772:1 4782:1 4851:1 5002:1 5092:1 5093:1 5425:1 5429:1 5498:1 5638:1 5692:1 5759:1 6033:1 6262:1 6490:1 6507:1 6556:1 6888:1 6935:1 7030:1 7067:1 7201:1 7330:1 7855:1 8127:1 8229:1 8429:1 8435:1 8437:1 8847:1 9156:1 9420:1 9577:1 9821:1 10127:1 10266:1 10411:1 #
0.004374232019613822318448992376716 1:1 2:1 6:1 8:1 9:1 11:1 12:1 14:1 15:1 16:1 17:1 18:1 19:1 20:1 22:1 24:1 25:1 29:1 30:1 31:1 32:1 34:1 44:1 47:1 48:1 49:1 50:1 54:1 56:1 57:1 62:1 66:1 68:1 70:1 73:1 84:1 86:1 90:1 92:1 93:1 94:1 97:1 98:1 102:1 103:1 105:1 106:1 109:1 114:1 120:1 122:1 126:1 141:1 144:1 154:1 156:1 168:1 187:1 196:1 198:1 203:1 206:1 209:1 222:1 231:1 232:1 233:1 235:1 236:1 238:1 251:1 264:1 270:1 302:1 308:1 334:1 347:1 369:1 374:1 382:1 387:1 390:1 410:1 416:1 417:1 423:1 426:1 427:1 434:1 440:1 452:1 457:1 472:1 481:1 529:1 553:1 554:1 575:1 581:1 615:1 618:1 628:1 630:1 641:1 653:1 671:1 702:1 709:1 723:1 745:1 746:1 755:1 758:1 762:1 800:1 806:1 892:1 916:1 918:1 955:1 962:1 1012:1 1021:1 1071:1 1085:1 1089:1 1121:1 1161:1 1173:1 1275:1 1389:1 1395:1 1396:1 1438:1 1444:1 1453:1 1480:1 1502:1 1522:1 1546:1 1555:1 1681:1 1698:1 1737:1 1792:1 1796:1 1824:1 2067:1 2107:1 2190:1 2231:1 2257:1 2318:1 2378:1 2471:1 2488:1 2599:1 2617:1 2771:1 2809:1 2832:1 2957:1 3052:1 3056:1 3084:1 3120:1 3128:1 3389:1 3446:1 3465:1 3585:1 3597:1 3651:1 3668:1 3716:1 3831:1 3882:1 3925:1 3938:1 3950:1 4134:1 4338:1 4831:1 4862:1 4908:1 4921:1 4960:1 4961:1 5136:1 5176:1 5177:1 5364:1 5441:1 5467:1 5553:1 5963:1 6006:1 6045:1 6088:1 6099:1 6448:1 6806:1 6822:1 6950:1 7062:1 7381:1 7821:1 7831:1 8008:1 8126:1 8199:1 8802:1 10386:1 10455:1 10540:1 #
0.004374232019613822318448992376716 1:1 2:1 10:1 16:1 17:1 18:1 22:1 23:1 25:1 29:1 30:1 32:1 36:1 51:1 52:1 61:1 63:1 67:1 75:1 79:1 84:1 86:1 95:1 102:1 104:1 114:1 117:1 120:1 129:1 130:1 137:1 146:1 153:1 170:1 184:1 190:1 200:1 205:1 216:1 218:1 221:1 236:1 238:1 243:1 244:1 270:1 275:1 277:1 326:1 333:1 341:1 419:1 475:1 478:1 490:1 566:1 600:1 601:1 608:1 628:1 632:1 640:1 647:1 688:1 725:1 740:1 761:1 802:1 809:1 843:1 898:1 928:1 984:1 994:1 997:1 1004:1 1009:1 1071:1 1232:1 1258:1 1279:1 1283:1 1439:1 1513:1 1514:1 1548:1 1583:1 1704:1 1750:1 1897:1 2078:1 2192:1 2210:1 2219:1 2418:1 2440:1 2462:1 2630:1 2898:1 2912:1 3005:1 3101:1 3213:1 3261:1 3370:1 4021:1 4252:1 4501:1 4945:1 4975:1 5017:1 5076:1 5395:1 5500:1 5531:1 6207:1 6693:1 6890:1 7078:1 7229:1 7565:1 7576:1 7975:1 8146:1 8670:1 8879:1 9118:1 9795:1 9963:1 #
-0.004374232019613822318448992376716 1:1 4:1 5:1 6:1 8:1 9:1 10:1 11:1 12:1 15:1 16:1 17:1 19:1 20:1 22:1 24:1 25:1 30:1 31:1 32:1 34:1 36:1 38:1 40:1 41:1 44:1 45:1 47:1 49:1 50:1 51:1 52:1 53:1 54:1 57:1 59:1 62:1 63:1 67:1 69:1 75:1 77:1 83:1 86:1 91:1 98:1 99:1 101:1 102:1 108:1 111:1 112:1 119:1 120:1 126:1 137:1 138:1 146:1 147:1 153:1 155:1 159:1 169:1 172:1 178:1 186:1 187:1 195:1 196:1 198:1 199:1 200:1 205:1 241:1 243:1 244:1 245:1 250:1 255:1 260:1 264:1 268:1 277:1 278:1 279:1 283:1 293:1 301:1 308:1 315:1 322:1 329:1 331:1 335:1 347:1 351:1 355:1 365:1 415:1 419:1 436:1 440:1 463:1 469:1 475:1 480:1 481:1 510:1 531:1 600:1 601:1 608:1 620:1 628:1 636:1 640:1 644:1 647:1 653:1 693:1 716:1 753:1 757:1 763:1 780:1 788:1 802:1 817:1 820:1 829:1 842:1 843:1 845:1 860:1 873:1 881:1 897:1 900:1 910:1 921:1 928:1 964:1 990:1 996:1 997:1 999:1 1012:1 1018:1 1049:1 1070:1 1074:1 1079:1 1083:1 1089:1 1092:1 1138:1 1181:1 1191:1 1226:1 1370:1 1386:1 1398:1 1416:1 1432:1 1439:1 1450:1 1457:1 1462:1 1465:1 1476:1 1487:1 1534:1 1548:1 1587:1 1597:1 1634:1 1660:1 1690:1 1719:1 1748:1 1755:1 1761:1 1797:1 1807:1 1827:1 1845:1 1880:1 1940:1 1956:1 1998:1 2064:1 2079:1 2151:1 2168:1 2170:1 2219:1 2228:1 2396:1 2440:1 2503:1 2634:1 2649:1 2747:1 2778:1 2826:1 2996:1 3160:1 3365:1 3463:1 3470:1 3482:1 3588:1 3649:1 3866:1 3983:1 4093:1 4425:1 4520:1 4872:1 4888:1 5002:1 5073:1 5315:1 5395:1 5754:1 5846:1 5899:1 6207:1 6262:1 6380:1 6880:1 7201:1 7683:1 7712:1 7752:1 7856:1 8153:1 8539:1 9049:1 9229:1 9271:1 9278:1 9726:1 10126:1 #
-0.004374232019613822318448992376716 1:1 4:1 5:1 6:1 7:1 9:1 12:1 13:1 14:1 15:1 16:1 17:1 18:1 19:1 20:1 21:1 22:1 23:1 24:1 25:1 26:1 27:1 29:1 30:1 31:1 36:1 38:1 44:1 45:1 46:1 47:1 51:1 52:1 54:1 62:1 67:1 68:1 73:1 75:1 76:1 78:1 79:1 81:1 83:1 86:1 89:1 94:1 96:1 98:1 99:1 102:1 103:1 104:1 106:1 113:1 115:1 116:1 119:1 127:1 130:1 133:1 134:1 137:1 138:1 146:1 149:1 152:1 171:1 180:1 181:1 193:1 196:1 197:1 211:1 212:1 220:1 236:1 243:1 244:1 277:1 278:1 282:1 283:1 286:1 294:1 295:1 308:1 324:1 350:1 357:1 365:1 383:1 387:1 401:1 423:1 425:1 438:1 440:1 451:1 452:1 453:1 466:1 472:1 478:1 480:1 495:1 496:1 497:1 521:1 566:1 601:1 606:1 608:1 645:1 647:1 649:1 674:1 716:1 750:1 758:1 780:1 792:1 798:1 802:1 809:1 813:1 847:1 899:1 928:1 935:1 945:1 964:1 989:1 1026:1 1067:1 1097:1 1131:1 1162:1 1175:1 1232:1 1258:1 1259:1 1275:1 1287:1 1385:1 1391:1 1424:1 1438:1 1457:1 1474:1 1544:1 1549:1 1570:1 1687:1 1697:1 1750:1 1842:1 1845:1 1852:1 2027:1 2078:1 2150:1 2163:1 2206:1 2261:1 2368:1 2432:1 2503:1 2628:1 2705:1 2747:1 2801:1 2846:1 3128:1 3211:1 3271:1 3364:1 3394:1 3604:1 3666:1 3936:1 3955:1 4138:1 4234:1 4564:1 4574:1 4575:1 4600:1 4838:1 4988:1 5147:1 5220:1 5420:1 5558:1 5722:1 5844:1 5865:1 6189:1 6322:1 6329:1 6471:1 6502:1 6777:1 7033:1 7072:1 7179:1 7211:1 7498:1 7895:1 8732:1 9161:1 9545:1 9600:1 9614:1 10037:1 10507:1 10521:1 #
-0.004374232019613822318448992376716 3:1 5:1 7:1 11:1 12:1 15:1 16:1 18:1 20:1 21:1 22:1 23:1 24:1 25:1 28:1 29:1 30:1 31:1 32:1 35:1 36:1 38:1 40:1 43:1 45:1 46:1 51:1 52:1 62:1 66:1 67:1 75:1 78:1 84:1 86:1 89:1 93:1 102:1 103:1 104:1 106:1 111:1 114:1 115:1 119:1 120:1 126:1 127:1 130:1 135:1 137:1 144:1 147:1 149:1 158:1 163:1 170:1 171:1 174:1 179:1 181:1 182:1 187:1 195:1 200:1 207:1 218:1 221:1 228:1 230:1 231:1 240:1 241:1 244:1 249:1 264:1 279:1 283:1 300:1 305:1 323:1 332:1 339:1 341:1 364:1 365:1 374:1 383:1 385:1 387:1 440:1 446:1 451:1 472:1 481:1 491:1 495:1 529:1 536:1 566:1 600:1 608:1 611:1 614:1 632:1 642:1 644:1 651:1 667:1 671:1 702:1 724:1 725:1 755:1 756:1 758:1 777:1 779:1 798:1 802:1 849:1 859:1 897:1 905:1 945:1 964:1 990:1 1012:1 1024:1 1033:1 1035:1 1067:1 1074:1 1105:1 1111:1 1118:1 1132:1 1139:1 1147:1 1162:1 1258:1 1308:1 1414:1 1432:1 1439:1 1444:1 1462:1 1465:1 1508:1 1513:1 1534:1 1580:1 1584:1 1587:1 1660:1 1740:1 1755:1 1797:1 1807:1 1827:1 1836:1 1855:1 1881:1 1884:1 1894:1 1986:1 2011:1 2023:1 2079:1 2140:1 2150:1 2183:1 2210:1 2368:1 2396:1 2566:1 2588:1 2778:1 2819:1 2826:1 2912:1 3022:1 3120:1 3134:1 3144:1 3243:1 3463:1 3649:1 3707:1 3842:1 3870:1 3872:1 4007:1 4200:1 4234:1 4409:1 4470:1 4481:1 4483:1 4507:1 4574:1 4586:1 4639:1 4679:1 4921:1 4959:1 4998:1 5142:1 5484:1 5500:1 5646:1 5754:1 5905:1 6025:1 6136:1 6147:1 6303:1 6402:1 6740:1 6850:1 7110:1 7854:1 7880:1 7906:1 8105:1 8452:1 8654:1 8718:1 9067:1 9304:1 9423:1 10072:1 10112:1 10214:1 #
-0.004374232019613822318448992376716 1:1 4:1 5:1 8:1 9:1 11:1 12:1 13:1 15:1 16:1 17:1 20:1 22:1 24:1 25:1 27:1 29:1 30:1 31:1 32:1 36:1 38:1 40:1 42:1 46:1 51:1 52:1 54:1 57:1 61:1 63:1 66:1 67:1 69:1 77:1 80:1 81:1 82:1 84:1 86:1 89:1 90:1 96:1 98:1 99:1 102:1 103:1 104:1 110:1 111:1 113:1 115:1 116:1 119:1 122:1 131:1 134:1 137:1 138:1 143:1 147:1 159:1 163:1 167:1 170:1 171:1 195:1 196:1 213:1 215:1 221:1 224:1 227:1 232:1 235:1 237:1 241:1 243:1 244:1 252:1 273:1 277:1 279:1 283:1 304:1 329:1 335:1 343:1 347:1 357:1 365:1 381:1 382:1 383:1 401:1 415:1 424:1 425:1 432:1 435:1 436:1 438:1 440:1 445:1 451:1 452:1 457:1 458:1 465:1 478:1 481:1 490:1 503:1 553:1 566:1 575:1 581:1 601:1 608:1 628:1 630:1 642:1 645:1 660:1 668:1 671:1 725:1 750:1 792:1 796:1 798:1 802:1 806:1 817:1 843:1 857:1 865:1 891:1 899:1 905:1 910:1 912:1 945:1 946:1 958:1 964:1 969:1 996:1 1002:1 1024:1 1067:1 1155:1 1186:1 1226:1 1283:1 1383:1 1418:1 1428:1 1444:1 1446:1 1457:1 1513:1 1514:1 1534:1 1568:1 1672:1 1704:1 1723:1 1827:1 1845:1 1880:1 1919:1 1945:1 1964:1 2117:1 2150:1 2203:1 2224:1 2380:1 2584:1 2682:1 2762:1 2789:1 2821:1 2968:1 3004:1 3040:1 3098:1 3205:1 3245:1 3274:1 3414:1 3474:1 3597:1 3649:1 3709:1 3811:1 3868:1 4081:1 4288:1 4330:1 4406:1 4503:1 4580:1 4706:1 4717:1 4914:1 5044:1 5220:1 5790:1 5849:1 5895:1 6147:1 6192:1 6316:1 6509:1 6514:1 7044:1 7194:1 7392:1 7791:1 8647:1 8889:1 9877:1 10158:1 10708:1 #
-0.004374232019613822318448992376716 1:1 4:1 6:1 9:1 11:1 12:1 14:1 15:1 16:1 17:1 18:1 20:1 22:1 23:1 24:1 25:1 26:1 30:1 31:1 32:1 38:1 42:1 46:1 51:1 52:1 54:1 57:1 62:1 75:1 77:1 81:1 85:1 90:1 98:1 102:1 103:1 113:1 115:1 119:1 127:1 130:1 131:1 148:1 149:1 150:1 155:1 162:1 170:1 171:1 177:1 187:1 207:1 211:1 232:1 233:1 241:1 250:1 252:1 260:1 273:1 278:1 279:1 304:1 315:1 318:1 326:1 342:1 353:1 382:1 383:1 387:1 390:1 396:1 436:1 480:1 483:1 610:1 628:1 630:1 632:1 644:1 651:1 667:1 674:1 746:1 749:1 755:1 758:1 762:1 788:1 800:1 817:1 837:1 840:1 851:1 856:1 880:1 891:1 905:1 945:1 1092:1 1142:1 1181:1 1258:1 1408:1 1438:1 1457:1 1508:1 1514:1 1516:1 1534:1 1568:1 1646:1 1649:1 1697:1 1720:1 1741:1 1750:1 1797:1 1821:1 1842:1 1854:1 1879:1 1921:1 1977:1 2078:1 2368:1 2370:1 2415:1 2418:1 2482:1 2531:1 2548:1 2912:1 3140:1 3368:1 3370:1 3410:1 3569:1 4039:1 4043:1 4090:1 4121:1 4183:1 4291:1 4483:1 4564:1 4576:1 4799:1 4921:1 5307:1 5864:1 5911:1 5925:1 6471:1 6699:1 7044:1 7179:1 8083:1 8248:1 8266:1 #
