SVM-light Version V6.02
0 # kernel type
3 # kernel parameter -d 
1 # kernel parameter -g 
1 # kernel parameter -s 
1 # kernel parameter -r 
empty# kernel parameter -u 
10746 # highest feature index 
3183 # number of training documents 
755 # number of support vectors plus 1 
0.87539334 # threshold b, each following line is a SV (starting with alpha*y)
-0.00028477052064244582187460541611301 1:1 3:1 8:1 11:1 12:1 15:1 16:1 18:1 21:1 23:1 30:1 31:1 42:1 53:1 62:1 65:1 67:1 72:1 79:1 84:1 88:1 103:1 104:1 106:1 113:1 116:1 117:1 124:1 125:1 161:1 166:1 175:1 185:1 186:1 189:1 204:1 221:1 236:1 242:1 254:1 272:1 289:1 308:1 323:1 325:1 352:1 382:1 387:1 397:1 400:1 427:1 457:1 490:1 529:1 534:1 558:1 648:1 649:1 668:1 694:1 717:1 768:1 821:1 843:1 848:1 912:1 924:1 963:1 1014:1 1044:1 1067:1 1374:1 1380:1 1461:1 1494:1 1636:1 1672:1 1830:1 1854:1 1915:1 2139:1 2193:1 2220:1 2419:1 2613:1 2961:1 3354:1 3738:1 3896:1 4572:1 4824:1 5087:1 5246:1 5723:1 5813:1 6246:1 6604:1 6614:1 6886:1 7328:1 7631:1 8010:1 8569:1 9628:1 9786:1 10179:1 #
0.0025970586851445094482560005388905 2:1 5:1 7:1 11:1 12:1 15:1 17:1 18:1 21:1 22:1 23:1 25:1 29:1 30:1 31:1 32:1 34:1 51:1 54:1 57:1 59:1 62:1 73:1 87:1 90:1 98:1 101:1 109:1 113:1 114:1 117:1 127:1 156:1 158:1 163:1 170:1 172:1 189:1 218:1 223:1 227:1 233:1 237:1 270:1 301:1 315:1 326:1 333:1 357:1 374:1 382:1 386:1 387:1 390:1 411:1 429:1 434:1 451:1 465:1 467:1 471:1 481:1 526:1 553:1 558:1 606:1 630:1 636:1 641:1 645:1 724:1 847:1 849:1 863:1 866:1 894:1 943:1 955:1 985:1 1064:1 1093:1 1102:1 1138:1 1161:1 1228:1 1371:1 1383:1 1444:1 1458:1 1534:1 1644:1 1646:1 1666:1 1846:1 1915:1 1975:1 1985:1 2148:1 2150:1 2193:1 2370:1 2418:1 2425:1 2664:1 2683:1 2793:1 2807:1 2912:1 3015:1 3059:1 3120:1 3239:1 3310:1 3357:1 4014:1 4020:1 4181:1 4205:1 4302:1 4473:1 4575:1 4808:1 4908:1 4961:1 5494:1 6075:1 6126:1 6285:1 6352:1 6430:1 6536:1 7073:1 7951:1 8066:1 8173:1 #
-0.00059621309782456664936450829728187 5:1 7:1 8:1 11:1 13:1 15:1 16:1 17:1 18:1 21:1 24:1 26:1 27:1 28:1 29:1 31:1 32:1 45:1 46:1 56:1 59:1 61:1 62:1 69:1 70:1 73:1 76:1 84:1 88:1 89:1 90:1 94:1 98:1 102:1 103:1 104:1 106:1 108:1 113:1 114:1 117:1 120:1 124:1 126:1 131:1 138:1 150:1 151:1 158:1 172:1 177:1 193:1 196:1 198:1 199:1 201:1 203:1 207:1 210:1 218:1 231:1 244:1 251:1 277:1 293:1 295:1 304:1 308:1 319:1 320:1 327:1 329:1 340:1 341:1 347:1 364:1 367:1 368:1 374:1 382:1 385:1 387:1 389:1 404:1 406:1 416:1 434:1 451:1 464:1 468:1 476:1 490:1 523:1 569:1 575:1 616:1 620:1 632:1 642:1 660:1 669:1 719:1 724:1 745:1 750:1 755:1 758:1 761:1 807:1 843:1 849:1 854:1 856:1 868:1 874:1 899:1 940:1 943:1 964:1 999:1 1012:1 1033:1 1105:1 1128:1 1137:1 1152:1 1160:1 1161:1 1167:1 1205:1 1361:1 1523:1 1526:1 1546:1 1553:1 1560:1 1565:1 1570:1 1626:1 1660:1 1708:1 1755:1 1882:1 1901:1 1909:1 2053:1 2091:1 2107:1 2130:1 2168:1 2172:1 2190:1 2213:1 2257:1 2394:1 2416:1 2439:1 2484:1 2610:1 2665:1 2907:1 2936:1 2959:1 3102:1 3211:1 3252:1 3452:1 3465:1 3575:1 3614:1 3648:1 3698:1 4065:1 4356:1 4387:1 4406:1 4409:1 4507:1 4580:1 4658:1 4679:1 4730:1 5073:1 5147:1 5151:1 5279:1 5405:1 5536:1 5973:1 6188:1 6478:1 6672:1 6731:1 7008:1 7044:1 7506:1 7671:1 8179:1 8887:1 8926:1 9262:1 9411:1 9560:1 9580:1 9712:1 10320:1 10388:1 10444:1 #
-0.00054307972690419582112442142829423 1:1 3:1 4:1 5:1 6:1 7:1 10:1 11:1 12:1 15:1 16:1 18:1 19:1 20:1 21:1 22:1 25:1 27:1 29:1 30:1 31:1 32:1 34:1 35:1 39:1 41:1 42:1 45:1 48:1 49:1 50:1 51:1 54:1 56:1 58:1 59:1 60:1 63:1 64:1 66:1 67:1 68:1 69:1 72:1 75:1 80:1 82:1 88:1 90:1 94:1 95:1 96:1 98:1 99:1 100:1 112:1 113:1 114:1 115:1 117:1 121:1 124:1 126:1 129:1 131:1 135:1 145:1 146:1 152:1 155:1 163:1 168:1 170:1 175:1 181:1 186:1 195:1 217:1 218:1 222:1 225:1 227:1 232:1 233:1 238:1 251:1 263:1 264:1 277:1 278:1 292:1 293:1 313:1 314:1 322:1 323:1 337:1 366:1 372:1 375:1 382:1 388:1 391:1 404:1 410:1 421:1 427:1 434:1 436:1 457:1 472:1 483:1 488:1 490:1 492:1 510:1 515:1 521:1 523:1 529:1 570:1 575:1 601:1 615:1 618:1 630:1 647:1 651:1 653:1 657:1 665:1 687:1 698:1 728:1 754:1 758:1 759:1 762:1 775:1 777:1 780:1 799:1 815:1 858:1 867:1 891:1 895:1 896:1 937:1 975:1 1015:1 1062:1 1105:1 1122:1 1147:1 1178:1 1184:1 1190:1 1226:1 1259:1 1377:1 1426:1 1462:1 1467:1 1470:1 1473:1 1487:1 1549:1 1551:1 1635:1 1672:1 1677:1 1681:1 1707:1 1715:1 1760:1 1906:1 1983:1 2051:1 2063:1 2134:1 2160:1 2168:1 2290:1 2344:1 2378:1 2382:1 2390:1 2654:1 2717:1 2737:1 2921:1 2998:1 3056:1 3102:1 3134:1 3177:1 3196:1 3271:1 3337:1 3373:1 3414:1 3450:1 3459:1 3489:1 3607:1 3789:1 4035:1 4211:1 4253:1 4270:1 4359:1 4671:1 4873:1 4924:1 5125:1 5164:1 5168:1 5268:1 5362:1 5402:1 5643:1 5782:1 6126:1 6474:1 6520:1 6986:1 7067:1 7602:1 7625:1 7876:1 8274:1 8332:1 8351:1 8593:1 9003:1 9279:1 9522:1 9664:1 9690:1 10052:1 #
-0.0044975777317762932056011138115537 1:1 2:1 4:1 6:1 10:1 11:1 12:1 15:1 16:1 17:1 18:1 19:1 20:1 21:1 24:1 25:1 26:1 30:1 31:1 35:1 36:1 44:1 45:1 48:1 54:1 55:1 56:1 57:1 59:1 62:1 66:1 69:1 71:1 72:1 73:1 79:1 80:1 82:1 90:1 94:1 98:1 101:1 102:1 103:1 106:1 107:1 117:1 120:1 125:1 140:1 146:1 159:1 161:1 162:1 165:1 174:1 187:1 189:1 199:1 204:1 205:1 209:1 215:1 219:1 230:1 233:1 244:1 245:1 247:1 266:1 270:1 272:1 297:1 302:1 316:1 326:1 357:1 385:1 390:1 392:1 396:1 402:1 406:1 411:1 420:1 426:1 461:1 473:1 475:1 483:1 495:1 524:1 534:1 627:1 653:1 657:1 662:1 667:1 745:1 758:1 785:1 819:1 849:1 880:1 912:1 929:1 932:1 959:1 987:1 989:1 1003:1 1028:1 1037:1 1071:1 1133:1 1150:1 1265:1 1275:1 1387:1 1396:1 1485:1 1502:1 1514:1 1516:1 1859:1 2035:1 2188:1 2212:1 2215:1 2379:1 2617:1 2755:1 2908:1 2957:1 3070:1 3160:1 3198:1 3240:1 3415:1 3426:1 3449:1 3985:1 4511:1 4942:1 4973:1 5254:1 5557:1 6002:1 6044:1 6378:1 6581:1 6664:1 6765:1 6803:1 7079:1 7938:1 8182:1 8560:1 8872:1 8985:1 9263:1 10599:1 #
0.0041370155642716831614902339708806 2:1 7:1 9:1 11:1 12:1 15:1 16:1 17:1 18:1 19:1 20:1 21:1 22:1 23:1 24:1 25:1 27:1 29:1 30:1 31:1 34:1 36:1 42:1 44:1 45:1 49:1 50:1 51:1 53:1 62:1 67:1 72:1 73:1 77:1 78:1 79:1 82:1 84:1 89:1 93:1 94:1 96:1 98:1 99:1 102:1 103:1 104:1 106:1 114:1 116:1 120:1 122:1 123:1 130:1 138:1 143:1 147:1 149:1 162:1 163:1 166:1 170:1 181:1 189:1 200:1 202:1 204:1 205:1 213:1 218:1 230:1 231:1 232:1 233:1 236:1 238:1 244:1 266:1 270:1 275:1 277:1 280:1 283:1 292:1 293:1 295:1 308:1 309:1 310:1 312:1 315:1 319:1 323:1 329:1 341:1 350:1 357:1 383:1 385:1 386:1 403:1 440:1 443:1 451:1 452:1 471:1 472:1 475:1 491:1 493:1 499:1 509:1 527:1 529:1 531:1 566:1 569:1 594:1 598:1 608:1 625:1 629:1 640:1 651:1 653:1 655:1 671:1 695:1 746:1 755:1 758:1 767:1 777:1 789:1 797:1 802:1 809:1 829:1 831:1 962:1 964:1 985:1 1000:1 1009:1 1012:1 1021:1 1042:1 1056:1 1096:1 1105:1 1111:1 1155:1 1185:1 1191:1 1200:1 1307:1 1418:1 1432:1 1452:1 1471:1 1476:1 1484:1 1490:1 1512:1 1513:1 1514:1 1549:1 1591:1 1652:1 1755:1 1803:1 1827:1 1854:1 1906:1 1942:1 1953:1 1971:1 1986:1 1997:1 2009:1 2038:1 2078:1 2091:1 2140:1 2183:1 2249:1 2257:1 2344:1 2358:1 2423:1 2455:1 2462:1 2573:1 2599:1 2614:1 2654:1 2716:1 2904:1 2962:1 3038:1 3098:1 3100:1 3102:1 3144:1 3169:1 3172:1 3195:1 3222:1 3239:1 3294:1 3295:1 3321:1 3335:1 3389:1 3461:1 3493:1 3648:1 3666:1 3694:1 3708:1 3833:1 3880:1 4054:1 4055:1 4152:1 4161:1 4288:1 4366:1 4406:1 4457:1 4637:1 4638:1 4714:1 4908:1 4929:1 5144:1 5189:1 5312:1 5355:1 5655:1 5791:1 5800:1 5847:1 5911:1 6117:1 6136:1 6147:1 6315:1 6339:1 6478:1 6808:1 6900:1 6941:1 6945:1 6988:1 7062:1 7068:1 7786:1 7912:1 8002:1 8105:1 8119:1 8130:1 8162:1 8188:1 8211:1 8338:1 8644:1 9284:1 9342:1 9423:1 9614:1 9881:1 10019:1 10066:1 10267:1 10380:1 10510:1 #
0.0044975777317762932056011138115537 1:1 2:1 4:1 6:1 8:1 10:1 11:1 12:1 13:1 14:1 15:1 16:1 18:1 20:1 22:1 23:1 24:1 25:1 30:1 31:1 32:1 41:1 44:1 48:1 51:1 53:1 54:1 55:1 58:1 66:1 69:1 72:1 73:1 79:1 82:1 86:1 90:1 91:1 98:1 101:1 103:1 104:1 113:1 114:1 117:1 120:1 124:1 126:1 127:1 128:1 131:1 136:1 139:1 143:1 153:1 159:1 161:1 168:1 169:1 172:1 186:1 187:1 195:1 198:1 199:1 202:1 204:1 205:1 213:1 215:1 216:1 235:1 237:1 238:1 243:1 251:1 266:1 270:1 277:1 279:1 293:1 313:1 337:1 357:1 406:1 408:1 410:1 434:1 435:1 436:1 440:1 452:1 475:1 480:1 483:1 509:1 553:1 566:1 581:1 628:1 630:1 636:1 639:1 646:1 649:1 651:1 762:1 814:1 831:1 849:1 891:1 955:1 1000:1 1002:1 1008:1 1009:1 1010:1 1057:1 1089:1 1171:1 1204:1 1280:1 1368:1 1374:1 1428:1 1475:1 1587:1 1626:1 1672:1 1733:1 1851:1 1935:1 1949:1 2030:1 2049:1 2183:1 2199:1 2273:1 2291:1 2311:1 2709:1 2755:1 2974:1 3038:1 3043:1 3183:1 3184:1 3315:1 3350:1 3386:1 3431:1 3474:1 3649:1 3795:1 3804:1 4075:1 4109:1 4125:1 4212:1 4263:1 4375:1 4411:1 4419:1 4536:1 4674:1 4694:1 5076:1 5306:1 5764:1 6044:1 6248:1 6435:1 7684:1 7970:1 8712:1 9760:1 10261:1 10545:1 #
-0.00025973114044208674968880479205779 2:1 7:1 8:1 13:1 14:1 15:1 16:1 17:1 18:1 21:1 24:1 30:1 59:1 60:1 62:1 66:1 67:1 69:1 72:1 84:1 88:1 92:1 116:1 124:1 125:1 135:1 141:1 151:1 166:1 179:1 186:1 191:1 202:1 216:1 221:1 229:1 230:1 251:1 357:1 387:1 411:1 421:1 463:1 473:1 485:1 498:1 502:1 558:1 564:1 618:1 648:1 708:1 815:1 834:1 875:1 909:1 924:1 1037:1 1058:1 1076:1 1166:1 1200:1 1469:1 1555:1 1816:1 1871:1 1898:1 1930:1 1943:1 1977:1 1993:1 2053:1 2418:1 2457:1 2532:1 2541:1 2660:1 2704:1 2781:1 2825:1 2912:1 3078:1 3160:1 3326:1 3376:1 3395:1 3549:1 3959:1 3960:1 3999:1 4023:1 4029:1 4342:1 4454:1 4501:1 4759:1 4883:1 5163:1 5175:1 5433:1 5436:1 5447:1 5688:1 5701:1 5895:1 6191:1 6370:1 6480:1 6554:1 7544:1 8188:1 8369:1 8876:1 9010:1 9078:1 9324:1 10348:1 10736:1 #
0.0033639325946287694339698060019828 13:1 15:1 16:1 18:1 21:1 22:1 26:1 29:1 30:1 31:1 32:1 35:1 36:1 54:1 59:1 62:1 67:1 68:1 72:1 75:1 78:1 99:1 107:1 120:1 131:1 133:1 136:1 147:1 148:1 150:1 153:1 158:1 163:1 165:1 170:1 182:1 185:1 187:1 195:1 216:1 223:1 230:1 232:1 270:1 280:1 301:1 323:1 331:1 333:1 339:1 408:1 426:1 475:1 482:1 500:1 533:1 620:1 649:1 758:1 855:1 885:1 891:1 1000:1 1002:1 1092:1 1111:1 1205:1 1254:1 1259:1 1280:1 1283:1 1431:1 1434:1 1622:1 1666:1 1679:1 1705:1 1742:1 1888:1 1938:1 1963:1 2046:1 2097:1 2150:1 2250:1 2363:1 2442:1 2461:1 2622:1 2793:1 2989:1 3015:1 3020:1 3068:1 3315:1 3436:1 3784:1 3868:1 3960:1 4443:1 4659:1 4680:1 4967:1 5233:1 5349:1 5937:1 6484:1 6619:1 7022:1 7032:1 7100:1 7310:1 7520:1 7624:1 7780:1 7824:1 7934:1 8075:1 8829:1 8868:1 8915:1 9271:1 9404:1 9457:1 9894:1 9904:1 10044:1 10495:1 #
0.0041971992551373803886916036276489 1:1 3:1 7:1 15:1 17:1 18:1 20:1 23:1 24:1 31:1 36:1 44:1 54:1 57:1 59:1 62:1 66:1 67:1 84:1 89:1 94:1 102:1 103:1 104:1 106:1 114:1 115:1 116:1 120:1 130:1 131:1 148:1 150:1 163:1 227:1 231:1 244:1 252:1 275:1 293:1 302:1 308:1 316:1 326:1 331:1 332:1 357:1 360:1 397:1 452:1 569:1 601:1 628:1 758:1 762:1 767:1 811:1 817:1 833:1 866:1 912:1 1056:1 1082:1 1131:1 1138:1 1173:1 1254:1 1516:1 1626:1 1666:1 1877:1 2190:1 2793:1 2960:1 3015:1 3105:1 3243:1 3501:1 3801:1 4102:1 4458:1 4493:1 4935:1 4998:1 5021:1 5606:1 5739:1 5895:1 5963:1 6104:1 6691:1 7004:1 7618:1 7918:1 9185:1 9209:1 #
-0.0044975777317762932056011138115537 2:1 4:1 5:1 6:1 7:1 8:1 9:1 11:1 12:1 13:1 14:1 15:1 16:1 18:1 20:1 22:1 23:1 24:1 25:1 26:1 30:1 32:1 34:1 36:1 38:1 41:1 45:1 47:1 49:1 51:1 57:1 62:1 65:1 66:1 71:1 73:1 78:1 81:1 89:1 90:1 94:1 95:1 98:1 99:1 101:1 102:1 103:1 104:1 106:1 112:1 114:1 116:1 130:1 131:1 137:1 138:1 146:1 148:1 149:1 155:1 159:1 168:1 170:1 172:1 174:1 175:1 191:1 195:1 202:1 214:1 216:1 220:1 221:1 223:1 236:1 238:1 245:1 246:1 264:1 266:1 268:1 277:1 278:1 279:1 286:1 293:1 295:1 297:1 299:1 312:1 332:1 351:1 353:1 357:1 364:1 369:1 374:1 384:1 385:1 387:1 390:1 399:1 408:1 420:1 425:1 426:1 434:1 444:1 451:1 463:1 472:1 478:1 480:1 493:1 496:1 509:1 510:1 566:1 581:1 639:1 695:1 702:1 717:1 728:1 748:1 758:1 761:1 767:1 800:1 808:1 819:1 857:1 881:1 885:1 891:1 899:1 918:1 932:1 1002:1 1009:1 1042:1 1056:1 1071:1 1074:1 1089:1 1094:1 1131:1 1160:1 1173:1 1230:1 1279:1 1280:1 1305:1 1368:1 1385:1 1392:1 1397:1 1438:1 1459:1 1471:1 1483:1 1501:1 1534:1 1551:1 1568:1 1589:1 1626:1 1649:1 1672:1 1720:1 1842:1 1846:1 1949:1 1963:1 2029:1 2038:1 2064:1 2134:1 2194:1 2224:1 2280:1 2306:1 2471:1 2580:1 2722:1 2775:1 2824:1 2908:1 3005:1 3006:1 3060:1 3068:1 3078:1 3098:1 3100:1 3120:1 3128:1 3204:1 3235:1 3275:1 3463:1 3552:1 3680:1 3746:1 3801:1 3914:1 3934:1 4029:1 4040:1 4161:1 4205:1 4234:1 4265:1 4350:1 4375:1 4470:1 4644:1 4735:1 5014:1 5039:1 5220:1 5349:1 5669:1 5714:1 5883:1 5965:1 6207:1 6443:1 6577:1 6782:1 6934:1 7061:1 7237:1 7498:1 7929:1 7964:1 8323:1 8484:1 8552:1 8629:1 9427:1 9703:1 9750:1 9975:1 10154:1 10310:1 10677:1 #
0.0044975777317762932056011138115537 275:1 296:1 895:1 1986:1 6039:1 #
-0.0044975777317762932056011138115537 1:1 4:1 5:1 7:1 9:1 12:1 15:1 16:1 17:1 18:1 19:1 20:1 22:1 23:1 24:1 25:1 27:1 29:1 30:1 32:1 34:1 36:1 42:1 49:1 50:1 51:1 52:1 54:1 62:1 63:1 66:1 67:1 72:1 81:1 82:1 87:1 89:1 91:1 93:1 94:1 95:1 102:1 103:1 104:1 110:1 112:1 114:1 117:1 122:1 123:1 129:1 130:1 131:1 138:1 142:1 143:1 146:1 149:1 152:1 155:1 158:1 170:1 181:1 184:1 196:1 202:1 210:1 213:1 221:1 230:1 231:1 232:1 233:1 235:1 236:1 238:1 249:1 251:1 252:1 275:1 277:1 279:1 293:1 299:1 304:1 315:1 318:1 324:1 325:1 331:1 333:1 335:1 353:1 365:1 369:1 370:1 374:1 381:1 382:1 383:1 396:1 407:1 408:1 417:1 432:1 434:1 435:1 451:1 452:1 453:1 457:1 460:1 471:1 478:1 480:1 482:1 503:1 566:1 581:1 601:1 642:1 660:1 671:1 728:1 758:1 761:1 762:1 767:1 808:1 811:1 815:1 819:1 828:1 831:1 855:1 863:1 881:1 899:1 912:1 922:1 927:1 989:1 996:1 1009:1 1012:1 1018:1 1067:1 1080:1 1108:1 1180:1 1279:1 1374:1 1458:1 1472:1 1481:1 1483:1 1534:1 1536:1 1567:1 1568:1 1591:1 1626:1 1646:1 1666:1 1704:1 1720:1 1851:1 1916:1 1956:1 1961:1 2005:1 2064:1 2134:1 2228:1 2271:1 2280:1 2311:1 2432:1 2488:1 2610:1 2702:1 2793:1 2824:1 2904:1 2996:1 3005:1 3015:1 3098:1 3128:1 3129:1 3167:1 3172:1 3205:1 3239:1 3434:1 3648:1 3712:1 3726:1 3775:1 3780:1 3858:1 3932:1 3939:1 4029:1 4032:1 4130:1 4221:1 4276:1 4360:1 4431:1 4477:1 4650:1 4714:1 4794:1 4845:1 4851:1 5002:1 5223:1 5261:1 5396:1 5511:1 5518:1 5615:1 5847:1 6334:1 6913:1 6983:1 7044:1 7071:1 7171:1 7229:1 7416:1 7576:1 7631:1 7652:1 8432:1 8490:1 8779:1 8906:1 8998:1 9062:1 9491:1 9537:1 9689:1 9791:1 10524:1 #
0.0044975777317762932056011138115537 1:1 8:1 10:1 11:1 15:1 16:1 17:1 18:1 19:1 20:1 21:1 25:1 30:1 31:1 32:1 34:1 36:1 41:1 49:1 52:1 54:1 58:1 67:1 76:1 79:1 81:1 84:1 95:1 97:1 98:1 102:1 103:1 104:1 106:1 113:1 124:1 131:1 135:1 137:1 146:1 151:1 156:1 159:1 162:1 168:1 170:1 172:1 179:1 202:1 222:1 236:1 237:1 240:1 242:1 243:1 251:1 252:1 254:1 268:1 272:1 277:1 279:1 289:1 318:1 322:1 353:1 364:1 375:1 382:1 387:1 390:1 396:1 417:1 425:1 430:1 434:1 439:1 467:1 471:1 478:1 498:1 534:1 671:1 674:1 723:1 749:1 750:1 805:1 832:1 869:1 889:1 902:1 989:1 1006:1 1009:1 1036:1 1037:1 1085:1 1111:1 1148:1 1173:1 1175:1 1224:1 1228:1 1232:1 1259:1 1283:1 1380:1 1383:1 1401:1 1408:1 1416:1 1458:1 1514:1 1555:1 1612:1 1623:1 1683:1 1784:1 1832:1 1859:1 1874:1 1905:1 1906:1 1963:1 1993:1 2033:1 2053:1 2201:1 2216:1 2246:1 2371:1 2378:1 2414:1 2440:1 2462:1 2545:1 2584:1 2716:1 2848:1 2976:1 3002:1 3084:1 3130:1 3189:1 3245:1 3266:1 3394:1 3424:1 3475:1 3589:1 3611:1 3618:1 3649:1 3725:1 3781:1 3782:1 3965:1 3972:1 4071:1 4343:1 4477:1 4580:1 4581:1 4636:1 4730:1 4883:1 4899:1 4973:1 5221:1 5608:1 5679:1 5680:1 5747:1 5941:1 6350:1 6548:1 6577:1 6683:1 6951:1 7480:1 7650:1 7660:1 7815:1 7876:1 8412:1 8634:1 9165:1 9288:1 9392:1 9544:1 9791:1 10267:1 10500:1 10554:1 #
-0.0044975777317762932056011138115537 5:1 6:1 7:1 8:1 9:1 10:1 11:1 12:1 15:1 16:1 17:1 18:1 20:1 21:1 22:1 24:1 25:1 27:1 30:1 31:1 34:1 36:1 39:1 42:1 44:1 48:1 49:1 50:1 51:1 52:1 59:1 66:1 67:1 68:1 69:1 70:1 71:1 81:1 83:1 84:1 85:1 86:1 90:1 94:1 96:1 97:1 98:1 102:1 103:1 104:1 106:1 110:1 111:1 113:1 114:1 118:1 119:1 120:1 124:1 125:1 127:1 136:1 138:1 147:1 149:1 156:1 158:1 162:1 163:1 165:1 168:1 169:1 170:1 172:1 178:1 181:1 185:1 187:1 194:1 199:1 207:1 209:1 212:1 215:1 223:1 227:1 228:1 231:1 244:1 251:1 252:1 264:1 266:1 270:1 277:1 279:1 286:1 295:1 316:1 322:1 323:1 324:1 329:1 337:1 341:1 355:1 364:1 368:1 374:1 375:1 383:1 385:1 396:1 399:1 404:1 406:1 408:1 410:1 416:1 417:1 425:1 428:1 436:1 440:1 442:1 446:1 452:1 453:1 465:1 475:1 478:1 480:1 481:1 482:1 503:1 510:1 515:1 530:1 533:1 537:1 545:1 558:1 585:1 598:1 623:1 630:1 632:1 637:1 640:1 649:1 653:1 671:1 700:1 716:1 719:1 723:1 728:1 758:1 785:1 802:1 817:1 820:1 825:1 842:1 872:1 876:1 882:1 889:1 894:1 944:1 946:1 962:1 986:1 1005:1 1009:1 1021:1 1042:1 1088:1 1092:1 1102:1 1107:1 1111:1 1131:1 1137:1 1138:1 1149:1 1161:1 1185:1 1228:1 1280:1 1324:1 1415:1 1422:1 1438:1 1441:1 1457:1 1514:1 1546:1 1568:1 1580:1 1591:1 1620:1 1621:1 1626:1 1644:1 1666:1 1691:1 1698:1 1755:1 1761:1 1789:1 1790:1 1819:1 1888:1 1897:1 1949:1 1951:1 2040:1 2051:1 2067:1 2107:1 2154:1 2158:1 2190:1 2228:1 2257:1 2308:1 2311:1 2344:1 2370:1 2462:1 2503:1 2561:1 2619:1 2718:1 2722:1 2793:1 3015:1 3086:1 3097:1 3107:1 3114:1 3129:1 3134:1 3243:1 3271:1 3335:1 3370:1 3416:1 3465:1 3470:1 3607:1 3652:1 3725:1 3869:1 3877:1 3973:1 3994:1 4010:1 4029:1 4044:1 4059:1 4074:1 4092:1 4096:1 4123:1 4161:1 4263:1 4361:1 4390:1 4409:1 4410:1 4457:1 4470:1 4477:1 4501:1 4524:1 4542:1 4605:1 4659:1 4728:1 4801:1 4813:1 4898:1 4908:1 4921:1 4929:1 5014:1 5023:1 5147:1 5267:1 5358:1 5402:1 5415:1 5493:1 5643:1 5700:1 5734:1 5745:1 5770:1 5887:1 5905:1 6006:1 6110:1 6150:1 6371:1 6496:1 6507:1 6525:1 6693:1 6771:1 6795:1 6913:1 7288:1 7326:1 7335:1 7355:1 7454:1 7686:1 7751:1 7785:1 7786:1 7844:1 7882:1 7904:1 7916:1 8000:1 8311:1 8380:1 8434:1 8538:1 8646:1 8758:1 9178:1 9202:1 9338:1 9571:1 9611:1 9647:1 9735:1 9791:1 9873:1 9946:1 10099:1 10250:1 10324:1 10356:1 10377:1 10555:1 10643:1 #
-0.0041542353195703251092507635178208 1:1 2:1 6:1 8:1 10:1 11:1 12:1 13:1 14:1 15:1 16:1 17:1 18:1 22:1 24:1 25:1 27:1 30:1 31:1 34:1 36:1 39:1 44:1 48:1 50:1 51:1 54:1 56:1 60:1 62:1 65:1 66:1 68:1 71:1 73:1 74:1 79:1 80:1 81:1 84:1 86:1 93:1 95:1 101:1 102:1 103:1 104:1 114:1 117:1 125:1 126:1 128:1 131:1 138:1 195:1 202:1 213:1 215:1 226:1 227:1 232:1 238:1 242:1 245:1 252:1 263:1 265:1 278:1 284:1 287:1 289:1 295:1 301:1 308:1 313:1 315:1 316:1 325:1 333:1 350:1 352:1 369:1 377:1 386:1 387:1 396:1 410:1 411:1 416:1 420:1 434:1 435:1 436:1 440:1 452:1 453:1 457:1 471:1 480:1 495:1 502:1 553:1 566:1 583:1 602:1 628:1 629:1 641:1 645:1 649:1 670:1 689:1 725:1 758:1 798:1 815:1 817:1 823:1 889:1 891:1 912:1 930:1 989:1 1009:1 1042:1 1071:1 1117:1 1133:1 1138:1 1200:1 1205:1 1211:1 1254:1 1374:1 1451:1 1462:1 1481:1 1504:1 1513:1 1532:1 1568:1 1591:1 1600:1 1639:1 1704:1 1736:1 1833:1 1851:1 1919:1 1924:1 2032:1 2039:1 2373:1 2421:1 2554:1 2585:1 2743:1 2776:1 2828:1 2928:1 2959:1 3043:1 3148:1 3177:1 3185:1 3282:1 3357:1 3462:1 3482:1 3483:1 3572:1 3606:1 3814:1 3941:1 3965:1 3967:1 4086:1 4440:1 4483:1 4655:1 4851:1 5064:1 5069:1 5107:1 5166:1 5179:1 5223:1 5385:1 5558:1 5752:1 5758:1 6214:1 6296:1 6480:1 6495:1 6555:1 6563:1 6612:1 6717:1 6761:1 6789:1 7074:1 7085:1 7094:1 7229:1 7237:1 7254:1 7870:1 7942:1 8173:1 8265:1 8598:1 8726:1 9062:1 9458:1 9739:1 10093:1 10170:1 10215:1 #
-0.0044975777317762932056011138115537 1:1 5:1 6:1 8:1 9:1 10:1 11:1 12:1 15:1 17:1 18:1 19:1 20:1 22:1 24:1 25:1 29:1 30:1 31:1 32:1 34:1 35:1 36:1 48:1 51:1 54:1 56:1 57:1 62:1 66:1 73:1 80:1 81:1 82:1 86:1 94:1 98:1 102:1 104:1 106:1 114:1 120:1 125:1 130:1 131:1 137:1 142:1 143:1 146:1 148:1 150:1 158:1 160:1 161:1 163:1 174:1 199:1 202:1 217:1 221:1 223:1 231:1 232:1 245:1 249:1 251:1 252:1 268:1 270:1 277:1 278:1 279:1 280:1 285:1 286:1 301:1 308:1 312:1 313:1 315:1 318:1 333:1 350:1 352:1 357:1 370:1 382:1 387:1 400:1 406:1 434:1 440:1 457:1 465:1 471:1 472:1 475:1 478:1 485:1 553:1 566:1 581:1 601:1 606:1 641:1 651:1 657:1 660:1 723:1 724:1 728:1 758:1 767:1 771:1 814:1 816:1 817:1 847:1 850:1 872:1 892:1 905:1 912:1 926:1 932:1 936:1 981:1 1005:1 1009:1 1021:1 1042:1 1058:1 1090:1 1091:1 1092:1 1137:1 1138:1 1150:1 1151:1 1173:1 1282:1 1305:1 1383:1 1408:1 1425:1 1428:1 1438:1 1441:1 1458:1 1483:1 1501:1 1532:1 1534:1 1568:1 1626:1 1671:1 1672:1 1698:1 1736:1 1792:1 1833:1 1903:1 1935:1 1975:1 1983:1 2023:1 2120:1 2171:1 2183:1 2190:1 2257:1 2372:1 2373:1 2375:1 2503:1 2599:1 2609:1 2824:1 2928:1 2983:1 3059:1 3097:1 3098:1 3100:1 3182:1 3275:1 3400:1 3431:1 3562:1 3666:1 3668:1 3680:1 3709:1 3750:1 3801:1 4029:1 4125:1 4210:1 4288:1 4305:1 4381:1 4406:1 4448:1 4477:1 4529:1 4735:1 4743:1 4811:1 4882:1 4935:1 5014:1 5034:1 5045:1 5107:1 5267:1 5533:1 5612:1 5714:1 5737:1 5887:1 5965:1 6068:1 6163:1 6188:1 6191:1 6332:1 6334:1 6530:1 6539:1 6670:1 6841:1 6988:1 7149:1 7237:1 7278:1 7310:1 7326:1 7401:1 7658:1 8049:1 8701:1 8850:1 9165:1 9288:1 9413:1 9579:1 10455:1 10701:1 #
-0.0044975777317762932056011138115537 1:1 7:1 8:1 11:1 12:1 15:1 17:1 18:1 19:1 21:1 22:1 23:1 24:1 25:1 29:1 30:1 33:1 34:1 36:1 39:1 44:1 50:1 51:1 52:1 54:1 57:1 62:1 66:1 75:1 79:1 82:1 84:1 86:1 88:1 102:1 103:1 104:1 106:1 114:1 117:1 119:1 120:1 125:1 131:1 137:1 148:1 159:1 161:1 163:1 170:1 174:1 179:1 186:1 187:1 202:1 213:1 218:1 221:1 227:1 231:1 238:1 244:1 251:1 270:1 277:1 283:1 316:1 322:1 328:1 329:1 341:1 357:1 385:1 397:1 406:1 415:1 432:1 434:1 435:1 452:1 457:1 464:1 465:1 480:1 510:1 544:1 564:1 575:1 628:1 630:1 640:1 642:1 647:1 651:1 653:1 669:1 702:1 725:1 750:1 758:1 762:1 763:1 798:1 802:1 806:1 809:1 828:1 831:1 843:1 850:1 868:1 892:1 899:1 912:1 928:1 947:1 955:1 962:1 981:1 994:1 1008:1 1012:1 1049:1 1074:1 1092:1 1111:1 1138:1 1144:1 1151:1 1155:1 1160:1 1162:1 1232:1 1258:1 1283:1 1296:1 1372:1 1385:1 1439:1 1450:1 1455:1 1462:1 1506:1 1548:1 1570:1 1591:1 1646:1 1750:1 1797:1 1845:1 1874:1 1976:1 2000:1 2011:1 2093:1 2117:1 2168:1 2170:1 2216:1 2249:1 2277:1 2304:1 2360:1 2373:1 2396:1 2454:1 2455:1 2487:1 2716:1 2726:1 2813:1 2959:1 2962:1 3068:1 3078:1 3097:1 3098:1 3099:1 3100:1 3119:1 3140:1 3213:1 3394:1 3607:1 3669:1 3681:1 3695:1 3835:1 3868:1 3881:1 3883:1 3896:1 3922:1 3940:1 4128:1 4252:1 4288:1 4291:1 4366:1 4458:1 4642:1 4729:1 4908:1 5261:1 5428:1 5433:1 5469:1 5931:1 6147:1 6262:1 6415:1 6442:1 6461:1 6702:1 6758:1 6890:1 6893:1 7352:1 7400:1 7500:1 7521:1 7566:1 7651:1 7795:1 8115:1 8232:1 8292:1 8483:1 8634:1 8979:1 9054:1 9223:1 9471:1 9616:1 9688:1 10049:1 10650:1 #
0.0018339700846025533496203019367954 1:1 4:1 5:1 7:1 8:1 11:1 12:1 13:1 15:1 17:1 18:1 20:1 22:1 23:1 24:1 29:1 32:1 34:1 36:1 39:1 51:1 52:1 62:1 67:1 71:1 75:1 82:1 84:1 89:1 90:1 96:1 101:1 102:1 103:1 104:1 113:1 114:1 120:1 156:1 163:1 170:1 187:1 199:1 231:1 232:1 233:1 238:1 242:1 244:1 247:1 264:1 270:1 277:1 283:1 285:1 301:1 308:1 320:1 322:1 329:1 333:1 387:1 390:1 410:1 426:1 436:1 440:1 451:1 452:1 453:1 458:1 472:1 475:1 491:1 566:1 598:1 601:1 630:1 632:1 641:1 642:1 653:1 658:1 671:1 750:1 758:1 762:1 767:1 779:1 831:1 849:1 872:1 880:1 889:1 909:1 912:1 944:1 945:1 946:1 955:1 981:1 1022:1 1058:1 1111:1 1148:1 1161:1 1180:1 1185:1 1229:1 1232:1 1258:1 1265:1 1279:1 1280:1 1283:1 1361:1 1439:1 1514:1 1516:1 1527:1 1565:1 1568:1 1591:1 1637:1 1655:1 1666:1 1723:1 1750:1 1755:1 1794:1 1829:1 1850:1 1854:1 1887:1 2021:1 2027:1 2170:1 2257:1 2291:1 2344:1 2368:1 2415:1 2418:1 2423:1 2442:1 2484:1 2548:1 2616:1 2632:1 2698:1 2793:1 2813:1 2826:1 2901:1 2912:1 3002:1 3005:1 3078:1 3099:1 3140:1 3184:1 3361:1 3368:1 3370:1 3632:1 3696:1 3774:1 3784:1 3869:1 3936:1 3940:1 3955:1 4035:1 4043:1 4044:1 4128:1 4224:1 4312:1 4313:1 4359:1 4382:1 4571:1 4580:1 4642:1 4862:1 4912:1 5010:1 5123:1 5389:1 5620:1 5625:1 5638:1 5728:1 5739:1 5817:1 5845:1 5874:1 5911:1 6332:1 6478:1 6584:1 6600:1 6673:1 6843:1 6845:1 7160:1 7330:1 7377:1 7610:1 7705:1 7716:1 7869:1 8080:1 8142:1 8155:1 8195:1 8222:1 8758:1 8935:1 9165:1 9185:1 9188:1 9420:1 9878:1 9954:1 10158:1 10617:1 10662:1 10681:1 10746:1 #
0.0010102671081166846814985982305757 1:1 2:1 4:1 5:1 7:1 8:1 9:1 11:1 12:1 13:1 16:1 17:1 18:1 19:1 20:1 21:1 22:1 23:1 24:1 26:1 27:1 28:1 29:1 30:1 31:1 32:1 34:1 36:1 38:1 40:1 41:1 45:1 46:1 47:1 52:1 54:1 59:1 62:1 63:1 66:1 67:1 69:1 71:1 72:1 73:1 75:1 77:1 79:1 82:1 84:1 86:1 89:1 90:1 91:1 94:1 96:1 98:1 99:1 102:1 103:1 104:1 114:1 117:1 119:1 120:1 129:1 130:1 131:1 146:1 147:1 149:1 152:1 153:1 155:1 156:1 161:1 167:1 170:1 171:1 172:1 174:1 175:1 176:1 177:1 179:1 183:1 184:1 185:1 187:1 195:1 197:1 199:1 202:1 204:1 207:1 211:1 214:1 215:1 218:1 224:1 228:1 230:1 232:1 234:1 236:1 238:1 241:1 242:1 244:1 245:1 253:1 255:1 261:1 262:1 264:1 268:1 270:1 275:1 277:1 289:1 299:1 305:1 308:1 312:1 319:1 322:1 324:1 325:1 328:1 329:1 330:1 333:1 335:1 336:1 341:1 344:1 351:1 353:1 355:1 356:1 370:1 378:1 382:1 383:1 390:1 399:1 404:1 406:1 407:1 414:1 416:1 442:1 443:1 446:1 450:1 451:1 452:1 465:1 470:1 472:1 477:1 478:1 479:1 480:1 488:1 490:1 491:1 497:1 529:1 536:1 541:1 553:1 558:1 599:1 600:1 605:1 608:1 620:1 626:1 627:1 630:1 632:1 635:1 642:1 643:1 649:1 651:1 653:1 657:1 669:1 698:1 717:1 719:1 751:1 755:1 758:1 762:1 773:1 792:1 797:1 800:1 812:1 819:1 833:1 837:1 839:1 843:1 845:1 862:1 868:1 870:1 874:1 878:1 881:1 884:1 894:1 897:1 903:1 911:1 918:1 921:1 982:1 987:1 994:1 1008:1 1009:1 1012:1 1037:1 1065:1 1074:1 1080:1 1087:1 1093:1 1096:1 1105:1 1119:1 1122:1 1123:1 1147:1 1160:1 1161:1 1185:1 1186:1 1206:1 1215:1 1221:1 1279:1 1382:1 1395:1 1397:1 1416:1 1426:1 1428:1 1430:1 1439:1 1442:1 1465:1 1489:1 1501:1 1513:1 1556:1 1572:1 1584:1 1591:1 1624:1 1634:1 1666:1 1673:1 1704:1 1708:1 1735:1 1760:1 1789:1 1827:1 1829:1 1834:1 1836:1 1837:1 1897:1 1909:1 1939:1 1941:1 1985:1 1986:1 2042:1 2064:1 2135:1 2167:1 2168:1 2193:1 2194:1 2237:1 2249:1 2253:1 2298:1 2311:1 2318:1 2344:1 2355:1 2390:1 2399:1 2408:1 2415:1 2418:1 2471:1 2475:1 2488:1 2534:1 2544:1 2573:1 2591:1 2665:1 2697:1 2716:1 2720:1 2724:1 2785:1 2793:1 2824:1 2827:1 2912:1 3005:1 3078:1 3100:1 3102:1 3120:1 3129:1 3203:1 3221:1 3287:1 3289:1 3325:1 3343:1 3347:1 3352:1 3370:1 3408:1 3422:1 3508:1 3555:1 3601:1 3616:1 3641:1 3719:1 3774:1 3782:1 3795:1 3801:1 3833:1 3947:1 3955:1 4029:1 4076:1 4160:1 4310:1 4336:1 4407:1 4415:1 4420:1 4475:1 4500:1 4536:1 4561:1 4714:1 4845:1 4966:1 4975:1 5002:1 5017:1 5107:1 5131:1 5173:1 5358:1 5428:1 5598:1 5625:1 5699:1 5847:1 5962:1 6051:1 6085:1 6442:1 6560:1 6577:1 6803:1 6966:1 6988:1 7274:1 7288:1 7565:1 7631:1 7675:1 7717:1 7741:1 7765:1 7836:1 7917:1 7995:1 8188:1 8200:1 8335:1 8382:1 8401:1 8439:1 8467:1 8632:1 8814:1 8901:1 9402:1 9560:1 9595:1 9896:1 10389:1 10500:1 10507:1 #
0.0044975777317762932056011138115537 1:1 5:1 7:1 11:1 12:1 15:1 16:1 18:1 21:1 22:1 23:1 25:1 26:1 29:1 30:1 34:1 47:1 49:1 52:1 53:1 56:1 59:1 62:1 68:1 71:1 72:1 74:1 75:1 76:1 84:1 88:1 93:1 94:1 95:1 99:1 101:1 102:1 103:1 104:1 114:1 119:1 120:1 125:1 127:1 131:1 141:1 156:1 157:1 167:1 174:1 181:1 184:1 186:1 191:1 193:1 197:1 203:1 207:1 210:1 216:1 218:1 219:1 221:1 225:1 227:1 231:1 236:1 238:1 251:1 258:1 266:1 275:1 277:1 292:1 300:1 322:1 323:1 325:1 339:1 341:1 351:1 353:1 359:1 365:1 385:1 401:1 423:1 428:1 438:1 446:1 451:1 452:1 478:1 521:1 523:1 529:1 531:1 553:1 566:1 606:1 615:1 629:1 653:1 665:1 674:1 725:1 742:1 755:1 762:1 792:1 803:1 835:1 856:1 865:1 877:1 897:1 915:1 940:1 945:1 946:1 1009:1 1012:1 1016:1 1059:1 1079:1 1092:1 1105:1 1111:1 1146:1 1172:1 1216:1 1258:1 1279:1 1388:1 1442:1 1461:1 1513:1 1523:1 1535:1 1549:1 1553:1 1565:1 1591:1 1644:1 1660:1 1755:1 1792:1 1850:1 1949:1 2038:1 2064:1 2172:1 2183:1 2198:1 2213:1 2240:1 2249:1 2349:1 2390:1 2410:1 2415:1 2436:1 2454:1 2558:1 2603:1 2638:1 2718:1 2824:1 2971:1 3005:1 3038:1 3068:1 3102:1 3114:1 3205:1 3394:1 3503:1 3507:1 3547:1 3668:1 3691:1 3832:1 4019:1 4154:1 4302:1 4359:1 4371:1 4599:1 4626:1 4975:1 5073:1 5213:1 5288:1 5414:1 6351:1 6455:1 6674:1 8139:1 8153:1 8305:1 8379:1 8632:1 8932:1 9044:1 9306:1 9328:1 9350:1 9605:1 10617:1 #
0.0044975777317762932056011138115537 1:1 2:1 5:1 7:1 10:1 11:1 12:1 16:1 18:1 20:1 21:1 22:1 24:1 25:1 26:1 27:1 29:1 34:1 36:1 38:1 39:1 40:1 45:1 46:1 48:1 51:1 55:1 56:1 59:1 61:1 66:1 68:1 72:1 73:1 74:1 76:1 78:1 84:1 88:1 90:1 94:1 95:1 98:1 102:1 103:1 104:1 106:1 108:1 114:1 119:1 123:1 130:1 138:1 152:1 154:1 155:1 161:1 171:1 186:1 189:1 191:1 193:1 195:1 202:1 208:1 218:1 224:1 231:1 236:1 266:1 278:1 295:1 297:1 304:1 314:1 315:1 329:1 341:1 343:1 366:1 369:1 374:1 414:1 417:1 420:1 423:1 424:1 434:1 495:1 503:1 526:1 561:1 564:1 575:1 581:1 608:1 610:1 614:1 621:1 633:1 645:1 652:1 663:1 690:1 694:1 723:1 755:1 756:1 758:1 779:1 789:1 814:1 823:1 833:1 840:1 857:1 876:1 882:1 888:1 899:1 905:1 922:1 929:1 932:1 973:1 1067:1 1075:1 1105:1 1170:1 1172:1 1188:1 1191:1 1214:1 1226:1 1228:1 1247:1 1250:1 1264:1 1305:1 1363:1 1397:1 1425:1 1440:1 1449:1 1453:1 1458:1 1473:1 1483:1 1501:1 1539:1 1593:1 1626:1 1689:1 1755:1 1933:1 1939:1 1951:1 2030:1 2043:1 2045:1 2091:1 2106:1 2134:1 2183:1 2274:1 2277:1 2304:1 2739:1 2771:1 2774:1 2859:1 3029:1 3056:1 3097:1 3102:1 3126:1 3311:1 3319:1 3571:1 3607:1 3745:1 3882:1 3940:1 4093:1 4161:1 4173:1 4202:1 4302:1 4436:1 4458:1 4497:1 4679:1 4714:1 4768:1 4823:1 4912:1 4948:1 5402:1 5444:1 5536:1 5597:1 5655:1 5777:1 5803:1 5908:1 5965:1 6118:1 6220:1 6324:1 6407:1 6745:1 6882:1 6996:1 7127:1 7133:1 7380:1 7437:1 7562:1 7666:1 7675:1 7685:1 7788:1 7797:1 8125:1 8380:1 8746:1 8853:1 9146:1 9305:1 9544:1 9947:1 10217:1 #
-0.00051132762071745855789184354023291 1:1 6:1 7:1 9:1 11:1 12:1 14:1 15:1 16:1 17:1 18:1 19:1 20:1 22:1 23:1 24:1 25:1 26:1 27:1 29:1 30:1 31:1 33:1 35:1 45:1 48:1 51:1 54:1 56:1 58:1 59:1 61:1 62:1 66:1 73:1 74:1 82:1 84:1 89:1 90:1 92:1 94:1 96:1 98:1 102:1 103:1 106:1 114:1 115:1 116:1 120:1 126:1 130:1 132:1 137:1 138:1 143:1 146:1 160:1 161:1 169:1 170:1 172:1 184:1 186:1 187:1 194:1 203:1 204:1 212:1 215:1 216:1 217:1 222:1 226:1 230:1 231:1 233:1 247:1 250:1 262:1 264:1 266:1 268:1 270:1 297:1 298:1 302:1 305:1 316:1 333:1 364:1 373:1 379:1 387:1 390:1 392:1 400:1 406:1 407:1 411:1 419:1 423:1 432:1 434:1 467:1 472:1 475:1 496:1 500:1 553:1 569:1 597:1 598:1 615:1 618:1 632:1 635:1 646:1 746:1 758:1 786:1 819:1 825:1 830:1 834:1 835:1 849:1 872:1 880:1 902:1 929:1 931:1 936:1 955:1 987:1 1022:1 1037:1 1039:1 1066:1 1068:1 1089:1 1092:1 1116:1 1186:1 1226:1 1265:1 1372:1 1396:1 1438:1 1477:1 1487:1 1501:1 1502:1 1545:1 1595:1 1610:1 1648:1 1652:1 1653:1 1655:1 1663:1 1670:1 1726:1 1737:1 1741:1 1793:1 1800:1 1819:1 1821:1 1850:1 1874:1 1899:1 1953:1 1957:1 1988:1 2006:1 2076:1 2189:1 2222:1 2364:1 2379:1 2382:1 2415:1 2471:1 2531:1 2543:1 2550:1 2603:1 2617:1 2655:1 2681:1 2714:1 2918:1 2939:1 3005:1 3098:1 3103:1 3240:1 3298:1 3305:1 3311:1 3369:1 3444:1 3471:1 3474:1 3624:1 4065:1 4118:1 4125:1 4128:1 4144:1 4215:1 4225:1 4255:1 4291:1 4703:1 4831:1 4886:1 4903:1 4910:1 4929:1 4973:1 5031:1 5088:1 5235:1 5359:1 5364:1 5489:1 5939:1 5972:1 6013:1 6145:1 6169:1 6363:1 6374:1 6549:1 6595:1 6765:1 6771:1 6964:1 7107:1 7240:1 7432:1 7602:1 7618:1 7797:1 7811:1 7870:1 8092:1 8123:1 8160:1 8362:1 8507:1 8552:1 8602:1 8747:1 8985:1 9165:1 9335:1 9465:1 9506:1 10111:1 10390:1 10485:1 10531:1 #
-0.0044975777317762932056011138115537 4:1 6:1 7:1 8:1 11:1 12:1 13:1 15:1 16:1 17:1 18:1 20:1 22:1 23:1 24:1 25:1 26:1 28:1 30:1 31:1 32:1 36:1 38:1 43:1 44:1 46:1 48:1 51:1 52:1 53:1 56:1 62:1 63:1 66:1 67:1 73:1 75:1 77:1 79:1 80:1 82:1 84:1 91:1 94:1 99:1 102:1 103:1 104:1 106:1 111:1 113:1 114:1 118:1 119:1 120:1 124:1 127:1 131:1 134:1 147:1 153:1 155:1 158:1 161:1 169:1 170:1 171:1 176:1 179:1 186:1 187:1 190:1 194:1 196:1 202:1 204:1 213:1 216:1 217:1 218:1 220:1 221:1 227:1 228:1 230:1 231:1 232:1 233:1 235:1 236:1 241:1 242:1 244:1 251:1 264:1 265:1 270:1 273:1 275:1 276:1 278:1 279:1 281:1 283:1 288:1 291:1 293:1 295:1 297:1 299:1 316:1 318:1 322:1 323:1 341:1 343:1 353:1 355:1 356:1 360:1 365:1 375:1 383:1 385:1 399:1 401:1 410:1 414:1 417:1 423:1 442:1 446:1 451:1 452:1 475:1 479:1 488:1 490:1 491:1 498:1 500:1 529:1 533:1 551:1 553:1 566:1 575:1 595:1 601:1 605:1 628:1 630:1 644:1 645:1 649:1 676:1 688:1 690:1 702:1 703:1 728:1 744:1 755:1 758:1 760:1 762:1 767:1 771:1 777:1 785:1 788:1 800:1 828:1 835:1 868:1 869:1 891:1 910:1 951:1 973:1 994:1 1005:1 1009:1 1105:1 1111:1 1118:1 1131:1 1160:1 1185:1 1218:1 1258:1 1280:1 1365:1 1395:1 1397:1 1410:1 1432:1 1435:1 1441:1 1462:1 1481:1 1508:1 1514:1 1550:1 1564:1 1565:1 1583:1 1591:1 1646:1 1666:1 1807:1 1827:1 1840:1 1854:1 1951:1 1986:1 1999:1 2014:1 2020:1 2038:1 2078:1 2079:1 2091:1 2117:1 2122:1 2140:1 2183:1 2184:1 2210:1 2279:1 2291:1 2298:1 2300:1 2304:1 2368:1 2372:1 2396:1 2439:1 2440:1 2462:1 2478:1 2486:1 2503:1 2541:1 2584:1 2616:1 2674:1 2681:1 2774:1 2793:1 2819:1 2898:1 2990:1 3029:1 3040:1 3068:1 3100:1 3114:1 3120:1 3122:1 3140:1 3205:1 3234:1 3270:1 3283:1 3365:1 3368:1 3389:1 3457:1 3461:1 3467:1 3487:1 3646:1 3782:1 3804:1 3932:1 3936:1 4029:1 4035:1 4327:1 4472:1 4481:1 4483:1 4624:1 4731:1 4912:1 5275:1 5428:1 5439:1 5576:1 5833:1 5900:1 6051:1 6298:1 6779:1 7377:1 7537:1 8105:1 8304:1 8436:1 8516:1 8579:1 8632:1 9008:1 9206:1 9913:1 10267:1 10535:1 10617:1 #
-0.0011636169389780826998598284305331 1:1 4:1 6:1 9:1 10:1 11:1 12:1 13:1 15:1 16:1 17:1 18:1 19:1 20:1 21:1 22:1 24:1 25:1 29:1 30:1 32:1 34:1 36:1 39:1 40:1 42:1 45:1 47:1 50:1 51:1 53:1 58:1 60:1 62:1 66:1 68:1 69:1 71:1 72:1 73:1 74:1 75:1 76:1 78:1 79:1 84:1 90:1 94:1 101:1 103:1 104:1 106:1 112:1 113:1 114:1 115:1 122:1 125:1 128:1 129:1 131:1 133:1 136:1 138:1 139:1 142:1 150:1 152:1 153:1 155:1 159:1 168:1 170:1 175:1 186:1 187:1 197:1 205:1 209:1 210:1 213:1 216:1 220:1 223:1 226:1 250:1 265:1 274:1 275:1 278:1 301:1 304:1 315:1 319:1 324:1 325:1 331:1 350:1 370:1 374:1 404:1 408:1 411:1 428:1 434:1 435:1 450:1 453:1 457:1 465:1 473:1 474:1 481:1 482:1 502:1 503:1 515:1 526:1 533:1 554:1 557:1 564:1 594:1 618:1 629:1 649:1 657:1 668:1 683:1 694:1 758:1 777:1 786:1 789:1 861:1 875:1 891:1 907:1 922:1 1009:1 1067:1 1081:1 1131:1 1150:1 1198:1 1200:1 1205:1 1211:1 1246:1 1254:1 1374:1 1378:1 1417:1 1485:1 1532:1 1534:1 1604:1 1607:1 1620:1 1636:1 1680:1 1704:1 1713:1 1728:1 1921:1 1995:1 2032:1 2044:1 2055:1 2077:1 2081:1 2097:1 2104:1 2118:1 2123:1 2145:1 2222:1 2282:1 2291:1 2442:1 2446:1 2609:1 2613:1 2618:1 2674:1 2807:1 2896:1 3058:1 3104:1 3162:1 3462:1 3530:1 3545:1 3607:1 3650:1 3696:1 3831:1 3842:1 3855:1 3929:1 4062:1 4078:1 4178:1 4190:1 4291:1 4327:1 4421:1 4511:1 4549:1 4572:1 4617:1 4641:1 4658:1 4676:1 5021:1 5035:1 5282:1 5414:1 5423:1 5596:1 5653:1 5730:1 5796:1 5850:1 5854:1 5889:1 5911:1 5937:1 5993:1 6087:1 6356:1 6414:1 6430:1 6530:1 6570:1 6579:1 6675:1 7010:1 7178:1 7190:1 7378:1 7475:1 7525:1 7624:1 7682:1 7976:1 8173:1 8191:1 8252:1 8916:1 9004:1 9067:1 9124:1 9272:1 9326:1 9409:1 9546:1 9713:1 10188:1 10495:1 10694:1 #
-0.0019781854032451125745273312617201 2:1 4:1 5:1 6:1 7:1 8:1 11:1 12:1 13:1 14:1 15:1 16:1 17:1 18:1 19:1 20:1 23:1 24:1 25:1 26:1 27:1 28:1 29:1 30:1 31:1 32:1 33:1 34:1 35:1 36:1 40:1 44:1 45:1 46:1 47:1 48:1 50:1 51:1 54:1 55:1 60:1 62:1 63:1 65:1 66:1 67:1 68:1 70:1 72:1 77:1 78:1 81:1 82:1 84:1 86:1 89:1 90:1 93:1 94:1 95:1 102:1 103:1 104:1 105:1 107:1 109:1 111:1 113:1 114:1 117:1 118:1 119:1 120:1 121:1 123:1 124:1 129:1 130:1 135:1 143:1 146:1 148:1 153:1 154:1 155:1 158:1 161:1 163:1 167:1 170:1 171:1 172:1 175:1 176:1 177:1 183:1 185:1 187:1 188:1 189:1 195:1 196:1 198:1 202:1 204:1 206:1 210:1 213:1 214:1 215:1 218:1 221:1 222:1 226:1 227:1 231:1 232:1 234:1 236:1 238:1 242:1 243:1 244:1 245:1 252:1 255:1 256:1 257:1 258:1 264:1 265:1 266:1 270:1 275:1 277:1 278:1 279:1 282:1 286:1 297:1 300:1 301:1 306:1 315:1 322:1 332:1 333:1 341:1 343:1 345:1 351:1 356:1 357:1 374:1 378:1 379:1 384:1 392:1 406:1 408:1 410:1 414:1 419:1 432:1 440:1 442:1 448:1 475:1 477:1 491:1 496:1 499:1 529:1 533:1 553:1 566:1 569:1 570:1 605:1 620:1 628:1 632:1 642:1 645:1 649:1 652:1 660:1 668:1 687:1 688:1 709:1 719:1 740:1 750:1 753:1 755:1 758:1 761:1 767:1 771:1 774:1 789:1 808:1 809:1 813:1 821:1 857:1 932:1 934:1 996:1 1008:1 1009:1 1010:1 1021:1 1022:1 1026:1 1091:1 1094:1 1105:1 1159:1 1161:1 1225:1 1274:1 1375:1 1473:1 1500:1 1506:1 1524:1 1536:1 1539:1 1620:1 1637:1 1678:1 1733:1 1819:1 1827:1 1840:1 1849:1 1919:1 1976:1 1986:1 2018:1 2030:1 2085:1 2086:1 2183:1 2190:1 2193:1 2224:1 2291:1 2308:1 2318:1 2569:1 2581:1 2677:1 2771:1 2785:1 2825:1 2862:1 2928:1 2936:1 2957:1 3023:1 3086:1 3114:1 3120:1 3126:1 3275:1 3306:1 3328:1 3400:1 3466:1 3490:1 3519:1 3592:1 3649:1 3856:1 3868:1 3883:1 3928:1 4020:1 4029:1 4070:1 4161:1 4207:1 4312:1 4409:1 4462:1 4481:1 4700:1 4725:1 4901:1 5010:1 5102:1 5118:1 5279:1 5388:1 5431:1 5439:1 5536:1 5581:1 5624:1 5655:1 5851:1 6054:1 6176:1 6238:1 6322:1 6374:1 6563:1 6621:1 6745:1 6808:1 7097:1 7320:1 7437:1 7565:1 7606:1 7826:1 8126:1 8197:1 8326:1 8338:1 8632:1 9094:1 9107:1 9149:1 9423:1 9593:1 9657:1 10120:1 10158:1 10389:1 10497:1 10601:1 #
-0.0040989686900268669511593344623179 1:1 4:1 5:1 7:1 8:1 9:1 10:1 12:1 14:1 15:1 16:1 17:1 18:1 22:1 24:1 25:1 27:1 29:1 30:1 31:1 32:1 34:1 36:1 39:1 42:1 44:1 45:1 51:1 52:1 53:1 57:1 61:1 62:1 66:1 67:1 69:1 72:1 73:1 75:1 77:1 81:1 84:1 86:1 90:1 91:1 94:1 95:1 96:1 102:1 103:1 104:1 106:1 111:1 114:1 117:1 119:1 123:1 126:1 127:1 129:1 130:1 131:1 142:1 146:1 149:1 154:1 155:1 159:1 165:1 167:1 170:1 174:1 175:1 178:1 181:1 184:1 185:1 187:1 195:1 196:1 200:1 202:1 205:1 207:1 210:1 213:1 214:1 217:1 221:1 224:1 225:1 228:1 231:1 233:1 235:1 236:1 242:1 243:1 244:1 246:1 249:1 252:1 258:1 264:1 273:1 275:1 277:1 279:1 295:1 304:1 312:1 321:1 323:1 325:1 329:1 332:1 333:1 335:1 347:1 353:1 354:1 365:1 369:1 374:1 377:1 378:1 381:1 382:1 383:1 385:1 391:1 393:1 409:1 424:1 425:1 428:1 432:1 433:1 434:1 436:1 440:1 442:1 444:1 446:1 451:1 452:1 475:1 477:1 478:1 480:1 481:1 491:1 496:1 497:1 502:1 510:1 529:1 541:1 566:1 569:1 581:1 598:1 601:1 602:1 606:1 611:1 622:1 628:1 630:1 634:1 647:1 649:1 656:1 660:1 664:1 671:1 672:1 685:1 688:1 717:1 725:1 728:1 742:1 755:1 773:1 792:1 796:1 800:1 803:1 807:1 808:1 815:1 828:1 836:1 840:1 868:1 872:1 873:1 881:1 899:1 910:1 919:1 922:1 925:1 937:1 941:1 946:1 962:1 987:1 996:1 999:1 1004:1 1009:1 1018:1 1026:1 1047:1 1060:1 1067:1 1087:1 1091:1 1094:1 1137:1 1140:1 1144:1 1147:1 1150:1 1158:1 1173:1 1263:1 1264:1 1279:1 1361:1 1386:1 1397:1 1416:1 1422:1 1455:1 1462:1 1466:1 1475:1 1490:1 1506:1 1508:1 1534:1 1536:1 1565:1 1567:1 1579:1 1604:1 1626:1 1646:1 1649:1 1650:1 1704:1 1733:1 1797:1 1827:1 1836:1 1842:1 1906:1 1951:1 1985:1 1986:1 2034:1 2064:1 2078:1 2193:1 2213:1 2269:1 2344:1 2360:1 2368:1 2394:1 2423:1 2478:1 2488:1 2541:1 2628:1 2684:1 2775:1 2785:1 2824:1 2901:1 3002:1 3015:1 3053:1 3102:1 3114:1 3120:1 3142:1 3172:1 3197:1 3259:1 3271:1 3274:1 3328:1 3414:1 3474:1 3584:1 3663:1 3691:1 3718:1 3719:1 3807:1 3826:1 3843:1 3853:1 3883:1 3886:1 3905:1 3940:1 3965:1 4035:1 4040:1 4130:1 4138:1 4181:1 4194:1 4300:1 4363:1 4470:1 4560:1 4574:1 4659:1 4939:1 5009:1 5168:1 5170:1 5179:1 5213:1 5308:1 5341:1 5362:1 5439:1 5492:1 5700:1 5771:1 6095:1 6316:1 6351:1 6402:1 6530:1 6629:1 6713:1 6935:1 6943:1 6988:1 7062:1 7283:1 7474:1 7563:1 7691:1 7907:1 7929:1 7948:1 7994:1 7995:1 8126:1 8173:1 8264:1 8372:1 8380:1 8510:1 8604:1 8629:1 8910:1 9303:1 9727:1 9963:1 10030:1 10229:1 10237:1 10488:1 #
0.0044337024723158100295017369774087 1:1 2:1 3:1 6:1 8:1 9:1 10:1 11:1 14:1 15:1 16:1 17:1 18:1 19:1 20:1 22:1 24:1 25:1 26:1 30:1 31:1 32:1 34:1 35:1 36:1 41:1 44:1 45:1 48:1 50:1 51:1 54:1 55:1 57:1 60:1 62:1 63:1 65:1 66:1 72:1 73:1 79:1 80:1 81:1 82:1 84:1 87:1 89:1 90:1 98:1 102:1 104:1 105:1 106:1 112:1 115:1 116:1 117:1 122:1 124:1 125:1 126:1 131:1 137:1 140:1 158:1 159:1 160:1 161:1 162:1 174:1 181:1 187:1 194:1 202:1 204:1 213:1 215:1 216:1 217:1 229:1 232:1 233:1 235:1 245:1 252:1 266:1 277:1 280:1 283:1 286:1 287:1 295:1 301:1 307:1 308:1 310:1 315:1 318:1 326:1 331:1 332:1 337:1 346:1 349:1 350:1 357:1 377:1 387:1 396:1 397:1 411:1 420:1 434:1 452:1 453:1 460:1 466:1 471:1 472:1 475:1 482:1 483:1 486:1 491:1 502:1 503:1 509:1 529:1 553:1 554:1 594:1 606:1 618:1 628:1 629:1 640:1 645:1 651:1 653:1 671:1 700:1 708:1 725:1 746:1 747:1 767:1 789:1 799:1 801:1 830:1 839:1 850:1 869:1 875:1 889:1 891:1 895:1 912:1 927:1 930:1 936:1 955:1 956:1 958:1 1005:1 1008:1 1009:1 1028:1 1042:1 1056:1 1058:1 1090:1 1117:1 1131:1 1133:1 1137:1 1142:1 1180:1 1189:1 1205:1 1274:1 1368:1 1378:1 1383:1 1392:1 1441:1 1447:1 1486:1 1491:1 1498:1 1513:1 1514:1 1532:1 1534:1 1536:1 1540:1 1568:1 1589:1 1620:1 1621:1 1646:1 1666:1 1671:1 1672:1 1688:1 1701:1 1716:1 1742:1 1819:1 1825:1 1876:1 1949:1 1971:1 2094:1 2101:1 2124:1 2193:1 2254:1 2291:1 2455:1 2606:1 2615:1 2641:1 2715:1 2813:1 2828:1 2893:1 2904:1 2960:1 2963:1 2981:1 2983:1 2986:1 3025:1 3060:1 3098:1 3099:1 3112:1 3120:1 3272:1 3324:1 3431:1 3449:1 3549:1 3552:1 3553:1 3577:1 3631:1 3775:1 3857:1 3946:1 4376:1 4811:1 4891:1 4935:1 5144:1 5555:1 5642:1 5703:1 5706:1 5895:1 6122:1 6235:1 6267:1 6909:1 6988:1 7021:1 7034:1 7216:1 7383:1 7457:1 7493:1 7529:1 7533:1 8041:1 8415:1 8460:1 8463:1 8809:1 8813:1 9050:1 9089:1 9253:1 9461:1 9481:1 9571:1 9588:1 9646:1 10114:1 10469:1 #
0.0036816031498362682648772814530957 2:1 3:1 6:1 7:1 8:1 9:1 10:1 11:1 12:1 15:1 16:1 17:1 18:1 20:1 22:1 23:1 24:1 27:1 30:1 31:1 32:1 33:1 34:1 35:1 36:1 41:1 43:1 44:1 54:1 57:1 59:1 60:1 62:1 64:1 66:1 68:1 69:1 72:1 73:1 79:1 81:1 82:1 92:1 94:1 98:1 100:1 101:1 103:1 105:1 106:1 113:1 114:1 116:1 117:1 120:1 122:1 124:1 126:1 138:1 140:1 142:1 159:1 162:1 165:1 174:1 194:1 195:1 199:1 202:1 205:1 213:1 215:1 222:1 227:1 231:1 237:1 265:1 266:1 278:1 280:1 283:1 287:1 295:1 301:1 308:1 309:1 310:1 313:1 324:1 326:1 341:1 349:1 350:1 382:1 386:1 387:1 388:1 392:1 396:1 404:1 416:1 419:1 420:1 436:1 471:1 472:1 475:1 482:1 484:1 487:1 509:1 510:1 515:1 552:1 553:1 554:1 575:1 630:1 650:1 657:1 688:1 760:1 789:1 819:1 828:1 872:1 875:1 889:1 891:1 895:1 914:1 968:1 1004:1 1090:1 1105:1 1133:1 1168:1 1368:1 1378:1 1392:1 1397:1 1532:1 1536:1 1565:1 1626:1 1629:1 1650:1 1666:1 1672:1 1694:1 1755:1 1824:1 1869:1 1955:1 2117:1 2135:1 2193:1 2244:1 2311:1 2368:1 2370:1 2376:1 2439:1 2486:1 2499:1 2573:1 2703:1 2793:1 2801:1 2819:1 3097:1 3126:1 3459:1 3464:1 3607:1 3699:1 3868:1 3906:1 3926:1 3967:1 3994:1 4040:1 4067:1 4096:1 4139:1 4161:1 4239:1 4277:1 4305:1 4419:1 4423:1 4457:1 4631:1 4891:1 4936:1 4941:1 5002:1 5029:1 5370:1 5504:1 5616:1 5869:1 5962:1 6054:1 6111:1 6184:1 6315:1 6926:1 7076:1 7254:1 7295:1 7413:1 7457:1 7529:1 7583:1 7584:1 7702:1 7723:1 7826:1 7846:1 7880:1 8055:1 8241:1 8500:1 8712:1 9507:1 9513:1 9839:1 10474:1 10606:1 10697:1 #
0.0044975777317762932056011138115537 1:1 3:1 6:1 7:1 8:1 9:1 10:1 11:1 12:1 15:1 16:1 17:1 18:1 19:1 20:1 21:1 22:1 24:1 25:1 29:1 30:1 31:1 32:1 33:1 34:1 36:1 39:1 48:1 50:1 51:1 54:1 55:1 57:1 60:1 62:1 65:1 66:1 69:1 70:1 71:1 78:1 79:1 80:1 82:1 84:1 93:1 94:1 95:1 98:1 102:1 106:1 109:1 114:1 126:1 131:1 140:1 150:1 158:1 160:1 168:1 177:1 209:1 221:1 225:1 227:1 230:1 233:1 245:1 248:1 251:1 252:1 256:1 266:1 285:1 287:1 307:1 308:1 309:1 315:1 323:1 333:1 337:1 364:1 382:1 385:1 387:1 426:1 427:1 430:1 432:1 435:1 457:1 482:1 508:1 512:1 533:1 564:1 581:1 601:1 606:1 628:1 651:1 657:1 669:1 695:1 700:1 709:1 724:1 758:1 799:1 800:1 811:1 819:1 832:1 860:1 863:1 885:1 895:1 905:1 916:1 932:1 968:1 1008:1 1009:1 1014:1 1071:1 1102:1 1137:1 1173:1 1226:1 1246:1 1254:1 1398:1 1444:1 1453:1 1477:1 1483:1 1529:1 1600:1 1636:1 1639:1 1646:1 1666:1 1728:1 1832:1 1833:1 1847:1 1877:1 2101:1 2163:1 2177:1 2239:1 2256:1 2371:1 2378:1 2462:1 2585:1 2588:1 2685:1 3040:1 3113:1 3120:1 3182:1 3472:1 3839:1 3985:1 4092:1 4228:1 4238:1 4251:1 4265:1 4313:1 4483:1 4531:1 5059:1 5511:1 5776:1 5794:1 5825:1 6103:1 6110:1 6244:1 6546:1 7064:1 7355:1 7824:1 7950:1 8158:1 8298:1 8382:1 8973:1 9011:1 9034:1 9761:1 9894:1 10634:1 #
0.0044975777317762932056011138115537 1:1 4:1 10:1 11:1 12:1 15:1 17:1 18:1 22:1 25:1 29:1 30:1 31:1 32:1 34:1 35:1 44:1 48:1 50:1 52:1 57:1 62:1 63:1 66:1 67:1 69:1 78:1 81:1 82:1 94:1 101:1 102:1 103:1 104:1 105:1 106:1 109:1 114:1 125:1 131:1 148:1 150:1 157:1 159:1 160:1 170:1 174:1 186:1 205:1 222:1 244:1 266:1 280:1 283:1 301:1 307:1 337:1 360:1 364:1 378:1 397:1 404:1 426:1 434:1 460:1 482:1 494:1 515:1 569:1 598:1 645:1 657:1 696:1 724:1 747:1 758:1 783:1 794:1 813:1 815:1 882:1 894:1 895:1 912:1 1012:1 1028:1 1082:1 1131:1 1137:1 1138:1 1246:1 1254:1 1324:1 1534:1 1536:1 1568:1 1578:1 1626:1 1636:1 1666:1 1819:1 1824:1 1837:1 1888:1 1977:1 1983:1 2101:1 2186:1 2193:1 2350:1 2714:1 2793:1 2924:1 3015:1 3177:1 3459:1 3665:1 3801:1 4409:1 4935:1 5189:1 5914:1 6107:1 6278:1 6550:1 6657:1 7317:1 8415:1 8879:1 8884:1 9201:1 9292:1 9667:1 #
-0.00050547075329669796574932894017707 1:1 2:1 5:1 6:1 7:1 11:1 15:1 16:1 17:1 19:1 22:1 24:1 25:1 27:1 29:1 30:1 31:1 32:1 34:1 36:1 45:1 47:1 51:1 56:1 59:1 62:1 64:1 70:1 73:1 78:1 79:1 84:1 94:1 96:1 98:1 99:1 102:1 104:1 106:1 107:1 108:1 113:1 114:1 116:1 117:1 119:1 120:1 123:1 124:1 135:1 141:1 148:1 155:1 158:1 174:1 175:1 177:1 179:1 188:1 195:1 203:1 213:1 222:1 227:1 230:1 231:1 233:1 234:1 244:1 266:1 270:1 273:1 295:1 302:1 312:1 316:1 320:1 322:1 341:1 364:1 367:1 368:1 386:1 390:1 395:1 404:1 406:1 423:1 434:1 476:1 481:1 544:1 569:1 615:1 618:1 642:1 696:1 709:1 725:1 727:1 743:1 745:1 755:1 758:1 800:1 812:1 815:1 817:1 833:1 849:1 916:1 917:1 918:1 919:1 936:1 962:1 968:1 1014:1 1037:1 1043:1 1045:1 1072:1 1085:1 1129:1 1139:1 1144:1 1173:1 1181:1 1372:1 1379:1 1396:1 1430:1 1476:1 1502:1 1509:1 1555:1 1565:1 1596:1 1632:1 1653:1 1660:1 1737:1 1752:1 1755:1 1756:1 1803:1 1826:1 2011:1 2028:1 2067:1 2163:1 2187:1 2192:1 2355:1 2368:1 2375:1 2503:1 2541:1 2542:1 2592:1 2599:1 2617:1 2778:1 2964:1 3038:1 3056:1 3177:1 3298:1 3444:1 3457:1 3463:1 3609:1 3769:1 4081:1 4327:1 4576:1 4908:1 5031:1 5107:1 5151:1 5210:1 5651:1 5963:1 6068:1 6254:1 6282:1 6294:1 6322:1 6378:1 6450:1 6593:1 6651:1 7650:1 8141:1 8219:1 8350:1 8690:1 9866:1 10214:1 #
-0.0044975777317762932056011138115537 1:1 2:1 3:1 5:1 6:1 8:1 10:1 11:1 14:1 15:1 16:1 17:1 18:1 19:1 20:1 22:1 24:1 25:1 30:1 31:1 32:1 33:1 34:1 35:1 36:1 41:1 45:1 48:1 50:1 52:1 55:1 57:1 58:1 62:1 64:1 65:1 66:1 68:1 69:1 73:1 75:1 79:1 80:1 81:1 82:1 87:1 98:1 100:1 101:1 103:1 106:1 109:1 116:1 117:1 131:1 138:1 150:1 153:1 159:1 168:1 172:1 174:1 187:1 209:1 213:1 214:1 215:1 230:1 233:1 245:1 246:1 251:1 266:1 280:1 285:1 287:1 307:1 308:1 309:1 310:1 312:1 331:1 333:1 350:1 357:1 375:1 377:1 382:1 387:1 400:1 406:1 407:1 411:1 427:1 434:1 435:1 440:1 471:1 480:1 482:1 544:1 553:1 581:1 601:1 609:1 618:1 629:1 630:1 641:1 651:1 653:1 657:1 670:1 700:1 708:1 723:1 724:1 746:1 758:1 767:1 771:1 813:1 863:1 891:1 936:1 1005:1 1056:1 1100:1 1102:1 1254:1 1383:1 1441:1 1450:1 1520:1 1536:1 1646:1 1650:1 1666:1 1832:1 1975:1 2194:1 2256:1 2378:1 2471:1 2588:1 2631:1 2702:1 2793:1 3060:1 3271:1 3310:1 3358:1 3388:1 3431:1 3472:1 3783:1 3929:1 4029:1 4145:1 4228:1 4251:1 4313:1 4337:1 4345:1 4422:1 4697:1 5034:1 5541:1 6109:1 6181:1 6546:1 6940:1 7005:1 7297:1 7355:1 7406:1 7602:1 8007:1 8984:1 8988:1 9513:1 10145:1 10215:1 10730:1 #
-0.0044975777317762932056011138115537 6:1 9:1 11:1 12:1 15:1 16:1 20:1 21:1 22:1 24:1 25:1 29:1 30:1 31:1 35:1 36:1 39:1 41:1 45:1 48:1 50:1 54:1 55:1 62:1 66:1 69:1 72:1 73:1 79:1 80:1 82:1 84:1 98:1 102:1 104:1 115:1 116:1 117:1 125:1 150:1 157:1 159:1 165:1 170:1 174:1 187:1 205:1 221:1 225:1 227:1 232:1 233:1 245:1 266:1 308:1 315:1 324:1 326:1 357:1 360:1 370:1 387:1 397:1 416:1 420:1 434:1 472:1 474:1 475:1 482:1 503:1 507:1 553:1 566:1 617:1 640:1 645:1 657:1 758:1 819:1 872:1 875:1 891:1 902:1 932:1 958:1 989:1 1014:1 1066:1 1200:1 1254:1 1274:1 1378:1 1385:1 1445:1 1502:1 1503:1 1515:1 1516:1 1534:1 1612:1 1618:1 1621:1 1653:1 1666:1 1706:1 1791:1 1805:1 1819:1 1915:1 1951:1 1963:1 2039:1 2104:1 2145:1 2188:1 2271:1 2284:1 2419:1 2609:1 2617:1 2788:1 2793:1 2821:1 2908:1 3015:1 3060:1 3160:1 3363:1 3648:1 3742:1 3797:1 3869:1 4521:1 4542:1 4569:1 5009:1 5215:1 5293:1 5359:1 5446:1 5555:1 5612:1 5653:1 6352:1 6710:1 6887:1 6892:1 7040:1 7280:1 7517:1 7525:1 8221:1 8460:1 8543:1 8646:1 9393:1 9407:1 9988:1 10276:1 10431:1 10626:1 #
-0.0036227347340261951448570076905753 1:1 2:1 6:1 8:1 9:1 10:1 11:1 14:1 15:1 16:1 19:1 20:1 22:1 24:1 25:1 27:1 29:1 30:1 31:1 32:1 34:1 35:1 36:1 37:1 39:1 41:1 44:1 48:1 50:1 54:1 56:1 57:1 62:1 66:1 68:1 69:1 73:1 74:1 75:1 78:1 80:1 81:1 86:1 90:1 98:1 104:1 121:1 122:1 126:1 131:1 140:1 142:1 143:1 146:1 150:1 159:1 162:1 165:1 172:1 174:1 187:1 194:1 199:1 215:1 217:1 227:1 235:1 238:1 242:1 251:1 252:1 265:1 266:1 268:1 274:1 280:1 284:1 308:1 310:1 333:1 357:1 377:1 382:1 388:1 396:1 410:1 416:1 434:1 436:1 453:1 457:1 467:1 475:1 482:1 491:1 594:1 601:1 606:1 617:1 641:1 645:1 657:1 662:1 717:1 723:1 747:1 758:1 767:1 800:1 854:1 883:1 894:1 901:1 902:1 926:1 927:1 930:1 932:1 943:1 975:1 989:1 1002:1 1020:1 1031:1 1056:1 1117:1 1137:1 1219:1 1226:1 1254:1 1377:1 1406:1 1423:1 1428:1 1445:1 1504:1 1534:1 1557:1 1568:1 1594:1 1604:1 1620:1 1650:1 1661:1 1736:1 1799:1 1804:1 1832:1 1833:1 1972:1 1975:1 2019:1 2284:1 2317:1 2321:1 2456:1 2615:1 2629:1 2703:1 2711:1 2821:1 2828:1 2960:1 2968:1 2981:1 3272:1 3430:1 3472:1 3474:1 3553:1 3577:1 3619:1 3736:1 3831:1 3852:1 4040:1 4079:1 4228:1 4375:1 4376:1 4440:1 4754:1 4798:1 4836:1 4907:1 4920:1 4935:1 5067:1 5183:1 5281:1 5353:1 5532:1 5595:1 6063:1 6069:1 6199:1 6792:1 6892:1 6940:1 6999:1 7118:1 7156:1 7214:1 7223:1 7309:1 7416:1 7504:1 7631:1 7702:1 7750:1 7758:1 7808:1 8133:1 8339:1 8437:1 8832:1 9238:1 9470:1 9887:1 10677:1 #
-0.00085631591889976689524477393433699 1:1 8:1 10:1 11:1 14:1 15:1 16:1 18:1 19:1 21:1 22:1 25:1 30:1 31:1 35:1 36:1 49:1 57:1 62:1 66:1 69:1 73:1 79:1 97:1 103:1 125:1 130:1 131:1 158:1 160:1 165:1 175:1 177:1 221:1 222:1 227:1 230:1 232:1 233:1 236:1 266:1 295:1 307:1 310:1 312:1 315:1 331:1 333:1 360:1 426:1 432:1 447:1 450:1 453:1 460:1 465:1 482:1 598:1 606:1 630:1 645:1 651:1 657:1 674:1 683:1 717:1 724:1 775:1 799:1 805:1 817:1 854:1 905:1 912:1 981:1 1008:1 1014:1 1058:1 1151:1 1173:1 1254:1 1275:1 1534:1 1568:1 1696:1 1805:1 1825:1 1850:1 1864:1 2101:1 2104:1 2145:1 2272:1 2350:1 2487:1 2623:1 2875:1 2981:1 3082:1 3098:1 3136:1 3154:1 3501:1 3572:1 3839:1 4047:1 4204:1 4320:1 4388:1 4460:1 4551:1 4750:1 4824:1 4832:1 5059:1 5076:1 5307:1 5940:1 5987:1 6188:1 6449:1 6974:1 8464:1 8538:1 8701:1 8732:1 8794:1 9373:1 9789:1 10687:1 #
-0.0014793372222280402796673604015609 1:1 3:1 5:1 6:1 11:1 24:1 25:1 29:1 30:1 31:1 32:1 45:1 58:1 60:1 69:1 74:1 78:1 80:1 82:1 87:1 96:1 117:1 124:1 125:1 135:1 136:1 142:1 150:1 157:1 161:1 162:1 172:1 184:1 187:1 225:1 236:1 247:1 252:1 266:1 280:1 337:1 340:1 382:1 387:1 400:1 438:1 482:1 491:1 495:1 515:1 524:1 553:1 629:1 630:1 635:1 657:1 743:1 758:1 875:1 904:1 1378:1 1498:1 1703:1 1998:1 2001:1 2029:1 2068:1 2797:1 2816:1 3289:1 3731:1 3734:1 3844:1 4372:1 4626:1 5653:1 7189:1 7314:1 7589:1 7728:1 8509:1 8527:1 8957:1 #
0.0008334444096007138317455664733302 1:1 3:1 5:1 7:1 8:1 9:1 11:1 12:1 13:1 15:1 17:1 18:1 20:1 21:1 22:1 23:1 24:1 25:1 26:1 27:1 29:1 30:1 31:1 32:1 34:1 36:1 39:1 42:1 50:1 51:1 52:1 53:1 54:1 56:1 58:1 59:1 62:1 63:1 65:1 66:1 67:1 69:1 73:1 75:1 77:1 78:1 79:1 80:1 81:1 82:1 84:1 86:1 87:1 89:1 90:1 94:1 96:1 99:1 101:1 102:1 103:1 104:1 106:1 107:1 109:1 112:1 113:1 114:1 115:1 116:1 117:1 119:1 120:1 124:1 125:1 130:1 131:1 132:1 134:1 135:1 137:1 146:1 147:1 148:1 149:1 151:1 155:1 156:1 158:1 159:1 161:1 163:1 164:1 169:1 170:1 179:1 181:1 187:1 191:1 195:1 199:1 200:1 202:1 205:1 213:1 221:1 227:1 230:1 231:1 232:1 235:1 242:1 243:1 244:1 245:1 249:1 250:1 252:1 270:1 273:1 276:1 277:1 278:1 279:1 283:1 289:1 295:1 315:1 320:1 322:1 323:1 326:1 328:1 341:1 350:1 357:1 369:1 374:1 375:1 377:1 382:1 385:1 388:1 390:1 392:1 394:1 396:1 397:1 399:1 402:1 404:1 406:1 407:1 408:1 411:1 413:1 414:1 416:1 419:1 425:1 430:1 432:1 433:1 434:1 435:1 436:1 438:1 440:1 442:1 445:1 452:1 453:1 457:1 458:1 464:1 465:1 480:1 490:1 498:1 503:1 526:1 558:1 566:1 575:1 597:1 608:1 612:1 613:1 615:1 628:1 630:1 635:1 641:1 642:1 644:1 646:1 653:1 661:1 670:1 671:1 672:1 685:1 688:1 702:1 716:1 717:1 719:1 725:1 728:1 750:1 755:1 756:1 758:1 762:1 763:1 764:1 767:1 777:1 783:1 793:1 800:1 803:1 809:1 811:1 815:1 819:1 829:1 833:1 842:1 849:1 866:1 868:1 870:1 874:1 894:1 912:1 914:1 918:1 919:1 928:1 930:1 941:1 944:1 947:1 951:1 962:1 964:1 972:1 976:1 980:1 989:1 994:1 1002:1 1004:1 1009:1 1015:1 1021:1 1028:1 1038:1 1042:1 1046:1 1058:1 1066:1 1085:1 1101:1 1118:1 1119:1 1129:1 1142:1 1148:1 1155:1 1164:1 1170:1 1173:1 1200:1 1205:1 1207:1 1216:1 1230:1 1232:1 1258:1 1259:1 1280:1 1361:1 1372:1 1385:1 1386:1 1405:1 1416:1 1418:1 1425:1 1426:1 1429:1 1432:1 1439:1 1451:1 1452:1 1459:1 1461:1 1462:1 1475:1 1501:1 1514:1 1527:1 1534:1 1556:1 1568:1 1591:1 1609:1 1639:1 1660:1 1673:1 1679:1 1696:1 1716:1 1719:1 1729:1 1748:1 1750:1 1767:1 1771:1 1796:1 1797:1 1808:1 1840:1 1842:1 1845:1 1855:1 1856:1 1863:1 1870:1 1897:1 1898:1 1901:1 1907:1 1921:1 1929:1 1938:1 1969:1 1985:1 1987:1 1999:1 2062:1 2070:1 2078:1 2097:1 2117:1 2150:1 2160:1 2167:1 2171:1 2206:1 2210:1 2213:1 2228:1 2246:1 2249:1 2271:1 2307:1 2361:1 2396:1 2418:1 2423:1 2440:1 2442:1 2455:1 2462:1 2486:1 2535:1 2548:1 2551:1 2584:1 2599:1 2614:1 2643:1 2672:1 2684:1 2706:1 2736:1 2789:1 2826:1 2859:1 2864:1 2893:1 2898:1 2909:1 2912:1 2928:1 2934:1 2955:1 2956:1 2959:1 2964:1 3004:1 3005:1 3015:1 3053:1 3068:1 3098:1 3112:1 3119:1 3120:1 3126:1 3128:1 3149:1 3171:1 3207:1 3235:1 3271:1 3272:1 3282:1 3288:1 3304:1 3308:1 3312:1 3313:1 3350:1 3365:1 3394:1 3403:1 3445:1 3451:1 3461:1 3463:1 3470:1 3487:1 3630:1 3648:1 3663:1 3669:1 3681:1 3723:1 3725:1 3726:1 3761:1 3782:1 3803:1 3813:1 3829:1 3833:1 3842:1 3853:1 3863:1 3868:1 3869:1 3883:1 3910:1 3932:1 3960:1 3994:1 4029:1 4035:1 4071:1 4106:1 4128:1 4129:1 4191:1 4194:1 4202:1 4212:1 4217:1 4237:1 4264:1 4271:1 4288:1 4290:1 4294:1 4300:1 4325:1 4336:1 4342:1 4346:1 4361:1 4367:1 4432:1 4441:1 4466:1 4470:1 4472:1 4477:1 4530:1 4539:1 4546:1 4564:1 4588:1 4624:1 4676:1 4713:1 4731:1 4737:1 4779:1 4838:1 4873:1 4904:1 4907:1 4908:1 4965:1 4988:1 5030:1 5035:1 5060:1 5082:1 5092:1 5110:1 5144:1 5179:1 5189:1 5232:1 5313:1 5339:1 5420:1 5433:1 5439:1 5483:1 5500:1 5576:1 5747:1 5934:1 6084:1 6094:1 6147:1 6188:1 6197:1 6262:1 6358:1 6361:1 6371:1 6471:1 6507:1 6526:1 6556:1 6572:1 6589:1 6639:1 6710:1 6758:1 6782:1 6783:1 6794:1 6900:1 6957:1 7005:1 7017:1 7132:1 7233:1 7310:1 7506:1 7518:1 7590:1 7652:1 7696:1 7765:1 7788:1 7852:1 7933:1 7987:1 8025:1 8029:1 8151:1 8200:1 8206:1 8323:1 8418:1 8482:1 8483:1 8502:1 8534:1 8561:1 8655:1 8668:1 8686:1 8735:1 8743:1 8934:1 8985:1 9008:1 9009:1 9108:1 9267:1 9323:1 9488:1 9504:1 9566:1 9632:1 9669:1 9690:1 9821:1 9965:1 10170:1 10182:1 10203:1 10212:1 10246:1 10267:1 10327:1 10495:1 10499:1 10507:1 10549:1 10621:1 10662:1 10708:1 10742:1 #
0.0027257966356541889554887525548565 2:1 4:1 11:1 12:1 15:1 16:1 17:1 18:1 22:1 23:1 24:1 25:1 30:1 31:1 34:1 39:1 44:1 46:1 51:1 62:1 66:1 78:1 81:1 90:1 94:1 95:1 96:1 99:1 102:1 104:1 107:1 112:1 114:1 120:1 125:1 127:1 155:1 158:1 159:1 162:1 168:1 172:1 177:1 186:1 195:1 202:1 204:1 207:1 210:1 231:1 241:1 251:1 252:1 255:1 264:1 265:1 275:1 277:1 279:1 326:1 341:1 357:1 381:1 387:1 396:1 408:1 434:1 442:1 465:1 475:1 480:1 490:1 502:1 566:1 581:1 600:1 630:1 651:1 653:1 709:1 755:1 758:1 760:1 789:1 808:1 813:1 817:1 837:1 840:1 857:1 881:1 891:1 945:1 1005:1 1009:1 1042:1 1094:1 1099:1 1105:1 1185:1 1189:1 1204:1 1226:1 1374:1 1381:1 1432:1 1438:1 1441:1 1506:1 1525:1 1550:1 1587:1 1591:1 1626:1 1673:1 1796:1 1807:1 1999:1 2014:1 2078:1 2160:1 2183:1 2199:1 2257:1 2273:1 2280:1 2311:1 2394:1 2417:1 2585:1 2610:1 2616:1 2749:1 2771:1 2944:1 3100:1 3114:1 3126:1 3194:1 3234:1 3436:1 3554:1 3557:1 3584:1 3680:1 3744:1 4302:1 4341:1 4366:1 4587:1 4706:1 4740:1 5002:1 5096:1 5475:1 5617:1 5625:1 5663:1 6054:1 6315:1 6416:1 6594:1 6923:1 7237:1 7684:1 7842:1 7932:1 8659:1 8694:1 9174:1 9760:1 10310:1 10455:1 10545:1 #
0.0040719492494129538862068784510484 1:1 2:1 5:1 6:1 7:1 9:1 11:1 12:1 14:1 15:1 16:1 17:1 18:1 19:1 20:1 22:1 23:1 24:1 25:1 27:1 29:1 30:1 31:1 32:1 34:1 37:1 39:1 42:1 45:1 48:1 49:1 51:1 52:1 54:1 61:1 62:1 63:1 65:1 66:1 67:1 68:1 76:1 77:1 79:1 81:1 82:1 84:1 86:1 90:1 91:1 93:1 94:1 95:1 96:1 97:1 98:1 99:1 102:1 103:1 104:1 106:1 113:1 114:1 123:1 126:1 129:1 130:1 133:1 134:1 148:1 156:1 158:1 159:1 160:1 164:1 168:1 170:1 174:1 175:1 185:1 186:1 189:1 199:1 202:1 206:1 208:1 213:1 214:1 218:1 221:1 222:1 227:1 231:1 238:1 240:1 243:1 251:1 252:1 277:1 278:1 279:1 286:1 293:1 295:1 299:1 303:1 304:1 305:1 319:1 329:1 333:1 335:1 340:1 341:1 350:1 364:1 366:1 374:1 375:1 381:1 383:1 385:1 387:1 389:1 399:1 404:1 406:1 411:1 425:1 429:1 430:1 432:1 434:1 440:1 444:1 446:1 451:1 457:1 460:1 475:1 478:1 480:1 491:1 495:1 500:1 515:1 529:1 533:1 554:1 558:1 569:1 581:1 630:1 640:1 645:1 647:1 649:1 660:1 694:1 709:1 714:1 715:1 753:1 758:1 761:1 767:1 808:1 814:1 815:1 820:1 827:1 850:1 857:1 863:1 932:1 935:1 937:1 947:1 962:1 964:1 1008:1 1009:1 1015:1 1042:1 1056:1 1087:1 1091:1 1092:1 1102:1 1105:1 1173:1 1191:1 1228:1 1305:1 1371:1 1402:1 1424:1 1432:1 1448:1 1453:1 1458:1 1471:1 1481:1 1483:1 1485:1 1510:1 1522:1 1534:1 1546:1 1549:1 1570:1 1574:1 1579:1 1587:1 1697:1 1711:1 1792:1 1827:1 1832:1 1976:1 1977:1 1985:1 1986:1 1993:1 2053:1 2073:1 2103:1 2157:1 2160:1 2168:1 2169:1 2193:1 2291:1 2300:1 2344:1 2360:1 2373:1 2378:1 2390:1 2439:1 2503:1 2569:1 2571:1 2606:1 2713:1 2714:1 2908:1 2934:1 2936:1 3028:1 3040:1 3052:1 3100:1 3102:1 3114:1 3182:1 3197:1 3221:1 3244:1 3254:1 3271:1 3295:1 3359:1 3370:1 3411:1 3416:1 3459:1 3470:1 3668:1 3680:1 3807:1 3827:1 3940:1 3955:1 3967:1 4131:1 4161:1 4210:1 4239:1 4366:1 4375:1 4406:1 4419:1 4445:1 4470:1 4477:1 4501:1 4679:1 5014:1 5399:1 5402:1 5994:1 6021:1 6415:1 7200:1 7274:1 7355:1 7487:1 7574:1 7666:1 8010:1 8162:1 8191:1 8571:1 8598:1 8659:1 8878:1 9184:1 9975:1 10199:1 10699:1 10707:1 #
0.0034713626833616012187788690823709 1:1 4:1 5:1 7:1 8:1 9:1 11:1 12:1 15:1 17:1 18:1 20:1 22:1 23:1 24:1 25:1 26:1 30:1 31:1 32:1 36:1 38:1 40:1 41:1 42:1 43:1 45:1 50:1 51:1 52:1 53:1 59:1 62:1 65:1 66:1 72:1 73:1 74:1 77:1 80:1 81:1 83:1 84:1 91:1 94:1 95:1 96:1 98:1 99:1 102:1 103:1 104:1 107:1 109:1 111:1 112:1 113:1 114:1 118:1 119:1 120:1 123:1 124:1 125:1 129:1 130:1 134:1 138:1 149:1 154:1 156:1 159:1 161:1 170:1 171:1 172:1 177:1 180:1 181:1 183:1 190:1 194:1 195:1 197:1 200:1 207:1 210:1 213:1 215:1 216:1 220:1 221:1 222:1 232:1 235:1 236:1 240:1 241:1 242:1 243:1 249:1 260:1 261:1 264:1 270:1 275:1 276:1 277:1 279:1 286:1 295:1 304:1 308:1 314:1 353:1 354:1 356:1 357:1 362:1 365:1 369:1 384:1 385:1 390:1 391:1 401:1 413:1 414:1 423:1 434:1 436:1 438:1 442:1 444:1 446:1 451:1 462:1 469:1 472:1 478:1 480:1 502:1 504:1 520:1 531:1 541:1 543:1 553:1 561:1 566:1 628:1 630:1 652:1 653:1 656:1 671:1 672:1 674:1 676:1 701:1 709:1 725:1 728:1 742:1 752:1 755:1 758:1 761:1 767:1 792:1 795:1 796:1 808:1 816:1 829:1 845:1 867:1 873:1 885:1 891:1 898:1 899:1 922:1 932:1 936:1 987:1 996:1 1005:1 1058:1 1067:1 1083:1 1092:1 1147:1 1150:1 1185:1 1230:1 1279:1 1283:1 1370:1 1371:1 1372:1 1396:1 1411:1 1428:1 1441:1 1459:1 1462:1 1483:1 1501:1 1507:1 1508:1 1534:1 1568:1 1572:1 1586:1 1591:1 1626:1 1649:1 1704:1 1720:1 1840:1 1842:1 1845:1 1864:1 1999:1 2053:1 2064:1 2079:1 2104:1 2192:1 2203:1 2237:1 2372:1 2382:1 2478:1 2574:1 2730:1 2771:1 2774:1 2824:1 2849:1 2901:1 2964:1 2980:1 3005:1 3100:1 3123:1 3128:1 3205:1 3235:1 3394:1 3469:1 3731:1 3913:1 4089:1 4232:1 4318:1 4332:1 4338:1 4431:1 4470:1 4624:1 4779:1 4852:1 4908:1 5076:1 5270:1 5387:1 5484:1 5488:1 5809:1 5883:1 5921:1 6071:1 6448:1 6646:1 6808:1 6853:1 7237:1 7555:1 7610:1 7823:1 7991:1 8308:1 8319:1 9234:1 9297:1 9831:1 10488:1 10677:1 #
0.0019528663411692212797249323941173 4:1 11:1 12:1 14:1 15:1 16:1 17:1 18:1 19:1 20:1 21:1 22:1 25:1 27:1 29:1 30:1 31:1 32:1 36:1 40:1 44:1 45:1 47:1 50:1 52:1 60:1 61:1 62:1 67:1 71:1 73:1 77:1 79:1 80:1 84:1 86:1 89:1 91:1 93:1 94:1 98:1 99:1 102:1 103:1 114:1 117:1 120:1 127:1 130:1 135:1 138:1 147:1 158:1 163:1 167:1 170:1 175:1 178:1 182:1 185:1 187:1 195:1 198:1 202:1 210:1 214:1 218:1 232:1 243:1 244:1 277:1 285:1 286:1 308:1 312:1 323:1 325:1 328:1 329:1 330:1 333:1 341:1 343:1 351:1 353:1 365:1 374:1 380:1 387:1 401:1 406:1 408:1 425:1 428:1 434:1 440:1 451:1 464:1 465:1 468:1 480:1 482:1 490:1 491:1 497:1 502:1 522:1 529:1 566:1 569:1 610:1 614:1 622:1 629:1 635:1 642:1 644:1 649:1 653:1 661:1 669:1 716:1 749:1 750:1 758:1 762:1 763:1 795:1 802:1 809:1 828:1 829:1 843:1 872:1 878:1 905:1 912:1 934:1 962:1 994:1 1006:1 1008:1 1049:1 1071:1 1117:1 1148:1 1150:1 1155:1 1188:1 1200:1 1205:1 1277:1 1376:1 1388:1 1408:1 1427:1 1438:1 1439:1 1444:1 1476:1 1565:1 1570:1 1574:1 1591:1 1666:1 1695:1 1755:1 1819:1 1827:1 1859:1 1888:1 1894:1 1986:1 2000:1 2075:1 2078:1 2109:1 2150:1 2184:1 2193:1 2198:1 2236:1 2298:1 2309:1 2314:1 2416:1 2455:1 2470:1 2665:1 2734:1 2754:1 2785:1 2793:1 2797:1 2819:1 2957:1 2995:1 3001:1 3015:1 3068:1 3116:1 3209:1 3294:1 3338:1 3346:1 3365:1 3495:1 3575:1 3691:1 3803:1 3947:1 4024:1 4029:1 4065:1 4144:1 4191:1 4252:1 4276:1 4394:1 4427:1 4500:1 4530:1 4796:1 4838:1 4978:1 4998:1 5002:1 5279:1 5293:1 5369:1 5400:1 5414:1 5600:1 5770:1 5838:1 6166:1 6593:1 6609:1 6948:1 7100:1 7171:1 7228:1 7516:1 7583:1 7735:1 7838:1 7839:1 7919:1 8179:1 8265:1 8351:1 8383:1 8482:1 9204:1 9411:1 10130:1 10151:1 10320:1 #
-0.0044975777317762932056011138115537 1:1 5:1 6:1 7:1 10:1 11:1 12:1 13:1 15:1 17:1 18:1 19:1 20:1 21:1 22:1 23:1 24:1 25:1 26:1 27:1 28:1 30:1 31:1 32:1 34:1 36:1 37:1 38:1 39:1 42:1 43:1 45:1 46:1 51:1 52:1 53:1 56:1 57:1 58:1 59:1 62:1 64:1 66:1 67:1 69:1 73:1 75:1 78:1 81:1 82:1 84:1 89:1 91:1 94:1 96:1 98:1 99:1 100:1 102:1 103:1 104:1 106:1 107:1 114:1 122:1 125:1 126:1 131:1 139:1 142:1 147:1 148:1 152:1 158:1 159:1 161:1 163:1 170:1 172:1 173:1 174:1 177:1 181:1 184:1 186:1 190:1 197:1 198:1 202:1 204:1 205:1 207:1 210:1 221:1 228:1 230:1 231:1 232:1 233:1 235:1 236:1 238:1 241:1 242:1 249:1 255:1 257:1 264:1 275:1 277:1 278:1 281:1 282:1 285:1 286:1 293:1 295:1 299:1 301:1 304:1 307:1 329:1 332:1 341:1 346:1 350:1 364:1 367:1 368:1 377:1 382:1 384:1 390:1 397:1 404:1 416:1 428:1 432:1 438:1 444:1 445:1 450:1 452:1 483:1 486:1 490:1 499:1 512:1 541:1 544:1 581:1 598:1 604:1 618:1 628:1 630:1 639:1 643:1 644:1 650:1 651:1 660:1 687:1 695:1 709:1 725:1 727:1 749:1 750:1 767:1 768:1 775:1 783:1 789:1 800:1 835:1 850:1 863:1 882:1 891:1 895:1 902:1 908:1 918:1 927:1 945:1 946:1 949:1 956:1 997:1 1005:1 1021:1 1048:1 1056:1 1074:1 1077:1 1090:1 1091:1 1092:1 1103:1 1123:1 1152:1 1157:1 1161:1 1173:1 1182:1 1185:1 1198:1 1200:1 1228:1 1279:1 1283:1 1284:1 1385:1 1397:1 1403:1 1416:1 1425:1 1438:1 1439:1 1441:1 1444:1 1450:1 1471:1 1475:1 1483:1 1487:1 1502:1 1510:1 1534:1 1536:1 1556:1 1583:1 1588:1 1591:1 1626:1 1660:1 1666:1 1678:1 1679:1 1720:1 1726:1 1750:1 1785:1 1790:1 1792:1 1840:1 1842:1 1894:1 1949:1 1960:1 1975:1 1977:1 1985:1 1995:1 2038:1 2134:1 2190:1 2191:1 2194:1 2257:1 2344:1 2363:1 2396:1 2417:1 2440:1 2455:1 2488:1 2599:1 2709:1 2744:1 2776:1 2793:1 2813:1 2908:1 2936:1 2943:1 2944:1 2956:1 3015:1 3022:1 3038:1 3040:1 3060:1 3071:1 3100:1 3446:1 3489:1 3625:1 3632:1 3668:1 3680:1 3706:1 3746:1 3897:1 3955:1 4020:1 4029:1 4034:1 4043:1 4059:1 4104:1 4138:1 4202:1 4238:1 4271:1 4294:1 4305:1 4341:1 4356:1 4409:1 4489:1 4561:1 4584:1 4658:1 4694:1 4747:1 4754:1 4873:1 4891:1 4969:1 5070:1 5267:1 5399:1 5418:1 5500:1 5511:1 5593:1 5637:1 5748:1 6068:1 6083:1 6163:1 6167:1 6301:1 6321:1 6358:1 6419:1 6430:1 6556:1 6675:1 6808:1 6900:1 6913:1 6933:1 7021:1 7097:1 7768:1 7865:1 8119:1 8162:1 8195:1 8222:1 8234:1 8338:1 8362:1 8370:1 8408:1 8454:1 8464:1 8501:1 8658:1 8748:1 8768:1 9037:1 9067:1 9084:1 9107:1 9133:1 9231:1 9261:1 9339:1 9471:1 9602:1 9630:1 9712:1 9727:1 9821:1 9824:1 9858:1 9954:1 10052:1 10099:1 10375:1 10598:1 10641:1 #
0.0044975777317762932056011138115537 1:1 3:1 6:1 8:1 11:1 12:1 14:1 15:1 16:1 18:1 20:1 22:1 24:1 25:1 29:1 30:1 32:1 34:1 36:1 37:1 39:1 41:1 45:1 48:1 50:1 54:1 55:1 56:1 57:1 60:1 62:1 63:1 65:1 69:1 71:1 72:1 73:1 75:1 79:1 80:1 82:1 103:1 104:1 117:1 122:1 125:1 139:1 140:1 142:1 143:1 149:1 150:1 159:1 174:1 181:1 184:1 187:1 189:1 204:1 205:1 212:1 213:1 217:1 222:1 225:1 232:1 233:1 235:1 245:1 246:1 252:1 263:1 265:1 280:1 291:1 303:1 309:1 312:1 349:1 350:1 357:1 367:1 382:1 387:1 390:1 392:1 397:1 402:1 419:1 432:1 436:1 481:1 482:1 500:1 508:1 553:1 594:1 624:1 629:1 645:1 657:1 658:1 724:1 743:1 775:1 800:1 821:1 830:1 833:1 834:1 856:1 875:1 879:1 902:1 905:1 932:1 981:1 989:1 1028:1 1037:1 1061:1 1066:1 1075:1 1135:1 1150:1 1169:1 1173:1 1378:1 1383:1 1438:1 1445:1 1479:1 1502:1 1516:1 1534:1 1536:1 1568:1 1666:1 1717:1 1826:1 1858:1 1896:1 2003:1 2012:1 2193:1 2793:1 2809:1 2918:1 3015:1 3070:1 3082:1 3114:1 3557:1 3780:1 3797:1 3831:1 3865:1 4102:1 4327:1 4440:1 4704:1 4743:1 5020:1 5126:1 5293:1 6108:1 6251:1 6807:1 6892:1 6893:1 6902:1 7001:1 7413:1 8118:1 8178:1 8190:1 8298:1 8635:1 9227:1 9504:1 10052:1 10341:1 #
-0.0044975777317762932056011138115537 1:1 4:1 5:1 11:1 12:1 13:1 15:1 16:1 17:1 18:1 19:1 20:1 22:1 23:1 24:1 25:1 26:1 27:1 29:1 30:1 31:1 32:1 34:1 36:1 38:1 39:1 41:1 43:1 44:1 46:1 51:1 52:1 54:1 59:1 62:1 63:1 65:1 66:1 67:1 68:1 72:1 73:1 83:1 84:1 89:1 90:1 91:1 94:1 101:1 103:1 104:1 106:1 114:1 122:1 126:1 130:1 132:1 139:1 153:1 154:1 163:1 170:1 171:1 180:1 181:1 186:1 188:1 190:1 194:1 195:1 196:1 200:1 202:1 214:1 227:1 231:1 235:1 238:1 240:1 246:1 251:1 253:1 275:1 277:1 278:1 279:1 289:1 291:1 295:1 297:1 357:1 370:1 391:1 399:1 400:1 417:1 430:1 432:1 434:1 436:1 440:1 450:1 452:1 472:1 475:1 486:1 510:1 543:1 551:1 566:1 581:1 606:1 608:1 628:1 637:1 643:1 645:1 646:1 674:1 703:1 709:1 716:1 748:1 755:1 758:1 760:1 762:1 777:1 815:1 817:1 819:1 830:1 834:1 872:1 875:1 884:1 885:1 891:1 902:1 922:1 932:1 946:1 952:1 985:1 1005:1 1007:1 1009:1 1021:1 1032:1 1042:1 1055:1 1058:1 1071:1 1099:1 1105:1 1111:1 1118:1 1170:1 1185:1 1189:1 1196:1 1204:1 1223:1 1228:1 1230:1 1232:1 1310:1 1365:1 1374:1 1381:1 1397:1 1408:1 1417:1 1425:1 1471:1 1484:1 1564:1 1587:1 1591:1 1595:1 1650:1 1796:1 1929:1 1936:1 1961:1 1962:1 1999:1 2028:1 2051:1 2061:1 2091:1 2183:1 2280:1 2311:1 2460:1 2503:1 2548:1 2622:1 2631:1 2674:1 2722:1 2749:1 2771:1 2959:1 2968:1 3004:1 3030:1 3043:1 3068:1 3078:1 3100:1 3154:1 3274:1 3389:1 3390:1 3461:1 3471:1 3553:1 3574:1 3680:1 3744:1 3745:1 3808:1 3875:1 3932:1 3936:1 3940:1 4055:1 4102:1 4125:1 4138:1 4161:1 4210:1 4236:1 4265:1 4312:1 4313:1 4399:1 4575:1 4587:1 4735:1 4747:1 4770:1 4790:1 4862:1 4948:1 5002:1 5010:1 5069:1 5104:1 5114:1 5189:1 5215:1 5262:1 5402:1 5423:1 5571:1 5612:1 5663:1 5737:1 5833:1 5911:1 6014:1 6315:1 6329:1 6344:1 6361:1 6400:1 6413:1 6473:1 6564:1 6593:1 6629:1 6658:1 6779:1 6849:1 6892:1 6968:1 7195:1 7228:1 7506:1 7508:1 7788:1 7842:1 7860:1 7931:1 8170:1 8218:1 8307:1 8647:1 8707:1 8942:1 8955:1 9457:1 9552:1 9812:1 9881:1 10099:1 10206:1 10457:1 10586:1 10677:1 #
0.0044975777317762932056011138115537 2:1 4:1 6:1 7:1 11:1 12:1 14:1 15:1 16:1 18:1 19:1 20:1 21:1 24:1 25:1 26:1 29:1 30:1 31:1 32:1 36:1 47:1 49:1 51:1 58:1 67:1 68:1 70:1 75:1 80:1 82:1 84:1 91:1 97:1 98:1 101:1 102:1 130:1 133:1 135:1 138:1 158:1 168:1 172:1 185:1 187:1 201:1 216:1 227:1 233:1 240:1 244:1 259:1 269:1 272:1 301:1 333:1 351:1 357:1 395:1 408:1 417:1 434:1 462:1 464:1 510:1 526:1 534:1 575:1 599:1 607:1 637:1 649:1 651:1 688:1 692:1 745:1 758:1 766:1 815:1 817:1 860:1 885:1 906:1 909:1 916:1 988:1 1023:1 1079:1 1093:1 1109:1 1302:1 1374:1 1380:1 1472:1 1608:1 1666:1 1671:1 1679:1 1680:1 1711:1 1827:1 2106:1 2243:1 2302:1 2375:1 2406:1 2598:1 2600:1 2692:1 2793:1 2825:1 2962:1 3015:1 3032:1 3192:1 3313:1 3333:1 3399:1 3463:1 3738:1 3782:1 3842:1 3936:1 3958:1 3999:1 4019:1 4263:1 4266:1 4482:1 4498:1 4692:1 4771:1 4794:1 4808:1 4814:1 5001:1 5015:1 5188:1 5299:1 5597:1 5910:1 5917:1 5921:1 5947:1 6450:1 6618:1 7213:1 7271:1 7438:1 7475:1 7790:1 7837:1 7860:1 7890:1 7937:1 8316:1 8532:1 8714:1 8775:1 9032:1 9129:1 9404:1 9582:1 10260:1 10377:1 #
-0.0044975777317762932056011138115537 1:1 2:1 4:1 5:1 6:1 7:1 8:1 10:1 11:1 12:1 15:1 16:1 17:1 18:1 20:1 22:1 23:1 24:1 25:1 26:1 27:1 30:1 36:1 38:1 45:1 46:1 51:1 52:1 53:1 54:1 59:1 62:1 63:1 65:1 66:1 67:1 69:1 72:1 77:1 79:1 82:1 87:1 89:1 90:1 91:1 96:1 98:1 99:1 102:1 106:1 107:1 114:1 115:1 118:1 120:1 122:1 131:1 134:1 147:1 155:1 157:1 167:1 169:1 170:1 174:1 187:1 195:1 197:1 200:1 207:1 209:1 212:1 213:1 215:1 216:1 227:1 233:1 234:1 235:1 242:1 244:1 264:1 265:1 273:1 276:1 278:1 293:1 297:1 315:1 342:1 356:1 391:1 407:1 410:1 436:1 442:1 456:1 469:1 470:1 475:1 490:1 493:1 496:1 608:1 611:1 644:1 645:1 646:1 647:1 676:1 716:1 773:1 780:1 795:1 801:1 802:1 807:1 818:1 830:1 839:1 849:1 851:1 874:1 902:1 905:1 922:1 947:1 964:1 1009:1 1024:1 1118:1 1150:1 1164:1 1170:1 1200:1 1230:1 1231:1 1280:1 1310:1 1397:1 1398:1 1420:1 1432:1 1439:1 1518:1 1568:1 1634:1 1639:1 1666:1 1673:1 1808:1 1819:1 1827:1 1836:1 1842:1 1888:1 1910:1 1977:1 1995:1 1999:1 2101:1 2150:1 2159:1 2177:1 2192:1 2194:1 2214:1 2221:1 2274:1 2300:1 2339:1 2566:1 2574:1 2625:1 2793:1 3004:1 3015:1 3029:1 3290:1 3313:1 3315:1 3402:1 3421:1 3424:1 3493:1 3780:1 3921:1 3981:1 4017:1 4115:1 4183:1 4225:1 4300:1 4312:1 4344:1 4421:1 4441:1 4568:1 4745:1 4795:1 5002:1 5036:1 5072:1 5099:1 5131:1 5236:1 5283:1 5350:1 5398:1 5443:1 5580:1 5601:1 5711:1 5802:1 5818:1 5881:1 5967:1 5990:1 6084:1 6177:1 6205:1 6242:1 6295:1 6383:1 6515:1 6831:1 6855:1 7077:1 7211:1 7298:1 7338:1 7380:1 7466:1 7490:1 7496:1 7506:1 7512:1 7554:1 7704:1 7710:1 7711:1 7769:1 7778:1 7812:1 7825:1 7984:1 8077:1 8323:1 8437:1 8487:1 8937:1 9045:1 9321:1 9650:1 9856:1 9939:1 10027:1 10209:1 10298:1 10577:1 10597:1 10671:1 #
-0.0018457802974675180558705722688728 4:1 5:1 7:1 10:1 11:1 12:1 14:1 15:1 16:1 17:1 18:1 20:1 21:1 22:1 24:1 25:1 26:1 27:1 29:1 30:1 31:1 32:1 35:1 36:1 43:1 46:1 47:1 50:1 58:1 62:1 67:1 75:1 81:1 84:1 89:1 90:1 95:1 98:1 99:1 102:1 104:1 106:1 113:1 114:1 120:1 123:1 129:1 130:1 135:1 141:1 147:1 149:1 151:1 158:1 159:1 161:1 162:1 163:1 165:1 166:1 170:1 177:1 200:1 203:1 211:1 218:1 221:1 232:1 243:1 244:1 245:1 257:1 258:1 259:1 261:1 264:1 268:1 273:1 279:1 315:1 321:1 322:1 330:1 339:1 351:1 364:1 378:1 380:1 381:1 393:1 395:1 404:1 423:1 429:1 442:1 448:1 451:1 467:1 468:1 475:1 477:1 502:1 553:1 615:1 617:1 622:1 634:1 642:1 653:1 665:1 669:1 671:1 675:1 688:1 717:1 719:1 740:1 751:1 755:1 762:1 779:1 802:1 815:1 831:1 840:1 843:1 845:1 856:1 887:1 888:1 940:1 946:1 947:1 950:1 953:1 964:1 976:1 984:1 997:1 1012:1 1019:1 1030:1 1084:1 1093:1 1105:1 1117:1 1140:1 1206:1 1226:1 1235:1 1258:1 1284:1 1308:1 1363:1 1408:1 1431:1 1439:1 1444:1 1457:1 1523:1 1524:1 1535:1 1548:1 1553:1 1558:1 1565:1 1570:1 1593:1 1708:1 1755:1 1827:1 1881:1 1933:1 1951:1 1960:1 1963:1 1976:1 1977:1 1985:1 2107:1 2111:1 2163:1 2196:1 2199:1 2213:1 2332:1 2368:1 2369:1 2375:1 2435:1 2439:1 2455:1 2482:1 2558:1 2625:1 2674:1 2714:1 2716:1 2797:1 2894:1 3040:1 3073:1 3078:1 3087:1 3295:1 3324:1 3592:1 3698:1 3868:1 3936:1 3958:1 4007:1 4065:1 4234:1 4361:1 4362:1 4459:1 4493:1 4899:1 5021:1 5062:1 5073:1 5412:1 5542:1 5596:1 5627:1 5787:1 5845:1 5851:1 5865:1 5936:1 6192:1 6358:1 6702:1 6804:1 6847:1 6951:1 7163:1 7194:1 7228:1 7304:1 7380:1 7479:1 7547:1 7757:1 7795:1 7865:1 8141:1 8318:1 8838:1 8939:1 8983:1 9101:1 9306:1 9423:1 9795:1 9963:1 #
-0.0032985283292717684951178558350193 1:1 2:1 3:1 4:1 5:1 8:1 9:1 11:1 12:1 13:1 15:1 16:1 17:1 18:1 19:1 20:1 21:1 22:1 23:1 24:1 25:1 27:1 29:1 30:1 31:1 32:1 34:1 36:1 38:1 40:1 42:1 44:1 47:1 50:1 51:1 52:1 54:1 67:1 72:1 74:1 75:1 76:1 79:1 82:1 83:1 84:1 86:1 88:1 91:1 94:1 95:1 99:1 102:1 104:1 111:1 112:1 113:1 114:1 116:1 118:1 120:1 126:1 127:1 129:1 130:1 131:1 132:1 137:1 147:1 149:1 155:1 163:1 167:1 175:1 181:1 183:1 185:1 187:1 196:1 197:1 202:1 207:1 210:1 213:1 218:1 221:1 228:1 232:1 236:1 261:1 268:1 275:1 277:1 279:1 282:1 283:1 300:1 308:1 323:1 324:1 328:1 333:1 341:1 351:1 352:1 353:1 360:1 381:1 408:1 425:1 428:1 436:1 440:1 448:1 451:1 452:1 453:1 472:1 476:1 478:1 490:1 491:1 493:1 497:1 500:1 510:1 522:1 529:1 564:1 581:1 601:1 608:1 628:1 644:1 647:1 649:1 652:1 653:1 676:1 688:1 725:1 755:1 757:1 758:1 761:1 780:1 792:1 803:1 807:1 808:1 810:1 835:1 839:1 851:1 865:1 877:1 889:1 899:1 921:1 973:1 987:1 988:1 995:1 1008:1 1022:1 1057:1 1067:1 1092:1 1099:1 1129:1 1140:1 1144:1 1155:1 1188:1 1200:1 1210:1 1374:1 1411:1 1418:1 1427:1 1429:1 1438:1 1439:1 1455:1 1460:1 1481:1 1492:1 1503:1 1513:1 1591:1 1608:1 1646:1 1729:1 1750:1 1827:1 1842:1 1851:1 1890:1 1894:1 1914:1 1932:1 1986:1 2005:1 2045:1 2057:1 2150:1 2160:1 2193:1 2220:1 2280:1 2322:1 2349:1 2503:1 2588:1 2603:1 2664:1 2833:1 2859:1 2904:1 2982:1 3043:1 3055:1 3123:1 3129:1 3161:1 3576:1 3579:1 3607:1 3629:1 3649:1 3775:1 3832:1 3964:1 3983:1 4134:1 4210:1 4313:1 4359:1 4518:1 4577:1 4699:1 4703:1 4838:1 4870:1 5077:1 5252:1 5386:1 5420:1 5439:1 5452:1 5591:1 5610:1 5671:1 5796:1 6105:1 7055:1 7631:1 7703:1 7838:1 7842:1 7854:1 7895:1 8030:1 8326:1 8384:1 8436:1 8663:1 8766:1 8804:1 9147:1 9272:1 9319:1 10052:1 10175:1 #
-0.0044975777317762932056011138115537 1:1 3:1 4:1 5:1 6:1 7:1 9:1 12:1 13:1 14:1 16:1 18:1 20:1 21:1 22:1 25:1 28:1 29:1 30:1 32:1 34:1 36:1 42:1 43:1 52:1 53:1 59:1 62:1 67:1 71:1 74:1 75:1 76:1 77:1 83:1 84:1 85:1 86:1 94:1 95:1 99:1 101:1 102:1 104:1 109:1 112:1 114:1 129:1 130:1 131:1 132:1 137:1 138:1 146:1 149:1 152:1 154:1 155:1 156:1 157:1 170:1 184:1 186:1 196:1 202:1 213:1 216:1 223:1 224:1 228:1 231:1 232:1 236:1 257:1 265:1 266:1 269:1 275:1 277:1 293:1 300:1 304:1 308:1 314:1 315:1 325:1 328:1 333:1 335:1 347:1 353:1 356:1 365:1 369:1 378:1 381:1 383:1 393:1 409:1 425:1 434:1 435:1 438:1 450:1 451:1 452:1 463:1 475:1 477:1 478:1 497:1 502:1 541:1 600:1 608:1 652:1 671:1 688:1 694:1 702:1 709:1 728:1 749:1 767:1 785:1 803:1 808:1 809:1 816:1 829:1 862:1 947:1 957:1 974:1 987:1 999:1 1038:1 1067:1 1080:1 1091:1 1110:1 1111:1 1132:1 1137:1 1138:1 1144:1 1148:1 1155:1 1161:1 1210:1 1232:1 1279:1 1280:1 1283:1 1382:1 1416:1 1418:1 1438:1 1462:1 1513:1 1561:1 1567:1 1612:1 1670:1 1682:1 1698:1 1750:1 1827:1 1874:1 1897:1 1919:1 1927:1 1930:1 2005:1 2064:1 2078:1 2085:1 2114:1 2120:1 2204:1 2228:1 2277:1 2312:1 2348:1 2396:1 2397:1 2432:1 2436:1 2448:1 2538:1 2552:1 2584:1 2585:1 2775:1 2797:1 2824:1 2896:1 2956:1 3022:1 3167:1 3210:1 3256:1 3394:1 3457:1 3543:1 3624:1 3972:1 4039:1 4232:1 4312:1 4373:1 4746:1 4754:1 4845:1 4975:1 5010:1 5090:1 5110:1 5232:1 5416:1 5422:1 5490:1 5500:1 5607:1 5852:1 5950:1 5955:1 6001:1 6007:1 6094:1 6187:1 6257:1 6334:1 6408:1 6971:1 6983:1 7105:1 7122:1 8156:1 8314:1 8379:1 8389:1 8629:1 8908:1 8910:1 9444:1 9469:1 9491:1 9862:1 10246:1 #
-0.0036971592862139633292595242153311 1:1 2:1 4:1 6:1 8:1 9:1 11:1 12:1 15:1 17:1 18:1 19:1 20:1 22:1 23:1 24:1 25:1 26:1 27:1 29:1 30:1 31:1 32:1 36:1 38:1 41:1 47:1 51:1 53:1 59:1 61:1 62:1 66:1 72:1 73:1 75:1 79:1 89:1 94:1 96:1 98:1 102:1 107:1 113:1 116:1 117:1 126:1 131:1 132:1 133:1 137:1 155:1 159:1 162:1 170:1 177:1 182:1 185:1 187:1 190:1 195:1 199:1 200:1 209:1 213:1 215:1 217:1 235:1 238:1 242:1 244:1 252:1 266:1 288:1 290:1 312:1 324:1 345:1 354:1 356:1 357:1 392:1 395:1 400:1 406:1 407:1 409:1 410:1 432:1 435:1 436:1 443:1 445:1 450:1 460:1 462:1 469:1 475:1 485:1 500:1 510:1 533:1 550:1 553:1 581:1 608:1 612:1 628:1 630:1 645:1 646:1 661:1 663:1 696:1 741:1 753:1 771:1 774:1 792:1 800:1 809:1 811:1 814:1 817:1 818:1 851:1 855:1 862:1 865:1 873:1 878:1 889:1 893:1 905:1 918:1 921:1 922:1 932:1 943:1 947:1 997:1 1002:1 1009:1 1032:1 1118:1 1131:1 1137:1 1164:1 1234:1 1333:1 1371:1 1382:1 1385:1 1442:1 1445:1 1464:1 1465:1 1473:1 1483:1 1493:1 1514:1 1534:1 1551:1 1556:1 1568:1 1578:1 1650:1 1672:1 1719:1 1813:1 1829:1 1837:1 1842:1 1845:1 1956:1 1972:1 1999:1 2004:1 2107:1 2184:1 2192:1 2432:1 2462:1 2598:1 2745:1 2765:1 2859:1 2898:1 2922:1 2954:1 2956:1 2962:1 3025:1 3042:1 3072:1 3101:1 3211:1 3235:1 3237:1 3355:1 3385:1 3478:1 3559:1 3604:1 3814:1 3905:1 4009:1 4014:1 4015:1 4017:1 4048:1 4115:1 4172:1 4336:1 4418:1 4420:1 4560:1 4575:1 4598:1 4780:1 4913:1 4914:1 5011:1 5017:1 5072:1 5076:1 5184:1 5220:1 5294:1 5522:1 5601:1 5621:1 5654:1 5808:1 5865:1 6205:1 6211:1 6266:1 6319:1 6360:1 6361:1 6454:1 6461:1 6478:1 6510:1 6522:1 6577:1 6626:1 6727:1 6777:1 6939:1 7077:1 7227:1 7273:1 7509:1 7710:1 7805:1 8064:1 8208:1 8261:1 8288:1 8502:1 8772:1 8779:1 8837:1 8945:1 8959:1 9134:1 9229:1 9271:1 9371:1 9573:1 9681:1 9687:1 9696:1 9700:1 10027:1 10096:1 10141:1 10221:1 10222:1 10519:1 10544:1 10597:1 #
0.0044975777317762932056011138115537 1:1 6:1 9:1 10:1 11:1 12:1 13:1 15:1 16:1 17:1 18:1 19:1 20:1 21:1 22:1 24:1 25:1 29:1 30:1 31:1 32:1 36:1 39:1 41:1 45:1 48:1 51:1 56:1 59:1 62:1 66:1 67:1 68:1 69:1 73:1 79:1 87:1 89:1 90:1 91:1 94:1 96:1 98:1 101:1 102:1 103:1 104:1 114:1 116:1 117:1 124:1 130:1 132:1 161:1 163:1 164:1 169:1 170:1 172:1 174:1 186:1 195:1 198:1 199:1 204:1 214:1 215:1 220:1 226:1 229:1 231:1 236:1 245:1 251:1 252:1 260:1 265:1 270:1 276:1 278:1 279:1 289:1 294:1 301:1 305:1 307:1 309:1 312:1 337:1 340:1 350:1 355:1 357:1 387:1 389:1 391:1 399:1 402:1 425:1 434:1 450:1 452:1 472:1 502:1 526:1 529:1 581:1 601:1 606:1 637:1 641:1 645:1 758:1 760:1 772:1 789:1 806:1 819:1 830:1 869:1 872:1 889:1 935:1 954:1 982:1 1005:1 1009:1 1027:1 1067:1 1089:1 1135:1 1226:1 1374:1 1407:1 1441:1 1487:1 1534:1 1580:1 1587:1 1620:1 1626:1 1646:1 1705:1 1903:1 2049:1 2091:1 2199:1 2244:1 2253:1 2295:1 2599:1 2631:1 2675:1 2957:1 3004:1 3043:1 3100:1 3126:1 3400:1 3422:1 3607:1 3773:1 3819:1 3888:1 3922:1 3926:1 3934:1 4233:1 4234:1 4271:1 4399:1 4503:1 4734:1 4790:1 4793:1 4907:1 4964:1 5001:1 5557:1 5560:1 6329:1 6374:1 6900:1 7195:1 7320:1 7537:1 7826:1 7873:1 7910:1 8170:1 8870:1 9161:1 9470:1 9763:1 9980:1 10078:1 10196:1 10469:1 10678:1 #
0.0027246704498628993192099745357382 1:1 5:1 8:1 11:1 12:1 15:1 17:1 18:1 21:1 22:1 24:1 25:1 27:1 29:1 30:1 31:1 32:1 34:1 36:1 51:1 52:1 53:1 62:1 66:1 67:1 72:1 73:1 82:1 84:1 86:1 89:1 90:1 94:1 95:1 98:1 102:1 103:1 104:1 106:1 112:1 113:1 114:1 120:1 138:1 146:1 156:1 158:1 161:1 170:1 172:1 174:1 179:1 195:1 202:1 213:1 215:1 221:1 227:1 231:1 232:1 235:1 238:1 241:1 244:1 245:1 246:1 270:1 276:1 277:1 278:1 279:1 295:1 318:1 341:1 347:1 350:1 364:1 374:1 385:1 387:1 403:1 410:1 450:1 452:1 453:1 475:1 481:1 503:1 527:1 533:1 544:1 564:1 566:1 569:1 598:1 601:1 615:1 641:1 642:1 653:1 702:1 717:1 724:1 725:1 755:1 758:1 762:1 767:1 768:1 771:1 817:1 831:1 849:1 866:1 868:1 872:1 882:1 894:1 943:1 945:1 985:1 994:1 998:1 1005:1 1009:1 1021:1 1096:1 1105:1 1138:1 1155:1 1160:1 1161:1 1185:1 1232:1 1268:1 1284:1 1371:1 1385:1 1386:1 1422:1 1432:1 1439:1 1441:1 1473:1 1490:1 1496:1 1508:1 1514:1 1534:1 1549:1 1565:1 1568:1 1576:1 1591:1 1626:1 1649:1 1698:1 1784:1 1845:1 1987:1 2004:1 2027:1 2120:1 2138:1 2183:1 2213:1 2232:1 2300:1 2304:1 2344:1 2369:1 2372:1 2373:1 2417:1 2436:1 2439:1 2455:1 2462:1 2488:1 2548:1 2599:1 2616:1 2665:1 2674:1 2682:1 2753:1 2754:1 2771:1 3004:1 3040:1 3050:1 3097:1 3100:1 3172:1 3204:1 3245:1 3331:1 3350:1 3400:1 3410:1 3584:1 3680:1 3795:1 3801:1 3872:1 3883:1 3994:1 4016:1 4029:1 4043:1 4044:1 4134:1 4200:1 4280:1 4288:1 4291:1 4338:1 4406:1 4530:1 4564:1 4605:1 4694:1 4740:1 4921:1 4929:1 4932:1 4961:1 4977:1 5009:1 5215:1 5428:1 5433:1 5553:1 5571:1 5588:1 5632:1 5663:1 5692:1 5720:1 5887:1 6006:1 6083:1 6087:1 6134:1 6163:1 6184:1 6195:1 6378:1 6402:1 6493:1 6585:1 6588:1 6702:1 6935:1 6980:1 7062:1 7076:1 7198:1 7224:1 7228:1 7286:1 7521:1 7769:1 7833:1 7920:1 7994:1 8200:1 8632:1 8634:1 8758:1 9178:1 9224:1 9281:1 9284:1 9442:1 9679:1 9703:1 9754:1 9807:1 9882:1 10030:1 10237:1 10266:1 10320:1 10379:1 10412:1 10497:1 #
0.0044975777317762932056011138115537 1:1 6:1 11:1 14:1 15:1 16:1 17:1 18:1 19:1 20:1 24:1 25:1 27:1 30:1 31:1 34:1 36:1 44:1 51:1 52:1 62:1 65:1 66:1 67:1 68:1 69:1 73:1 74:1 81:1 84:1 86:1 90:1 94:1 98:1 102:1 103:1 104:1 113:1 114:1 115:1 120:1 125:1 146:1 147:1 148:1 149:1 153:1 163:1 168:1 172:1 174:1 177:1 186:1 195:1 202:1 223:1 232:1 241:1 249:1 251:1 268:1 277:1 278:1 279:1 280:1 285:1 293:1 295:1 333:1 381:1 382:1 387:1 396:1 406:1 417:1 420:1 425:1 432:1 434:1 440:1 452:1 472:1 480:1 502:1 515:1 533:1 553:1 566:1 630:1 641:1 651:1 653:1 670:1 673:1 702:1 709:1 725:1 750:1 755:1 760:1 767:1 771:1 783:1 789:1 815:1 882:1 891:1 894:1 910:1 945:1 1005:1 1021:1 1056:1 1131:1 1142:1 1161:1 1179:1 1195:1 1226:1 1232:1 1284:1 1397:1 1438:1 1439:1 1441:1 1476:1 1525:1 1532:1 1534:1 1568:1 1587:1 1626:1 1646:1 1698:1 1888:1 1897:1 2069:1 2120:1 2160:1 2199:1 2208:1 2360:1 2372:1 2440:1 2599:1 2702:1 2771:1 2850:1 3097:1 3122:1 3129:1 3172:1 3368:1 3412:1 3436:1 3457:1 3614:1 3668:1 3680:1 3714:1 3871:1 4029:1 4158:1 4224:1 4280:1 4293:1 4305:1 4313:1 4448:1 4472:1 4636:1 4694:1 5002:1 5009:1 5168:1 5221:1 5260:1 5267:1 5410:1 5571:1 5737:1 5887:1 6006:1 6054:1 6220:1 6301:1 6508:1 6612:1 6625:1 6693:1 7504:1 7882:1 7952:1 8225:1 9174:1 9178:1 9200:1 9426:1 9537:1 9675:1 9703:1 9877:1 10170:1 10243:1 10699:1 #
4.4571933124220684677759679592768e-05 1:1 4:1 5:1 6:1 9:1 10:1 11:1 15:1 16:1 17:1 18:1 19:1 22:1 25:1 26:1 29:1 30:1 31:1 32:1 33:1 34:1 35:1 39:1 41:1 43:1 44:1 45:1 49:1 50:1 51:1 52:1 54:1 57:1 58:1 62:1 63:1 66:1 68:1 69:1 70:1 79:1 80:1 81:1 87:1 90:1 97:1 98:1 103:1 117:1 121:1 131:1 158:1 160:1 165:1 168:1 172:1 175:1 187:1 192:1 195:1 204:1 205:1 212:1 217:1 225:1 230:1 232:1 233:1 235:1 236:1 238:1 245:1 249:1 251:1 252:1 254:1 266:1 268:1 270:1 280:1 285:1 287:1 301:1 307:1 308:1 312:1 331:1 333:1 350:1 357:1 375:1 382:1 386:1 387:1 406:1 408:1 427:1 434:1 440:1 448:1 453:1 457:1 471:1 480:1 482:1 483:1 502:1 503:1 581:1 602:1 628:1 630:1 640:1 645:1 651:1 657:1 662:1 689:1 700:1 717:1 728:1 746:1 758:1 765:1 767:1 769:1 812:1 813:1 815:1 817:1 867:1 889:1 891:1 894:1 899:1 905:1 912:1 922:1 930:1 975:1 1005:1 1056:1 1100:1 1102:1 1117:1 1138:1 1144:1 1180:1 1182:1 1274:1 1383:1 1385:1 1412:1 1444:1 1453:1 1520:1 1534:1 1568:1 1621:1 1637:1 1650:1 1666:1 1819:1 1832:1 1846:1 1915:1 2011:1 2036:1 2055:1 2083:1 2104:1 2255:1 2378:1 2702:1 2714:1 2737:1 2755:1 2793:1 2821:1 2875:1 2959:1 3015:1 3038:1 3060:1 3098:1 3271:1 3272:1 3282:1 3489:1 3501:1 3553:1 3736:1 3802:1 3827:1 3946:1 4029:1 4079:1 4125:1 4228:1 4238:1 4239:1 4251:1 4253:1 4265:1 4266:1 4313:1 4424:1 4542:1 4922:1 4971:1 4992:1 5032:1 5050:1 5066:1 5260:1 5300:1 5441:1 5511:1 5547:1 5588:1 5776:1 5825:1 5847:1 5942:1 5998:1 6543:1 6892:1 6914:1 7135:1 7355:1 7435:1 7546:1 7758:1 8020:1 8761:1 8832:1 8973:1 9125:1 9241:1 9276:1 9478:1 9689:1 9700:1 10215:1 10230:1 10588:1 10634:1 10712:1 #
0.0044975777317762932056011138115537 1:1 2:1 4:1 7:1 11:1 12:1 15:1 17:1 18:1 20:1 21:1 22:1 23:1 24:1 25:1 26:1 28:1 29:1 30:1 31:1 32:1 34:1 35:1 36:1 38:1 42:1 44:1 45:1 49:1 51:1 52:1 56:1 62:1 63:1 65:1 66:1 67:1 73:1 82:1 86:1 89:1 90:1 94:1 96:1 97:1 98:1 102:1 103:1 104:1 105:1 106:1 114:1 117:1 118:1 131:1 137:1 147:1 152:1 158:1 159:1 168:1 170:1 172:1 174:1 179:1 181:1 202:1 208:1 219:1 227:1 231:1 232:1 233:1 235:1 243:1 251:1 264:1 265:1 270:1 281:1 285:1 293:1 312:1 332:1 346:1 350:1 357:1 360:1 364:1 374:1 375:1 390:1 392:1 393:1 400:1 406:1 409:1 411:1 428:1 434:1 440:1 457:1 475:1 478:1 480:1 485:1 488:1 490:1 496:1 498:1 553:1 564:1 575:1 595:1 645:1 651:1 664:1 709:1 717:1 723:1 724:1 743:1 756:1 758:1 766:1 767:1 774:1 777:1 800:1 806:1 863:1 905:1 922:1 946:1 951:1 972:1 1085:1 1119:1 1140:1 1147:1 1173:1 1228:1 1275:1 1365:1 1458:1 1485:1 1502:1 1514:1 1576:1 1620:1 1653:1 1668:1 1755:1 1819:1 1824:1 1861:1 1916:1 1920:1 1991:1 2053:1 2061:1 2067:1 2107:1 2134:1 2167:1 2222:1 2300:1 2378:1 2385:1 2404:1 2486:1 2534:1 2562:1 2584:1 2700:1 2705:1 2737:1 2859:1 2898:1 2908:1 2967:1 2968:1 2990:1 3068:1 3088:1 3100:1 3130:1 3245:1 3248:1 3335:1 3489:1 3724:1 3744:1 3801:1 3826:1 3869:1 3936:1 3965:1 4052:1 4237:1 4366:1 4475:1 4731:1 4782:1 4852:1 4884:1 4961:1 4992:1 5001:1 5013:1 5420:1 5467:1 5478:1 5832:1 5913:1 6002:1 6068:1 6095:1 6194:1 6258:1 6581:1 6594:1 6609:1 6693:1 6883:1 7056:1 7519:1 7822:1 7921:1 8304:1 8646:1 9398:1 9667:1 10037:1 10251:1 #
-0.0044975777317762932056011138115537 1:1 6:1 8:1 10:1 11:1 12:1 14:1 15:1 16:1 17:1 19:1 20:1 22:1 24:1 25:1 29:1 30:1 31:1 33:1 34:1 35:1 36:1 39:1 41:1 45:1 48:1 49:1 50:1 51:1 53:1 55:1 56:1 57:1 60:1 62:1 63:1 66:1 68:1 73:1 81:1 82:1 87:1 89:1 90:1 96:1 98:1 102:1 103:1 105:1 116:1 128:1 131:1 137:1 140:1 148:1 150:1 158:1 161:1 168:1 199:1 202:1 209:1 213:1 215:1 219:1 226:1 227:1 230:1 235:1 236:1 244:1 245:1 248:1 249:1 251:1 270:1 280:1 287:1 295:1 307:1 308:1 312:1 313:1 325:1 331:1 333:1 334:1 375:1 388:1 395:1 416:1 420:1 426:1 427:1 430:1 434:1 435:1 436:1 457:1 460:1 473:1 475:1 478:1 483:1 499:1 508:1 510:1 533:1 566:1 583:1 594:1 601:1 606:1 628:1 630:1 641:1 645:1 649:1 657:1 670:1 671:1 725:1 758:1 762:1 767:1 768:1 832:1 843:1 850:1 863:1 866:1 889:1 891:1 894:1 912:1 930:1 932:1 988:1 1012:1 1056:1 1089:1 1102:1 1128:1 1138:1 1169:1 1205:1 1254:1 1374:1 1377:1 1423:1 1476:1 1504:1 1568:1 1573:1 1621:1 1664:1 1666:1 1742:1 1771:1 1791:1 1799:1 1969:1 1972:1 2016:1 2055:1 2104:1 2168:1 2211:1 2317:1 2375:1 2452:1 2488:1 2573:1 2588:1 2615:1 2662:1 2706:1 2740:1 2793:1 2808:1 2903:1 2904:1 2983:1 3059:1 3085:1 3118:1 3119:1 3190:1 3207:1 3430:1 3438:1 3591:1 3690:1 3775:1 3801:1 3845:1 3858:1 3966:1 3967:1 4029:1 4251:1 4384:1 4440:1 4482:1 4542:1 4585:1 4764:1 4873:1 5502:1 5561:1 5825:1 6068:1 6625:1 6892:1 7005:1 7198:1 7237:1 7278:1 7435:1 7505:1 7703:1 7812:1 8081:1 8133:1 8211:1 8271:1 9004:1 9126:1 9360:1 9601:1 9878:1 10130:1 10153:1 10634:1 #
-0.0044975777317762932056011138115537 1:1 4:1 5:1 7:1 8:1 12:1 13:1 15:1 17:1 18:1 20:1 22:1 24:1 25:1 27:1 30:1 31:1 32:1 34:1 36:1 39:1 42:1 43:1 44:1 48:1 49:1 51:1 54:1 56:1 59:1 62:1 63:1 66:1 67:1 73:1 79:1 80:1 84:1 90:1 94:1 102:1 103:1 104:1 106:1 114:1 115:1 117:1 119:1 120:1 122:1 124:1 131:1 138:1 142:1 143:1 146:1 148:1 156:1 158:1 159:1 163:1 168:1 174:1 179:1 199:1 202:1 204:1 205:1 218:1 221:1 226:1 230:1 232:1 233:1 235:1 236:1 238:1 241:1 244:1 245:1 246:1 266:1 270:1 276:1 277:1 293:1 301:1 323:1 326:1 341:1 357:1 364:1 370:1 374:1 377:1 385:1 387:1 417:1 426:1 432:1 435:1 436:1 452:1 453:1 460:1 466:1 472:1 475:1 480:1 482:1 486:1 533:1 544:1 548:1 566:1 575:1 598:1 601:1 609:1 628:1 630:1 639:1 640:1 642:1 653:1 670:1 671:1 702:1 717:1 724:1 725:1 755:1 767:1 785:1 799:1 806:1 815:1 817:1 819:1 899:1 905:1 912:1 930:1 946:1 955:1 986:1 1004:1 1008:1 1012:1 1015:1 1048:1 1056:1 1058:1 1074:1 1090:1 1096:1 1098:1 1122:1 1137:1 1139:1 1150:1 1161:1 1173:1 1211:1 1279:1 1284:1 1397:1 1439:1 1444:1 1458:1 1471:1 1476:1 1483:1 1510:1 1516:1 1534:1 1536:1 1568:1 1591:1 1626:1 1639:1 1649:1 1650:1 1652:1 1666:1 1720:1 1771:1 1792:1 1797:1 1888:1 1916:1 1985:1 2062:1 2064:1 2134:1 2145:1 2173:1 2177:1 2183:1 2190:1 2216:1 2255:1 2271:1 2277:1 2369:1 2372:1 2396:1 2421:1 2423:1 2453:1 2454:1 2503:1 2561:1 2599:1 2609:1 2614:1 2631:1 2793:1 2813:1 2875:1 2908:1 2990:1 3006:1 3015:1 3040:1 3053:1 3078:1 3098:1 3105:1 3120:1 3121:1 3172:1 3239:1 3300:1 3316:1 3434:1 3614:1 3668:1 3680:1 3801:1 3839:1 3853:1 3858:1 3883:1 3924:1 3932:1 3960:1 4337:1 4399:1 4503:1 4586:1 4658:1 4735:1 4908:1 4921:1 4935:1 5039:1 5082:1 5101:1 5163:1 5208:1 5267:1 5349:1 5358:1 5463:1 5505:1 5511:1 5588:1 5625:1 5632:1 5688:1 5714:1 5961:1 6033:1 6110:1 6167:1 6188:1 6195:1 6314:1 6360:1 6378:1 6675:1 6686:1 6755:1 6757:1 6836:1 6841:1 6868:1 6897:1 6913:1 7039:1 7085:1 7149:1 7310:1 7514:1 7604:1 7652:1 7656:1 7691:1 7918:1 7933:1 7980:1 8032:1 8130:1 8144:1 8174:1 8222:1 8323:1 8361:1 8490:1 8501:1 8948:1 9137:1 9201:1 9270:1 9302:1 9343:1 9360:1 9705:1 9733:1 9963:1 10133:1 10324:1 10403:1 10580:1 #
-0.0044975777317762932056011138115537 1:1 2:1 4:1 11:1 12:1 14:1 15:1 16:1 17:1 18:1 19:1 20:1 21:1 22:1 23:1 24:1 25:1 27:1 29:1 30:1 31:1 34:1 36:1 41:1 42:1 43:1 48:1 51:1 56:1 60:1 62:1 63:1 65:1 66:1 67:1 69:1 73:1 84:1 90:1 94:1 96:1 98:1 99:1 101:1 102:1 103:1 104:1 106:1 114:1 115:1 124:1 126:1 128:1 130:1 135:1 153:1 158:1 168:1 169:1 170:1 174:1 179:1 181:1 187:1 195:1 196:1 199:1 202:1 205:1 216:1 217:1 218:1 220:1 227:1 230:1 231:1 234:1 235:1 244:1 250:1 252:1 260:1 265:1 266:1 270:1 273:1 278:1 283:1 285:1 295:1 333:1 336:1 337:1 341:1 346:1 355:1 357:1 373:1 383:1 399:1 401:1 403:1 406:1 408:1 434:1 440:1 465:1 472:1 480:1 495:1 510:1 581:1 608:1 612:1 618:1 630:1 632:1 636:1 649:1 696:1 698:1 719:1 743:1 755:1 758:1 773:1 785:1 789:1 790:1 798:1 800:1 813:1 816:1 857:1 863:1 874:1 882:1 884:1 899:1 912:1 928:1 932:1 945:1 964:1 1005:1 1008:1 1009:1 1080:1 1093:1 1100:1 1138:1 1147:1 1173:1 1189:1 1258:1 1374:1 1428:1 1441:1 1450:1 1487:1 1520:1 1532:1 1549:1 1580:1 1591:1 1626:1 1650:1 1655:1 1666:1 1704:1 1789:1 1843:1 1853:1 1890:1 1894:1 1901:1 1947:1 1949:1 1977:1 2011:1 2097:1 2154:1 2177:1 2194:1 2224:1 2257:1 2311:1 2362:1 2368:1 2373:1 2396:1 2418:1 2421:1 2440:1 2573:1 2585:1 2599:1 2684:1 2749:1 2793:1 2797:1 2821:1 2850:1 2912:1 2959:1 2962:1 3040:1 3043:1 3068:1 3071:1 3097:1 3098:1 3100:1 3120:1 3126:1 3207:1 3242:1 3341:1 3391:1 3436:1 3668:1 3680:1 3691:1 3714:1 3723:1 3749:1 3779:1 3783:1 3932:1 4055:1 4202:1 4230:1 4302:1 4330:1 4442:1 4575:1 5001:1 5002:1 5066:1 5123:1 5210:1 5215:1 5267:1 5420:1 5560:1 5612:1 5655:1 5705:1 5737:1 5764:1 5913:1 6007:1 6187:1 6232:1 6332:1 6347:1 6396:1 6442:1 6535:1 7039:1 7258:1 7485:1 7519:1 7684:1 7856:1 7921:1 7925:1 7948:1 8158:1 8327:1 8474:1 8598:1 8960:1 8961:1 9196:1 9261:1 9335:1 9342:1 9560:1 9781:1 9961:1 9983:1 10292:1 10327:1 10365:1 10460:1 10551:1 #
-0.0044975777317762932056011138115537 1:1 5:1 7:1 11:1 12:1 13:1 15:1 16:1 17:1 18:1 20:1 22:1 24:1 25:1 27:1 29:1 30:1 31:1 32:1 34:1 36:1 45:1 49:1 50:1 51:1 54:1 57:1 66:1 73:1 82:1 84:1 90:1 94:1 98:1 102:1 104:1 106:1 107:1 114:1 117:1 123:1 130:1 131:1 137:1 146:1 159:1 161:1 165:1 168:1 172:1 174:1 202:1 215:1 223:1 227:1 230:1 232:1 233:1 236:1 245:1 251:1 264:1 265:1 266:1 268:1 277:1 279:1 286:1 312:1 314:1 321:1 333:1 357:1 364:1 367:1 374:1 375:1 382:1 398:1 407:1 408:1 417:1 434:1 436:1 460:1 475:1 478:1 480:1 554:1 566:1 594:1 630:1 645:1 671:1 702:1 709:1 724:1 725:1 728:1 742:1 755:1 758:1 761:1 767:1 789:1 860:1 863:1 891:1 899:1 905:1 1027:1 1056:1 1093:1 1099:1 1107:1 1118:1 1131:1 1142:1 1279:1 1414:1 1439:1 1481:1 1483:1 1506:1 1557:1 1591:1 1626:1 1650:1 1666:1 1720:1 1740:1 1808:1 1933:1 1985:1 2064:1 2134:1 2157:1 2306:1 2378:1 2512:1 2709:1 2793:1 2824:1 2860:1 2967:1 3068:1 3239:1 3271:1 3287:1 3552:1 3680:1 3959:1 3965:1 4066:1 4212:1 4568:1 4608:1 4735:1 5014:1 5045:1 5387:1 5431:1 5894:1 6448:1 6808:1 6913:1 7044:1 8219:1 8501:1 8538:1 8984:1 9084:1 9858:1 10396:1 10493:1 10669:1 #
-0.0037955684056872962886530764592408 1:1 2:1 3:1 5:1 6:1 10:1 11:1 15:1 16:1 17:1 18:1 20:1 21:1 22:1 23:1 24:1 25:1 29:1 30:1 33:1 34:1 36:1 37:1 39:1 41:1 44:1 50:1 52:1 54:1 56:1 57:1 59:1 60:1 62:1 64:1 66:1 67:1 69:1 73:1 76:1 78:1 80:1 82:1 84:1 87:1 94:1 98:1 100:1 101:1 102:1 104:1 105:1 114:1 115:1 117:1 124:1 130:1 131:1 137:1 143:1 147:1 148:1 150:1 161:1 162:1 165:1 169:1 174:1 199:1 214:1 216:1 217:1 224:1 227:1 229:1 232:1 233:1 236:1 237:1 242:1 245:1 248:1 263:1 277:1 283:1 295:1 307:1 308:1 310:1 312:1 326:1 328:1 337:1 349:1 350:1 357:1 385:1 388:1 392:1 396:1 404:1 408:1 417:1 430:1 434:1 452:1 466:1 471:1 472:1 481:1 482:1 491:1 495:1 496:1 499:1 526:1 553:1 566:1 594:1 601:1 606:1 617:1 629:1 630:1 636:1 640:1 641:1 642:1 649:1 651:1 670:1 759:1 762:1 768:1 775:1 780:1 789:1 797:1 821:1 840:1 850:1 875:1 902:1 912:1 943:1 989:1 1005:1 1009:1 1042:1 1067:1 1090:1 1150:1 1151:1 1205:1 1228:1 1372:1 1374:1 1378:1 1392:1 1441:1 1447:1 1481:1 1485:1 1489:1 1506:1 1556:1 1567:1 1580:1 1605:1 1612:1 1620:1 1626:1 1716:1 1736:1 1771:1 1789:1 1809:1 1819:1 1824:1 1851:1 1869:1 1959:1 1982:1 2022:1 2043:1 2084:1 2095:1 2120:1 2123:1 2178:1 2193:1 2291:1 2309:1 2368:1 2372:1 2606:1 2729:1 2801:1 2934:1 2935:1 3005:1 3043:1 3104:1 3172:1 3245:1 3308:1 3330:1 3436:1 3649:1 3654:1 3761:1 3898:1 3988:1 4055:1 4200:1 4285:1 4314:1 4631:1 4764:1 4916:1 4964:1 5123:1 5544:1 5604:1 5616:1 5641:1 5645:1 5673:1 5817:1 6062:1 6375:1 6566:1 6779:1 7117:1 7506:1 7754:1 7871:1 8016:1 8125:1 8173:1 8250:1 8327:1 8571:1 8851:1 9023:1 9253:1 9303:1 9700:1 9821:1 10463:1 #
0.0022335850812486568450765389570734 1:1 2:1 5:1 7:1 9:1 10:1 11:1 12:1 13:1 15:1 18:1 19:1 20:1 22:1 23:1 24:1 25:1 26:1 30:1 31:1 32:1 35:1 36:1 38:1 40:1 45:1 46:1 51:1 52:1 53:1 54:1 59:1 62:1 63:1 69:1 73:1 75:1 77:1 86:1 90:1 99:1 106:1 107:1 115:1 118:1 126:1 131:1 134:1 138:1 154:1 155:1 159:1 160:1 167:1 170:1 171:1 173:1 183:1 186:1 190:1 194:1 197:1 200:1 207:1 216:1 217:1 220:1 224:1 225:1 228:1 230:1 234:1 238:1 242:1 255:1 266:1 273:1 278:1 282:1 295:1 300:1 308:1 344:1 352:1 356:1 385:1 402:1 410:1 415:1 419:1 420:1 460:1 469:1 472:1 475:1 502:1 543:1 549:1 553:1 606:1 608:1 630:1 641:1 644:1 658:1 674:1 676:1 698:1 741:1 749:1 751:1 761:1 795:1 807:1 831:1 855:1 878:1 889:1 893:1 911:1 918:1 947:1 949:1 972:1 1018:1 1032:1 1037:1 1164:1 1170:1 1182:1 1230:1 1231:1 1310:1 1365:1 1369:1 1370:1 1398:1 1411:1 1439:1 1459:1 1462:1 1475:1 1492:1 1505:1 1516:1 1534:1 1556:1 1568:1 1586:1 1662:1 1666:1 1720:1 1726:1 1761:1 1797:1 1808:1 1938:1 1981:1 1999:1 2016:1 2033:1 2192:1 2194:1 2252:1 2267:1 2339:1 2492:1 2503:1 2538:1 2542:1 2603:1 2628:1 2722:1 2754:1 2786:1 2793:1 2805:1 2969:1 3015:1 3099:1 3123:1 3195:1 3235:1 3237:1 3239:1 3315:1 3447:1 3463:1 3648:1 3719:1 3727:1 3983:1 3994:1 4017:1 4078:1 4172:1 4344:1 4418:1 4624:1 4894:1 4914:1 5077:1 5115:1 5347:1 5354:1 5429:1 5562:1 5601:1 5747:1 5797:1 5816:1 5933:1 5963:1 5967:1 6177:1 6360:1 6515:1 6803:1 6831:1 7077:1 7402:1 7412:1 7597:1 7760:1 7768:1 8319:1 8378:1 8422:1 8846:1 8914:1 8945:1 9045:1 9146:1 9254:1 9321:1 9412:1 9975:1 10110:1 10181:1 10237:1 10305:1 10503:1 10559:1 10677:1 #
0.0044975777317762932056011138115537 2:1 4:1 7:1 8:1 9:1 12:1 13:1 15:1 17:1 18:1 22:1 23:1 24:1 25:1 26:1 29:1 30:1 31:1 35:1 36:1 38:1 39:1 40:1 43:1 46:1 51:1 53:1 59:1 63:1 65:1 67:1 73:1 74:1 82:1 84:1 91:1 94:1 96:1 98:1 102:1 104:1 106:1 114:1 116:1 117:1 118:1 129:1 149:1 154:1 157:1 159:1 161:1 167:1 170:1 171:1 173:1 174:1 177:1 186:1 187:1 190:1 196:1 197:1 199:1 200:1 202:1 207:1 212:1 213:1 215:1 216:1 220:1 221:1 230:1 233:1 234:1 235:1 236:1 245:1 255:1 260:1 264:1 270:1 273:1 275:1 277:1 278:1 282:1 297:1 304:1 325:1 329:1 335:1 344:1 347:1 353:1 356:1 365:1 388:1 391:1 401:1 410:1 414:1 416:1 426:1 428:1 432:1 452:1 472:1 480:1 488:1 490:1 510:1 549:1 561:1 581:1 595:1 642:1 645:1 651:1 653:1 658:1 693:1 709:1 749:1 757:1 758:1 771:1 780:1 792:1 802:1 803:1 804:1 819:1 840:1 845:1 847:1 865:1 867:1 891:1 899:1 908:1 912:1 922:1 929:1 932:1 939:1 947:1 965:1 974:1 986:1 1002:1 1004:1 1005:1 1027:1 1042:1 1067:1 1092:1 1099:1 1167:1 1170:1 1189:1 1230:1 1305:1 1310:1 1371:1 1397:1 1411:1 1430:1 1432:1 1439:1 1441:1 1442:1 1455:1 1471:1 1495:1 1556:1 1567:1 1586:1 1591:1 1649:1 1937:1 1972:1 1999:1 2005:1 2033:1 2104:1 2175:1 2192:1 2194:1 2229:1 2237:1 2280:1 2300:1 2305:1 2339:1 2363:1 2373:1 2455:1 2603:1 2718:1 2722:1 2959:1 3066:1 3129:1 3196:1 3237:1 3293:1 3354:1 3402:1 3552:1 3597:1 3604:1 3680:1 3685:1 3708:1 3981:1 4017:1 4029:1 4125:1 4147:1 4160:1 4312:1 4331:1 4344:1 4350:1 4381:1 4472:1 4601:1 4658:1 4735:1 4770:1 4780:1 4913:1 4994:1 5072:1 5104:1 5164:1 5345:1 5354:1 5358:1 5402:1 5429:1 5488:1 5588:1 5612:1 5711:1 5737:1 5759:1 5770:1 5800:1 5816:1 5833:1 5908:1 5925:1 5933:1 5938:1 5964:1 5967:1 5984:1 6063:1 6177:1 6205:1 6207:1 6211:1 6351:1 6360:1 6417:1 6432:1 6773:1 6822:1 6825:1 6989:1 7298:1 7380:1 7403:1 7412:1 7466:1 7490:1 7496:1 7509:1 7527:1 7564:1 7624:1 7842:1 7876:1 7912:1 8042:1 8077:1 8178:1 8371:1 8589:1 8603:1 8729:1 8777:1 8779:1 8797:1 8810:1 8899:1 8920:1 9014:1 9045:1 9064:1 9146:1 9147:1 9173:1 9246:1 9339:1 9554:1 9573:1 9630:1 9791:1 9965:1 10141:1 10222:1 10324:1 10383:1 10519:1 10577:1 10580:1 10586:1 #
0.0026591662949451934025435484443278 4:1 5:1 8:1 10:1 11:1 12:1 13:1 14:1 16:1 18:1 20:1 23:1 24:1 25:1 26:1 29:1 30:1 32:1 34:1 36:1 38:1 39:1 40:1 42:1 46:1 47:1 50:1 51:1 52:1 62:1 65:1 66:1 67:1 69:1 71:1 72:1 73:1 79:1 81:1 83:1 84:1 86:1 91:1 94:1 95:1 99:1 102:1 104:1 106:1 107:1 114:1 120:1 125:1 126:1 127:1 129:1 137:1 138:1 142:1 146:1 147:1 153:1 155:1 158:1 167:1 168:1 169:1 170:1 171:1 181:1 186:1 187:1 199:1 202:1 207:1 216:1 217:1 221:1 227:1 228:1 230:1 231:1 232:1 234:1 241:1 242:1 244:1 245:1 251:1 255:1 260:1 265:1 272:1 273:1 275:1 277:1 278:1 279:1 282:1 285:1 291:1 293:1 297:1 312:1 315:1 316:1 318:1 325:1 328:1 335:1 341:1 345:1 350:1 351:1 364:1 365:1 370:1 383:1 397:1 407:1 408:1 410:1 416:1 425:1 440:1 452:1 463:1 478:1 495:1 497:1 502:1 509:1 533:1 566:1 581:1 601:1 606:1 608:1 614:1 628:1 644:1 676:1 702:1 716:1 750:1 755:1 757:1 758:1 769:1 773:1 777:1 788:1 789:1 806:1 807:1 837:1 851:1 854:1 857:1 867:1 869:1 874:1 882:1 902:1 928:1 936:1 945:1 947:1 982:1 989:1 1005:1 1009:1 1067:1 1092:1 1094:1 1118:1 1173:1 1185:1 1230:1 1258:1 1376:1 1414:1 1416:1 1428:1 1434:1 1441:1 1446:1 1476:1 1502:1 1534:1 1550:1 1568:1 1572:1 1591:1 1650:1 1705:1 1743:1 1842:1 1845:1 1906:1 1939:1 2005:1 2078:1 2150:1 2183:1 2194:1 2210:1 2228:1 2292:1 2372:1 2396:1 2418:1 2440:1 2486:1 2584:1 2616:1 2622:1 2631:1 2648:1 2675:1 2682:1 2715:1 2774:1 2826:1 2860:1 2912:1 2918:1 3029:1 3077:1 3098:1 3100:1 3196:1 3283:1 3335:1 3368:1 3436:1 3461:1 3487:1 3620:1 3629:1 3649:1 3705:1 3745:1 3936:1 4029:1 4224:1 4233:1 4268:1 4341:1 4472:1 4506:1 4587:1 4611:1 4624:1 4731:1 4781:1 4959:1 5002:1 5070:1 5395:1 5604:1 5747:1 5782:1 6014:1 6021:1 6303:1 6315:1 6416:1 6530:1 6783:1 6974:1 7034:1 7076:1 7419:1 7684:1 7854:1 7855:1 8401:1 8435:1 9188:1 9196:1 9404:1 9657:1 9708:1 10267:1 10565:1 10723:1 #
0.0044975777317762932056011138115537 1:1 2:1 4:1 8:1 9:1 13:1 16:1 18:1 22:1 23:1 25:1 27:1 28:1 30:1 34:1 35:1 36:1 41:1 42:1 52:1 53:1 59:1 60:1 61:1 62:1 66:1 67:1 71:1 72:1 74:1 76:1 77:1 78:1 80:1 83:1 84:1 89:1 95:1 99:1 101:1 102:1 103:1 104:1 106:1 111:1 112:1 115:1 116:1 120:1 129:1 130:1 131:1 132:1 134:1 136:1 138:1 146:1 147:1 149:1 152:1 163:1 170:1 187:1 194:1 196:1 200:1 221:1 226:1 232:1 239:1 244:1 252:1 266:1 268:1 275:1 277:1 278:1 299:1 307:1 308:1 321:1 328:1 331:1 333:1 335:1 337:1 338:1 343:1 365:1 381:1 383:1 391:1 408:1 410:1 411:1 424:1 425:1 434:1 435:1 436:1 438:1 449:1 451:1 458:1 478:1 490:1 524:1 526:1 583:1 598:1 600:1 602:1 608:1 614:1 659:1 668:1 670:1 695:1 725:1 758:1 809:1 817:1 820:1 868:1 878:1 881:1 958:1 964:1 972:1 977:1 987:1 996:1 1062:1 1067:1 1149:1 1161:1 1164:1 1165:1 1173:1 1232:1 1234:1 1275:1 1280:1 1283:1 1383:1 1425:1 1439:1 1458:1 1506:1 1513:1 1514:1 1609:1 1641:1 1649:1 1692:1 1704:1 1720:1 1724:1 1750:1 1817:1 1827:1 1938:1 2034:1 2150:1 2184:1 2357:1 2415:1 2442:1 2484:1 2492:1 2588:1 2786:1 2824:1 2909:1 3004:1 3006:1 3015:1 3187:1 3282:1 3304:1 3319:1 3501:1 3511:1 3700:1 3709:1 3726:1 3759:1 3842:1 3868:1 4001:1 4015:1 4146:1 4194:1 4218:1 4231:1 4296:1 4482:1 4599:1 4714:1 4845:1 4911:1 4973:1 5039:1 5092:1 5115:1 5222:1 5434:1 5439:1 5469:1 5593:1 5799:1 5831:1 6049:1 6295:1 6403:1 6941:1 7019:1 7046:1 7352:1 7416:1 8115:1 8658:1 8724:1 8779:1 8915:1 9088:1 9223:1 9728:1 9884:1 #
